{"mlp_extractor.policy_net.0.weight": [[-0.11609776318073273, -0.1251232922077179, 0.25750571489334106, -0.1704425811767578, -0.7767037749290466, -0.853987991809845, 0.03806086629629135, 0.01696409471333027], [-0.0037607988342642784, 0.1876944601535797, 0.04374312981963158, -0.8738939762115479, 0.41610586643218994, -0.02307881973683834, -0.06959409266710281, -0.352271169424057], [0.2339564859867096, 0.0166494008153677, -0.21306876838207245, -0.708207905292511, -0.06224752217531204, -0.3234606683254242, 0.22567056119441986, 0.17922618985176086], [0.20759686827659607, 0.10009965300559998, -0.2770965099334717, 0.8003895878791809, 0.13477766513824463, -0.08647231757640839, 0.08943434059619904, 0.05457266420125961], [-0.12874789535999298, -0.3358915448188782, -0.06240644305944443, -0.2425270825624466, 0.999449610710144, 0.4655570089817047, -0.1036299616098404, -0.007951673120260239], [-0.14304327964782715, 0.07898426055908203, -0.3492787778377533, 0.39588552713394165, 0.4224287271499634, 0.765142023563385, 0.134614035487175, 0.10797170549631119], [-0.2592155933380127, 0.03746003657579422, 0.0342591218650341, 0.8471024036407471, 0.0032342197373509407, -0.08467437326908112, 0.08267131447792053, 0.09991343319416046], [0.04158208519220352, -0.007185507565736771, -0.270370215177536, 0.7881178259849548, 0.5347191691398621, 0.10186585038900375, 0.00650238199159503, 0.023159854114055634], [0.24846579134464264, -0.04030781239271164, 0.27416154742240906, -0.898953914642334, -0.42632585763931274, -0.2427414506673813, -0.16756100952625275, -0.1473415195941925], [-0.12634949386119843, -0.18550251424312592, -0.10595648735761642, 0.19939394295215607, 0.5697693228721619, 0.426766961812973, 0.1912536472082138, 0.25206151604652405], [-0.15164756774902344, 0.25191858410835266, 0.013081233017146587, -0.5424495339393616, 0.41977617144584656, -0.052011165767908096, -0.09881492704153061, 0.16681940853595734], [-0.05524405092000961, 0.09994322806596756, -0.06539607793092728, 0.03213224187493324, -0.6677885055541992, -0.35538235306739807, 0.047868289053440094, 0.07112263143062592], [0.031059227883815765, -0.3156639635562897, -0.26703935861587524, 0.1490323841571808, 1.0535290241241455, 0.21428310871124268, -0.17588135600090027, -0.035768669098615646], [-0.10204888880252838, 0.24164408445358276, 0.13285797834396362, 0.05233033373951912, -0.23311759531497955, 0.1481916606426239, 0.06501427292823792, -0.5035645961761475], [-0.0301679614931345, -0.015647316351532936, 0.004134050104767084, -0.6330684423446655, -0.21910274028778076, 0.261588990688324, 0.030418580397963524, -0.24022819101810455], [-0.07891827076673508, -0.11680709570646286, -0.24497324228286743, -0.30527040362358093, 0.04016023874282837, -0.6670392155647278, -0.03128577023744583, 0.010873285122215748], [-0.01730317622423172, 0.27802079916000366, 0.12583814561367035, -0.16341441869735718, -0.7625301480293274, -0.39950037002563477, -0.06428445130586624, -0.19089573621749878], [-0.15908397734165192, 0.008577409200370312, -0.14861352741718292, -0.48894646763801575, -0.7426453232765198, -0.25561922788619995, 0.29905280470848083, -0.17294758558273315], [0.1418507993221283, 0.2000734508037567, 0.012129108421504498, 0.8345150947570801, 0.2629605829715729, -0.043748389929533005, -0.0962100401520729, 0.005404296796768904], [0.2726764380931854, -0.045546211302280426, 0.17152108252048492, 0.06047980487346649, -0.5163184404373169, -0.3374525308609009, 0.18548685312271118, -0.2093311846256256], [0.14139047265052795, 0.09134195744991302, -0.11549092829227448, -0.7454585433006287, 0.012696180492639542, -0.318181574344635, -0.07526791095733643, 0.0323326550424099], [0.08348722755908966, 0.029536133632063866, -0.12677255272865295, 0.2735387682914734, -0.7431649565696716, -0.22919143736362457, -0.0859958678483963, -0.07906491309404373], [-0.4370356500148773, 0.006777023430913687, 0.06311187893152237, -0.4307301342487335, 0.2391037493944168, 0.2021607756614685, -0.35519057512283325, -0.24342720210552216], [0.20027990639209747, 0.4134524166584015, -0.24828115105628967, 0.4400342106819153, -0.5907903909683228, -0.3832935690879822, -0.015263539738953114, 0.18681600689888], [-0.053992725908756256, 0.02595287375152111, -0.42674070596694946, -0.48022735118865967, 0.7426497936248779, 0.34601739048957825, -0.03302455693483353, 0.1270195096731186], [0.15752042829990387, 0.06233717501163483, -0.05946139246225357, 0.4920671284198761, -0.06132136657834053, -0.08009277284145355, 0.2745402455329895, 0.1143135204911232], [-0.08766166865825653, -0.17615070939064026, 0.17559397220611572, 0.5489106774330139, -0.5578529238700867, -0.3375510573387146, 0.11052180081605911, -0.18945108354091644], [-0.21597233414649963, -0.1814904808998108, -0.23313109576702118, -0.5135044455528259, 0.17927159368991852, 0.05230828374624252, -0.31498587131500244, 0.06941310316324234], [-0.1639465093612671, 0.12887391448020935, -0.4901846647262573, 0.5947608947753906, 0.3154834806919098, 0.2767309546470642, 0.190667062997818, 0.12508803606033325], [0.07421019673347473, -0.14155252277851105, 0.11647587269544601, -0.5222972631454468, 0.36085301637649536, -0.03124445304274559, -0.009118672460317612, -0.2716839015483856], [0.18109306693077087, -0.09282186627388, -0.09691422432661057, -0.26128119230270386, 0.39419320225715637, 0.2502928376197815, -0.06581355631351471, -0.04964068531990051], [-0.07751013338565826, -0.06879393011331558, 0.35123392939567566, -0.7175557613372803, -0.6445134282112122, -0.09071798622608185, 0.016362855210900307, 0.046916663646698], [0.40865495800971985, -0.09218093007802963, -0.40334030985832214, 0.45574119687080383, -0.23517484962940216, 0.2737516760826111, 0.20244905352592468, 0.2567441761493683], [0.12606275081634521, -0.0682712122797966, -0.07162896543741226, 0.4767555594444275, 0.5602803826332092, 0.21066029369831085, -0.1160605177283287, -0.02236401103436947], [-0.049510084092617035, -0.06512131541967392, -0.11062119156122208, 0.4586431682109833, -0.7218347787857056, -0.3412010073661804, 0.26516398787498474, -0.015356303192675114], [0.08198858052492142, 0.19531361758708954, -0.3072485327720642, 0.36230042576789856, 0.529304563999176, 0.5353999137878418, -0.21993733942508698, 0.1421147733926773], [-0.17109014093875885, 0.14757993817329407, -0.037718020379543304, 0.4214637577533722, 0.6420280337333679, 0.30480650067329407, -0.04947459325194359, 0.2274674028158188], [-0.11905533075332642, -0.0030172006227076054, 0.029722897335886955, -0.7687976956367493, -0.3360363841056824, -0.33196794986724854, 0.06076314300298691, 0.006138013210147619], [0.1408557891845703, 0.21845898032188416, 0.24932602047920227, 0.40943771600723267, -0.19720762968063354, -0.2382606565952301, 0.2467680722475052, 0.020563889294862747], [-0.1811281442642212, -0.03298584371805191, 0.01810951717197895, -0.4995909631252289, -0.4491371810436249, -0.21717974543571472, 0.23134417831897736, 0.1585809588432312], [-0.32934805750846863, -0.1452166736125946, 0.10796725749969482, 0.3417879343032837, -0.6848428845405579, -0.3804839551448822, -0.10357928276062012, -0.03631472960114479], [0.19744925200939178, 0.057869601994752884, -0.1767149418592453, 0.6205086708068848, -0.5329228639602661, 0.3110154867172241, 0.19312457740306854, -0.20975886285305023], [0.07238873094320297, -0.08776794373989105, 0.15863046050071716, -0.27844110131263733, 0.45620986819267273, 0.20688636600971222, -0.3999573886394501, 0.145109161734581], [0.05587520822882652, 0.10953948646783829, 0.132231205701828, -0.3692108690738678, 0.16321150958538055, -0.11897974461317062, -0.22895367443561554, -0.20297954976558685], [-0.19692464172840118, 0.10026552528142929, 0.05879988148808479, -0.37455835938453674, 0.7020662426948547, 0.4417201280593872, 0.21785692870616913, 0.013841063715517521], [-0.08007411658763885, -0.06311047822237015, 0.13999581336975098, -0.3372069299221039, -0.48595893383026123, -0.23825326561927795, 0.22472703456878662, 0.16704733669757843], [-0.08858801424503326, 0.07167745381593704, -0.09950249642133713, -0.5652434229850769, 0.276138037443161, 0.1301131546497345, -0.17242611944675446, -0.7421061992645264], [-0.3279377520084381, -0.08432408422231674, -0.24704007804393768, -0.08075728267431259, 0.304801881313324, 0.08806721866130829, -0.1910419911146164, 0.03599392622709274], [-0.2587285041809082, 0.07320762425661087, 0.3412480652332306, 0.11603689938783646, -0.5311128497123718, -0.21988776326179504, 0.3374274671077728, -0.16957056522369385], [0.05659562721848488, -0.03475862368941307, -0.2863219082355499, 0.5989859104156494, 0.23978523910045624, 0.038692329078912735, -0.06108364835381508, -0.28269681334495544], [0.012770333327353, 0.01156871858984232, -0.01597852073609829, -0.004028287250548601, -0.6961410045623779, 0.025202004238963127, 0.31237003207206726, -0.188735231757164], [-0.18808521330356598, -0.16332700848579407, -0.15896691381931305, 0.25281238555908203, 0.7988904714584351, 0.18213492631912231, 0.23683151602745056, -0.009021769277751446], [-0.2712865471839905, 0.0497426874935627, 0.1852920800447464, 0.45773759484291077, -0.42335015535354614, -0.16565226018428802, 0.3755160868167877, -0.03426186740398407], [0.051570601761341095, -0.16935890913009644, 0.45693010091781616, -0.2799627184867859, -0.45024341344833374, -0.09440329670906067, -0.24768047034740448, -0.1079685315489769], [0.1528499573469162, 0.0585169680416584, 0.060797061771154404, -0.15695656836032867, 0.7471737265586853, 0.36405983567237854, 0.3418157994747162, -0.1084153950214386], [0.08352267742156982, 0.18785043060779572, 0.3188788890838623, -0.2322077602148056, -0.5080541968345642, -0.0859062448143959, 0.08791836351156235, 0.11945156753063202], [0.06753445416688919, -0.0662078931927681, -0.3733530640602112, -0.49447986483573914, 0.5479671955108643, 0.23913706839084625, 0.009845920838415623, 0.0636969655752182], [-0.0643068253993988, -0.20825186371803284, 0.23049508035182953, -0.007277810480445623, -0.896198034286499, -0.9498697519302368, 0.26970526576042175, -0.34441277384757996], [-0.08805187791585922, -0.08245012909173965, 0.11726437509059906, 0.34986817836761475, 0.6117588877677917, 0.4229051172733307, 0.2246096283197403, 0.33705735206604004], [0.275398313999176, -0.07074455916881561, -0.1537996381521225, -0.5792739391326904, 0.5056881308555603, 0.06947999447584152, -0.04103589430451393, 0.12037815898656845], [-0.18752193450927734, 0.14251156151294708, -0.05100708827376366, 0.49626338481903076, -0.014867962338030338, -0.1309472918510437, -0.2714097797870636, 0.26566749811172485], [-0.02691270224750042, 0.10929231345653534, -0.012745369225740433, -0.14173324406147003, -0.7751755118370056, -0.35832104086875916, -0.3882959187030792, -0.43966639041900635], [0.16896697878837585, -0.2185092270374298, 0.016832780092954636, 0.43071913719177246, -0.8361602425575256, 0.12646478414535522, 0.05354798957705498, 0.16322638094425201], [-0.08957628905773163, -0.06592857837677002, -0.16529126465320587, -0.4247420132160187, 0.6012336015701294, 0.25998571515083313, 0.1396695077419281, -0.3197931945323944]], "mlp_extractor.policy_net.0.bias": [0.03675069659948349, -0.04455731436610222, -0.04464709386229515, -0.010584191419184208, 0.0671115443110466, -0.023158906027674675, 0.004561149049550295, 0.009753874503076077, -0.002905584406107664, 0.016929756850004196, -0.019357427954673767, -0.02233918011188507, 0.07158180326223373, -0.02232225239276886, -0.008831203915178776, 0.053439728915691376, -0.04939800873398781, -0.04143432900309563, -0.02802315540611744, -0.008492874912917614, -0.010883644223213196, 0.03294753283262253, 0.009477377869188786, -0.030195651575922966, -0.007260883692651987, 0.0065933410078287125, 0.048756711184978485, 0.03418342024087906, -0.0039802417159080505, -0.024667300283908844, 0.00316234421916306, -0.01635580137372017, 0.027922162786126137, 0.009481220506131649, 0.0262756384909153, 0.006549576297402382, -0.02671057917177677, -0.03546339273452759, -0.03967934474349022, -0.06176306679844856, 0.03158639743924141, 0.020482661202549934, 0.01426761131733656, -0.029218729585409164, -0.036867812275886536, -0.007049432955682278, 0.0017776604508981109, 0.08308280259370804, -0.033882077783346176, 0.04217486083507538, -0.025984780862927437, 0.0077342926524579525, 0.006196719594299793, -0.008451426401734352, -0.06665671616792679, -0.06974678486585617, 0.0008809013525024056, 0.06097066029906273, 0.011789537966251373, 0.008107214234769344, 0.0047408053651452065, -0.0005422682734206319, 0.018787255510687828, 0.023915020748972893], "mlp_extractor.policy_net.2.weight": [[0.16635747253894806, -0.1619163602590561, 0.27942955493927, 0.13331834971904755, 0.20264744758605957, -0.009001648053526878, -0.08531776070594788, 0.17317727208137512, 0.11978351324796677, -0.13974308967590332, -0.4186508357524872, 0.059215664863586426, 0.019038725644350052, -0.17687106132507324, -0.21247950196266174, 0.38534989953041077, -0.09997139126062393, 0.01631675660610199, 0.4083259403705597, -0.1832740604877472, -0.09017955511808395, 0.1238166093826294, -0.22018229961395264, 0.046318452805280685, -0.10967440903186798, -0.21720993518829346, -0.2521060109138489, -0.26606011390686035, -0.09571947902441025, -0.3682052195072174, -0.2516826391220093, -0.03416208177804947, 0.07655005156993866, 0.1873513162136078, 0.12989135086536407, -0.16169391572475433, 0.4672829508781433, 0.04737449437379837, -0.1379527747631073, 0.1994609832763672, 0.09384496510028839, 0.23723828792572021, -0.13845320045948029, -0.12880444526672363, -0.003954279236495495, -0.05919860675930977, -0.17578595876693726, 0.045976895838975906, 0.2568797171115875, -0.06326967477798462, 0.10728611052036285, -0.09022597223520279, 0.2344723492860794, 0.33103448152542114, 0.043921347707509995, 0.13927802443504333, -0.014982500113546848, -0.02608964592218399, 0.003798103891313076, -0.07708469778299332, -0.19701306521892548, -0.13341595232486725, -0.029832568019628525, -0.30206772685050964], [-0.22615480422973633, 0.13259769976139069, -0.12481597065925598, -0.09355080127716064, 0.3156043291091919, 0.04544530063867569, 0.282016396522522, 0.403389036655426, -0.18200117349624634, 0.09747472405433655, 0.2510546147823334, 0.0267172884196043, 0.27442029118537903, 0.16220411658287048, 0.22948256134986877, -0.13858440518379211, -0.5639432668685913, -0.20838798582553864, 0.14869147539138794, -0.1014985665678978, -0.18471337854862213, -0.24878734350204468, -0.2808067202568054, 0.10876565426588058, 0.338557630777359, -0.28765472769737244, 0.04098973423242569, 0.11426432430744171, -0.2851628363132477, 0.12179054319858551, 0.0675894170999527, -0.24269971251487732, -0.15629979968070984, -0.0027351223398, -0.4077841341495514, 0.002980978926643729, 0.1436484456062317, -0.34205102920532227, -0.11898073554039001, 0.0598440058529377, -0.02316836267709732, -0.2751825749874115, 0.24455268681049347, 0.015962179750204086, 0.19828148186206818, 0.10566838085651398, -0.046071335673332214, 0.022512855008244514, -0.2751007676124573, 0.007160273380577564, -0.6720741987228394, -0.023200402036309242, -0.1816439926624298, -0.02741681970655918, 0.30237480998039246, -0.04101581126451492, 0.1273062378168106, -0.7299612760543823, -0.054175689816474915, 0.4362964332103729, -0.12973755598068237, -0.37308475375175476, -0.11489853262901306, 0.41030845046043396], [-0.4389651119709015, 0.1456940472126007, -0.36433908343315125, -0.00820054579526186, -0.16999685764312744, -0.14839547872543335, 0.17057067155838013, 0.13456007838249207, -0.4414590895175934, 0.1401083618402481, -0.13487400114536285, 0.046470921486616135, -0.08286263048648834, -0.17319737374782562, -0.5007325410842896, 0.09876696765422821, -0.07904446870088577, -0.3552279770374298, -0.1668822169303894, -0.21647319197654724, -0.09085239470005035, 0.251870334148407, -0.08677593618631363, 0.14254717528820038, 0.057817213237285614, -0.06463910639286041, 0.2795732319355011, 0.1329251080751419, -0.157532200217247, -0.21709220111370087, -0.12391836196184158, -0.41257742047309875, -0.06120143085718155, -0.12620927393436432, -0.059020861983299255, -0.019717048853635788, 0.5902202725410461, -0.32610979676246643, 0.12418689578771591, -0.20094038546085358, -0.03949856013059616, -0.03352184593677521, -0.1145031675696373, -0.20407401025295258, -0.34584298729896545, 0.0004202145792078227, -0.06285397708415985, 0.095564104616642, 0.18519386649131775, 0.31221330165863037, 0.2047046273946762, -0.11853041499853134, 0.16634048521518707, -0.025060368701815605, -0.060279730707407, -0.25536853075027466, -0.02341397851705551, -0.0492933914065361, -0.04079265892505646, -0.16459710896015167, 0.16929151117801666, 0.15794628858566284, 0.09895194321870804, 0.033177316188812256], [0.0238933227956295, 0.03607170283794403, -0.19832265377044678, 0.3166876435279846, 0.02573360502719879, 0.10999037325382233, -0.03564469888806343, 0.14709168672561646, -0.8210992813110352, 0.1576143056154251, 0.06411883980035782, -0.3287326693534851, 0.5061846375465393, 0.22315376996994019, -0.04396267235279083, 0.17106589674949646, -0.5005794167518616, -0.4719837009906769, 0.15405647456645966, 0.038604214787483215, -0.13505740463733673, -0.33353811502456665, 0.057137228548526764, -0.37189003825187683, -0.13377098739147186, 0.21705397963523865, -0.1221628189086914, -0.07754740118980408, 0.09775564819574356, -0.1688210517168045, 0.4246111810207367, -0.17743003368377686, -0.11960911750793457, 0.0931503176689148, -0.08654267340898514, 0.08946660906076431, 0.43664097785949707, -0.4653683304786682, 0.051991891115903854, -0.2648968994617462, -0.04115204140543938, 0.10777373611927032, -0.11133217066526413, 0.009873051196336746, 0.08985409140586853, -0.3227493166923523, -0.10719457268714905, -0.2225920706987381, -0.005071278661489487, 0.331449955701828, -0.2039840817451477, 0.2022118866443634, -0.04964999854564667, -0.24188807606697083, 0.1401340663433075, -0.0330461710691452, 0.11926035583019257, -0.32254302501678467, 0.21468836069107056, 0.08086267113685608, 0.27454835176467896, -0.13976895809173584, -0.24583186209201813, -0.13130182027816772], [-0.04809452220797539, 0.2067042589187622, 0.2587171196937561, -0.5373649001121521, 0.15432128310203552, -0.15722504258155823, -0.10482996702194214, -0.1681380420923233, -0.0557270348072052, 0.07265647500753403, 0.014356073923408985, 0.007239108439534903, -0.17311206459999084, -0.18406763672828674, 0.1831430196762085, 0.15961499512195587, -0.15001635253429413, 0.016452208161354065, -0.23037466406822205, -0.10912245512008667, -0.004304871428757906, -0.13976630568504333, 0.2589277923107147, -0.23217669129371643, 0.35303476452827454, -0.14670903980731964, -0.41868433356285095, 0.1753142923116684, 0.06482069939374924, -0.03346811234951019, -0.018021222203969955, 0.2798819839954376, 0.5104978084564209, 0.16781772673130035, -0.11253152787685394, 0.17407236993312836, -0.06979497522115707, 0.23949509859085083, -0.19135713577270508, 0.13267135620117188, -0.0648442804813385, -0.3966403305530548, 0.3654654026031494, -0.020354019477963448, -0.0985557958483696, 0.18092413246631622, 0.2291780710220337, -0.04415261745452881, 0.08497294783592224, 0.021432965993881226, -0.35809391736984253, 0.22098569571971893, -0.46918538212776184, -0.07556530833244324, 0.4189462959766388, -0.20212839543819427, 0.3957524597644806, -0.20724472403526306, -0.012236741371452808, 0.39624136686325073, 0.08212796598672867, -0.09704195708036423, -0.6654465198516846, 0.3261919617652893], [-0.27059248089790344, -0.3268086016178131, -0.0180662889033556, 0.27729812264442444, 0.0071572111919522285, 0.29062002897262573, 0.4071027934551239, 0.6230916380882263, -0.3082398772239685, 0.28194767236709595, -0.10349465906620026, 0.1667165458202362, 0.3916182518005371, -0.18521511554718018, 0.1484144926071167, -0.0007478190818801522, 0.2976181209087372, -0.40109485387802124, 0.17197345197200775, -0.12898804247379303, -0.08936818689107895, -0.023157313466072083, -0.01572389155626297, 0.09741450101137161, 0.1403132975101471, 0.2158190757036209, 0.06495512276887894, -0.14893920719623566, 0.009707855060696602, 0.06904581189155579, 0.1745726317167282, 0.05686531588435173, 0.3221622407436371, 0.0798252522945404, -0.23252323269844055, 0.08851103484630585, 0.3116009831428528, -0.06728525459766388, -0.016953356564044952, -0.2975582182407379, -0.39580076932907104, 0.22776010632514954, 0.01930161565542221, -0.22587108612060547, 0.045424651354551315, 0.09726399183273315, -0.037905652076005936, 0.07049769908189774, 0.2837938666343689, 0.09424947947263718, -0.002565412549301982, 0.06708357483148575, -0.09789949655532837, -0.23509031534194946, -0.09564691036939621, -0.18635053932666779, -0.14833785593509674, -0.2682535648345947, 0.1576191782951355, 0.04453505203127861, 0.1170651763677597, -0.3255382478237152, 0.1667426973581314, -0.46739640831947327], [-0.0140928253531456, -0.1820729523897171, 0.1593809723854065, 0.18052394688129425, 0.020865170285105705, -0.11615917086601257, -0.017028115689754486, 0.27050846815109253, -0.1987287700176239, 0.4724839925765991, -0.005875634029507637, 0.1907908320426941, -0.07254999130964279, -0.16367840766906738, -0.08516906946897507, -0.20255853235721588, 0.31356531381607056, 0.26783767342567444, 0.0958494171500206, -0.22433215379714966, -0.1565244048833847, 0.36538219451904297, -0.22875961661338806, 0.21550340950489044, -0.2978391647338867, 0.11627552658319473, 0.08304262161254883, 0.006122948601841927, 0.26359888911247253, 0.08054421097040176, -0.06487716734409332, -0.25712960958480835, -0.03858958184719086, 0.11042430996894836, -0.014338791370391846, -0.1275017410516739, 0.06450731307268143, -0.34169089794158936, 0.09687960147857666, -0.25269651412963867, 0.10560724884271622, 0.2230115681886673, -0.29886457324028015, -0.30419182777404785, -0.0029148615431040525, -0.28893768787384033, -0.3298945426940918, -0.3813228905200958, -0.06570777297019958, 0.46389272809028625, -0.22675450146198273, 0.2777504026889801, 0.22246448695659637, 0.19649213552474976, 0.14608745276927948, -0.23506362736225128, -0.06073762848973274, -0.06456153839826584, 0.0038749927189201117, -0.08673547953367233, 0.34860795736312866, -0.1948615163564682, -0.0457073338329792, -0.20624607801437378], [-0.14822770655155182, -0.0476679652929306, -0.13765834271907806, 0.08442189544439316, 0.3160202205181122, 0.260433554649353, 0.4098818004131317, 0.5586718916893005, -0.23795528709888458, -0.05335433408617973, -0.1836596429347992, -0.09696497768163681, 0.44775843620300293, 0.3117058277130127, 0.03871821612119675, -0.09961699694395065, 0.17089492082595825, -0.25133898854255676, 0.26062121987342834, -0.31291326880455017, -0.2971493601799011, 0.28728654980659485, -0.13994991779327393, 0.008020179346203804, -0.192283034324646, 0.2654021978378296, -0.026350921019911766, -0.01650073565542698, 0.07182734459638596, -0.26167410612106323, -0.1059475690126419, -0.5792635083198547, -0.09880851954221725, 0.3046764135360718, 0.2974679172039032, 0.14219830930233002, -0.02897426299750805, -0.6114790439605713, -0.12495080381631851, -0.08909402042627335, 0.0027238233014941216, -0.3162340521812439, -0.048373326659202576, -0.02927454374730587, -0.18882183730602264, -0.38037893176078796, -0.07575588673353195, -0.08800965547561646, 0.11124205589294434, 0.2883572280406952, 0.1797507107257843, 0.06894223392009735, -0.13402768969535828, -0.2619176506996155, -0.10670170187950134, -0.21098916232585907, -0.10173920542001724, -0.3731965720653534, 0.26805514097213745, -0.4753436744213104, 0.12922360002994537, 0.10303743183612823, -0.07522504031658173, -0.09625657647848129], [0.2975812554359436, -0.14377987384796143, -0.0645502582192421, -0.19334052503108978, -0.014399295672774315, -0.28469929099082947, 0.19433672726154327, -0.16029323637485504, -0.02712123654782772, -0.5300506353378296, 0.13740043342113495, 0.28301122784614563, -0.18504828214645386, 0.023883800953626633, 0.058928534388542175, 0.009845302440226078, -0.03291359916329384, 0.2708791494369507, 0.0928986668586731, 0.4700280725955963, -0.36266717314720154, 0.6543648838996887, -0.31272202730178833, 0.23135560750961304, -0.3849498927593231, 0.21427257359027863, 0.058001916855573654, -0.05864499881863594, -0.22527500987052917, -0.08636035770177841, -0.11868827790021896, 0.2998533248901367, -0.1458928883075714, -0.14788447320461273, 0.38110533356666565, -0.22950398921966553, -0.15408369898796082, 0.21399542689323425, 0.11785322427749634, -0.24054835736751556, 0.02248510904610157, 0.4846082925796509, -0.2772601544857025, 0.08830374479293823, -0.3645603358745575, 0.12309520691633224, 0.19329452514648438, 0.20071306824684143, 0.423755407333374, 0.17209994792938232, 0.28422775864601135, 0.0944354236125946, 0.13604214787483215, 0.09913328289985657, -0.045836687088012695, 0.21702994406223297, -0.42626291513442993, 0.42474445700645447, 0.15075133740901947, -0.3040865957736969, 0.33913514018058777, 0.16700831055641174, 0.31579625606536865, -0.1393345147371292], [0.03711201623082161, 0.2828271687030792, 0.09631552547216415, -0.29927337169647217, 0.07897046208381653, -0.26736685633659363, -0.25971630215644836, -0.027295565232634544, 0.3326434791088104, 0.19113625586032867, 0.33500275015830994, -0.2192780077457428, 0.5333096981048584, -0.244028702378273, 0.3202545940876007, 0.3941263258457184, -0.08265950530767441, -0.13265466690063477, 0.14536920189857483, 0.008347020484507084, 0.12763015925884247, -0.14693595468997955, 0.12930645048618317, -0.21058866381645203, 0.41069746017456055, -0.4138171076774597, 0.01112162135541439, 0.307959645986557, 0.1043529286980629, 0.1454169750213623, 0.06099764257669449, -0.06440172344446182, -0.28522273898124695, 0.061267390847206116, -0.3397710919380188, 0.05673341453075409, -0.15740220248699188, 0.13523024320602417, 0.08937308192253113, 0.21434614062309265, -0.3445586562156677, 0.013863436877727509, 0.2937646508216858, -0.20881040394306183, 0.12071862071752548, 0.018420733511447906, 0.44073474407196045, -0.20247358083724976, -0.05044335126876831, 0.10724590718746185, 0.004622252192348242, 0.2174672931432724, -0.4332413375377655, 0.13756892085075378, -0.014125939458608627, -0.03830116614699364, 0.44941526651382446, -0.10405342280864716, 0.008486773818731308, 0.2651139199733734, -0.2757737636566162, 0.18851017951965332, -0.1758900135755539, 0.47183939814567566], [-0.3021514415740967, -0.1210198774933815, -0.1767754852771759, 0.4320671856403351, -0.15282949805259705, -0.00936993956565857, 0.3939310312271118, 0.27429190278053284, -0.19219723343849182, 0.30114325881004333, -0.205217644572258, 0.287449449300766, 0.15189248323440552, 0.08108383417129517, -0.22988243401050568, 0.15148867666721344, -0.15437737107276917, -0.27365344762802124, 0.3722393810749054, 0.2819209694862366, 0.04255089536309242, 0.4573315680027008, -0.20309387147426605, 0.0057400986552238464, -0.1301080882549286, 0.06548837572336197, -0.0585823729634285, -0.09268411993980408, 0.4258849322795868, -0.1646902710199356, 0.15696747601032257, -0.19235259294509888, 0.38784724473953247, 0.13519805669784546, 0.24671891331672668, -0.13873620331287384, -0.09392625838518143, -0.2613219916820526, 0.1357990950345993, 0.19427768886089325, -0.0493113212287426, -0.07773599028587341, -0.14245040714740753, -0.09880661219358444, -0.08752783387899399, -0.28903940320014954, -0.035041168332099915, 0.36291512846946716, -0.1370238959789276, 0.13186100125312805, -0.12830545008182526, 0.2701987326145172, 0.6766732335090637, -0.016512546688318253, -0.06698403507471085, -0.058294765651226044, -0.0929999127984047, -0.2691395580768585, 0.146026149392128, -0.08879350125789642, 0.26974621415138245, 0.13581626117229462, 0.11909474432468414, -0.19712939858436584], [0.4559590816497803, -0.3018045127391815, 0.22551783919334412, 0.10270068794488907, -0.09099175035953522, -0.36118564009666443, -0.2167762666940689, -0.3515748679637909, 0.2940789759159088, -0.056513603776693344, 0.02307267114520073, 0.1627175658941269, -0.1047646552324295, 0.09969162195920944, 0.20729966461658478, 0.05003349110484123, -0.10518015176057816, 0.33330681920051575, -0.2531001567840576, -0.07029588520526886, 0.3160155415534973, 0.11361061781644821, -0.14990828931331635, 0.17500492930412292, -0.04018094763159752, 0.04353168606758118, -0.13422107696533203, -0.03238208219408989, -0.2362978756427765, -0.047437723726034164, -0.22943764925003052, 0.6219263076782227, 0.0529385507106781, -0.19320760667324066, 0.19610247015953064, 0.16890519857406616, -0.20195813477039337, 0.0802520215511322, 0.3795003890991211, -0.12148831784725189, -0.04774190112948418, -0.355887770652771, -0.12165910005569458, -0.2318745255470276, -0.01589157059788704, 0.21136391162872314, -0.3270063102245331, 0.3370990455150604, 0.2459508329629898, -0.17802397906780243, 0.22181908786296844, -0.06560008972883224, -0.15693940222263336, 0.33130908012390137, -0.4669274687767029, 0.2479565292596817, 0.0793766900897026, 0.2535100281238556, -0.45302852988243103, 0.0076527586206793785, 0.1599419265985489, 0.39323073625564575, -0.0019420061726123095, 0.0897533968091011], [0.5331838726997375, 0.4241744577884674, 0.08141031116247177, 0.04263676702976227, -0.13457465171813965, -0.23114216327667236, -0.1755315363407135, -0.385476291179657, 0.39365363121032715, -0.13345274329185486, 0.19582228362560272, -0.03953968361020088, -0.13924764096736908, -0.08521680533885956, 0.26950836181640625, 0.15625311434268951, 0.42742764949798584, 0.11045993864536285, -0.13081032037734985, 0.01719694212079048, 0.3342495262622833, -0.20462752878665924, -0.18354514241218567, 0.09370522946119308, 0.09320171177387238, -0.013835413381457329, -0.2226698398590088, 0.3902796506881714, -0.43931809067726135, 0.41989362239837646, 0.11930222064256668, 0.4432530403137207, -0.14966242015361786, -0.08925287425518036, 0.11938430368900299, -0.33328866958618164, -0.21676282584667206, 0.4534384310245514, -0.40581783652305603, 0.20188026130199432, 0.34097930788993835, -0.08316636085510254, 0.10732337832450867, 0.047446440905332565, -0.41374531388282776, 0.1532924771308899, 0.073957160115242, 0.19572104513645172, 0.11494412273168564, -0.2915811240673065, 0.20909570157527924, -0.24430988729000092, 0.08898193389177322, 0.36713704466819763, 0.02748519740998745, -0.06558850407600403, -0.13846687972545624, 0.12566669285297394, -0.3453249931335449, 0.11588478833436966, 0.2619922161102295, 0.41903212666511536, -0.21097026765346527, -0.057603295892477036], [-0.3169758915901184, 0.027341758832335472, 0.244302436709404, -0.12190044671297073, 0.14746539294719696, -0.13019821047782898, -0.12603731453418732, -0.151028573513031, -0.01862611062824726, 0.013898232951760292, -0.19596035778522491, 0.1521630734205246, 0.011055066250264645, 0.17584511637687683, 0.04393471032381058, 0.30808693170547485, 0.10396384447813034, -0.05224582180380821, -0.07196742296218872, 0.05881652981042862, -0.1170254722237587, -0.08365929126739502, 0.08265112340450287, -0.12942878901958466, 0.19463615119457245, 0.09430484473705292, -0.2292519360780716, -0.008007769472897053, -0.05089511349797249, 0.3845531940460205, -0.1193137839436531, 0.3625808656215668, -0.1319216936826706, -0.11948660016059875, -0.5047415494918823, 0.002952359616756439, -0.1180385872721672, -0.4327458143234253, -0.15599840879440308, -0.16221262514591217, 0.13775596022605896, 0.34445881843566895, 0.15293745696544647, 0.13192661106586456, 0.2643049955368042, 0.1145719364285469, 0.17933787405490875, -0.03431067615747452, -0.2465953379869461, -0.19357629120349884, 0.04290260002017021, -0.2095911204814911, -0.05310388654470444, -0.04368839040398598, 0.13135039806365967, -0.049855150282382965, 0.4250270426273346, -0.30946725606918335, 0.01291270274668932, 0.025911206379532814, -0.18600361049175262, 0.28672632575035095, -0.22626382112503052, 0.2432371973991394], [-0.522064208984375, -0.27340659499168396, 0.007295377552509308, 0.371142715215683, -0.040930137038230896, 0.3058333694934845, 0.3181796371936798, 0.7921978235244751, -0.4762957692146301, 0.043575964868068695, -0.02891409769654274, -0.28794369101524353, 0.11019127070903778, -0.016501428559422493, -0.08588874340057373, -0.027649275958538055, -0.12763002514839172, 0.023399153724312782, 0.27324315905570984, -0.2739013135433197, -0.5409553647041321, -0.06860416382551193, 0.06612583994865417, 0.20208674669265747, -0.015378458425402641, 0.052302319556474686, 0.07389286905527115, -0.16753722727298737, 0.3612883388996124, 0.19795051217079163, 0.2036837488412857, -0.17126819491386414, -0.011574164032936096, 0.33645743131637573, 0.36080747842788696, -0.0857616439461708, 0.4745559096336365, -0.3864951729774475, 0.01073193084448576, 0.029213640838861465, -0.01665237918496132, 0.12242486327886581, -0.25856465101242065, -0.007182789035141468, -0.2701396644115448, -0.009599801152944565, -0.020790213719010353, 0.0020017242059111595, 0.028348514810204506, 0.299466609954834, -0.26551464200019836, 0.12702856957912445, 0.17292766273021698, -0.2745339870452881, -0.21901309490203857, -0.01788676157593727, 0.03829550743103027, 0.15217843651771545, 0.10763025283813477, 0.13576965034008026, 0.052662443369627, 0.290770024061203, -0.1197088435292244, 0.2737041413784027], [-0.03923795372247696, -0.1335524469614029, -0.11757618933916092, 0.06980475783348083, 0.3938728868961334, 0.41462838649749756, 0.42227497696876526, 0.21579799056053162, -0.14289821684360504, 0.12035740911960602, 0.15077519416809082, -0.19636356830596924, 0.18183229863643646, -0.29573896527290344, -0.12474160641431808, -0.10224322229623795, -0.09877371788024902, -0.1584223508834839, 0.055533017963171005, 0.08163521438837051, -0.06654571741819382, -0.15600253641605377, 0.15139184892177582, 0.00357629987411201, 0.1987486630678177, -0.3207637369632721, 0.15609611570835114, 0.26185208559036255, -0.08629830926656723, 0.061000049114227295, -0.0854242816567421, -0.03870924934744835, -0.04358262941241264, 0.028449777513742447, 0.004463758319616318, 0.2229955494403839, 0.06449417769908905, -0.6403250098228455, 0.38941019773483276, -0.22507087886333466, 0.2648518979549408, -0.018793806433677673, 0.09411312639713287, 0.08308052271604538, 0.1846006214618683, -0.2304067760705948, 0.09625710546970367, 0.06147293746471405, 0.290918231010437, 0.2207692414522171, -0.07300306856632233, 0.12534360587596893, 0.48118630051612854, -0.27577319741249084, 0.2505386173725128, -0.04454196244478226, -0.054490137845277786, 0.020759403705596924, 0.20864957571029663, -0.2854647636413574, -0.008711901493370533, 0.08357048034667969, -0.2708156108856201, -0.10768605023622513], [0.26279953122138977, -0.375812292098999, -0.046303994953632355, 0.23714426159858704, -0.4444206655025482, -0.37692660093307495, -0.1278994232416153, -0.19611090421676636, 0.060266587883234024, 0.011019150726497173, -0.04768337309360504, 0.3650682866573334, -0.20324161648750305, 0.21869198977947235, -0.09156140685081482, -0.10842020809650421, 0.3689049780368805, 0.22393512725830078, 0.5141894221305847, 0.35198432207107544, -0.18759679794311523, -0.19487087428569794, -0.1698223352432251, 0.2643186151981354, -0.23671817779541016, 0.08977910876274109, 0.49446722865104675, -0.03352118283510208, -0.06331419944763184, -0.5240693092346191, -0.2590966820716858, 0.049900032579898834, 0.10084240138530731, -0.044945813715457916, 0.4549765884876251, -0.40949925780296326, -0.10713578015565872, -0.13135473430156708, 0.22200427949428558, -0.006648107431828976, 0.17879708111286163, 0.06394954025745392, 0.09713394194841385, 0.15848217904567719, -0.30834096670150757, 0.2168712615966797, -0.07442853599786758, 0.022981636226177216, 0.41369420289993286, 0.0365431047976017, 0.12370055168867111, -0.060233671218156815, 0.1947656124830246, -0.062239911407232285, -0.2571008503437042, -0.2705880105495453, -0.19769267737865448, 0.3217494487762451, -0.024770338088274002, -0.1406312733888626, -0.0013456641463562846, 0.16765038669109344, 0.024969564750790596, -0.4180951416492462], [0.10665921866893768, 0.12419956177473068, -0.062385451048612595, -0.3625893294811249, 0.14716902375221252, -0.010745391249656677, -0.5151888728141785, -0.18583759665489197, 0.1398525834083557, 0.22464196383953094, -0.06158103048801422, 0.02077459916472435, 0.09928012639284134, -0.031134000048041344, 0.2140185385942459, -0.2313327044248581, -0.017226669937372208, 0.012789438478648663, -0.32251811027526855, -0.13948358595371246, 0.2812815308570862, -0.20420493185520172, -0.0983077734708786, -0.021829113364219666, 0.31396329402923584, 0.07681021094322205, -0.027170345187187195, -0.020028337836265564, -0.05447959899902344, -0.19848069548606873, 0.18530216813087463, 0.1568818986415863, -0.022384271025657654, 0.20542097091674805, -0.266760915517807, -0.18846231698989868, -0.09478092193603516, -0.1229635626077652, -0.12410251051187515, 0.14953257143497467, -0.3721369802951813, 0.0627240389585495, 0.0037440976593643427, -0.10427019000053406, 0.14004100859165192, 0.0673871710896492, 0.444186806678772, 0.0986945629119873, 0.018585659563541412, -0.3543490767478943, -0.18126928806304932, -0.08984038233757019, -0.08790332823991776, -0.015600979328155518, 0.48449599742889404, 0.32638469338417053, -0.30714279413223267, 0.15079393982887268, -0.29250407218933105, -0.009929931722581387, -0.09921249747276306, 0.30251774191856384, -0.12781767547130585, 0.33096012473106384], [0.46042945981025696, -0.3411688208580017, 0.3347824811935425, -0.1237020418047905, -0.17849025130271912, -0.30621278285980225, -0.12285078316926956, -0.4355531334877014, 0.220908984541893, -0.07913684099912643, -0.04183592274785042, 0.21919935941696167, -0.33715900778770447, 0.06931053102016449, 0.06701743602752686, -0.2872547209262848, 0.06246345862746239, -0.10921848565340042, -0.11000695824623108, 0.0008802150841802359, -0.004713940434157848, 0.18498140573501587, 0.11343085020780563, 0.18385173380374908, -0.28190767765045166, 0.12409984320402145, 0.0571916401386261, 0.03774255886673927, -0.45134055614471436, 0.039371050894260406, 0.14318262040615082, 0.12920822203159332, 0.15705759823322296, -0.022844690829515457, -0.0221079234033823, 0.2558750808238983, -0.04875379055738449, 0.0776103138923645, -0.35686638951301575, 0.519340991973877, -0.016879942268133163, 0.03846316412091255, 0.15107087790966034, 0.10812491923570633, -0.025477781891822815, 0.19922204315662384, 0.1733657568693161, -0.27963149547576904, 0.20936734974384308, 0.008425884880125523, 0.2923588752746582, -0.011540384963154793, 0.4152323305606842, 0.0026233596727252007, -0.2103169709444046, 0.22310781478881836, 0.16901327669620514, 0.28138795495033264, -0.1169905737042427, -0.05161061882972717, 0.13963109254837036, 0.20820677280426025, 0.37332865595817566, 0.03185173496603966], [0.23196925222873688, 0.053844667971134186, -0.12965817749500275, -0.31024661660194397, -0.034772809594869614, 0.03773939609527588, 0.0930296778678894, -0.040250129997730255, 0.09353940188884735, 0.05725202336907387, 0.29468217492103577, -0.19930371642112732, -0.036350905895233154, -0.06905291974544525, -0.0741557702422142, 0.08175038546323776, 0.16378989815711975, -0.4124443233013153, -0.14485588669776917, 0.01850571669638157, 0.1581961065530777, -0.08393875509500504, -0.14061897993087769, 0.2582951784133911, -0.15564970672130585, -0.020040025934576988, 0.15152399241924286, -0.129880890250206, -0.031146496534347534, 0.2378128468990326, -0.1001218855381012, -0.22025860846042633, 0.14934159815311432, 0.2520487904548645, 0.09237965196371078, 0.054197877645492554, 0.18195568025112152, -0.1927153319120407, 0.04238252341747284, -0.08176995068788528, -0.20929257571697235, 0.14743554592132568, -0.19370104372501373, 0.03790372610092163, 0.27958944439888, -0.23841632902622223, 0.08485603332519531, 0.17385970056056976, -0.026928115636110306, -0.0970565602183342, -0.27770936489105225, -0.012322377413511276, -0.10697055608034134, 0.003078143112361431, -0.09210234880447388, 0.19373267889022827, 0.32940930128097534, -0.22189833223819733, 0.44290289282798767, 0.3385571837425232, -0.08072534948587418, -0.005693066865205765, -0.30576813220977783, 0.04556961730122566], [0.05337128788232803, -0.0035754551645368338, -0.06065589189529419, 0.3882676661014557, 0.13913977146148682, 0.48570516705513, -0.08174818009138107, 0.46969589591026306, -0.7111290693283081, 0.1647384762763977, -0.1940324604511261, -0.20009933412075043, 0.05517107620835304, 0.12312491983175278, -0.1951562613248825, 0.10677724331617355, -0.038327232003211975, 0.13704609870910645, 0.12202014029026031, -0.012076275423169136, -0.14145538210868835, 0.05648179352283478, -0.13436424732208252, 0.0010549750877544284, 0.23376911878585815, 0.21344266831874847, -0.07954247295856476, 0.07120400667190552, 0.24054960906505585, 0.013098500669002533, -0.20158372819423676, -0.6665472388267517, 0.1255025714635849, 0.04423980042338371, -0.014214670285582542, 0.2869800329208374, 0.1115519255399704, -0.4817928969860077, 0.0811561569571495, -0.2188408076763153, -0.12919002771377563, -0.018348103389143944, 0.057657066732645035, -0.2622055113315582, -0.2469429224729538, 0.30647653341293335, 0.15304620563983917, -0.11349830031394958, 0.04258475452661514, -0.04634269326925278, -0.3254070580005646, 0.27620550990104675, 0.2280162125825882, 0.08794988691806793, -0.06707878410816193, 0.010693325661122799, 0.03176227584481239, -0.2980966866016388, 0.6262717247009277, 0.13794775307178497, -0.01389666460454464, -0.1014321818947792, 0.2540915608406067, -0.21568071842193604], [0.20009176433086395, 0.1303471028804779, -0.30134257674217224, -0.18266116082668304, 0.02606482058763504, -0.35837334394454956, -0.01135292649269104, -0.2992691397666931, 0.3348311185836792, -0.03340694308280945, -0.17239055037498474, 0.30311983823776245, -0.17231792211532593, -0.06954949349164963, 0.06664983183145523, -0.22368697822093964, 0.04821060970425606, 0.1359187364578247, -0.08941624313592911, -0.26876673102378845, -0.11079047620296478, -0.21142971515655518, -0.00957542285323143, -0.20850086212158203, -0.4018911123275757, -0.12253007292747498, -0.025565890595316887, -0.11472249776124954, -0.03133772686123848, 0.10795023292303085, 0.07968760281801224, 0.301130473613739, -0.14891333878040314, -0.2839704751968384, -0.03445472568273544, -0.03252492472529411, -0.4234592914581299, 0.2403631955385208, -0.007448538672178984, -0.15311256051063538, -0.13099543750286102, -0.2091057300567627, -0.10683190822601318, 0.09872603416442871, -0.17724594473838806, 0.2787940800189972, 0.5398098826408386, 0.03597830608487129, -0.003407202661037445, 0.021497223526239395, 0.22245624661445618, -0.3783993721008301, 0.21232828497886658, 0.3028079569339752, -0.27057233452796936, 0.37164196372032166, 0.03860211744904518, 0.21485042572021484, -0.022365329787135124, 0.07241823524236679, -0.13066010177135468, 0.006146563217043877, -0.3983449637889862, -0.17859938740730286], [0.28462275862693787, -0.16407662630081177, -0.1456228494644165, 0.16935178637504578, 0.03092668205499649, 0.6323106288909912, 0.18700262904167175, 0.5825138092041016, -0.2827604413032532, -0.13163508474826813, -0.20504212379455566, 0.24133683741092682, -0.0748526081442833, -0.016796957701444626, -0.38453730940818787, 0.09871192276477814, -0.09327942878007889, 0.028621746227145195, 0.3243466317653656, 0.30733561515808105, -0.08192247152328491, 0.03988195210695267, -0.2442852109670639, 0.16294778883457184, 0.09542957693338394, -0.14295829832553864, 0.24314558506011963, -0.17973850667476654, 0.1987692415714264, -0.23903949558734894, 0.06267925351858139, -0.316922128200531, 0.28780463337898254, 0.1534794718027115, -0.2653830945491791, -0.061129286885261536, 0.10455731302499771, -0.2998059093952179, -0.28330329060554504, -0.2640206217765808, -0.005428631789982319, -0.015456988476216793, -0.2874336838722229, -0.17960679531097412, -0.05760469287633896, -0.06857874244451523, -0.20121338963508606, -0.06452901661396027, -0.27036696672439575, 0.6248222589492798, 0.22081010043621063, 0.13047678768634796, 0.0070857880637049675, -0.26020702719688416, -0.23645801842212677, -0.09460555762052536, -0.0012549047823995352, 0.031455401331186295, -0.04215070232748985, -0.025816723704338074, 0.3145637810230255, 0.15689301490783691, -0.10452001541852951, -0.1483709216117859], [0.0957554429769516, -0.43697741627693176, -0.15103209018707275, 0.20849774777889252, -0.3835142254829407, 0.1760672777891159, 0.1888246238231659, 0.35411691665649414, -0.49022379517555237, 0.1110321581363678, -0.35401058197021484, 0.07265967130661011, 0.019785331562161446, 0.17006905376911163, -0.019433576613664627, 0.034707773476839066, 0.03136918321251869, -0.12761543691158295, -0.05797620117664337, 0.11109843105077744, -0.16404582560062408, 0.2166856974363327, 0.28334105014801025, 0.37947261333465576, -0.2038220912218094, 0.22391121089458466, 0.435386598110199, 0.13078592717647552, 0.1794940084218979, -0.2722082734107971, -0.30221524834632874, -0.05360882729291916, -0.13627229630947113, 0.13646143674850464, 0.3019413948059082, 0.05258777365088463, -0.02520052343606949, 0.08753132820129395, 0.024806825444102287, -0.005983051843941212, 0.17532701790332794, 0.37670257687568665, -0.12346097081899643, 0.01808646135032177, -0.07204365730285645, 0.026590533554553986, -0.2518809735774994, 0.07764435559511185, 0.03828948363661766, 0.45292186737060547, 0.3000148832798004, -0.02247712016105652, 0.32904985547065735, 0.17754141986370087, -0.03269554674625397, 0.29911378026008606, -0.49747005105018616, -0.38758090138435364, 0.14736714959144592, -0.2915903627872467, -0.024032654240727425, -0.0908656045794487, -0.19111774861812592, -0.0009634897578507662], [-0.595525324344635, -0.03413287177681923, -0.0121933463960886, -0.43499791622161865, 0.45096278190612793, -0.09582877159118652, -0.5002282857894897, 0.09000096470117569, 0.06246262416243553, -0.3445480763912201, 0.13674050569534302, -0.08911675214767456, 0.27266567945480347, -0.15649625658988953, -0.039046138525009155, -0.049805983901023865, 0.0854702815413475, -0.08468242734670639, -0.26847389340400696, 0.2200259417295456, 0.2550889551639557, -0.4208562672138214, 0.1530192345380783, -0.4074907898902893, 0.5278895497322083, -0.0029870036523789167, -0.11838068068027496, 0.12807242572307587, -0.176223486661911, 0.31931284070014954, 0.06536456197500229, -0.2798592746257782, -0.1464105099439621, -0.08066564798355103, -0.05330745130777359, -0.05961146950721741, -0.08017977327108383, -0.06988108158111572, -0.3037993609905243, 0.07887151092290878, -0.21759691834449768, -0.17030373215675354, 0.10849811881780624, -0.037505604326725006, 0.20760421454906464, -0.11650999635457993, -0.056819576770067215, 0.018883012235164642, 0.023853259161114693, -0.10492490231990814, -0.269786536693573, 0.3816438317298889, -0.035084616392850876, 0.013203299604356289, -0.1293455809354782, 0.09159892797470093, 0.27420124411582947, -0.38218116760253906, -0.23585867881774902, 0.4412812292575836, 0.0034897481091320515, -0.19597117602825165, -0.4738043546676636, 0.19793350994586945], [0.36155667901039124, 0.005161312408745289, 0.1492358297109604, -0.5404646992683411, -0.24862849712371826, -0.014982335269451141, -0.3114181458950043, -0.4945087730884552, 0.2423548698425293, -0.142226442694664, 0.07214712351560593, 0.32039567828178406, -0.18633665144443512, -0.10858917236328125, 0.07464490085840225, 0.3446143865585327, 0.34481561183929443, 0.16970698535442352, -0.19276385009288788, 0.23247499763965607, 0.168096661567688, 0.3344138264656067, -0.11631330102682114, 0.06437510997056961, -0.43338969349861145, 0.20926588773727417, 0.1035560593008995, -0.21546988189220428, -0.20395584404468536, 0.054674409329891205, -0.06476391851902008, 0.5832598209381104, -0.5109314918518066, 0.015051250346004963, 0.029121851548552513, -0.07661404460668564, -0.13857856392860413, 0.4132137894630432, 0.1429147869348526, 0.195942223072052, 0.48657160997390747, -0.5189908146858215, 0.14873431622982025, 0.03310232236981392, -0.0717272013425827, 0.11175524443387985, 0.399478942155838, 0.0924924835562706, 0.10905453562736511, -0.15789395570755005, 0.0005600990843959153, -0.07847613841295242, 0.05325058847665787, 0.13529159128665924, -0.27243393659591675, -0.0476405993103981, -0.1809500753879547, 0.3757491409778595, -0.6444503664970398, 0.2763262391090393, -0.25287818908691406, 0.28513115644454956, 0.14256277680397034, -0.26188981533050537], [0.3389677405357361, 0.14951986074447632, 0.25728124380111694, -0.671532392501831, -0.2522819936275482, -0.06103856861591339, -0.2760836184024811, -0.20854352414608002, 0.08880281448364258, -0.03970838338136673, 0.23487462103366852, 0.2119678109884262, 0.18302541971206665, 0.0671534538269043, 0.18179570138454437, 0.0157938115298748, 0.05767848342657089, 0.09556655585765839, -0.2742688059806824, -0.16597166657447815, -0.12015531957149506, -0.23720598220825195, 0.1586686223745346, 0.10870053619146347, 0.03220050036907196, -0.12556599080562592, -0.3838903307914734, 0.1085914596915245, -0.20006905496120453, 0.019532233476638794, 0.0067345499992370605, 0.1808900237083435, -0.06160092353820801, -0.39876848459243774, 0.042316410690546036, -0.3591872751712799, -0.4094255864620209, 0.5319499373435974, -0.08058018982410431, 0.01613805629312992, -0.2593154013156891, -0.17167529463768005, -0.07059728354215622, 0.1687152236700058, 0.20399458706378937, 0.1529267132282257, -0.15196987986564636, 0.07304918766021729, 0.06555507332086563, -0.2518681287765503, -0.03354664519429207, -0.09864429384469986, 0.24128924310207367, 0.16779865324497223, 0.17449411749839783, 0.001042284071445465, 0.4866763949394226, 0.24269680678844452, -0.33223918080329895, -0.04164178669452667, -0.26311901211738586, 0.3052622377872467, 0.1722632348537445, -0.12115146219730377], [0.08810253441333771, -0.1828230321407318, 0.08319316059350967, 0.10377751290798187, -0.3777535557746887, -0.15480469167232513, 0.19361723959445953, -0.01969320885837078, -0.18891684710979462, -0.22953484952449799, -0.38869747519493103, 0.31714102625846863, -0.31759071350097656, -0.19286476075649261, 0.39514443278312683, 0.09876951575279236, 0.021534845232963562, 0.23641568422317505, 0.007327476516366005, -0.16990520060062408, 0.19562110304832458, 0.11733514815568924, -0.43395426869392395, 0.2573597729206085, -0.16006888449192047, -0.12943950295448303, 0.2415046989917755, -0.16570036113262177, 0.05822329223155975, -0.1670786738395691, 0.28584253787994385, -0.19110044836997986, 0.070320725440979, -0.2002243995666504, 0.44993487000465393, 0.30318281054496765, -0.13956911861896515, -0.03438173979520798, 0.1845240294933319, 0.006013298872858286, 0.31150320172309875, 0.3553098440170288, -0.3254055082798004, 0.32148313522338867, -0.22588799893856049, -0.047333721071481705, 0.005479259882122278, -0.11626523733139038, 0.12083776295185089, -0.029394924640655518, 0.4214431047439575, 0.22079983353614807, 0.04313131421804428, 0.010075945407152176, -0.008858421817421913, 0.11757097393274307, -0.17534251511096954, 0.022387670353055, -0.2222708761692047, -0.0327194482088089, -0.07518347352743149, 0.21811045706272125, 0.22534038126468658, -0.526172935962677], [-0.23913893103599548, 0.5294937491416931, -0.16277092695236206, -0.34130191802978516, -0.14000052213668823, -0.17379944026470184, -0.3447532653808594, 0.012798731215298176, 0.1993107795715332, -0.355065256357193, -0.0984845981001854, -0.31429821252822876, 0.16523337364196777, 0.014158877544105053, 0.16308867931365967, 0.07034710794687271, 0.04544056951999664, 0.19051751494407654, -0.15215599536895752, -0.16667118668556213, 0.02463371306657791, -0.2338757961988449, 0.11305036395788193, -0.09065468609333038, 0.20296548306941986, -0.2521302103996277, -0.17487648129463196, 0.18687471747398376, -0.34859025478363037, 0.05141753330826759, 0.23032636940479279, 0.2301723062992096, 0.09718123823404312, 0.5033143162727356, -0.2918418347835541, 0.1784772127866745, -0.21754242479801178, 0.21670162677764893, 0.11184721440076828, -0.3165804147720337, -0.0676591545343399, -0.15114454925060272, 0.3678867816925049, -0.15439994633197784, 0.4187653064727783, -0.0444469079375267, 0.008589656092226505, -0.06890565901994705, -0.10289832949638367, 0.051527105271816254, -0.17859257757663727, -0.05087237432599068, 0.256895512342453, -0.1634267419576645, 0.05218471214175224, -0.017913317307829857, 0.1443820595741272, -0.2480745166540146, 0.12072105705738068, 0.33893588185310364, -0.03763483837246895, 0.09403648227453232, 0.034098442643880844, 0.31276655197143555], [0.4769876301288605, -0.09293035417795181, -0.08404979109764099, -0.09644468128681183, 0.05979368835687637, -0.1580694168806076, 0.28638243675231934, 0.1952451914548874, -0.026767387986183167, -0.10733821988105774, -0.04158548638224602, 0.006966336164623499, -0.19262531399726868, 0.268077552318573, 0.022424355149269104, -0.20100383460521698, 0.3332216441631317, -0.03901730850338936, 0.02502324990928173, 0.10970213264226913, -0.10029713064432144, 0.2336331158876419, -0.024105045944452286, -0.2790372669696808, -0.47244274616241455, 0.09194422513246536, 0.4356420636177063, -0.17289423942565918, 0.15079733729362488, -0.2824808955192566, -0.1634126603603363, 0.14974340796470642, 0.38905155658721924, -0.1877109259366989, 0.5458419322967529, -0.15687453746795654, 0.18935775756835938, -0.03940426930785179, 0.24245060980319977, -0.2852844297885895, 0.3213064670562744, 0.3674624264240265, -0.11641579121351242, -0.1735776960849762, -0.23349666595458984, 0.008437808603048325, 0.04643809422850609, -0.16779321432113647, 0.02066754549741745, -0.28320857882499695, 0.41926631331443787, -0.17961432039737701, 0.34424200654029846, 0.07796560227870941, -0.04835272580385208, 0.01335455197840929, -0.14285537600517273, 0.014436153694987297, -0.3376046419143677, -0.0013923884835094213, 0.03171934187412262, 0.11866369843482971, 0.372270792722702, 0.02567080594599247], [0.6040837168693542, 0.08729622513055801, 0.03935573250055313, -0.01897931657731533, -0.1756107360124588, -0.25990188121795654, 0.059906862676143646, -0.05204679071903229, 0.2895857095718384, 0.06799490749835968, -0.1337161660194397, 0.29690542817115784, -0.36902183294296265, -0.3181493580341339, -0.0013735376996919513, 0.041750870645046234, -0.23554784059524536, 0.5286213159561157, 0.03455723822116852, 0.27145957946777344, 0.006610864773392677, 0.22870561480522156, 0.11043814569711685, 0.0681992918252945, -0.4191182553768158, 0.42041242122650146, 0.2966265082359314, -0.3506775498390198, 0.06095615774393082, 0.1749688982963562, -0.2785412669181824, 0.06016455963253975, -0.020997459068894386, -0.14686770737171173, 0.4781396687030792, -0.15047357976436615, -0.19149495661258698, 0.2140870988368988, 0.17389219999313354, 0.35723379254341125, 0.07652208209037781, 0.19838301837444305, -0.114784836769104, -0.057688698172569275, -0.2620255947113037, 0.15617063641548157, -0.2938990294933319, -0.056290652602910995, 0.5266492366790771, 0.10426198691129684, 0.2851491868495941, -0.5913203954696655, 0.252273291349411, -0.2139938622713089, -0.21663135290145874, 0.04220756143331528, -0.32385581731796265, 0.02094358019530773, -0.3070088028907776, -0.146478071808815, 0.160446435213089, 0.46170347929000854, 0.31362926959991455, -0.5641529560089111], [-0.23676319420337677, -0.23341751098632812, -0.33926743268966675, 0.1761636584997177, 0.3616873025894165, 0.3511493504047394, -0.1409475952386856, 0.13061653077602386, -0.2684348523616791, 0.16280056536197662, 0.1949281096458435, -0.10646133869886398, 0.03876161575317383, -0.056516312062740326, 0.07976129651069641, -0.14773090183734894, 0.09086457639932632, -0.2035832703113556, -0.07308370620012283, 0.060139250010252, -0.31358587741851807, -0.09626232087612152, -0.06549959629774094, -0.26704761385917664, 0.37661272287368774, -0.34237396717071533, -0.2843039631843567, -0.12666112184524536, 0.08390594273805618, -0.04649552330374718, 0.10878418385982513, -0.20262934267520905, -0.1452965885400772, 0.2637387216091156, -0.5111413598060608, 0.30835387110710144, 0.027044188231229782, 0.22786495089530945, 0.24608319997787476, 0.1373351812362671, -0.20757487416267395, 0.0467442125082016, -0.01040712557733059, 0.26900574564933777, -0.03576149046421051, -0.29621630907058716, -0.05217727646231651, -0.20618917047977448, 0.04325420781970024, -0.1312209814786911, -0.039356134831905365, -0.07308043539524078, 0.054725151509046555, 0.20439866185188293, 0.0627756118774414, -0.2808486223220825, 0.2514098584651947, -0.4824538230895996, 0.024621713906526566, 0.22162628173828125, 0.13579201698303223, -0.01618088223040104, -0.13392077386379242, 0.40968018770217896], [-0.28250566124916077, 0.14264291524887085, 0.046382319182157516, -0.39913836121559143, 0.17273364961147308, -0.09409932047128677, -0.3862159550189972, -0.1840612292289734, 0.22567996382713318, 0.40319326519966125, 0.23894022405147552, 0.2062486857175827, -0.10539742559194565, 0.310886949300766, 0.37461715936660767, 0.21364431083202362, -0.1787644475698471, -0.2399970442056656, -0.017378896474838257, -0.10623046010732651, -0.08373679965734482, -0.37161603569984436, 0.01855427771806717, -0.25483691692352295, 0.5972344875335693, -0.13262507319450378, 0.016585994511842728, 0.060403451323509216, -0.12991373240947723, 0.26409247517585754, -0.16615638136863708, 0.10123566538095474, -0.08418641984462738, 0.29448413848876953, -0.13098353147506714, 0.15435174107551575, -0.1199871227145195, 0.2671649754047394, -0.24589189887046814, -0.07938189059495926, 0.24440740048885345, -0.3050786256790161, -0.27401435375213623, -0.11145366728305817, 0.028725160285830498, -0.1710670441389084, -0.03141898289322853, -0.018589844927191734, -0.04478633403778076, -0.16165675222873688, 0.04386129230260849, -0.0838535949587822, -0.1199098601937294, -0.09834016859531403, 0.1607186496257782, 0.199870765209198, 0.18575720489025116, 0.1408122032880783, 0.2745688259601593, 0.26800376176834106, -0.006490790285170078, -0.05133942514657974, 0.08691506832838058, 0.11048372089862823], [-0.021174343302845955, -0.19861991703510284, -0.2836587429046631, 0.27979880571365356, -0.218008354306221, -0.2533304989337921, 0.22586406767368317, 0.5756141543388367, -0.2934530973434448, 0.05325780063867569, 0.10960360616445541, 0.134586900472641, -0.15150876343250275, -0.10520575195550919, -0.03914105147123337, -0.012319426983594894, 0.11247319728136063, 0.2000005543231964, -0.03125077113509178, 0.4316321313381195, 0.037966080009937286, 0.08390651643276215, -0.1734907627105713, -0.05337926745414734, -0.5640686750411987, 0.18431474268436432, -0.10981816053390503, 0.14029128849506378, -0.11530603468418121, -0.2914079427719116, -0.2486264705657959, -0.027218047529459, 0.3150392174720764, 0.07102815806865692, 0.14147575199604034, 0.28550565242767334, 0.10815223306417465, -0.16559778153896332, -0.15282733738422394, 0.033729489892721176, 0.14631880819797516, 0.1460440456867218, -0.5116636753082275, 0.13430018723011017, -0.011093401350080967, -0.11096514761447906, 0.011745309457182884, -0.09418697655200958, 0.15465687215328217, 0.17725038528442383, -0.05219072848558426, -0.19513942301273346, 0.052285127341747284, 0.07646044343709946, -0.18847903609275818, -0.1436268389225006, -0.36337366700172424, 0.1992616504430771, 0.052559275180101395, -0.4267992377281189, -0.34358125925064087, 0.27553313970565796, 0.19609086215496063, -0.23124562203884125], [-0.30551034212112427, 0.10347139835357666, -0.18928590416908264, -0.2342391312122345, 0.4297413229942322, -0.10815009474754333, -0.2737812101840973, -0.0025241277180612087, 0.041941188275814056, 0.18402260541915894, -0.2796917259693146, -0.5183234214782715, 0.4868500232696533, 0.059965942054986954, 0.17323118448257446, -0.294341117143631, -0.13630549609661102, -0.12706179916858673, -0.31724584102630615, 0.0813811644911766, 0.2080591917037964, -0.3353235423564911, -0.12949955463409424, 0.11561591923236847, 0.3966786861419678, -0.26081475615501404, -0.3839220404624939, 0.10791664570569992, 0.38778918981552124, 0.18383796513080597, -0.04407023265957832, -0.10202382504940033, -0.2702023386955261, 0.34614601731300354, -0.44159212708473206, 0.11801096796989441, 0.1892596036195755, 0.025729266926646233, -0.21954640746116638, -0.09717251360416412, -0.10950066149234772, -0.16239774227142334, 0.11172210425138474, 0.3279147744178772, 0.335570365190506, 0.12356747686862946, 0.19896851480007172, 0.275288462638855, -0.07575888186693192, 0.021217873319983482, -0.1473303735256195, -0.012070815078914165, -0.2583187520503998, -0.3215181827545166, 0.3711699843406677, -0.31277504563331604, 0.7001693248748779, -0.3404954671859741, 0.1491142213344574, 0.4004785120487213, 0.09115661680698395, -0.27704131603240967, -0.07152853161096573, 0.32239750027656555], [0.07926591485738754, -0.25235292315483093, 0.23631122708320618, 0.5495828986167908, -0.36047881841659546, -0.06500232219696045, 0.15847353637218475, 0.43390485644340515, -0.17091979086399078, 0.04676591232419014, 0.04452317953109741, -0.15907388925552368, -0.023376265540719032, -0.06880535185337067, -0.691923201084137, 0.10039404034614563, -0.0577625036239624, -0.24123872816562653, 0.046389397233724594, -0.04120253026485443, -0.5059425234794617, 0.1541665941476822, -0.3083491623401642, -0.007056177593767643, -0.18644554913043976, -0.08569393306970596, 0.1539950668811798, -0.018104689195752144, 0.08412821590900421, -0.06150764226913452, -0.36241263151168823, -0.21509191393852234, 0.058037370443344116, 0.2238079458475113, 0.284288614988327, 0.11855453252792358, -0.22974327206611633, -0.1453658789396286, 0.0624062716960907, -0.10883386433124542, -0.006719022989273071, 0.09572291374206543, -0.3698543608188629, -0.04879366606473923, -0.006432852707803249, 0.12273227423429489, 0.1534367948770523, -0.0572052039206028, -0.031200356781482697, -0.02209264039993286, 0.1410597711801529, 0.18586722016334534, 0.05763494595885277, -0.369939923286438, 0.013966795057058334, 0.012163439765572548, -0.3611185848712921, -0.17216502130031586, -0.3256402909755707, -0.19637812674045563, 0.3305118680000305, -0.09396390616893768, 0.09213843941688538, -0.4164845049381256], [-0.08523009717464447, -0.3927638530731201, -0.22961372137069702, 0.33052918314933777, 0.2514294385910034, -0.06602154672145844, 0.23815514147281647, 0.46721524000167847, -0.6217600107192993, -0.15523821115493774, 0.3792032301425934, -0.03887397423386574, -0.07089652121067047, 0.007188545074313879, -0.4732140898704529, 0.1545306146144867, -0.07208828628063202, -0.03437411040067673, 0.0031545597594231367, -0.2733873128890991, -0.0054841069504618645, 0.001479673432186246, -0.15035414695739746, 0.1454748511314392, 0.40116196870803833, 0.2509039342403412, 0.05267847701907158, -0.16740764677524567, 0.31751158833503723, -0.04467860236763954, 0.1957893818616867, -0.1379113793373108, 0.16256940364837646, 0.4898169934749603, 0.15669302642345428, -0.1886451691389084, -0.01856457255780697, -0.3631508946418762, 0.13381518423557281, 0.09735431522130966, -0.005482904613018036, 0.027657214552164078, 0.17385463416576385, -0.13121454417705536, -0.05370361730456352, -0.1925075352191925, -0.005559571553021669, 0.0033150436356663704, -0.14702050387859344, 0.4906046986579895, 0.09642670303583145, -0.09699678421020508, -0.025933312252163887, 0.025288669392466545, 0.12282802164554596, -0.06108403205871582, 0.19821670651435852, -0.24547666311264038, 0.16200493276119232, -0.23111553490161896, -0.13610872626304626, -0.2589101195335388, 0.183622345328331, -0.3301837742328644], [0.14525727927684784, -0.18129387497901917, -0.3823631703853607, -0.03855391591787338, -0.38978493213653564, 0.22226044535636902, 0.24588865041732788, 0.007393511012196541, -0.14025446772575378, 0.02458913065493107, -0.2901811897754669, 0.260331392288208, 0.11831503361463547, 0.0169448871165514, -0.4689787030220032, 0.06916742771863937, 0.17796742916107178, 0.23420439660549164, 0.22289152443408966, -0.11268014460802078, 0.04352283850312233, 0.11115413159132004, -0.22288677096366882, -0.04919546842575073, -0.2202858179807663, 0.07954248785972595, 0.107084721326828, -0.22858041524887085, -0.22165456414222717, -0.025814222171902657, -0.211928591132164, 0.33697476983070374, -0.028755558654665947, -0.1152196079492569, 0.5007609724998474, 0.21315956115722656, -0.2565823197364807, -0.31941476464271545, 0.05197501555085182, 0.3963097035884857, -0.17977289855480194, 0.34375080466270447, -0.1853441596031189, -0.03483090549707413, -0.18860119581222534, -0.00448572589084506, -0.30792489647865295, -0.1542646735906601, 0.0525512732565403, -0.004059246275573969, 0.1803121566772461, -0.04509448632597923, -0.02699996344745159, 0.02975388802587986, 0.12730826437473297, -0.1934872567653656, -0.17836236953735352, 0.2185862809419632, 0.15047311782836914, 0.0893070176243782, 0.18596197664737701, -0.0693458542227745, 0.23393850028514862, -0.02608456090092659], [-0.09226371347904205, 0.5192086696624756, 0.4799785912036896, -0.25923672318458557, -0.0055422596633434296, 0.0135051179677248, -0.25392457842826843, -0.6448547840118408, 0.49563029408454895, -0.2234925478696823, -0.011778391897678375, -0.14271603524684906, 0.005960475187748671, 0.0247352235019207, 0.21813428401947021, -0.3357396721839905, -0.03072584979236126, 0.06623458862304688, -0.5805461406707764, 0.08075384795665741, 0.010333400219678879, -0.3960781395435333, 0.12878699600696564, -0.20424188673496246, 0.30172833800315857, -0.239437997341156, 0.13176068663597107, -0.07591281831264496, -0.15284691751003265, 0.056619904935359955, 0.130184143781662, 0.6377884149551392, -0.14028020203113556, -0.05075113847851753, -0.34183618426322937, -0.20152194797992706, -0.20291206240653992, 0.22367775440216064, -0.23560896515846252, 0.14903926849365234, -0.17620036005973816, -0.3166016936302185, -0.13696467876434326, 0.0023255115374922752, 0.2090471386909485, -0.15460525453090668, 0.34578484296798706, -0.01373774278908968, 0.20249128341674805, -0.16058515012264252, -0.14420676231384277, 0.0038244114257395267, -0.3403565287590027, 0.5232469439506531, 0.08116159588098526, -0.11853467673063278, 0.2595190405845642, -0.4027501344680786, 0.15842729806900024, 0.25191909074783325, -0.2813880145549774, 0.26859205961227417, 0.09355223923921585, 0.22651222348213196], [-0.4385080337524414, -0.334622323513031, 0.053511422127485275, 0.305282324552536, 0.34498369693756104, 0.34807419776916504, 0.3290833830833435, 0.3652496039867401, -0.3680174648761749, 0.05039849877357483, -0.20427778363227844, -0.007733521051704884, 0.05840373784303665, -0.1453477144241333, -0.22558294236660004, -0.20263797044754028, -0.1855444312095642, -0.2596580386161804, 0.3365161120891571, -0.07080736756324768, 0.012117776088416576, -0.37734466791152954, 0.029545729979872704, -0.06374017149209976, 0.06351348757743835, 0.19419148564338684, -0.2075301855802536, 0.5719155669212341, 0.07745076715946198, -0.183090940117836, -0.05027562752366066, -0.3934445083141327, -0.26282384991645813, 0.20080289244651794, -0.007173603866249323, 0.12568031251430511, 0.17720580101013184, 0.017519520595669746, 0.07398612052202225, -0.16908015310764313, -0.16516368091106415, 0.0016979151405394077, 0.07559868693351746, -0.4521629512310028, 0.1750701516866684, -0.422952800989151, 0.13412824273109436, 0.023568646982312202, -0.2777085602283478, 0.20860840380191803, -0.21383529901504517, 0.007899533025920391, -0.21561190485954285, -0.15461385250091553, 0.40318065881729126, -0.006728660315275192, 0.34255650639533997, -0.2832016944885254, 0.2071513682603836, 0.5023044347763062, 0.11351148039102554, 0.04551341012120247, 0.07096533477306366, 0.04691236838698387], [0.04430609568953514, -0.3137768805027008, -0.05239858105778694, -0.012174042873084545, -0.3744341731071472, -0.0897718071937561, 0.23728129267692566, 0.27758368849754333, -0.15916593372821808, -0.029970679432153702, -0.0349469818174839, -0.2200034260749817, -0.0075155762024223804, -0.06952739506959915, -0.23163606226444244, -0.24422746896743774, 0.06062431260943413, 0.1962316483259201, 0.22461450099945068, -0.01665109023451805, -0.4490993618965149, 0.2201930731534958, -0.47331732511520386, -0.09977201372385025, -0.19921225309371948, 0.38669469952583313, 0.3095189034938812, 0.010534778237342834, 0.2597695589065552, -0.1832086592912674, -0.02986929938197136, -0.11833316087722778, 0.1566741168498993, -0.16511791944503784, -0.3489875793457031, 0.16522987186908722, 0.11652254313230515, -0.04710609093308449, 0.061310235410928726, 0.232603520154953, 0.1788867563009262, 0.17958912253379822, 0.11930326372385025, -0.18887323141098022, -0.2313104122877121, -0.22777462005615234, -0.47799503803253174, 0.2755325734615326, -0.03113958053290844, -0.16607880592346191, 0.24477164447307587, 0.10012910515069962, 0.05359853804111481, -0.04487866163253784, 0.057763777673244476, 0.23739869892597198, -0.10763313621282578, 0.0633157268166542, 0.1837710291147232, -0.11537472158670425, -0.0021938297431916, 0.22747702896595, -0.08578566461801529, -0.49233683943748474], [0.21751363575458527, -0.22090239822864532, 0.15664438903331757, 0.3783842623233795, -0.2649066746234894, -0.0871877446770668, 0.3894740343093872, 0.1388532966375351, -0.31692054867744446, 0.055389154702425, -0.02410787157714367, 0.24997545778751373, 0.06255755573511124, -0.1852598637342453, -0.4582931101322174, -0.16138838231563568, 0.02753651887178421, -0.12029518187046051, 0.08936181664466858, 0.17277561128139496, -0.18636342883110046, 0.42088091373443604, 0.036674316972494125, 0.24500559270381927, -0.21139024198055267, 0.023469293490052223, 0.02284647896885872, -0.35476598143577576, 0.20466198027133942, -0.34563472867012024, 0.18488150835037231, -0.3505261540412903, -0.08245482295751572, 0.07760057598352432, 0.2867215871810913, 0.14973783493041992, -0.28034281730651855, -0.2982075810432434, -0.17229348421096802, -0.4256969392299652, 0.26862525939941406, 0.2724083364009857, 0.013392637483775616, -0.1681995540857315, -0.4120226800441742, -0.22186027467250824, -0.41015034914016724, 0.07263009250164032, 0.40815767645835876, -0.06812188774347305, 0.07725998014211655, -0.2727523148059845, 0.17890983819961548, -0.13540442287921906, -0.1342495083808899, -0.027233023196458817, -0.42896416783332825, 0.25524476170539856, 0.10598184913396835, 0.08363474160432816, -0.21725082397460938, -0.03703310340642929, 0.03450622037053108, -0.11267689615488052], [0.3142499327659607, -0.057315170764923096, 0.029777314513921738, 0.18914614617824554, -0.3510243594646454, 0.038034748286008835, -0.11266674101352692, -0.529941976070404, 0.06239045411348343, -0.33645930886268616, 0.04230232909321785, 0.34081950783729553, -0.09946141391992569, -0.0611160546541214, 0.026203950867056847, 0.028564222157001495, 0.24557434022426605, 0.22457602620124817, 0.14455881714820862, -0.032017018646001816, 0.0530959852039814, 0.6237177848815918, -0.44827449321746826, -0.06853000819683075, -0.3459893465042114, 0.12709735333919525, 0.3347865343093872, 0.4322654604911804, 0.3100338578224182, 0.01957857795059681, -0.0871179848909378, 0.38099393248558044, 0.24873164296150208, -0.194132000207901, 0.3214089274406433, -0.14327192306518555, -0.18562589585781097, 0.1846475750207901, -0.14419837296009064, 0.16955411434173584, 0.14545701444149017, -0.023902976885437965, -0.31818529963493347, 0.057733163237571716, 0.025343425571918488, 0.31244388222694397, -0.22103646397590637, -0.20296747982501984, 0.6262474656105042, 0.00247396994382143, 0.22904075682163239, -0.5094097852706909, 0.2078486829996109, -0.027768217027187347, -0.16987590491771698, 0.3595597743988037, -0.1028948649764061, 0.3597171902656555, -0.3587801456451416, -0.049442168325185776, -0.1895916759967804, 0.018867701292037964, 0.1606249064207077, -0.12904536724090576], [-0.6019496321678162, 0.10489336401224136, -0.127626433968544, 0.20113007724285126, 0.1970861405134201, 0.4471760094165802, -0.006452007684856653, 0.5202738046646118, -0.3304273188114166, 0.18637233972549438, 0.11760866641998291, 0.057273946702480316, 0.5307361483573914, 0.4223087430000305, -0.23808607459068298, -0.12794677913188934, -0.34246760606765747, -0.046191997826099396, 0.0998101681470871, -0.0809623971581459, 0.054099131375551224, -0.39744463562965393, 0.06535234302282333, -0.05471895635128021, -0.03037939965724945, -0.06367432326078415, 0.01706974022090435, -0.0981215089559555, 0.04471993073821068, 0.5057004690170288, 0.111678846180439, -0.6145162582397461, 0.19433879852294922, 0.38596054911613464, -0.4227913022041321, 0.3226070702075958, 0.35236111283302307, -0.11252378672361374, 0.017781682312488556, -0.3167763948440552, -0.10355842858552933, -0.012234150432050228, 0.3292206823825836, -0.05833130329847336, 0.11332552880048752, -0.39825958013534546, 0.28954750299453735, 0.14957182109355927, 0.17850393056869507, 0.1213778555393219, 0.05253123492002487, 0.36143743991851807, -0.1667485237121582, 0.014883558265864849, 0.5124323964118958, -0.10696486383676529, 0.37107011675834656, -0.46280622482299805, 0.15212105214595795, -0.04176032915711403, -0.060461901128292084, -0.28047358989715576, -0.23731091618537903, 0.5146144032478333], [0.36544960737228394, -0.09334120154380798, 0.23763884603977203, 0.047086380422115326, -0.5124056339263916, -0.14999668300151825, 0.12756502628326416, 0.19739165902137756, 0.16882753372192383, -0.3381783664226532, -0.20468789339065552, 0.37111273407936096, -0.13307788968086243, -0.20731203258037567, 0.06657276302576065, 0.07647998631000519, 0.34821125864982605, -0.08510491251945496, -0.15288366377353668, 0.3785591125488281, 0.13551348447799683, 0.1279478818178177, -0.12482232600450516, -0.07760865241289139, -0.30642664432525635, 0.07573370635509491, 0.151512011885643, -0.1769271194934845, -0.022516220808029175, -0.17463399469852448, 0.022425886243581772, 0.09621134400367737, -0.13212299346923828, -0.04104534536600113, 0.22142745554447174, -0.19482654333114624, -0.24677084386348724, 0.03993959724903107, 0.4016694128513336, 0.31927791237831116, 0.4336448907852173, -0.025912722572684288, -0.23240366578102112, -0.26993000507354736, -0.4554755687713623, 0.40691307187080383, -0.21812614798545837, -0.07361240684986115, 0.19763021171092987, -0.0848461166024208, -0.08537091314792633, -0.3715755045413971, 0.08689478039741516, 0.06629373878240585, -0.028767211362719536, 0.3473469316959381, 0.15641896426677704, 0.4370751678943634, -0.03218240663409233, -0.5372888445854187, 0.32557326555252075, -0.07629594206809998, 0.16944092512130737, -0.17163459956645966], [0.3546158969402313, 0.0930047407746315, 0.042667631059885025, -0.0801239088177681, -0.14031806588172913, -0.4639104902744293, -0.10093341022729874, -0.2866980731487274, 0.34187090396881104, -0.3055131733417511, -0.07785564661026001, 0.20239771902561188, 0.003351721679791808, 0.21077676117420197, 0.10101660341024399, 0.18181772530078888, 0.23672768473625183, 0.38112255930900574, -0.3120802640914917, -0.002603912027552724, 0.12765567004680634, 0.38251423835754395, 0.4795774519443512, 0.23222695291042328, -0.2187938094139099, -0.12120339274406433, 0.04391646385192871, 0.12193366140127182, -0.31112417578697205, -0.0346180684864521, -0.14267003536224365, 0.20878729224205017, 0.19442631304264069, -0.283760130405426, -0.22865264117717743, -0.5146077871322632, -0.4019204378128052, 0.15817579627037048, 0.2303951382637024, 0.4378683865070343, 0.3947775065898895, -0.11950992047786713, -0.27796515822410583, 0.2249743491411209, -0.03502339869737625, 0.006193255539983511, 0.1827533096075058, -0.07152710109949112, 0.31281203031539917, -0.25830093026161194, 0.25902488827705383, -0.29676443338394165, -0.1820153146982193, 0.1812046617269516, -0.19904224574565887, 0.28540468215942383, -0.22062134742736816, 0.5851152539253235, -0.274831622838974, 0.47459733486175537, 0.21838055551052094, 0.2511887848377228, 0.10421480983495712, -0.3306001126766205], [0.44674447178840637, -0.02756950818002224, 0.18345311284065247, -0.17162838578224182, -0.4200544059276581, -0.2195495069026947, -0.3073769807815552, -0.4562249779701233, 0.21651269495487213, -0.20642274618148804, -0.19000104069709778, 0.3014879524707794, -0.27183499932289124, -0.035491082817316055, 0.46381136775016785, 0.004877911414951086, -0.027824819087982178, 0.3228622376918793, -0.482570618391037, 0.10549727082252502, -0.07304655760526657, 0.0021580287721008062, -0.26400038599967957, 0.038220424205064774, 0.0734209269285202, -0.1238492950797081, -0.25522276759147644, 0.10816759616136551, -0.1721065640449524, 0.2436826527118683, -0.12211333215236664, 0.32123246788978577, -0.0148170106112957, -0.3583093583583832, 0.13331785798072815, -0.3892996311187744, -0.04172566533088684, 0.3064180314540863, 0.08006507158279419, 0.3560853600502014, -0.04186336696147919, -0.0957069993019104, 0.13509111106395721, -0.3265353739261627, 0.1674521565437317, -0.32672297954559326, 0.3196561336517334, -0.09116696566343307, 0.06042248383164406, -0.38303953409194946, 0.25511598587036133, -0.33446165919303894, 0.07064791023731232, -0.21359087526798248, -0.38404539227485657, -0.11162830144166946, -0.11963396519422531, 0.28977325558662415, -0.04071689397096634, -0.05056874081492424, -0.10269542038440704, -0.1942833811044693, -0.1275261789560318, 0.11430715024471283], [-0.08833108097314835, 0.25435611605644226, 0.13626933097839355, -0.036307431757450104, 0.1955040991306305, 0.040359511971473694, -0.34271159768104553, 0.22425128519535065, 0.09097833186388016, 0.29384979605674744, 0.08083628118038177, -0.304417222738266, -0.2462427020072937, 0.002053847536444664, 0.1884337216615677, 0.19139312207698822, 0.11352284252643585, -0.06113503873348236, -0.2139395773410797, -0.2446821630001068, 0.28333601355552673, -0.1812501847743988, 0.00881290901452303, -0.45080626010894775, 0.15824924409389496, -0.2760709524154663, -0.1535545140504837, 0.029626263305544853, -0.23989200592041016, 0.026394018903374672, -0.07373778522014618, 0.1915820837020874, -0.21917040646076202, -0.21191155910491943, -0.3524682819843292, -0.269260436296463, -0.19953490793704987, 0.055066656321287155, -0.203360453248024, -0.027392538264393806, -0.2041648030281067, -0.20122650265693665, 0.4014137387275696, 0.3298291265964508, -0.009520253166556358, -0.3207261264324188, 0.1377779245376587, 0.34480470418930054, 0.12775695323944092, 0.29441162943840027, -0.24632297456264496, 0.24706032872200012, -0.18333670496940613, -0.34733718633651733, 0.09467257559299469, 0.2612115740776062, 0.42417579889297485, -0.19854475557804108, 0.07688198983669281, 0.3387660086154938, -0.12683425843715668, -0.15766958892345428, 0.08185572922229767, 0.5158577561378479], [0.1140245869755745, -0.1443752646446228, -0.3042454719543457, 0.07859424501657486, 0.3515913784503937, -0.31032422184944153, 0.11407448351383209, 0.09383359551429749, -0.09261486679315567, -0.2956807017326355, -0.0691036805510521, 0.07356623560190201, 0.09415511041879654, -0.03669986128807068, -0.11706224083900452, 0.30758702754974365, 0.2008948028087616, -0.29309386014938354, 0.05573594570159912, -0.26128846406936646, -0.08399884402751923, -0.43331679701805115, 0.18098768591880798, -0.05302714556455612, 0.06548265367746353, -0.08217071741819382, 0.023314595222473145, -0.08071612566709518, 0.34527572989463806, 0.27600809931755066, 0.051686592400074005, -0.22844788432121277, -0.1683572232723236, -0.05958731845021248, -0.3118174970149994, 0.08166337013244629, 0.15844307839870453, -0.03235286474227905, -0.05815846845507622, -0.1525246948003769, -0.03778796270489693, -0.38260236382484436, 0.03344069421291351, -0.015504994429647923, 0.2885994613170624, -0.07403212785720825, -0.07422060519456863, 0.02855180762708187, 0.06593688577413559, 0.05646877363324165, -0.36593231558799744, 0.31045740842819214, -0.019029462710022926, -0.2195688933134079, 0.2892434298992157, -0.11768146604299545, -0.3192100524902344, -0.23538745939731598, 0.2689591944217682, -0.03756818175315857, 0.025620505213737488, 0.24165315926074982, 0.06641042232513428, 0.5183874368667603], [0.2539993226528168, -0.09482181817293167, 0.1201511025428772, -0.11899445950984955, -0.16811566054821014, -0.21839039027690887, -0.0414448045194149, -0.554854154586792, 0.42955920100212097, -0.12983566522598267, 0.07925199717283249, -0.19430573284626007, -0.34532156586647034, 0.16804006695747375, 0.4051683843135834, -0.0038364934735000134, 0.11912034451961517, 0.1949060559272766, -0.1627371460199356, 0.053785987198352814, 0.32873091101646423, 0.2554357647895813, 0.08158908784389496, -0.19577637314796448, 0.014708908274769783, 0.12386398017406464, -0.0647236779332161, -0.15388953685760498, -0.5568353533744812, 0.09350556135177612, 0.07603753358125687, 0.15301631391048431, -0.18154868483543396, -0.14063282310962677, -0.14651228487491608, -0.3321460485458374, -0.2843945324420929, 0.42761558294296265, 0.11384156346321106, 0.17584571242332458, -0.11616580933332443, -0.22046583890914917, -0.4398922026157379, -0.19646388292312622, 0.047896858304739, 0.5067188143730164, 0.029349323362112045, 0.01074692141264677, 0.07830933481454849, -0.16074900329113007, 0.3394624590873718, -0.04787642881274223, 0.20449617505073547, -0.147536963224411, 0.27533677220344543, -0.22105836868286133, 0.09696131944656372, 0.16452863812446594, -0.05129297077655792, 0.21481570601463318, -0.5018770098686218, 0.12612879276275635, -0.33257928490638733, 0.1269751340150833], [-0.20570147037506104, -0.35695880651474, -0.20532305538654327, 0.01793995127081871, -0.04075199365615845, 0.22676484286785126, 0.3465856909751892, 0.2270798236131668, -0.38351064920425415, 0.1359679400920868, -0.26970040798187256, -0.48559442162513733, 0.040083833038806915, -0.09248416870832443, -0.07358833402395248, 0.26161593198776245, -0.11509355902671814, -0.06298454850912094, 0.41136330366134644, -0.08287964016199112, -0.17821775376796722, 0.022126175463199615, 0.1361369639635086, -0.22091259062290192, 0.28056600689888, 0.15853329002857208, 0.25886791944503784, -0.020893089473247528, -0.05327276885509491, 0.13969554007053375, 0.11788661032915115, -0.6422330141067505, 0.09401844441890717, 0.2536693513393402, -0.09705093502998352, 0.04627338424324989, -0.012520559132099152, -0.2784339189529419, -0.07980572432279587, -0.45064815878868103, -0.08550358563661575, -0.06185252591967583, -0.025130733847618103, 0.20660987496376038, 0.221857950091362, -0.40613266825675964, 0.17810757458209991, 0.23530098795890808, 0.056902926415205, 0.09113084524869919, -0.480943500995636, -0.14821478724479675, -0.12369386106729507, 0.18201562762260437, 0.06917977333068848, -0.20278573036193848, 0.119919553399086, -0.186322420835495, -0.08109603822231293, -0.24585631489753723, 0.3145323395729065, -0.16804951429367065, -0.033493805676698685, 0.20681113004684448], [-0.07389845699071884, 0.4005044996738434, 0.22162629663944244, -0.08518100529909134, 0.5035141706466675, -0.2437715232372284, -0.38182079792022705, -0.037375252693891525, -0.1485927402973175, 0.029085533693432808, 0.11349803954362869, -0.23496943712234497, 0.2737395465373993, -0.12701250612735748, 0.0742240622639656, 0.12870292365550995, 0.13114909827709198, 0.18512757122516632, 0.12515799701213837, -0.06970102339982986, 0.09214584529399872, -0.199192076921463, 0.14033298194408417, 0.2568593919277191, 0.23960089683532715, 0.05365227907896042, 0.279975026845932, -0.056969549506902695, -0.27295276522636414, -0.08518827706575394, 0.18927499651908875, 0.26129382848739624, -0.05439446121454239, -0.2639424204826355, -0.19861464202404022, 0.33513426780700684, -0.16310164332389832, 0.3190053105354309, -0.1288466900587082, 0.18135033547878265, -0.014952530153095722, -0.26155251264572144, -0.18813958764076233, -0.10233805328607559, 0.11704330891370773, -0.1775559037923813, 0.3297020494937897, 0.18854323029518127, -0.17879964411258698, -0.140039324760437, -0.1769707053899765, -0.1305849701166153, 0.08163558691740036, -0.19279712438583374, 0.04110115393996239, -0.09649799764156342, 0.35024726390838623, -0.07419157028198242, 0.006572973448783159, 0.043352626264095306, 0.033751580864191055, -0.2693813741207123, -0.2449759542942047, 0.40894681215286255], [-0.1528986096382141, -0.2025999277830124, 0.30937108397483826, -0.1744944006204605, 0.11182282119989395, 0.17388707399368286, -0.5150400400161743, -0.17519241571426392, 0.5329707264900208, 0.06780427694320679, 0.3480862081050873, 0.1168098896741867, 0.450796902179718, -0.3119220435619354, 0.049581192433834076, 0.22049540281295776, -0.1546141654253006, 0.24260666966438293, -0.4179908335208893, -0.33199599385261536, 0.132899671792984, -0.22458408772945404, -0.031248724088072777, -0.29723212122917175, 0.17002160847187042, 0.006202685181051493, -0.12094121426343918, 0.1626032143831253, -0.23972444236278534, -0.08948786556720734, 0.26042863726615906, -0.041102901101112366, 0.07821380347013474, 0.005600916687399149, -0.1764727383852005, -0.13454733788967133, 0.13917608559131622, 0.19829106330871582, -0.023096900433301926, -0.09092339873313904, 0.05280768871307373, -0.242162823677063, 0.1832246035337448, 0.3464619219303131, 0.07539811730384827, 0.15560397505760193, 0.19266077876091003, 0.052547212690114975, -0.3825969398021698, -0.10317996889352798, -0.17281880974769592, -0.17018015682697296, -0.18439485132694244, -0.08856885880231857, 0.1457635760307312, -0.10250937193632126, 0.21683096885681152, -0.3793255686759949, 0.380676805973053, 0.3293497860431671, 0.10991010069847107, 0.019769826903939247, -0.1399025022983551, 0.37719395756721497], [0.027018211781978607, 0.01092822290956974, 0.13544276356697083, -0.6517738699913025, 0.009621987119317055, -0.13857829570770264, -0.2000870257616043, -0.6321432590484619, 0.3642975091934204, 0.2267923206090927, 0.039354220032691956, -0.23271195590496063, -0.040711529552936554, -0.07848037779331207, 0.012882820330560207, 0.10836616903543472, 0.1723731905221939, 0.36489954590797424, -0.0248247180134058, 0.22307714819908142, 0.1573978066444397, -0.39150214195251465, 0.15393070876598358, 0.16808369755744934, -0.00823791790753603, -0.24981851875782013, -0.48340219259262085, 0.28696170449256897, -0.18010461330413818, 0.19393491744995117, 0.3398377597332001, 0.3879629075527191, 0.018167713657021523, -0.05159361660480499, -0.2804666757583618, -0.21984459459781647, -0.07552561908960342, 0.15039438009262085, 0.013423429802060127, 0.06153262034058571, -0.11231987923383713, -0.36424753069877625, -0.13596545159816742, -0.015532286837697029, -0.26985469460487366, 0.060259174555540085, 0.08741983771324158, -0.15226255357265472, -0.03150099143385887, -0.37080708146095276, 0.1747632622718811, -0.06371128559112549, -0.22965627908706665, -0.08361546695232391, -0.04992406442761421, 0.4219056963920593, 0.07637365907430649, -0.41160112619400024, -0.15751147270202637, 0.07154146581888199, -0.2658693194389343, -0.17673417925834656, 0.16393938660621643, 0.30256664752960205], [-0.014604467898607254, -0.03465403616428375, -0.10420089215040207, -0.32234087586402893, -0.03613312169909477, 0.07184665650129318, -0.793181836605072, 0.2290535718202591, 0.42683786153793335, -0.1732754409313202, 0.09701322764158249, -0.18860462307929993, -0.20832715928554535, 0.09402884542942047, 0.11167052388191223, -0.14330770075321198, -0.2123437225818634, -0.2353964000940323, 0.12106188386678696, -0.10472830384969711, 0.022437022998929024, -0.035558462142944336, 0.3683660328388214, -0.0358196385204792, 0.08887596428394318, -0.2454579472541809, -0.18410326540470123, 0.2549515664577484, 0.08302725851535797, 0.27456414699554443, 0.4155673086643219, 0.2663601040840149, -0.08941467106342316, -0.2547593414783478, -0.1718667447566986, 0.18489393591880798, -0.01030240673571825, -0.1925039291381836, -0.041384387761354446, 0.007494661491364241, -0.040230438113212585, -0.15601210296154022, -0.06891652196645737, -0.09250541031360626, 0.08788062632083893, -0.055485017597675323, 0.23480983078479767, 0.27092501521110535, 0.070948526263237, -0.08940569311380386, -0.05664195120334625, -0.051717836409807205, -0.22523604333400726, 0.14315588772296906, 0.34728384017944336, -0.3266763985157013, 0.14800727367401123, -0.27405741810798645, 0.12414488196372986, 0.15693625807762146, -0.12269147485494614, -0.17628228664398193, 0.009527133777737617, 0.10764026641845703], [0.09542596340179443, -0.26462310552597046, 0.041415393352508545, -0.054709188640117645, -0.1728353649377823, -0.14654219150543213, 0.06710292398929596, -0.22799445688724518, 0.03856579586863518, -0.11156488209962845, 0.20892253518104553, 0.10853378474712372, -0.46877551078796387, 0.03464971110224724, 0.12961886823177338, 0.25481271743774414, -0.07456757128238678, 0.3886791467666626, -0.14123207330703735, 0.046270277351140976, 0.3016131520271301, 0.1919650137424469, -0.11837329715490341, 0.172588512301445, -0.8291476964950562, -0.24782539904117584, 0.3096162974834442, -0.09375321865081787, 0.021332237869501114, -0.3084535002708435, -0.012703636661171913, 0.3365445137023926, -0.13123886287212372, -0.10831145942211151, 0.2298797369003296, -0.31221580505371094, -0.44073784351348877, 0.16979001462459564, -0.2875320315361023, 0.16620607674121857, 0.09909162670373917, 0.1951867640018463, 0.012267437763512135, -0.3780049681663513, -0.01357438787817955, 0.37170839309692383, -0.14841526746749878, -0.15526182949543, 0.380494624376297, -0.5474948883056641, 0.330128014087677, -0.21908628940582275, 0.1749223917722702, 0.05609830468893051, -0.2551160156726837, 0.00017829220450948924, -0.1580231934785843, 0.3446894586086273, -0.01620432175695896, -0.25653907656669617, 0.2950896620750427, 0.22908976674079895, 0.1274997889995575, -0.359335720539093], [-0.45588400959968567, -0.08142784982919693, -0.5218800902366638, 0.24839259684085846, 0.1034221425652504, 0.4443313181400299, 0.26711466908454895, 0.5639424920082092, -0.07614961266517639, 0.39240574836730957, 0.04283115640282631, -0.38633695244789124, 0.22376404702663422, -0.15421737730503082, -0.2576533257961273, -0.03936927020549774, -0.3392344117164612, -0.38373613357543945, 0.15807460248470306, -0.17777030169963837, -0.2562362849712372, -0.32042041420936584, -0.17333726584911346, 0.19797809422016144, 0.4037892520427704, 0.5213104486465454, -0.34188312292099, -0.19991976022720337, 0.24681301414966583, -0.28506460785865784, 0.09082189947366714, -0.3979686200618744, 0.15674637258052826, -0.09729944914579391, -0.11559314280748367, 0.11420025676488876, 0.0955241471529007, -0.26706212759017944, -0.11808885633945465, -0.19657090306282043, 0.371580570936203, 0.13670054078102112, 0.07393036782741547, -0.22141289710998535, 0.43417465686798096, -0.08509815484285355, 0.10922834277153015, -0.2718740403652191, 0.16514045000076294, 0.25134149193763733, -0.10062664747238159, 0.47157561779022217, -0.030647387728095055, -0.034182097762823105, 0.09570468962192535, -0.06642225384712219, 0.2592232823371887, -0.4373692274093628, 0.2907100319862366, 0.088314488530159, 0.09145023673772812, -0.31977608799934387, -0.01698354445397854, 0.3660489618778229], [0.4856920540332794, -0.12733972072601318, 0.025305964052677155, -0.20737746357917786, -0.21426765620708466, -0.48587045073509216, -0.18129292130470276, -0.31986427307128906, 0.6644299626350403, -0.09864500164985657, -0.21962907910346985, 0.18787558376789093, -0.20362688601016998, 0.4070943593978882, -0.1756623089313507, 0.06321140378713608, 0.18706147372722626, 0.3669840693473816, -0.29770204424858093, 0.171122208237648, 0.4112906754016876, 0.5583108067512512, -0.07006850093603134, 0.10106057673692703, 0.059397004544734955, -0.248668372631073, 0.18551035225391388, 0.059855300933122635, -0.3508317768573761, 0.13728800415992737, 0.12629374861717224, 0.6111412048339844, -0.2101537436246872, -0.4323723614215851, 0.29096099734306335, -0.20258569717407227, -0.17226526141166687, 0.800606906414032, -0.06091105937957764, 0.03294328972697258, 0.1870376318693161, -0.09698944538831711, 0.02403763122856617, 0.08644766360521317, -0.26010337471961975, 0.0321984700858593, 0.1492905616760254, -0.43562644720077515, 0.22303453087806702, -0.28627702593803406, -0.24022334814071655, -0.28889229893684387, -0.06434888392686844, -0.005424493458122015, -0.23574723303318024, 0.2415551394224167, 0.021227069199085236, 0.37640175223350525, -0.2906043529510498, -0.22925320267677307, -0.13079047203063965, 0.5820804834365845, -0.1459021419286728, -0.3450532853603363], [-0.060814179480075836, 0.36636003851890564, 0.25566366314888, -0.17758412659168243, 0.23575377464294434, -0.10453175753355026, -0.038871634751558304, 0.4266505241394043, 0.030226361006498337, 0.3438851237297058, 0.02346687763929367, 0.037297047674655914, -0.073847696185112, -0.1353769600391388, -0.11268992722034454, 0.11518904566764832, -0.12247929722070694, 0.03215013071894646, -0.07011310756206512, 0.08849543333053589, 0.038155511021614075, -0.20947709679603577, 0.06269235908985138, -0.22686833143234253, 0.5553352236747742, 0.12180773168802261, -0.1058354303240776, 0.3499729037284851, 0.036707423627376556, 0.043408650904893875, 0.48156264424324036, 0.01389651745557785, -0.3420622646808624, 0.20564422011375427, -0.1499134600162506, -0.004215680528432131, 0.2296445518732071, -0.061125125735998154, -0.07621243596076965, -0.04659080132842064, -0.37211957573890686, -0.4935723841190338, 0.20011135935783386, 0.330158531665802, 0.6385930180549622, 0.10167092829942703, -0.01563846506178379, -0.0398884080350399, -0.10661507397890091, -0.3723891079425812, 0.16315491497516632, 0.17314864695072174, -0.20850828289985657, 0.14104488492012024, 0.14184975624084473, -0.04865482822060585, 0.3915090262889862, -0.17979547381401062, 0.30590659379959106, 0.3853549361228943, 0.04994797706604004, -0.29736974835395813, -0.22403578460216522, 0.4325493276119232], [-0.1203083023428917, 0.030597947537899017, 0.15266643464565277, -0.08989185094833374, 0.28876155614852905, 0.15598420798778534, -0.32564038038253784, 0.1780688464641571, -0.3448764681816101, 0.0841560885310173, -0.20377305150032043, -0.11115384101867676, 0.02080541104078293, -0.3969747722148895, -0.08917258679866791, -0.1424294114112854, -0.3446551263332367, -0.4899129271507263, 0.17920167744159698, -0.059301577508449554, 0.15116554498672485, -0.06598072499036789, -0.2027997374534607, 0.1551557332277298, -0.07173103094100952, 0.1282680779695511, 0.048291970044374466, 0.06765677034854889, -0.06168254464864731, 0.2524382770061493, -0.05652179569005966, 0.07273212820291519, 0.2988903224468231, 0.0295009333640337, -0.06794548034667969, -0.35383135080337524, -0.3128873407840729, 0.1854320615530014, 0.23627276718616486, -0.016401726752519608, 0.014333754777908325, -0.16465133428573608, 0.08741745352745056, 0.1807325780391693, -0.034519631415605545, 0.0005413450999185443, -0.178345188498497, -0.2635590434074402, -0.11736548691987991, -0.24090565741062164, 0.07879225164651871, 0.10735423117876053, -0.2034992277622223, 0.010544943623244762, -0.044586438685655594, -0.16228964924812317, 0.03835073113441467, -0.06339095532894135, 0.2898969352245331, -0.0044123088009655476, -0.13645045459270477, 0.09321027249097824, -0.040095843374729156, 0.18356269598007202], [-0.13938704133033752, -0.04165536165237427, 0.5191561579704285, -0.5400375127792358, -0.0025257100351154804, -0.1549713909626007, -0.08367229998111725, -0.09512446820735931, 0.049974631518125534, 0.05525808036327362, 0.15067918598651886, -0.3766269087791443, 0.10784867405891418, 0.2446340173482895, 0.08337096869945526, -0.0018270931905135512, 0.06904099881649017, -0.018516285344958305, -0.06264122575521469, 0.10221442580223083, 0.36034736037254333, -0.25242334604263306, -0.20098267495632172, -0.1365422010421753, 0.1774619072675705, -0.2558656632900238, -0.21573501825332642, -0.13813169300556183, 0.05201695114374161, 0.18202194571495056, 0.028034308925271034, 0.11262994259595871, 0.02212134189903736, -0.4272718131542206, -0.06717263162136078, 0.06498239189386368, -0.08007194846868515, 0.20174437761306763, -0.02257506176829338, 0.11820092052221298, -0.043576885014772415, -0.28928178548812866, 0.1790437549352646, 0.04900677874684334, 0.24467794597148895, 0.13792385160923004, 0.2140475958585739, -0.07935070246458054, 0.013749483972787857, 0.25368139147758484, 0.1272595077753067, -0.435646116733551, 0.07667537778615952, 0.2851428985595703, 0.12287776917219162, -0.014411067590117455, -0.30821219086647034, 0.12300688028335571, 0.13846531510353088, 0.2736075520515442, 0.10967857390642166, 0.06777963042259216, -0.03993181139230728, 0.20162029564380646], [-0.004181216936558485, -0.06665166467428207, -0.1534305065870285, 0.29912838339805603, -0.03555915504693985, 0.07569137960672379, 0.024509258568286896, 0.028515269979834557, -0.5102651119232178, 0.23936830461025238, -0.08618439733982086, 0.19305430352687836, -0.0705556571483612, -0.05156004801392555, -0.2581537663936615, -0.32467159628868103, 0.31052425503730774, 0.028109809383749962, 0.31292927265167236, 0.05485968291759491, -0.2934475243091583, 0.3346813917160034, -0.07425890862941742, -0.07435507327318192, -0.1975899040699005, -0.20435699820518494, -0.06652882695198059, -0.24109794199466705, -0.13039399683475494, -0.02168094739317894, 0.18776929378509521, -0.3608384430408478, 0.14091376960277557, -0.007226457819342613, 0.4370970129966736, -0.013033436611294746, 0.09347546100616455, -0.0334026962518692, 0.11394643783569336, 0.11646532267332077, 0.39381152391433716, 0.2772983908653259, -0.05318320915102959, -0.2556331753730774, 0.39066770672798157, 0.2362883985042572, -0.12373528629541397, 0.31214267015457153, 0.021730635315179825, 0.2476588934659958, 0.11766798049211502, -0.03997868672013283, -0.3016902804374695, -0.10364430397748947, -0.16365499794483185, 0.1659931242465973, -0.16092610359191895, -0.1335795670747757, 0.10432559996843338, -0.25624576210975647, 0.08129270374774933, 0.2558414936065674, 0.0929427519440651, -0.20640498399734497], [0.07041377574205399, -0.0972236692905426, 0.04262173920869827, -0.06713762879371643, -0.1173432394862175, 0.02400330640375614, 0.39853695034980774, 0.39311483502388, -0.46468934416770935, -0.020572027191519737, 0.037725187838077545, 0.1252514272928238, 0.1406649500131607, 0.05672503262758255, -0.3442626893520355, -0.3731859624385834, -0.21692539751529694, -0.022683661431074142, 0.46810099482536316, -0.418143093585968, 0.336357444524765, 0.0273077804595232, 0.06552155315876007, -0.2660430669784546, 0.1876952350139618, 0.09641444683074951, -0.030279161408543587, 0.08048948645591736, 0.22504040598869324, -0.0874190628528595, -0.1584358513355255, -0.2005658596754074, -0.13569682836532593, 0.3532527983188629, -0.18565598130226135, -0.0023171037901192904, 0.13791543245315552, -0.1676252782344818, 0.08687149733304977, -0.07165378332138062, 0.320404589176178, 0.3614494204521179, -0.29308855533599854, 0.02933153510093689, -0.06870848685503006, -0.028270622715353966, 0.08558247983455658, 0.1559300720691681, 0.11592240631580353, 0.1525234580039978, -0.1705295592546463, 0.25153887271881104, 0.17478826642036438, -0.20317505300045013, -0.4841850996017456, -0.23286359012126923, -0.15374207496643066, -0.20464374125003815, 0.13884598016738892, -0.20631049573421478, 0.14675508439540863, -0.11973296105861664, 0.03204498067498207, 0.059143200516700745], [0.17908474802970886, 0.019864283502101898, 0.14033669233322144, -0.04871831461787224, 0.18951228260993958, 0.055034734308719635, 0.18582873046398163, -0.025115424767136574, 0.1753588616847992, 0.02368118055164814, -0.21828226745128632, 0.1336086541414261, -0.3225085437297821, 0.4803061783313751, -0.2485300600528717, 0.2816987633705139, 0.12106367945671082, -0.04934047535061836, -0.17641274631023407, 0.0012594881700351834, -0.2196226567029953, 0.015933740884065628, -0.312426894903183, 0.12344235181808472, -0.4207088351249695, 0.22564347088336945, 0.15931770205497742, 0.25630292296409607, 0.0366622619330883, -0.1746004819869995, 0.31270071864128113, -0.13282720744609833, 0.08534345030784607, 0.008982392959296703, 0.16237673163414001, 0.07876031845808029, -0.25602084398269653, 0.05575868487358093, 0.4018225073814392, 0.1983986645936966, 0.07901563495397568, 0.5303699374198914, -0.16209374368190765, -0.03842519596219063, -0.15116390585899353, 0.1285417079925537, -0.18570871651172638, 0.16354386508464813, 0.32307007908821106, 0.20287194848060608, -0.04838838800787926, -0.13863126933574677, 0.08980004489421844, -0.04658835008740425, -0.3989136219024658, -0.19120024144649506, -0.3812505006790161, 0.3020303547382355, -0.19848531484603882, -0.1822269856929779, -0.047451674938201904, 0.04587118327617645, 0.01010215375572443, -0.19768837094306946]], "mlp_extractor.policy_net.2.bias": [-0.10636375844478607, -0.008712204173207283, 0.07165324687957764, -0.00030600233003497124, -0.018432004377245903, 