{"mlp_extractor.policy_net.0.weight": [[-0.017875084653496742, -0.11845174431800842, 0.4121713638305664, 0.02110590972006321, -0.44572556018829346, -0.15899772942066193, -0.36373528838157654, 0.07060851901769638], [0.131461501121521, -0.0471891313791275, 0.33524975180625916, 0.3037130832672119, -0.6048265099525452, -0.436643123626709, 0.1477520763874054, -0.035931944847106934], [0.1474728137254715, -0.06829188764095306, -0.014223562553524971, 0.15536591410636902, 0.678655743598938, 0.38167259097099304, 0.2655884325504303, 0.32121405005455017], [0.25200366973876953, 0.3101021349430084, 0.38791149854660034, 0.6366903781890869, 0.21530835330486298, -0.1525810956954956, 0.3246655762195587, 0.17140185832977295], [-0.12206478416919708, 0.3392816185951233, 0.17419250309467316, -0.03480406850576401, -0.5274441838264465, -0.4223593771457672, -0.053968340158462524, 0.13818541169166565], [0.2677493691444397, -0.09840656071901321, 0.47078466415405273, 0.28090330958366394, -0.19362802803516388, -0.14361336827278137, 0.02638954296708107, -0.08668127655982971], [-0.1720108687877655, -0.18109974265098572, -0.13283437490463257, -0.23042330145835876, -0.11033058911561966, -0.1327936351299286, -0.25540846586227417, -0.12926903367042542], [0.2061113566160202, -0.09578555822372437, 0.13223512470722198, -0.2646738886833191, -0.4554162621498108, -0.326016366481781, 0.10600967705249786, -0.11477823555469513], [0.09151671081781387, -0.04670103266835213, -0.07884980738162994, 0.406221479177475, 0.3387511372566223, -0.20248031616210938, -0.1742590218782425, 0.2584120035171509], [-0.07167808711528778, 0.2510843276977539, 0.305161714553833, 0.17413726449012756, -0.5317265391349792, -0.4072876274585724, -0.09599712491035461, -0.18199454247951508], [0.06126418709754944, 0.07474976032972336, 0.28459882736206055, -0.3197033703327179, 0.16964387893676758, -0.059055350720882416, -0.41728052496910095, 0.18714681267738342], [-0.17059257626533508, 0.18101181089878082, 0.40418073534965515, -0.46196022629737854, -0.3130386769771576, -0.1473790407180786, 0.07980239391326904, -0.06947719305753708], [0.06038728356361389, 0.21326130628585815, -0.15354348719120026, -0.43946170806884766, -0.1982005536556244, -0.054396919906139374, -0.24491998553276062, 0.08239053189754486], [0.2686404585838318, 0.02553749829530716, -0.04016005992889404, -0.2545294761657715, 0.5708591938018799, 0.47910118103027344, -0.2923761010169983, -0.16209223866462708], [-0.14874900877475739, -0.2446463406085968, -0.18517524003982544, -0.29766225814819336, 0.40703028440475464, -0.1557949185371399, -0.07884165644645691, -0.34672120213508606], [0.35012930631637573, 0.03545225411653519, 0.14131104946136475, 0.6336153149604797, -0.009311415255069733, -0.11586947739124298, 0.09260938316583633, 0.16048595309257507], [-0.6036696434020996, -0.20422998070716858, -0.32863178849220276, -0.5570061206817627, 0.5702447295188904, 0.1686328649520874, -0.6043784618377686, 0.1540312021970749], [0.095277339220047, -0.01441388949751854, 0.15709739923477173, -0.03347673639655113, -0.33365222811698914, -0.3134574890136719, 0.31821367144584656, -0.03766966611146927], [-0.038900114595890045, -0.05556235462427139, 0.05510909855365753, -0.4329582154750824, -0.12610292434692383, -0.030892260372638702, -0.21120662987232208, -0.1889360249042511], [0.1252564638853073, -0.12068070471286774, 0.22139382362365723, 0.45670050382614136, -0.17520004510879517, -0.2917857766151428, 0.08382488042116165, 0.17451779544353485], [0.31578919291496277, -0.0330234095454216, -0.02141570672392845, -0.35677748918533325, -0.3089076280593872, -0.13735747337341309, 0.07194918394088745, 0.1589156687259674], [0.02160513401031494, -0.11083178967237473, -0.2105710506439209, -0.05148155987262726, 0.6854109168052673, -0.037315573543310165, 0.0012383945286273956, -0.08982886373996735], [0.08990389108657837, 0.0014179684221744537, 0.16134068369865417, -0.273184210062027, -0.1379893571138382, 0.014630692079663277, -0.0331120602786541, 0.2898569703102112], [-0.07034386694431305, -0.06382551789283752, 0.39234668016433716, -0.6560991406440735, -0.34431105852127075, -0.583130955696106, -0.053297728300094604, 0.04853133112192154], [-0.09919816255569458, -0.03449007868766785, -0.18913856148719788, 0.008032617159187794, 0.8491309881210327, 0.2821460962295532, 0.23775693774223328, 0.3307979702949524], [-0.07804808020591736, -0.12793074548244476, -0.43597108125686646, 0.10346980392932892, 0.7722355723381042, 0.19630223512649536, -0.20938436686992645, -0.04090780019760132], [0.00630226731300354, -0.18298101425170898, 0.08712536096572876, 0.18445461988449097, -0.5479743480682373, -0.27404817938804626, 0.18569469451904297, 0.3065144717693329], [-0.2821556329727173, 0.016390688717365265, -0.039933741092681885, -0.09608776867389679, -0.10434480011463165, -0.4586676359176636, 0.20190677046775818, 0.008129149675369263], [0.05248314514756203, -0.24216589331626892, 0.41582322120666504, 0.11067277193069458, -0.24813611805438995, 0.3978957533836365, 0.1835368573665619, 0.0949525535106659], [0.014232411980628967, -0.0093655064702034, 0.266842782497406, -0.34271326661109924, -0.011169672012329102, -0.2026376575231552, -0.016217287629842758, -0.21662333607673645], [-0.15373001992702484, -0.08537142723798752, -0.10181175917387009, 0.24781936407089233, 0.2739824950695038, 0.1838311403989792, -0.07201294600963593, 0.304104745388031], [0.3131287097930908, -0.03528305143117905, -0.39025062322616577, 0.21688200533390045, 0.5883930921554565, 0.5539329051971436, -0.4520106017589569, -0.06712248176336288], [-0.1019873172044754, 0.17162370681762695, 0.04214140772819519, -0.13918264210224152, 0.13620826601982117, -0.0036657056771218777, -0.3849834203720093, -0.192501038312912], [0.32759469747543335, -0.22075556218624115, -0.10001692920923233, 0.2639245390892029, 0.1337425410747528, 0.18555861711502075, 0.038580942898988724, 0.010564900003373623], [-0.2766927480697632, -0.07963662594556808, 0.08898262679576874, -0.10780119895935059, 0.55726557970047, 0.2486136257648468, -0.39633864164352417, 0.06821438670158386], [-0.024052850902080536, 0.09290739893913269, 0.2689360976219177, 0.29698988795280457, -0.2752076983451843, -0.3404217064380646, 0.010349872522056103, -0.1365271508693695], [-0.09782984852790833, 0.05660610646009445, -0.10551224648952484, 0.2608817219734192, 0.39500001072883606, 0.1314101368188858, 0.23031294345855713, -0.2534499764442444], [0.20459865033626556, -0.4270382523536682, 0.1878451406955719, 0.25150516629219055, 0.17779554426670074, 0.3591081202030182, 0.30199936032295227, 0.04757598787546158], [-0.2415575385093689, -0.0363837294280529, -0.23875769972801208, 0.1212586835026741, 0.5684868693351746, 0.3898161053657532, -0.14007097482681274, 0.20215019583702087], [0.08839283138513565, -0.00819726288318634, 0.18005649745464325, 0.07601729035377502, -0.8518550395965576, -0.40547001361846924, 0.06270323693752289, 0.013597171753644943], [-0.016989506781101227, -0.1358235627412796, 0.12012262642383575, -0.33491796255111694, -0.26224222779273987, 0.24671880900859833, -0.5358407497406006, -0.08116092532873154], [-0.09900794178247452, 0.04561004042625427, -0.08688883483409882, -0.38972893357276917, 0.01843351125717163, 0.13947555422782898, -0.0419217087328434, -0.03636214882135391], [-0.013046570122241974, 0.21014869213104248, -0.18175944685935974, 0.17111334204673767, 0.5698652267456055, 0.07301755994558334, -0.31370678544044495, 0.1188809722661972], [-0.1699499487876892, -0.09790533781051636, 0.2706949710845947, -0.3313934803009033, -0.6668578386306763, -0.4927442669868469, -0.20342594385147095, -0.19899190962314606], [-0.23543140292167664, -0.10500245541334152, -0.4157770276069641, -0.4068906307220459, 0.6383464932441711, -0.08102989941835403, 0.13908641040325165, -0.17188382148742676], [0.06642221659421921, -0.10599035024642944, 0.3290081024169922, 0.37065955996513367, -0.3825887441635132, -0.3335086405277252, 0.36318516731262207, 0.017202436923980713], [-0.12646618485450745, -0.08535178750753403, 0.13144482672214508, 0.07191195338964462, 0.12591740489006042, 0.09212175011634827, -0.031788744032382965, -0.04650295153260231], [0.024562710896134377, 0.1487017422914505, 0.0918862521648407, 0.4259302616119385, 0.5160781145095825, 0.2954326570034027, -0.028293490409851074, 0.023851923644542694], [-0.10633410513401031, 0.004681824706494808, 0.1992105394601822, 0.18577583134174347, -0.5049149990081787, -0.00074815284460783, -0.028784416615962982, 0.2270527482032776], [-0.032915979623794556, 0.3283163011074066, 0.04581046104431152, -0.33166998624801636, -0.06008679047226906, 0.10306990146636963, -0.20264708995819092, 0.1310327798128128], [-0.10763061046600342, -0.04988979548215866, -0.2781788110733032, -0.16985933482646942, 0.7928160429000854, 0.15386177599430084, -0.173456609249115, -0.05391550064086914], [0.13135024905204773, -0.0003710859455168247, 0.09489274024963379, 0.3869057297706604, -0.5903026461601257, -0.4753951132297516, -0.17393846809864044, -0.239407479763031], [0.2187831550836563, 0.15160448849201202, -0.2594606876373291, 0.28621044754981995, -0.06778480112552643, 0.23764947056770325, 0.24590447545051575, 0.2009306699037552], [0.13972219824790955, 0.129257932305336, -0.011393144726753235, 0.7505155801773071, -0.08964664489030838, -0.11414908617734909, 0.37491369247436523, 0.24835458397865295], [0.2471776008605957, 0.08121852576732635, -0.517848551273346, -0.20304526388645172, 0.2892322540283203, -0.221173495054245, -0.1720087230205536, -0.24097342789173126], [0.16660499572753906, -0.19058695435523987, -0.28559964895248413, -0.27196988463401794, 0.6652443408966064, 0.1456047147512436, 0.11101481318473816, 0.15177683532238007], [-0.15811461210250854, -0.15877899527549744, -0.0469830259680748, -0.007362461648881435, 0.27987512946128845, 0.7162749171257019, 0.27353811264038086, -0.05996721237897873], [0.11015516519546509, -0.06743697077035904, -0.43584543466567993, 0.2153647243976593, 0.16683754324913025, 0.13478246331214905, -0.057385094463825226, 0.2669348120689392], [0.16246354579925537, -0.14602704346179962, 0.12820208072662354, -0.37599629163742065, -0.22192250192165375, -0.21073918044567108, -0.22326242923736572, 0.018679236993193626], [-0.043945446610450745, 0.25540223717689514, 0.2752082943916321, 0.07120412588119507, 0.012112051248550415, 0.439865380525589, 0.2240549772977829, -0.022827474400401115], [-0.006071869283914566, -0.05491795018315315, -0.1670202761888504, 0.3763735890388489, 0.6623643636703491, 0.3125910758972168, 0.40174251794815063, -0.35904625058174133], [-0.09990726411342621, 0.03385671228170395, 0.059140630066394806, 0.36402028799057007, 0.534005880355835, 0.012346640229225159, -0.03338376432657242, -0.09182863682508469], [0.38011929392814636, 0.1085764616727829, -0.27965840697288513, 0.4691706597805023, 0.2343471199274063, 0.3540470004081726, 0.0698249340057373, 0.05537528917193413], [-0.08912549912929535, -0.07792874425649643, -0.24257677793502808, 0.4601481854915619, 0.17247457802295685, 0.4619947075843811, 0.18014737963676453, -0.1478663980960846]], "mlp_extractor.policy_net.0.bias": [-0.0152846435084939, -0.006290375255048275, 0.06754022091627121, -0.005762155633419752, -0.08744022995233536, -0.003749704919755459, -0.03696553409099579, -0.03228525072336197, 0.01212617103010416, -0.06424623727798462, -0.025550663471221924, -0.035759150981903076, -0.05940530449151993, 0.01635889522731304, -0.017613518983125687, 0.022369999438524246, 0.03332727402448654, -0.005911131389439106, -0.0026090145111083984, 0.022434189915657043, -0.023353733122348785, 0.041035763919353485, 0.012208618223667145, -0.01082525122910738, 0.03918111324310303, 0.029476022347807884, -0.025654707103967667, -0.02654549479484558, 0.0947171300649643, -0.028004270046949387, 0.06489823758602142, 0.03857387229800224, -0.03419220447540283, 0.045043908059597015, 0.028455648571252823, -0.06480789184570312, 0.027096576988697052, 0.08591609448194504, 0.012287257239222527, -0.017258772626519203, -0.002569049596786499, -0.01834072545170784, 0.005903417710214853, -0.03220583125948906, 0.02594539150595665, 0.010935775935649872, 0.03072475641965866, 0.008506357669830322, -0.025971822440624237, -0.05466611310839653, 0.03693818673491478, -0.05393306165933609, 0.03279105946421623, 0.004340307787060738, -0.004070138558745384, 0.054716769605875015, 0.12032745033502579, 0.03690233826637268, 0.006511746905744076, -0.0011487770825624466, 0.04186980426311493, -0.006301812827587128, 0.004516365006566048, 0.014475386589765549], "mlp_extractor.policy_net.2.weight": [[-0.10476095229387283, 0.15100543200969696, -0.11062334477901459, -0.07230134308338165, -0.13367250561714172, -0.1966577172279358, -0.07232905179262161, 0.001925598829984665, -0.16437505185604095, -0.21934935450553894, -0.0797702744603157, 0.2676365077495575, 0.2604934573173523, 0.22118860483169556, 0.19147434830665588, -0.34932875633239746, 0.3848842978477478, -0.009827283211052418, 0.2939196228981018, 0.25970709323883057, -0.008471839129924774, 0.005058186128735542, -0.3328656256198883, 0.01950562372803688, 0.030671142041683197, -0.1865127831697464, -0.1870451122522354, -0.006588008254766464, 0.0004008151590824127, 0.3043670654296875, -0.30673328042030334, 0.05732075124979019, 0.14711734652519226, -0.1484413743019104, 0.1600685566663742, 0.3715593218803406, -0.08139297366142273, -0.04602992534637451, 0.08546970784664154, 0.14060503244400024, 0.3955959677696228, -0.09138039499521255, 0.2690383791923523, -0.23175036907196045, -0.12040072679519653, -0.1147296205163002, -0.15620563924312592, -0.33965855836868286, -0.22397421300411224, 0.038151003420352936, -0.10745614767074585, -0.2404564917087555, -0.17009377479553223, -0.5392920970916748, -0.01602495275437832, 0.009175986051559448, 0.20050284266471863, -0.1310136914253235, 0.11636717617511749, -0.20150688290596008, -0.3060060739517212, -0.15615232288837433, -0.40954500436782837, 0.1356448233127594], [0.12816551327705383, 0.15878480672836304, -0.13792753219604492, 0.11512596160173416, 0.2869298458099365, -0.11889548599720001, -0.128029465675354, -0.10745483636856079, -0.2598313093185425, 0.17306606471538544, 0.15706713497638702, 0.374264657497406, 0.2163718342781067, -0.35503003001213074, 0.2580309808254242, 0.012458063662052155, -0.2217203825712204, 0.4146973788738251, 0.22034813463687897, 0.08362840861082077, -0.0710202008485794, -0.11227066814899445, 0.035828325897455215, 0.4617824852466583, -0.4956533908843994, -0.2281637042760849, 0.2603393793106079, -0.10891598463058472, -0.33206385374069214, 0.1880292445421219, -0.22644954919815063, -0.5587092638015747, -0.07062377035617828, 0.16714966297149658, -0.217961847782135, 0.1047515794634819, -0.26822906732559204, -0.18491432070732117, -0.03264908120036125, 0.09312566369771957, 0.06681085377931595, 0.009180374443531036, 0.037351131439208984, 0.2818252146244049, 0.03929329663515091, 0.17872372269630432, 0.005553738214075565, -0.33137643337249756, 0.10817014425992966, -0.2838629484176636, -0.06572216749191284, 0.2768346965312958, -0.07879327982664108, -0.10397171974182129, -0.23608244955539703, -0.35122954845428467, -0.6056808829307556, -0.1183253824710846, 0.08431611210107803, -0.2586704194545746, -0.5560594797134399, -0.2614871859550476, -0.0067890905775129795, 0.01827235147356987], [-0.07694745063781738, -0.21272526681423187, 0.45386844873428345, 0.2663798928260803, -0.030915994197130203, -0.3378227651119232, 0.33826401829719543, -0.2736014127731323, 0.3045617938041687, -0.14801974594593048, -0.06094520539045334, -0.050883326679468155, -0.4137396812438965, 0.41251230239868164, -0.3080703318119049, -0.031694136559963226, -0.03059818595647812, -0.09522583335638046, 0.08597918599843979, -0.34179988503456116, -0.233845055103302, 0.22802603244781494, 0.056868478655815125, -0.48040571808815, 0.2781822383403778, 0.23289652168750763, -0.21688447892665863, 0.09678082168102264, 0.08595707267522812, 0.2111675888299942, 0.24756783246994019, 0.3111554682254791, -0.20381079614162445, 0.18071120977401733, 0.09384233504533768, 0.14156551659107208, 0.22776025533676147, 0.16594208776950836, 0.5334524512290955, -0.5968714952468872, 0.13967975974082947, 0.07774458080530167, 0.3990008533000946, -0.06058289855718613, 0.011384749785065651, 0.020920444279909134, 0.18306513130664825, 0.09308989346027374, -0.2223619818687439, 0.10652422904968262, 0.3345782458782196, -0.03436127305030823, -0.07167354226112366, 0.04855138808488846, 0.2735309302806854, 0.3012319505214691, -0.1257549673318863, 0.10327616333961487, -0.15605342388153076, 0.07409632951021194, 0.1781519651412964, 0.045743849128484726, 0.18574389815330505, 0.24604251980781555], [-0.02100507915019989, 0.3649943470954895, -0.15892364084720612, 0.13498100638389587, 0.04887443035840988, 0.02653346210718155, -0.10140475630760193, -0.10549911856651306, 0.04959360510110855, 0.1313990354537964, -0.2331441044807434, -0.14441907405853271, -0.0016813874244689941, -0.2605067789554596, -0.19839075207710266, 0.08210690319538116, -0.48868441581726074, 0.19343113899230957, -0.35697153210639954, 0.12301464378833771, -0.03527580201625824, -0.11837523430585861, -0.01991616189479828, 0.20358514785766602, -0.09482823312282562, -0.4488658905029297, 0.035721614956855774, -0.2906000018119812, 0.040337711572647095, -0.23731058835983276, 0.3340010643005371, -0.0036552399396896362, 0.18004503846168518, -0.24695849418640137, 0.06027217209339142, 0.10576105862855911, -0.05639578774571419, 0.5247659087181091, -0.09328259527683258, -0.008495289832353592, -0.15821395814418793, -0.11543552577495575, 0.022254448384046555, 0.1506769210100174, -0.29053065180778503, 0.4985772371292114, -0.08417806029319763, 0.08190596848726273, 0.12131105363368988, -0.016184449195861816, -0.3523077070713043, -0.18168841302394867, -0.10565531253814697, -0.1234547421336174, -0.09971703588962555, -0.03810035064816475, -0.20939357578754425, -0.3701013922691345, -0.061023861169815063, 0.3062368333339691, -0.2891795337200165, 0.18917417526245117, 0.020145442336797714, 0.10987967252731323], [-0.31929922103881836, -0.08741049468517303, 0.23077866435050964, -0.29720279574394226, 0.03337164968252182, -0.002684643492102623, -0.019728604704141617, -0.11755376309156418, -0.14540883898735046, -0.03397161513566971, -0.13921712338924408, 0.18552207946777344, 0.2059268206357956, 0.15297867357730865, 0.023269522935152054, -0.2527691721916199, 0.48860669136047363, 0.0466800332069397, 0.24327175319194794, -0.085042804479599, -0.03986567631363869, 0.061025358736515045, 0.42321115732192993, 0.022333845496177673, -0.15482544898986816, -0.07502958923578262, -0.02033962681889534, 0.2810741066932678, 0.29588285088539124, -0.13965283334255219, 0.009595461189746857, -0.4103386700153351, 0.018918003886938095, -0.37817487120628357, 0.11736103147268295, -0.08703920245170593, 0.027005132287740707, 0.1297643631696701, 0.249807208776474, -0.061652328819036484, -0.15907436609268188, 0.3865527808666229, -0.030643142759799957, 0.1712534874677658, 0.31606242060661316, -0.27976012229919434, 0.06329496204853058, 0.011426986195147038, -0.09976054728031158, 0.2402144819498062, -0.26248136162757874, -0.19607071578502655, -0.22626176476478577, -0.19805243611335754, -0.06046877056360245, -0.18456104397773743, 0.16737273335456848, -0.3716036379337311, -0.02303171716630459, -0.07131452858448029, 0.026500824838876724, 0.019205188378691673, 0.08687644451856613, 0.027350764721632004], [-0.11939731985330582, -0.1598450094461441, -0.1337171196937561, -0.14711275696754456, 0.1609557867050171, -0.02559283748269081, 0.4097425937652588, 0.2397414743900299, -0.016111910343170166, -0.0005640760064125061, 0.0643734335899353, -0.20081761479377747, 0.06771253049373627, 0.08950264751911163, 0.06311513483524323, -0.36875152587890625, 0.6430464386940002, 0.3997809886932373, 0.1816062182188034, -0.000734228640794754, 0.1268882155418396, -0.1420399397611618, 0.054151251912117004, 0.22566556930541992, -0.37417837977409363, -0.018929144367575645, -0.022325638681650162, 0.07350534200668335, -0.27357232570648193, 0.0634583905339241, 0.12679114937782288, -0.09789159148931503, 0.42265745997428894, 0.129435196518898, -0.03053915500640869, 0.10800950229167938, 0.220597043633461, -0.2490345686674118, -0.1880519986152649, -0.10784205794334412, 0.043611668050289154, 0.14028897881507874, 0.11040894687175751, 0.3097924590110779, 0.06605954468250275, -0.010670984163880348, 0.015177725814282894, -0.22966036200523376, 0.028345007449388504, -0.08078659325838089, -0.035873107612133026, 0.11184613406658173, -0.1779232770204544, -0.27323752641677856, -0.10376282036304474, 0.2627798914909363, 0.17300181090831757, -0.1471657156944275, 0.008625313639640808, -0.32851603627204895, -0.549242377281189, 0.04061069339513779, -0.3179031312465668, -0.5123017430305481], [0.28413674235343933, -0.10353977978229523, -0.033453330397605896, -0.17166094481945038, 0.10620417445898056, -0.29652854800224304, 0.18679362535476685, 0.03127754479646683, -0.09501573443412781, 0.11599241942167282, 0.2091282606124878, 0.19173550605773926, 0.04601822793483734, 0.06159470975399017, -0.01447376236319542, -0.13035650551319122, 0.14254525303840637, -0.2261594980955124, 0.07402337342500687, 0.2902659475803375, 0.07979089021682739, -0.18640480935573578, 0.20838341116905212, 0.2900882363319397, -0.5015069246292114, -0.08234107494354248, 0.23604299128055573, -0.12512336671352386, 0.1524430513381958, 0.2633481025695801, 0.00078221270814538, -0.20615048706531525, 0.44022634625434875, -0.13771235942840576, -0.021811816841363907, 0.13697907328605652, -0.2473565638065338, -0.11593597382307053, -0.14430487155914307, 0.1286448836326599, 0.04252402484416962, 0.25619032979011536, -0.13230463862419128, -0.12821438908576965, 0.12225368618965149, -0.24979951977729797, 0.2084089070558548, -0.03603292256593704, 0.2897237241268158, 0.30054566264152527, 0.3572147786617279, -0.0833202674984932, -0.3995151221752167, -0.23843829333782196, 0.2169737070798874, 0.14271974563598633, -0.05770644545555115, 0.11349809169769287, 0.14332525432109833, 0.1568584442138672, -0.30892133712768555, 0.04976063221693039, -0.5197530388832092, 0.10126868635416031], [0.3021135628223419, 0.05258879065513611, 0.10618096590042114, -0.26519882678985596, -0.11963184177875519, -0.18672165274620056, 0.04793721064925194, 0.37621164321899414, -0.07511869817972183, -0.25720053911209106, -0.0006304755806922913, -0.05054134503006935, -0.18154378235340118, 0.1289767175912857, 0.178701713681221, -0.1958680897951126, 0.2954709529876709, -0.19774720072746277, 0.1944631040096283, 0.08671452850103378, 0.13863442838191986, 0.32907184958457947, -0.2281198501586914, -0.057214025408029556, 0.10923517495393753, 0.06886255741119385, 0.0008501596748828888, 0.15944278240203857, -0.24639944732189178, 0.0435185506939888, -0.15155696868896484, 0.2917945683002472, 0.03917665034532547, 0.0881367102265358, 0.35259875655174255, -0.24036148190498352, 0.21838155388832092, -0.003824856597930193, 0.16363674402236938, -0.6691115498542786, -0.06494604051113129, 0.16310438513755798, 0.2645310163497925, -0.23481427133083344, 0.014841713942587376, -0.11161676049232483, 0.04809407889842987, 0.5004727840423584, 0.24749772250652313, 0.02781321480870247, 0.2957852780818939, -0.1142512634396553, -0.330932080745697, -0.05963393300771713, 0.0588417649269104, -0.2747669816017151, -0.0668979361653328, -0.15970434248447418, -0.11650964617729187, 0.01959148421883583, 0.1264657974243164, 0.07961791753768921, 0.2231234312057495, 0.021906226873397827], [-0.1260804384946823, -0.1616893708705902, 0.16173964738845825, -0.10242769122123718, -0.5170204639434814, 0.012069739401340485, -0.00612766295671463, -0.3406170904636383, -0.15985755622386932, -0.5492815971374512, -0.1890416443347931, 0.14158181846141815, -0.009946735575795174, 0.1536898910999298, -0.007580190896987915, -0.0506272166967392, 0.3028733730316162, -0.3218299448490143, -0.10629004240036011, 0.09211014211177826, -0.2995888292789459, 0.5087713003158569, 0.03235951066017151, -0.27391332387924194, 0.5014674067497253, 0.1890946477651596, -0.16097775101661682, -0.3056792914867401, -0.06250683963298798, -0.16744357347488403, 0.1747196912765503, 0.05641516298055649, 0.03608451783657074, 0.1491512656211853, 0.1166192963719368, -0.28681132197380066, 0.2956306040287018, 0.076566681265831, 0.3256034851074219, -0.6067821383476257, 0.16488216817378998, 0.04577111452817917, 0.29980361461639404, -0.1925269216299057, 0.3519921600818634, -0.36418163776397705, 0.10440845042467117, 0.16379399597644806, 0.11644330620765686, 0.3259463608264923, 0.4408170282840729, 0.22206485271453857, 0.053542137145996094, -0.14376911520957947, -0.350618839263916, 0.6189835667610168, 0.2759655714035034, 0.2486761510372162, -0.2836395800113678, 0.2514309883117676, 0.2388913780450821, 0.1226346343755722, 0.212664395570755, 0.05736740678548813], [-0.13971449434757233, -0.4247682988643646, -0.13606834411621094, -0.4325313866138458, -0.1901739239692688, -0.28286975622177124, 0.0838143602013588, -0.13925801217556, -0.3031940460205078, -0.026557084172964096, -0.08515594899654388, 0.055299002677202225, -0.11388249695301056, 0.30773046612739563, 0.2087898552417755, -0.5753017067909241, 0.4890293776988983, -0.3368571698665619, 0.6341480016708374, 0.13378632068634033, -0.040574826300144196, -0.12753435969352722, 0.13276252150535583, 0.2643774747848511, 0.32060208916664124, 0.20552897453308105, -0.11557910591363907, 0.015345272608101368, -0.04667390510439873, -0.05395710468292236, 0.14182987809181213, 0.28764045238494873, 0.06652197241783142, -0.2928791344165802, 0.0816083550453186, -0.16020235419273376, -0.17976775765419006, 0.08296415209770203, -0.055237121880054474, -0.40847206115722656, 0.3178430199623108, 0.013026625849306583, -0.012176472693681717, 0.24416391551494598, 0.14341701567173004, -0.2750999927520752, 0.315464049577713, -0.10499423742294312, -0.08986081928014755, -0.19517378509044647, 0.38918280601501465, -0.5715740919113159, -0.18527954816818237, -0.23002177476882935, -0.09216218441724777, 0.14428353309631348, -0.24970892071723938, 0.29461705684661865, -0.04911557585000992, -0.31953397393226624, -0.028991863131523132, -0.06176017224788666, -0.08803093433380127, -0.22058245539665222], [-0.23074458539485931, -0.08203642815351486, 0.01713642105460167, -0.3072890639305115, 0.09811298549175262, 0.13318224251270294, 0.05668048560619354, 0.14829964935779572, -0.05365074798464775, -0.031099684536457062, 0.1565319001674652, 0.09110216796398163, 0.4977418780326843, -0.21737651526927948, 0.22340618073940277, 0.02577657252550125, 0.09797284007072449, -0.20092809200286865, 0.16655421257019043, -0.28263387084007263, -0.10257241129875183, -0.11327987164258957, -0.041304200887680054, 0.09120984375476837, 0.10386659950017929, 0.05375071242451668, -0.008997343480587006, 0.1424698829650879, -0.23452629148960114, 0.3654467463493347, 0.3295993506908417, 0.371362566947937, 0.04686453193426132, -0.2548636198043823, 0.09277106821537018, -0.1369929015636444, 0.15480346977710724, -0.21809571981430054, -0.3861774504184723, 0.006095336750149727, 0.4121490716934204, 0.3121180534362793, 0.3042653203010559, 0.12307412177324295, 0.34125086665153503, 0.08484384417533875, 0.29508039355278015, -0.2181404083967209, -0.08797944337129593, 0.1593441218137741, 0.3121010363101959, -0.07497521489858627, -0.2635054290294647, -0.24464493989944458, -0.0836382657289505, -0.21758747100830078, -0.0009394939988851547, -0.0787125676870346, 0.010171156376600266, 0.03723323717713356, -0.11294333636760712, 0.04899974167346954, -0.24733522534370422, 0.03545597195625305], [0.06854524463415146, 0.680433988571167, 0.12509319186210632, -0.047137483954429626, -0.15652340650558472, -0.20322056114673615, -0.1145402118563652, -0.025458119809627533, 0.11985881626605988, 0.1718895584344864, 0.1557706743478775, -0.25985753536224365, -0.022973351180553436, -0.01877841353416443, -0.41758283972740173, 0.5614266395568848, -0.103575199842453, 0.2624496519565582, -0.14231771230697632, 0.2635493278503418, 0.272344172000885, -0.14528407156467438, 0.1639159917831421, -0.0888592079281807, 0.023493444547057152, -0.04540468752384186, 0.18577727675437927, -0.12911492586135864, 0.3889268934726715, -0.27252116799354553, 0.18015800416469574, 0.013192474842071533, -0.3297773599624634, 0.023084601387381554, -0.2354438453912735, 0.26619774103164673, 0.14597956836223602, -0.22554826736450195, -0.2904150187969208, 0.06915202736854553, 0.01889519952237606, -0.22702467441558838, 0.14287853240966797, -0.21358433365821838, -0.18157482147216797, -0.0070555685088038445, 0.0004344768822193146, 0.08108043670654297, -0.20062635838985443, -0.014222193509340286, -0.1967669278383255, 0.24964472651481628, 0.22838249802589417, 0.4042271077632904, -0.16224750876426697, -0.27929019927978516, -0.22885218262672424, 0.013865716755390167, -0.11015947163105011, 0.13164545595645905, -0.18602785468101501, 0.10944460332393646, 0.3244425356388092, 0.2200472056865692], [-0.13815557956695557, -0.021121326833963394, 0.31308403611183167, 0.29059624671936035, -0.2187047004699707, 0.07095630466938019, 0.1887754648923874, 0.011903989128768444, -0.05675164610147476, 0.026867881417274475, -0.20946422219276428, -0.031989771872758865, -0.1558717042207718, -0.0006579644978046417, 0.020414147526025772, 0.2731103301048279, -0.11771204322576523, 0.17407549917697906, -0.3112204074859619, 0.24018117785453796, 0.01640222780406475, -0.005102943629026413, -0.07202024757862091, -0.48815006017684937, 0.2939937710762024, -0.25796613097190857, 0.10753212869167328, -0.018213048577308655, -0.2999265193939209, -0.08667737245559692, 0.4034237861633301, 0.11725723743438721, -0.04461711645126343, -0.02350686490535736, -0.049976833164691925, -0.21813859045505524, -0.3067583441734314, -0.24325406551361084, -0.0411543995141983, 0.06712797284126282, -0.19284920394420624, 0.059224992990493774, 0.08214501291513443, -0.16423077881336212, -0.1909293681383133, -0.2459712028503418, -0.017039451748132706, 0.40984100103378296, 0.010621113702654839, -0.22999325394630432, -0.08114705979824066, 0.05908716470003128, 0.590925395488739, 0.08475203067064285, 0.31539079546928406, 0.1298508644104004, -0.18355831503868103, -0.07616924494504929, -0.18268448114395142, -0.11540298163890839, 0.2396562099456787, 0.2779541313648224, 0.18268969655036926, 0.4274255335330963], [0.03874614089727402, 0.2723345160484314, -0.3417907655239105, 0.05078950896859169, -0.07138284295797348, 0.039275627583265305, 0.3461914658546448, 0.39999616146087646, -0.390735924243927, 0.2943362593650818, -0.16402265429496765, 0.24785250425338745, 0.09830725938081741, -0.05647563189268112, -0.15123361349105835, 0.25211101770401, -0.013647045008838177, -0.10064131021499634, 0.11912587285041809, -0.26075172424316406, 0.07100535929203033, -0.3556877374649048, -0.025386184453964233, 0.02187509462237358, -0.47689658403396606, -0.4876759648323059, 0.24197305738925934, -0.2546163499355316, 0.1085900142788887, -0.11630425602197647, -0.09105733782052994, -0.14939191937446594, -0.004928671754896641, -0.028251592069864273, -0.39008739590644836, 0.3110802471637726, -0.24966497719287872, -0.05189404636621475, -0.17107659578323364, 0.012948950752615929, 0.10496681928634644, 0.13872185349464417, -0.32196614146232605, 0.3119816780090332, -0.1536121517419815, 0.38190314173698425, -0.2253325879573822, -0.3587143123149872, 0.30189985036849976, 0.07280348241329193, -0.2060292512178421, 0.05781352519989014, 0.20659475028514862, -0.23702400922775269, -0.10625998675823212, -0.4338238835334778, 0.06895487755537033, 0.08413659036159515, -0.02920311689376831, 0.13443627953529358, -0.3094916045665741, -0.3981417119503021, -0.15720906853675842, -0.17653292417526245], [-0.22841893136501312, 0.022117020562291145, 0.16766370832920074, 0.11514444649219513, -0.05954122543334961, -0.46195781230926514, 0.1818898320198059, -0.19586843252182007, 0.23869860172271729, 0.03758283704519272, -0.27096956968307495, -0.17738328874111176, 0.1572711169719696, -0.07808652520179749, 0.25016486644744873, -0.11838128417730331, -0.12485446780920029, -0.2500481605529785, -0.22597476840019226, 0.04333478584885597, -0.02497246116399765, 0.131068155169487, -0.23271024227142334, -0.18788647651672363, 0.09804989397525787, 0.398377001285553, 0.3152138292789459, 0.08077774941921234, -0.1937088817358017, 0.04252301901578903, -0.018138505518436432, 0.2439684420824051, -0.11431635171175003, 0.06464289873838425, 0.029294461011886597, 0.03606110066175461, 0.0749843493103981, 0.04751928895711899, 0.0791369155049324, -0.6638709902763367, -0.1255015879869461, -0.032145969569683075, -0.2737836241722107, -0.43499231338500977, 0.3201531171798706, -0.2287394255399704, -0.15523281693458557, -0.11840882152318954, -0.33980077505111694, 0.021359913051128387, -0.05853823572397232, 0.00983193889260292, 0.1354290097951889, 0.20796500146389008, 0.07879303395748138, 0.1511802077293396, 0.10739962756633759, 0.06336504220962524, -0.2597891092300415, -0.027809102088212967, 0.484620064496994, 0.5025747418403625, 0.1705530732870102, -0.06343478709459305], [-0.1422242820262909, -0.021090228110551834, 0.13724330067634583, 0.22868645191192627, -0.02974885329604149, 0.014532969333231449, -0.18817438185214996, -0.3864099979400635, 0.3008435368537903, -0.20310615003108978, -0.0657368153333664, -0.32123419642448425, -0.46007615327835083, -0.011042125523090363, 0.24810007214546204, 0.15278060734272003, 0.03907252103090286, -0.1435760110616684, -0.10691232234239578, -0.05138949677348137, 0.07263481616973877, 0.2032126635313034, 0.061440274119377136, -0.48061561584472656, 0.1311831921339035, 0.2670281231403351, -0.1324453204870224, 0.08153890073299408, 0.07829463481903076, -0.2154773473739624, 0.09243078529834747, 0.4197891652584076, -0.2747364938259125, 0.004348615184426308, -0.01688908040523529, -0.14344199001789093, 0.14068561792373657, -0.014391522854566574, -0.10317440330982208, -0.29866886138916016, -0.345821738243103, 0.38863101601600647, -0.0741497352719307, -0.7083035707473755, 0.1423029899597168, 0.18644455075263977, 0.11160509288311005, 0.24419206380844116, -0.024398265406489372, 0.08498465269804001, -0.04489242285490036, -0.04381117597222328, 0.15342673659324646, -0.4299825131893158, -0.14664137363433838, 0.33773109316825867, -0.04781405255198479, 0.1629372388124466, -0.140944704413414, -0.11100493371486664, 0.19323508441448212, -0.26966699957847595, 0.22463005781173706, 0.2149781882762909], [-0.09068231284618378, 0.34698981046676636, 0.17459507286548615, -0.13286440074443817, -0.03577198088169098, 0.20238058269023895, 0.23747451603412628, 0.008988944813609123, -0.31474924087524414, -0.12253476679325104, 0.0013778582215309143, -0.09669475257396698, -0.036343060433864594, 0.13832923769950867, 0.2360394299030304, -0.2580597996711731, -0.14387264847755432, -0.08564042299985886, 0.0157612431794405, -0.1967288702726364, -0.041838765144348145, 0.10308712720870972, 0.06117134541273117, 0.08288207650184631, -0.04415228217840195, -0.19787384569644928, 0.2336767315864563, 0.07090180367231369, 0.2846800684928894, 0.41482698917388916, 0.10046078264713287, -0.15732234716415405, -0.11020699143409729, 0.2311406135559082, -0.21619689464569092, 0.03312097489833832, 0.1532953828573227, -0.01714165322482586, 0.027455657720565796, 0.27502578496932983, -0.40101659297943115, -0.08521096408367157, -0.2132519781589508, 0.15373334288597107, -0.1219954788684845, -0.09050323069095612, 0.10801251977682114, -0.2677662968635559, 0.25507214665412903, -0.11549585312604904, -0.07965633273124695, -0.2576237916946411, 0.006927546113729477, 0.09980356693267822, -0.4053628444671631, -0.07004423439502716, -0.16701096296310425, -0.32992979884147644, 0.13468226790428162, 0.0806492418050766, -0.11816032230854034, -0.03201381117105484, -0.44898465275764465, 0.09535633027553558], [0.38639169931411743, 0.19566118717193604, -0.1351458728313446, -0.17853222787380219, 0.1686498373746872, -0.023414747789502144, 0.04473845660686493, -0.17924736440181732, -0.10951095819473267, 0.17956547439098358, 0.14090512692928314, 0.31465885043144226, 0.33632972836494446, 0.10434500873088837, 0.0072327107191085815, -0.28650355339050293, -0.007790599018335342, 0.1346801370382309, -0.10103651881217957, -0.17607556283473969, -0.08575552701950073, -0.060469456017017365, 0.22439000010490417, 0.3651406764984131, -0.18515907227993011, -0.0895819365978241, -0.17331285774707794, -0.19006429612636566, 0.07809222489595413, 0.1504429429769516, -0.041397273540496826, 0.33933067321777344, -0.006583431735634804, 0.0474984347820282, -0.03692256286740303, -0.014649756252765656, 0.04761435464024544, -0.2112230807542801, -0.18945759534835815, 0.010703343898057938, 0.12032052129507065, 0.08246166259050369, -0.016336483880877495, 0.16582413017749786, -0.3773481249809265, -0.14790573716163635, -0.19842278957366943, 0.023330099880695343, 0.27199798822402954, 0.3235165774822235, -0.315690815448761, -0.07901258021593094, 0.35205236077308655, -0.19956442713737488, -0.10032901167869568, -0.10831378400325775, -0.2672896683216095, -0.048610687255859375, 0.33398300409317017, -0.11648526042699814, -0.03871912136673927, 0.0161883644759655, -0.09470642358064651, -0.391660213470459], [-0.07084910571575165, 0.06626375019550323, 0.010420963168144226, 0.18556764721870422, 0.06770717352628708, -0.19464288651943207, -0.06461989134550095, 0.13277830183506012, -0.2187008410692215, -0.2688334584236145, -0.16831207275390625, -0.16963405907154083, -0.13035336136817932, -0.40935415029525757, -0.4051196575164795, 0.5799686312675476, -0.5873114466667175, -0.07243812084197998, -0.048602670431137085, 0.08560783416032791, 0.0836465060710907, -0.07079042494297028, -0.040282413363456726, 0.0019457004964351654, -0.5091699361801147, -0.16743004322052002, -0.21055454015731812, -0.06494319438934326, 0.19094951450824738, -0.10888753831386566, -0.3666191101074219, -0.1653587371110916, 0.14100322127342224, 0.2459302693605423, -0.2174871414899826, -0.08886037021875381, -0.08462709188461304, -0.005633607506752014, -0.42179879546165466, 0.3958190679550171, -0.018856484442949295, 0.10000637918710709, 0.13450251519680023, 0.13137352466583252, -0.5585910081863403, 0.16879667341709137, 0.21725156903266907, -0.2721615731716156, 0.12212581932544708, 0.0005600899457931519, -0.7324977517127991, 0.045260123908519745, 0.2424120306968689, 0.25942400097846985, -0.12325875461101532, -0.16682498157024384, -0.22322344779968262, -0.014179984107613564, 0.16086626052856445, 0.020005855709314346, -0.05452834814786911, 0.31546759605407715, 0.16190864145755768, 0.07615560293197632], [0.36786529421806335, -0.07666260004043579, 0.07707113027572632, 0.253925621509552, -0.0645570307970047, 0.45613792538642883, 0.17316067218780518, -0.09709648787975311, -0.10874471813440323, -0.14348328113555908, -0.3833753764629364, -0.04748295992612839, 0.12959125638008118, -0.050217509269714355, 0.1743880659341812, 0.09843233227729797, 0.29124170541763306, -0.07031252980232239, -0.0484929159283638, -0.0984172448515892, 0.11670053005218506, 0.008394397795200348, 0.21970289945602417, -0.09626971185207367, -0.04342866688966751, 0.03782974183559418, -0.05619446933269501, 0.0005691684782505035, 0.029365189373493195, -0.0004748441278934479, -0.1587769091129303, -0.08328970521688461, -0.066573865711689, -0.07450611889362335, 0.013463223353028297, -0.07035301625728607, 0.22715964913368225, -0.014420479536056519, 0.09041236340999603, -0.2554251253604889, 0.44977810978889465, -0.10959841310977936, -0.23608991503715515, 0.021892033517360687, 0.18966782093048096, -0.3235509693622589, 0.15160790085792542, 0.1540740728378296, -0.38951587677001953, -0.04351259768009186, 0.26762109994888306, -0.3721933662891388, -0.35071641206741333, -0.23916330933570862, -0.06922441720962524, 0.23648199439048767, -0.21859261393547058, -0.12559431791305542, 0.20313739776611328, -0.03586043417453766, -0.06590615212917328, 0.15968433022499084, -0.0857471376657486, -0.08025738596916199], [-0.007170971482992172, -0.19112788140773773, -0.05801500380039215, -0.4404650926589966, 0.3622482419013977, -0.04978054761886597, -0.16428008675575256, 0.1767452508211136, -0.09838230907917023, 0.10646478831768036, -0.031631600111722946, 0.046000026166439056, -0.12871350347995758, 0.07619348913431168, 0.3360825181007385, -0.10517556965351105, 0.3742605745792389, -0.20865881443023682, -0.04584788158535957, -0.13722151517868042, -0.18581798672676086, -0.13205674290657043, -0.030787527561187744, -0.04142351821064949, 0.25210776925086975, -0.0028913691639900208, -0.25129827857017517, -0.1576128751039505, 0.2367716133594513, 0.26257091760635376, -0.08230359852313995, -0.08859833329916, -0.05008472502231598, 0.23899856209754944, 0.3244820237159729, -0.09906095266342163, -0.18452677130699158, -0.0396425798535347, -0.02551843971014023, -0.39995312690734863, 0.25244054198265076, 0.011177648790180683, 0.04272719472646713, 0.2275499701499939, 0.5615275502204895, -0.4229074716567993, -0.0020517930388450623, -0.12544859945774078, 0.17712904512882233, -0.15815627574920654, -0.06237528473138809, -0.24955257773399353, -0.10213068872690201, -0.3018726110458374, 0.212489515542984, -0.018767302855849266, 0.17236588895320892, -0.018291668966412544, 0.15493729710578918, 0.05177365243434906, -0.7012298703193665, 0.027843594551086426, -0.24319636821746826, -0.15277038514614105], [-0.09438563883304596, -0.20249196887016296, 0.039604224264621735, -0.0668371319770813, 0.20554354786872864, 0.092726930975914, 0.06801609694957733, -0.17889660596847534, -0.34000363945961, -0.06701571494340897, 0.0412338525056839, -0.10057495534420013, -0.35566288232803345, -0.06281676143407822, -0.014374226331710815, 0.14113697409629822, 0.34315773844718933, 0.058520831167697906, 0.07220762968063354, 0.09815637767314911, -0.1412290632724762, 0.11646085232496262, -0.15222986042499542, 0.02250053733587265, 0.17598357796669006, -0.23369844257831573, 0.1307946890592575, 0.25720706582069397, 0.1239718645811081, -0.008853616192936897, -0.1812826544046402, 0.007498136721551418, -0.2245028018951416, 0.05077168345451355, 0.09459211677312851, 0.11865013092756271, -0.1533580869436264, 0.17232990264892578, -0.16613224148750305, 0.006978074088692665, -0.16701433062553406, -0.1233874261379242, 0.11168130487203598, -0.17600029706954956, 0.3419618606567383, 0.2644343078136444, -0.3229764401912689, -0.08393032848834991, -0.08705400675535202, 0.35637983679771423, 0.5162871479988098, -0.17325404286384583, 0.14393897354602814, 0.10132144391536713, -0.07413186132907867, 0.18158242106437683, -0.15896093845367432, -0.2316582053899765, -0.08448374271392822, -0.07657507061958313, 0.21054263412952423, 0.3174557685852051, 0.05556352064013481, -0.20991924405097961], [-0.19783100485801697, -0.28616103529930115, 0.10254395008087158, -0.16434170305728912, -0.5107114315032959, -0.1585404872894287, -0.20666350424289703, -0.07972804456949234, -0.11626795679330826, -0.23592552542686462, 0.06866452097892761, -0.0011788029223680496, 0.05375578999519348, -0.02300603687763214, 0.07655864953994751, -0.17650379240512848, 0.040611185133457184, 0.042500950396060944, -0.0848175585269928, -0.13324421644210815, 0.17570391297340393, 0.04625633358955383, -0.04011017456650734, -0.1255616843700409, -0.073035329580307, 0.2956142723560333, -0.10246481746435165, 0.17246244847774506, 0.21337726712226868, -0.004558089189231396, 0.15570507943630219, 0.22918753325939178, -0.07656693458557129, 0.3309769630432129, 0.5480517148971558, 0.10728193819522858, -0.2236100733280182, -0.2503065764904022, 0.38293203711509705, -0.5653175711631775, -0.10104593634605408, 0.21176189184188843, 0.192522332072258, 0.21185216307640076, 0.27581846714019775, -0.23520757257938385, 0.08438996225595474, 0.3250479996204376, -0.353061318397522, -0.04085702821612358, 0.5875075459480286, -0.5085261464118958, -0.034039705991744995, -0.2616066634654999, -0.20757079124450684, 0.4299168586730957, 0.3314346671104431, -0.019748589023947716, -0.15364614129066467, 0.10563145577907562, 0.268652081489563, -0.0535503551363945, -0.04577051103115082, -0.11649160087108612], [0.15988628566265106, 0.13794945180416107, -0.09359326213598251, 0.476799339056015, 0.08751727640628815, -0.12135094404220581, -0.13413432240486145, 0.34885117411613464, -0.017950933426618576, -0.17426475882530212, 0.04413706809282303, 0.032909054309129715, -0.0896388366818428, -0.3065429925918579, 0.20809707045555115, 0.1293129026889801, -0.07738284766674042, 0.3304905891418457, -0.27214857935905457, 0.12639477849006653, -0.04661822319030762, -0.0752078965306282, 0.16057468950748444, -0.18301495909690857, -0.00625185389071703, 0.1411222368478775, 0.0529843270778656, 0.192395880818367, 0.35078442096710205, 0.11098331212997437, 0.14681735634803772, -0.11973953247070312, -0.1967615932226181, -0.19602952897548676, -0.1793443113565445, 0.20305635035037994, 0.1542055457830429, 0.6068339943885803, -0.03344614803791046, -0.12402639538049698, -0.02115466073155403, -0.019810186699032784, 0.20956113934516907, 0.048806704580783844, -0.03350192308425903, -0.022072987630963326, 0.1712428480386734, 0.08886751532554626, 0.22172760963439941, 0.027154117822647095, 0.05142877250909805, 0.0482175275683403, 0.44593217968940735, 0.0693572610616684, -0.08473271131515503, -0.0003503747284412384, 0.17836636304855347, 0.09427126497030258, -0.04904104769229889, -0.2724289894104004, 0.3883048892021179, 0.1778736114501953, 0.014358281157910824, 0.19862671196460724], [-0.3961590528488159, -0.06680057942867279, 0.07617853581905365, -0.10965625196695328, 0.17058120667934418, -0.11163250356912613, 0.026590954512357712, 0.01857566460967064, -0.13119569420814514, -0.22062015533447266, 0.0013797469437122345, 0.2683902680873871, -0.08655475825071335, -0.2759946882724762, -0.05729614198207855, -0.2388557642698288, 0.14687170088291168, 0.10516588389873505, 0.0793902575969696, -0.30109289288520813, 0.36410555243492126, 0.6410800218582153, 0.03254362940788269, 0.16026268899440765, -0.139430969953537, -0.09168854355812073, -0.08197152614593506, -0.15539433062076569, 0.10905340313911438, -0.026304665952920914, 0.05318018049001694, 0.04659441113471985, -0.19594871997833252, -0.27271777391433716, 0.09458866715431213, 0.06586505472660065, 0.10504381358623505, -0.07332420349121094, -0.05516069754958153, -0.10513067990541458, 0.2480001151561737, -0.16638004779815674, -0.19590748846530914, 0.01910465396940708, 0.3228406310081482, -0.061626940965652466, -0.169448584318161, 0.26448726654052734, 0.15535832941532135, -0.18377932906150818, 0.06733151525259018, -0.12865358591079712, -0.2074914425611496, 0.1897156536579132, 0.14184531569480896, 0.18554610013961792, 0.012062258087098598, 0.08104841411113739, -0.15563948452472687, -0.259163498878479, 0.011111892759799957, -0.0593954399228096, -0.5186326503753662, 0.011963531374931335], [0.32671263813972473, 0.0992148146033287, -0.03448177129030228, 0.05204204469919205, 0.07927758991718292, -0.01108996570110321, 0.19601906836032867, 0.24605713784694672, -0.40180692076683044, 0.16483163833618164, 0.09052258729934692, 0.12854793667793274, 0.14647983014583588, -0.1471569836139679, -0.21783410012722015, -0.0662040188908577, -0.43384671211242676, 0.10862038284540176, -0.06597054749727249, 0.345615029335022, 0.2154100388288498, -0.1048174649477005, 0.2443438470363617, 0.03384848311543465, -0.006116996519267559, -0.08703215420246124, -0.042644061148166656, -0.09422298520803452, -0.1901336908340454, -0.09168024361133575, -0.39013248682022095, -0.0165245458483696, -0.337456077337265, -0.45790114998817444, -0.14455699920654297, 0.15683864057064056, -0.06532564759254456, -0.021656537428498268, -0.3173733055591583, 0.1676356941461563, -0.32164308428764343, 0.06327813863754272, -0.027391446754336357, 0.33057498931884766, 0.09556036442518234, 0.07826529443264008, 0.07710462063550949, -0.4780330955982208, 0.17095567286014557, -0.08166369795799255, -0.2837679386138916, 0.07838064432144165, 0.0001299525611102581, 0.2261180281639099, -0.053987033665180206, 0.1606791466474533, 0.12334565818309784, -0.4764603078365326, 0.19185355305671692, 0.07049930095672607, -0.3421404957771301, -0.4474368095397949, -0.16416463255882263, -0.07910936325788498], [-0.26876387000083923, -0.5335409045219421, -0.05233997106552124, -0.258647620677948, -0.07214710116386414, -0.025556445121765137, -0.017616283148527145, -0.31301575899124146, 0.15662899613380432, -0.24047121405601501, 0.13632075488567352, 0.0552043542265892, -0.141144260764122, 0.19423219561576843, 0.3208404779434204, -0.08597363531589508, 0.47298726439476013, -0.39497825503349304, 0.0021822601556777954, -0.04113870859146118, 0.26108965277671814, 0.4187237024307251, 0.09260030090808868, -0.033808737993240356, 0.31779229640960693, 0.21746616065502167, 0.12574723362922668, -0.19960322976112366, 0.020914778113365173, 0.35917338728904724, 0.14908725023269653, 0.18621224164962769, 0.16704042255878448, -0.20301897823810577, 0.0765736848115921, 0.3081228733062744, 0.10497616231441498, -0.14610157907009125, 0.11601193249225616, -0.5361132621765137, -0.003977110609412193, 0.077742800116539, 0.15984424948692322, 0.10194370150566101, 0.15338978171348572, -0.11173935234546661, -0.08144461363554001, 0.06453368812799454, -0.06588605791330338, -0.319845974445343, 0.4039355218410492, -0.00981147587299347, -0.11093928664922714, -0.3168586790561676, 0.07952536642551422, 0.2454105019569397, 0.18208475410938263, -0.05635778605937958, 0.44892269372940063, 0.07831238955259323, 0.29418379068374634, 0.2574438452720642, 0.48259276151657104, 0.12966185808181763], [-0.11262989044189453, -0.2913384437561035, 0.12130843102931976, -0.1923370659351349, 0.18520532548427582, -0.10603321343660355, 0.029984112828969955, -0.025913909077644348, -0.421671062707901, 0.059174634516239166, 0.06795340776443481, 0.042104657739400864, 0.07038343697786331, 0.3896019756793976, 0.20078960061073303, -0.19169381260871887, 0.6329104900360107, 0.024560846388339996, 0.028543634340167046, -0.04435689002275467, 0.19364824891090393, 0.1549731343984604, -0.04666699469089508, 0.12678398191928864, -0.06807912141084671, 0.29464608430862427, -0.2301522195339203, 0.010954827070236206, 0.04524426907300949, 0.07871297001838684, 0.20198684930801392, 0.01558334194123745, -0.04900312423706055, -0.06361296772956848, 0.4640153646469116, -0.2063235491514206, -0.3099038302898407, 0.034751296043395996, 0.0300004705786705, -0.20375746488571167, 0.4693828225135803, -0.02359325811266899, -0.09377075731754303, 0.019069097936153412, -0.011285483837127686, -0.22847017645835876, 0.2426108419895172, -0.41053706407546997, 0.08599235862493515, -0.1380246877670288, 0.16023209691047668, 0.28460443019866943, -0.32698601484298706, -0.5747631788253784, -0.046688012778759, 0.0043655335903167725, -0.08849431574344635, -0.2748750150203705, -0.04768788814544678, 0.35212400555610657, 0.25781023502349854, -0.15308625996112823, -0.40776002407073975, -0.3131350576877594], [-0.1229327917098999, 0.07032051682472229, -0.18263979256153107, 0.3163093030452728, 0.111198291182518, 0.02478519082069397, -0.29484984278678894, 0.14866697788238525, -0.057099029421806335, -0.07088900357484818, -0.26701322197914124, 0.2841157913208008, -0.24404555559158325, 0.009450390934944153, -0.2631966769695282, 0.35375428199768066, -0.620322048664093, 0.2097874879837036, -0.4564397931098938, 0.263809472322464, 0.09136904776096344, -0.5964866280555725, -0.015596434473991394, -0.10742200911045074, 0.025400575250387192, -0.15057095885276794, 0.024494200944900513, -0.15049226582050323, 0.08209165930747986, -0.11960999667644501, 0.0395297072827816, -0.1946159452199936, -0.1704462319612503, 0.14613503217697144, -0.6392102241516113, 0.24537146091461182, 0.2653629183769226, -0.057074323296546936, -0.25171345472335815, 0.16458319127559662, -0.5580525398254395, -0.3111404478549957, -0.028697755187749863, -0.10746056586503983, -0.29039761424064636, 0.3195543587207794, 0.08855409920215607, 0.3206087052822113, -0.07362809777259827, -0.012336239218711853, -0.3769361078739166, 0.3834992051124573, -0.0953788012266159, 0.33916929364204407, -0.13175436854362488, -0.4305170774459839, -0.20755009353160858, -0.07640567421913147, 0.0180119127035141, -0.0342753641307354, 0.21133434772491455, 0.03705108165740967, -0.15088079869747162, -0.11545374989509583], [0.04914173483848572, -0.6985288262367249, 0.41034409403800964, -0.20777927339076996, -0.3271283805370331, -0.1816655546426773, 0.19474586844444275, -0.21440206468105316, 0.10400888323783875, -0.23738282918930054, 0.32420459389686584, 0.3997488021850586, -0.1976928859949112, 0.05808842182159424, 0.4777243435382843, -0.2172047346830368, 0.7001187205314636, -0.01747731864452362, 0.028581302613019943, -0.314312219619751, 0.07994735240936279, 0.3582044541835785, -0.12975619733333588, 0.0012391097843647003, 0.29911312460899353, 0.3307955861091614, 0.06597580015659332, -0.00608392059803009, -0.24316279590129852, -0.5315753221511841, 0.11286035925149918, 0.34014153480529785, -0.02619597129523754, 0.06935272365808487, 0.26925796270370483, -0.020778357982635498, 0.13450577855110168, -0.05627584829926491, 0.32592684030532837, -0.3887890875339508, 0.07397015392780304, -0.13914579153060913, 0.09533844888210297, -0.08205186575651169, 0.34141305088996887, -0.23984238505363464, 0.3292255103588104, -0.18775512278079987, -0.1299826204776764, 0.24183282256126404, 0.37990325689315796, -0.5214579701423645, -0.11032909154891968, -0.3363916873931885, 0.1477271169424057, -0.06349140405654907, 0.2654387354850769, 0.06765130162239075, 0.19600945711135864, 0.10305750370025635, -0.04381722956895828, 0.260930597782135, -0.1753145307302475, 0.01613568142056465], [0.2030702531337738, -0.25983911752700806, -0.08763056993484497, -0.72575843334198, 0.22726377844810486, 0.10304471850395203, 0.36501139402389526, -0.07787260413169861, -0.07980643212795258, -0.22800025343894958, 0.06857885420322418, -0.0103563591837883, 0.1430058777332306, -0.15153029561042786, 0.014409741386771202, -0.5752926468849182, 0.19869448244571686, 0.3682941794395447, 0.2834005057811737, 0.09000001847743988, 0.09600131213665009, -0.22266478836536407, -0.1482054889202118, 0.16695228219032288, -0.21941103041172028, -0.22828440368175507, -0.08984407782554626, 0.1100902110338211, 0.021442964673042297, 0.15917956829071045, -0.0628461092710495, -0.1903720498085022, 0.03082040138542652, 0.011658929288387299, 0.07275588810443878, -0.09645666182041168, -0.14813898503780365, -0.07332932204008102, -0.25055837631225586, -0.3444531261920929, 0.3522103726863861, -0.029878869652748108, -0.08824895322322845, 0.38636285066604614, 0.13570234179496765, -0.17471060156822205, -0.19587592780590057, -0.2873903810977936, -0.11004747450351715, 0.22241532802581787, 0.004212014842778444, 0.00010501593351364136, -0.24647045135498047, -0.4249332547187805, 0.12256711721420288, -0.0661085993051529, -0.007415886968374252, 0.11286778748035431, 0.49382007122039795, 0.19894662499427795, 0.01942829042673111, -0.40569210052490234, -0.3598173260688782, 0.21486729383468628], [0.06414209306240082, -0.44627654552459717, 0.062129952013492584, 0.1692950278520584, -0.19930417835712433, -0.07135826349258423, -0.1304188370704651, -0.5291698575019836, 0.0685335248708725, -0.28665581345558167, -0.13383328914642334, -0.1798246204853058, -0.08789726346731186, 0.30508238077163696, -0.02607787773013115, 0.44527551531791687, -0.051619987934827805, 0.19796161353588104, 0.20093576610088348, 0.16749808192253113, 0.13462617993354797, 0.27374452352523804, 0.03052087128162384, -0.6013351082801819, 0.35502517223358154, 0.6294866800308228, -0.017512638121843338, 0.0780886560678482, -0.022743692621588707, 0.04650479927659035, 0.284894198179245, 0.44488006830215454, 0.13765040040016174, 0.17499151825904846, -0.035709165036678314, -0.19316180050373077, 0.26935428380966187, 0.2745802700519562, 0.2718411684036255, -0.28485411405563354, 0.03710270673036575, 0.1802588552236557, 0.029985830187797546, -0.377205491065979, 0.16370604932308197, -0.06646856665611267, -0.4286900758743286, 0.35763123631477356, 0.056784167885780334, -0.11404485255479813, 0.131000816822052, -0.3023669421672821, 0.21787473559379578, 0.3302837610244751, -0.2203013151884079, 0.0033842120319604874, 0.28816133737564087, 0.014361893758177757, -0.29714730381965637, 0.34136760234832764, 0.25230759382247925, 0.24427583813667297, 0.0385466143488884, 0.2659038305282593], [0.08786453306674957, 0.0616656169295311, 0.11951709538698196, 0.5269608497619629, 0.08431674540042877, 0.1714361608028412, -0.11465033888816833, 0.300699919462204, -0.1501237004995346, 0.2587910294532776, 0.02770141512155533, 0.08221697807312012, 0.04280868172645569, -0.2626606822013855, -0.36043643951416016, 0.0732460543513298, -0.4614327549934387, 0.16916818916797638, 0.23018378019332886, 0.20613695681095123, 0.2639087438583374, -0.1319727748632431, -0.07628927379846573, 0.4748186767101288, -0.016917670145630836, -0.49687275290489197, 0.33571308851242065, -0.061673399060964584, 0.14149993658065796, 0.1498744636774063, 0.0687432512640953, -0.4341863989830017, -0.07562714070081711, 0.26188981533050537, -0.052251093089580536, 0.2258177548646927, 0.3729730248451233, 0.3328492343425751, -0.5402852296829224, 0.4120621383190155, -0.18064278364181519, 0.0165998712182045, -0.23644757270812988, 0.1972777098417282, -0.14765223860740662, -0.08793962001800537, -0.01104898750782013, -0.13504229485988617, 0.04810985177755356, -0.0005753263831138611, -0.6073173880577087, 0.037655603140592575, 0.18543018400669098, -0.15254727005958557, 0.010653926059603691, -0.19225426018238068, -0.14272616803646088, -0.011960498988628387, -0.24407115578651428, 0.23070019483566284, -0.1468433141708374, -0.28296172618865967, 0.17634017765522003, -0.09976758062839508], [-0.10563253611326218, -0.07981235533952713, 0.17468053102493286, -0.021236401051282883, -0.025370847433805466, -0.05766616761684418, -0.21410462260246277, -0.2158161848783493, 0.002029715571552515, 0.2090754508972168, -0.34462809562683105, -0.28932633996009827, -0.09814358502626419, 0.008997570723295212, -0.2374618947505951, 0.13426551222801208, 0.09518497437238693, -0.005996368825435638, 0.031688861548900604, -0.05136365815997124, 0.02228356897830963, 0.3552783727645874, 0.5236274600028992, -0.28954100608825684, 0.26196736097335815, 0.21529416739940643, 0.15559640526771545, -0.1923685222864151, -0.35238373279571533, 0.10794412344694138, 0.11225317418575287, 0.20429420471191406, -0.0722101628780365, 0.46164071559906006, -0.0022521736100316048, -0.13212469220161438, -0.059906940907239914, 0.09978161752223969, 0.18255558609962463, -0.3281238079071045, -0.02027089148759842, -0.37328797578811646, 0.27877748012542725, -0.38036680221557617, 0.06264118105173111, 0.06561702489852905, 0.2547193467617035, 0.22662729024887085, -0.0025859642773866653, 0.20675984025001526, 0.1395060271024704, -0.2556053400039673, -0.023164408281445503, -0.08642122894525528, 0.033181332051754, 0.11880303919315338, 0.5814434885978699, -0.03792073205113411, -0.031235694885253906, -0.22110404074192047, 0.5336272716522217, 0.09887855499982834, 0.1744018793106079, 0.27742645144462585], [-0.21236693859100342, 0.39272844791412354, 0.12045709788799286, 0.5578780770301819, 0.3753935694694519, 0.058620385825634, -0.12419447302818298, -0.14246779680252075, 0.061272427439689636, 0.06309464573860168, -0.033055126667022705, -0.1681632548570633, 0.07293630391359329, 0.34369710087776184, 0.20038507878780365, 0.13230295479297638, -0.6425067782402039, -0.06122284382581711, -0.24203360080718994, 0.399661123752594, 0.4669497311115265, -0.12827280163764954, 0.03483399748802185, -0.2537979483604431, -0.16391780972480774, -0.29012808203697205, -0.028606317937374115, -0.048497337847948074, 0.09568078815937042, -0.4437299966812134, -0.03498680144548416, 0.15710040926933289, -0.04048198461532593, 0.31894513964653015, -0.24835491180419922, -0.13567087054252625, 0.04463121294975281, 0.12637819349765778, -0.1443568617105484, 0.2637355923652649, -0.1073310375213623, -0.17506703734397888, 0.05643877387046814, 0.33145996928215027, -0.12971231341362, 0.20967891812324524, -0.03990631923079491, 0.10738880932331085, 0.11760620027780533, 0.2845706641674042, -0.060258179903030396, 0.1975732296705246, 0.17857444286346436, 0.326928049325943, -0.06271668523550034, -0.2016516625881195, 0.09871082007884979, 0.241827592253685, -0.18104878067970276, -0.038182128220796585, -0.014240534976124763, 0.09841328859329224, 0.35348057746887207, 0.30228275060653687], [0.10298758000135422, -0.22916817665100098, -0.503241777420044, -0.17573635280132294, 0.23692429065704346, -0.3660147190093994, 0.05005136877298355, 0.14596137404441833, -0.2519384026527405, -0.018653251230716705, 0.14576838910579681, -0.11684265732765198, 0.34088411927223206, 0.17404286563396454, 0.01643378660082817, -0.18108497560024261, 0.3964789807796478, -0.23025928437709808, 0.12289056181907654, -0.18973346054553986, 0.05571553111076355, -0.12270812690258026, 0.09463302791118622, 0.3022286593914032, -0.1548234224319458, -0.2896935045719147, 0.4180246591567993, 0.16735221445560455, -0.27068713307380676, 0.07375168055295944, -0.31536176800727844, -0.08206215500831604, -0.20724542438983917, -0.03308495134115219, 0.3201986849308014, 0.10384617745876312, -0.003792945295572281, 0.03665950894355774, 0.008914662525057793, 0.25553762912750244, 0.2668079435825348, 0.05326324328780174, -0.057425402104854584, 0.4507358968257904, 0.005308109801262617, 0.0037472210824489594, 0.1744070202112198, 0.23244327306747437, -0.16299255192279816, 0.03771886229515076, -0.22991614043712616, 0.17738217115402222, 0.02364009991288185, -0.2975570261478424, -0.14780940115451813, 0.06687726080417633, -0.1877800077199936, 0.003760993480682373, 0.4109261631965637, 0.21473120152950287, -0.4453398287296295, -0.17456263303756714, -0.5562241673469543, -0.0026321876794099808], [0.19434623420238495, -0.34468817710876465, -0.012429874390363693, 0.09957479685544968, -0.12942562997341156, -0.06695252656936646, 0.029275204986333847, -0.13259930908679962, 0.17920365929603577, -0.01463899202644825, -0.25704872608184814, -0.4034591317176819, 0.3608912527561188, -0.056776612997055054, 0.20959293842315674, -0.08202467858791351, 0.18604138493537903, -0.22370222210884094, -0.2635633945465088, -0.031788960099220276, 0.09831495583057404, 0.18889126181602478, -0.07337629050016403, -0.4363589584827423, 0.2079927623271942, 0.3846626877784729, -0.305400013923645, -0.15547770261764526, 0.04072987288236618, -0.16392241418361664, 0.24786138534545898, -0.1528284251689911, -0.12905536592006683, 0.25978678464889526, 0.0639350488781929, 0.3454190492630005, 0.13991528749465942, -0.16866348683834076, 0.024534687399864197, 0.06389738619327545, -0.2215293049812317, -0.12220034748315811, 0.33912864327430725, -0.29233360290527344, 0.05154523253440857, 0.2338508516550064, -0.037214718759059906, 0.12243835628032684, 0.19377398490905762, 0.03649084270000458, 0.04548977315425873, -0.23130203783512115, 0.012121543288230896, 0.2728573679924011, 0.211385577917099, 0.06605494767427444, -0.2811623811721802, 0.15973034501075745, -0.4346776604652405, 0.019652340561151505, 0.40521395206451416, 0.034748293459415436, 0.3528456687927246, 0.2465692162513733], [-0.21865983307361603, 0.054247502237558365, 0.17322030663490295, 0.3678547143936157, -0.15319742262363434, -0.21936334669589996, -0.1375122368335724, -0.18022145330905914, 0.04356002062559128, -0.38637402653694153, -0.06458315998315811, -0.1853855699300766, 0.09997177869081497, 0.12182214856147766, 0.0013892659917473793, 0.23179253935813904, 0.17399100959300995, 0.05556999519467354, -0.3056870400905609, 0.1751822829246521, -0.48783600330352783, 0.22231337428092957, -0.008072666823863983, -0.5356013774871826, -0.10369786620140076, -0.06001561880111694, -0.007231865078210831, -0.02630382403731346, -0.004766844213008881, -0.14332684874534607, 0.34243184328079224, 0.6185503602027893, -0.12353874742984772, 0.25962209701538086, -0.10719937831163406, -0.22108183801174164, 0.22684457898139954, 0.23991632461547852, 0.05397411435842514, -0.07690443098545074, -0.3042886555194855, -0.1451534479856491, 0.07466462254524231, -0.5141489505767822, 0.14883172512054443, 0.009649069979786873, 0.0944986343383789, 0.20714306831359863, -0.07929915934801102, -0.35526418685913086, 0.1703578233718872, -0.2608499526977539, 0.018634768202900887, 0.491119384765625, 0.2945781946182251, 0.13612332940101624, 0.16991493105888367, 0.22790087759494781, 0.08798351883888245, 0.29587697982788086, 0.5446096062660217, -0.11336679756641388, 0.6642394661903381, 0.010707736015319824], [-0.23562276363372803, 0.14193710684776306, -0.1923259049654007, -0.16516360640525818, -0.024058716371655464, -0.08232443034648895, 0.36202389001846313, 0.10807742178440094, -0.1960538625717163, -0.06634129583835602, 0.4785885810852051, -0.12002667039632797, 0.2182925045490265, 0.06018191576004028, 0.1948121190071106, -0.11202822625637054, 0.3558526933193207, 0.005009442567825317, 0.39905235171318054, -0.3219911754131317, 0.05612950026988983, 0.14538708329200745, -0.1494293212890625, 0.16018839180469513, 0.3301878571510315, 0.36155083775520325, -0.28799712657928467, 0.10848682373762131, -0.1701306849718094, -0.1171526312828064, 0.016323139891028404, -0.16312934458255768, 0.11613024026155472, 0.018726639449596405, -0.2889692187309265, -0.05201677978038788, -0.34874242544174194, 0.14703905582427979, 0.18504473567008972, -0.258807897567749, -0.03336915001273155, -0.05591706931591034, 0.14577460289001465, -0.011147817596793175, 0.4692786633968353, -0.2736456096172333, 0.027482543140649796, 0.1412217617034912, -0.03543762117624283, 0.01308681070804596, -0.011425279080867767, -0.2519516944885254, -0.3081880211830139, -0.4520695209503174, 0.06649164855480194, 0.31186044216156006, -0.06534776091575623, 0.1252850592136383, 0.24114489555358887, 0.17543891072273254, 0.11923526227474213, 0.11310280114412308, -0.22426702082157135, -0.0326085239648819], [-0.04589977487921715, -0.005771748721599579, -0.3113256096839905, -0.2683981657028198, -0.28959643840789795, -0.04125773906707764, 0.047651924192905426, -0.26567715406417847, -0.2992183566093445, -0.18782499432563782, 0.16058194637298584, 0.10741051286458969, 0.18995405733585358, 0.046412669122219086, 0.23659512400627136, -0.2430213838815689, 0.495464026927948, -0.018474219366908073, 0.266551673412323, -0.25785163044929504, 0.1752481460571289, -0.17222043871879578, 0.09099246561527252, 0.35682493448257446, 0.2952219247817993, -0.007186975330114365, -0.17680872976779938, -0.17183580994606018, 0.017562314867973328, 0.0130130834877491, -0.05383295565843582, -0.03653213009238243, 0.14238308370113373, 0.3010382056236267, 0.3403759002685547, -0.07073384523391724, 0.040644146502017975, 0.18655815720558167, 0.05773207172751427, -0.2783726453781128, 0.21279355883598328, 0.5677510499954224, -0.23552945256233215, 0.09865812212228775, 0.13571524620056152, -0.018502693623304367, 0.17847910523414612, -0.22117021679878235, -0.12254543602466583, 0.10526847094297409, 0.2854917347431183, 0.11143285036087036, -0.13128383457660675, -0.004539841786026955, 0.5414570569992065, 0.09127916395664215, 0.031656522303819656, -0.35064664483070374, 0.20141711831092834, -0.25101178884506226, -0.10573939979076385, -0.07910394668579102, -0.40126267075538635, 0.07541991770267487], [0.1915460228919983, 0.37317171692848206, -0.25289055705070496, 0.02149316668510437, 0.1776861995458603, 0.009306035004556179, 0.36385464668273926, -0.09969788044691086, 0.16687294840812683, -0.005171651020646095, -0.2258807122707367, 0.39658433198928833, 0.2070116102695465, 0.162190243601799, -0.15329469740390778, 0.16666074097156525, 0.06451061367988586, 0.046804435551166534, 0.23998510837554932, 0.1841941773891449, 0.07120727002620697, -0.19466957449913025, -0.3469529151916504, 0.6693747639656067, -0.35089579224586487, -0.10679402202367783, -0.11415444314479828, 0.18336449563503265, -0.15792612731456757, 0.3290306627750397, -0.06169821321964264, -0.45547470450401306, -0.21188241243362427, -0.1359158158302307, 0.11380305886268616, 0.20789878070354462, -0.2765854597091675, -0.2413080483675003, -0.41890841722488403, 0.3075462877750397, 0.044546082615852356, -0.014593571424484253, -0.21491102874279022, 0.5739607214927673, 0.2588672935962677, 0.29591211676597595, 0.2719734013080597, 0.0007348321378231049, 0.343339204788208, 0.04363476485013962, -0.2985711395740509, 0.007813587784767151, 0.017980337142944336, -0.13795973360538483, 0.0946953222155571, -0.24054163694381714, -0.023986708372831345, -0.19527244567871094, 0.28601938486099243, -0.14194166660308838, -0.343796044588089, -0.08507800847291946, -0.2642453908920288, -0.29546767473220825], [0.05049141123890877, 0.08536887913942337, -0.7677260637283325, 0.1542288064956665, -0.08812916278839111, 0.31858155131340027, 0.030411891639232635, 0.06388778984546661, 0.06362327933311462, 0.22513392567634583, 0.029632801190018654, 0.3529159724712372, 0.0769137442111969, -0.12862050533294678, -0.19694413244724274, -0.2714013457298279, 0.14893114566802979, 0.0651383101940155, 0.06866241991519928, 0.025376100093126297, 0.06480900198221207, -0.07207950949668884, 0.1209341511130333, 0.5432583093643188, -0.39107412099838257, -0.1759553700685501, 0.3340283930301666, 0.3513677716255188, 0.05222652852535248, 0.1354227364063263, -0.2233072817325592, -0.12763971090316772, -0.28792303800582886, 0.02337402105331421, -0.16967378556728363, -0.06412830948829651, -0.3783440589904785, -0.1685716211795807, -0.38788560032844543, 0.1905854046344757, -0.013564741238951683, 0.09444213658571243, 0.30381956696510315, 0.5448771715164185, -0.12666866183280945, -0.23535610735416412, -0.2261878103017807, -0.4977550506591797, 0.19899892807006836, 0.037613820284605026, -0.31551942229270935, 0.1667381078004837, -0.5033631324768066, -0.21119126677513123, 0.2699730098247528, -0.302029550075531, -0.2620924413204193, -0.05600138008594513, 0.0751061737537384, 0.009967680089175701, -0.5584797263145447, -0.03999169170856476, -0.5062272548675537, -0.14402152597904205], [-0.0371648333966732, -0.01265760324895382, 0.3564637303352356, 0.4439196288585663, -0.0653577446937561, -0.15065011382102966, -0.012071525678038597, -0.3556102216243744, -0.01796635240316391, -0.10862356424331665, 0.37010467052459717, -0.21164393424987793, -0.14456406235694885, -0.09199759364128113, -0.07801808416843414, 0.10254912078380585, -0.05736267566680908, -0.3212891221046448, -0.08833211660385132, 0.09464351087808609, -0.509042501449585, -0.15616746246814728, 0.14310608804225922, -0.16698119044303894, 0.21958331763744354, 0.060822926461696625, -0.012089082971215248, 0.09697206318378448, 0.08907246589660645, -0.3807382881641388, 0.0955522358417511, -0.07825630158185959, -0.10573676228523254, 0.14926990866661072, 0.05598168820142746, -0.01708398200571537, 0.2679426372051239, -0.20640644431114197, -0.18526440858840942, -0.2547934055328369, 0.12868373095989227, -0.09065930545330048, -0.014721704646945, -0.061959750950336456, -0.12057946622371674, 0.08389009535312653, -0.31666895747184753, 0.34130188822746277, 0.19676445424556732, -0.309058278799057, -0.00014129001647233963, -0.11879576742649078, -0.13783924281597137, 0.010727737098932266, -0.09089673310518265, 0.09463151544332504, 0.4014463722705841, -0.1539546102285385, -0.2147148698568344, -0.08171612024307251, 0.40299949049949646, 0.10044246912002563, 0.07535482197999954, 0.2921883165836334], [-0.2622915506362915, -0.1330665946006775, -0.17244285345077515, 0.06678101420402527, -0.09851887077093124, 0.1868058294057846, 0.05106089264154434, -0.22181901335716248, 0.30391547083854675, -0.030680736526846886, 0.27545857429504395, -0.12691499292850494, -1.9910745322704315e-05, -0.14889122545719147, -0.184653639793396, 0.13989633321762085, -0.4692772328853607, -0.2265670746564865, 0.07272116839885712, 0.13265301287174225, 0.07126680016517639, -0.3150802254676819, -0.21394917368888855, -0.5336146950721741, -0.31917813420295715, -0.04439689218997955, 0.09042606502771378, -0.23337261378765106, -0.05819541960954666, -0.0954907014966011, 0.1700304001569748, 0.08334925770759583, -0.22602833807468414, 0.12255647778511047, -0.06722736358642578, 0.07689325511455536, 0.08863897621631622, 0.26749640703201294, 0.09516026824712753, 0.07816223055124283, 0.1109265461564064, -0.29730990529060364, 0.13563735783100128, -0.3925382196903229, -0.20240631699562073, -0.3003647029399872, 0.16210055351257324, 0.305486798286438, 0.2550060749053955, 0.19367989897727966, -0.09295838326215744, 0.1223541647195816, 0.2621173560619354, 0.23256364464759827, -0.0016064932569861412, -0.0647866427898407, -0.05480131134390831, -0.38283830881118774, -0.07249060273170471, -0.1194852814078331, 0.01124352216720581, -0.11152077466249466, 0.34755465388298035, -0.17331178486347198], [-0.3233937919139862, 0.0316937118768692, 0.3131881356239319, 0.21391387283802032, -0.29397478699684143, 0.12564758956432343, 0.2278176248073578, -0.3249354660511017, -0.08427302539348602, 0.12130878865718842, -0.07183999568223953, -0.30285653471946716, -0.22508426010608673, -0.16535328328609467, 0.05851428583264351, 0.07670556753873825, -0.037362340837717056, -0.1166592687368393, -0.08538582175970078, 0.30867815017700195, -0.014539424329996109, 0.03092295303940773, 0.13299980759620667, -0.4845518469810486, 0.2151559442281723, 0.3489508628845215, 0.03272833675146103, -0.11770952492952347, 0.029948974028229713, -0.03996150940656662, 0.013693179935216904, 0.24915540218353271, 0.11601383984088898, 0.0012226738035678864, 0.4848635196685791, -0.05500146374106407, 0.4176362454891205, -0.05294422805309296, 0.5109478831291199, -0.13100816309452057, -0.06304869055747986, 0.014373356476426125, 0.492257297039032, -0.31736770272254944, 0.34926366806030273, 0.15614773333072662, -0.13475660979747772, 0.28031760454177856, 0.02591169998049736, -0.10288574546575546, 0.01864476501941681, 0.01756679266691208, 0.11204110085964203, 0.06373104453086853, 0.20940379798412323, -0.14299684762954712, -0.11031224578619003, 0.5129864811897278, 0.20200295746326447, 0.005250569432973862, 0.4841545820236206, 0.2122277468442917, 0.06142495572566986, -0.17432637512683868], [0.0184318944811821, -0.1578497439622879, 0.04588598757982254, -0.29894575476646423, -0.41090452671051025, -0.09634428471326828, -0.1525404006242752, -0.021983124315738678, -0.10385918617248535, 0.03091123327612877, 0.15920674800872803, 0.056154027581214905, -0.21930471062660217, 0.24768608808517456, -0.13180990517139435, -0.6013398766517639, 0.35515835881233215, 0.10355347394943237, 0.024125758558511734, -0.19591183960437775, -0.15277329087257385, -0.05671517550945282, 0.06767038255929947, 0.007227635011076927, -0.14697593450546265, 0.15587186813354492, -0.2722344994544983, -0.14484049379825592, -0.1985788345336914, 0.2044728696346283, -0.2094835340976715, 0.27505213022232056, 0.0763053148984909, 0.06352178007364273, 0.12634161114692688, 0.03256307169795036, 0.09351663291454315, 0.13404256105422974, -0.06064338982105255, 0.10962969809770584, 0.2441318929195404, 0.06964687258005142, -0.19258680939674377, 0.14516791701316833, 0.8186136484146118, -0.10728532075881958, 0.09889720380306244, -0.013740645721554756, 0.016409466043114662, -0.06469671428203583, 0.12316858023405075, -0.05679832398891449, -0.05685414746403694, -0.4646713435649872, -0.07328931987285614, 0.0852394551038742, -0.0915292426943779, -0.09646224975585938, -0.08538860082626343, 0.08201253414154053, 0.12006758898496628, 0.259146511554718, -0.06657976657152176, 0.2519475221633911], [-0.0830722376704216, -0.4399949312210083, 0.33945804834365845, 0.16169700026512146, -0.16916535794734955, -0.0387592613697052, -0.026722148060798645, -0.1734839677810669, -0.10843055695295334, -0.35893839597702026, 0.16443312168121338, -0.12727108597755432, 0.1446865350008011, 0.2932160198688507, -0.2995593249797821, -0.3132953345775604, 0.515127420425415, -0.19205449521541595, -0.08228597044944763, -0.1797269582748413, -0.03093625418841839, 0.1857086569070816, -0.33418989181518555, -0.37477970123291016, 0.28545838594436646, 0.7455319166183472, 0.20094391703605652, -0.5062240362167358, 0.3578215539455414, 0.08794167637825012, 0.08346249163150787, 0.2638857364654541, 0.04746689647436142, -0.09439510107040405, 0.22126051783561707, -0.7290458083152771, 0.05333289876580238, 0.017364561557769775, 0.33477893471717834, -0.633689820766449, -0.09826545417308807, -0.06883816421031952, 0.15758465230464935, -0.2547112703323364, 0.26154041290283203, 0.08444082736968994, 0.03893435001373291, 0.2874925434589386, -0.2540183961391449, 0.07216411828994751, 0.4463164210319519, -0.30859214067459106, 0.08864690363407135, -0.1955663412809372, 0.00205254927277565, 0.16711007058620453, 0.21098895370960236, 0.002544038463383913, -0.032069798558950424, -0.19155216217041016, 0.14881598949432373, 0.10881728678941727, 0.20834870636463165, 0.3042909502983093], [-0.033465418964624405, -0.028214089572429657, -0.011332815513014793, -0.25466716289520264, 0.07319477200508118, -0.38978108763694763, 0.37666288018226624, 0.11692985892295837, 0.25711336731910706, 0.2529718279838562, -0.09951476752758026, 0.4591822922229767, 0.19215548038482666, -0.3938332200050354, 0.049410630017519, -0.3707294166088104, 0.6422109603881836, -0.25402015447616577, 0.3210219144821167, -0.025333818048238754, 0.26245924830436707, -0.10754682868719101, 0.12059955298900604, 0.16135181486606598, 0.028823286294937134, -0.0002003377303481102, -0.36789172887802124, -0.022602587938308716, 0.008552640676498413, 0.16868796944618225, -0.2514248788356781, 0.017246760427951813, 0.02099393866956234, 0.1891554296016693, 0.009013624861836433, -0.2838308811187744, -0.11725984513759613, 0.2063688039779663, -0.060271814465522766, 0.24049192667007446, 0.1349262297153473, 0.16335026919841766, -0.04213467240333557, 0.33006155490875244, 0.06687285006046295, -0.1632368564605713, -0.2138216197490692, -0.1042914018034935, -0.07946515083312988, -0.20592322945594788, 0.4464493691921234, 0.0037618363276124, -0.18229126930236816, -0.4985421299934387, -0.1905108392238617, -0.03749123588204384, -0.06393902748823166, -0.30760079622268677, 0.292484849691391, 0.14166556298732758, -0.21020933985710144, -0.10970805585384369, -0.3451826870441437, -0.1533999741077423], [-0.13828425109386444, -0.16079595685005188, -0.1348194181919098, -0.043068915605545044, -0.13355731964111328, 0.13119517266750336, 0.051992855966091156, -0.08543533831834793, 0.387863427400589, -0.11624287068843842, 0.40043187141418457, 0.016780734062194824, 0.0786508098244667, 0.17399729788303375, -0.04212876036763191, 0.03700731694698334, 0.025822602212429047, -0.01700037717819214, -0.05516859143972397, 0.30243608355522156, -0.026225745677947998, 0.37844958901405334, 0.3205929100513458, -0.4538089632987976, 0.1608082354068756, -0.1783471703529358, -0.17637942731380463, 0.0077727362513542175, 0.05866052955389023, 0.05087349936366081, -0.1228889599442482, -0.17156612873077393, -0.14379321038722992, 0.03538496792316437, 0.1273198425769806, -0.2949247658252716, 0.2647157907485962, -0.013572841882705688, 0.19926539063453674, -0.5128331184387207, -0.16150708496570587, -0.1271437406539917, -0.058935463428497314, -0.28318554162979126, 0.03783765062689781, 0.31349217891693115, 0.28586652874946594, 0.011672716587781906, -0.19062384963035583, -0.2589804530143738, 0.19850943982601166, -0.3182297646999359, 0.3231823742389679, -0.04712734743952751, 0.04276181012392044, 0.05355089157819748, 0.08486849069595337, 0.16545626521110535, -0.4349605143070221, 0.15297774970531464, 0.33382686972618103, 0.40465012192726135, -0.06312887370586395, 0.02577729895710945], [-0.1979418694972992, -0.08789044618606567, 0.08148827403783798, 0.31888559460639954, -0.12023866921663284, 0.14070582389831543, 0.06724920868873596, 0.08027282357215881, -0.18431811034679413, 0.20857210457324982, 0.13043731451034546, -0.04814017564058304, 0.12895551323890686, -0.21619752049446106, -0.3292522728443146, 0.018131816759705544, -0.27918505668640137, 0.09993798285722733, -0.4218350350856781, 0.38773149251937866, -0.12159766256809235, 0.2568815052509308, 0.017144663259387016, -0.20427986979484558, 0.16017939150333405, -0.12061244994401932, -0.18390579521656036, 0.18262454867362976, 0.07799271494150162, 0.1370258778333664, 0.08425480127334595, -0.015566959977149963, -0.12237171828746796, 0.1950286328792572, -0.20630328357219696, 0.28831470012664795, -0.2260103076696396, 0.13291919231414795, -0.11704108119010925, 0.07013587653636932, -0.015569031238555908, 0.14900587499141693, -0.4759664833545685, -0.0695393979549408, -0.32929128408432007, 0.20632457733154297, 0.08500941842794418, 0.30952510237693787, 0.0014065448194742203, 0.2599959373474121, -0.2686750888824463, 0.1565995216369629, -0.08865866810083389, 0.2836754322052002, -0.28888821601867676, -0.39583706855773926, 0.0014012306928634644, 0.1719096302986145, 0.12721240520477295, -0.11108222603797913, -0.3047664761543274, 0.009268384426832199, 0.2682614326477051, 0.04509483277797699], [-0.15225785970687866, 0.22759850323200226, 0.14529480040073395, 0.44744089245796204, -0.020042158663272858, 0.02486874908208847, -0.372707724571228, 0.11975480616092682, 0.27610254287719727, -0.11258290708065033, 0.07603538781404495, -0.2627418041229248, -0.1244797557592392, -0.07439227402210236, -0.2451169788837433, 0.3943553864955902, -0.02925684303045273, 0.12177914381027222, -0.13414455950260162, 0.07728070020675659, 0.12986034154891968, -0.34804534912109375, -0.031569093465805054, -0.3825798034667969, 0.06098083034157753, -0.17128482460975647, -0.06423231214284897, -0.3239078223705292, -0.40496259927749634, 0.09050120413303375, 0.12770570814609528, -0.050666630268096924, -0.35857561230659485, -0.09517595171928406, 0.11735093593597412, 0.02146192640066147, 0.10740183293819427, 0.004885651171207428, 0.1307271420955658, 0.003403717651963234, -0.3153989911079407, 0.03998013213276863, -0.24558138847351074, -0.009696985594928265, -0.3499149680137634, -0.029854778200387955, -0.23472388088703156, -0.17734181880950928, 0.30605703592300415, 0.2434414029121399, -0.13024410605430603, -0.13230527937412262, -0.1237492561340332, 0.47468891739845276, -0.26856860518455505, 0.018522389233112335, -0.1310928463935852, 0.30157503485679626, 0.012503311038017273, -0.04006089270114899, 0.25882935523986816, 0.2560445964336395, 0.2357114851474762, 0.16521427035331726], [-0.30311092734336853, 0.014393394812941551, -0.33979305624961853, -0.10078957676887512, 0.11835458129644394, -0.012056933715939522, 0.30701547861099243, 0.4998890161514282, 0.052940577268600464, 0.1922021359205246, -0.022915616631507874, 0.27647197246551514, -0.08235324919223785, -0.03187287598848343, 0.4125487804412842, 0.07676123827695847, 0.010535956360399723, 0.2601381540298462, 0.21560709178447723, 0.25744521617889404, -0.34576478600502014, -0.12362190335988998, 0.20304526388645172, 0.41724005341529846, -0.24551382660865784, 0.18224939703941345, 0.10294926911592484, -0.33816927671432495, 0.07780967652797699, 0.1387295126914978, -0.2437090277671814, -0.07735920697450638, -0.051110271364450455, 0.02319953218102455, 0.11106085032224655, 0.009368183091282845, -0.06252409517765045, -0.20701588690280914, -0.23645153641700745, 0.2568298578262329, 0.1890685111284256, 0.0009680530056357384, -0.1558154821395874, 0.34783440828323364, -0.19795820116996765, 0.10162917524576187, -0.09732124209403992, -0.0012536579743027687, -0.07160698622465134, 0.39617419242858887, -0.30410394072532654, -0.04866520315408707, -0.10580684244632721, 0.040965624153614044, 0.016130857169628143, 0.0625043585896492, -0.2642240524291992, -0.28241798281669617, 0.003150084987282753, 0.18918800354003906, -0.2122775763273239, -0.302957147359848, -0.13024309277534485, 0.1270865648984909], [0.16557615995407104, -0.5473645925521851, 0.3396351933479309, -0.15453454852104187, -0.17897860705852509, -0.06608854234218597, 0.37836650013923645, -0.3491969406604767, 0.22066247463226318, -0.3184020519256592, 0.20618346333503723, -0.20364277064800262, 0.10352391004562378, 0.30786049365997314, 0.24449700117111206, 0.26792412996292114, 0.31536489725112915, -0.177242249250412, -0.07227568328380585, -0.19122831523418427, -0.16563445329666138, 0.19048145413398743, 0.10011500865221024, -0.0050794463604688644, 0.25385022163391113, 0.039991237223148346, -0.22020584344863892, -0.47850364446640015, 0.002244030125439167, 0.15089961886405945, 0.0009226500988006592, 0.5529564023017883, 0.010747931897640228, -0.03990273177623749, 0.3751634359359741, -0.07320422679185867, -0.17772237956523895, 0.2559826970100403, 0.273459255695343, -0.3947388529777527, -0.2217482328414917, 0.07533717155456543, 0.4108239710330963, -0.21248318254947662, 0.3005203604698181, -0.38846898078918457, -0.039683811366558075, 0.3332558870315552, -0.387669175863266, -0.07268663495779037, 0.23225200176239014, -0.01780056394636631, -0.28968915343284607, -0.09709841012954712, -0.15704034268856049, -0.048696547746658325, 0.20732484757900238, 0.26222723722457886, -0.3991925120353699, -0.28432032465934753, 0.33761513233184814, 0.0781402736902237, -0.003064439631998539, 0.01674661785364151], [0.0164044089615345, -0.1378750056028366, -0.2438654601573944, 0.03660479933023453, -0.2814027667045593, -0.2769985795021057, 0.2211192548274994, 0.3114040195941925, -0.10893232375383377, 0.10180579125881195, -0.11287819594144821, 0.26293885707855225, 0.19936701655387878, 0.25694140791893005, 0.09753827005624771, -0.1616605520248413, -0.3337361812591553, 0.2835443615913391, 0.17943334579467773, -0.4165901243686676, 0.1449754238128662, -0.20473842322826385, 0.3063221871852875, 0.15953822433948517, -0.030164413154125214, -0.34811651706695557, 0.026200685650110245, 0.2159697264432907, 0.19343574345111847, 0.03798094764351845, -0.029906373471021652, -0.3931422829627991, 0.05060658976435661, -0.11527331918478012, 0.35707005858421326, -0.19263523817062378, -0.15355157852172852, -0.0031376145780086517, -0.5091782212257385, 0.17160241305828094, 0.10086022317409515, -0.1980879008769989, -0.10425784438848495, -0.12326641380786896, 0.07834862917661667, 0.09144425392150879, -0.18770116567611694, -0.23454700410366058, 0.25079119205474854, 0.029692497104406357, -0.06833180785179138, 0.1545492559671402, -0.21809394657611847, -0.1082468330860138, -0.2398521900177002, -0.02583840861916542, -0.05756589397788048, -0.08741011470556259, 0.40899205207824707, -0.10071909427642822, -0.3894020617008209, -0.03860748931765556, -0.037518471479415894, -0.06748710572719574], [0.23337659239768982, -0.40401890873908997, -0.0012201294302940369, -0.10073673725128174, -0.2258775532245636, -0.10314653813838959, -0.11529238522052765, 0.3376004993915558, 0.010425753891468048, 0.13140425086021423, -0.01873343624174595, -0.17570316791534424, 0.07570043951272964, 0.10184435546398163, 0.2761036455631256, -0.4223245084285736, 0.2524583041667938, -0.15450960397720337, 0.5292420983314514, 0.07123511284589767, -0.02068629115819931, 0.1238260269165039, -0.0781526267528534, 0.5050763487815857, -0.24945133924484253, -0.29199662804603577, -0.2193479686975479, -0.13310189545154572, 0.14395509660243988, 0.07009197771549225, 0.24044309556484222, -0.08181027323007584, -0.3114336431026459, -0.08469116687774658, -0.24960476160049438, -0.18011154234409332, -0.1508268564939499, -0.22831928730010986, 0.2753269076347351, -0.08794752508401871, 0.3603421449661255, 0.2565971612930298, 0.09912668168544769, 0.17497657239437103, 0.35317978262901306, 0.06272463500499725, -0.1068674847483635, -0.12425839900970459, -0.12514959275722504, 0.11323512345552444, 0.012990636751055717, 0.11130964756011963, -0.10603782534599304, -0.23438754677772522, -0.010821843519806862, 0.037761494517326355, 0.09757483750581741, -0.28577905893325806, 0.4001050591468811, 0.04495948553085327, -0.13459034264087677, 0.12749138474464417, -0.4694047272205353, -0.16471292078495026], [-0.04269176349043846, 0.020753227174282074, 0.18344734609127045, 0.00330943800508976, 0.2475978136062622, 0.36271142959594727, 0.12920784950256348, 0.26534855365753174, 0.04542534053325653, -0.17618246376514435, -0.02908589318394661, 0.24045515060424805, 0.037163734436035156, 0.11367710679769516, -0.2999109923839569, 0.09551958739757538, -0.2758549451828003, 0.034348759800195694, -0.35219693183898926, 0.1980448067188263, 0.17369896173477173, -0.30972087383270264, 0.10209311544895172, 0.06376677751541138, 0.09671387076377869, -0.057391468435525894, 0.2763670086860657, 0.07641243189573288, 0.09135280549526215, -0.2589775323867798, 0.010874398052692413, 0.17064520716667175, -0.2217760980129242, 0.3339625597000122, -0.15667995810508728, 0.12107802927494049, -0.04856692627072334, 0.158927321434021, 0.28320246934890747, 0.09778796136379242, 0.18724973499774933, 0.22715383768081665, 0.045882757753133774, -0.4186250865459442, -0.03333962708711624, 0.3330676555633545, -0.05025550350546837, 0.010323653928935528, 0.24783477187156677, -0.30661335587501526, -0.34170427918434143, -0.08157678693532944, 0.0004383157938718796, 0.23484830558300018, -0.2551438510417938, 0.26949256658554077, -0.04051562398672104, 0.0015101069584488869, -0.1291944831609726, -0.0637437254190445, 0.1977754831314087, 0.20095448195934296, 0.3397241234779358, 0.25656747817993164], [-0.09271527081727982, -0.13400371372699738, -0.26623520255088806, -0.08810241520404816, 0.1708601713180542, -0.15153497457504272, 0.24366286396980286, -0.11855761706829071, 0.12427061796188354, -0.036638516932725906, -0.12318307161331177, -0.26360246539115906, -0.07991474866867065, 0.2176942229270935, 0.02724437601864338, -0.3589569628238678, 0.0595833919942379, 0.2846490144729614, 0.049001917243003845, -0.12901264429092407, -0.21838989853858948, 0.3681938946247101, -0.22999633848667145, -0.04703802987933159, 0.29182374477386475, 0.1767161339521408, 0.09618310630321503, -0.41778311133384705, 0.02056189626455307, -0.2365659922361374, -0.137712299823761, -0.05902469530701637, -0.15543469786643982, -0.02233395166695118, 0.17356549203395844, 0.025204483419656754, 0.02705528400838375, -0.14045703411102295, 0.049650296568870544, -0.0010227860184386373, 0.2123500108718872, 0.5646728277206421, 0.13792674243450165, -0.12261056900024414, 0.16260908544063568, -0.39556655287742615, 0.23414263129234314, -0.006091522052884102, -0.04422355443239212, -0.18925213813781738, 0.581276535987854, -0.2620072066783905, -0.17162494361400604, -0.24867060780525208, -0.07166018337011337, -0.15052548050880432, 0.22605931758880615, 0.018412213772535324, 0.1570618450641632, -6.949272938072681e-05, 0.20106032490730286, 0.18497979640960693, -0.05096040293574333, -0.1291770488023758], [-0.05983257293701172, -0.23127976059913635, 0.023095466196537018, -0.46963614225387573, -0.25968125462532043, -0.4508346915245056, 0.07728777825832367, 0.0057175979018211365, 0.03404555469751358, -0.16379518806934357, 0.1514589786529541, -0.1787371039390564, 0.11761558055877686, 0.16400966048240662, 0.18893569707870483, -0.012728752568364143, 0.2262698858976364, -0.014493156224489212, -0.2440921664237976, 0.0031112506985664368, 0.013632848858833313, 0.19551776349544525, -0.007864005863666534, 0.10426563024520874, 0.1966361701488495, 0.08997125178575516, 0.13637420535087585, 0.16745725274085999, -0.0745825543999672, 0.1966516673564911, -0.15759797394275665, -0.07735303044319153, 0.08256235718727112, -0.08970587700605392, -0.15195339918136597, -0.21517148613929749, 0.059642478823661804, -0.022181253880262375, 0.25237149000167847, 0.05491897463798523, 0.468671977519989, 0.1056147962808609, -0.0956340804696083, 0.3900916278362274, 0.2975403666496277, -0.07562154531478882, -0.16024281084537506, -0.1971491277217865, 0.14024817943572998, 0.13090530037879944, 0.2262321412563324, -0.26072943210601807, -0.34038567543029785, -0.6376326084136963, 0.35965976119041443, 0.002654142677783966, -0.1678040623664856, -0.22800366580486298, -0.036276645958423615, -0.27824389934539795, 0.0032122358679771423, -0.19572947919368744, -0.21443963050842285, -0.4080890715122223], [-0.048676684498786926, -0.39102402329444885, -0.3796687126159668, -0.18735390901565552, 0.04625886678695679, -0.26870471239089966, 0.3743087947368622, -0.11170149594545364, -0.29704707860946655, -0.2285459041595459, 0.06793089210987091, -0.14242243766784668, -0.06009722873568535, -0.07480781525373459, 0.11503705382347107, -0.14521360397338867, 0.41614270210266113, -0.07421532273292542, 0.12337855994701385, -0.06541857868432999, 0.06517167389392853, 0.12097235023975372, 0.026855915784835815, 0.40789198875427246, 0.2656806409358978, 0.15786516666412354, -0.37918809056282043, 0.1351330280303955, 0.08811815083026886, 0.1681361049413681, 0.2228592038154602, 0.4280232787132263, -0.06448063999414444, -0.06010960787534714, 0.3014303147792816, -0.29580968618392944, 0.24088101089000702, -0.3612797260284424, 0.681397020816803, -0.17674022912979126, -0.0053609199821949005, -0.17435427010059357, -0.18426603078842163, -0.17740702629089355, 0.4271898865699768, -0.36925941705703735, 0.07216969132423401, -0.18221424520015717, -0.06984409689903259, 0.020359940826892853, 0.5165708065032959, -0.16622209548950195, -0.17306435108184814, -0.5792893767356873, 0.14176404476165771, 0.12326860427856445, 0.2726295292377472, 0.011826137080788612, -0.09393499791622162, -0.11229588836431503, 0.0010958481580018997, 0.11355388164520264, 0.1530311405658722, 0.19191069900989532], [-0.11622704565525055, -0.3110365867614746, -0.008362507447600365, 0.11096008121967316, -0.01625645160675049, 0.010848160833120346, -0.031421925872564316, 0.08011381328105927, 0.5009293556213379, -0.21283705532550812, -0.005527234636247158, -0.1981292963027954, 0.09545601904392242, 0.17415562272071838, -0.1565902978181839, 0.06750743836164474, 0.3258057236671448, -0.2510567009449005, 0.038169264793395996, 0.06704424321651459, -0.19596551358699799, 0.41678956151008606, 0.004871116951107979, -0.058531418442726135, 0.32618850469589233, 0.1782660037279129, -0.04474365711212158, 0.055300019681453705, 0.02941242977976799, -0.29751479625701904, 0.07248272001743317, 0.4315583109855652, 0.5447313785552979, 0.12467150390148163, 0.3366375267505646, 0.11607198417186737, -0.03624895215034485, -0.1820196509361267, 0.3181559443473816, -0.5672214031219482, -0.019963745027780533, -0.12272139638662338, 0.05853639170527458, -0.07826460152864456, 0.535244345664978, -0.34667760133743286, 0.057485323399305344, -0.10232184082269669, -0.001524500548839569, 0.00257212296128273, 0.4071493148803711, -0.08132950216531754, 0.1265416294336319, -0.04584489017724991, -0.1217767596244812, -0.07435157895088196, -0.2977387011051178, -0.1388557255268097, 0.18761013448238373, -0.27042800188064575, 0.39936983585357666, -0.1779782474040985, -0.1978536695241928, 0.1973927617073059], [0.48184698820114136, 0.3268968164920807, -0.5906248092651367, -0.0853615552186966, 0.3613877594470978, -0.17200827598571777, 0.06904182583093643, 0.1695314198732376, -0.18371620774269104, 0.4206531345844269, 0.21123012900352478, 0.509516716003418, -0.08488807827234268, -0.2080470472574234, -0.022717168554663658, -0.04121342673897743, -0.11090067028999329, 0.010402070358395576, 0.14815790951251984, 0.0905027762055397, 0.11365772038698196, 0.0022241873666644096, -0.19996052980422974, -0.11233371496200562, -0.20617976784706116, -0.4333726167678833, 0.19353292882442474, 0.011968477629125118, 0.06466591358184814, 0.11800961196422577, 0.27182304859161377, -0.3086701035499573, 0.2256573587656021, 0.07776141911745071, -0.02443908154964447, -0.026226524263620377, -0.08100806921720505, -0.19726751744747162, -0.27881741523742676, 0.5084329843521118, 0.08691249787807465, 0.136166512966156, -0.10439538955688477, 0.49536973237991333, 0.07969771325588226, 0.13325244188308716, -0.006522359326481819, -0.31771719455718994, -0.2299695909023285, 0.12115534394979477, -0.6211716532707214, 0.097689189016819, -0.35781416296958923, 0.02435779571533203, -0.14234745502471924, 0.017055220901966095, -0.23330318927764893, -0.16991111636161804, 0.16538235545158386, -0.27985069155693054, -0.13090026378631592, -0.13476313650608063, -0.2158907949924469, -0.2484106868505478], [0.12342680245637894, 0.3160262703895569, -0.026990540325641632, 0.5762836337089539, -0.006213958375155926, 0.09536504745483398, -0.08274106681346893, -0.07961037755012512, 0.1403995007276535, 0.08448649942874908, -0.04782039672136307, -0.10927508771419525, -0.07885102182626724, -0.42079848051071167, -0.04646700620651245, 0.03466113656759262, -0.33542075753211975, 0.40675851702690125, -0.011875063180923462, 0.017065055668354034, 0.18082480132579803, -0.39912065863609314, 0.010447829961776733, -0.10180105268955231, 0.09387921541929245, -0.5520408749580383, 0.2852083742618561, -0.03942254185676575, 0.41356468200683594, 0.1917993277311325, -0.4256618320941925, 0.0397079661488533, 0.1840464323759079, -0.053282640874385834, -0.3500215709209442, 0.12584367394447327, -0.2833706736564636, -0.16357344388961792, -0.13987787067890167, 0.3159768879413605, 0.05507215857505798, -0.19720472395420074, -0.1319132298231125, 0.1690610945224762, -0.2924251854419708, 0.35246536135673523, 0.3699650168418884, 0.12091215699911118, 0.3804079592227936, 0.07403180003166199, -0.6803509593009949, 0.3187394440174103, -0.020869415253400803, 0.48192256689071655, -0.2280648648738861, -0.12343798577785492, -0.028100503608584404, -0.18811853229999542, -0.23509493470191956, 0.34045812487602234, -0.01642114296555519, -0.02163342759013176, 0.21304439008235931, -0.10406969487667084], [0.032501742243766785, -0.1392689347267151, 0.23900185525417328, -0.13922147452831268, 0.0963735282421112, -0.033368222415447235, -0.15707218647003174, -0.04852858558297157, 0.12366043031215668, -0.24662502110004425, -0.13566027581691742, -0.08847127854824066, 0.3944535553455353, -0.03058241680264473, 0.018524548038840294, 0.1206718236207962, -0.06139511615037918, 0.051516540348529816, 0.49852776527404785, 0.07903361320495605, -0.33217811584472656, 0.1852152943611145, 0.010196957737207413, -0.5870763063430786, 0.2054557502269745, 0.3375062048435211, 0.09080010652542114, -0.09962150454521179, 0.10347428172826767, -0.22188742458820343, 0.05385435000061989, 0.5049200654029846, -0.08516038954257965, 0.11454854905605316, 0.14891526103019714, 0.2117152065038681, 0.059742771089076996, -0.07990550249814987, 0.230566143989563, -0.08634235709905624, -0.29370546340942383, -0.10553911328315735, -0.12217594683170319, -0.0026813894510269165, -0.027385681867599487, 0.0037261289544403553, -0.014448955655097961, 0.1702035814523697, 0.08020597696304321, -0.0599745474755764, 0.23944540321826935, 0.30471426248550415, -0.15193794667720795, -0.3268125057220459, 0.38314738869667053, 0.18741780519485474, -0.11215360462665558, 0.15225285291671753, -0.08874182403087616, -0.12317497283220291, 0.10423304885625839, 0.5026264786720276, 0.1037619486451149, -0.06212202459573746], [0.23750489950180054, 0.28829845786094666, -0.21477875113487244, 0.04315707087516785, 0.2299792319536209, 0.013783406466245651, 0.10882916301488876, 0.2999333441257477, -0.15510421991348267, -0.6221831440925598, 0.0960732251405716, 0.13077431917190552, -0.144341841340065, -0.13822168111801147, -0.013823405839502811, -0.4825148284435272, -0.06133648008108139, -0.14602690935134888, 0.1886339634656906, -0.03408493101596832, 0.12358196079730988, -0.1827448457479477, 0.5551376938819885, 0.30356329679489136, -0.12307395040988922, -0.049463529139757156, 0.055972665548324585, -0.10802522301673889, -0.18288424611091614, 0.1383667290210724, 0.16695155203342438, -0.3120831847190857, 0.06539005041122437, -0.02604707144200802, 0.0423978790640831, 0.13960713148117065, -0.5229625105857849, -0.09266393631696701, -0.23528213798999786, 0.37015023827552795, 0.27196332812309265, 0.031584225594997406, -0.1862240582704544, 0.20728211104869843, 0.04627787694334984, 0.08375494182109833, -0.1685899794101715, -0.2510552406311035, -0.2008226215839386, 0.10740534216165543, -0.19287729263305664, 0.06271505355834961, 0.038103558123111725, -0.17989400029182434, 0.045338258147239685, -0.44993752241134644, -0.03878186643123627, -0.22330912947654724, 0.07115871459245682, 0.18298177421092987, -0.47106602787971497, -0.1593094766139984, -0.2001151144504547, -0.3938679099082947]], "mlp_extractor.policy_net.2.bias": 