{"log_std": [0.0, 0.0], "mlp_extractor.policy_net.0.weight": [[0.2936745285987854, 0.19159314036369324, -0.13929206132888794, -0.15339189767837524, -0.157595694065094, 0.07960967719554901, -0.08140508085489273, -0.21257337927818298], [-0.021889714524149895, 0.20071831345558167, -0.027145888656377792, 0.09821374714374542, -0.09048910439014435, -0.13787804543972015, 0.09262456744909286, -0.13119736313819885], [0.22762079536914825, 0.09674247354269028, -0.26501959562301636, 0.1226179376244545, -0.19096700847148895, 0.18467041850090027, -0.01398501731455326, 0.11321083456277847], [-0.011068155989050865, 0.24299122393131256, 0.0019318126142024994, -0.04683299735188484, -0.16117799282073975, 0.0029117087833583355, 0.13990257680416107, 0.05280284211039543], [0.2386012077331543, -0.02146824821829796, 0.020248282700777054, -0.12908440828323364, 0.12152551859617233, 0.01400699932128191, 0.07904636859893799, 0.33152538537979126], [-0.10859567672014236, -0.14489062130451202, -0.13319043815135956, 0.13386797904968262, -0.06991869956254959, 0.28111231327056885, 0.37299054861068726, 0.039580706506967545], [0.1135658472776413, -0.15171031653881073, 0.1437155157327652, 0.2951963245868683, -0.20722582936286926, 0.18038974702358246, 0.024531172588467598, 0.004046876914799213], [-0.1304941326379776, -0.0010705286404117942, 0.08175793290138245, -0.02058902196586132, -0.1401917040348053, -0.21310506761074066, 0.0375540629029274, -0.147100567817688], [0.1805800199508667, 0.21578507125377655, -0.06026303395628929, -0.25504550337791443, 0.08400498330593109, -0.09215915203094482, 0.18295824527740479, -0.15563325583934784], [-0.48954373598098755, 0.11453201621770859, 0.1538640707731247, -0.2753802537918091, -0.003408320713788271, 0.22702237963676453, -0.1431870311498642, -0.24745388329029083], [0.11005640029907227, 0.06012704223394394, -0.14091478288173676, -0.11396786570549011, -0.30670127272605896, 0.159592404961586, -0.07373765856027603, -0.2724246680736542], [0.2552577257156372, 0.188999742269516, -0.1015714555978775, -0.16072146594524384, -0.1431068629026413, -0.1813971847295761, 0.3659995198249817, 0.16112816333770752], [-0.014423690736293793, -0.17592599987983704, 0.14307555556297302, -0.27326303720474243, -0.034737907350063324, -0.042747728526592255, 0.28710147738456726, -0.11821404844522476], [0.037105053663253784, -0.19807715713977814, -0.04451575502753258, -0.24011629819869995, 0.28825533390045166, 0.1458810567855835, 0.13055993616580963, -0.11979440599679947], [-0.0549086295068264, -0.05930208042263985, -0.20900090038776398, 0.18251386284828186, -0.19487671554088593, -0.19885167479515076, 0.012035722844302654, -0.2034701406955719], [-0.02109927125275135, -0.07825874537229538, 0.01935061439871788, 0.0005774929886683822, 0.3690129220485687, -0.07206720858812332, -0.03561589494347572, -0.06206677481532097], [-0.26968154311180115, 0.278453528881073, -0.05549296364188194, -0.0153425931930542, 0.016575584188103676, -0.0068671321496367455, -0.16956175863742828, -0.046173956245183945], [-0.051992710679769516, -0.3456742763519287, -0.3003566563129425, -0.23156657814979553, -0.0633806437253952, -0.2419150322675705, 0.4195030927658081, -0.04296005517244339], [-0.13554900884628296, 0.2532597482204437, 0.3132152557373047, -0.056484609842300415, -0.09667391330003738, -0.1421947479248047, 0.02088816650211811, 0.03279377147555351], [-0.09374934434890747, 0.24550974369049072, 0.03185170143842697, 0.13643936812877655, 0.051892999559640884, -0.05291183292865753, 0.3218875825405121, -0.20780885219573975], [0.020485837012529373, 0.125719353556633, 0.1616770625114441, 0.15029749274253845, -0.08328307420015335, -0.29610612988471985, -0.12296624481678009, -0.14196906983852386], [0.165821835398674, -0.19414494931697845, -0.02942482754588127, -0.3074154853820801, -0.23409141600131989, 0.0734974667429924, -0.3293323814868927, -0.029406346380710602], [-0.04836224764585495, -0.10614172369241714, 0.2606300711631775, -0.0933770164847374, -0.13286830484867096, 0.20685473084449768, -0.00039385323179885745, -0.232856884598732], [-0.06920014321804047, -0.04495489224791527, 0.023017046973109245, 0.14374037086963654, -0.039902135729789734, -0.01765022613108158, -0.24718348681926727, 0.14582084119319916], [0.19041378796100616, -0.017330825328826904, 0.27106010913848877, 0.2853477895259857, -0.1701538860797882, 0.17445652186870575, -0.024109691381454468, -0.04489843174815178], [0.1277814656496048, 0.27441877126693726, 0.20455649495124817, -0.016344420611858368, 0.08178099244832993, 0.24025608599185944, 0.2740127444267273, -0.19859002530574799], [-0.22061850130558014, -0.3454693555831909, 0.17017397284507751, -0.04512433707714081, 0.13892732560634613, -0.13773110508918762, 0.020908735692501068, -0.1016603335738182], [0.27097010612487793, 0.08804046362638474, -0.3262781500816345, -0.061243269592523575, -0.06176931783556938, 0.05859886854887009, -0.10382431000471115, -0.5885222554206848], [-0.07479488849639893, 0.379728227853775, 0.036614954471588135, 0.2809862792491913, -0.07494247704744339, -0.09156814962625504, 0.09141258150339127, -0.03918134421110153], [0.14476275444030762, -0.07000565528869629, -0.2586268484592438, 0.009718358516693115, 0.1499745398759842, -0.021840134635567665, 0.0020511895418167114, 0.12406580150127411], [0.18634933233261108, 0.3461572229862213, 0.05546397715806961, 0.02404426597058773, 0.14757443964481354, -0.26475268602371216, 0.12284226715564728, -0.14889419078826904], [0.10256718844175339, 0.06225353851914406, -0.1470046490430832, 0.1067085713148117, 0.24988803267478943, 0.281301349401474, -0.018226083368062973, -0.057342205196619034], [-0.2822229862213135, -0.139945387840271, -0.30378323793411255, 0.07275158911943436, 0.07596009224653244, -0.18753843009471893, 0.16141930222511292, -0.15599815547466278], [-0.2043292075395584, 0.24580901861190796, -0.17604638636112213, -0.11558384448289871, -0.24190819263458252, 0.1033816859126091, 0.24773716926574707, -0.09818851202726364], [-0.009865272790193558, 0.08337768167257309, -0.15772143006324768, 0.18527278304100037, 0.01532538142055273, 0.32324060797691345, -0.08043058216571808, -0.17009584605693817], [-0.17155514657497406, 0.18331556022167206, -0.009386505000293255, -0.2881752550601959, 0.19932487607002258, -0.035388264805078506, -0.32740941643714905, 0.11969426274299622], [0.3193136751651764, 0.02323286049067974, 0.293186753988266, -0.014716316014528275, -0.06957850605249405, -0.14532922208309174, -0.08764972537755966, 0.05078400298953056], [0.020310169085860252, 0.12964420020580292, -0.1475256383419037, 0.054673533886671066, -0.1739259660243988, 0.19092026352882385, -0.07492503523826599, 0.07481934875249863], [0.2469732016324997, 0.025716913864016533, -0.20585285127162933, 0.002798474393785, 0.00798612181097269, -0.13343942165374756, 0.17981286346912384, -0.27629196643829346], [0.023496629670262337, 0.25423818826675415, -0.06965322047472, -0.10944913327693939, -0.06267555803060532, 0.26454776525497437, -0.11343496292829514, 0.2952292859554291], [-0.2305653989315033, 0.08507246524095535, -0.06989282369613647, 0.047021325677633286, 0.19436076283454895, 0.08036531507968903, 0.26710090041160583, -0.14458037912845612], [-0.04673492908477783, 0.20619940757751465, -0.09006869792938232, 0.07153112441301346, -0.1526433527469635, -0.006628386210650206, -0.036322884261608124, 0.22687682509422302], [-0.03349398821592331, 0.10877163708209991, -0.25968360900878906, -0.13930168747901917, -0.12016849964857101, 0.1837218552827835, -0.14816123247146606, -0.07763247936964035], [-0.2671944797039032, 0.28380322456359863, 0.23472407460212708, -0.25944578647613525, -0.15064747631549835, -0.35759150981903076, -0.1414208710193634, -0.021407105028629303], [-0.06288538128137589, 0.023365337401628494, -0.012388262897729874, 0.07095753401517868, -0.3733341097831726, -0.1506870687007904, 0.16675148904323578, 0.36417442560195923], [0.29405292868614197, 0.007425574120134115, 0.07589353621006012, -0.11132967472076416, 0.17246708273887634, -0.12349770218133926, 0.06060745567083359, 0.02922332100570202], [-0.15531142055988312, -0.03764217719435692, 0.21322932839393616, -0.2747395634651184, -0.05774865299463272, 0.06254450976848602, 0.008170249871909618, -0.23461754620075226], [-0.05981209874153137, 0.20893016457557678, -0.07283882796764374, 0.05657005310058594, 0.11438284814357758, 0.027300475165247917, -0.25339993834495544, 0.04420643299818039], [-0.21791425347328186, 0.00796281173825264, 0.004597279243171215, 0.2817070782184601, 0.13580358028411865, 0.19757167994976044, 0.0007443008362315595, 0.035677917301654816], [-0.007500993087887764, -0.10373906046152115, -0.3323177099227905, 0.105482317507267, 0.192901149392128, -0.08268795162439346, 0.10175320506095886, 0.12445609271526337], [0.04453519731760025, 0.1173761785030365, 0.2998690605163574, 0.23298747837543488, 0.005075310356914997, -0.21900856494903564, 0.08887500315904617, 0.09344064444303513], [-0.07106133550405502, 0.4068129360675812, -0.24421171844005585, -0.052548132836818695, 0.24834910035133362, 0.056130994111299515, -0.030578138306736946, 0.16457803547382355], [-0.0773601159453392, -0.1664673238992691, -0.2093057930469513, -0.1608131378889084, 0.09096212685108185, -0.1115640252828598, -0.45044493675231934, -0.12352985888719559], [0.05346130207180977, 0.13859322667121887, -0.06686298549175262, -0.024264363572001457, 0.2844271957874298, -0.11001990735530853, -0.08150359243154526, -0.10218099504709244], [-0.0659424439072609, -0.18196377158164978, 0.09350622445344925, 0.2374441772699356, 0.16003680229187012, -0.26565489172935486, -0.07005513459444046, -0.14566458761692047], [0.013068004511296749, 0.03668654337525368, 0.1610487699508667, -0.037291139364242554, -0.3099437355995178, 0.09487651288509369, 0.06532450765371323, -0.0638398751616478], [-0.1476805955171585, -0.08385098725557327, -0.15795956552028656, 0.38245680928230286, -0.21137098968029022, -0.26578640937805176, 0.023432021960616112, -0.22994230687618256], [-0.30971089005470276, -0.07941526919603348, -0.15137819945812225, 0.4155391752719879, -0.1231633871793747, 0.08483295142650604, -0.1407434046268463, 0.03242688253521919], [0.27967390418052673, -0.18672935664653778, -0.01238744705915451, -0.07715608179569244, -0.17771047353744507, -0.14014936983585358, -0.08582120388746262, 0.2799723744392395], [-0.0033547549974173307, 0.02463129535317421, -0.39478614926338196, 0.0008636164711788297, -0.3252217471599579, -0.3944615423679352, -0.2832438051700592, 0.019773272797465324], [0.07195081561803818, -0.022097831591963768, 0.0941147431731224, 0.23146027326583862, 0.035155512392520905, 0.08936627209186554, 0.019214674830436707, -0.10265368223190308], [0.41466638445854187, -0.04991611838340759, 0.22171705961227417, 0.2678349018096924, 0.043265145272016525, 0.005420449655503035, -0.2970481216907501, -0.4046974778175354], [-0.14782357215881348, -0.23045150935649872, 0.0821036845445633, -0.2142418920993805, -0.46253424882888794, 0.2266656905412674, 0.08721951395273209, -0.06042234227061272], [0.01718061789870262, -0.013165537267923355, 0.04010358825325966, 0.110655777156353, 0.06539367139339447, 0.2990131378173828, 0.08501137048006058, 0.10902556777000427]], "mlp_extractor.policy_net.0.bias": [0.0, 0.0, 0.0, 0.0, 0.0, 0.0, 0.0, 0.0, 0.0, 0.0, 0.0, 0.0, 0.0, 0.0, 0.0, 0.0, 0.0, 0.0, 0.0, 0.0, 0.0, 0.0, 0.0, 0.0, 0.0, 0.0, 0.0, 0.0, 0.0, 0.0, 0.0, 0.0, 0.0, 0.0, 0.0, 0.0, 0.0, 0.0, 0.0, 0.0, 0.0, 0.0, 0.0, 0.0, 0.0, 0.0, 0.0, 0.0, 0.0, 0.0, 0.0, 0.0, 0.0, 0.0, 0.0, 0.0, 0.0, 0.0, 0.0, 0.0, 0.0, 0.0, 0.0, 0.0], "mlp_extractor.policy_net.2.weight": [[-0.16059347987174988, -0.43184423446655273, 0.29627856612205505, 0.06402048468589783, -0.25078046321868896, -0.1060262992978096, 0.1967347264289856, -0.17440401017665863, 0.1142444759607315, 0.1523527055978775, -0.12037201970815659, -0.020139308646321297, -0.009157214313745499, 0.05983911082148552, 0.17402872443199158, 0.25522586703300476, -0.1825259029865265, 0.16573268175125122, 0.1639357954263687, 0.1465044468641281, 0.041514430195093155, -0.03139999508857727, -0.11769913882017136, -0.019362222403287888, 0.21870142221450806, 0.1850588172674179, -0.14568988978862762, -0.048676859587430954, -0.029683517292141914, 0.07276050746440887, 0.2519040107727051, -0.03092692233622074, 0.09494440257549286, -0.20052970945835114, 0.08682312071323395, 0.02425311878323555, 0.48053109645843506, -0.22060450911521912, 0.019649824127554893, -0.1935800313949585, -0.17610527575016022, -0.22708894312381744, -0.30919650197029114, 0.05359731242060661, -0.14036120474338531, 0.06770876049995422, -0.2880207598209381, 0.11826677620410919, 0.151296466588974, 0.1706283539533615, -0.11810463666915894, -0.13154181838035583, 0.21679088473320007, -0.16379864513874054, 0.06828621029853821, -0.15943661332130432, 0.09587428718805313, -0.13660816848278046, 0.2525582015514374, -0.2422158122062683, 0.09715055674314499, -0.24462229013442993, -0.06679950654506683, 0.10829408466815948], [-0.008371870964765549, 0.14097386598587036, 0.07358738034963608, 0.13500896096229553, -0.0873141884803772, -0.06093182414770126, 0.052233416587114334, 0.04410009831190109, -0.16757100820541382, -0.08186466246843338, -0.06085424870252609, 0.08523129671812057, -0.18067452311515808, -0.2616051137447357, -0.35129693150520325, 0.2146867960691452, 0.07544421404600143, 0.29948729276657104, 0.20787249505519867, -0.18375924229621887, 0.2457360327243805, -0.018985137343406677, -0.24048066139221191, -0.08734980970621109, -0.20398356020450592, 0.18390372395515442, -0.08752668648958206, 0.040162984281778336, 0.05805276706814766, -0.4714559316635132, -0.14701929688453674, 0.06062519922852516, 0.2863883674144745, 0.144731342792511, 0.14354903995990753, -0.16094718873500824, -0.07550175487995148, -0.2300839126110077, 0.17463363707065582, -0.04865867272019386, 0.3193514943122864, -0.17801184952259064, 0.3187539875507355, 0.10678550601005554, -0.06631588190793991, -0.329170823097229, -0.017675401642918587, 0.1968986988067627, -0.19371609389781952, 0.2612985372543335, 0.061927568167448044, -0.025115111842751503, 0.048302628099918365, -0.18812423944473267, -0.10182897746562958, 0.18034522235393524, 0.20699025690555573, -0.10186569392681122, -0.1822499930858612, -0.18430939316749573, 0.04345724359154701, -0.09190203249454498, -0.14931805431842804, 0.08032704144716263], [0.08401529490947723, 0.13452088832855225, 0.0005417186766862869, 0.025028260424733162, -0.025757284834980965, 0.2546379268169403, 0.0682942271232605, 0.13908886909484863, 0.07928777486085892, -0.15862815082073212, -0.11821109801530838, 0.056071069091558456, 0.21264180541038513, -0.02772623859345913, -0.08799571543931961, 0.23173482716083527, 0.28296011686325073, 0.05437114089727402, -0.008336410857737064, 0.06436426937580109, 0.05177687481045723, -0.15655724704265594, -0.27088627219200134, -0.16366800665855408, 0.2611871063709259, 0.2964813709259033, -0.13668927550315857, 0.08204017579555511, 0.21264894306659698, -0.20231768488883972, -0.08506964892148972, -0.09753095358610153, 0.07617809623479843, 0.06077507138252258, 0.2468695342540741, 0.2199469953775406, -0.3414568603038788, 0.2319120168685913, -0.07679913938045502, -0.14802789688110352, 0.060330864042043686, 0.14873242378234863, -0.05406554415822029, 0.12252795696258545, -0.1661023050546646, 0.5260735154151917, -0.060303639620542526, -0.1907980889081955, 0.31182053685188293, -0.29609358310699463, -0.018877975642681122, -0.15397264063358307, 0.06663433462381363, -0.34214943647384644, -0.02137504704296589, -0.13942912220954895, -0.10522251576185226, 0.14499594271183014, -0.0066531263291835785, -0.10704023391008377, 0.32571500539779663, 0.12687861919403076, 0.09101033210754395, 0.012404867447912693], [-0.19716353714466095, 0.009557266719639301, 0.065148264169693, -0.04882353916764259, -0.15322034060955048, 0.1563941389322281, 0.2046956866979599, 0.08523128926753998, -0.28834646940231323, 0.34188205003738403, -0.02471228316426277, 0.011341092176735401, -0.15707440674304962, -0.4437822103500366, 0.2138766050338745, 0.21272540092468262, 0.12056062370538712, 0.19184452295303345, 0.09421984851360321, 0.16280120611190796, -0.22667928040027618, 0.0843203142285347, -0.18637317419052124, 0.19758787751197815, -0.07613304257392883, 0.01931934244930744, -0.23591049015522003, -0.1298617273569107, 0.1482607126235962, -0.08504998683929443, -0.02127125672996044, 0.3174684941768646, -0.08725325018167496, -0.13900819420814514, -0.11089307814836502, 0.1866087019443512, 0.01829146035015583, 0.18777044117450714, -0.33273983001708984, 0.04330039396882057, -0.18174700438976288, 0.22139692306518555, 0.16533157229423523, -0.009876752272248268, 0.2805236577987671, 0.11629072576761246, 0.15912459790706635, -0.2267809361219406, -0.16967570781707764, -0.014415537938475609, 0.10917546600103378, -0.1781369000673294, 0.02965887077152729, 0.2447279840707779, -0.1001909077167511, -0.16635490953922272, 0.3233974874019623, -0.07490839064121246, -0.14971216022968292, -0.0939914882183075, -0.22502583265304565, -0.07603413611650467, 0.20554408431053162, -0.06218765676021576], [0.2453324794769287, -0.10811338573694229, -0.3331817388534546, -0.015296276658773422, -0.15648186206817627, -0.021828006953001022, 0.07510946691036224, -0.06670250743627548, -0.33693891763687134, -0.040468137711286545, 0.1359902322292328, -0.018719790503382683, 0.021361395716667175, -0.007761719170957804, 0.3193494975566864, 0.251341849565506, -0.33190640807151794, -0.2012305110692978, -0.05414919927716255, 0.09969712793827057, 0.23753979802131653, 0.20115219056606293, 0.04620273411273956, 0.35018643736839294, -0.23549753427505493, -0.30215588212013245, 0.07257137447595596, 0.05986291170120239, 0.04464435577392578, -0.0429169200360775, 0.06847815215587616, -0.12593650817871094, -0.07241721451282501, -9.61158875725232e-05, 0.17917290329933167, 0.1189919114112854, 0.08165357261896133, -0.021992778405547142, 0.35754120349884033, -0.3133849799633026, -0.0027217117603868246, 0.08795905113220215, 0.12024714797735214, 0.18037375807762146, 0.09209998697042465, 0.09808909893035889, 0.09153037518262863, -0.051274094730615616, -0.30481210350990295, -0.2676401436328888, -0.11487260460853577, -0.010994805954396725, 0.08908387273550034, -0.3696993291378021, 0.04302855581045151, -0.12869659066200256, -0.16879932582378387, 0.17084810137748718, -0.2669776976108551, -0.24373847246170044, 0.011740961112082005, -0.04977770149707794, -0.06122266501188278, 0.11314362287521362], [-0.08204621821641922, 0.08337432891130447, -0.008155153132975101, -0.14132432639598846, 0.14838068187236786, -0.08175195008516312, 0.08557577431201935, 0.15072762966156006, -0.024817902594804764, -0.16638562083244324, 0.03791195899248123, 0.20609095692634583, -0.029522165656089783, 0.2773502469062805, 0.13816498219966888, -0.033336471766233444, 0.23190106451511383, 0.061993565410375595, -0.2106797844171524, -0.28323936462402344, 0.09907602518796921, -0.06261739134788513, 0.18629615008831024, -0.17806918919086456, 0.009385635145008564, 0.02762899175286293, 0.250956267118454, -0.01705455593764782, -0.31380003690719604, 0.12610621750354767, -0.015584546141326427, -0.028045307844877243, 0.10227777808904648, -0.03938174247741699, 0.3359556496143341, 0.07501522451639175, 0.10931199043989182, -0.017767254263162613, -0.16989444196224213, 0.2596514821052551, 0.003479275619611144, -0.01926221139729023, -0.20430143177509308, 0.21467210352420807, 0.2238808572292328, 0.005668243393301964, 0.22228631377220154, -0.09945689886808395, -0.048993803560733795, -0.15013328194618225, -0.14878831803798676, -0.5094934701919556, 0.32511502504348755, -0.14721740782260895, 0.0936615914106369, 0.15400713682174683, 0.3463999330997467, -0.22127176821231842, -0.2894643545150757, -0.05205710977315903, -0.17585048079490662, -0.20857195556163788, 0.05737747997045517, 0.2429163008928299], [0.022195681929588318, -0.12778952717781067, 0.0019936615135520697, 0.2328852266073227, 0.01215557474642992, 0.06591882556676865, 0.3935260474681854, -0.36107137799263, -0.08505337685346603, 0.03617352619767189, -0.32932591438293457, 0.21470625698566437, -0.08595997095108032, 0.255068302154541, -0.0008027874864637852, 0.02287350594997406, 0.1097717210650444, -0.11082685738801956, 0.03991468995809555, 0.2232581526041031, 0.2767799198627472, -0.3861309885978699, 0.09499777108430862, 0.08098597079515457, -0.12904319167137146, 0.1233096718788147, -0.032890308648347855, -0.07284749299287796, -0.210871160030365, -0.05745924636721611, -0.030800316482782364, 0.1477612853050232, 0.10957623273134232, 0.12736263871192932, 0.0009928391082212329, 0.030307123437523842, -0.154900923371315, 0.4929780960083008, 0.15417921543121338, -0.19418959319591522, -0.16533078253269196, -0.17291009426116943, -0.025120269507169724, 0.0038952373433858156, 0.13299573957920074, -0.12736257910728455, 0.3632521331310272, -0.22432205080986023, 0.04600096493959427, 0.17145347595214844, 0.0009371523046866059, 0.10383221507072449, -0.11238934099674225, -0.023098532110452652, 0.022372335195541382, 0.2624392509460449, -0.006403369829058647, 0.25601130723953247, 0.23604647815227509, 0.18062570691108704, -0.128597691655159, -0.21931304037570953, 0.03367946296930313, 0.03233114629983902], [-0.32774806022644043, 0.0041061462834477425, 0.09160631150007248, -0.050695765763521194, 0.02607712335884571, -0.3760594129562378, 0.025817694142460823, 0.004595334175974131, 0.17621566355228424, -0.058494217693805695, -0.048918720334768295, 0.07459026575088501, -0.3108825385570526, 0.1592044085264206, -0.37553510069847107, -0.048312872648239136, -0.18839064240455627, 0.11941706389188766, -0.3240988850593567, 0.12003318220376968, -0.20712202787399292, 0.11152099817991257, 0.20196327567100525, 0.3510022759437561, -0.029376216232776642, 0.06476309150457382, 0.015241846442222595, 0.0529882088303566, 0.08513249456882477, -0.49791523814201355, 0.23143847286701202, -0.00817024428397417, -0.09714962542057037, -0.14258651435375214, -0.1176019161939621, -0.17315298318862915, 0.023900076746940613, 0.15833333134651184, 0.21304957568645477, 0.021150507032871246, -0.029631465673446655, 0.1499040275812149, 0.039924658834934235, 0.10149068385362625, -0.2789776027202606, 0.24279595911502838, 0.07724202424287796, 0.013687235303223133, -0.07437930256128311, -0.20957103371620178, 0.15361295640468597, -0.09641559422016144, 0.16482794284820557, -0.1140427440404892, -0.2392299324274063, -0.015726592391729355, 0.0019847319927066565, -0.04299857094883919, 0.08406436443328857, 0.26623260974884033, -0.06233232095837593, -0.022755837067961693, 0.27052628993988037, 0.25492608547210693], [0.15571297705173492, 0.1787962168455124, 0.13507069647312164, -0.13985297083854675, -0.1060398668050766, -0.09677943587303162, 0.17002663016319275, 0.04641794040799141, -0.4004042446613312, -0.17543955147266388, -0.019204381853342056, -0.027959641069173813, 0.07905180752277374, -0.07187670469284058, 0.12455707788467407, -0.18061073124408722, -0.07225801050662994, 0.25072818994522095, -0.22023099660873413, 0.23605793714523315, 0.5273403525352478, 0.12423234432935715, 0.2776428759098053, -0.0914422944188118, -0.0584651343524456, -0.09875885397195816, -0.1391051709651947, 0.08914036303758621, -0.13728895783424377, -0.10222072899341583, -0.0575207844376564, 0.0805719643831253, 0.28343355655670166, 0.03368763253092766, -0.10604918003082275, 0.40611594915390015, -0.053713608533144, 0.012784518301486969, -0.12909714877605438, 0.21201634407043457, -0.18148423731327057, -0.08989876508712769, -0.10874907672405243, -0.27186793088912964, -0.23078078031539917, 0.10702504217624664, -0.19927293062210083, 0.17003408074378967, 0.1352076232433319, -0.09388396143913269, 0.1708102822303772, 0.2274012714624405, 0.33710622787475586, 0.18244236707687378, -0.2975732386112213, -0.05878065899014473, -0.05061435326933861, -0.047729797661304474, -0.02926626056432724, 0.10567816346883774, -0.024453405290842056, -0.009343713521957397, -0.1574334353208542, 0.0027342175599187613], [-0.13977009057998657, -0.28600701689720154, -0.04263443872332573, -0.34636548161506653, -0.013733120635151863, 0.04828065633773804, -0.05327766761183739, -0.1752581000328064, 0.15008759498596191, 0.017673509195446968, -0.027755074203014374, -0.27588552236557007, 0.16317281126976013, -0.07030878961086273, -0.20186027884483337, 0.15382495522499084, 0.06900131702423096, 0.005506754387170076, -0.07518130540847778, -0.03281413018703461, 0.09987059980630875, -0.27782800793647766, 0.051249027252197266, -0.011902553960680962, -0.032122205942869186, -0.020389605313539505, 0.08619537204504013, 0.40598055720329285, 0.18922126293182373, 0.02372509241104126, -0.1523967683315277, -0.34411582350730896, 0.2031824290752411, -0.028111526742577553, -0.20670180022716522, 0.17851772904396057, -0.08242509514093399, 0.05589354783296585, -0.15432734787464142, 0.2890632450580597, -0.06369441002607346, 0.11566471308469772, 0.12153448909521103, 0.027672624215483665, 0.036044567823410034, -0.07086216658353806, -0.2682633101940155, -0.15046745538711548, -0.5711563229560852, 0.05838339403271675, -0.16976183652877808, -0.014261317439377308, 0.09740861505270004, -0.15706245601177216, 0.07588961720466614, -0.15100301802158356, 0.22171784937381744, 0.3221941888332367, 0.20463794469833374, 0.21490994095802307, -0.10556646436452866, -0.178854301571846, -0.13621723651885986, -0.001087835873477161], [0.09671667963266373, -0.4016314446926117, -0.02672404982149601, 0.19281171262264252, 0.24379609525203705, 0.04690887778997421, 0.05729744955897331, 0.0685424730181694, 0.30230724811553955, 0.03847970813512802, -0.40963736176490784, 0.09576674550771713, -0.021890442818403244, 0.004053631331771612, -0.04353444650769234, 0.05763183534145355, -0.017201393842697144, -0.2384214699268341, -0.23338156938552856, -0.004520644433796406, 0.04647262021899223, 0.31018152832984924, -0.08066604286432266, -0.024917498230934143, -0.21389441192150116, -0.10858061909675598, -0.28849759697914124, -0.42390719056129456, -0.1822749376296997, -0.12356550991535187, 0.054186586290597916, 0.22150777280330658, 0.1844092607498169, -0.10771037638187408, 0.0665430948138237, -0.09331893920898438, -0.16457168757915497, -0.017453555017709732, -0.18296067416667938, -0.05496111884713173, 0.1910337209701538, 0.2326800376176834, -0.055364299565553665, -0.19122269749641418, 0.08096572011709213, 0.0807831883430481, -0.24486306309700012, 0.11616967618465424, -0.18026642501354218, -0.09278698265552521, -0.354805052280426, -0.01281365193426609, 0.1691514253616333, -0.011621160432696342, -0.004517904948443174, 0.006578509230166674, 0.09415440261363983, 0.011040905490517616, -0.2014651596546173, 0.28724730014801025, 0.10303287953138351, 0.08103416115045547, -0.27700161933898926, -0.21630331873893738], [0.006747259292751551, 0.09944049268960953, -0.08540858328342438, -4.97774854011368e-05, -0.2969863712787628, 0.29847201704978943, 0.016957702115178108, -0.29088109731674194, -0.11041568219661713, -0.15000545978546143, 0.34751832485198975, 0.37420931458473206, -0.21156096458435059, 0.08232901245355606, 0.055359017103910446, 0.07232599705457687, -0.0915861502289772, 0.024505794048309326, -0.03660515323281288, 0.2529349625110626, -0.06926999986171722, 0.04470744729042053, 0.20580624043941498, -0.3009384274482727, 0.016029957681894302, 0.03834598511457443, -0.2735636830329895, -0.03798907995223999, -0.09113252907991409, -0.07658389210700989, -0.09090208262205124, 0.0018471406074240804, 0.0532207228243351, -0.3726203143596649, 0.08223249018192291, 0.08375633507966995, 0.05080479010939598, -0.21292433142662048, 0.022399134933948517, 0.15831196308135986, 0.19445307552814484, 0.03754477947950363, -0.08289151638746262, 0.10150019824504852, 0.10295755416154861, 0.019403092563152313, -0.25283610820770264, -0.04349159821867943, -0.08067576587200165, -0.10450775921344757, -0.0762002170085907, 0.024050697684288025, -0.5235180258750916, -0.29936885833740234, -0.035903144627809525, 0.13654080033302307, 0.161097913980484, -0.09820195287466049, 0.1863911896944046, 0.29727378487586975, -0.17931310832500458, 0.2737022340297699, 0.11405336111783981, -0.049405861645936966], [-0.09713304042816162, 0.19165438413619995, 0.17633652687072754, -0.08415932208299637, 0.3352935314178467, 0.08943493664264679, -0.2984260320663452, -0.1022588238120079, -0.0956612080335617, -0.3786868155002594, -0.2778673470020294, -0.025097573176026344, -0.04309676215052605, 0.05522986128926277, -0.2887255847454071, -0.12674348056316376, 0.23179224133491516, -0.20387707650661469, 0.25146785378456116, 0.4681585431098938, 0.044522982090711594, 0.10779670625925064, -0.02765539102256298, 0.21186678111553192, 0.1614764779806137, -0.03453269228339195, 0.04327278956770897, -0.037496306002140045, 0.08969473838806152, -0.03212475776672363, 0.27090534567832947, -0.14883437752723694, 0.1603468954563141, -0.16474997997283936, -0.17923960089683533, 0.27477771043777466, 0.2646576762199402, -0.12110986560583115, -0.019302939996123314, -0.2552882134914398, 0.0006935467827133834, -0.1795901209115982, 0.03608439117670059, -0.055386826395988464, 0.11369922757148743, -0.03605710715055466, -0.058034706860780716, -0.1077520102262497, 0.004328000359237194, -0.228170245885849, 0.022069554775953293, 0.14220215380191803, -0.11388134956359863, 0.022715354338288307, 0.2811052203178406, 0.09870856255292892, 0.3013898730278015, -0.007534811273217201, -0.34598350524902344, -0.10488200187683105, -0.05556326359510422, -0.08677548915147781, 0.02795080468058586, -0.06533937901258469], [-0.2897058129310608, -0.10439179837703705, -0.1541101187467575, -0.09529314935207367, 0.22396008670330048, -0.14426888525485992, -0.03323931619524956, 0.06017068773508072, 0.10318924486637115, -0.006172084715217352, 0.023115888237953186, 0.45413583517074585, -0.09403681755065918, -0.07990198582410812, 0.22934816777706146, -0.08021268993616104, 0.14973674714565277, 0.0865381583571434, 0.0940973088145256, 0.07244639098644257, 0.2257784903049469, -0.23787997663021088, 0.06488993018865585, 0.007449002470821142, 0.34078043699264526, -0.24087467789649963, 0.011595135554671288, 0.21033383905887604, 0.037649836391210556, -0.20546633005142212, 0.27108412981033325, 0.1764010190963745, -0.15844866633415222, 0.1788049042224884, 0.06861767172813416, -0.0491408109664917, 0.04883190244436264, 0.008312058635056019, 0.19504913687705994, 0.13501547276973724, -0.21306803822517395, -0.1384003609418869, 0.3393903076648712, -0.1174602285027504, 0.2807345390319824, 0.2798677086830139, -0.24813449382781982, 0.09301326423883438, -0.003841980127617717, 0.31764575839042664, -0.15343910455703735, -0.11959517002105713, 0.007959689944982529, 0.018657995387911797, 0.02145964652299881, -0.02510652132332325, -0.0573798343539238, 0.13608284294605255, -0.1059739887714386, -0.05900735780596733, -0.025729015469551086, 0.4769901931285858, -0.17924489080905914, -0.03738768398761749], [0.02290322631597519, -0.10938535630702972, 0.2727363109588623, 0.207929328083992, -0.14714781939983368, 0.033616676926612854, 0.047561243176460266, -0.18025368452072144, -0.15748098492622375, 0.013574975542724133, -0.029880963265895844, 0.16496539115905762, -0.17499172687530518, 0.09471306949853897, 0.024684587493538857, -0.3687381446361542, 0.11135327816009521, 0.10826317965984344, 0.1259474754333496, 0.18856042623519897, -0.16810566186904907, 0.01601344533264637, 0.15597905218601227, -0.04649095982313156, -0.12989592552185059, -0.007815551944077015, 0.09365363419055939, -0.18916326761245728, 0.3593657612800598, 0.010924935340881348, 0.02010897733271122, -0.16607844829559326, -0.23661507666110992, 0.3181155323982239, -0.22979658842086792, -0.006756795570254326, 0.09962933510541916, -0.04592980816960335, -0.23476552963256836, 0.3115808665752411, 0.1823066771030426, -0.10596805065870285, -0.05921187624335289, 0.035994112491607666, 0.12701831758022308, 0.06658709049224854, 0.0002288586983922869, -0.12084489315748215, -0.27492737770080566, -0.1933649331331253, -0.13382694125175476, -0.22666703164577484, 0.10499795526266098, -0.12956522405147552, -0.2957504093647003, 0.2791680693626404, -0.27523431181907654, 0.11077611148357391, -0.0018554599955677986, -0.23894892632961273, 0.4351329803466797, -0.08720570802688599, -0.19715701043605804, -0.13669289648532867], [-0.053292445838451385, -0.025651467964053154, 0.04140857607126236, -0.2568233907222748, 0.06420649588108063, 0.40986743569374084, -0.2525309920310974, 0.09699301421642303, -0.08746568113565445, 0.29402288794517517, -0.10080409795045853, 0.009601873345673084, -0.15501344203948975, 0.17941196262836456, 0.1629468947649002, -0.08794642984867096, 0.0006762277334928513, 0.009717972949147224, -0.3306668996810913, -0.07976146042346954, 0.09266918897628784, -0.07752644270658493, 0.21942995488643646, -0.0958159938454628, -0.3531762659549713, -0.04536784067749977, -0.12396038323640823, 0.19998417794704437, 0.08984354138374329, -0.28277868032455444, -0.055508580058813095, 0.024081235751509666, -0.12493481487035751, -0.11125455051660538, 0.001472080242820084, 0.007108200807124376, 0.24743226170539856, 0.07231644541025162, 0.09172061085700989, -0.01183716207742691, 0.12699301540851593, 0.08158738166093826, 0.11086199432611465, 0.1274341344833374, -0.16485364735126495, -0.024665899574756622, -0.022146230563521385, -0.01582759991288185, 0.32287850975990295, 0.14946037530899048, -0.39937958121299744, 0.21758845448493958, -0.033321283757686615, 0.26043474674224854, 0.11442584544420242, 0.09291374683380127, 0.2771645784378052, 0.15691342949867249, -0.0002750075364019722, -0.25733286142349243, 0.4338151514530182, -0.12473221868276596, 0.21354959905147552, 0.05568337067961693], [-0.04473043978214264, -0.03327922523021698, -0.05231571942567825, -0.16622576117515564, -0.16624762117862701, 0.14544017612934113, -0.011037844233214855, 0.03973986580967903, -0.20868360996246338, -0.3067915737628937, -0.39517128467559814, -0.0019614300690591335, -0.12156343460083008, 0.16210047900676727, 0.02486644871532917, 0.2596123516559601, -0.43921005725860596, 0.14997515082359314, -0.01826230250298977, -0.2708033621311188, 0.026303518563508987, -0.03815838694572449, 0.11453669518232346, 0.01793602667748928, 0.07910110801458359, 0.003305881517007947, 0.2955179214477539, 0.008470747619867325, 0.3079872131347656, -0.1170017272233963, -0.02017139457166195, -0.129808247089386, -0.26000359654426575, -0.06952472031116486, 0.003437655046582222, -0.12285536527633667, -0.1080322414636612, -0.1992036998271942, -0.2682838439941406, -0.16761747002601624, -0.08105864375829697, -0.1605341136455536, -0.13891838490962982, -0.34057852625846863, -0.07847185432910919, 0.12978678941726685, 0.35912612080574036, -0.20525068044662476, 0.11485165357589722, 0.200719952583313, -0.06379730254411697, -0.06310729682445526, -0.16218999028205872, -0.007982239127159119, -0.09152796864509583, -0.06697250157594681, 0.2153165340423584, -0.07849616557359695, -0.10152745991945267, 0.2116348147392273, -0.023985017091035843, 0.13369669020175934, -0.3031311333179474, -0.2637704014778137], [-0.2715785503387451, -0.11693091690540314, -0.21628780663013458, -0.017269115895032883, 0.03206803277134895, 0.28808456659317017, -0.11179446429014206, -0.307323694229126, 0.01625390537083149, 0.005997511092573404, 0.03943885862827301, -0.11008652299642563, -0.11576566100120544, -0.17345993220806122, -0.0889216959476471, -0.08358246088027954, -0.25162383913993835, 0.25315290689468384, -0.021764442324638367, -0.2563185691833496, -0.14271268248558044, 0.2034371793270111, 0.10574886202812195, -0.25689008831977844, 0.16984330117702484, -0.05172702297568321, -0.013798901811242104, 0.012582630850374699, 0.09442666172981262, -0.04375571757555008, 0.31899359822273254, 0.22821198403835297, -0.004557333420962095, -0.12612225115299225, 0.1452915370464325, 0.1752227544784546, -0.2442409247159958, 0.1940661370754242, -0.15649163722991943, -0.01596960611641407, 0.08326022326946259, -0.31408169865608215, -0.08867157995700836, 0.1285269409418106, 0.40733394026756287, -0.0846913605928421, 0.07268615067005157, 0.16169863939285278, 0.03578115999698639, -0.11595547944307327, 0.28536972403526306, 0.3012773096561432, 0.2286802977323532, -0.067726731300354, 0.2397819310426712, 0.010620268061757088, -0.16746015846729279, 0.16558340191841125, -0.09483485668897629, 0.11743184179067612, 0.23019836843013763, -0.14626441895961761, -0.09814818948507309, 0.29181984066963196], [-0.14641664922237396, -0.14000999927520752, 0.4503248333930969, 0.05089513584971428, 0.14054735004901886, -0.12710750102996826, 0.007065501529723406, -0.01856551319360733, -0.20852968096733093, -0.017547810450196266, -0.2129131704568863, -0.25174251198768616, -0.10137077420949936, 0.033722251653671265, -0.11768278479576111, 0.29146745800971985, -0.013762284070253372, -0.10009343922138214, -0.058785922825336456, -0.2046293318271637, 0.0010623692069202662, 0.04622669517993927, -0.02755572460591793, -0.07637932896614075, -0.03276063874363899, -0.25154852867126465, -0.1564370095729828, 0.14643962681293488, -0.09661724418401718, 0.09084472060203552, -0.004159082658588886, -0.11389333009719849, -0.10282019525766373, 0.30937662720680237, 0.4275323450565338, 0.27317702770233154, 0.016961293295025826, -0.09490810334682465, 0.18540942668914795, -0.0014145219465717673, 0.351732462644577, -0.14953972399234772, -0.18675735592842102, -0.037352144718170166, 0.23775732517242432, 0.20537929236888885, -0.07617269456386566, -0.2504149377346039, -0.22486217319965363, -0.037659693509340286, 0.061417557299137115, 0.1321723461151123, -0.08640680462121964, 0.3402438759803772, -0.14153462648391724, 0.06991012394428253, -0.0714275911450386, -0.08318118005990982, 0.2106015980243683, -0.016574639827013016, -0.04926474019885063, 0.3240702152252197, 0.3138352036476135, 0.0924198254942894], [-0.30661365389823914, 0.05535360425710678, 0.06789427250623703, -0.10173167288303375, -0.47469058632850647, -0.09987703710794449, 0.17661385238170624, 0.050662923604249954, -0.14862166345119476, -0.02615913562476635, 0.025719795376062393, -0.07713288068771362, 0.02149129845201969, 0.04200296476483345, -0.0054419878870248795, -0.09486879408359528, 0.36484554409980774, -0.13072402775287628, -0.3175652027130127, -0.4830114245414734, 0.188786581158638, 0.0424172468483448, -0.31292617321014404, 0.06610377877950668, 0.1786600649356842, -0.025209173560142517, 0.07357700914144516, -0.23907792568206787, -0.03803171589970589, -0.11321357637643814, 0.1886393427848816, -0.024453554302453995, 0.28635305166244507, -0.2816632390022278, -0.22615019977092743, 0.010121454484760761, 0.10394561290740967, -0.15006864070892334, -0.003921774681657553, -0.09903386980295181, -0.14194238185882568, -0.12581349909305573, 0.10483458638191223, 0.20989936590194702, 0.038150060921907425, -0.03310437127947807, 0.04106181859970093, -0.13130471110343933, -0.031448934227228165, -0.1784312129020691, -0.25279369950294495, 0.043505579233169556, -0.28302353620529175, 0.24847805500030518, -0.041165173053741455, 0.07764358818531036, -0.3639427423477173, 0.17514364421367645, -0.038117557764053345, 0.08872939646244049, 0.07281186431646347, 0.06823732703924179, -0.09856542944908142, 0.007493330165743828], [0.2451646476984024, 0.09218978136777878, -0.10716813802719116, 0.2326086014509201, 0.013604594394564629, -0.07946014404296875, 0.31940606236457825, -0.191481351852417, -0.13100653886795044, -0.012621728703379631, 0.18116869032382965, -0.2671118378639221, 0.18540917336940765, -0.16022925078868866, -0.3186700940132141, -0.18917308747768402, 0.04627573862671852, 0.0765763521194458, -0.37170130014419556, 0.08746390789747238, -0.18551643192768097, 0.24143268167972565, 0.15088947117328644, 0.026863636448979378, 0.010537047870457172, 0.1367332637310028, -0.26057395339012146, 0.3619748651981354, -0.16482141613960266, 0.04765084758400917, 0.17710010707378387, 0.0016003487398847938, -0.0789775401353836, 0.07442247867584229, 0.033180512487888336, -0.3661496043205261, -0.010718196630477905, -0.16340704262256622, -0.15219949185848236, -0.11948312819004059, 0.02224985882639885, -0.3614600598812103, 0.06953611224889755, -0.10907544195652008, 0.10161356627941132, 0.15503349900245667, 0.0017411811277270317, -0.17857658863067627, 0.1571301370859146, 0.03550310805439949, -0.2631494402885437, -0.22740326821804047, -0.02705637365579605, 0.06917140632867813, 0.059638142585754395, -0.08086670935153961, 0.2604263722896576, 0.3808388411998749, -0.022152235731482506, -0.16374948620796204, -0.1271963119506836, 0.07330746948719025, -0.060055650770664215, 0.003075413405895233], [-0.412880539894104, 0.15977202355861664, 0.0494193509221077, 0.11228455603122711, -0.16298016905784607, -0.06850402057170868, -0.3600431978702545, 0.214914008975029, -0.12204344570636749, 0.07048717141151428, -0.005235694814473391, 0.15897661447525024, 0.16100694239139557, 0.28733861446380615, -0.1105867326259613, 0.12963822484016418, -0.03029356338083744, -0.10818028450012207, -0.2228875756263733, 0.04039738327264786, 0.020400717854499817, -0.04714013263583183, 0.03755086660385132, 0.2898750305175781, -0.1952676922082901, 0.046362802386283875, -0.4164484441280365, 0.0019585429690778255, -0.11979116499423981, 0.17396411299705505, -0.041471928358078, -0.0003151372366119176, -0.10460448265075684, 0.275544136762619, -0.00248355558142066, 0.23827151954174042, -0.0961533933877945, -0.12515117228031158, -0.4024620056152344, -0.034561846405267715, 0.027587540447711945, -0.1523699015378952, 0.30060628056526184, -0.1383604258298874, 0.109171062707901, 0.10246121883392334, 0.15929633378982544, 0.3850138187408447, 0.031179115176200867, 0.043254304677248, -0.033146120607852936, -0.07294560223817825, -0.15414078533649445, -0.2811409533023834, 0.2270706295967102, -0.12077289074659348, -0.14798077940940857, -0.08017700165510178, 0.2370986044406891, -0.01112249493598938, -0.04187539964914322, -0.20486493408679962, -0.1147322878241539, 0.07835092395544052], [-0.016117874532938004, -0.04713184013962746, 0.2852632701396942, 0.014229338616132736, 0.09987026453018188, 0.2611948549747467, 0.03595138341188431, -0.0579436831176281, 0.1593298465013504, 0.11711470782756805, 0.18548423051834106, -0.14675693213939667, 0.042675524950027466, 0.06846366077661514, 0.15112464129924774, -0.03641447052359581, 0.05607936158776283, -0.1805656999349594, 0.16348670423030853, -0.04678532853722572, -0.10124833881855011, 0.242111936211586, -0.047347668558359146, -0.1343187838792801, 0.22205564379692078, 0.11588004231452942, -0.10365895181894302, 0.028277643024921417, -0.1636786162853241, -0.1823733150959015, 0.1112007349729538, -0.16175979375839233, 0.002737216418609023, 0.05800161138176918, 0.32127708196640015, 0.12000623345375061, 0.26937180757522583, -0.07321227341890335, -0.0022477598395198584, 0.27127307653427124, -0.13909244537353516, -0.10268834978342056, 0.32118770480155945, -0.18376345932483673, -0.23245957493782043, 0.028953980654478073, 0.513826847076416, 0.09083002060651779, -0.08897526562213898, 0.13304665684700012, -0.1344805359840393, 0.2677670419216156, 0.0630444884300232, -0.2811676263809204, -0.33688482642173767, -0.08231793344020844, -0.10282126069068909, 0.219267800450325, -0.28300949931144714, 0.23106354475021362, -0.13169296085834503, -0.12547314167022705, 0.16296228766441345, -0.20914842188358307], [-0.3184279799461365, 0.09214246273040771, 0.053047891706228256, -0.24318927526474, 0.05877528712153435, -0.013251490890979767, 0.16113899648189545, -0.14801530539989471, 0.11896190047264099, -0.07476817816495895, 0.0966799408197403, -0.24362504482269287, 0.13047994673252106, -0.11774981766939163, 0.3774607181549072, -0.14667151868343353, 0.08168674260377884, -0.1682223081588745, -0.1022113710641861, 0.2214106321334839, 0.33293941617012024, 0.10247604548931122, -0.03180889040231705, 0.03286968544125557, -0.2092113494873047, 0.2607634663581848, 0.1008606106042862, 0.08362840116024017, 0.12890321016311646, -0.298811674118042, 0.05855255946516991, 0.09772349148988724, -0.1929987221956253, 0.20078913867473602, 0.07461082935333252, -0.25185903906822205, -0.16206534206867218, -0.05376672372221947, -0.040967535227537155, -0.042779482901096344, 0.2268979549407959, -0.23942451179027557, -0.09607986360788345, 0.10181558132171631, 0.1444869190454483, -0.1797778159379959, -0.12312131375074387, -0.14097465574741364, 0.031969331204891205, -0.046131767332553864, -0.035953644663095474, -0.05268239974975586, 0.04483781382441521, -0.09411896020174026, 0.20349650084972382, -0.2363920658826828, -0.177328422665596, -0.4274559020996094, 0.03987865149974823, 0.21329352259635925, -0.00501285120844841, -0.12717503309249878, 0.2330116480588913, -0.42970845103263855], [-0.04650714620947838, -0.2054520547389984, 0.21699601411819458, 0.36141955852508545, 0.10421917587518692, -0.4657929837703705, -0.34594228863716125, -0.15708856284618378, -0.1638869047164917, 0.21085526049137115, 0.09270375967025757, -0.20262980461120605, -0.2630036771297455, -0.20635366439819336, 0.3717459440231323, -0.07769627869129181, 0.1066417470574379, 0.04206250607967377, 0.0875890702009201, -0.036013342440128326, 0.1995294988155365, 0.11741407960653305, -0.05566207692027092, -0.0686766654253006, 0.012286038137972355, -0.007010453846305609, 0.09786711633205414, 0.27725672721862793, 0.07026856392621994, 0.03884819149971008, -0.03031165525317192, -0.11526136845350266, -0.007532674353569746, -0.1474047750234604, -0.055959951132535934, 0.10073760151863098, -0.29880356788635254, 0.04061715304851532, -0.07344899326562881, -0.08270920068025589, 0.10880950838327408, 0.1711214929819107, -0.04569249972701073, -0.12028710544109344, -0.11305519193410873, 0.09179846942424774, -0.04347308725118637, -0.01367770042270422, 0.30965402722358704, 0.060544684529304504, -0.10156183689832687, -0.21698898077011108, -0.35354679822921753, -0.14567984640598297, 0.04027664288878441, 0.1940578669309616, 0.044837165623903275, 0.10081884264945984, -0.2602362036705017, 0.31737107038497925, -0.010053508915007114, -0.2151201218366623, -0.02848011814057827, 0.22022782266139984], [-0.10718225687742233, 0.2964797914028168, 0.2859921455383301, -0.2267627865076065, 0.02089024893939495, -0.18372678756713867, -0.018247952684760094, 0.07411197572946548, 0.19007429480552673, -0.06462544947862625, 0.12400582432746887, 0.37718161940574646, 0.10080022364854813, -0.2588798403739929, -0.008920993655920029, 0.0863574743270874, -0.3003193438053131, 0.012507719919085503, 0.05705065652728081, -0.032919976860284805, 0.07100357115268707, 0.26371273398399353, -0.2354522943496704, 0.07610348612070084, -0.042319703847169876, -0.0891750156879425, 0.0815044716000557, -0.05411326512694359, -0.300204336643219, -0.0029898867942392826, 0.10261394083499908, -0.12403500080108643, -0.17478303611278534, 0.016957540065050125, -0.1502678245306015, 0.17733439803123474, 0.031345631927251816, 0.374407023191452, 0.00876598060131073, 0.0910789892077446, 0.4155544340610504, -0.018342502415180206, -0.29524776339530945, 0.27182960510253906, 0.021256988868117332, -0.06007731705904007, 0.06295838207006454, -0.06913165003061295, 0.16918331384658813, 0.1402912139892578, -0.09230590611696243, 0.009913254529237747, -0.07380226254463196, -0.011905315332114697, -0.10207944363355637, -0.13300776481628418, 0.1626112163066864, 0.4542204439640045, 0.12057316303253174, -0.08667005598545074, -0.0829271674156189, -0.09273242950439453, -0.2925744652748108, -0.2259603589773178], [-0.09742917120456696, 0.11009632050991058, -0.08187917619943619, -0.11923177540302277, 0.047049202024936676, -0.04541555047035217, -0.02939796820282936, -0.16855669021606445, -0.14413774013519287, 0.3541172742843628, -0.1201111227273941, 0.11348855495452881, 0.2578655779361725, 0.16275770962238312, -0.024576885625720024, -0.34320417046546936, -0.25839927792549133, -0.149321049451828, 0.4165782928466797, -0.06448092311620712, 0.11972828209400177, -0.2747107446193695, -0.0017735182773321867, 0.2602039873600006, -0.0028790512587875128, 0.008690034970641136, -0.0022261543199419975, 0.11202624440193176, 0.07053989171981812, -0.011601636186242104, 0.15328150987625122, 0.3220352232456207, 0.43431520462036133, -0.16517208516597748, 0.18788348138332367, -0.14347662031650543, -0.17803750932216644, -0.3605401813983917, -0.09326102584600449, 0.1810029298067093, 0.3161503076553345, 0.08644398301839828, -0.2739805281162262, -0.036730747669935226, -0.07154925167560577, 0.15701095759868622, 0.17593033611774445, 0.09448534995317459, -0.08610910922288895, -0.1158178523182869, 0.031161867082118988, -0.13397376239299774, -0.09463517367839813, 0.10347242653369904, -0.1339741349220276, -0.21907874941825867, 0.054179541766643524, 0.25695088505744934, -0.015410525724291801, -0.0696362555027008, 0.07094472646713257, 0.03364000469446182, 0.18903017044067383, -0.010045042261481285], [-0.20509205758571625, 0.08193328231573105, -0.14099495112895966, -0.09915363788604736, -0.2718372344970703, -0.08891770243644714, -0.043218035250902176, -0.14901208877563477, 0.31866177916526794, 0.23619790375232697, 0.09641008079051971, -0.39298951625823975, -0.2581319808959961, 0.15469324588775635, -0.1733698844909668, 0.17315900325775146, -0.15124428272247314, -0.07546080648899078, 0.1357109695672989, 0.31109967827796936, 0.052752457559108734, 0.13871747255325317, 0.1194712221622467, -0.1577010303735733, 0.24161309003829956, -0.13437940180301666, 0.08088360726833344, 0.04234388470649719, -0.28487348556518555, -0.23322996497154236, -0.39180460572242737, 0.11973246186971664, 0.134153813123703, 0.23905332386493683, -0.05757051706314087, 0.050328247249126434, -0.18237952888011932, 0.008820226415991783, 0.0061381300911307335, 0.03760139271616936, -0.1592356413602829, -0.006600088905543089, -0.1552271842956543, 0.16196046769618988, 0.00764890294522047, 0.30454373359680176, 0.18729281425476074, 0.1463841199874878, -0.046396028250455856, -0.10327672213315964, -0.16699832677841187, -0.0554935522377491, -0.1265047937631607, 0.22359389066696167, 0.11968334764242172, 0.2230033129453659, 0.027422290295362473, -0.10967238992452621, -0.17956100404262543, -0.3201185464859009, 0.01905450038611889, -0.0077662416733801365, -0.2041696161031723, -0.21585705876350403], [0.3851585388183594, -0.020981965586543083, 0.07593619078397751, -0.04259254038333893, -0.1892726570367813, -0.07440771162509918, -0.2840011417865753, 0.172342911362648, 0.08422574400901794, -0.08375231921672821, -0.19316741824150085, -0.20269708335399628, 0.11943043768405914, -0.14450372755527496, 0.11520414799451828, -0.31265971064567566, -0.219159334897995, 0.19388188421726227, -0.04068801924586296, -0.03764280304312706, -0.2666918933391571, -0.4296308159828186, -0.009099967777729034, 0.044629402458667755, -0.09644327312707901, 0.14581671357154846, -0.06116066128015518, -0.13259847462177277, -0.213054358959198, -0.21959932148456573, -0.04660449177026749, -0.030151182785630226, 0.039516009390354156, 0.14262257516384125, 0.1109323650598526, 0.13315042853355408, 0.17046889662742615, 0.0936952531337738, 0.24154599010944366, -0.05602746456861496, -0.1526452898979187, -0.26896193623542786, 0.019136913120746613, 0.2334916889667511, 0.374944269657135, 0.2059180736541748, -0.14171138405799866, 0.18609927594661713, -0.0663541927933693, -0.0824553519487381, 0.023225905373692513, -0.15589091181755066, -0.3138149380683899, 0.0764613077044487, -0.1485813409090042, -0.1807052493095398, 0.10828981548547745, -0.006860664114356041, -0.1850314438343048, 0.33830782771110535, 0.10279089212417603, -0.2002999633550644, -0.009209051728248596, -0.1111421212553978], [-0.08491485565900803, 0.15495401620864868, -0.00444940198212862, 0.25809773802757263, -0.15727776288986206, 0.059086449444293976, -0.09517138451337814, 0.1190875694155693, 0.02651396207511425, -0.1839124709367752, 0.11740060150623322, -0.15301060676574707, 0.054260119795799255, 0.20202946662902832, -0.1009955182671547, -0.09537127614021301, -0.20119282603263855, -0.1092851459980011, 0.05538559332489967, -0.11037909984588623, 0.04226643964648247, -0.030139608308672905, -0.08214053511619568, 0.1487046778202057, 0.30449336767196655, -0.2278786450624466, -0.3177546560764313, 0.012092857621610165, 0.35708287358283997, -0.10105037689208984, 0.03701625019311905, 0.3692966103553772, -0.15765517950057983, 0.3014625906944275, 0.1877996325492859, 0.13174450397491455, -0.05522087216377258, 0.149688258767128, 0.06277837604284286, 0.11471974849700928, -0.27468550205230713, 0.10688213258981705, -0.27668559551239014, 0.0034705400466918945, -0.08786538243293762, -0.5935945510864258, -0.2794530391693115, -0.18547217547893524, 0.06624691188335419, -0.06394041329622269, -0.3521553874015808, -0.09735345840454102, -0.014232616871595383, -0.046532031148672104, -0.1678515523672104, 0.012868613004684448, 0.15983518958091736, 0.056836653500795364, -0.11072248965501785, 0.04103457182645798, -0.11634525656700134, -0.10914219915866852, 0.03803671896457672, 0.07887823134660721], [0.25376129150390625, 0.10515276342630386, -0.016302529722452164, -0.2187613844871521, 0.061468660831451416, -0.2166338860988617, 0.10822924971580505, -0.08116767555475235, -0.23500631749629974, 0.012153214775025845, -0.006469774059951305, 0.20587442815303802, 0.23770995438098907, 0.45573094487190247, 0.11599895358085632, 0.12657612562179565, -0.053424179553985596, 0.06224429979920387, 0.14088751375675201, -0.1075381264090538, -0.32298967242240906, 0.20802751183509827, -0.30559125542640686, -0.08595030009746552, 0.3233528733253479, -0.11466450244188309, -0.19620223343372345, 0.3551492691040039, -0.14601419866085052, -0.12133776396512985, -0.1475347876548767, 0.23454207181930542, -0.07381678372621536, -0.08886075019836426, -0.38683754205703735, 0.022356754168868065, -0.053184475749731064, 0.07122529298067093, 0.13218240439891815, -0.04782455414533615, 0.18082578480243683, -0.11256212741136551, 0.14159584045410156, -0.16948692500591278, 0.05744069442152977, 0.06991207599639893, -0.07455894351005554, -0.12829701602458954, -0.1955190747976303, 0.08035201579332352, -0.09763938933610916, -0.02599332109093666, 0.1358138620853424, 0.04321702569723129, 0.12547184526920319, 0.13295191526412964, -0.06026522442698479, -0.21843402087688446, -0.04356270283460617, 0.22222131490707397, 0.30429378151893616, -0.3194400370121002, 0.10245051234960556, -0.048912227153778076], [-0.0995703712105751, -0.2260018140077591, 0.19898614287376404, 0.026335686445236206, -0.1813925951719284, 0.37449172139167786, 0.007816803641617298, 0.02419471926987171, -0.07418064773082733, 0.06808764487504959, 0.09656848013401031, -0.010706550441682339, 0.17605160176753998, 0.17493674159049988, 0.06621558219194412, -0.37100115418434143, 0.005561223719269037, -0.13089652359485626, -0.005118081346154213, 0.16046319901943207, -0.1829625368118286, 0.13442610204219818, -0.224468395113945, -0.16555868089199066, -0.11487593501806259, -0.17640899121761322, 0.3281167447566986, -0.03351742774248123, -0.2821860611438751, -0.27729129791259766, 0.17626556754112244, 0.06790153682231903, -0.0555448979139328, 0.2032240331172943, 0.04161236062645912, 0.20228303968906403, -0.23636293411254883, -0.10312613099813461, 0.13175281882286072, -0.1399107128381729, 0.020254170522093773, 0.04375668242573738, 0.19876761734485626, -0.052879855036735535, -0.32911574840545654, -0.059313151985406876, -0.033963464200496674, -0.21295295655727386, -0.0762692540884018, 0.04450225457549095, 0.29480379819869995, -0.29462486505508423, -0.047564517706632614, 0.08596929907798767, 0.15189316868782043, -0.17668084800243378, 0.2525385618209839, -0.07370834797620773, 0.16401393711566925, 0.026412328705191612, -0.026410415768623352, 0.11593277752399445, -0.3555743396282196, 0.3284425735473633], [0.08938097953796387, -0.08136983960866928, 0.04311167821288109, -0.06910303235054016, 0.3437287509441376, 0.2797568142414093, 0.34359776973724365, 0.14196133613586426, 0.24860988557338715, -0.06382331252098083, -0.0894870012998581, 0.1458808332681656, -0.1735207587480545, -0.05769900977611542, -0.021349558606743813, -0.09660007059574127, -0.07965172827243805, -0.05404050275683403, 0.2405674159526825, -0.27581968903541565, 0.14168983697891235, 0.3013837933540344, 0.24228979647159576, 0.15509918332099915, -0.08451490849256516, 0.0780477374792099, -0.2473217248916626, 0.317105770111084, 0.1647741198539734, 0.26852646470069885, 0.01367899402976036, 0.10222157090902328, -0.0040794601663947105, 0.051889970898628235, -0.09593330323696136, 0.19932405650615692, -0.10457964986562729, -0.12917418777942657, -0.005914151202887297, -0.07114380598068237, -0.1737326830625534, -0.16555705666542053, 0.138284832239151, 0.5370005369186401, -0.2645913362503052, 0.168853297829628, -0.04177084565162659, -0.0015805278671905398, -0.06287385523319244, -0.03048528917133808, 0.040793050080537796, -0.19165600836277008, -0.33780720829963684, 0.17330250144004822, -0.10127583146095276, 0.025449614971876144, -0.12291877716779709, -0.19602178037166595, 0.020829403772950172, 0.07984615862369537, -0.048271987587213516, -0.2015475332736969, -0.17704196274280548, 0.03631247952580452], [-0.19049370288848877, 0.08931642025709152, -0.2179555743932724, 0.20619316399097443, 0.21505002677440643, 0.10022638738155365, -0.10777704417705536, -0.12948238849639893, 0.1920369267463684, 0.20130988955497742, -0.07540543377399445, 0.1948847472667694, 0.25424230098724365, 0.18420928716659546, 0.19686691462993622, 0.0801507830619812, 0.09199360758066177, 0.32485368847846985, 0.12469179928302765, -0.05960433557629585, -0.11982375383377075, -0.00915837287902832, -0.2633818984031677, -0.10166898369789124, -0.34788379073143005, -0.19543501734733582, 0.06236850842833519, 0.15926633775234222, 0.03012850321829319, -0.28262004256248474, -0.2220761626958847, -0.21051932871341705, -0.05850253254175186, -0.022379731759428978, -0.02132301777601242, -0.10538183152675629, 0.11882613599300385, -0.015954721719026566, -0.17937220633029938, -0.19201765954494476, -0.0997476577758789, -0.33892983198165894, -0.14828188717365265, -0.06146742030978203, -0.06912820786237717, 0.022105958312749863, -0.18338355422019958, 0.004686086904257536, 0.034174591302871704, -0.4626046419143677, -0.08191852271556854, 0.1567976474761963, -0.006539799738675356, 0.14257855713367462, -0.2909548580646515, 0.03653073310852051, -0.11365846544504166, 0.03675249218940735, -0.03725062683224678, -0.053646519780159, -0.4922446310520172, -0.04166509211063385, -0.07663337141275406, 0.1280568689107895], [-0.12066028267145157, -0.11575716733932495, 0.263407438993454, -0.16084496676921844, -0.017516275867819786, 0.10988210886716843, -0.10439670830965042, -0.2794857919216156, -0.15968388319015503, -0.04649874195456505, 0.16703298687934875, -0.051589030772447586, 0.43658608198165894, 0.216669961810112, -0.1956854611635208, 0.31293854117393494, 0.08173105865716934, 0.08328873664140701, 0.24622416496276855, -0.13182903826236725, 0.02683248557150364, 0.27038463950157166, 0.23103637993335724, 0.020847205072641373, -0.3343452215194702, -0.11602885276079178, 0.037043653428554535, -0.011085924692451954, -0.08100030571222305, 0.0505041666328907, 0.16880075633525848, -0.043756455183029175, 0.23373159766197205, 0.1167595311999321, -0.08431752771139145, -0.29588955640792847, 0.020189393311738968, 0.39209845662117004, -0.0695066824555397, -0.06586391478776932, -0.3195635974407196, 0.13164614140987396, 0.0002989054482895881, 0.07237407565116882, 0.15927672386169434, -0.05087767168879509, -0.15125799179077148, 0.1575832962989807, 0.17903396487236023, 0.12233215570449829, 0.10577590018510818, -0.2475731521844864, -0.18458989262580872, -0.06887667626142502, -0.23028169572353363, -0.019415494054555893, 0.01567021943628788, -0.08637899160385132, -0.25060516595840454, 0.04994378238916397, 0.24562601745128632, 0.2566526532173157, 0.13012219965457916, -0.05836339667439461], [-0.18765169382095337, -0.044852208346128464, -0.0650901347398758, -0.0019293081713840365, 0.01333788875490427, -0.18682044744491577, 0.337006151676178, -0.045302614569664, -0.15786343812942505, 0.17761044204235077, -0.263472318649292, 0.13019487261772156, 0.14760251343250275, -0.2402971386909485, -0.05769040063023567, -0.1410389095544815, -0.21352267265319824, -0.21316608786582947, 0.13372348248958588, -0.28358760476112366, -0.3446047902107239, -0.03732471540570259, 0.25615236163139343, 0.03709574416279793, -0.09790648519992828, 0.004558861255645752, -0.14945535361766815, -0.17590239644050598, -0.10856038331985474, -0.2493133842945099, -0.21328778564929962, -0.3547680675983429, 0.05839676409959793, 0.04477459937334061, -0.08226028829813004, 0.2178293913602829, -0.0700010135769844, 0.029294362291693687, 0.07653424143791199, 0.3477973937988281, -0.13681770861148834, -0.11440549045801163, -0.03611099347472191, -0.09392296522855759, -0.17456823587417603, -0.08007115870714188, -0.21721012890338898, -0.21966804563999176, 0.2505095303058624, 0.03972391039133072, 0.001517455093562603, 0.06318753212690353, -0.08049920201301575, -0.2311781644821167, 0.45356476306915283, -0.005555941257625818, -0.12237602472305298, -0.09627509862184525, -0.30839234590530396, -0.16753901541233063, -0.0579339824616909, 0.12185797095298767, 0.1072390004992485, 0.0013902084901928902], [0.11725873500108719, -0.21935515105724335, -0.07774919271469116, 0.18314746022224426, -0.144984632730484, 0.11411038786172867, -0.028437577188014984, -0.19602592289447784, 0.04947727173566818, -0.0056815254501998425, 0.0537581741809845, 0.11077617108821869, 0.012081890366971493, 0.18841370940208435, -0.01794365979731083, 0.10608186572790146, 0.13850927352905273, -0.22575563192367554, -0.1491369754076004, -0.25229108333587646, -0.001502740546129644, 0.1671038269996643, 0.15143319964408875, 0.0003262060636188835, 0.09608089178800583, 0.2779906094074249, 0.2717709541320801, -0.11697039008140564, 0.32734835147857666, -0.054664455354213715, -0.07644226402044296, 0.07758160680532455, 0.0018476862460374832, 0.07659975439310074, -0.35660406947135925, 0.4092405438423157, -0.11173533648252487, 0.044196054339408875, 0.309268057346344, 0.011699680238962173, 0.2944923937320709, -0.18995973467826843, 0.01284724473953247, -0.14176735281944275, 0.10428750514984131, 0.06780838221311569, -0.10272599756717682, 0.43482476472854614, 0.13580043613910675, 0.0652797743678093, 0.01547168381512165, -0.21800664067268372, 0.0961742103099823, 0.16799183189868927, -0.1125052347779274, -0.2275221347808838, 0.14823874831199646, 0.10096262395381927, -0.07177770137786865, -0.1769445240497589, -0.3764117658138275, -0.029199225828051567, 0.2859714925289154, -0.1523974984884262], [-0.21572847664356232, 0.012037966400384903, -0.4547230005264282, 0.07662735134363174, 0.32749882340431213, 0.09604867547750473, 0.11248870193958282, 0.07098115235567093, -0.1352025717496872, 0.013469977304339409, -0.14056436717510223, -0.10829518735408783, 0.02980511263012886, -0.20921628177165985, -0.1863732784986496, 0.04641982167959213, -0.03733564913272858, -0.046760909259319305, -0.12542827427387238, 0.13668525218963623, 0.12313543260097504, -0.0471770204603672, -0.10521877557039261, -0.39344218373298645, 0.09410879760980606, -0.351731538772583, -0.10133345425128937, -0.06919286400079727, -0.13026173412799835, -0.05209232494235039, 0.2065400779247284, -0.2861027121543884, -0.056053388863801956, -0.12257178872823715, -0.1496853530406952, 0.09737259894609451, 0.020177161321043968, -0.022652393206954002, 0.20855729281902313, 0.08822669833898544, -0.02031724713742733, 0.016567282378673553, -0.07674793899059296, -0.20255492627620697, 0.0335705541074276, -0.17333830893039703, 0.1775839924812317, 0.13721142709255219, 0.029886946082115173, 0.008679911494255066, 0.016065536066889763, -0.45355910062789917, -0.28829336166381836, -0.013478519394993782, -0.3588803708553314, -0.1766761988401413, -0.08400304615497589, -0.1495298147201538, 0.18873177468776703, -0.11479751020669937, 0.23962126672267914, -0.3339112401008606, 0.1551113724708557, -0.09537536650896072], [0.09289965033531189, -0.04225063696503639, 0.1653648167848587, -0.31766068935394287, -0.0020562985446304083, 0.18036459386348724, -0.040549635887145996, -0.13862264156341553, -0.11559466272592545, 0.008239738643169403, -0.09196390211582184, -0.18393245339393616, 0.00114283652510494, -0.10518893599510193, 0.20336343348026276, -0.1341550499200821, 0.03415424004197121, 0.04019460827112198, -0.04133555665612221, 0.0222158282995224, -0.12409006804227829, -0.1924915611743927, 0.030469046905636787, 0.2587558329105377, 0.34094324707984924, -0.4691906273365021, -0.19900120794773102, -0.2737574875354767, -0.01738191768527031, 0.08322704583406448, -0.006438782438635826, -0.2501015365123749, 0.015352953225374222, -0.13703316450119019, 0.011508775874972343, -0.20733359456062317, -0.43793654441833496, 0.1863509565591812, -0.10024788230657578, -0.15151305496692657, 0.22417712211608887, -0.2912709414958954, 0.18325190246105194, 0.23076874017715454, -0.2451840192079544, -0.034756649285554886, -0.03100413829088211, 0.2944575250148773, 0.058217987418174744, 0.05105774849653244, -0.16167721152305603, -0.12723414599895477, 0.19333584606647491, -0.12659570574760437, -0.15582527220249176, 0.2810993790626526, 0.08666761964559555, -0.1359173208475113, 0.10517203062772751, -0.09890370070934296, -0.26410213112831116, 0.08168317377567291, 0.11998757719993591, -0.021925989538431168], [0.05787547305226326, 0.20162400603294373, 0.06799135357141495, -0.11728821694850922, 0.00856519304215908, -0.03816328942775726, 0.18427327275276184, 0.03862148895859718, 0.04207482561469078, 0.10169506818056107, -0.030836448073387146, -0.14869564771652222, -0.4008883833885193, 0.1626170426607132, 0.10629228502511978, -0.03173527121543884, -0.21701784431934357, -0.32365891337394714, -0.09537132829427719, -0.16785641014575958, -0.14566992223262787, -0.3708088994026184, -0.11207663267850876, -0.4190942645072937, -0.14020751416683197, -0.04294836148619652, -0.10830657929182053, 0.2548351287841797, -0.04474930092692375, 0.01937786489725113, 0.39986956119537354, 0.05719838663935661, 0.18943960964679718, 0.2722664773464203, -0.3693110942840576, 0.03887246549129486, 0.1155640259385109, -0.006660503335297108, -0.28353139758110046, -0.3440929055213928, 0.08070170879364014, 0.20962002873420715, 0.03450392559170723, 0.048497967422008514, 0.0785871148109436, -0.02589493989944458, -0.154887855052948, 0.025062991306185722, 0.0915360227227211, -0.014163532294332981, 0.21268728375434875, 0.02567579597234726, 0.09028707444667816, -0.3132827579975128, -0.1671399623155594, 0.04408305138349533, -0.028255941346287727, 0.02197239175438881, -0.18348823487758636, -0.11735183000564575, -0.22727207839488983, 0.11500676721334457, 0.00751164834946394, -0.1279362589120865], [-0.010983694344758987, 0.16191156208515167, 0.23739564418792725, 0.26514384150505066, 0.058547765016555786, 0.336173951625824, 0.0893903374671936, 0.17850889265537262, -0.08941174298524857, 0.015991518273949623, 0.042615700513124466, -0.008050667122006416, 0.14899303019046783, 0.13215786218643188, 0.07577940076589584, 0.21204127371311188, -0.051433052867650986, 0.04461865872144699, 0.015301160514354706, 0.06310493499040604, 0.1625484824180603, -0.1637687385082245, 0.30742883682250977, 0.0032247607596218586, 0.30077698826789856, 0.07200473546981812, -0.12192856520414352, -0.11190637201070786, -0.16225837171077728, -0.2876487076282501, 0.0665181577205658, -0.31728464365005493, -0.2636834979057312, -0.03587794303894043, -0.1636945903301239, -0.27747058868408203, -0.12224715203046799, -0.2270147204399109, -0.05898119509220123, -0.059486087411642075, 0.10135117918252945, 0.32819169759750366, -0.18829689919948578, 0.14551395177841187, 0.11806824803352356, 0.03297445923089981, -0.19809262454509735, 0.07939135283231735, -0.20406542718410492, 0.22329752147197723, 0.20393900573253632, -0.04256900027394295, 0.040350839495658875, 0.3095068633556366, 0.18390564620494843, -0.029322516173124313, -0.272855281829834, 0.2506505250930786, -0.2961203455924988, 0.06259497255086899, -0.1601794958114624, -0.2632448971271515, 0.009391676634550095, 0.14888952672481537], [0.05604115128517151, 0.23021112382411957, 0.2443513721227646, -0.056143105030059814, 0.28706660866737366, 0.0331774540245533, -0.17963604629039764, -0.3441649377346039, -0.14026859402656555, 0.29188311100006104, 0.18634957075119019, 0.11066664010286331, -0.04912102222442627, -0.18048344552516937, -0.08317534625530243, 0.14585404098033905, 0.22061404585838318, -0.0718250572681427, -0.2926010489463806, -0.22745828330516815, 0.004614120814949274, -0.2710251808166504, 0.17617559432983398, -0.04644327610731125, 0.11985746771097183, 0.060882121324539185, -0.01709158904850483, -0.20074822008609772, -0.019059035927057266, 0.0811321958899498, 0.028301719576120377, 0.2781873643398285, -0.14092472195625305, 0.052312858402729034, -0.0815296545624733, -0.10877715796232224, -0.02519335225224495, 0.13580752909183502, 0.18879233300685883, -0.09938360750675201, -0.09676646441221237, -0.1581583470106125, -0.27569520473480225, -0.15382230281829834, -0.32137954235076904, 0.13284450769424438, 0.0005125860334374011, -0.0668938085436821, -0.38128095865249634, -0.10905564576387405, -0.05267947167158127, 0.1689719557762146, -0.1927858293056488, -0.17842085659503937, -0.0225272998213768, -0.3597879707813263, 0.07122162729501724, -0.2555506229400635, -0.15927910804748535, -0.13382741808891296, 0.060518763959407806, -0.09141421318054199, -0.33020642399787903, 0.052045583724975586], [-0.0034535187296569347, -0.1803755760192871, -0.10170469433069229, -0.3095809817314148, 0.022114509716629982, 0.08733624964952469, 0.06934921443462372, 0.1080017015337944, 0.15199029445648193, -0.19282180070877075, 0.06105585768818855, 0.06757283955812454, 0.14383335411548615, -0.30415111780166626, 0.1312345564365387, 0.011083279736340046, 0.04277293384075165, 0.046653714030981064, -0.09688759595155716, -0.08066201955080032, -0.07370509207248688, 0.047511026263237, 0.0035867474507540464, 0.24053499102592468, 0.018909137696027756, 0.21111217141151428, 0.1885448694229126, 0.03781072050333023, -0.27675482630729675, -0.13880375027656555, 0.08612453192472458, 0.20344458520412445, -0.12002955377101898, 0.22281406819820404, -0.04284731298685074, 0.15238407254219055, -0.07395930588245392, -0.15428967773914337, -0.217960923910141, -0.2210327386856079, -0.10962126404047012, 0.026584651321172714, -0.3263106048107147, -0.37320464849472046, -0.13166245818138123, -0.03473714366555214, -0.11918381601572037, 0.17608891427516937, -0.2750011086463928, 0.0444156639277935, 0.01754922606050968, 0.041842635720968246, -0.30611079931259155, -0.15272662043571472, -0.10632575303316116, 0.5704179406166077, 0.0004939979407936335, 0.18240481615066528, 0.021179823204874992, -0.21438653767108917, 0.11797045916318893, -0.06798702478408813, 0.370665580034256, 0.13986846804618835], [-0.05768031254410744, 0.027055373415350914, 0.029909377917647362, -0.05741971731185913, 0.042288586497306824, 0.05286236107349396, 0.03105631098151207, -0.16733665764331818, 0.12221173942089081, 0.00997947622090578, 0.14519700407981873, 0.02989811822772026, 0.12129426747560501, -0.0986483097076416, 0.17439092695713043, 0.025968171656131744, -0.10497330129146576, 0.36126449704170227, 0.07409258931875229, -0.15363381803035736, -0.11708630621433258, -0.08401462435722351, 0.25880447030067444, 0.15150249004364014, 0.12797151505947113, 0.27374541759490967, -0.1682814508676529, 0.027252433821558952, -0.01371130719780922, -0.027261504903435707, 0.3344302177429199, -0.260446161031723, 0.28382226824760437, 0.25115683674812317, -0.010084565728902817, 0.13019722700119019, -0.04687528312206268, -0.015832483768463135, 0.28431111574172974, -0.15027457475662231, 0.18997448682785034, 0.45907488465309143, 0.18513523042201996, -0.3089160621166229, 0.1535099893808365, -0.15747034549713135, 0.21273663640022278, -0.07110972702503204, 0.13380064070224762, -0.3782449960708618, -0.30447566509246826, 0.003655643668025732, 0.0183126050978899, 0.23069658875465393, 0.04346960410475731, 0.14729593694210052, 0.010602324269711971, -0.27916160225868225, 0.1877281218767166, -0.04071895033121109, -0.06786563247442245, -0.024752184748649597, -0.2914246916770935, -0.07522347569465637], [-0.09674132615327835, -0.15124663710594177, 0.18202544748783112, -0.07334013283252716, 0.12054090201854706, 0.15932421386241913, 0.3111364245414734, 0.3133462965488434, -0.06214591860771179, 0.2878892719745636, 0.22239729762077332, 0.07579082995653152, -0.16984009742736816, 0.14543960988521576, -0.15046288073062897, -0.19074320793151855, -0.12095470726490021, -0.1272723376750946, -0.13805609941482544, 0.19632229208946228, -0.030109897255897522, -0.06168593093752861, -0.17811040580272675, 0.2774467170238495, 0.14035604894161224, 0.2737428843975067, 0.07785101979970932, 0.31691426038742065, -0.0004890930722467601, 0.06404267996549606, -0.3135017454624176, -0.29074427485466003, 0.02626650594174862, -0.2636781334877014, 0.08031191676855087, 0.0492846705019474, -0.1109866127371788, 0.21247956156730652, 0.010293719358742237, -0.16654452681541443, 0.034450579434633255, -0.12763755023479462, -0.1906605213880539, -0.19073471426963806, 0.34191542863845825, -0.3122110664844513, -0.012614225037395954, 0.22794274985790253, -0.015401259064674377, -0.038901712745428085, -0.060659222304821014, 0.04238220676779747, -0.05585826188325882, -0.012987161055207253, -0.22548864781856537, -0.09883395582437515, -0.03139115124940872, -0.17503967881202698, -0.24758347868919373, -0.012336624786257744, 0.183996319770813, 0.2701001465320587, -0.2033626139163971, 0.14145787060260773], [-0.19206678867340088, 0.15515774488449097, 0.028063150122761726, -0.04997619241476059, -0.12283946573734283, 0.06032940745353699, -0.33742907643318176, 0.15315844118595123, 0.07314332574605942, 0.033884115517139435, -0.042040374130010605, 0.23026779294013977, 0.18383300304412842, -0.34442615509033203, 0.13938477635383606, -0.02380109392106533, -0.1614019274711609, -0.509467363357544, -0.09600485116243362, 0.09936430305242538, -0.12401895225048065, 0.20445924997329712, 0.27990981936454773, -0.20517325401306152, 0.11438941955566406, 0.07682914286851883, -0.059587255120277405, 0.011915309354662895, 0.23166897892951965, 0.023084208369255066, -0.26618650555610657, -0.023215461522340775, 0.45618095993995667, 0.04077887535095215, 0.00788888894021511, -0.22600656747817993, 0.07275144755840302, 0.024014810100197792, 0.1305587887763977, -0.2841809093952179, -0.03975779563188553, -0.15655116736888885, -0.010354374535381794, -0.11069362610578537, 0.1588054597377777, 0.10915017873048782, 0.004095219541341066, -0.3415587842464447, -0.032870542258024216, 0.2246621698141098, 0.05045074597001076, -0.1311575174331665, 0.21008291840553284, 0.048176880925893784, -0.29572436213493347, 0.19110946357250214, -0.08369921147823334, -0.007761484477669001, 0.09802978485822678, 0.042885955423116684, -0.03287532180547714, -0.1742403656244278, -0.06360004842281342, 0.2506389915943146], [-7.177620136644691e-05, 0.13624700903892517, -0.4266289472579956, 0.26592135429382324, -0.036160994321107864, -0.0539851188659668, -0.0001875600719358772, 0.35055896639823914, -0.11221595108509064, 0.27119138836860657, 0.11606203019618988, -0.10259465873241425, 0.05193283036351204, 0.2185829132795334, 0.03946380689740181, -0.04098024219274521, 0.07414783537387848, 0.17503288388252258, -0.0013747880002483726, 0.0677357092499733, -0.083017997443676, 0.1358938217163086, 0.10912522673606873, 0.07535776495933533, 0.02966354228556156, 0.08890757709741592, 0.16003596782684326, -0.07545871287584305, 0.1404796987771988, -0.003018915420398116, 0.4574260115623474, -0.20825596153736115, 0.3072609603404999, 0.04693646356463432, 0.18448041379451752, 0.15735939145088196, 0.04817695543169975, 0.41439002752304077, -0.15571409463882446, -0.0419590063393116, 0.21645377576351166, -0.1546093225479126, -0.15409402549266815, 0.09070385247468948, -0.2308696061372757, 0.1763659566640854, -0.17446857690811157, -0.12167950719594955, -0.3222682774066925, 0.4350524842739105, -0.06550226360559464, 0.16653835773468018, -0.14097218215465546, 0.03286498412489891, 0.03313504159450531, 0.11815633624792099, 0.055944014340639114, -0.2229846566915512, -0.008090820163488388, 0.039207588881254196, -0.027309760451316833, 0.0023014391772449017, -0.0037162508815526962, -0.19343896210193634], [0.0956975445151329, 0.019461272284388542, -0.013265637680888176, 0.06826385110616684, 0.18187496066093445, 0.06146055832505226, -0.20134815573692322, 0.03169380873441696, -0.06304948776960373, 0.5392501950263977, 0.058977026492357254, 0.08322952687740326, 0.09705471992492676, 0.0022599666845053434, -0.2821274399757385, -0.12341013550758362, -0.20492607355117798, 0.23336242139339447, -0.021728606894612312, -0.0688898041844368, 0.32556259632110596, 0.1245679035782814, -0.053111813962459564, 0.020979778841137886, 0.13825194537639618, 0.0907106027007103, 0.16334930062294006, -0.2487526535987854, -0.1560124009847641, 0.04486354812979698, -0.017351478338241577, -0.08482982218265533, -0.10671177506446838, 0.15486888587474823, -0.29689326882362366, 0.19940677285194397, -0.1766555905342102, -0.408856064081192, 0.03061331994831562, -0.21550734341144562, -0.26952672004699707, -0.005912317428737879, 0.036262378096580505, 0.2693464159965515, 0.22198830544948578, 0.009511558338999748, -0.018100274726748466, -0.31749552488327026, 0.07493353635072708, 0.04777039214968681, -0.15663354098796844, 0.10775876045227051, 0.24600784480571747, -0.2838211953639984, -0.13920027017593384, 0.09798071533441544, 0.1410045474767685, -0.08006320893764496, 0.13233965635299683, 0.17976835370063782, 0.018850240856409073, 0.1723136305809021, 0.2901369333267212, -0.10532430559396744], [0.04671377316117287, 0.09751224517822266, 0.0035275265108793974, 0.2158541977405548, -0.2224748581647873, 0.03701186925172806, -0.008684534579515457, 0.05437345802783966, 0.5259093642234802, -0.1885225772857666, 0.11631842702627182, -0.1560506522655487, -0.05679444596171379, 0.09423129260540009, 0.1317400187253952, 0.01914304867386818, -0.12892866134643555, -0.054133400321006775, 0.23098748922348022, -0.14002658426761627, 0.31915783882141113, -0.11905238777399063, 0.0665459856390953, 0.1246076375246048, -0.12455013394355774, -0.020666368305683136, -0.09635307639837265, -0.10430514812469482, -0.23992662131786346, 0.06768453866243362, 0.13408105075359344, -0.08100397884845734, -0.07581072300672531, -0.2578544020652771, -0.2797781527042389, -0.048842642456293106, -0.2276018261909485, 0.10988561809062958, -0.07858449220657349, 0.19501741230487823, 0.1335795819759369, -0.25595611333847046, 0.2534860670566559, -0.30623677372932434, 0.12839189171791077, 0.13327667117118835, -0.0618816576898098, -0.37955811619758606, -0.05839995667338371, -0.004180856514722109, -0.007017260417342186, 0.15204474329948425, -0.03266676887869835, -0.01981486566364765, -0.21997016668319702, -0.1660907119512558, 0.18891413509845734, -0.20692947506904602, -0.10359685868024826, -0.2821052372455597, 0.20846138894557953, -0.001429916126653552, 0.1749640852212906, 0.3538965582847595], [0.1095861867070198, -0.2370825707912445, 0.20572413504123688, 0.009688219986855984, 0.044773079454898834, -0.0634673610329628, 0.08500942587852478, -0.2679591774940491, 0.17216886579990387, -0.1335645467042923, 0.1261797398328781, 0.23518885672092438, 0.33661141991615295, -0.009726078249514103, -0.2184191644191742, -0.2256738692522049, -0.38233673572540283, 0.1428963989019394, -0.44621542096138, 0.1372096836566925, 0.14926356077194214, -0.10217221826314926, -0.3372350335121155, -0.14333575963974, 0.033043667674064636, -0.17610998451709747, 0.05751834064722061, -0.03514271602034569, 0.331916868686676, 0.02840491011738777, -0.01932547055184841, 0.0021948181092739105, 0.11115316301584244, 0.017361730337142944, 0.10880564898252487, 0.02448636293411255, 0.026411764323711395, 0.03823171183466911, -0.17293496429920197, 0.05632767453789711, 0.018192049115896225, 0.22751504182815552, 0.14244838058948517, 0.06787003576755524, 0.07289339601993561, 0.20116302371025085, 0.13382166624069214, -0.05963160842657089, 0.004537477158010006, 0.25645118951797485, -0.03071727603673935, 0.17245535552501678, -0.26599612832069397, 0.09614443778991699, 0.07148043066263199, 0.07891761511564255, -0.14096853137016296, -0.3128332495689392, -0.2785511314868927, -0.27370738983154297, -0.20921888947486877, -0.2006172239780426, 0.1438225507736206, 0.08182453364133835], [-0.04846445471048355, 0.5282060503959656, 0.14028283953666687, -0.02364562265574932, 0.37788325548171997, 0.06256631761789322, 0.28790003061294556, -0.13786983489990234, 0.033048827201128006, -0.13268256187438965, 0.11327087879180908, -0.15792006254196167, -0.24789965152740479, 0.14790143072605133, 0.2639884054660797, 0.15774327516555786, -0.15316511690616608, 0.08411993831396103, -0.08987865597009659, 0.10277953743934631, -0.2818826138973236, 0.07703607529401779, -0.23982393741607666, 0.0887463167309761, -0.2196812778711319, -0.02447914145886898, 0.2334275096654892, -0.33459386229515076, 0.21019090712070465, 0.06833679229021072, -0.04306593909859657, -0.06763963401317596, 0.32516658306121826, 0.11524155735969543, 0.023860426619648933, 0.05060302093625069, -0.23490406572818756, -0.21575243771076202, 0.1267150193452835, 0.13095331192016602, -0.26554444432258606, -0.03580944612622261, 0.020724186673760414, -0.08880870789289474, 0.13995672762393951, 0.14506684243679047, -0.15411075949668884, 0.15993845462799072, 0.025582903996109962, 0.24580205976963043, -0.2641811966896057, -0.019811315461993217, -0.04741974547505379, 0.016542891040444374, 0.07909528911113739, -0.08296840637922287, 0.027814101427793503, 0.19970649480819702, 0.15133540332317352, 0.07449207454919815, 0.15204758942127228, -0.05949527025222778, 0.048131246119737625, 0.26970502734184265], [0.26969674229621887, -0.09011107683181763, 0.009217646904289722, 0.2611500322818756, 0.18472306430339813, 0.026531945914030075, -0.21612486243247986, -0.10964284092187881, -0.3226427435874939, -0.24693866074085236, 0.11196839064359665, 0.1148771271109581, -0.18460050225257874, -0.15049313008785248, 0.03481791913509369, -0.06404583156108856, -0.159054696559906, -0.39353838562965393, 0.1530759185552597, -0.22900640964508057, 0.047145284712314606, 0.06715825945138931, -0.13778357207775116, 0.04969838261604309, 0.13289009034633636, 0.1404317319393158, 0.10807280242443085, 0.1396276354789734, -0.15657304227352142, -0.47924357652664185, 0.0443427711725235, -0.15554243326187134, 0.10657210648059845, 0.02747323364019394, -0.04777290299534798, -0.1334749013185501, 0.025461237877607346, 0.20987549424171448, -0.41523289680480957, 0.12401357293128967, -0.2699633836746216, 0.07196027785539627, -0.051844172179698944, 0.15207375586032867, 0.09696241468191147, 0.07791568338871002, 0.054606541991233826, 0.17816920578479767, -0.09571589529514313, -0.06650665402412415, -0.22682271897792816, 0.08022596687078476, 0.05827689915895462, 0.14842699468135834, 0.08326240628957748, -0.15139728784561157, 0.02880125865340233, -0.23603440821170807, 0.48185503482818604, -0.1635252684354782, 0.00010082843073178083, 0.05656490474939346, 0.061137523502111435, 0.058150216937065125], [-0.2827581763267517, -0.046833671629428864, -0.15184783935546875, 0.35449522733688354, 0.14660675823688507, -0.04148588702082634, -0.04956895485520363, -0.22030416131019592, -0.010877038352191448, -0.2885122299194336, -0.27196788787841797, -0.14516742527484894, 0.24853754043579102, 0.043913792818784714, 0.3932558000087738, -0.006322696339339018, 0.12760287523269653, 0.06824319064617157, -0.28519734740257263, 0.052329447120428085, -0.2677428126335144, 0.004284908063709736, 0.04828048497438431, 0.21242453157901764, 0.14866778254508972, 0.08560323715209961, -0.04550245404243469, 0.19482745230197906, -0.17050175368785858, 0.010179274715483189, -0.18135271966457367, 0.10153618454933167, 0.09912502020597458, -0.003503635758534074, -0.23356090486049652, 0.10730931907892227, -0.013874847441911697, -0.1997508704662323, 0.028371434658765793, 0.08556429296731949, 0.08182578533887863, 0.19218231737613678, -0.09303150326013565, 0.46447715163230896, 0.021048620343208313, -0.1282198578119278, 0.16666555404663086, -0.03435031324625015, -0.0014436769997701049, 0.2589638829231262, 0.13037104904651642, 0.2679722011089325, -0.018185922876000404, -0.14718642830848694, -0.3483668267726898, -0.11192680150270462, 0.15860866010189056, -0.1038602963089943, -0.07612519711256027, -0.17261576652526855, 0.1712762713432312, 0.23943135142326355, -0.15505529940128326, -0.012306015938520432], [0.10378427058458328, -0.28665852546691895, 0.047535933554172516, -0.1515740156173706, -0.044798512011766434, -0.4418088495731354, 0.038760315626859665, 0.24851949512958527, 0.06992107629776001, -0.12367749959230423, 0.3174557089805603, 0.23338408768177032, 0.05882618948817253, 0.06791644543409348, 0.029141388833522797, 0.06999872624874115, 0.27399715781211853, -0.06221499666571617, 0.14275047183036804, 0.14798469841480255, -0.21998776495456696, -0.09840120375156403, 0.20356762409210205, -0.30098235607147217, -0.2020958662033081, -0.14008395373821259, -0.2502214014530182, -0.07683221995830536, 0.2187720686197281, -0.1700044572353363, 0.1850743591785431, -0.15688177943229675, 0.008551892824470997, -0.017651453614234924, -0.025677112862467766, 0.10136819630861282, -0.4848202168941498, -0.2668778896331787, -0.030061187222599983, -0.23016943037509918, -0.19437141716480255, -0.11876743286848068, -0.23445512354373932, 0.16915848851203918, 0.044339317828416824, -0.1490912288427353, 0.3280239999294281, 0.02728566899895668, -0.04266698285937309, 0.052967619150877, -0.11050909757614136, 0.2761586904525757, 0.027720319107174873, 0.1505030393600464, -0.036678336560726166, -0.22473116219043732, 0.16816306114196777, 0.054440367966890335, -0.032124847173690796, -0.052397578954696655, 0.08871635049581528, -0.035918645560741425, 0.06423725187778473, 0.001519488636404276], [0.043662093579769135, -0.25989410281181335, 0.037507761269807816, -0.11930156499147415, 0.1419537216424942, 0.12420331686735153, -0.25686022639274597, 0.3062674105167389, -0.2599014639854431, -0.032853513956069946, -0.03598308935761452, -0.16069898009300232, 0.1067051962018013, -0.004046184476464987, -0.015287800692021847, 0.3467046320438385, -0.2046518623828888, -0.031432222574949265, -0.02863878384232521, 0.3060213029384613, -0.0956142321228981, -0.11952770501375198, -0.16871614754199982, -0.11679057776927948, -0.16469985246658325, 0.3877972662448883, 0.02128397859632969, 0.026533063501119614, -0.052212174981832504, 0.0775669515132904, 0.33719295263290405, 0.2629837393760681, 0.027650434523820877, -0.08485466241836548, -0.2680291533470154, -0.0949137732386589, -0.19829845428466797, -0.0034898538142442703, 0.21506302058696747, 0.5077099800109863, 0.008329787291586399, -0.23469120264053345, -0.0491064190864563, 0.13081055879592896, -0.07071216404438019, -0.018783802166581154, 0.08962465822696686, -0.11601600795984268, 0.09832390397787094, -0.09374703466892242, -0.25673261284828186, -0.021189823746681213, -0.0014784521190449595, 0.0015853957738727331, -0.0365101657807827, 0.22731560468673706, -0.2937251627445221, -0.033984847366809845, -0.10931936651468277, -0.08111481368541718, -0.2954365909099579, 0.11974146962165833, -0.12482614815235138, 0.15538974106311798], [0.0017644711770117283, 0.23869885504245758, 0.34299135208129883, 0.3275471031665802, -0.08955681324005127, -0.06797391176223755, 0.3326197862625122, 0.2586838901042938, 0.051066529005765915, 0.1528356969356537, -0.20426611602306366, -0.04151500016450882, 0.4044170379638672, -0.20858339965343475, -0.0442524291574955, 0.17962197959423065, -0.054015886038541794, -0.13445110619068146, 0.04295463487505913, 0.0744197741150856, -0.09564750641584396, -0.09184105694293976, 0.3584677577018738, -0.17895899713039398, 0.050630681216716766, -0.24597924947738647, 0.5331764817237854, 0.19801971316337585, 0.10459306836128235, -0.04805382713675499, 0.11647646874189377, 0.2803064286708832, -0.11689025908708572, -0.24899502098560333, 0.02376905269920826, 0.06230567395687103, -0.020936552435159683, 0.005066604353487492, -0.0421316958963871, -0.017235172912478447, 0.024777626618742943, 0.01248769462108612, 0.24889574944972992, 0.07722265273332596, 0.10601995140314102, -0.032829634845256805, -0.018209146335721016, 0.28079986572265625, -0.008603362366557121, -0.24351458251476288, -0.25394153594970703, 0.18608355522155762, -0.09412500262260437, -0.15850017964839935, 0.006591880228370428, 0.13175232708454132, 0.1274328976869583, -0.11739782989025116, 0.16997309029102325, 0.04575734585523605, 0.05912639573216438, -0.037668634206056595, 0.004207793623209, -0.011447307653725147], [0.053770553320646286, -0.23905976116657257, -0.15342222154140472, -0.0009965652134269476, -0.0036271531134843826, 0.2092336267232895, 0.1699446588754654, 0.0814507007598877, -0.055506523698568344, 0.035194799304008484, 0.3786366879940033, -0.010317862965166569, -0.03240814059972763, -0.12157343327999115, -0.17963770031929016, 0.20709390938282013, 0.23771169781684875, -0.21832188963890076, 0.02543671801686287, -0.03867427259683609, -0.07997409999370575, -0.21169286966323853, -0.0628364086151123, 0.41678836941719055, 0.0024919535499066114, -0.37982237339019775, 0.10822204500436783, 0.000645389431156218, 0.020314617082476616, -0.13112837076187134, 0.02008228190243244, 0.03330753371119499, 0.09910628944635391, 0.2625367045402527, -0.0868293046951294, -0.08833502233028412, 0.16882257163524628, -0.2147367149591446, -0.009985431097447872, 0.23107822239398956, 0.20895197987556458, -0.035406846553087234, -0.17722077667713165, -0.0018554569687694311, 0.1548599749803543, 0.29413414001464844, -0.046308547258377075, -0.08622152358293533, 0.5023082494735718, 0.015142561867833138, 0.13465151190757751, 0.24879111349582672, 0.03734099119901657, -0.08496201038360596, -0.12033970654010773, 0.1251261979341507, 0.14308132231235504, -0.17186111211776733, 0.001503462321124971, 0.29109928011894226, 0.04593371972441673, -0.33871719241142273, -0.2115967720746994, 0.04195083677768707], [-0.1601555198431015, 0.10507240891456604, -0.02513892389833927, 0.21712732315063477, -0.2806686460971832, 0.13654881715774536, 0.07058744877576828, -0.03858668729662895, 0.023772016167640686, 0.0445658341050148, -0.09842488169670105, 0.23223695158958435, 0.0851922258734703, -0.1817416399717331, 0.14488089084625244, 0.0068947263062000275, -0.11431674659252167, -0.14045117795467377, -0.11053105443716049, 0.004909115843474865, 0.14017169177532196, 0.006987659726291895, -0.34214550256729126, -0.07946941256523132, -0.032307520508766174, 0.018383987247943878, -0.15935835242271423, 0.1859302520751953, 0.11296627670526505, 0.30561232566833496, 0.19163140654563904, -0.31836816668510437, -0.04570078104734421, 0.29494568705558777, -0.1913117915391922, -0.23577262461185455, -0.05202760547399521, 0.03330850973725319, 0.23649068176746368, 0.18069224059581757, -0.16296149790287018, -0.09030946344137192, -0.18746048212051392, 0.044564660638570786, -0.16752482950687408, 0.13788668811321259, 0.1659478098154068, 0.3272283375263214, -0.1894594430923462, -0.22446969151496887, 0.07633671909570694, 0.09711875021457672, 0.12070544064044952, 0.15036867558956146, 0.21652114391326904, 0.22182545065879822, 0.47684040665626526, -0.059819091111421585, -0.19288447499275208, 0.27572712302207947, 0.1919126957654953, 0.14331687986850739, 0.16336365044116974, 0.013878646306693554], [0.2771162688732147, 0.29338687658309937, 0.0006032478413544595, -0.10879001021385193, -0.4053959548473358, 0.12663660943508148, -0.17594937980175018, -0.26782482862472534, 0.1548769176006317, 0.16501149535179138, -0.4222710430622101, 0.17863808572292328, -0.1469116061925888, -0.0740608274936676, -0.15185676515102386, -0.01973603293299675, 0.3194158375263214, -0.08055425435304642, -0.050412826240062714, 0.033913712948560715, -0.14322412014007568, 0.15331244468688965, -0.09162351489067078, 0.16799387335777283, -0.1667393296957016, -0.053097546100616455, 0.07659586519002914, 0.3658662438392639, -0.1166270524263382, 0.014850779436528683, 0.33073660731315613, -0.14555613696575165, -0.13994233310222626, -0.1347045749425888, 0.2268124669790268, 0.082546666264534, -0.3100156784057617, -0.14827463030815125, 0.1191050335764885, 0.1624450832605362, -0.21018832921981812, 0.17731191217899323, -0.2035333812236786, -0.0465465784072876, 0.1785101443529129, -0.04839971289038658, -0.09491507709026337, 0.017002355307340622, 0.06865181773900986, 0.2908605635166168, -0.10252956300973892, 0.03763938322663307, 0.1046324148774147, -0.01777445338666439, -0.14076827466487885, -0.02764424867928028, -0.2514459490776062, -0.23789188265800476, -0.04709307476878166, -0.08676301687955856, -0.12109700590372086, -0.1542154848575592, -0.06479577720165253, -0.0036948351189494133], [-0.18192847073078156, -0.09246865659952164, -0.24482499063014984, -0.26570072770118713, -0.06419689208269119, -0.20980913937091827, 0.11061935126781464, -0.07995732128620148, -0.2917954921722412, 0.007859327830374241, -0.1942538470029831, 0.09943442046642303, -0.047611482441425323, 0.11663854867219925, -0.034747619181871414, -0.008988402783870697, -0.03396645188331604, -0.16639718413352966, 0.1029822826385498, 0.0930972471833229, -0.029201902449131012, 0.11676815897226334, -0.004898896906524897, -0.17677922546863556, 0.20840558409690857, 0.34436115622520447, 0.1646098494529724, -0.19918301701545715, -0.12215466052293777, 0.2534167468547821, 0.029815470799803734, -0.10471358150243759, -0.23793792724609375, 0.25898972153663635, 0.24393297731876373, -0.2305280566215515, -0.16003824770450592, 0.014544086530804634, -0.08286313712596893, 0.02230266109108925, 0.039287667721509933, 0.15730050206184387, 0.3517282009124756, 0.11676737666130066, -0.0037922337651252747, 0.02886010706424713, -0.3940039575099945, 0.038474299013614655, 0.10735027492046356, -0.173662930727005, -0.07179180532693863, 0.3773808479309082, -0.16694819927215576, 0.14161813259124756, -0.3710100054740906, -0.1352221816778183, 0.23721978068351746, 0.035706788301467896, -0.08713561296463013, -0.0492313914000988, -0.021161943674087524, -0.33239978551864624, -0.0342661514878273, 0.184067964553833], [0.08368539065122604, 0.12405578047037125, -0.22655636072158813, -0.10722270607948303, -0.09391085803508759, -0.027311425656080246, 0.08152753114700317, -0.26624801754951477, 0.07637003809213638, -0.009248378686606884, -0.04285711795091629, -0.003555563511326909, 0.06237027421593666, -0.22315827012062073, -0.13499191403388977, 0.10517369955778122, 0.020500384271144867, -0.07314688712358475, 0.17243324220180511, 0.19663648307323456, -0.0018568808445706964, -0.15242569148540497, 0.05029744282364845, -0.03931846842169762, -0.029540857300162315, 0.03835057094693184, 0.05285022407770157, -0.07567267119884491, -0.038115184754133224, 0.011487007141113281, -0.02190360613167286, 0.014726024121046066, -0.1510191708803177, 0.20998333394527435, -0.1342313289642334, 0.2595992386341095, 0.2967624366283417, 0.007555454503744841, -0.2931033968925476, -0.17570117115974426, 0.2955056428909302, -0.010397464036941528, -0.021802902221679688, 0.11703956127166748, -0.20007532835006714, -0.10266652703285217, 0.16899655759334564, 0.09965566545724869, 0.018382875248789787, 0.19145892560482025, -0.4528719186782837, -0.14133386313915253, 0.11374696344137192, 0.21427547931671143, -0.04456425458192825, -0.18679462373256683, -0.2105749249458313, -0.14751234650611877, -0.21916286647319794, 0.40622055530548096, 0.0889747217297554, 0.3020527958869934, 0.08099052309989929, 0.5760014057159424], [-0.2753349542617798, -0.015342437662184238, 0.00013512279838323593, -0.06193023920059204, -0.06798219680786133, 0.1286705583333969, 0.12327473610639572, 0.17867253720760345, -0.19893856346607208, -0.23859688639640808, -0.03396570309996605, -0.25748106837272644, 0.07308313250541687, -0.010525071993470192, -0.13350677490234375, -0.4967229664325714, 0.14594560861587524, 0.10988575965166092, 0.3493662178516388, -0.14941078424453735, 0.045454300940036774, 0.10223908722400665, -0.044268760830163956, -0.1776394098997116, -0.19411912560462952, 0.006496273912489414, -0.13151100277900696, -0.02362176962196827, 0.02502860501408577, 0.07085561752319336, -0.13632558286190033, 0.08603373169898987, -0.17739619314670563, -0.06794071942567825, -0.19761131703853607, -0.10230447351932526, 0.05403353273868561, 0.1258160024881363, 0.3148655593395233, -0.16141201555728912, 0.044906117022037506, 0.27246469259262085, -0.2764095366001129, -0.0872233510017395, 0.17214079201221466, 0.4449231028556824, 0.10307113081216812, 0.1771928071975708, -0.08365904539823532, 0.2132689356803894, -0.344576895236969, 0.21232932806015015, 0.07117583602666855, -0.29133063554763794, 0.02471950463950634, -0.0386308990418911, 0.016644906252622604, -0.09176082909107208, 0.09527957439422607, -0.03362205624580383, -0.29747793078422546, -0.03827836737036705, -0.05794018134474754, 0.16393108665943146], [0.3613818287849426, -0.030718255788087845, 0.0449608713388443, -0.23683886229991913, -0.038626573979854584, -0.028073415160179138, 0.045192841440439224, 0.20214180648326874, 0.13436166942119598, 0.2606011927127838, -0.3865617513656616, -0.0441114716231823, -0.02549240179359913, 0.10927225649356842, 0.17950911819934845, 0.01240258477628231, 0.17848935723304749, 0.17263199388980865, -0.07542520016431808, 0.07541515678167343, 0.16382236778736115, 0.389885812997818, 0.0658002570271492, -0.03334750607609749, 0.2801516056060791, -0.11876149475574493, -0.07238113135099411, -0.049827657639980316, 0.2057218998670578, -0.1632772535085678, 0.010893111117184162, -0.037791360169649124, 0.18331614136695862, 0.33545470237731934, -0.19501157104969025, -0.25538647174835205, 0.14479824900627136, 0.05404677987098694, -0.04949311539530754, 0.21671162545681, 0.10969273746013641, -0.015221966430544853, -0.1363222897052765, -0.029274584725499153, 0.20745015144348145, -0.16432537138462067, 0.19646304845809937, 0.03397843986749649, 0.02548324316740036, -0.11175498366355896, 0.12138024717569351, 0.08998697251081467, -0.3952183723449707, -0.28166264295578003, 0.1427498757839203, -0.23955664038658142, 0.06079091131687164, 0.019408762454986572, 0.14627470076084137, -0.05104441195726395, -0.1295294612646103, 0.1201125830411911, 0.015705956146121025, 0.426276296377182], [-0.15126141905784607, -0.19323353469371796, 0.11321897059679031, 0.18946473300457, -0.15614672005176544, 0.23666508495807648, -0.07827487587928772, 0.20715531706809998, -0.06513380259275436, -0.20833751559257507, -0.05258765071630478, 0.28267335891723633, -0.33969584107398987, -0.13575011491775513, -0.055752865970134735, -0.012757398188114166, -0.01950935088098049, 0.3400726616382599, -0.011229616589844227, 0.09134231507778168, -0.16427525877952576, -0.006413011811673641, 0.09024200588464737, 0.021011536940932274, 0.08569946885108948, -0.24005360901355743, 0.27241477370262146, 0.21360881626605988, -0.30301323533058167, 0.2690357565879822, -0.09982630610466003, 0.09199415892362595, 0.39436355233192444, 0.2557010352611542, -0.11100904643535614, -0.19969184696674347, -0.11279664933681488, 0.015285039320588112, 0.009160143323242664, -0.10891156643629074, 0.07723655551671982, -0.04528528079390526, -0.0002983812300954014, -0.043826695531606674, -0.15925928950309753, -0.08268307894468307, -0.04433498531579971, -0.11972223222255707, -0.009008762426674366, -0.0924898236989975, -0.2904958426952362, 0.08676029741764069, -0.0006194954621605575, -0.037213731557130814, 0.11514963209629059, -0.47184643149375916, -0.22363214194774628, 0.0488303117454052, -0.14521163702011108, 0.02147645317018032, -0.004365802276879549, -0.14974209666252136, 0.38229653239250183, -0.1728096902370453]], "mlp_extractor.policy_net.2.bias": [0.0, 0.0, 0.0, 0.0, 0.0, 0.0, 0.0, 0.0, 0.0, 0.0, 0.0, 0.0, 0.0, 0.0, 0.0, 0.0, 0.0, 0.0, 0.0, 0.0, 0.0, 0.0, 0.0, 0.0, 0.0, 0.0, 0.0, 0.0, 0.0, 0.0, 0.0, 0.0, 0.0, 0.0, 0.0, 0.0, 0.0, 0.0, 0.0, 0.0, 0.0, 0.0, 0.0, 0.0, 0.0, 0.0, 0.0, 0.0, 0.0, 0.0, 0.0, 0.0, 0.0, 0.0, 0.0, 0.0, 0.0, 0.0, 0.0, 0.0, 0.0, 0.0, 0.0, 0.0], "mlp_extractor.value_net.0.weight": [[0.1758015900850296, -0.05100567266345024, -0.08760448545217514, 