{"mlp_extractor.policy_net.0.weight": [[-0.010766624473035336, -0.007972531020641327, -0.007619652897119522, 0.0029127895832061768, 0.0001837015151977539, -0.009520500898361206, -0.0014545023441314697, -0.0018287599086761475], [0.006395421922206879, -0.002480551600456238, 0.0045922547578811646, -0.0011044144630432129, 0.0033606290817260742, 0.005614638328552246, 0.005729794502258301, -0.002881191670894623], [0.01107555627822876, 0.011769048869609833, 0.008254267275333405, 0.0012014955282211304, 0.00933411717414856, 0.014645859599113464, -0.01150009036064148, 0.004507541656494141], [-0.008808329701423645, -0.012295350432395935, -0.008385956287384033, 0.004349991679191589, -0.0004409998655319214, -0.0146770179271698, 0.002756774425506592, -0.007560074329376221], [2.664327621459961e-05, -0.005676776170730591, 0.002363234758377075, -0.0010405927896499634, 0.008508503437042236, 0.004075825214385986, 0.0010115504264831543, -0.0023867785930633545], [0.007833493873476982, -0.0026752352714538574, 0.005419010296463966, -0.004003763198852539, -0.0024452731013298035, -0.0006819069385528564, 0.006875395774841309, 9.772926568984985e-05], [-0.0024718865752220154, 0.0032837390899658203, -0.0068946778774261475, 0.0010240525007247925, -0.008064240217208862, -0.004207812249660492, 0.005769997835159302, 0.0050620585680007935], [0.01276686042547226, 0.008843109011650085, 0.007969796657562256, -0.0011646151542663574, -0.0026688575744628906, 0.017665162682533264, 0.0027425289154052734, 0.00774490088224411], [-0.0011407136917114258, 0.008874770253896713, -0.004057556390762329, -0.00025079213082790375, -0.003529489040374756, -0.0018343478441238403, -0.007103651762008667, 0.0029274001717567444], [0.004350036382675171, -0.0026476774364709854, 0.006358027458190918, -0.0014641918241977692, 0.006022244691848755, 0.007336467504501343, 0.003714323043823242, -0.0031242109835147858], [-0.004620552062988281, 0.002320021390914917, -0.005169287323951721, 0.0008489638566970825, -0.006247341632843018, -0.005742430686950684, 0.0009748637676239014, -0.0014106184244155884], [0.00037561357021331787, -0.003611847758293152, 0.005471706390380859, -0.0012997277081012726, 0.007638752460479736, 0.0034016966819763184, 0.0006591379642486572, -0.000697404146194458], [-0.00941744726151228, -0.0005734974984079599, -0.008934922516345978, 0.0018398165702819824, -0.004871547222137451, -0.01289290189743042, -0.003943145275115967, 0.000457078218460083], [0.00017933547496795654, -0.0007175952196121216, -0.0017419010400772095, 0.006949394941329956, 0.0019010547548532486, 0.007768094539642334, 0.003047078847885132, 0.0077301859855651855], [0.00522463396191597, -0.0012669079005718231, 0.006049096584320068, -0.00117434561252594, 0.007022827863693237, 0.012628942728042603, 0.003937274217605591, 0.0015032365918159485], [-0.013435740023851395, -0.008965745568275452, -0.01348191499710083, 0.0010908246040344238, -0.0063130855560302734, -0.020383566617965698, 0.008281141519546509, -0.007023409008979797], [-0.001973375678062439, 0.0030297189950942993, -0.004580587148666382, 0.0025680065155029297, -0.0032778680324554443, 0.0020139645785093307, -0.003791235387325287, 0.0031800121068954468], [-0.009086072444915771, -0.014902770519256592, -0.004290010780096054, -0.00014087557792663574, -0.007069293409585953, -0.006016910076141357, 0.008986562490463257, -0.0035830214619636536], [-0.010481566190719604, -0.00794827938079834, -0.011253908276557922, 0.001552969217300415, -0.00031985342502593994, -0.007082641124725342, 0.007165491580963135, -0.0009126812219619751], [-0.011539340019226074, -0.0005240887403488159, -0.007383272051811218, 0.0006916224956512451, 0.0015242388471961021, -0.004178408533334732, -0.001544356346130371, 0.00014691054821014404], [0.00798332691192627, 0.00042038410902023315, 0.006564870476722717, -0.0016180574893951416, 0.005099236965179443, 0.008941501379013062, 0.004268936812877655, -0.0014397650957107544], [-0.013269603252410889, -0.002084210515022278, -0.008823484182357788, -0.0007451772689819336, -0.004736717790365219, -0.0152178555727005, -0.0019384324550628662, -0.0007416605949401855], [0.0069216713309288025, 0.0013290587812662125, 0.006616115570068359, -0.0024660229682922363, 0.006374061107635498, 0.010763555765151978, 0.0026305168867111206, -0.000989675521850586], [0.008512243628501892, -0.00029858946800231934, 0.007380306720733643, -0.0016914904117584229, 0.004904508590698242, 0.008376449346542358, 0.0030185729265213013, -0.002590462565422058], [-0.01274796947836876, -0.013017002493143082, -0.008420020341873169, 0.00127372145652771, -0.003666907548904419, -0.010477259755134583, 0.006644725799560547, -0.004820585250854492], [0.011434316635131836, 0.006101422011852264, 0.004105646163225174, 0.001605689525604248, -0.002812683582305908, 0.010725915431976318, -0.003453325480222702, 0.0024320539087057114], [-0.0038989856839179993, -0.00456961989402771, 0.0011706352233886719, 0.0014731884002685547, 0.008823245763778687, 0.0027362406253814697, -0.0068274736404418945, -0.002489805221557617], [0.004986435174942017, 0.007706925272941589, 0.0012238472700119019, -0.0005463659763336182, -0.005272775888442993, -0.0005212724208831787, -0.002127736806869507, 0.001680910587310791], [0.004211366176605225, 0.003821476362645626, -0.00029918551445007324, -0.0009225010871887207, -0.00885966420173645, 0.0006339848041534424, 0.002851247787475586, 0.0028343871235847473], [-0.01208806224167347, -0.006952386349439621, -0.008188337087631226, 0.0005653500556945801, -0.006465926766395569, -0.014960364438593388, 0.0042992085218429565, -0.001247994601726532], [-0.0058776140213012695, 0.001453503966331482, -0.006553947925567627, 0.0016311556100845337, -0.005945056676864624, -0.010416686534881592, -0.00586363673210144, 0.0007126033306121826], [-0.015458017587661743, -0.005658283829689026, -0.013182908296585083, 0.00015228986740112305, -0.0029222294688224792, -0.024463802576065063, 9.234249591827393e-05, -0.0075997281819581985], [0.01048336923122406, 0.0037472881376743317, 0.006939299404621124, -0.0013815760612487793, 0.00035510212182998657, 0.0074273645877838135, 0.0034902989864349365, 0.0019491501152515411], [0.006244882941246033, 0.00011330842971801758, 0.006957985460758209, -0.0021678395569324493, 0.005016148090362549, 0.006138741970062256, -0.008153844624757767, -0.0016282200813293457], [0.0032074451446533203, -0.004256121814250946, 0.002635747194290161, -0.0031852424144744873, -0.0029110610485076904, -0.00344076007604599, 0.005803912878036499, -0.004412921145558357], [0.01052385289222002, 0.008051127195358276, 0.006956905126571655, -0.0005660951137542725, 0.002888813614845276, 0.012026190757751465, -0.0008036196231842041, -0.0009121745824813843], [-0.008945286273956299, -0.00031118933111429214, -0.0064398497343063354, 0.0008929669857025146, -0.0023758262395858765, -0.0057921335101127625, -0.004182636737823486, 3.239139914512634e-05], [0.00680166482925415, -0.00598125159740448, 0.00552704930305481, -0.00030300021171569824, 0.002193346619606018, -0.00032804161310195923, 0.0010518431663513184, -0.006078854203224182], [0.0007797703146934509, -0.004395745694637299, 0.002946227788925171, -0.0018544979393482208, 0.005648881196975708, -0.0003644302487373352, 0.0023986846208572388, -0.0029824599623680115], [-0.008467722684144974, 0.0022817403078079224, -0.0070393383502960205, 0.00047209858894348145, -0.005065619945526123, -0.010796356946229935, -0.0021333396434783936, 0.00175514817237854], [-0.012818120419979095, -0.011433497071266174, -0.009529553353786469, 0.0004894733428955078, -0.0017442405223846436, -0.009753067046403885, 0.003774084150791168, -0.0014747679233551025], [0.004522442817687988, 0.009293824434280396, -0.0007099509239196777, -0.0008842349052429199, -0.00608140230178833, 0.00033211708068847656, -0.0032355934381484985, 0.0026923418045043945], [0.005046728998422623, 0.00015918537974357605, 0.001216202974319458, -0.000931859016418457, -0.000982820987701416, -0.0065070390701293945, 0.00464242696762085, -0.003752976655960083], [0.012236744165420532, 0.011578947305679321, 0.006857395172119141, -0.004752933979034424, -0.0006632581353187561, 0.00552445650100708, -0.0027976632118225098, -2.0265579223632812e-06], [0.01313619315624237, 0.008052963763475418, 0.008148692548274994, 0.0012909770011901855, 0.00269395112991333, 0.01625773310661316, -0.006052881479263306, 0.007399633526802063], [0.013993293046951294, 0.011488884687423706, 0.009157717227935791, -0.0009645819664001465, 0.0009353458881378174, 0.010064590722322464, -0.004480980336666107, 0.0017872750759124756], [0.00906875729560852, 0.000518107321113348, 0.008341878652572632, -0.0004814565181732178, 0.0068073272705078125, 0.012348338961601257, 0.0018508285284042358, -0.0006829835474491119], [-0.0016341730952262878, -0.009099438786506653, 0.0028623342514038086, -0.0004468560218811035, 0.007269561290740967, -0.0005656513385474682, -0.0006360560655593872, -0.0027037709951400757], [-0.0023067742586135864, 0.005328387022018433, -0.0038724392652511597, 1.996755599975586e-05, -0.005855858325958252, -0.005539577454328537, -0.0002446770668029785, 0.003720305860042572], [0.009404778480529785, 0.013310492038726807, 0.005919560790061951, -0.0015983283519744873, 0.0022594332695007324, 0.010952521115541458, -0.005665570497512817, 0.007605273276567459], [-0.013537824153900146, -0.01017218828201294, -0.010245352983474731, 0.00029838085174560547, -0.0019567012786865234, -0.008577108383178711, 0.00496191531419754, -0.0011747293174266815], [0.011256802827119827, 0.0014017969369888306, 0.008803784847259521, -0.0013380497694015503, 0.0005451217293739319, 0.010324299335479736, -0.0034193992614746094, -0.0018833428621292114], [0.001004546880722046, -0.005694817751646042, 0.00403594970703125, -0.0012202132493257523, 0.005954563617706299, 0.0040580034255981445, 0.006881982088088989, 0.0002574324607849121], [-0.008881129324436188, -0.00033224374055862427, -0.007767140865325928, 0.0016350746154785156, -0.006669923663139343, -0.011422812938690186, -0.0010686367750167847, 0.003689706325531006], [-0.011512592434883118, -0.0008803904056549072, -0.009741440415382385, 6.699562072753906e-05, -0.006615966558456421, -0.01339101791381836, -0.0012914985418319702, -0.0007140412926673889], [0.0049084872007369995, -4.618242383003235e-05, 0.006349518895149231, -0.0013152137398719788, 0.007655203342437744, 0.00819253921508789, -8.488446474075317e-05, -0.003573119640350342], [0.009941089898347855, 6.183236837387085e-05, 0.008315028622746468, -0.0016651153564453125, 0.0003124438226222992, 0.006193220615386963, 0.000805586576461792, -0.004015333950519562], [-0.0057218074798583984, -0.008965536952018738, -0.003372184932231903, -0.0002116560935974121, 0.0009751617908477783, -0.003473833203315735, 0.011585131287574768, 0.0008446425199508667], [0.006501637399196625, -0.002431947737932205, 0.0030430778861045837, -0.0034203529357910156, -0.00015531480312347412, -0.0015952736139297485, 0.003714919090270996, -0.0013930797576904297], [0.0039020851254463196, 0.006256602704524994, -0.00040033459663391113, 0.0008832961320877075, -0.00789707899093628, 0.003421097993850708, 0.0010339021682739258, 0.006170529872179031], [0.0116177499294281, 0.007290109992027283, 0.0079398974776268, -0.0018272697925567627, -0.0001316368579864502, 0.0029848814010620117, 0.00040468573570251465, 0.0021350234746932983], [-0.012865066528320312, -0.008794641122221947, -0.0065869297832250595, 0.00044280290603637695, -0.0005602538585662842, -0.003747798502445221, 0.001993417739868164, -0.0009415373206138611], [0.006932765245437622, 0.0035654455423355103, 0.003064379096031189, -0.0021252334117889404, 8.518993854522705e-05, -0.003131270408630371, 0.001428365707397461, -0.0032438114285469055], [0.0029034316539764404, 0.005224765278398991, -0.004229307174682617, 0.0016774125397205353, -0.006069600582122803, -0.0007986575365066528, -0.0017678625881671906, 0.0037757456302642822]], "mlp_extractor.policy_net.0.bias": [0.0064106956124305725, -0.00030745938420295715, -0.0019616037607192993, 0.00018554367125034332, 0.006142796948552132, -0.0012862421572208405, -0.0040992069989442825, -0.007115516811609268, -0.004458319395780563, 0.003101503476500511, -0.0038387253880500793, 0.0061164842918515205, -2.1599233150482178e-05, 0.0031705275177955627, 0.0036987140774726868, 0.0017967000603675842, -0.0029412265866994858, 0.001465875655412674, 0.005957774817943573, 0.007790990173816681, 0.0008249282836914062, 0.003677055239677429, 0.0018916483968496323, -0.0008464381098747253, 0.005712755024433136, -0.009604871273040771, 0.004933210089802742, -0.006986576598137617, -0.007355870679020882, 0.002632446587085724, -0.0023354440927505493, 0.0037242919206619263, -0.003850232809782028, 0.002016320824623108, 0.000590108335018158, -0.008337538689374924, 0.001416294020600617, -0.0018223728984594345, 0.003671436570584774, 0.0009041894227266312, 0.0077232010662555695, -0.006812524050474167, -0.007324643433094025, -0.00578264519572258, -0.007794767618179321, -0.0075744204223155975, 0.00028431788086891174, 0.0056450702250003815, -0.003132026642560959, -0.006117373704910278, 0.0067737288773059845, -0.008595362305641174, 0.0061130039393901825, 0.0004818961024284363, 0.0019241105765104294, 0.001847684383392334, -0.003437670413404703, 0.007501079700887203, -0.006000637076795101, -0.005947816651314497, -0.004121438600122929, 0.008155956864356995, -0.007243199273943901, -0.0076877702958881855], "mlp_extractor.policy_net.2.weight": [[0.0029981881380081177, 0.004182092845439911, -0.0024974048137664795, -0.004211455583572388, 0.003940097987651825, 0.0015709400177001953, -0.002839118242263794, -0.003490641713142395, 0.0012762248516082764, 0.0056389570236206055, -0.004105590283870697, 0.001127868890762329, -0.007696717977523804, -0.0017193406820297241, 0.007334977388381958, -0.002373814582824707, 0.000822216272354126, -0.0017280243337154388, -0.0017874091863632202, -0.0019408464431762695, -0.00024110078811645508, 0.0015630722045898438, 0.007517918944358826, 0.004021957516670227, -0.000998660922050476, -0.004518628120422363, 0.0005984082818031311, -0.006406232714653015, -0.0018707215785980225, -0.0008429288864135742, -0.004487127065658569, -0.000873863697052002, 0.00648103654384613, 0.003669891506433487, 0.0025842729955911636, -0.004844642244279385, 0.003377847373485565, 0.0027138441801071167, 0.0007770806550979614, 0.0033228397369384766, -0.0017199497669935226, -0.002352684736251831, -0.0012509990483522415, 0.00599360466003418, 0.0008975118398666382, -0.002353876829147339, -0.002243228256702423, -0.00188542902469635, 0.0009261965751647949, -0.0006132125854492188, -0.01070864126086235, -0.0007729381322860718, 0.00598454475402832, -0.00466504693031311, -0.0009062141180038452, 0.007325083017349243, 0.0006871670484542847, -0.004600808024406433, -0.002083718776702881, -0.006514854729175568, -0.00042094290256500244, 0.004595458507537842, -0.0034869834780693054, -0.006634421646595001], [0.0014847293496131897, 0.010905399918556213, -0.005619466304779053, 0.0003176641184836626, 0.0011382102966308594, 0.007495008409023285, -0.0012433826923370361, -0.006399780511856079, -0.005726628005504608, 0.010877996683120728, 0.0009915828704833984, -0.00243198499083519, -0.008809849619865417, -0.009937429800629616, 0.007253855466842651, 0.002181500196456909, -0.0048361606895923615, 0.006372734904289246, -0.004778444766998291, -0.0008141174912452698, 0.003614068031311035, 0.0030511021614074707, 0.00936342403292656, 0.008091859519481659, 0.0012528970837593079, -0.002374861389398575, -0.003652229905128479, -0.004961177706718445, -0.0009681284427642822, 0.00025844573974609375, -0.007696516811847687, 0.004452034831047058, 0.006910756230354309, -0.0026653558015823364, 0.00832202285528183, -0.008972972631454468, 0.00027585774660110474, 0.005546271800994873, 0.0016063898801803589, 0.0005741715431213379, 0.003013715147972107, -0.0097518190741539, 0.002511054277420044, 0.001548871397972107, -0.003253370523452759, -0.0065674930810928345, 0.00018988922238349915, -0.004904739558696747, -0.004261299967765808, -0.0008725821971893311, -0.006645768880844116, 0.0004961159429512918, 0.007504984736442566, -0.009486943483352661, 0.002496391534805298, 0.011886179447174072, 0.00047916173934936523, 0.0016750991344451904, 1.9103288650512695e-05, -0.009208858013153076, -0.0017928779125213623, 0.003917038440704346, 0.0015281140804290771, -0.00697234645485878], [0.0015850886702537537, 0.006079867482185364, -0.0037780404090881348, -0.0012110881507396698, 0.002856433391571045, 0.0030921995639801025, -0.0021263733506202698, -0.0029601678252220154, -0.0026400089263916016, 0.007207855582237244, -0.001722872257232666, -0.00036767125129699707, -0.006908446550369263, -0.004048354923725128, 0.005761861801147461, 0.0006681233644485474, -0.0013533085584640503, 0.0011764722876250744, -0.0021969079971313477, -0.0026109814643859863, 0.0002101808786392212, 0.001997828483581543, 0.005961373448371887, 0.004783652722835541, 0.0012160465121269226, -0.003244072198867798, -0.0008983314037322998, -0.0052108801901340485, -0.0005285553634166718, 0.0004733279347419739, -0.004776284098625183, 0.002092719078063965, 0.005145429167896509, 0.0011785104870796204, 0.0051583051681518555, -0.003611236810684204, 0.0012996494770050049, 0.004892334342002869, 0.002018749713897705, 0.0008610188961029053, 0.0008484423160552979, -0.00438053160905838, 0.0013071373105049133, 0.003968335688114166, -0.0015028715133666992, -0.004508852958679199, -0.001479804515838623, -0.002480804920196533, -3.487616777420044e-05, -0.0021132007241249084, -0.007518276572227478, 0.0005786269903182983, 0.00626102089881897, -0.004298418760299683, 0.00041931867599487305, 0.006464242935180664, 0.0006546080112457275, -0.0020612808875739574, -0.0004621148109436035, -0.006101515144109726, -0.0010536983609199524, 0.003952581435441971, -0.0013674795627593994, -0.005702704191207886], [0.0021056607365608215, -0.0027087777853012085, 0.002070873975753784, -0.005524665117263794, 0.0036551952362060547, -0.0029733628034591675, -0.002593323588371277, -0.002451094798743725, 0.0037835014518350363, -0.0014876723289489746, -0.0055680423974990845, 0.0030764490365982056, -0.003344923257827759, 0.004016615450382233, 0.003210008144378662, -0.004128489643335342, 0.002563983201980591, -0.006152782589197159, 0.0005044713616371155, 0.0005086064338684082, -5.728006362915039e-05, -0.0004456639289855957, 0.003551587462425232, -0.0007459819316864014, -0.002232968807220459, -0.002512305974960327, 0.0037747621536254883, -0.003466576337814331, -0.0030397996306419373, -0.0021448684856295586, -0.00037223100662231445, -0.0040296465158462524, 0.0031239837408065796, 0.0053653717041015625, -0.003336109220981598, -0.002638399600982666, 0.0029089897871017456, -0.0024268077686429024, -0.0007544159889221191, 0.0023039132356643677, -0.0034143836237490177, 0.002259373664855957, -0.003827817738056183, 0.0036698728799819946, 0.0034912656992673874, 0.0024460405111312866, 0.0004933103919029236, 0.0017851144075393677, -3.552064299583435e-05, 0.0026535391807556152, -0.004272744059562683, -0.0020488500595092773, 0.001681700348854065, -0.0009491443634033203, -0.0038746297359466553, 0.0033088214695453644, 0.0005248785018920898, -0.0031518936157226562, -0.0031024664640426636, -0.0028848648071289062, 0.0009763315320014954, 0.0021642521023750305, -0.004854366183280945, -0.003765292465686798], [0.0004649162292480469, -0.002335160970687866, 0.003225982189178467, 0.004327550530433655, -0.0036454498767852783, 1.751631498336792e-05, 0.003413856029510498, 0.0006593465805053711, 0.001195669174194336, -0.003909975290298462, 0.003705523908138275, 0.0015707314014434814, 0.002211272716522217, 0.0015276223421096802, -0.0018794089555740356, -0.0008331835269927979, -0.0012329667806625366, 0.0024704858660697937, -0.0016728825867176056, -0.0003135502338409424, -0.0007206052541732788, 0.0002074912190437317, -0.004516720771789551, 5.319714546203613e-06, -0.002172499895095825, 0.006599783897399902, -0.0019754767417907715, 0.004545256495475769, 0.0012107044458389282, -0.003429979085922241, 0.0031712353229522705, -0.002393782138824463, -0.00035074353218078613, -0.0034191906452178955, -0.0014881342649459839, 0.0018406026065349579, 1.8171966075897217e-05, -0.0011995434761047363, -0.0021947622299194336, -0.0004525110125541687, -0.0011399835348129272, 0.004052601754665375, -0.0009486973285675049, -0.003372587263584137, 0.004401234909892082, 0.0022141486406326294, 0.0004587322473526001, -0.0018932223320007324, -0.001871846616268158, 0.005641106516122818, 0.001964421011507511, -0.0005145519971847534, -0.0002739429473876953, 0.00180816650390625, -0.0006673932075500488, -0.005264414474368095, -0.0011321678757667542, -0.0020096078515052795, 0.001202404499053955, 0.0020110979676246643, -9.18954610824585e-05, -0.003231033682823181, 0.000592496246099472, 0.003951616585254669], [-0.0033219903707504272, -0.0031956136226654053, 0.0033795833587646484, 0.002957560122013092, -0.002489626407623291, -0.0015238672494888306, 0.0013553649187088013, 0.0029043108224868774, -0.0030646324157714844, -0.0032565295696258545, 0.003844931721687317, -0.0006817281246185303, 0.007383942604064941, 0.00028873980045318604, -0.005314614623785019, 0.00048194825649261475, -0.0015090405941009521, 0.0021328553557395935, 0.0006463155150413513, 0.0029987990856170654, 0.000685572624206543, -0.0011635124683380127, -0.0052863359451293945, -0.0035656988620758057, -0.0004593580961227417, 0.003715846687555313, 0.00019276142120361328, 0.004551183432340622, 0.00012139976024627686, -0.0005943179130554199, 0.003677845001220703, 0.0010870397090911865, -0.005613774061203003, -0.004085063934326172, -0.0022736191749572754, 0.0027189701795578003, -0.0021982789039611816, -0.0026395954191684723, -0.0002929270267486572, -0.0030006319284439087, 0.001940608024597168, -0.0004964470863342285, -0.0007658824324607849, -0.005800217390060425, -0.001470118761062622, 0.0016600936651229858, 0.00229761004447937, 0.002559870481491089, -0.001955479383468628, 0.0006493180990219116, 0.008798172697424889, 0.0005755200982093811, -0.0047383904457092285, 0.001875549554824829, 0.001437366008758545, -0.004196688532829285, -0.001230396330356598, 0.004581719636917114, 0.0004146173596382141, 0.004535108804702759, -0.0015648305416107178, -0.0027550160884857178, 0.002378687262535095, 0.005193442106246948], [-0.0025543272495269775, -0.0034608542919158936, 0.0029556304216384888, 0.003637246787548065, -0.003428041934967041, -0.0011956319212913513, 0.0024269074201583862, 0.0028736162930727005, -0.0015354752540588379, -0.004305243492126465, 0.003982141613960266, -0.0003600865602493286, 0.007138043642044067, 0.0010049864649772644, -0.005801886320114136, 0.0008443295955657959, -0.0013245046138763428, 0.0021323412656784058, 0.0010627657175064087, 0.0027057528495788574, 0.0008120164275169373, -0.0014589130878448486, -0.006172008812427521, -0.0032856762409210205, -0.00048108771443367004, 0.004226658493280411, -0.0005580855067819357, 0.005575820803642273, 0.00085487961769104, -0.0004889443516731262, 0.0037749409675598145, 0.0003632456064224243, -0.005520973354578018, -0.003919955343008041, -0.0027489066123962402, 0.003312021493911743, -0.0026433616876602173, -0.0028953775763511658, -0.0008295252919197083, -0.0027530044317245483, 0.0013971328735351562, 0.0011110007762908936, -3.965198993682861e-05, -0.006177693605422974, -0.000443384051322937, 0.002275734208524227, 0.0023809075355529785, 0.0019398629665374756, -0.0017229914665222168, 0.0013258308172225952, 0.009080678224563599, 7.900595664978027e-05, -0.00501367449760437, 0.002563178539276123, 0.0011026263236999512, -0.005706092342734337, -0.001100778579711914, 0.004170611500740051, 0.0014031082391738892, 0.005267933011054993, -0.00038889050483703613, -0.0038974881172180176, 0.0030625956133008003, 0.006088614463806152], [-0.003197997808456421, -0.007949933409690857, 0.0028712712228298187, 0.00269143283367157, -0.004615813493728638, -0.0036409273743629456, 0.00360923632979393, 0.004853382706642151, 0.003718651831150055, -0.010562151670455933, 0.0023589134216308594, -0.0010024309158325195, 0.007950961589813232, 0.005879834294319153, -0.009116530418395996, 0.001705363392829895, 0.001865193247795105, -0.0016448803944513202, 0.003516972064971924, 0.0012375712394714355, -0.0006457269191741943, -0.0037784576416015625, -0.008059114217758179, -0.006098300218582153, 0.0004098936915397644, 0.004657864570617676, 0.00024773553013801575, 0.007934391498565674, 0.002858400344848633, 0.0013741552829742432, 0.00640261173248291, -0.0022950023412704468, -0.0066710710525512695, -0.0007944740355014801, -0.005322923418134451, 0.007118195295333862, -0.0035465359687805176, -0.004452347755432129, -0.0020584166049957275, -0.0027398914098739624, -0.002078711986541748, 0.007685493677854538, 0.0016438961029052734, -0.0037568509578704834, 0.0011308789253234863, 0.006510645151138306, 0.002161741256713867, 0.0024885237216949463, 0.0012619048357009888, 0.0016867518424987793, 0.01025380939245224, 0.0003795921802520752, -0.00897398591041565, 0.007318466901779175, -0.002151697874069214, -0.009267747402191162, 0.001239966368302703, 0.0025557726621627808, 0.0022027790546417236, 0.00934264063835144, 0.003180265426635742, -0.006424382328987122, 0.003178834915161133, 0.0076889097690582275], [-0.003049097955226898, 0.008967727422714233, -0.004191309213638306, 0.0044529736042022705, -0.004110872745513916, 0.00839577242732048, 0.0024171918630599976, 4.693865776062012e-05, -0.00417211651802063, 0.005191728472709656, 0.006461672484874725, -0.007357984781265259, -0.004908919334411621, -0.011623039841651917, 0.0011020060628652573, 0.00396294891834259, -0.004208408296108246, 0.009861767292022705, -0.007280636578798294, -0.005159921944141388, 0.0015237033367156982, 0.0011964887380599976, 0.0018763542175292969, 0.006866574287414551, 0.0010140538215637207, 0.002973116934299469, -0.0069017671048641205, 0.0004588961601257324, 0.006174266338348389, 0.00020415335893630981, -0.0028647184371948242, 0.0038076117634773254, 0.005565941333770752, -0.0067319124937057495, 0.009601056575775146, -0.0002683401107788086, -0.0020323097705841064, 0.00633007287979126, -0.00016486644744873047, -0.0015058070421218872, 0.00131303071975708, -0.004806806333363056, 0.005480095744132996, 0.0032053887844085693, -0.001829981803894043, -0.003102898597717285, -0.0011940300464630127, -0.008741125464439392, -0.0012082159519195557, -0.0011936426162719727, -0.005597999319434166, 0.0066528767347335815, 0.0016795694828033447, -0.005774021148681641, 0.003602728247642517, 0.0023047402501106262, 0.0011272653937339783, -0.0003001391887664795, 0.003328293561935425, -0.00041187554597854614, -9.968876838684082e-05, -0.0009351074695587158, 0.00489826500415802, -0.0014128535985946655], [0.002114463597536087, 0.00756421685218811, -0.003517359495162964, -0.0008559525012969971, 0.0024459175765514374, 0.004525184631347656, -0.0019096285104751587, -0.004711560904979706, -0.003391306847333908, 0.007948353886604309, -0.00020241737365722656, -0.0009394437074661255, -0.006967261433601379, -0.006569340825080872, 0.006048485636711121, 0.0004290342330932617, -0.0023878738284111023, 0.003506392240524292, -0.0039024031721055508, -0.0013222768902778625, 0.0004658550024032593, 0.0043998658657073975, 0.005636930465698242, 0.005901094526052475, 0.0007643997669219971, -0.003055006265640259, -0.0016602873802185059, -0.00585358589887619, -0.001170322299003601, -0.00018934160470962524, -0.0045476555824279785, 0.003126084804534912, 0.005906194448471069, -0.001146167516708374, 0.005937255918979645, -0.005971550941467285, 0.0026771128177642822, 0.004072621464729309, 0.0008236095309257507, 0.002391219139099121, 0.0024108439683914185, -0.006609998643398285, -9.02712345123291e-05, 0.002443253993988037, -0.001512676477432251, -0.006082504987716675, -0.0024262666702270508, -0.003768831491470337, -0.0015508905053138733, -0.001116245985031128, -0.007723318412899971, 0.00024117901921272278, 0.0067819878458976746, -0.005646407604217529, 0.002891436219215393, 0.006891876459121704, -0.0008604824542999268, -0.0016815513372421265, -0.0013552457094192505, -0.007074430584907532, -0.0028533712029457092, 0.0052544474601745605, -0.001691821962594986, -0.0064261117950081825], [-0.0008359551429748535, -0.010343968868255615, 0.005939796566963196, -0.0005057156085968018, -0.0004318356513977051, -0.007715202867984772, 0.0008951723575592041, 0.006661728024482727, 0.0052675604820251465, -0.009161204099655151, -0.0010799318552017212, 0.0035974085330963135, 0.008969604969024658, 0.009882092475891113, -0.005936369299888611, -0.0035431385040283203, 0.004520028829574585, -0.006549760699272156, 0.004432395100593567, 0.0012910664081573486, -0.0037594884634017944, -0.0028803348541259766, -0.009134948253631592, -0.00776028074324131, -0.0025277063250541687, 0.0021682679653167725, 0.0038678795099258423, 0.004198819398880005, 0.00023332983255386353, -0.001412808895111084, 0.007139086723327637, -0.004555553197860718, -0.006687045097351074, 0.0025197453796863556, -0.00864875316619873, 0.00812762975692749, 0.00032979249954223633, -0.005219142884016037, -0.0013522319495677948, -0.0002858787775039673, -0.0031480491161346436, 0.008851466700434685, -0.0036063939332962036, -0.002086058259010315, 0.0035528503358364105, 0.006089240312576294, -0.0005359053611755371, 0.005419522523880005, 0.004231452941894531, 0.001039355993270874, 0.005212858319282532, -0.001327119767665863, -0.006272748112678528, 0.00813448429107666, -0.001920267939567566, -0.011525768786668777, -0.0012056082487106323, -0.002525314688682556, -0.00040520355105400085, 0.008406609296798706, 0.0007289275527000427, -0.0031748563051223755, -0.0022076070308685303, 0.007208939641714096], [-0.003811463713645935, -0.007734149694442749, 0.004256129264831543, 0.002360612154006958, -0.003813624382019043, -0.003732651472091675, 0.002771317958831787, 0.004734136164188385, 0.001887395977973938, -0.009448127821087837, 0.0028824582695961, -0.0006140768527984619, 0.008902639150619507, 0.0047404468059539795, -0.00897398591041565, 0.00036656856536865234, 0.000920712947845459, -0.0007812678813934326, 0.0025900602340698242, 0.0026003271341323853, -0.00041610002517700195, -0.0031003355979919434, -0.008489727973937988, -0.006155073642730713, -0.0006863102316856384, 0.0045968517661094666, 0.0007889866828918457, 0.0071021635085344315, 0.0016447901725769043, 6.363727152347565e-05, 0.006799042224884033, -0.0018066801130771637, -0.006845042109489441, -0.0019946545362472534, -0.005544416606426239, 0.006253935396671295, -0.0028710495680570602, -0.005062192678451538, -0.0018355846405029297, -0.0028724074363708496, -0.0011317133903503418, 0.00533217191696167, -8.890032768249512e-05, -0.0050421059131622314, 0.0006481260061264038, 0.005791012197732925, 0.002349942922592163, 0.003219977021217346, 0.00013815611600875854, 0.0018605999648571014, 0.010563775897026062, 0.00017410516738891602, -0.008784862235188484, 0.006021291017532349, -0.001040928065776825, -0.00896868109703064, 0.0001926422119140625, 0.003261752426624298, 0.0011414438486099243, 0.008822055533528328, 0.0013298988342285156, -0.0052665770053863525, 0.002476796507835388, 0.007502824068069458], [0.002951093018054962, -0.006424617022275925, 0.005245178937911987, 0.0005060825496912003, -0.003347456455230713, -0.004104591906070709, 0.00382155179977417, 0.0015000402927398682, 0.006454160436987877, -0.006197929382324219, 0.0020647644996643066, 0.004521995782852173, 0.007432577200233936, 0.006098945625126362, -0.0035725533962249756, -0.004871353507041931, 0.0024811923503875732, -0.0017456412315368652, 0.0014845430850982666, 0.004680350422859192, -0.001604318618774414, 0.0009357929229736328, -0.00760095939040184, -0.0044349180534482, -0.005252285860478878, 0.0037824809551239014, 0.0007133986800909042, 0.004788242280483246, -0.0016168616712093353, -0.004060976207256317, 0.004791349172592163, -0.004442155361175537, -0.004722163081169128, -0.002000585198402405, -0.00834578275680542, -0.00026851892471313477, 0.0024708807468414307, -0.00653037428855896, -0.004465090110898018, 0.003577161580324173, -0.0019251257181167603, 0.005390480160713196, -0.005588404834270477, -0.006900474429130554, 0.006294906139373779, 0.003891315311193466, -0.001735091209411621, 0.0021574944257736206, -4.864111542701721e-05, 0.005938708782196045, 0.0029802322387695312, -0.005348267033696175, -0.003592371940612793, 0.0027338266372680664, 0.0026888251304626465, -0.007813781499862671, -0.0045035481452941895, -0.002606503665447235, -0.0011211484670639038, 0.00517725944519043, -0.001436777412891388, -0.0022528418339788914, -0.001583293080329895, 0.008290290832519531], [7.656216621398926e-05, 0.0035849958658218384, -0.0019281655550003052, -0.0005312561988830566, 0.0018070191144943237, 0.0018463656306266785, -0.0015562176704406738, -0.0018171519041061401, -0.002428799867630005, 0.003707200288772583, 0.00012093782424926758, -0.0011462382972240448, -0.0036537498235702515, -0.0036669429391622543, 0.0028166137635707855, 0.0003332383930683136, -0.0012685060501098633, 0.0017348418477922678, -0.002758398652076721, -0.0011311173439025879, -0.0007251203060150146, 0.0025025904178619385, 0.0030046701431274414, 0.0026620030403137207, 0.0005775392055511475, -0.0018735677003860474, -0.0005308352410793304, -0.0037208832800388336, -0.0002870112657546997, 3.166496753692627e-05, -0.001295536756515503, 0.0020201951265335083, 0.003465617774054408, -0.0007756315171718597, 0.003898531198501587, -0.0025167129933834076, 0.0018237829208374023, 0.002802126109600067, 0.0006379894912242889, 0.0009844005107879639, 0.0007109791040420532, -0.003670722246170044, 0.00014849752187728882, 0.002157844603061676, -0.0015362203121185303, -0.002898760139942169, -0.0021157562732696533, -0.001963771879673004, -0.00022417306900024414, -0.0011145174503326416, -0.004811931401491165, 0.0007097721099853516, 0.0030208230018615723, -0.0027011632919311523, 0.001397550106048584, 0.003582349978387356, 8.033215999603271e-05, -0.0015422794967889786, -0.0013623535633087158, -0.0034400969743728638, -0.0024655163288116455, 0.0037559866905212402, -0.0016862452030181885, -0.004098974168300629], [0.0016401857137680054, 0.0007814876735210419, 0.0009377012029290199, -0.0036553293466567993, 0.0011991411447525024, -0.0004334300756454468, -0.0017309784889221191, -0.000973820686340332, 0.0017655491828918457, 0.0016398727893829346, -0.0010466277599334717, 0.0006005167961120605, 0.0026951730251312256, -0.0030250996351242065, 0.0028556883335113525, -0.00414884090423584, 0.0017157886177301407, -0.00021204352378845215, -0.0008321255445480347, 0.00387486070394516, 0.0009206235408782959, 0.001559235155582428, 0.0023110806941986084, -0.0008974405936896801, -0.0034889138769358397, -0.004020631313323975, 0.0014603137969970703, -0.0032806694507598877, -0.004036366939544678, -0.0008236244320869446, -0.00044174492359161377, 0.0005580037832260132, -0.000607609748840332, -0.0009838789701461792, -0.0022040605545043945, -0.0053189657628536224, 0.002775132656097412, -0.0027222037315368652, -0.0018547922372817993, 0.003992244601249695, 0.0012703239917755127, -0.005874037742614746, -0.00469864159822464, 0.0001581832766532898, -0.0005565285682678223, -0.001051751896739006, -0.002445310354232788, 0.0009941458702087402, 5.7931989431381226e-05, 0.0004289783537387848, -0.003986284136772156, -0.0010310262441635132, -0.00035622715950012207, -0.006131976842880249, 0.00550416111946106, 0.004945382475852966, -0.0034891515970230103, 0.0004958063364028931, -0.002374812960624695, -0.0013987459242343903, -0.0029621422290802, 0.002938777208328247, -0.0015970170497894287, 0.000721275806427002], [0.0013868212699890137, 0.0002721548080444336, -0.00295083224773407, -0.0018090475350618362, 0.0008066371083259583, 0.00023496896028518677, 0.00046321749687194824, 7.086992263793945e-05, 0.004701852798461914, -0.0004825592041015625, -0.0026846006512641907, -1.3887882232666016e-05, -0.005089014768600464, 0.0024286052212119102, 0.0015168488025665283, -8.000433444976807e-05, 0.0018451586365699768, -0.003161877393722534, -0.0002198740839958191, -0.004158511757850647, -0.0018026530742645264, -0.0010337233543395996, 0.0018860399723052979, 0.0019423067569732666, -0.00047560781240463257, -0.0012196823954582214, -0.0007617101073265076, -0.0014261454343795776, 0.002596646547317505, 0.00012469664216041565, -0.0006637424230575562, -0.002787679433822632, 0.004502779804170132, 0.004135109484195709, 0.0007743537425994873, 0.0014228969812393188, 0.0005114525556564331, 0.002556145191192627, -6.936490535736084e-06, 0.0010058581829071045, -0.005012840032577515, 0.004850715398788452, 0.0025419294834136963, 0.005747556686401367, 0.0028085708618164062, 0.0016777217388153076, -0.001804947853088379, -0.002157360315322876, 0.003430396318435669, 0.00029990822076797485, -0.0071157775819301605, -0.0003021357115358114, 0.0011962950229644775, 0.0006723031401634216, -0.0034776031970977783, -0.0006045699119567871, 0.002881079912185669, -0.005871564149856567, 0.001072324812412262, -8.082389831542969e-05, 0.0030891001224517822, -6.520748138427734e-05, -0.0012792646884918213, -0.0022382140159606934], [2.7664005756378174e-05, -0.004030734300613403, 0.0011738231405615807, -0.0007567107677459717, -0.0014564022421836853, -0.0025196075439453125, 0.0012153834104537964, 0.001578743103891611, 0.003687933087348938, -0.0039035677909851074, -0.001335175707936287, 0.0007869477849453688, 0.0030957162380218506, 0.004537642002105713, -0.0026260167360305786, -0.00025015324354171753, 0.0025810599327087402, -0.003310553729534149, 0.003630116581916809, 0.0009153857827186584, 0.00047200918197631836, -0.002682924270629883, -0.0020504966378211975, -0.0032957829535007477, -0.00010037422180175781, 0.0006733760237693787, 0.0010657086968421936, 0.003254837356507778, 0.00024816393852233887, 0.0009721517562866211, 0.0009922981262207031, -0.0020998194813728333, -0.0032999515533447266, 0.0024127066135406494, -0.0042710453271865845, 0.0022176336497068405, -0.0015361905097961426, -0.003027200698852539, -0.0006552338600158691, -0.00025463104248046875, -0.0013876408338546753, 0.004157960414886475, 5.072355270385742e-05, -0.00048610568046569824, 0.001183910295367241, 0.0031553059816360474, 0.0016485676169395447, 0.0022162795066833496, 0.0012121349573135376, 0.0005443170666694641, 0.003905072808265686, -0.000703856348991394, -0.003427259624004364, 0.0031207799911499023, -0.0018782317638397217, -0.00280698761343956, 0.0005885250866413116, 0.0012012012302875519, 0.0010494962334632874, 0.003284512087702751, 0.0031725317239761353, -0.0035468637943267822, 0.001355282962322235, 0.0033751893788576126], [-0.002345077693462372, 0.0012196898460388184, 0.0009471112862229347, 0.0003253445029258728, -0.001949220895767212, 0.0016467943787574768, 0.0015095025300979614, 0.0006927251815795898, -0.00028093159198760986, -0.00095415860414505, 0.00562971830368042, -0.003119438886642456, 0.0010598301887512207, -0.005098015069961548, -0.0005627572536468506, -0.002198547124862671, -0.0018325001001358032, 0.005966871976852417, -0.007240220904350281, -0.0006326436996459961, -0.002056610770523548, 0.0024584978818893433, -0.0007716268301010132, 0.0013229399919509888, -0.003970980644226074, 0.004053305834531784, -0.002551540732383728, 5.692243576049805e-05, 0.0016040802001953125, -0.0037310272455215454, 0.0032896697521209717, -0.00012826919555664062, 0.0038050562143325806, -0.0066550374031066895, 0.0026310323737561703, -0.002056211233139038, 0.0025742948055267334, 0.0009306669235229492, -0.002890445291996002, 0.001420833170413971, -0.002950713038444519, -0.0007868167012929916, -0.0018644332885742188, -0.00021190941333770752, 0.00197526253759861, 0.0011078417301177979, -0.0034312494099140167, -0.0044302791357040405, -0.0005943266442045569, 0.003792107105255127, -0.00558452308177948, 0.0015817880630493164, -0.0012006983160972595, -0.003416717052459717, 0.003036677837371826, 0.000316523015499115, -0.0009146332740783691, -0.00471390038728714, -0.0015290901064872742, 0.0009488388895988464, -0.004208900034427643, 0.0018290579319000244, -0.0014536753296852112, 0.00045634061098098755], [-0.0026782453060150146, 0.007023513317108154, -0.0037075579166412354, 0.010745376348495483, -0.007873732596635818, 0.007899343967437744, 0.005881957709789276, 0.0009700357913970947, -0.007405459880828857, 0.00318831205368042, 0.010887280106544495, -0.005564004182815552, 0.0024813413619995117, -0.009383425116539001, -0.005135267972946167, 0.00773119181394577, -0.006806217133998871, 0.012716157361865044, -0.0030218465253710747, -0.0003664940595626831, 0.0025156140327453613, 0.001848619431257248, -0.0053584277629852295, 0.004251390695571899, 0.003782525658607483, 0.006352975964546204, -0.008124321699142456, 0.006858699023723602, 0.00510212779045105, 0.002463787794113159, -0.0008337199687957764, 0.006889402866363525, -0.002716630697250366, -0.011352121829986572, 0.007040569093078375, 0.0020454376935958862, -0.005468845367431641, 0.0038853883743286133, 3.5822391510009766e-05, -0.00398901104927063, 0.006692856550216675, -0.004600107669830322, 0.006743155419826508, -0.008832961320877075, -0.004508011043071747, -0.00469508022069931, 0.0007963739335536957, -0.005406923592090607, -0.003636270761489868, -0.0010671019554138184, 0.0080622099339962, 0.002855628728866577, -0.001151442527770996, -0.0004912614822387695, 0.006542593240737915, -0.004280209541320801, -0.0011972244828939438, 0.006504252552986145, 0.005961000919342041, 0.003211554139852524, -0.0010809898376464844, -0.004573643207550049, 0.009450465440750122, 0.005657702684402466], [-0.0003957292065024376, -0.0041196271777153015, 0.001959182322025299, -0.006224915385246277, 0.004611417651176453, -0.004854321479797363, -0.0034908056259155273, 0.0009782686829566956, 0.0038253068923950195, -0.002006877213716507, -0.005885913968086243, 0.0021089017391204834, -0.0017948448657989502, 0.005490519106388092, 0.0021269023418426514, -0.004502147436141968, 0.0038274526596069336, -0.00783766433596611, 0.0009612441062927246, -0.0012062722817063332, -0.002134352922439575, -0.002292260527610779, 0.0033540725708007812, -0.0026148557662963867, -0.0025868816301226616, -0.002949759364128113, 0.0047242045402526855, -0.0036482810974121094, -0.0017917528748512268, -0.0016934499144554138, 0.0011787042021751404, -0.004404701292514801, 0.002303406596183777, 0.006571531295776367, -0.0033866316080093384, 0.000534549355506897, 0.0024827122688293457, -0.0009678825736045837, 0.0004255436360836029, 0.0010140091180801392, -0.005823805928230286, 0.0036681443452835083, -0.0028170421719551086, 0.006500616669654846, 0.0023472607135772705, 0.004175111651420593, -0.0005576908588409424, 0.003058522939682007, 0.0031088069081306458, 0.00027094827964901924, -0.005957677960395813, -0.0005033612251281738, -0.0005441904067993164, 0.0005971640348434448, -0.0052556199952960014, 0.0021786652505397797, 0.0022235065698623657, -0.00485113263130188, -0.003290534019470215, -0.0006953999400138855, 0.0009228065609931946, 0.002202346920967102, -0.0053010378032922745, -0.00327342189848423], [-0.00046515464782714844, -0.008975252509117126, 0.004773903638124466, -0.0015871822834014893, 0.0014675110578536987, -0.0075533390045166016, -0.001314118504524231, 0.004664212465286255, 0.00284542515873909, -0.005428329110145569, -0.004506759345531464, 0.004346489906311035, 0.005622997879981995, 0.010276809334754944, -0.002796582877635956, -0.0020630210638046265, 0.0040734559297561646, -0.00867702066898346, 0.007071100175380707, 0.0017901062965393066, -0.00025816261768341064, -0.0061361342668533325, -0.0029757916927337646, -0.007138252258300781, -0.000317990779876709, -0.00038713961839675903, 0.005355387926101685, 0.003012225031852722, -0.001563340425491333, 0.00028908252716064453, 0.001973479986190796, -0.004113674163818359, -0.006573803722858429, 0.006083488464355469, -0.00789615511894226, 0.0060116201639175415, -0.0022296160459518433, -0.00428462028503418, 0.0017904937267303467, -0.00271625816822052, -0.001844257116317749, 0.0059798359870910645, -0.00150337815284729, -0.0006215348839759827, 0.0010080337524414062, 0.005897223949432373, 0.003723159432411194, 0.007555034011602402, 0.0023130178451538086, -0.0009256303310394287, 0.00735989585518837, -0.0013671517372131348, -0.004038363695144653, 0.005729109048843384, -0.005397051572799683, -0.004657614976167679, 0.0009105466306209564, 0.002315834164619446, 6.906688213348389e-05, 0.004354566335678101, 0.0033811479806900024, -0.0038531720638275146, -0.0008173276437446475, 0.004444526508450508], [-0.004152476787567139, 0.01098543405532837, -0.002622738480567932, 0.0068926215171813965, -0.00781489908695221, 0.01112450659275055, 0.004968747496604919, -0.00247916579246521, -0.005863934755325317, 0.0056473612785339355, 0.01042965054512024, -0.008003845810890198, -0.0043376535177230835, -0.013802491128444672, -0.0007250010967254639, 0.0038355737924575806, -0.0076203495264053345, 0.01369483396410942, -0.008649438619613647, -0.0006412267684936523, 0.006192252039909363, 0.0006290674209594727, 0.00285358726978302, 0.008267372846603394, -0.0014294981956481934, 0.007086839526891708, -0.00891035795211792, 0.00481751561164856, 0.004731625318527222, -0.0025671469047665596, -0.004089787602424622, 0.0028927549719810486, 0.005001246929168701, -0.011456474661827087, 0.008982926607131958, -0.0041379183530807495, -0.0040504783391952515, 0.003920495510101318, -0.0023036524653434753, -0.0026349276304244995, 0.0017747245728969574, -0.0068266987800598145, 0.005854759365320206, -0.004123136401176453, -0.0007402002811431885, -0.0010777413845062256, 0.0029649734497070312, -0.008691169321537018, -0.007340661250054836, 0.004375264048576355, 4.677474498748779e-05, 0.0041332244873046875, -0.00017468631267547607, -0.009756684303283691, 0.0035114288330078125, 0.004940629005432129, 0.0008349446579813957, 0.004373282194137573, 0.004416152834892273, -0.0005930066108703613, -5.5849552154541016e-05, -0.003991648554801941, 0.009248137474060059, 0.0006245672702789307], [-0.004810355603694916, -0.0006021261215209961, 0.0030671432614326477, -0.0026515424251556396, -0.0004672408103942871, -0.0009349323809146881, -0.0003258567303419113, 0.002426818013191223, -0.0005728136748075485, -0.002222582697868347, 0.005472391843795776, -0.004067540168762207, 0.0031510144472122192, -0.004768766462802887, -0.0010882169008255005, -0.004596933722496033, -0.0008239299058914185, 0.004304647445678711, -0.008626654744148254, -5.1530078053474426e-05, -0.0033865943551063538, 0.0019746124744415283, -0.00025391578674316406, -0.0009283414110541344, -0.005902927368879318, 0.004115020856261253, -8.681416511535645e-05, -0.0008079037070274353, 0.0006416440010070801, -0.005071023479104042, 0.005463346838951111, -0.000979144126176834, 0.0035371780395507812, -0.006813183426856995, 0.0015612654387950897, -0.0022803768515586853, 0.003938702866435051, 6.952881813049316e-05, -0.0033554285764694214, 0.0013778209686279297, -0.005008220672607422, -0.0008729696273803711, -0.00411977618932724, 0.0014815330505371094, 0.0017403364181518555, 0.0032104775309562683, -0.004136428236961365, -0.0026111751794815063, 0.0002052709460258484, 0.00405324250459671, -0.006672650575637817, 0.0028525590896606445, -0.003168657422065735, -0.0038273483514785767, 0.0025350451469421387, 0.0015273243188858032, -0.0005883574485778809, -0.006095048040151596, -0.003741178661584854, 0.0019189119338989258, -0.0062314532697200775, 0.0032481253147125244, -0.003660455346107483, 9.799748659133911e-05], [-2.637505531311035e-05, -0.002399623394012451, 0.0011970922350883484, -0.002468787133693695, 0.0011613171081990004, -0.001953423023223877, -0.0010157972574234009, -0.0007563084363937378, 0.00321236252784729, -0.0028402358293533325, -0.0027966350317001343, 0.0004292130470275879, -0.0026617050170898438, 0.0029639992862939835, 0.0006018131971359253, -0.0013411343097686768, 0.0023284852504730225, -0.004055202007293701, -0.00010693073272705078, -0.00125193502753973, -0.00091572105884552, -0.0007815957069396973, 0.0017465412383899093, -0.000980515033006668, -0.0006203204393386841, -0.000380098819732666, 0.0019480511546134949, -0.0009041279554367065, -0.00020061619579792023, -0.0008764173835515976, 0.0009196847677230835, -0.0030544251203536987, 0.002477310597896576, 0.0034805014729499817, -0.0013235807418823242, 0.0001746341586112976, 0.0014132410287857056, -0.0011178292334079742, -0.0009702891111373901, 0.0009595751762390137, -0.003530677407979965, 0.003695443272590637, -0.0006379634141921997, 0.004200339317321777, 0.002506215125322342, 0.003176409751176834, 1.3843178749084473e-05, 7.787719368934631e-06, 0.0009064078330993652, 0.001866273581981659, -0.002594202756881714, 3.59266996383667e-05, -0.0006397366523742676, 0.0012988373637199402, -0.003952711820602417, 0.0006411969661712646, 0.0017664581537246704, -0.0027034878730773926, -0.0015804171562194824, -0.00043079257011413574, 0.001771397888660431, 0.00022604689002037048, -0.0025587230920791626, -0.00258750282227993], [0.0023895837366580963, -0.0037479326128959656, 0.00016529858112335205, -0.0021782442927360535, 0.0015945807099342346, -0.003914240747690201, -0.0008405940607190132, 0.000899389386177063, 0.00393521785736084, -0.0011705756187438965, -0.005659565329551697, 0.0032057538628578186, 0.0006064623594284058, 0.00694979727268219, 0.00011173845268785954, -0.0003146510571241379, 0.004117995500564575, -0.007719025015830994, 0.0065422505140304565, 0.0003116428852081299, 0.0004954040050506592, -0.002922728657722473, -0.0003629326820373535, -0.0029619038105010986, 0.001362919807434082, -0.003364991396665573, 0.003086365759372711, 0.0003542006015777588, -0.000997006893157959, 0.0022897422313690186, -0.0016440153121948242, -0.0019524022936820984, -0.0031475527212023735, 0.00716787576675415, -0.004991106688976288, 0.0025025904178619385, -0.0012436136603355408, -0.0021846145391464233, 0.0014149248600006104, 0.00021975114941596985, -0.00028583407402038574, 0.003700748085975647, 0.00015842868015170097, 0.0016492009162902832, 0.0005700886249542236, 0.00117570161819458, 0.001795262098312378, 0.004205025732517242, 0.002709314227104187, -0.0020210668444633484, 0.00223405659198761, -0.001743026077747345, -0.0003841966390609741, 0.0036521852016448975, -0.0028854096308350563, -0.0019461214542388916, 0.0005360543727874756, 0.0011225417256355286, 0.0010459208860993385, 0.0009703971445560455, 0.004405960440635681, -0.0022157281637191772, -0.0002096816897392273, 0.0013191252946853638], [0.004039198160171509, -0.012482225894927979, 0.00639873743057251, -0.007448983378708363, 0.007694244384765625, -0.012231022119522095, -0.00478498637676239, 0.0021345913410186768, 0.006214931607246399, -0.006377086043357849, -0.009692773222923279, 0.010445654392242432, 0.006128065288066864, 0.015472710132598877, 0.0006277561187744141, -0.0075418055057525635, 0.006767451763153076, -0.014139324426651001, 0.008347272872924805, 0.004470512270927429, -0.0037873387336730957, -0.0021975338459014893, -0.0020957738161087036, -0.009021976962685585, -0.0032748058438301086, -0.005045562982559204, 0.010044969618320465, -0.0033020377159118652, -0.007281139492988586, -0.0018376260995864868, 0.00435560941696167, -0.006138443946838379, -0.005584381520748138, 0.010264609009027481, -0.012340396642684937, 0.001932002604007721, 0.004084515385329723, -0.006882909685373306, 0.0008528232574462891, 0.0023540109395980835, -0.0037958472967147827, 0.0067819952964782715, -0.00879351794719696, -0.00028267502784729004, 0.003790028393268585, 0.004431374371051788, -4.7326087951660156e-05, 0.010988473892211914, 0.004105404019355774, 0.0003538280725479126, 0.0017047226428985596, -0.007138743996620178, -0.0010122135281562805, 0.006402537226676941, -0.00476817786693573, -0.0031094402074813843, -0.0017939656972885132, -0.003439880907535553, -0.005232565104961395, 0.0005853921175003052, -0.0005258116871118546, 0.002738337963819504, -0.00919121503829956, 0.0013927184045314789], [0.0012869983911514282, -0.0015968531370162964, 0.002199549227952957, 0.0006169825792312622, -0.004588603973388672, 0.00011116266250610352, 0.003755539655685425, -0.001132214441895485, 0.003043621778488159, -0.0024549514055252075, 0.005112409591674805, 6.330758333206177e-05, 0.00543675571680069, -0.0018285363912582397, -0.0020665302872657776, -0.003281937912106514, -0.0005672872066497803, 0.004511994309723377, -0.002303021028637886, 0.005347002297639847, 0.0004746168851852417, 0.0026091784238815308, -0.003306165337562561, -0.0014501605182886124, -0.004780977964401245, 0.002993553876876831, -0.001918114721775055, 0.0033709807321429253, -0.0015038251876831055, -0.0029174238443374634, 0.0027507394552230835, -0.0004625581204891205, -0.0018869638442993164, -0.006172491237521172, -0.003665633499622345, -0.004685789346694946, 0.0024453401565551758, -0.0047640204429626465, -0.004329882562160492, 0.0038110017776489258, -0.00022055208683013916, -0.0016645193099975586, -0.004675485193729401, -0.006526291370391846, 0.0025526583194732666, 0.00120525062084198, -0.0022475607693195343, -0.0011651813983917236, -0.0028174370527267456, 0.005335912108421326, 0.0006278157234191895, -0.0033886581659317017, -0.002993762493133545, -0.003560587763786316, 0.00622791051864624, -0.001377282664179802, -0.004241436719894409, -0.0002026669681072235, -0.0015733391046524048, 0.002363860607147217, -0.0035004764795303345, -0.0002798736095428467, 0.0001871734857559204, 0.005719803273677826], [-0.00033342838287353516, 0.0003754347562789917, 0.0006629377603530884, 0.0003718435764312744, -0.0006479769945144653, 0.0010367482900619507, 0.0005861371755599976, -0.0009112246334552765, -3.244727849960327e-05, -0.0006661117076873779, 0.0021303310059010983, -0.00045481324195861816, -0.0003828108310699463, -0.0020391345024108887, 0.00040137022733688354, -0.0013589262962341309, -0.00142630934715271, 0.002629801630973816, -0.003488004207611084, 0.00030514225363731384, -0.00029227137565612793, 0.0011645983904600143, 0.00039805471897125244, 0.0011572763323783875, -0.002273966558277607, 0.001904042437672615, -0.0011047422885894775, -0.0003204047679901123, -1.2949109077453613e-05, -0.002304941415786743, 0.0014933794736862183, -0.0006761327385902405, 0.002578169107437134, -0.0028214305639266968, 0.0008911490440368652, -0.0018300116062164307, 0.001531362533569336, -4.424154758453369e-05, -0.0015451442450284958, 0.0008487105369567871, -0.0016854628920555115, -0.0004552975296974182, -0.0013180375099182129, -0.00035432539880275726, 0.0014909058809280396, 0.0008379928767681122, -0.0009330213069915771, -0.0019013918936252594, -0.0013900920748710632, 0.0030339807271957397, -0.00269346684217453, -0.00039623677730560303, 0.00014784932136535645, -0.002430737018585205, 0.000490725040435791, 0.000887058675289154, -0.0002976953983306885, -0.0020783599466085434, -0.0011912137269973755, -0.0006501674652099609, -0.0020108819007873535, 0.0011331283021718264, -0.0010382682085037231, -0.0005538440309464931], [0.0014536082744598389, -0.009856179356575012, 0.00769399106502533, 0.00423373281955719, 0.0009772926568984985, -0.00820687785744667, 0.0010335519909858704, 0.0073430463671684265, 0.001872628927230835, -0.007190417032688856, -0.0014919638633728027, 0.008157044649124146, 0.006940782070159912, 0.012990058399736881, -0.003994762897491455, -0.0021835416555404663, 0.0027545630000531673, -0.006927236914634705, 0.0055637359619140625, -0.0020043551921844482, -0.00468793511390686, -0.002823561429977417, -0.010862313210964203, -0.00593055784702301, -0.0007325261831283569, 0.004638684913516045, 0.003984987735748291, 0.004527747631072998, 0.0005749091506004333, -0.003596864640712738, 0.005525738000869751, -0.005205601453781128, -0.00707012414932251, 0.00326460599899292, -0.007551848888397217, 0.012573838233947754, -0.0008173510432243347, -0.0018265396356582642, 0.00116024911403656, -0.003475390374660492, -0.0010706782341003418, 0.01132763922214508, -0.002643764019012451, -0.005058646202087402, 0.006157621741294861, 0.003689318895339966, 0.0011665970087051392, 0.0058668553829193115, 0.003586209611967206, 0.0006932541728019714, 0.007403448224067688, -0.0017167925834655762, -9.98377799987793e-06, 0.010937392711639404, -0.004578838124871254, -0.01397193968296051, -0.002120938152074814, -0.004043310880661011, 0.0016404390335083008, 0.006105363834649324, 0.0009994953870773315, -0.0038687586784362793, -0.0032522715628147125, 0.008034482598304749], [-0.0010981038212776184, 0.0037681267131119967, -0.0013855695724487305, 0.003442011773586273, -0.00032213330268859863, 0.003156602382659912, 0.00027877092361450195, -0.00036895275115966797, -0.00443158857524395, 0.0023674815893173218, 0.0033291224390268326, -0.0017323791980743408, -0.0022202134132385254, -0.004538685083389282, 0.0005464553833007812, 0.0021800249814987183, -0.0033807605504989624, 0.004910081624984741, -0.0037676170468330383, -0.0020014047622680664, -0.0009062439203262329, 0.002225518226623535, -9.465217590332031e-05, 0.003241300582885742, 0.0012444257736206055, 0.0016364678740501404, -0.0024253232404589653, -0.000997796654701233, 0.0015476047992706299, -0.0004781782627105713, 0.00017668306827545166, 0.002487361431121826, 0.0023414939641952515, -0.003948196768760681, 0.005260348320007324, 6.122887134552002e-05, -1.385807991027832e-06, 0.0038995444774627686, 0.0006798505783081055, -0.0014030635356903076, 0.0014619380235671997, -0.0024210400879383087, 0.0018714722245931625, -0.0003480145242065191, -0.0012676864862442017, -0.00261804461479187, -0.0012908577919006348, -0.0031098509207367897, -0.0010815076529979706, -0.000623747706413269, -0.001477763056755066, 0.001614987850189209, 0.002317190170288086, -0.00128154456615448, 0.0013955384492874146, 0.0003048926591873169, 2.765655517578125e-05, -0.0007918477058410645, 0.00039346516132354736, -0.0014309361577033997, -0.002540312707424164, 0.0017951726913452148, 0.0002706870436668396, -0.001790568232536316], [-0.0007550567388534546, 0.001823820173740387, -0.0005850642919540405, 0.006897240877151489, -0.0022946596145629883, 0.0032149963080883026, 0.0019880086183547974, -0.00043773651123046875, -0.005252674221992493, 0.0004978179931640625, 0.000646442174911499, 0.0011223554611206055, -0.005046725273132324, 0.0015736641362309456, -0.002050638198852539, 0.007181718945503235, -0.004339486360549927, 0.002054542303085327, 0.0026667658239603043, -0.004112167749553919, 0.00285155326128006, -0.002848580479621887, -0.001678466796875, 0.0030258744955062866, 0.006863478105515242, 0.005623817443847656, -0.0024353861808776855, 0.005509883165359497, 0.003714323043823242, 0.0017821164801716805, -0.0030600130558013916, 0.00019394606351852417, -0.0008464306592941284, 0.000853121280670166, 0.004194892942905426, 0.0064390599727630615, -0.006041624583303928, 0.003624334931373596, 0.0038633644580841064, -0.006945997476577759, 0.0031730830669403076, 0.003998994827270508, 0.007273823022842407, -0.0031724125146865845, -0.0005304217338562012, -0.0007153898477554321, 0.0069518983364105225, -0.0012395530939102173, -0.003957513719797134, -0.00151824951171875, 0.01007252186536789, 0.001931309700012207, 0.0027224719524383545, 0.006974712014198303, -0.006846174597740173, -0.004584550857543945, 0.003943361341953278, 0.0048724934458732605, 0.004831194877624512, -0.0006075501441955566, 0.005468159914016724, -0.005859017372131348, 0.0050383806228637695, -0.0010646823793649673], [-0.0023965202271938324, 0.005508929491043091, -0.005382448434829712, -0.006017804145812988, 0.006048381328582764, 0.0015332698822021484, -0.005548901855945587, 0.0014994069933891296, -0.0029218196868896484, 0.007161170244216919, -0.004112176597118378, -0.0034754574298858643, -0.004301220178604126, -0.005279511213302612, 0.004188790917396545, -0.0003781728446483612, 0.0006744503043591976, -0.0024822503328323364, -0.0011350587010383606, -0.0020477771759033203, 0.00025316327810287476, -0.0014800280332565308, 0.0074550919234752655, 0.002178579568862915, 0.000667281448841095, -0.00805102288722992, 0.0014963746070861816, -0.007612964138388634, -4.184246063232422e-05, 0.0032395273447036743, -0.00403178483247757, 0.0032185912132263184, 0.0036698654294013977, 0.003880903124809265, 0.005013212561607361, -0.0018818378448486328, -0.00023177266120910645, 0.005196608603000641, 0.0037954235449433327, -0.0004926323890686035, -0.0010509490966796875, -0.006518632173538208, 0.0026741623878479004, 0.008689165115356445, -0.0062703825533390045, -0.0025684311985969543, -0.0014325231313705444, 0.0009589791297912598, 0.004213608801364899, -0.008156538009643555, -0.008747221902012825, 0.002813689410686493, 0.001140102744102478, -0.005998700857162476, 0.0006560151232406497, 0.007936209440231323, 0.0026727020740509033, -0.00014775991439819336, -0.001035347580909729, -0.002846352756023407, -0.0006971061229705811, 0.004796907305717468, -0.0008096694946289062, -0.005861371755599976], [0.0015130862593650818, 0.00482901930809021, -0.004818320274353027, 0.0019754767417907715, 0.004539042711257935, 0.0028276443481445312, -0.003328263759613037, 0.0009397268295288086, -0.003763347864151001, 0.006094738841056824, -0.007545456290245056, 0.0016728341579437256, -0.007816074416041374, 0.000919342041015625, 0.0036370158195495605, 0.005813702940940857, -1.2949109077453613e-05, -0.004910270683467388, 0.005825717002153397, -0.005920350551605225, 0.0022046815138310194, -0.0036620497703552246, 0.0034243911504745483, 0.004080265760421753, 0.007128089666366577, -0.005776766687631607, 0.00024268031120300293, -0.0032780729234218597, 0.0021494626998901367, 0.005249977111816406, -0.007007390260696411, 0.002046719193458557, 0.00038273632526397705, 0.008785173296928406, 0.004974782466888428, 0.005832284688949585, -0.005296379327774048, 0.006685771048069, 0.0063179656863212585, -0.004669547080993652, 0.003695935010910034, -0.0004891753196716309, 0.008308887481689453, 0.005893360823392868, -0.0040467907674610615, -0.0042226798832416534, 0.004108327906578779, 0.0012865662574768066, 0.0031503960490226746, -0.009433582425117493, 0.0008130967617034912, 0.0026279985904693604, 0.005551019683480263, 0.002735789865255356, -0.0047406405210494995, 0.0008178241550922394, 0.0034089237451553345, 0.003544032573699951, 0.005010761320590973, -0.0030940473079681396, 0.006579354405403137, -0.001905292272567749, 0.0034757815301418304, -0.004316778387874365], [-0.00337885320186615, -0.001275181770324707, 0.0035968273878097534, -0.00034293532371520996, -0.0018117576837539673, -0.0005949735641479492, 0.0008658766746520996, 0.0012860074639320374, -0.0014988388866186142, -0.002266496419906616, 0.006317347288131714, -0.0020480118691921234, 0.004870206117630005, -0.0038507822901010513, -0.0016269870102405548, -0.004073873162269592, -0.0025421231985092163, 0.005673840641975403, -0.006762459874153137, 0.002433791756629944, -0.0013854801654815674, 0.0015231706202030182, -0.0012536346912384033, -0.0012798905372619629, -0.005588912405073643, 0.005225121974945068, -0.0006855279207229614, 0.0011820532381534576, -0.0005968362092971802, -0.004971802234649658, 0.00489574670791626, -0.000706017017364502, 0.0011047720909118652, -0.00784194003790617, -7.042288780212402e-05, -0.0026400238275527954, 0.0027459580451250076, -0.0015388652682304382, -0.0029964298009872437, 0.0006598532199859619, -0.002733910456299782, -0.0019827187061309814, -0.004701673984527588, -0.00317460298538208, 0.0014602839946746826, 0.0026662051677703857, -0.002010911703109741, -0.0012130355462431908, -0.0025341971777379513, 0.005330197513103485, -0.002000764012336731, 0.0005402863025665283, -0.002837240695953369, -0.004131048917770386, 0.0026700515300035477, 0.0008961856365203857, -0.001481086015701294, -0.002617231337353587, -0.0032312050461769104, 0.0016208700835704803, -0.006190836429595947, 0.0018571391701698303, -0.0018544197082519531, 0.0021072179079055786], [0.0007203966379165649, 0.0006149336695671082, -0.0020718127489089966, 0.002717941999435425, -0.0004378855228424072, 0.0011528432369232178, 0.0016217231750488281, 0.0017248541116714478, 0.0004405975341796875, 0.0006380677223205566, -0.0015709102153778076, 0.0019023418426513672, -0.004205495119094849, 0.0031470060348510742, -0.00018036365509033203, 0.002395838499069214, -0.0007488131523132324, -0.0020293742418289185, 0.0016323626041412354, -0.004593424499034882, 0.0002686604857444763, -0.003604784607887268, -0.0009299516677856445, 0.002412863075733185, 0.0017145685851573944, 0.001661539077758789, -0.0018510351656004786, 0.0020641684532165527, 0.003854691982269287, 0.00014841556549072266, -0.0021791458129882812, -0.00228717178106308, 0.001818925142288208, 0.0034435391426086426, 0.0013005435466766357, 0.005755573511123657, -0.004032224416732788, 0.0039904117584228516, 0.0028571635484695435, -0.003992868587374687, -0.0024242177605628967, 0.0053404271602630615, 0.005672454833984375, 0.0018465220928192139, 0.0019340626895427704, 0.0011875517666339874, 0.002665191888809204, -0.0009727030992507935, 0.0015615224838256836, -0.0007327310740947723, -0.0005138814449310303, -0.00010088086128234863, 0.002099335193634033, 0.002621471881866455, -0.005277572199702263, -0.004219934344291687, 0.003497987985610962, -0.0019374191761016846, 0.004495367407798767, 0.0011795759201049805, 0.004904143512248993, -0.003849329426884651, 0.0023536086082458496, 0.0008493661880493164], [-0.000780448317527771, 0.006566531956195831, -0.003172367811203003, 0.007683008909225464, -0.002764299511909485, 0.0070968493819236755, 0.0024974048137664795, -0.0006050541996955872, -0.006144583225250244, 0.00442158430814743, 0.002573251724243164, -0.0006939172744750977, -0.007798939943313599, -0.0038108360022306442, 0.0004190504550933838, 0.007255159318447113, -0.00638154149055481, 0.005833148956298828, -0.0007963478565216064, -0.005525663495063782, 0.004300147294998169, -0.0029940903186798096, 0.0008668601512908936, 0.0069761723279953, 0.005378633737564087, 0.004642665386199951, -0.005465596914291382, 0.0035941898822784424, 0.0052602291107177734, 0.0009221732616424561, -0.005439490079879761, 0.0012214118614792824, 0.003043822944164276, -0.0014586597681045532, 0.0077336132526397705, 0.005320191383361816, -0.006651550531387329, 0.006666846573352814, 0.00403246283531189, -0.007068932056427002, 0.0025840885937213898, 0.00046740472316741943, 0.008937343955039978, -0.0019398331642150879, -0.0007594507187604904, -0.002211332321166992, 0.006440073251724243, -0.004770791158080101, -0.004334069788455963, -0.0014916211366653442, 0.004699617624282837, 0.0031465739011764526, 0.004424571990966797, 0.000595390796661377, -0.004959091544151306, -0.00183182954788208, 0.004017755389213562, 0.003867924213409424, 0.00625571608543396, -0.0019442737102508545, 0.005129501223564148, -0.005117837339639664, 0.006567470729351044, -0.0014539547264575958], [0.002260252833366394, 0.0067174434661865234, -0.0051174163818359375, -0.0016538705676794052, 0.0021543651819229126, 0.0037322938442230225, -0.0014889240264892578, -0.0035604536533355713, -0.0006886720657348633, 0.007028400897979736, -0.0021442770957946777, -0.0011369138956069946, -0.008449405431747437, -0.004024803638458252, 0.00621003657579422, 0.0012965686619281769, -0.0006617307662963867, 0.0007796809077262878, -0.0022070109844207764, -0.0035493678878992796, 0.0004746168851852417, 0.0016494989395141602, 0.007598161697387695, 0.00539495050907135, 0.0014407187700271606, -0.0033825188875198364, -0.0015120133757591248, -0.004868347197771072, 0.0003369040787220001, 0.0011452026665210724, -0.005746990442276001, 0.001382201910018921, 0.006320144981145859, 0.001942664384841919, 0.005522966384887695, -0.0040621086955070496, 0.0011517629027366638, 0.005116702988743782, 0.001378122717142105, 0.0016574859619140625, -0.0003146827220916748, -0.003061080351471901, 0.0025414377450942993, 0.005560636520385742, -0.0007906854152679443, -0.003769487142562866, -0.0017530322074890137, -0.0036120638251304626, 0.0005318522453308105, -0.0016594603657722473, -0.008976787328720093, 0.0007797479629516602, 0.006014344282448292, -0.004363000392913818, -0.00030380673706531525, 0.007560163736343384, 0.0015594959259033203, -0.0028570517897605896, 0.00013662874698638916, -0.006222754716873169, 0.00048584863543510437, 0.003232210874557495, -0.0008456259965896606, -0.006123170256614685], [0.0034488439559936523, -0.004155308939516544, 0.00017523765563964844, 0.002736717462539673, 0.004122689366340637, -0.005205065011978149, -0.0023770034313201904, 0.0028185248374938965, -0.0032666423358023167, 0.00019631534814834595, -0.006159599870443344, 0.007677584886550903, 0.0032124221324920654, 0.009091606363654137, -0.0006912052631378174, 0.0035672038793563843, 0.0013747364282608032, -0.007605366408824921, 0.010792940855026245, 0.0008380115032196045, -0.0002970695495605469, -0.002405822277069092, -0.003823421895503998, -0.004068464040756226, 0.006532907485961914, -0.0038751885294914246, 0.004377231001853943, 0.0003559589385986328, -0.0026888251304626465, 0.005172908306121826, -0.0013352036476135254, 0.00247037410736084, -0.009232193231582642, 0.007038883864879608, -0.004050582647323608, 0.007686123251914978, -0.003443881869316101, 5.99399209022522e-05, 0.0056645311415195465, -0.0040493011474609375, 0.006604671478271484, 0.0014609843492507935, 0.002016022801399231, -0.00462794303894043, -0.004178166389465332, -0.0035978956148028374, 0.0033406466245651245, 0.008787363767623901, 0.0023985207080841064, -0.00710904598236084, 0.011238157749176025, -0.003094598650932312, 0.002757284790277481, 0.008419197052717209, -0.002574056386947632, -0.0054143741726875305, -0.0007559433579444885, 0.005445688962936401, 0.0024119019508361816, -2.950429916381836e-06, 0.0022146999835968018, -0.0013369619846343994, 0.00020486116409301758, 0.002804696559906006], [0.0007339934818446636, -0.0018045157194137573, 0.002547711133956909, 0.0065189749002456665, -0.003146618604660034, 0.0005473494529724121, 0.003309376537799835, 0.001680999994277954, 0.00033414363861083984, -0.003521690145134926, 0.002009451389312744, 0.002250298857688904, -9.128451347351074e-05, 0.00312592089176178, -0.0017119571566581726, 0.0015008747577667236, -0.0012573301792144775, 0.00113677978515625, 0.000208243727684021, -0.0031391680240631104, -0.0007531493902206421, -0.0012774616479873657, -0.00497368723154068, 0.0011150836944580078, 0.0003491640090942383, 0.0068065449595451355, -0.0022213179618120193, 0.005006000399589539, 0.0026746392250061035, -0.002322353422641754, 0.0017859786748886108, -0.0026157796382904053, -0.0006158053874969482, -0.000967852771282196, -9.0818852186203e-05, 0.005377322435379028, -0.002320408821105957, 0.0012420117855072021, -0.00028017163276672363, -0.002788349986076355, -0.0005576536059379578, 0.006457693874835968, 0.002462625503540039, -0.002138681709766388, 0.004539430141448975, 0.0018637161701917648, 0.0019712895154953003, -0.001820385456085205, -0.0007770508527755737, 0.0032379478216171265, 0.003187835216522217, 0.0005565360188484192, 0.001277931034564972, 0.0043981075286865234, -0.0031369589269161224, -0.006972551345825195, 6.591528654098511e-05, -0.0017858147621154785, 0.0036352977622300386, 0.0021288692951202393, 0.0026866570115089417, -0.00514544453471899, 0.001988321542739868, 0.0037108957767486572], [-0.0003421604633331299, 0.001776188611984253, -0.0010193821508437395, -0.001865580677986145, 0.00019905343651771545, 0.0011483579874038696, -0.0001889541745185852, -0.0001533031463623047, -0.0008082613348960876, 0.002798810601234436, 0.0005712881684303284, -0.0005488060414791107, 0.0011644065380096436, -0.002315610647201538, 0.0005618631839752197, -0.0013945847749710083, -0.0010654926300048828, 0.001688838005065918, -0.0005106031894683838, 0.0022425204515457153, 0.001666150987148285, -0.0002005118876695633, 0.0015032291412353516, 0.0006532967090606689, -0.001827634871006012, -0.0014049708843231201, -0.0005187196657061577, -0.0007516741752624512, -0.0011275261640548706, -3.522634506225586e-05, -0.0014258548617362976, 0.0011392682790756226, -0.00017365533858537674, -0.0013445764780044556, -0.0003846287727355957, -0.002488739788532257, -5.2541494369506836e-05, -0.00045075640082359314, 0.0001989603042602539, 0.0005312263965606689, 0.00025726109743118286, -0.0035415738821029663, -0.0012457072734832764, -0.001558929681777954, -0.0016857832670211792, -0.0009053796529769897, 0.00015956535935401917, 0.0007710270583629608, -0.0008079707622528076, -0.00038436800241470337, -0.0009822994470596313, -0.0009374916553497314, -0.0005860477685928345, -0.003820642828941345, 0.002337723970413208, 0.0027562081813812256, -0.0007020682096481323, 0.0013653188943862915, -0.00039899349212646484, -0.00033551454544067383, -0.0013365745544433594, 0.0008202791213989258, 0.0010016635060310364, 0.0007908642292022705], [-0.00011238455772399902, 0.007084965705871582, -0.0032346993684768677, 0.006103843450546265, -0.0039988793432712555, 0.007241338491439819, 0.003301730379462242, -0.0015890449285507202, -0.0057534873485565186, 0.004787944257259369, 0.006476402282714844, -0.0026596784591674805, -0.0007529258728027344, -0.008148007094860077, -0.0006123185157775879, 0.004213012754917145, -0.006032660603523254, 0.010262832045555115, -0.0032592713832855225, 0.0003298819065093994, 0.002711823210120201, 0.0024518445134162903, -0.0012097656726837158, 0.005397886037826538, 0.0019244328141212463, 0.0031265318393707275, -0.006064116954803467, 0.002241969108581543, 0.0018511489033699036, 0.0008025765419006348, -0.002514973282814026, 0.004777446389198303, 0.00035206228494644165, -0.007834136486053467, 0.005816444754600525, -0.0017898902297019958, -0.0026576220989227295, 0.0032314658164978027, 0.0002639591693878174, -0.0016936063766479492, 0.005155831575393677, -0.00541764497756958, 0.0032059550285339355, -0.006243854761123657, -0.002688676118850708, -0.005222290754318237, 0.0006332695484161377, -0.004417926073074341, -0.003909409046173096, -0.0002971366047859192, 0.003050670027732849, 0.0006427355110645294, 0.002252131700515747, -0.0033911578357219696, 0.0050752609968185425, 0.0004421025514602661, -0.0015952438116073608, 0.0039042234420776367, 0.0033653993159532547, -0.0008992180228233337, -0.0016366243362426758, -0.0011701136827468872, 0.005658254027366638, 0.001698911190032959], [-0.0023984238505363464, -0.00069437175989151, 0.0012132078409194946, -0.0006325915455818176, -0.0021995902061462402, -0.0006750226020812988, 0.0015386641025543213, 0.0013402998447418213, 0.00013723969459533691, -0.0014889240264892578, 0.006225079298019409, -0.003773123025894165, 0.004924476146697998, -0.004036398604512215, -0.0021556615829467773, -0.002434469759464264, -0.0005247145891189575, 0.005471184849739075, -0.00547187402844429, 0.0019487887620925903, -0.0029748231172561646, 0.0038164108991622925, -0.002691298723220825, -0.0015435069799423218, -0.003732159733772278, 0.0024056173861026764, -0.0011495798826217651, 0.0001292005181312561, 0.0006095990538597107, -0.0022606700658798218, 0.003969475626945496, 0.0019048750400543213, -0.00019345618784427643, -0.007193624973297119, 0.00016248971223831177, -0.0029043853282928467, 0.003575921058654785, -0.0013828277587890625, -0.003365039825439453, 0.0028873179107904434, -0.0012308359146118164, -0.002483963966369629, -0.003975674510002136, -0.002442106604576111, 6.660819053649902e-05, 9.641051292419434e-05, -0.005109891295433044, -0.002217128872871399, 0.0005262494087219238, 0.0024025142192840576, -0.003194577991962433, 0.0009512081742286682, -0.0028596147894859314, -0.0027036070823669434, 0.006459275260567665, -0.0004621446132659912, -0.003058818867430091, -0.0033031776547431946, -0.002844095230102539, 0.0024439245462417603, -0.006203114986419678, 0.0034286081790924072, -0.0021575093269348145, 0.002769649028778076], [0.000759810209274292, -0.0031790435314178467, 0.0011896342039108276, -0.004781551659107208, 0.003491312265396118, -0.0037571117281913757, -0.0025204867124557495, -1.3805925846099854e-05, 0.0034254565834999084, -0.0015566647052764893, -0.005193732678890228, 0.0021618306636810303, -0.001661643385887146, 0.004627257585525513, 0.0018333420157432556, -0.0030009225010871887, 0.003215014934539795, -0.0067052170634269714, 0.0015011131763458252, -0.0006090626120567322, -0.0013607442378997803, -0.0013149678707122803, 0.0024062544107437134, -0.0020011216402053833, -0.0012482409365475178, -0.002767235040664673, 0.003706790506839752, -0.002852201461791992, -0.0016481913626194, -0.0006873756647109985, 0.00036888010799884796, -0.003153890371322632, 0.0014914944767951965, 0.0057091861963272095, -0.0029453858733177185, 6.020441651344299e-05, 0.0019171088933944702, -0.0012131929397583008, 0.00023195147514343262, 0.0012468397617340088, -0.00363197922706604, 0.0028832480311393738, -0.002099961042404175, 0.004676073789596558, 0.001834675669670105, 0.0025533735752105713, -0.00034292787313461304, 0.0023466795682907104, 0.0022390782833099365, 0.0002002120018005371, -0.003934144973754883, -0.0009609982371330261, 9.530782699584961e-05, 0.0009673237800598145, -0.0037697218358516693, 0.0014698207378387451, 0.0013417279114946723, -0.003201425075531006, -0.002316698431968689, -0.000994071364402771, 0.0011880993843078613, 0.001674458384513855, -0.004101291298866272, -0.0026109814643859863], [-0.0018247663974761963, -0.0011884868144989014, 0.0022940337657928467, -0.00017410516738891602, -0.0024866461753845215, -0.00019308924674987793, 0.0018300414085388184, 4.0918588638305664e-05, 0.0006154775619506836, -0.0023443475365638733, 0.005363970994949341, -0.001847192645072937, 0.0031960653141140938, -0.00228331983089447, -0.0016511976718902588, -0.0028954418376088142, -0.001258566975593567, 0.004941150546073914, -0.004922956228256226, 0.001862546894699335, -0.0012589320540428162, 0.0019201189279556274, -0.001537056639790535, -0.0007851645350456238, -0.004095420241355896, 0.004096625372767448, -0.0012083202600479126, 0.001547589898109436, 8.404254913330078e-06, -0.003523886203765869, 0.0035510659217834473, -0.0008756965398788452, 0.0012233853340148926, -0.0061402469873428345, -0.0006438195705413818, -0.0027474239468574524, 0.0025181621313095093, -0.0019877851009368896, -0.0030214786529541016, 0.0016190260648727417, -0.002540409564971924, -0.00014140456914901733, -0.003894031047821045, -0.0027057528495788574, 0.0021853819489479065, 0.0021680891513824463, -0.0021949857473373413, -0.002010941505432129, -0.001814122311770916, 0.00493273138999939, -0.0019064396619796753, -0.00022088736295700073, -0.002469867467880249, -0.002660449594259262, 0.0024513471871614456, -5.501508712768555e-05, -0.0014094710350036621, -0.002837703563272953, -0.0023896396160125732, 0.0015293359756469727, -0.004056140780448914, 0.0011585056781768799, -0.001520603895187378, 0.0018486082553863525], [-0.00275304913520813, -0.003625735640525818, 0.0011918246746063232, 0.004243791103363037, -0.004330635070800781, -0.0010010376572608948, 0.0035568810999393463, 0.00409349799156189, 0.00041484832763671875, -0.005368411540985107, 0.004011571407318115, -0.00129757821559906, 0.006383299827575684, 0.002124067395925522, -0.006642580032348633, 0.0021322816610336304, -0.0004882514476776123, 0.0014876127243041992, 0.0014255605638027191, 0.0004678070545196533, -0.00023880600929260254, -0.0023080408573150635, -0.006516427733004093, -0.0030350089073181152, 0.0002011135220527649, 0.0047910213470458984, -0.0015818849205970764, 0.006478309631347656, 0.0030289962887763977, 0.000543743371963501, 0.004192322492599487, -0.0001350194215774536, -0.004936099052429199, -0.0029867440462112427, -0.002180248498916626, 0.005364179611206055, -0.0033488571643829346, -0.0015104115009307861, -0.0008726939558982849, -0.003022134304046631, -0.0005075186491012573, 0.004167981445789337, 0.0022323131561279297, -0.004365198314189911, 0.0001971721649169922, 0.0032221227884292603, 0.0014964640140533447, 0.0007188469171524048, 0.0002897679805755615, 0.0009326040744781494, 0.00763363391160965, 0.0006955880671739578, -0.005890026688575745, 0.004155471455305815, -6.526708602905273e-05, -0.007228046655654907, 0.0003574639558792114, 0.002168431878089905, 0.00282861664891243, 0.0067040324211120605, 0.0014536380767822266, -0.005121998488903046, 0.003734782338142395, 0.006568595767021179], [0.0044591426849365234, -0.00824621319770813, 0.0035770535469055176, -0.0026793181896209717, 0.0025257468223571777, -0.006846234202384949, -0.000857621431350708, -0.0022571892477571964, 0.004066884517669678, -0.005514970514923334, -0.004647493362426758, 0.007409840822219849, 0.004415242001414299, 0.010428817942738533, -0.001395292580127716, -0.002680998295545578, 0.002951398491859436, -0.007212817668914795, 0.006619513034820557, 0.005838751792907715, -0.0010207444429397583, 0.0004602968692779541, -0.0026535913348197937, -0.0057631731033325195, -0.0003345450386404991, -0.0018749013543128967, 0.005194708704948425, 0.00035549700260162354, -0.00611451268196106, -0.0001615762012079358, 0.0028516054153442383, -0.0029678456485271454, -0.005141332745552063, 0.004684954881668091, -0.008764088153839111, -0.001294948160648346, 0.002279900014400482, -0.006622683256864548, -0.0007393099367618561, 0.002198129892349243, 6.115436553955078e-05, 0.004420779645442963, -0.00528360903263092, -0.0058554112911224365, 0.0024347305297851562, 0.0018220692873001099, 0.0010702833533287048, 0.006933987140655518, -0.000675741583108902, 0.002685055136680603, 0.0069380104541778564, -0.007956355810165405, -0.0009327530860900879, 0.005894944071769714, -0.0023680031299591064, -0.002820223569869995, -0.0020088255405426025, 0.0009561777114868164, -0.0030616968870162964, -0.0006232559680938721, -0.0002091526985168457, 0.0008884966373443604, -0.004258118569850922, 0.001308143138885498], [0.00016063451766967773, -0.0010156407952308655, 0.0019930973649024963, 0.004293709993362427, -0.0022670328617095947, 0.0006062835454940796, 0.0020930208265781403, 0.00016224384307861328, -0.0005228603258728981, -0.0025960803031921387, 0.0027870237827301025, 0.0008385349065065384, 0.000509701669216156, 0.0004643872380256653, -0.0011901259422302246, 0.000736737041734159, -0.0015858244150876999, 0.0023572146892547607, -0.0015196539461612701, -0.0010460764169692993, -0.0006703734397888184, 0.00047791749238967896, -0.003033071756362915, 0.0006538331508636475, -0.0002748221158981323, 0.004894428886473179, -0.001560106873512268, 0.002825915813446045, 0.0012268871068954468, -0.002120688557624817, 0.002111971378326416, -0.001132369041442871, 9.22083854675293e-05, -0.0026473551988601685, 0.000589907169342041, 0.0018152892589569092, -0.00033608824014663696, 0.00022330880165100098, -0.0010674968361854553, -0.0011023879051208496, -0.00011371821165084839, 0.0026675090193748474, 0.000423431396484375, -0.002082228660583496, 0.0026850104331970215, 0.0009868741035461426, 0.0005601346492767334, -0.0018601715564727783, -0.0015926063060760498, 0.0031874477863311768, 0.0020246580243110657, 0.00020262598991394043, 0.0006241202354431152, 0.0018649399280548096, -0.0009542554616928101, -0.0036311745643615723, -0.0004728585481643677, -0.0010489672422409058, 0.0010385662317276, 0.0007714368402957916, -0.00011369585990905762, -0.0019723474979400635, 0.0004610121250152588, 0.0016460716724395752], [0.0019353404641151428, -0.0017554610967636108, 0.001705467700958252, 0.00219649076461792, -0.0005822768434882164, -0.0002983510494232178, 0.0012187659740447998, -0.0004050210118293762, 0.0018843114376068115, -0.002374127507209778, -0.0008507072925567627, 0.00276947021484375, -0.001586630940437317, 0.0032112784683704376, 0.00038151443004608154, -0.0003920122981071472, 3.814697265625e-06, -0.0013825967907905579, 0.000512540340423584, -0.0013331659138202667, -0.00022146105766296387, -0.0006344765424728394, -0.0016411244869232178, 0.0009141266345977783, -0.0005379617214202881, 0.002619713544845581, -0.0003134012222290039, 0.0014657452702522278, 0.0003917217254638672, -0.0020483285188674927, 0.000613803043961525, -0.002797923982143402, 0.0009747333824634552, 0.0014171330258250237, -0.0012801885604858398, 0.0017482936382293701, -0.00020937621593475342, -0.00017464905977249146, -0.0005233921110630035, -0.0004697740077972412, -0.0012093037366867065, 0.004103720188140869, 0.00012230873107910156, -0.0003358125686645508, 0.003992199897766113, 0.0014455278869718313, 0.001258760690689087, -0.0006783157587051392, -0.0006202757358551025, 0.0031069591641426086, 0.00025715678930282593, -0.0010285228490829468, 0.0018465667963027954, 0.0019080117344856262, -0.002839915454387665, -0.0029262006282806396, 1.659989356994629e-05, -0.002087235450744629, 0.0010866166558116674, -0.00012208521366119385, 0.0020230114459991455, -0.0020481571555137634, -0.0005263425409793854, 0.0006833281368017197], [-0.0013641715049743652, -0.01680229976773262, 0.004875779151916504, 0.0045308396220207214, 0.0017106011509895325, -0.01497739553451538, 0.00039324164390563965, 0.012816756963729858, 0.004692763090133667, -0.01268237829208374, -0.0041179656982421875, 0.0038932710886001587, 0.006667099893093109, 0.02086430788040161, -0.006333380937576294, 0.002904161810874939, 0.009992673993110657, -0.0144883394241333, 0.009862005710601807, -0.011789441108703613, -0.011453963816165924, -0.004685848951339722, -0.011968672275543213, -0.010628849267959595, 0.006022587418556213, 0.003671471029520035, 0.005729168653488159, 0.004746370017528534, 0.006159640848636627, 0.002268165349960327, 0.009177051484584808, -0.004547685384750366, -0.008560359477996826, 0.009967774152755737, -0.00577390193939209, 0.019860759377479553, -0.0022874828428030014, 0.0034347176551818848, 0.0041582584381103516, -0.006127908825874329, -0.004115939140319824, 0.021211624145507812, 0.004285037517547607, 0.006938531994819641, 0.00521618127822876, 0.005578875541687012, -0.0023089200258255005, 0.005680561065673828, 0.012898077256977558, -0.006924062967300415, 0.005128245800733566, 0.004541747272014618, -0.001983851194381714, 0.018754273653030396, -0.008897274732589722, -0.01672334223985672, 0.00225144624710083, -0.009775079786777496, 0.004473507404327393, 0.009526312351226807, 0.005074910819530487, -0.005410108715295792, -0.004959017038345337, 0.007058471441268921], [0.0021844208240509033, -0.016997389495372772, 0.011622030287981033, -0.008809544146060944, 0.009045295417308807, -0.01629576086997986, -0.006805509328842163, 0.006492942571640015, 0.0075438618659973145, -0.006879366934299469, -0.01177126169204712, 0.011893481016159058, 0.00698370486497879, 0.020717129111289978, 0.0014764703810214996, -0.01098477840423584, 0.009324029088020325, -0.018930286169052124, 0.010614097118377686, 0.0040130615234375, -0.002499517984688282, -0.008892297744750977, -0.0008165552280843258, -0.011485526338219643, -0.0072706639766693115, -0.004885360598564148, 0.013316437602043152, -0.002343893051147461, -0.006974797695875168, -0.005050599575042725, 0.00357094407081604, -0.010916918516159058, -0.0064900116994977, 0.013825606554746628, -0.016051599755883217, 0.005387470126152039, 0.0028134500607848167, -0.00798780471086502, 0.002893969416618347, -0.00015407800674438477, -0.0085831880569458, 0.008767545223236084, -0.009542617946863174, 0.0032971352338790894, 0.006410390138626099, 0.011178821325302124, 0.0031336992979049683, 0.014958690851926804, 0.005144625902175903, 0.0006509497761726379, 0.0005504488945007324, -0.00545547716319561, -0.002276092767715454, 0.0046190544962882996, -0.009387880563735962, -0.002572685480117798, -0.0005652308464050293, -0.003969743847846985, -0.005296372342854738, 0.002626672387123108, 0.0019723176956176758, -0.0001449286937713623, -0.009945403784513474, 0.0037374496459960938], [0.002480223774909973, 0.007962562143802643, -0.003892607055604458, -0.0009515434503555298, 0.0027977898716926575, 0.004624500870704651, -0.002005651593208313, -0.0047101229429244995, -0.003464609384536743, 0.008761249482631683, -0.0004685595631599426, -0.0003241598606109619, -0.00726066529750824, -0.006471097469329834, 0.007013589143753052, -2.302229404449463e-05, -0.0026137232780456543, 0.003354400396347046, -0.0038679465651512146, -0.0012901723384857178, 0.0007468163967132568, 0.0038414597511291504, 0.006733566522598267, 0.006290555000305176, 0.00017961859703063965, -0.003247782588005066, -0.0017925575375556946, -0.006209567189216614, -0.0014421641826629639, -0.0006576329469680786, -0.005173768848180771, 0.0028951168060302734, 0.006221979856491089, -0.000846467912197113, 0.006016910076141357, -0.0065472424030303955, 0.0026240162551403046, 0.004580654203891754, 0.0012314319610595703, 0.002240121364593506, 0.0018543452024459839, -0.006770089268684387, -0.00014647841453552246, 0.002484925091266632, -0.0013555288314819336, -0.00604817271232605, -0.0021983981132507324, -0.0036931000649929047, -0.0016661062836647034, -0.001057453453540802, -0.008626483380794525, -0.0003280937671661377, 0.007511422038078308, -0.006758272647857666, 0.002520322799682617, 0.008114814758300781, -0.0007806168869137764, -0.002014942467212677, -0.0012363195419311523, -0.007863909006118774, -0.0028078844770789146, 0.00531981885433197, -0.0017327070236206055, -0.006512291729450226], [0.001814514398574829, -0.01020166277885437, 0.006541859358549118, -0.0006213784217834473, 0.003354467451572418, -0.009384676814079285, -0.0014296695590019226, 0.005306597799062729, 0.003512732684612274, -0.005250118672847748, -0.005565851926803589, 0.007854651659727097, 0.0040191784501075745, 0.013955742120742798, -0.0006288141012191772, -0.00425189733505249, 0.0042368024587631226, -0.010973364114761353, 0.0067327916622161865, -0.0007630996406078339, -0.0023052841424942017, -0.0054010748863220215, -0.003864988684654236, -0.0059537142515182495, -0.002421855926513672, 0.0007907301187515259, 0.006000041961669922, 0.0016252398490905762, -0.0015132427215576172, -0.0032125208526849747, 0.0028190016746520996, -0.006629675626754761, -0.004526913166046143, 0.00754363089799881, -0.008815526962280273, 0.007788851857185364, -0.0006166398525238037, -0.0024991631507873535, 0.0021920055150985718, -0.0027472078800201416, -0.004015907645225525, 0.009350061416625977, -0.00297652930021286, -0.00040161609649658203, 0.0057155415415763855, 0.005877457559108734, 0.002669263631105423, 0.0075057148933410645, 0.0032246336340904236, 0.0006768703460693359, 0.003092527389526367, -0.0026142895221710205, 0.00013258028775453568, 0.00581841915845871, -0.006994973868131638, -0.006142914295196533, -0.00012117624282836914, -0.00354921817779541, 0.00022776052355766296, 0.0029831528663635254, 0.0028884559869766235, -0.003138110041618347, -0.004318892955780029, 0.004525601863861084], [-0.002768293023109436, -0.006207585334777832, 0.0031245946884155273, 0.0016784369945526123, -0.0028260797262191772, -0.0035233497619628906, 0.0020265672355890274, 0.004249945282936096, 0.0017266273498535156, -0.006950110197067261, 0.0015889108180999756, -0.000260770320892334, 0.0069848597049713135, 0.004590034484863281, -0.006420053541660309, 0.00046270713210105896, 0.0014016181230545044, -0.0016315728425979614, 0.0027215145528316498, 0.001139909029006958, -0.0005719047039747238, -0.0030026882886886597, -0.005959898233413696, -0.005247950553894043, -0.0001631230115890503, 0.003531813621520996, 0.000966876745223999, 0.005712063051760197, 0.0015536844730377197, 0.0003629624843597412, 0.004702448844909668, -0.0016983500681817532, -0.005663972347974777, -0.0005769059062004089, -0.004515096545219421, 0.005482867360115051, -0.0025174468755722046, -0.0034372396767139435, -0.0009192153811454773, -0.0024832189083099365, -0.001153409481048584, 0.005018100142478943, 0.000409148633480072, -0.0029653534293174744, 0.0006823800504207611, 0.004637882113456726, 0.0019235014915466309, 0.0028887614607810974, 0.0009420625865459442, 0.0008632093667984009, 0.007979422807693481, 0.000578172504901886, -0.006545558571815491, 0.005288422107696533, -0.0015539377927780151, -0.006721317768096924, 0.0004891455173492432, 0.0021492522209882736, 0.0012697577476501465, 0.006809264421463013, 0.0017336462624371052, -0.0046111345291137695, 0.0019835680723190308, 0.0059379637241363525], [-0.002082422375679016, 0.0037319213151931763, -0.0018680542707443237, 0.001779407262802124, -0.0026947855949401855, 0.003758147358894348, 0.0019115433096885681, 0.0007797330617904663, -0.0018485039472579956, 0.001699596643447876, 0.005350081250071526, -0.004378959536552429, 0.0001911558210849762, -0.0069269463419914246, -0.0005690567195415497, 0.0008014068007469177, -0.0023345351219177246, 0.007169947028160095, -0.005207061767578125, -0.0013323351740837097, -0.0007260441780090332, 0.002209804952144623, -0.0005764812231063843, 0.002575501799583435, -0.0010316260159015656, 0.0020979195833206177, -0.0040768831968307495, 0.00026015937328338623, 0.0027828216552734375, -0.0004997849464416504, 0.0006136409938335419, 0.0027118176221847534, 0.00219736248254776, -0.0059766024351119995, 0.0044159069657325745, -0.0013439133763313293, 0.0005244910717010498, 0.0024482011795043945, -0.001260293647646904, 0.0005517825484275818, 0.00017061829566955566, -0.0032089948654174805, 0.0008474290370941162, 2.8230249881744385e-05, -0.0011516809463500977, -0.001747041940689087, -0.0028675198554992676, -0.004773586988449097, 2.2351741790771484e-05, 4.0411949157714844e-05, -0.003865458071231842, 0.0027333758771419525, -0.00039718858897686005, -0.0035567060112953186, 0.004604708403348923, 0.0007063299417495728, -0.0008230209350585938, -0.0017098784446716309, 0.0004993975162506104, 0.0009364187717437744, -0.002850279211997986, 0.0010661929845809937, 0.0015384629368782043, 0.0008948445320129395], [0.0023536160588264465, -0.004488721489906311, 0.0026049166917800903, 0.0006493628025054932, 0.0017026066780090332, -0.004119187593460083, -0.0009835660457611084, 0.0013164281845092773, 0.0003354176878929138, -0.00081653892993927, -0.004573263227939606, 0.006087392568588257, 0.002087414264678955, 0.007929646410048008, -9.251385927200317e-05, -0.0007463991641998291, 0.0009334012866020203, -0.006526641547679901, 0.007293151691555977, 0.002730235457420349, 0.0025062784552574158, -0.0047893226146698, -0.0009548608213663101, -0.003118559718132019, 0.0005665868520736694, -0.0012148916721343994, 0.003472469747066498, 0.0019336380064487457, -0.0026683509349823, 0.00022581219673156738, -0.0016037821769714355, -0.002574920654296875, -0.0051255002617836, 0.005503430962562561, -0.005896434187889099, 0.0033523403108119965, -0.003040790557861328, -0.00260712206363678, 0.0028607547283172607, -0.002806898206472397, 0.0012383610010147095, 0.001997813582420349, -0.00041919946670532227, -0.003932684659957886, 0.0003090091049671173, 0.001898154616355896, 0.005246952176094055, 0.006789784878492355, -0.0008526146411895752, -0.0007922053337097168, 0.007373005151748657, -0.003707006573677063, 0.0004064589738845825, 0.0027139484882354736, -0.004553988575935364, -0.0022229477763175964, 0.00022998452186584473, 0.0046561360359191895, 0.0012375414371490479, 0.0004167078295722604, 0.003550887107849121, -0.003463447093963623, 0.0009155571460723877, 0.002914898097515106], [0.0016979202628135681, -0.010529547929763794, 0.0037540793418884277, 0.0030812472105026245, 0.0009207874536514282, -0.00910748541355133, 0.0010320693254470825, 0.006014436483383179, 0.005169212818145752, -0.008559226989746094, -0.004157625138759613, 0.004865318536758423, 0.0026289746165275574, 0.014898866415023804, -0.003087978810071945, 0.0010225921869277954, 0.006169866770505905, -0.010643810033798218, 0.006728550419211388, -0.006772987544536591, -0.0064200758934021, -0.0026464778929948807, -0.0076631903648376465, -0.005592808127403259, 0.002884894609451294, 0.003016650676727295, 0.003571726381778717, 0.0034769114572554827, 0.003265783190727234, -1.9669532775878906e-06, 0.00514376163482666, -0.004930160939693451, -0.0041832029819488525, 0.007887378334999084, -0.005376964807510376, 0.012080710381269455, -0.0008955299854278564, 0.0007386505603790283, 0.0013705119490623474, -0.002583218738436699, -0.0030799806118011475, 0.015117362141609192, 0.0019029676914215088, 0.003045298159122467, 0.006436571478843689, 0.0038286596536636353, -0.00047309696674346924, 0.0031560659408569336, 0.006936609745025635, -0.001390703022480011, 0.0030610859394073486, 0.0008532702922821045, 0.00037188827991485596, 0.012485481798648834, -0.006874585524201393, -0.011519350111484528, 0.0008090585470199585, -0.0068879760801792145, 0.003026925027370453, 0.0050498247146606445, 0.004777073860168457, -0.004423916339874268, -0.0038187652826309204, 0.004242606461048126], [0.0009621679782867432, 0.010061798617243767, -0.00823279470205307, -0.004075765609741211, -0.0015135854482650757, 0.007996991276741028, 0.00021484866738319397, -0.008914753794670105, 0.0009185746312141418, 0.0065407659858465195, 0.0020758509635925293, -0.00838547945022583, -0.007310420274734497, -0.012593135237693787, 0.005201093852519989, 0.0014025568962097168, -0.0017477944493293762, 0.006879210472106934, -0.006604820489883423, 0.0008946061134338379, 0.002867460250854492, 0.005458176136016846, 0.010367333889007568, 0.006660938262939453, -0.0005044490098953247, -0.0039060264825820923, -0.004667341709136963, -0.004686683416366577, 0.0002524256706237793, 0.0026899129152297974, -0.004447643645107746, 0.004918336868286133, 0.008442774415016174, -0.0036802515387535095, 0.007484257221221924, -0.014776363037526608, 0.003019273281097412, 0.0019268840551376343, -0.003361523151397705, 0.0065853893756866455, 0.00017724931240081787, -0.009128734469413757, 0.001624375581741333, 0.004955962300300598, -0.0032580047845840454, -0.004697442054748535, -0.0038977861404418945, -0.008072145283222198, -0.002630920149385929, 0.001088172197341919, -0.010873876512050629, 0.0011641234159469604, 0.0012755244970321655, -0.010405242443084717, 0.006416715681552887, 0.013235874474048615, 0.0004234910011291504, 0.00017949379980564117, -0.0015887171030044556, -0.006787553429603577, -0.0016282573342323303, 0.004298470914363861, 0.0015162937343120575, -0.007528543472290039], [0.0018083453178405762, -0.008039891719818115, 0.0026505738496780396, 0.00010358169674873352, 0.0008171498775482178, -0.00647871196269989, -0.00042259693145751953, -0.002211540937423706, -0.00013706088066101074, -0.006214514374732971, -0.001854628324508667, 0.004297077655792236, 0.005737876519560814, 0.008875787258148193, -0.005234420299530029, 0.002029694616794586, 0.001419074833393097, -0.0045816898345947266, 0.00725044310092926, 0.005638331174850464, -0.0017151236534118652, 0.00200517475605011, -0.004831358790397644, -0.0067978352308273315, 0.004530057311058044, -0.0005807280540466309, 0.004630565643310547, 0.0024015679955482483, -0.005024611949920654, 0.0032077431678771973, 0.0038377046585083008, 0.0011920630931854248, -0.00820954144001007, 0.002101447433233261, -0.0063292235136032104, 0.00025472044944763184, 0.0009942390024662018, -0.005991101264953613, 0.00012690015137195587, 0.0001791045069694519, 0.003875434398651123, 0.0029816627502441406, -0.003025176003575325, -0.007872402667999268, -0.0021563172340393066, -4.762411117553711e-05, 0.001165926456451416, 0.006953120231628418, -0.0014011282473802567, 9.588897228240967e-05, 0.013669028878211975, -0.005722343921661377, -0.0021422505378723145, 0.009808734059333801, -0.0015498846769332886, -0.004235059022903442, -0.0013011395931243896, 0.004720874130725861, -0.0028697848320007324, 0.00032524019479751587, -0.0014026761054992676, 0.0009593218564987183, -0.0026512593030929565, 0.0007643699645996094], [0.00424368679523468, -0.005971401929855347, 0.0034533143043518066, -0.003262266516685486, 0.0059480369091033936, -0.006895523518323898, -0.0040824925526976585, 0.0010345876216888428, 0.001854926347732544, -0.0006129741668701172, -0.009058058261871338, 0.009058244526386261, 0.001998700201511383, 0.011341266334056854, 0.002035947050899267, -0.0031428933143615723, 0.003572314977645874, -0.01165170967578888, 0.009667322039604187, 0.0033875107765197754, 0.001382368616759777, -0.004562743008136749, 0.00032735615968704224, -0.004515714943408966, 0.0002635940909385681, -0.005124479532241821, 0.007196024060249329, -0.001702427864074707, -0.005698930472135544, 0.0004527643322944641, -0.0016675293445587158, -0.0038166623562574387, -0.005583249032497406, 0.009806081652641296, -0.008383437991142273, 0.002648545429110527, -0.0011227884097024798, -0.0035740286111831665, 0.003551296889781952, -0.0012632235884666443, 0.0009407103061676025, 0.002390727400779724, 