{"log_std": [0.0, 0.0], "mlp_extractor.policy_net.0.weight": [[-0.04880436509847641, -0.366750568151474, 0.25167298316955566, -0.013739281333982944, 0.30213385820388794, -0.012035049498081207, 0.14090599119663239, -0.0006160750635899603], [-0.23398540914058685, -0.0049664792604744434, -0.2106848657131195, 0.11049984395503998, -0.13870900869369507, 0.2890433371067047, -0.11168565601110458, -0.02614595554769039], [-0.3620385527610779, 0.04809536039829254, -0.02982231415808201, -0.08241918683052063, -0.06830150634050369, 0.10746176540851593, 0.06231290102005005, 0.14413757622241974], [-0.031245974823832512, -0.006352575961500406, -0.043432123959064484, -0.002155827358365059, 0.24866779148578644, -0.11415912210941315, -0.15099523961544037, 0.012834278866648674], [0.06886609643697739, -0.07847399264574051, 0.3150427043437958, -0.15498702228069305, -0.1990903913974762, -0.07281970977783203, 0.002963112434372306, 0.14887265861034393], [-0.021238790825009346, -0.046941015869379044, 0.06006579101085663, -0.014329648576676846, -0.06111033260822296, -0.07840611040592194, 0.01931905560195446, -0.3273703157901764], [-0.010290558449923992, 0.03593407943844795, 0.22042499482631683, 0.1139446273446083, -0.018298041075468063, -0.07443322241306305, -0.2333010584115982, -0.5599690079689026], [0.06340807676315308, -0.04226284474134445, -0.017412232235074043, 0.18003320693969727, 0.010835916735231876, -0.045198168605566025, 0.15494109690189362, 0.1199544295668602], [-0.019605033099651337, 0.26636502146720886, 0.08221663534641266, 0.05031641945242882, -0.3695254325866699, -0.2698791027069092, 0.17213378846645355, 0.296962708234787], [0.22541755437850952, -0.13070610165596008, 0.2086355835199356, 0.26989197731018066, -0.32453200221061707, -0.05393969267606735, 0.09982037544250488, -0.184587761759758], [-0.1941462755203247, -0.3596159517765045, -0.21300257742404938, 0.12508150935173035, -0.1878364235162735, -0.14998164772987366, 0.05075617879629135, 0.15918110311031342], [0.11181464046239853, 0.3586706817150116, -0.1723996102809906, -0.2818838655948639, -0.16513609886169434, 0.05309433490037918, 0.11370009183883667, 0.10275517404079437], [0.15634505450725555, -0.20327024161815643, -0.07317418605089188, -0.025452932342886925, -0.04289659112691879, 0.11410585045814514, -0.04389265179634094, -0.08858051151037216], [-0.2185388207435608, 0.008086394518613815, -0.20462337136268616, 0.22719736397266388, -0.23842711746692657, -0.03571530058979988, 0.0021878930274397135, 0.1365087330341339], [-0.24054259061813354, 0.12658777832984924, 0.14791372418403625, -0.024069037288427353, -0.15034863352775574, 0.37490174174308777, 0.11826948821544647, -0.11689558625221252], [0.23896798491477966, -0.21276238560676575, 0.0713157132267952, -0.013120743446052074, -0.11478552967309952, -0.33722397685050964, -0.078020840883255, 0.056132473051548004], [-0.17657358944416046, 0.08728110790252686, 0.17274029552936554, 0.16725946962833405, 0.3034548759460449, 0.03797772154211998, -0.17395256459712982, 0.02135089598596096], [-0.01898075081408024, -0.05391548573970795, 0.008420317433774471, 0.005867293104529381, -0.030905624851584435, 0.16004008054733276, 0.05155801773071289, 0.15564098954200745], [0.29414355754852295, 0.22204674780368805, 0.30134648084640503, -0.005170585587620735, 0.14800934493541718, 0.16438885033130646, 0.025742406025528908, -0.2485416829586029], [-0.0012606001691892743, -0.007091710809618235, -0.06761924177408218, 0.14138279855251312, 0.3288261592388153, 0.27155646681785583, -0.15496183931827545, -0.06341350078582764], [0.2653215825557709, 0.12029603868722916, -0.10933680832386017, -0.20199066400527954, -0.23182007670402527, 0.0626586303114891, -0.09337326139211655, -0.20285417139530182], [-0.03537658601999283, 0.17071318626403809, 0.40771499276161194, 0.09416697174310684, -0.03955256566405296, -0.12190871685743332, -0.25221726298332214, 0.18853332102298737], [-0.06902223080396652, -0.018896615132689476, -0.1682843565940857, 0.13631044328212738, -0.13492761552333832, -0.059836775064468384, -0.018992207944393158, -0.11658167093992233], [-0.16230113804340363, 0.08669238537549973, 0.0444941408932209, -0.1301468163728714, -0.06287525594234467, -0.24155505001544952, -0.11602062731981277, -0.039689719676971436], [0.07344310730695724, -0.24589107930660248, -0.44881579279899597, -0.17376571893692017, 0.12753911316394806, -0.1502484232187271, 0.14163242280483246, 0.3531259596347809], [-0.016651300713419914, 0.27332210540771484, -0.1194285899400711, 0.35125380754470825, 0.2371259480714798, -0.2697311341762543, 0.3957374393939972, -0.09740787744522095], [-0.11503835767507553, 0.24654683470726013, 0.2384975254535675, 0.02750949002802372, -0.041042912751436234, -0.044110365211963654, -0.10169486701488495, 0.4068828821182251], [0.0057853516191244125, -0.14415563642978668, 0.019250523298978806, -0.048734720796346664, 0.45553821325302124, 0.13436007499694824, 0.4207623600959778, 0.09791740030050278], [0.12385817617177963, -0.10727013647556305, -0.1411917358636856, 0.03473058342933655, 0.05491658300161362, -0.08478546142578125, 0.20039333403110504, -0.07227848470211029], [-0.15449552237987518, -0.0827006995677948, -0.23082663118839264, -0.08775140345096588, 0.15920712053775787, -0.10097511112689972, -0.25586995482444763, 0.025079913437366486], [-0.4042455852031708, 0.15837332606315613, 0.10031034052371979, -0.10014692693948746, 0.09796670079231262, -0.07634072005748749, 0.11931248754262924, -0.13293899595737457], [0.29129257798194885, 0.3748091757297516, -0.1132141649723053, 0.37186017632484436, 0.27791738510131836, 0.16007983684539795, -0.06776700168848038, 0.08571011573076248], [0.04735611379146576, -0.19026975333690643, 0.014482214115560055, 0.06866786628961563, -0.007844519801437855, -0.1474752575159073, 0.18658696115016937, 0.014043394476175308], [-0.1386304646730423, -0.10879123210906982, 0.1775636523962021, 0.06102960556745529, -0.050755925476551056, 0.0766860768198967, 0.0689060315489769, -0.00015851778152864426], [-0.013374906033277512, 0.08516333252191544, -0.27683326601982117, -0.07238837331533432, 0.0813836008310318, -0.0037518716417253017, 0.02351021021604538, -0.3742942810058594], [0.26632368564605713, -0.0870819091796875, -0.16671122610569, 0.19070443511009216, -0.045426659286022186, 0.12274675071239471, 0.40897542238235474, 0.020219575613737106], [-0.09844671934843063, 0.13436263799667358, -0.01897815801203251, 0.11024159938097, -0.1713075339794159, 0.10907620936632156, 0.0154158566147089, -0.01134974043816328], [-0.15916667878627777, 0.2734999656677246, -0.1467745006084442, 0.044467147439718246, 0.11045662313699722, 0.047910407185554504, 0.08689353615045547, -0.06100131571292877], [-0.045257385820150375, 0.012888872064650059, -0.1679772585630417, 0.2777809798717499, -0.07293181866407394, -0.02896488644182682, -0.17628799378871918, 0.1687248796224594], [-0.012399320490658283, 0.05664152279496193, -0.1873873472213745, 0.2093133181333542, -0.3734661638736725, 0.08127155154943466, 0.012661292217671871, -0.15188318490982056], [-0.10549473017454147, 0.14337117969989777, 0.046905193477869034, 0.08642115443944931, 0.13468264043331146, -0.34176716208457947, -0.08045455813407898, 0.00255907466635108], [0.10429324209690094, -0.06887087970972061, -0.006209326442331076, -0.07056037336587906, 0.1631670892238617, 0.00813246052712202, -0.1170167401432991, 0.0712345764040947], [-0.06141093373298645, 0.2079683244228363, -0.01099691167473793, 0.3732410967350006, 0.06120289862155914, -0.15869995951652527, 0.27998900413513184, -0.17154674232006073], [0.10529209673404694, -0.277212917804718, -0.13986924290657043, 0.20320317149162292, -0.07914828509092331, 0.1810910701751709, -0.316211462020874, 0.006270724348723888], [-0.07917196303606033, 0.26875731348991394, -0.22900907695293427, -0.15354441106319427, -0.09985808283090591, 0.02469971962273121, -0.10316889733076096, -0.3315155506134033], [-0.1911212056875229, 0.12006956338882446, 0.04869011417031288, -0.4537283480167389, -0.018983803689479828, -0.1297481507062912, -0.23806196451187134, -0.009139093570411205], [0.06510458141565323, -0.002219551708549261, -0.12947465479373932, -0.10075724124908447, 0.20907670259475708, 0.10310089588165283, 0.22461500763893127, -0.04246991127729416], [-0.19799542427062988, -0.05331672728061676, -0.33226278424263, -0.1606421172618866, -0.14576727151870728, -0.38739392161369324, -0.10298900306224823, -0.12247923761606216], [-0.20306707918643951, -0.18343602120876312, 0.09703422337770462, -0.3927498161792755, 0.1939452588558197, 0.06121370196342468, 0.05576467514038086, -0.11264888197183609], [-0.11141115427017212, -0.31050989031791687, -0.004191933199763298, 0.05109205096960068, -0.037776824086904526, 0.17211763560771942, -0.11691589653491974, -0.17122000455856323], [-0.059405434876680374, -0.07980677485466003, -0.022338401526212692, 0.18777687847614288, -0.05060466006398201, 0.2631274163722992, -0.10075844824314117, 0.07895512133836746], [-0.04008610546588898, -0.3009100556373596, 0.12742765247821808, 0.019378961995244026, 0.11119691282510757, 0.06058458238840103, -0.14574263989925385, -0.16796265542507172], [-0.6441710591316223, 0.010596033185720444, 0.10877694934606552, 0.21070976555347443, 0.010430080816149712, 0.13395902514457703, 0.21145451068878174, -0.016922693699598312], [-0.2752074897289276, -0.10976168513298035, 0.17505736649036407, 0.14054831862449646, -0.1374717801809311, 0.30967915058135986, -0.021169321611523628, 0.31195735931396484], [-0.1354455202817917, 0.009918841533362865, -0.01781390607357025, 0.12105635553598404, 0.03462987393140793, 0.03516406938433647, 0.17378762364387512, -0.1868022084236145], [0.02088593691587448, -0.025984706357121468, -0.1724119633436203, -0.06640544533729553, -0.008451934903860092, 0.03774598613381386, 0.07559675723314285, 0.08183376491069794], [-0.09980013221502304, -0.08845044672489166, 0.3258439600467682, 0.0989840105175972, -0.24132831394672394, -0.29382121562957764, 0.19886653125286102, -0.14481361210346222], [0.25810763239860535, 0.08933882415294647, 0.009778032079339027, 0.2620502710342407, -0.13606490194797516, -0.06177104264497757, -0.26084309816360474, 0.012924605049192905], [-0.18418075144290924, -0.24769675731658936, -0.06473642587661743, 0.18968774378299713, 0.06800895929336548, -0.48958346247673035, 0.1319074183702469, -0.18678101897239685], [0.06084385886788368, -0.1171557828783989, 0.2730132043361664, 0.2744775712490082, 0.27679643034935, -0.24382223188877106, -0.2871645390987396, 0.023843085393309593], [0.12674115598201752, -0.009976506233215332, 0.07434448599815369, -0.006164544727653265, 0.038407113403081894, -0.1301465630531311, 0.045113079249858856, 0.3766634166240692], [0.08962532132863998, -0.08519980311393738, 0.16602298617362976, 0.014691704884171486, -0.22666291892528534, 0.2641162574291229, 0.24059894680976868, -0.03143453225493431], [0.15757477283477783, -0.14537815749645233, 0.28008201718330383, -0.3035016655921936, -0.2151772379875183, 0.03111911378800869, 0.3967006206512451, -0.1203814297914505], [0.037722669541835785, 0.37107905745506287, 0.1217651441693306, -0.19768249988555908, 0.15395933389663696, -0.11524781584739685, 0.15966065227985382, 0.10036612302064896]], "mlp_extractor.policy_net.0.bias": [0.0, 0.0, 0.0, 0.0, 0.0, 0.0, 0.0, 0.0, 0.0, 0.0, 0.0, 0.0, 0.0, 0.0, 0.0, 0.0, 0.0, 0.0, 0.0, 0.0, 0.0, 0.0, 0.0, 0.0, 0.0, 0.0, 0.0, 0.0, 0.0, 0.0, 0.0, 0.0, 0.0, 0.0, 0.0, 0.0, 0.0, 0.0, 0.0, 0.0, 0.0, 0.0, 0.0, 0.0, 0.0, 0.0, 0.0, 0.0, 0.0, 0.0, 0.0, 0.0, 0.0, 0.0, 0.0, 0.0, 0.0, 0.0, 0.0, 0.0, 0.0, 0.0, 0.0, 0.0], "mlp_extractor.policy_net.2.weight": [[-0.06534801423549652, 0.24540682137012482, 0.18714238703250885, -0.282796710729599, 0.17794466018676758, 0.29095134139060974, -0.20811395347118378, 0.17380911111831665, 0.10717050731182098, -0.05839752405881882, -0.3645312190055847, -0.2607617974281311, 0.14045372605323792, 0.08960417658090591, -0.17426064610481262, -0.10806231200695038, 0.022455990314483643, 0.08455228060483932, -0.08180920034646988, -0.012155286967754364, -0.00684675807133317, 0.002587784780189395, -0.08548761904239655, -0.06613349914550781, 0.20372933149337769, 0.12407178431749344, 0.3257770836353302, 0.13382597267627716, -0.1648024320602417, -0.10668380558490753, 0.026415320113301277, 0.019160931929945946, -0.0435764417052269, 0.004916326608508825, -0.24487052857875824, 0.45993760228157043, -0.1365804672241211, 0.11105348914861679, -0.051068469882011414, -0.30750352144241333, 0.4224867820739746, 0.0029904611874371767, 0.17065837979316711, -0.06237441673874855, 0.08978979289531708, -0.04228587448596954, -0.0399993360042572, -0.29717010259628296, -0.043502457439899445, -0.027825582772493362, -0.013047679327428341, 0.27072951197624207, 0.20139387249946594, 0.02850884385406971, -0.17976950109004974, 0.09436314553022385, -0.20188993215560913, 0.010146353393793106, 0.15349239110946655, 0.278283953666687, -0.1344720423221588, -0.007999060675501823, -0.1465538889169693, 0.21271125972270966], [0.024502109736204147, 0.15652237832546234, 0.2134173959493637, 0.16501978039741516, 0.17889219522476196, -0.07534578442573547, -0.055649712681770325, -0.11668549478054047, -0.4709417521953583, -0.029630320146679878, 0.11336450278759003, 0.19162574410438538, -0.3657241761684418, 0.051794592291116714, -0.004843173082917929, -0.15164446830749512, 0.0004137005307711661, 0.016749124974012375, -0.20950567722320557, 0.21280349791049957, -0.14566779136657715, 0.1489258110523224, 0.08376507461071014, -0.013371697627007961, -0.09846723824739456, 0.08401939272880554, -0.06902953237295151, -0.07067865878343582, 0.14668485522270203, -0.2872018814086914, 0.003933280240744352, -0.07328101992607117, 0.12530021369457245, 0.532416820526123, -0.08658943325281143, 0.0023473298642784357, 0.2638779282569885, 0.16293217241764069, 0.296724408864975, 0.19326789677143097, 0.13290242850780487, 0.12497540563344955, -0.01583242416381836, 0.20673614740371704, 0.26493388414382935, 0.036416273564100266, -0.1610300987958908, -0.06810816377401352, 0.2689051032066345, -0.10312087088823318, 0.14842185378074646, 0.09390765428543091, 0.24062968790531158, 0.13297978043556213, 0.1365693211555481, 0.01846352033317089, 0.04417187348008156, 0.38599276542663574, 0.06505680829286575, 0.1291961818933487, -0.05799974128603935, -0.07253418862819672, -0.08129970729351044, 0.19495460391044617], [-0.028534216806292534, -0.1958819478750229, 0.11039752513170242, 0.03194844722747803, -0.0640617311000824, -0.1993805468082428, -0.027215566486120224, 0.3484034836292267, 0.12281415611505508, 0.17842704057693481, -0.09214159846305847, -0.03664236515760422, 0.047496698796749115, 0.10103145241737366, -0.06523282825946808, -0.004160728771239519, -0.25625985860824585, -0.1858789622783661, 0.05179007351398468, -0.25399652123451233, -0.11112000793218613, 0.11381570994853973, 0.007546070963144302, -0.17705534398555756, 0.23958316445350647, 0.11243631690740585, -0.4320726692676544, 0.06710268557071686, 0.054737769067287445, -0.404122531414032, 0.002113182097673416, 0.24775497615337372, -0.24642035365104675, 0.051397327333688736, 0.10725009441375732, 0.06487590819597244, -0.13026492297649384, 0.15438807010650635, 0.1998952031135559, 0.01927800104022026, -0.09898180514574051, 0.04547226056456566, 0.2637780010700226, 0.1262030303478241, -0.047917284071445465, 0.20635564625263214, 0.2577630877494812, 0.2895728647708893, 0.04202835261821747, -0.2597215473651886, -0.012807101011276245, 0.13434767723083496, -0.40775546431541443, 0.31208673119544983, -0.2076227068901062, -0.10886410623788834, -0.24223460257053375, 0.21283385157585144, 0.11605677008628845, -0.019050490111112595, -0.12197359651327133, -0.007715124636888504, 0.016484297811985016, 0.05706839635968208], [-0.23005428910255432, 0.17701056599617004, 0.044861841946840286, -0.11962877213954926, 0.28780224919319153, 0.15259402990341187, -0.05939117446541786, 0.056285545229911804, -0.11391422897577286, -0.02741677686572075, 0.11827950179576874, -0.27320003509521484, 0.1758483201265335, -0.3123781085014343, 0.005196279380470514, -0.07886295020580292, 0.1821056753396988, 0.3233146369457245, 0.1903262883424759, 0.008420586585998535, 0.06264732033014297, -0.3710346817970276, 0.0724312961101532, 0.12188323587179184, -0.18647126853466034, 0.021331090480089188, -0.07087558507919312, -0.19238750636577606, 0.052494242787361145, 0.06164328381419182, 0.13800334930419922, 0.07743663340806961, -0.3137853741645813, -0.15367814898490906, -0.23955018818378448, -0.002137377392500639, -0.04544834792613983, 0.09344295412302017, 0.5315308570861816, 0.2672940194606781, -0.18249741196632385, 0.1759900152683258, -0.0037762837018817663, 0.002097656484693289, -0.21718363463878632, 0.003977273590862751, -0.24685774743556976, 0.042159244418144226, 0.18303567171096802, -0.07115630805492401, -0.1395896077156067, 0.03900936618447304, 0.01957116089761257, 0.3222307860851288, 0.14982058107852936, -0.04838980361819267, -0.2559645473957062, -0.15981848537921906, -0.009144578129053116, -0.17574945092201233, -0.14158529043197632, 0.01949862204492092, -0.09904897212982178, -0.21373598277568817], [-0.15738888084888458, -0.19997718930244446, -0.20683562755584717, -0.14905278384685516, -0.20240351557731628, 0.03238597512245178, -0.3330773711204529, -0.10034173727035522, 0.04419441521167755, 0.3081440031528473, -0.3056941032409668, 0.019152352586388588, -0.28866735100746155, -0.12170040607452393, -0.13372385501861572, -0.1867622435092926, 0.16592450439929962, 0.1704123318195343, 0.07561907172203064, 0.038533058017492294, 0.00010889847908401862, 0.022195124998688698, -0.06470146775245667, -0.1657005399465561, -0.05030011758208275, -0.064742311835289, 0.2119273692369461, -0.16053321957588196, 0.014733481220901012, -0.12583179771900177, 0.1919456422328949, -0.45942747592926025, 0.2323685735464096, 0.07620450109243393, -0.11277762800455093, 0.10469626635313034, 0.12709923088550568, -0.0861038789153099, 0.15080493688583374, -0.1173674613237381, -0.3448450565338135, -0.07698523253202438, 0.08044158667325974, 0.05056976526975632, 0.19974374771118164, 0.06676115840673447, 0.2838148772716522, 0.08345647156238556, -0.2307634800672531, -0.13445405662059784, 0.20958000421524048, 0.2238491326570511, 0.011688251048326492, 0.18154093623161316, 0.02080863155424595, -0.2935948073863983, -0.013081267476081848, -0.23767437040805817, -0.11154197156429291, -0.3506481647491455, 0.14806650578975677, 0.0193294920027256, -0.08906850963830948, 0.10781195014715195], [0.2766922116279602, 0.07258357107639313, 0.10640894621610641, 0.14225302636623383, -0.12816202640533447, 0.0914040356874466, 0.12469314783811569, -0.15962252020835876, -0.17234596610069275, -0.3466460406780243, -0.07155624032020569, -0.2726022005081177, 0.13646386563777924, -0.008577806875109673, -0.1418508142232895, 0.15426012873649597, -0.22458428144454956, -0.17313428223133087, 0.12352924793958664, 0.10292267799377441, 0.25621965527534485, 0.13920719921588898, -0.12106230854988098, -0.2832878530025482, -0.6259884834289551, -0.12897582352161407, 0.11636823415756226, -0.42089924216270447, -0.12043476849794388, -0.1902015209197998, 0.11135850101709366, -0.07092699408531189, -0.06937874853610992, 0.08946261554956436, 0.058998242020606995, -0.06955289095640182, -0.2344481348991394, -0.022758668288588524, 0.0015154590364545584, -0.3211134970188141, -0.10681088268756866, -0.13227760791778564, -0.04169294610619545, 0.2726840376853943, 0.0966411754488945, 0.07592611014842987, -0.0749368891119957, 0.11949770152568817, -0.18125909566879272, -0.021298779174685478, 0.0313396230340004, -0.10459207743406296, -0.0261676087975502, 0.12184286117553711, -0.10599447786808014, -0.03394024074077606, -0.015999455004930496, -0.06317243725061417, 0.2059713453054428, 0.0536731481552124, -0.35690945386886597, 0.057431962341070175, 0.0011708210222423077, -0.047607023268938065], [0.2884227931499481, 0.11819968372583389, -0.35440322756767273, 0.2961319386959076, 0.03621593862771988, 0.032484881579875946, -0.2920970916748047, 0.09983508288860321, -0.09177102893590927, 0.28524667024612427, -0.21400786936283112, -0.2548973262310028, 0.30343836545944214, -0.20462118089199066, -0.152531236410141, -0.023179244250059128, -0.18756824731826782, 0.030325941741466522, -0.10655414313077927, 0.1235065758228302, 0.07260031253099442, -0.23571421205997467, -0.296889066696167, 0.030829833820462227, 0.042870573699474335, 0.06689133495092392, 0.041059885174036026, -0.15505777299404144, -0.08722398430109024, 0.08729367703199387, -0.16645829379558563, 0.09974463284015656, -0.08179107308387756, 0.10427437722682953, -0.05204952508211136, -0.23838336765766144, 0.20755182206630707, 0.17307355999946594, 0.016523640602827072, 0.07250719517469406, 0.25075915455818176, 0.026866545900702477, -0.21642889082431793, -0.13691098988056183, -0.20450390875339508, -2.4094826585496776e-05, 0.04329652339220047, -0.16109071671962738, -0.16523073613643646, -0.18850146234035492, 0.0804910734295845, -0.0513954684138298, -0.18422693014144897, -0.06804025173187256, -0.09088929742574692, -0.13028956949710846, 0.37149348855018616, 0.42501184344291687, 0.00672858627513051, -0.30267003178596497, 0.005258543882519007, -0.0465049147605896, -0.13472020626068115, 0.12300191074609756], [-0.15714755654335022, 0.11414040625095367, 0.032107189297676086, -0.004382795188575983, 0.19763325154781342, 0.20538075268268585, -0.287736177444458, 0.2198256254196167, 0.18314912915229797, 0.02935345470905304, 0.09506721794605255, 0.06900676339864731, 0.13719771802425385, 0.09830782562494278, -0.04096480831503868, -0.1067558154463768, -0.10801705718040466, -0.2829104959964752, 0.12483193725347519, -0.009027785621583462, -0.23822565376758575, 0.19185683131217957, 0.1895829290151596, -0.31756776571273804, -0.14147824048995972, -0.05808071047067642, 0.20007169246673584, -0.03954577445983887, -0.026815660297870636, -0.16476444900035858, 0.07227127254009247, 0.14512750506401062, 0.06565443426370621, 0.386402428150177, 0.1519927680492401, -0.0007392188417725265, 0.03400294482707977, -0.1291590929031372, 0.03895826265215874, 0.23422923684120178, 0.12699639797210693, -0.11417907476425171, -0.12167662382125854, 0.14420533180236816, -0.20905257761478424, -0.19935846328735352, 0.1778225600719452, -0.06574258208274841, 0.1475968211889267, -0.09747005254030228, -0.5284299850463867, -0.038453731685876846, 0.0033972084056586027, -0.1847822070121765, 0.1423502266407013, 0.10172374546527863, 0.22250787913799286, -0.4209960401058197, -0.038603298366069794, -0.3522201180458069, -0.07307861745357513, -0.11233755201101303, 0.10600685328245163, 0.09428667277097702], [-0.07613742351531982, -0.1497994065284729, -0.21922694146633148, -0.15732644498348236, 0.023959748446941376, -0.00748392753303051, 0.1466350108385086, -0.2233821451663971, -0.05742694437503815, -0.29122596979141235, -0.0616060309112072, 0.001942683826200664, 0.10115569084882736, 0.04398098215460777, -0.14148488640785217, -0.049531880766153336, -0.3774362802505493, 0.07763375341892242, -0.1517123281955719, 0.12980391085147858, -0.2833106815814972, -0.18366645276546478, 0.26193493604660034, -0.006888403091579676, -0.13588730990886688, 0.08065450191497803, -0.058155979961156845, -0.05928725376725197, -0.10769271850585938, 0.04458361864089966, 0.3745468556880951, -0.05410007759928703, -0.06730441004037857, 0.3380008935928345, 0.04372990131378174, 0.09717647731304169, -0.1742534339427948, -0.2599140703678131, 0.10691609233617783, 0.2612060606479645, -0.05033383518457413, -0.22384022176265717, -0.1543148159980774, -0.29266270995140076, -0.1616010218858719, 0.1771460920572281, 0.12308207154273987, -0.35556888580322266, -0.11088957637548447, 0.16212253272533417, 0.1732824295759201, 0.28019586205482483, -0.3984639644622803, -0.08106829226016998, -0.04195566102862358, 0.16855666041374207, -0.19868408143520355, 0.12642285227775574, -0.04582192748785019, 0.1361907422542572, 0.2281855344772339, -0.009094400331377983, -0.012625211849808693, -0.027643948793411255], [-0.07127697765827179, -0.0482192300260067, -0.204119011759758, 0.22769196331501007, -0.31073811650276184, 0.09523115307092667, -0.018382951617240906, 0.10336576402187347, -0.007260594051331282, 0.21332740783691406, -0.006666485220193863, 0.09833241254091263, 0.27818191051483154, 0.21160225570201874, 0.020468266680836678, -0.35752514004707336, 0.04504794254899025, 0.3293217420578003, -0.06977173686027527, 0.047167591750621796, 0.030860034748911858, -0.10556312650442123, -0.10907790809869766, 0.11796160042285919, -0.18365004658699036, 0.07324671745300293, -0.1142086610198021, 0.027941137552261353, -0.17820411920547485, -0.286150187253952, 0.004708088468760252, 0.08095725625753403, 0.12663379311561584, -0.13418222963809967, 0.12423242628574371, 0.3845809996128082, -0.04883311688899994, 0.05757230520248413, 0.07487531751394272, 0.2428557425737381, -0.10207195580005646, -0.20207741856575012, -0.2766123414039612, 0.1521437019109726, -0.04227812588214874, 0.05104636400938034, -0.042853109538555145, 0.27783915400505066, 0.010342692025005817, -0.03339969739317894, 0.024030912667512894, -0.0821835994720459, 0.21525461971759796, -0.2443629503250122, 0.05803731456398964, 0.07963106036186218, 0.03664705902338028, -0.10202448815107346, 0.5968430638313293, 0.2832512855529785, 0.2003728598356247, -0.15400072932243347, -0.048547811806201935, -0.08603241294622421], [0.11868178099393845, -0.13104642927646637, 0.15778465569019318, 0.22198262810707092, -0.09400559216737747, 0.01628609001636505, -0.06009182333946228, 0.09253988415002823, -0.14893564581871033, -0.027648476883769035, -0.04486526548862457, 0.30089738965034485, 0.1663762778043747, -0.17958270013332367, 0.13884007930755615, 0.08504390716552734, -0.1324319988489151, -0.03525698184967041, 0.20894670486450195, 0.03132069110870361, -0.08664238452911377, -0.181019127368927, -0.13976696133613586, 0.16509021818637848, 0.06251358985900879, 0.19519701600074768, -0.21353426575660706, -0.21675384044647217, 0.22531002759933472, -0.306334912776947, 0.009040665812790394, -0.3139485716819763, 0.3463803827762604, -0.17722657322883606, 0.015307453460991383, 0.18383906781673431, -0.09930968284606934, -0.019198637455701828, 0.11650627851486206, -0.09105212241411209, -0.08000175654888153, 0.20565246045589447, 0.24448426067829132, -0.10655999928712845, -0.16029448807239532, -0.018458601087331772, 0.11412478983402252, -0.39686158299446106, -0.39112570881843567, 0.09689639508724213, -0.48749417066574097, 0.03477146103978157, 0.0558973029255867, -0.07204436510801315, 0.31704181432724, 0.08358707278966904, 0.06217307597398758, 0.0786307156085968, -0.11966481804847717, 0.1777900755405426, -0.17970030009746552, 0.02898438274860382, -0.05416256561875343, -0.0067490763030946255], [-0.08634602278470993, -0.21691638231277466, -0.027654923498630524, 0.2604142427444458, 0.3912563920021057, 0.15560761094093323, 0.10138893872499466, -0.13773244619369507, -0.09253247827291489, 0.29547226428985596, 0.29790419340133667, -0.17887674272060394, 0.2344355434179306, 0.20857784152030945, 0.2676750421524048, -0.23606573045253754, -0.07959960401058197, 0.21075840294361115, 0.39074599742889404, -0.0913877934217453, -0.10708128660917282, 0.10464800149202347, -0.13635383546352386, 0.19012358784675598, -0.06826122105121613, 0.09077006578445435, 0.227730855345726, 0.09038583189249039, -0.16803918778896332, 0.04328626021742821, 0.10777892917394638, -0.00015711142623331398, 0.20574289560317993, 0.0070213680155575275, 0.09601932018995285, -0.3191012144088745, -0.13709092140197754, -0.06975874304771423, -0.13738864660263062, -0.06565911322832108, -0.0727057009935379, 0.14658284187316895, 0.026078445836901665, 0.011429110541939735, 0.14222292602062225, -0.1625952124595642, 0.1136513352394104, -0.060107212513685226, -0.009481974877417088, -0.2909461259841919, 0.17265495657920837, 0.3571174442768097, -0.05202321708202362, 0.07095469534397125, -0.01722116954624653, 0.0882754772901535, -0.0699550211429596, 0.06578251719474792, 0.01797908917069435, 0.12596748769283295, -0.1470188945531845, 0.24471968412399292, 0.3779290020465851, 0.16001485288143158], [0.11596198379993439, -0.20157374441623688, 0.21378567814826965, -0.12901124358177185, 0.046185921877622604, -0.1161787137389183, -0.28039202094078064, -0.083328478038311, 0.12797190248966217, -0.08065370470285416, 0.1788383424282074, -0.2574595808982849, 0.0983576849102974, -0.017522430047392845, 0.07501082867383957, 0.26405051350593567, 0.18443089723587036, 0.27156126499176025, -0.0748959481716156, -0.13393883407115936, -0.226326122879982, 0.2153586596250534, 0.007504661101847887, 0.07603815943002701, 0.21959905326366425, -0.2483101785182953, 0.10110786557197571, -0.3736656606197357, 0.09981890767812729, -0.0677725076675415, 0.44399380683898926, 0.2167823165655136, 0.22999832034111023, -0.10087037831544876, -0.12900985777378082, -0.016707170754671097, 0.09761654585599899, -0.028713863343000412, 0.08224949985742569, -0.1682925671339035, -0.07094681262969971, -0.3211768567562103, -0.23132586479187012, -0.17909961938858032, -0.06823219358921051, 0.047145258635282516, 0.21861432492733002, 0.06348496675491333, 0.1960267871618271, 0.09443731606006622, -0.23317891359329224, -0.23912663757801056, 0.12344036251306534, 0.12346907705068588, -0.009176620282232761, -0.08323179185390472, 0.09576822072267532, 0.39395514130592346, 0.17660005390644073, 0.11318647861480713, 0.10854962468147278, 0.0909351333975792, 0.09089981019496918, 0.10835732519626617], [-0.05378172919154167, 0.0012542500626295805, -0.011291343718767166, 0.11353060603141785, 0.2806086242198944, 0.27749818563461304, -0.04076734557747841, 0.09527773410081863, -0.14067091047763824, -0.041252292692661285, -0.1562318503856659, 0.2183157056570053, -0.48492830991744995, -0.093391552567482, 0.03405845910310745, 0.10074443370103836, -0.04721790924668312, -0.09538360685110092, -0.21010269224643707, 0.09750737249851227, 0.15570126473903656, -0.15140366554260254, -0.2016407549381256, 0.1963561624288559, -0.01777757704257965, 0.14131198823451996, 0.14474424719810486, -0.0327690988779068, -0.202663391828537, 0.13420528173446655, -0.09906680881977081, 0.1296292096376419, -0.03298250958323479, -0.008849474601447582, 0.20754559338092804, 0.23707331717014313, 0.08797352761030197, 0.005086986813694239, 0.3630864918231964, -0.1530170887708664, -0.18008758127689362, -0.1487749218940735, -0.1499902456998825, -0.36131709814071655, 0.21091410517692566, -0.031145840883255005, 0.129434734582901, 0.24297305941581726, -0.08228334039449692, -0.14559362828731537, -0.26730039715766907, -0.26589787006378174, -0.22214697301387787, -0.09733553230762482, -0.16941982507705688, 0.25809621810913086, -0.1721428483724594, -0.0015350535977631807, 0.054250963032245636, -0.02536696009337902, -0.060297198593616486, 0.2316412627696991, 0.3652096092700958, 0.0949682891368866], [0.30913692712783813, 0.17736759781837463, -0.24553607404232025, -0.017934495583176613, 0.18079718947410583, -0.34803953766822815, -0.07455606758594513, -0.23280945420265198, 0.14566093683242798, -0.12191740423440933, 0.0969897136092186, 0.18404367566108704, -0.04712440073490143, -0.060634974390268326, 0.01795986481010914, -0.1657867282629013, 0.12865228950977325, 0.3132605254650116, 0.020226873457431793, -0.1403190642595291, 0.11242741346359253, -0.07028049230575562, -0.20732685923576355, 0.20414555072784424, 0.00010022520291386172, -0.04536973312497139, 0.09309659153223038, 0.14945773780345917, -0.08336164802312851, -0.023426726460456848, 0.04449407011270523, 0.23268873989582062, -0.0505887046456337, 0.45724448561668396, 0.10148584097623825, 0.13230906426906586, -0.2738628387451172, -0.0013261663261801004, -0.011085247620940208, -0.1892649233341217, 0.10754619538784027, -0.1623304784297943, 0.33246177434921265, 0.11939304322004318, -0.1365640014410019, 0.3032255172729492, 0.15754197537899017, 0.0019245198927819729, -0.0926700159907341, -0.38322481513023376, -0.08442352712154388, -0.2378210425376892, 0.07636595517396927, 0.2072201371192932, 0.16417816281318665, 0.10391915589570999, 0.14026474952697754, -0.16210132837295532, -0.25726982951164246, 0.1313486546278, 0.09251630306243896, 0.018104495480656624, -0.08556230366230011, -0.22858503460884094], [0.10358744859695435, -0.11125252395868301, -0.17256832122802734, 0.0629449337720871, -0.12431520223617554, 0.23607411980628967, 0.3743286728858948, 0.1389823853969574, 0.10617228597402573, -0.15047623217105865, 0.14142437279224396, -0.028746990486979485, 0.09446477144956589, -0.1994650810956955, 0.003481691936030984, 0.042723122984170914, 0.3360625207424164, -0.15313725173473358, 0.12654946744441986, -0.010605602525174618, 0.09632984548807144, -0.18292517960071564, -0.02367410808801651, -0.041912708431482315, 0.059250764548778534, 0.19105248153209686, 0.15892919898033142, 0.4519292712211609, 0.16911941766738892, -0.2254522740840912, 0.316129207611084, -0.3568976819515228, -0.11083190143108368, 0.09316308051347733, 0.17625519633293152, -0.1630961000919342, 0.04136601462960243, -0.1299881637096405, 0.16724130511283875, -0.10255773365497589, 0.16525988280773163, -0.05119989067316055, -0.13680781424045563, -0.2792905569076538, 0.2563626170158386, 0.06735552847385406, 0.0223347470164299, -0.0560537688434124, 0.18929263949394226, -0.11684473603963852, -0.1625695824623108, -0.04779950529336929, -0.037792060524225235, 0.32487571239471436, -0.1452188938856125, -0.10370331257581711, 0.2772180438041687, 0.029267817735671997, 0.18037036061286926, 0.07422082126140594, -0.007727773394435644, -0.4047558307647705, 0.010779028758406639, 0.019151117652654648], [-0.07206260412931442, 0.15518511831760406, 0.0971754789352417, 0.3351284861564636, -0.012723169289529324, -0.06154884770512581, 0.2615940570831299, 0.0640648826956749, -0.04704849049448967, -0.07628767192363739, -0.14862589538097382, 0.11915608495473862, -0.0257317703217268, -0.25849273800849915, 0.22400763630867004, -0.0645749494433403, -0.08895938098430634, -0.17986322939395905, 0.28239554166793823, 0.06964487582445145, -0.1380482167005539, 0.22402510046958923, 0.04547380283474922, 0.04027443751692772, 0.10641054809093475, 0.18580475449562073, 0.008132033981382847, -0.12105759233236313, -0.002352484269067645, 0.39661306142807007, 0.244923934340477, 0.2569059133529663, 0.03678994998335838, 0.19568166136741638, 0.11239219456911087, 0.2924322783946991, 0.11802171170711517, 0.20851197838783264, -0.10198003798723221, -0.2984892725944519, -0.2338208705186844, 0.06641390174627304, -0.057075247168540955, -0.04810138791799545, -0.18382634222507477, -0.019882364198565483, 0.0032979382667690516, -0.14015556871891022, 0.018617916852235794, -0.04368896782398224, 0.0033371979370713234, 0.2611568868160248, 0.305289626121521, 0.11446639895439148, -0.3111420273780823, -0.150447815656662, 0.022198639810085297, -0.005487045273184776, 0.2689686715602875, -0.2630016505718231, 0.30138328671455383, -0.03458379581570625, -0.1168493777513504, -0.3279399871826172], [0.12387107312679291, -0.013169372454285622, 0.1697242110967636, 0.02021290361881256, -0.06458389759063721, -0.13910533487796783, -0.16009950637817383, -0.0691661462187767, -0.22011737525463104, 0.1693905144929886, -0.15373264253139496, 0.2484942525625229, 0.2672622501850128, -0.20366549491882324, 0.07476495206356049, -0.1590554416179657, 0.10518805682659149, -0.24559123814105988, 0.07229107618331909, -0.42841458320617676, 0.12187886238098145, 0.09277065098285675, 0.22669577598571777, 0.24508388340473175, -0.08166693896055222, 0.03062506392598152, 0.3623390197753906, 0.1943010538816452, -0.032295163720846176, 0.17307409644126892, -0.1679556518793106, -0.12444300204515457, -0.37318524718284607, 0.11458035558462143, -0.17909514904022217, -0.04760689660906792, 0.0686984583735466, -0.04600078612565994, -0.00037831009831279516, 0.044179629534482956, -0.26574888825416565, -0.4007073640823364, 0.15367674827575684, 0.004635384306311607, 0.02445176988840103, -0.015676045790314674, 0.21754954755306244, -0.0870027095079422, 0.09588191658258438, 0.2981780469417572, 0.05627775192260742, -0.004424544516950846, -0.09575863182544708, 0.011232838034629822, 0.2747229039669037, 0.17445066571235657, -0.04923572763800621, 0.18263763189315796, 0.3587186634540558, -0.06255354732275009, -0.21690815687179565, 0.028230400756001472, -0.08377908170223236, 0.0527048334479332], [-0.03772267326712608, 0.09675246477127075, -0.15755914151668549, 0.21504388749599457, 0.020006468519568443, -0.08896396309137344, -0.1671881228685379, 0.1995384395122528, 0.17616525292396545, -0.25067269802093506, -0.27498406171798706, -0.3071897327899933, -0.14559702575206757, -0.1177409365773201, 0.2580554485321045, -0.0029430135618895292, 0.5171119570732117, -0.09028583765029907, 0.22384825348854065, -0.026033122092485428, -0.0681738331913948, 0.25242793560028076, -0.15138699114322662, 0.19310840964317322, -0.3580872416496277, 0.024363765493035316, -0.22545920312404633, 0.06051824614405632, -0.054688554257154465, 0.08558502048254013, 0.007668450474739075, -0.057610590010881424, 0.1186273843050003, 0.08308400958776474, 0.10220324248075485, 0.0935172289609909, 0.242222398519516, -0.19790318608283997, 0.11654336750507355, 0.23178033530712128, 0.21358004212379456, -0.03587259352207184, 0.08906469494104385, 0.08960531651973724, -0.06820555031299591, -0.008096662349998951, 0.21766887605190277, 0.01108546368777752, 0.12527044117450714, 0.173873633146286, 0.06973078846931458, 0.12036285549402237, -0.24182870984077454, -0.286101371049881, -0.1327379196882248, -0.21762070059776306, -0.06977199018001556, 0.07334544509649277, -0.14476318657398224, 0.33202114701271057, -0.19474981725215912, 0.17734132707118988, -0.08949899673461914, -0.12170667201280594], [-0.15504400432109833, -0.0968485027551651, 0.09909647703170776, -0.25223058462142944, -0.11875489354133606, -0.031001608818769455, -0.21255426108837128, -0.16355173289775848, 0.12144150584936142, 0.17207267880439758, 0.15621565282344818, 0.15006937086582184, -0.012639706954360008, -0.0278713908046484, -0.07682550698518753, 0.06013668328523636, -0.024874303489923477, -0.16521255671977997, 0.11504264175891876, 0.3275022804737091, 0.27393195033073425, 0.4211328327655792, 0.009505691938102245, 0.3207482695579529, 0.13326893746852875, 0.032006554305553436, 0.0869673490524292, -0.10526304692029953, -0.20467521250247955, -0.007980558089911938, 0.05288923159241676, -0.0841168686747551, -0.03766348585486412, -0.005108250770717859, 0.17216625809669495, -0.28070196509361267, 0.023579327389597893, 0.026205962523818016, 0.08638791739940643, -0.10042647272348404, -0.011042974889278412, 0.021239984780550003, -0.08515945822000504, -0.16807112097740173, -0.0803142562508583, 0.27644598484039307, -0.35427480936050415, -0.08683054894208908, 0.1185164749622345, -0.432782381772995, -0.19135870039463043, 0.1404096782207489, -0.24085697531700134, -0.3154161274433136, 0.05104692280292511, -0.09304159134626389, -0.13219186663627625, -0.04134039208292961, 0.15407584607601166, 0.17655684053897858, -0.08012911677360535, -0.019208120182156563, -0.4639047086238861, -0.09048163145780563], [0.03923419862985611, -0.11299727857112885, -0.11056546866893768, 0.036405373364686966, -0.0993940606713295, 0.11686932295560837, 0.05740509182214737, 0.0491996705532074, -0.010954943485558033, -0.048508040606975555, -0.08833135664463043, 0.1985432356595993, 0.08504128456115723, 0.2750384211540222, -0.2879961431026459, -0.12980157136917114, 0.17761141061782837, 0.04728005826473236, -0.18794366717338562, -0.390436053276062, 0.16970162093639374, -0.09713093191385269, -0.10765776038169861, 0.14587929844856262, -0.31933850049972534, 0.09599165618419647, -0.37266600131988525, -0.2310105860233307, 0.011778962798416615, 0.013887139037251472, 0.04013599455356598, 0.005794970318675041, 0.08650172501802444, 0.10294288396835327, 0.08113191276788712, -0.267252653837204, 0.14333337545394897, -0.06990914791822433, -0.09498937427997589, -0.3191934823989868, 0.15961787104606628, 0.15614888072013855, 0.1614016741514206, -0.19882573187351227, -0.13184836506843567, 0.16149695217609406, -0.011898613534867764, -0.23062987625598907, 0.4787811040878296, 0.08436321467161179, -0.11137693375349045, 0.030736425891518593, 0.159545436501503, 0.021032128483057022, -0.05584834888577461, 0.02934190072119236, -0.2514817714691162, -0.1627807319164276, 0.13248392939567566, -0.29319167137145996, 0.16494140028953552, 0.286490261554718, -0.009344799444079399, 0.2925751209259033], [0.022037550806999207, 0.30220457911491394, 0.3235414922237396, 0.29452428221702576, 0.008295081555843353, -0.3632110357284546, 0.24024616181850433, 0.1766190379858017, 0.3354778587818146, 0.021680200472474098, -0.30059295892715454, -0.16978999972343445, 0.038199491798877716, 0.06425582617521286, 0.01940986141562462, 0.17619863152503967, 0.01711266301572323, 0.31736040115356445, -0.08962758630514145, 0.01000128872692585, 0.1151309460401535, -0.0490398183465004, 0.021417874842882156, -0.09444484859704971, 0.16647154092788696, -0.20645739138126373, 0.05974816158413887, 0.09121044725179672, -0.033865541219711304, -0.220524862408638, 0.03234725445508957, -0.18228726089000702, 0.072449691593647, 0.1251268833875656, 0.16701564192771912, -0.21823395788669586, 0.3766447901725769, -0.004062065854668617, -0.002797784050926566, -0.028703493997454643, -0.035570647567510605, 0.028791343793272972, -0.29246655106544495, -0.023686086758971214, 0.10626396536827087, -0.0827455073595047, -0.012109706178307533, -0.14972607791423798, -0.12756533920764923, -0.07580000907182693, 0.02921179123222828, 0.06859280914068222, -0.17637290060520172, 0.10233519226312637, 0.3188948631286621, 0.428722620010376, -0.2583252489566803, -0.17000232636928558, 0.13852442800998688, -0.10269490629434586, 0.06807836145162582, 0.19798415899276733, -0.0762099102139473, -0.16880133748054504], [0.13002122938632965, -0.16071541607379913, 0.30278655886650085, 0.2444581389427185, 0.004931422416120768, 0.16649129986763, -0.23784397542476654, -0.053434669971466064, 0.2932587265968323, -0.05164216458797455, 0.1912723183631897, -0.10069724917411804, -0.2865586578845978, 0.1399468332529068, -0.30452388525009155, 0.03557848930358887, -0.060557737946510315, 0.21653009951114655, 0.1220613420009613, 0.0670139268040657, 0.36167487502098083, -0.09746366739273071, 0.0528157539665699, -0.05044785887002945, -0.299028605222702, 0.02339320443570614, 0.08069650083780289, 0.11947548389434814, 0.3918427526950836, 0.07255373150110245, -0.000702503661159426, 0.2643406093120575, -0.23645761609077454, -0.1447974294424057, -0.0715700015425682, 0.05955585464835167, 0.11527953296899796, -0.13166464865207672, -0.014822941273450851, 0.03435545414686203, -0.20755396783351898, 0.14851675927639008, 0.2147776186466217, 0.10171908140182495, 0.12933112680912018, -0.054329466074705124, 0.2906392812728882, -0.3142370283603668, 0.028575999662280083, -0.1475066989660263, -0.013848126865923405, 0.12143617123365402, -0.03511875495314598, -0.3088078498840332, -0.06093943119049072, 0.10912586748600006, 0.01727054826915264, 0.21558666229248047, 0.061419177800416946, 0.00036431735497899354, 0.25591591000556946, -0.3212498724460602, 0.002819329034537077, -0.14657506346702576], [0.10020915418863297, 0.10031342506408691, -0.18563410639762878, 0.09505841881036758, 0.08764152228832245, 0.1060832142829895, 0.010088768787682056, 0.3397793471813202, 0.21425682306289673, 0.15126872062683105, 0.11353748291730881, -0.10766144841909409, -0.057672467082738876, -0.17063415050506592, -0.10241237282752991, -0.08053821325302124, -0.3187330663204193, -0.07007941603660583, 0.11512624472379684, -0.13407889008522034, 0.10981593281030655, -0.011005142703652382, 0.4477156698703766, -0.021040281280875206, 0.019194338470697403, 0.030058439821004868, -0.005054829642176628, -0.0957273542881012, -0.20780305564403534, 0.19931092858314514, 0.24538631737232208, -0.3548430800437927, 0.0009157456224784255, -0.136384516954422, 0.01918412372469902, 0.1257609874010086, 0.3425627052783966, -0.023123307153582573, -0.04631182178854942, -0.024839112535119057, -0.20754671096801758, 0.06621526181697845, 0.053285084664821625, 0.27618643641471863, -0.11265616118907928, 0.42103710770606995, -0.0830225870013237, 0.0355101116001606, 0.1384030282497406, -0.06908643990755081, 0.05047810822725296, -0.2314494103193283, 0.2015559822320938, 0.02242962457239628, -0.10622932761907578, 0.3421846032142639, 0.14012940227985382, 0.09704168140888214, -0.2691720426082611, 0.3380761444568634, 0.007038570940494537, 0.12596991658210754, -0.018387163057923317, 0.2592116594314575], [0.03363560512661934, -0.025236694142222404, 0.2457900047302246, 0.0706675797700882, -0.03542119637131691, 0.3551137447357178, 0.1421799659729004, 0.11448351293802261, 0.10374194383621216, 0.0157233364880085, 0.16047129034996033, 0.16262075304985046, 0.0943131297826767, 0.05983363464474678, -0.0812932625412941, -0.10582982003688812, -0.07342512160539627, 0.1894170343875885, 0.1410900503396988, 0.31598547101020813, -0.13602414727210999, 0.07646822929382324, -0.20470406115055084, 0.12850265204906464, 0.08317465335130692, -0.40532487630844116, 0.031102411448955536, 0.058008041232824326, 0.2392440289258957, 0.04104028269648552, -0.2559543251991272, -0.1755458414554596, -0.27538496255874634, 0.22440572082996368, 0.17863218486309052, -0.06542917340993881, 0.30944564938545227, -0.16127730906009674, 0.11145160347223282, -0.0011706234654411674, 0.0472504086792469, -0.37070298194885254, 0.22065845131874084, -0.003888004459440708, -0.45910102128982544, -0.020696094259619713, -0.10278742760419846, 0.054660215973854065, -0.28112682700157166, 0.10139279067516327, 0.0970957800745964, -0.10788393765687943, 0.13079796731472015, 0.1499529480934143, -0.19908501207828522, -0.25381872057914734, -0.246128112077713, -0.0063849156722426414, -0.02231563813984394, 0.10593871772289276, 0.07860983908176422, 0.0786939188838005, 0.06883766502141953, 0.2256125807762146], [-0.39574944972991943, 0.21647833287715912, -0.13369570672512054, 0.20172619819641113, -0.051626015454530716, -0.29715612530708313, -0.248244509100914, -0.06224159896373749, -0.13274478912353516, -0.08691874891519547, -0.08640185743570328, 0.13719311356544495, 0.2149512767791748, 0.11307965219020844, -0.16722925007343292, -0.22783535718917847, -0.21547313034534454, 0.0674419179558754, 0.11553376168012619, 0.26033252477645874, 0.30268344283103943, -0.18372610211372375, 0.09535343945026398, -0.05977880209684372, 0.2537931799888611, -0.2072703093290329, 0.049867644906044006, -0.19165515899658203, 0.4372210204601288, 0.18935194611549377, 0.14054833352565765, -0.10699698328971863, -0.06505442410707474, -0.10186125338077545, 0.3936866521835327, 0.08766932785511017, -0.05827844887971878, 0.04277107119560242, -0.056321170181035995, -0.11671407520771027, 0.18946771323680878, -0.07530539482831955, 0.01979104056954384, -0.15890176594257355, 0.1579640507698059, -0.06920743733644485, 0.24275611340999603, 0.12489655613899231, 0.3934520483016968, 0.09509345889091492, 0.06271146237850189, 0.028076380491256714, 0.0044184173457324505, 0.02334483526647091, -0.004343237727880478, -0.088262178003788, 0.024276837706565857, -0.017884299159049988, -0.09550481289625168, 0.15321551263332367, -0.3266299366950989, 0.021526776254177094, 0.14375661313533783, -0.08462855219841003], [0.05935089662671089, -0.10953795164823532, -0.007092182990163565, -0.00866316631436348, 0.1794663816690445, -0.17407748103141785, 0.1283811628818512, 0.14193709194660187, 0.27869999408721924, 0.04904789850115776, 0.09275854378938675, 0.24196909368038177, -0.16970327496528625, 0.09112625569105148, 0.4421379268169403, -0.018242741003632545, -0.1093272790312767, 0.15412089228630066, 0.019442740827798843, 0.35908493399620056, 0.045000653713941574, 0.04967813566327095, -0.06648696959018707, -0.021334679797291756, -0.1486571580171585, 0.3424396812915802, -0.033916402608156204, -0.2785954177379608, 0.1291951835155487, -0.10339540243148804, 0.024119650945067406, -0.06464570760726929, -0.23303112387657166, -0.20493274927139282, -0.5010923743247986, 0.07267847657203674, 0.12581627070903778, -0.10088027268648148, -0.09198523312807083, -0.16513141989707947, 0.36710554361343384, -0.29782554507255554, 0.009499741718173027, -0.08487051725387573, -0.12629008293151855, 0.24113278090953827, 0.022441163659095764, 0.127406507730484, 0.11267182976007462, 0.0704735666513443, 0.18364964425563812, 0.205667644739151, -0.11535969376564026, 0.011014330200850964, 0.075110524892807, 0.17663870751857758, 0.22446532547473907, -0.16334472596645355, 0.1111137717962265, -0.23280584812164307, -0.20493002235889435, -0.06645946949720383, 0.09600865095853806, 0.034475475549697876], [0.2695814073085785, -0.22707128524780273, -0.08895564079284668, 0.2238653600215912, 0.1871589571237564, -0.07788857817649841, 0.0565553642809391, 0.07698675245046616, 0.15281523764133453, -0.09127813577651978, -0.2263547033071518, 0.12788160145282745, 0.051527317613363266, 0.4178335666656494, 0.0009768138406798244, -0.05308210104703903, 0.018193235620856285, -0.22380715608596802, 0.3094438910484314, 0.29442349076271057, 0.07953715324401855, -0.23331138491630554, 0.050533078610897064, 0.05676135793328285, 0.12729066610336304, -0.12738364934921265, 0.15181906521320343, 0.0014708091039210558, -0.29749220609664917, 0.052187442779541016, 0.3640362024307251, -0.011730294674634933, 0.051763083785772324, 0.11218034476041794, -0.33502182364463806, -0.22606250643730164, -0.054306868463754654, 0.3984767496585846, 0.1574789583683014, 0.06617787480354309, 0.04156201705336571, 0.06209833174943924, 0.203979954123497, -0.0008758378098718822, 0.10393791645765305, -0.10083739459514618, 0.024315601214766502, 0.2516518831253052, 0.013497985899448395, 0.26316800713539124, -0.09371888637542725, -0.20049640536308289, 0.06849656254053116, -0.18651872873306274, 0.11173756420612335, -0.13240207731723785, -0.35504600405693054, 0.042469196021556854, -0.0941820740699768, -0.029175780713558197, 0.1568971574306488, -0.2019132822751999, -0.1183173730969429, 0.054131798446178436], [0.08140265941619873, -0.17154067754745483, -0.15932665765285492, -0.05328906700015068, 0.3337133824825287, -0.02571888454258442, -0.08058784157037735, -0.2047881782054901, 0.4599960446357727, -0.12032344192266464, 0.31825587153434753, 0.12781061232089996, 0.12895706295967102, -0.01043732464313507, -0.26432180404663086, 0.2053697109222412, -0.05836312100291252, -0.17237602174282074, -0.14231640100479126, -0.13755038380622864, -0.14572839438915253, 0.038570523262023926, -0.3083038628101349, 0.20100988447666168, 0.043974604457616806, -0.01843280717730522, -0.17312346398830414, -0.06319345533847809, 0.031703829765319824, 0.09959251433610916, 0.05755281820893288, -0.44088202714920044, -0.06941451132297516, 0.15133017301559448, 0.044963836669921875, 0.4102010130882263, 0.08618682622909546, 0.11174870282411575, -0.0588054321706295, 0.06610052287578583, -0.06800482422113419, 0.23878857493400574, -0.13684934377670288, 0.06283032149076462, -0.0101163974031806, -0.3811849355697632, 0.07326748967170715, 0.08171195536851883, 0.031236514449119568, -0.06372174620628357, 0.2800958454608917, -0.0765015259385109, 0.08741466701030731, -0.010054891929030418, -0.003084691008552909, 0.09725914150476456, -0.11735915392637253, 0.04518210142850876, 0.2323025017976761, -0.17770449817180634, -0.34223297238349915, -0.05252693220973015, -0.13080787658691406, -0.12262250483036041], [0.200408935546875, 0.04317794367671013, 0.20361573994159698, -0.0945294126868248, -0.26113319396972656, 0.0738988146185875, 0.1271754652261734, 0.11258763074874878, 0.10692662745714188, 0.08829686790704727, 0.04746311530470848, 0.19483207166194916, 0.27950647473335266, -0.025380371138453484, 0.1745389848947525, 0.16571876406669617, 0.0658748522400856, 0.1883295625448227, -0.18875718116760254, 0.26901867985725403, 0.38782036304473877, 0.022456251084804535, -0.016651218757033348, -0.04901549965143204, 0.14453986287117004, 0.31936153769493103, -0.04962267726659775, -0.06350331753492355, 0.0004939715727232397, 0.2759988009929657, -0.04585738107562065, 0.014891254715621471, 0.13817545771598816, 0.2858303487300873, -0.21319140493869781, -0.03860924765467644, -0.25102654099464417, -0.09496451914310455, -0.010208788327872753, 0.4026617407798767, -0.15985649824142456, 0.01723756641149521, -0.2458600103855133, 0.19551151990890503, 0.13649363815784454, -0.05814569815993309, 0.4228489100933075, -0.12207821756601334, 0.1288132518529892, -0.09287477284669876, -0.07699031382799149, -0.06534824520349503, 0.1202593520283699, 0.09852607548236847, -0.34756964445114136, -0.09839649498462677, -0.16403430700302124, -0.09992510080337524, -0.17196838557720184, 0.0428023524582386, -0.1830185353755951, 0.20741093158721924, -0.1160680428147316, 0.1704758107662201], [0.26530933380126953, -0.12205737829208374, -0.08550191670656204, -0.02233102172613144, 0.0580308772623539, -0.097107894718647, -0.005790636874735355, 0.12307120114564896, 0.04039479047060013, 0.06247185543179512, -0.2280157059431076, 0.021847428753972054, 0.005211070645600557, 0.427905410528183, -0.292401522397995, 0.12524840235710144, 0.2534955143928528, 0.04224441945552826, 0.10458744317293167, 0.20695212483406067, -0.14330221712589264, 0.1764855980873108, 0.2472217082977295, 0.2498282492160797, -0.11479458957910538, 0.303865909576416, 0.006448088213801384, -0.03595275431871414, -0.037246476858854294, 0.05406222492456436, -0.14297373592853546, -0.03146393969655037, -0.3637304902076721, -0.18249455094337463, 0.3324964940547943, 0.22228896617889404, -0.11026875674724579, 0.04949356988072395, -0.02403869666159153, -0.0696781575679779, -0.08077345043420792, -0.1522974669933319, -0.4127100110054016, 0.18465471267700195, 0.05371798947453499, -0.04193742945790291, -0.1399608552455902, -0.17264391481876373, -0.012035917490720749, -0.021969756111502647, -0.15389375388622284, 0.1586669236421585, 0.1263292133808136, 0.2967659831047058, 0.2994072735309601, -0.22269001603126526, 0.023283720016479492, 0.1731353998184204, -0.32063767313957214, -0.07394513487815857, 0.005834522657096386, 0.06310903280973434, 0.1990755796432495, 0.001080813817679882], [-0.21580831706523895, 0.13865472376346588, 0.2814008891582489, -0.07624533027410507, 0.18768881261348724, -0.08467093110084534, 0.1926421821117401, 0.036515798419713974, 0.038781099021434784, -0.11478285491466522, 0.14234042167663574, -0.11403394490480423, -0.00512783182784915, 0.1414797455072403, -0.13853295147418976, -0.08231133222579956, 0.009780923835933208, -0.1661766916513443, 0.24389904737472534, -0.13880382478237152, 0.06427086889743805, -0.1790684014558792, -0.2042267918586731, 0.10658977925777435, 0.0603695809841156, 0.17633944749832153, 0.14433665573596954, -0.18486236035823822, 0.12890315055847168, 0.009982069954276085, 0.0684727132320404, -0.18077747523784637, -0.015973344445228577, -0.05236372724175453, 0.11913065612316132, 0.149875208735466, -0.11763162165880203, -0.05431997776031494, -0.1828666776418686, 0.4647122919559479, 0.20283979177474976, -0.160960853099823, 0.12158754467964172, 0.08586112409830093, 0.36321064829826355, 0.33328619599342346, -0.07317835092544556, 0.08321315795183182, -0.2070409506559372, -0.004897816572338343, -0.1095721498131752, -0.12476374953985214, -0.043818969279527664, -0.09744676947593689, -0.005181599408388138, -0.16573217511177063, 0.1865829974412918, 0.18932519853115082, 0.16122639179229736, -0.30629295110702515, 0.32653096318244934, 0.49067777395248413, -0.1854998916387558, 0.05370451509952545], [-0.1319139152765274, 0.25102341175079346, -0.27263709902763367, 0.27518653869628906, -0.02273276075720787, 0.21974532306194305, -0.10171452909708023, 0.16623255610466003, -0.2748357653617859, 0.15969891846179962, 0.11363402009010315, -0.11554297059774399, 0.2419566661119461, 0.11255346238613129, 0.03359384834766388, 0.6294124722480774, -0.1134747639298439, 0.10566531121730804, -0.13667957484722137, 0.10641670227050781, -0.28797027468681335, 0.12470252066850662, -0.1523660123348236, 0.06982316076755524, -0.022457631304860115, 0.13513655960559845, -0.08164257556200027, 0.12013900279998779, 0.17088685929775238, 0.1162233054637909, 0.17084060609340668, 0.0004902099608443677, -0.09591229259967804, 0.10161124169826508, -0.179350346326828, 0.11581543833017349, 0.08658839762210846, -0.08304762095212936, -0.253866046667099, -0.11773858964443207, -0.18581359088420868, -0.22635433077812195, 0.3353136479854584, 0.023737916722893715, 0.36935460567474365, 0.07425539940595627, -0.1074383556842804, 0.021805983036756516, 0.14908160269260406, -0.08978908509016037, -0.0322321280837059, -0.1326775997877121, -0.17699897289276123, -0.06237048655748367, 0.26759058237075806, -0.10763189196586609, -0.1882396638393402, -0.2001187950372696, -0.05403563007712364, 0.005632038693875074, 0.1192188486456871, -0.06593189388513565, -0.1399017870426178, 0.011626724153757095], [-0.00800646748393774, -0.04396064206957817, -0.07964113354682922, 0.38929829001426697, 0.16525085270404816, -0.39382633566856384, -0.1782437413930893, 0.05699602887034416, 0.09404213726520538, -0.058823276311159134, 0.34438616037368774, -0.10189720243215561, 0.16339190304279327, 0.04631196707487106, 0.14671367406845093, -0.02854018285870552, 0.03436589986085892, 0.02322041615843773, -0.2585974931716919, -0.09407152235507965, 0.3936370611190796, 0.06774848699569702, 0.1504814326763153, -0.16602037847042084, 0.013397513888776302, 0.11943292617797852, 0.1705525517463684, 0.10141979157924652, -0.029061395674943924, -0.13515940308570862, -0.10769712179899216, -0.029239365831017494, 0.05129650607705116, 0.13132043182849884, 0.0037986058741807938, 0.2859923243522644, -0.14012731611728668, -0.3508020341396332, 0.19047163426876068, -0.17105992138385773, -0.1883222907781601, 0.05751846358180046, 0.028162777423858643, -0.1856289803981781, -0.08213768899440765, -0.18007241189479828, -0.472625732421875, 0.15582431852817535, -0.10351701080799103, 0.2727532684803009, -0.10774293541908264, 0.1918928325176239, -0.05906292423605919, -0.025938760489225388, -0.16495747864246368, -0.2071128785610199, -0.02845030277967453, 0.05648526921868324, -0.14856384694576263, -0.10302100330591202, 0.15212880074977875, 0.047735802829265594, -0.15367040038108826, 0.30550238490104675], [-0.057961199432611465, -0.13836081326007843, -0.33533552289009094, -0.1047377809882164, 0.14754296839237213, 0.15748684108257294, -0.027670186012983322, 0.05654872953891754, -0.05195670202374458, -0.0872751772403717, -0.20750798285007477, 0.03189708665013313, -0.3363815248012543, -0.08518203347921371, 0.044356655329465866, 0.24466915428638458, -0.20377208292484283, 0.11181711405515671, 0.2905072569847107, -0.06219518557190895, 0.25321251153945923, -0.06030367687344551, -0.12094874680042267, -0.05389055982232094, 0.19507305324077606, 0.13084231317043304, 0.034651514142751694, 0.0820537656545639, 0.19788138568401337, 0.09021015465259552, -0.0751456469297409, 0.044441673904657364, 0.3578341007232666, -0.030607251450419426, 0.16573335230350494, -0.14092837274074554, -0.22549840807914734, -0.251236230134964, 0.0007948789861984551, -0.013950248248875141, 0.1154097467660904, -0.2956700026988983, -0.06192662566900253, 0.5055099725723267, -0.26279276609420776, -0.25546425580978394, -0.1530972272157669, 0.04909137263894081, 0.2010342925786972, 0.10052468627691269, -0.019166693091392517, 0.05546979978680611, -0.030405594035983086, 0.19287925958633423, 0.1395675390958786, 0.21050162613391876, -0.18320387601852417, 0.24839946627616882, 0.21662981808185577, -0.0818624198436737, 0.0845257118344307, -0.05860530957579613, -0.2965046465396881, 0.08531913161277771], [-0.2658967077732086, 0.055824752897024155, -0.2660943269729614, -0.04549381881952286, 0.055155158042907715, -0.2926286458969116, 0.20775076746940613, -0.08880415558815002, -0.17045938968658447, 0.051709096878767014, -0.04815145581960678, -0.20761390030384064, -0.2848535180091858, 0.2979048788547516, -0.059207428246736526, 0.10644261538982391, -0.009415916167199612, 0.04357196018099785, 0.15819184482097626, -0.06439810246229172, 0.14194488525390625, 0.07558834552764893, 0.06475820392370224, -0.07425585389137268, 0.018066976219415665, -0.05167305842041969, -0.3399239778518677, 0.2532212436199188, 0.1600772887468338, 0.10128489881753922, 0.15814532339572906, -0.09325481951236725, -0.3125305771827698, 0.09273974597454071, -0.31724226474761963, -0.07938827574253082, -0.043438348919153214, 0.13107608258724213, 0.1406058520078659, -0.06071890890598297, -0.13536885380744934, -0.1067671924829483, -0.11041965335607529, -0.09509972482919693, -0.20352573692798615, -0.24407728016376495, 0.1421387642621994, -0.18070009350776672, -0.30348846316337585, -0.1931135654449463, -0.21705350279808044, -0.10010653734207153, 0.23610925674438477, -0.20874491333961487, -0.04272693768143654, -0.059863634407520294, 0.2618727385997772, -0.11472110450267792, 0.26778772473335266, 0.15308529138565063, -0.16227690875530243, 0.2434278428554535, -0.09259024262428284, 0.33144611120224], [0.2390584647655487, 0.020084373652935028, 0.17528727650642395, 0.2641575038433075, 0.1820470690727234, 0.07403487712144852, 0.12323922663927078, -0.3738732933998108, -0.26327377557754517, -0.0029747250955551863, 0.0732826441526413, -0.13443529605865479, -0.03684935346245766, -0.14870870113372803, -0.15616299211978912, 0.12421789020299911, 0.08529815822839737, 0.08804526925086975, 0.10136276483535767, -0.017879167571663857, 0.1366311013698578, 0.19687306880950928, -0.10681856423616409, -0.3153023421764374, 0.25756213068962097, -0.11464320123195648, -0.3363792896270752, -0.003270998364314437, -0.4507470428943634, 0.18105027079582214, -0.09151823073625565, -0.14974664151668549, -0.08653802424669266, -0.23890702426433563, 0.15052224695682526, 0.18185614049434662, -0.004872744437307119, -0.0930054783821106, 0.019782835617661476, 0.21620793640613556, 0.1785915344953537, -0.14645452797412872, 0.050322335213422775, -0.17195065319538116, -0.054414357990026474, 0.19769425690174103, 0.3123423755168915, 0.1683417558670044, 0.11958972364664078, 0.002068746369332075, -0.12898540496826172, 0.339468389749527, 0.13835425674915314, -0.018864989280700684, 0.232766255736351, 0.0462200827896595, -0.043096303939819336, -0.14390504360198975, -0.03092067874968052, -0.09627688676118851, 0.06685880571603775, -0.28060242533683777, -0.09390139579772949, 0.25045153498649597], [-0.03542754054069519, -0.26268470287323, -0.002653683302924037, 0.25994059443473816, 0.1864631325006485, -0.013149653561413288, -0.05375602841377258, 0.18278662860393524, 0.07705957442522049, -0.2792339622974396, -0.04681132361292839, 0.025278061628341675, -0.1239439994096756, -0.19382408261299133, -0.18097765743732452, -0.14308388531208038, -0.4297693073749542, 0.2211538702249527, -0.16714052855968475, -0.09174586832523346, -0.09199833124876022, 0.015595010481774807, 0.22738198935985565, 0.24119552969932556, -0.028276056051254272, -0.24157235026359558, -0.12787789106369019, 0.1167832687497139, -0.2160685509443283, 0.030560726299881935, -0.3563002943992615, -0.21953275799751282, 0.11942977458238602, -0.04294019937515259, -0.3628188669681549, -0.16136613488197327, -0.06620201468467712, -0.0054731108248233795, -0.1486017107963562, 0.022515742108225822, 0.08337213099002838, -0.2263306975364685, -0.06571642309427261, 0.018874516710639, 0.296671986579895, -0.051172900944948196, 0.0015392134664580226, -0.047866616398096085, 0.13484394550323486, -0.09475734829902649, -0.3668757379055023, 0.11972427368164062, 0.03237875550985336, 0.16713286936283112, -0.1393607258796692, -0.39088723063468933, 0.10056958347558975, -0.12373515963554382, 0.11267861723899841, 0.0749313160777092, -0.01163520012050867, 0.0833439975976944, -0.04723823443055153, -0.33266282081604004], [-0.06281117349863052, -0.3768686354160309, 0.23991592228412628, -0.26690515875816345, -0.10931751877069473, -0.06453963369131088, -0.17727132141590118, -0.1967390775680542, -0.008352941833436489, -0.03922125697135925, -0.14231036603450775, -0.2087702453136444, 0.15352432429790497, -0.0838264599442482, 0.387093186378479, 0.0012368591269478202, -0.19966624677181244, 0.021372336894273758, 0.054365333169698715, 0.3700529932975769, -0.022411201149225235, -0.38209113478660583, -0.04482473060488701, -0.06598003953695297, -0.07531668990850449, -0.06289806962013245, -0.22818739712238312, 0.3669193685054779, -0.2579728662967682, 0.12109855562448502, -0.006765773054212332, -0.029749752953648567, -0.2017909735441208, 0.2213677614927292, 0.1488487869501114, 0.2122083306312561, 0.2142382711172104, -0.22763647139072418, -0.06621703505516052, -0.2941005527973175, 0.024006301537156105, 0.27648356556892395, 0.02025977149605751, 0.2374023199081421, 0.08647780120372772, 0.03398238867521286, 0.006816832348704338, 0.060690075159072876, 0.2180899977684021, 0.018487246707081795, -0.1570594310760498, -0.12655888497829437, 0.025319192558526993, -0.025444600731134415, 0.22405129671096802, -0.1057816669344902, 0.15022782981395721, 0.1011887863278389, 0.13315586745738983, -0.10976122319698334, 0.08320591598749161, 0.23823148012161255, 0.0416598841547966, 0.10304490476846695], [-0.23141171038150787, -0.23430444300174713, 0.1650325208902359, 0.3039620518684387, -0.06553292274475098, 0.13911184668540955, -0.0687195211648941, -0.10949773341417313, 0.2896028161048889, 7.682777504669502e-05, -0.18964403867721558, -0.18298161029815674, -0.17109277844429016, -0.2641628384590149, 0.03692203387618065, -0.037545934319496155, 0.10965044051408768, -0.0031420160084962845, -0.053016625344753265, -0.11452853679656982, 0.02543407306075096, -0.0595468245446682, -0.298319011926651, -0.15399101376533508, 0.12345726042985916, 0.08054924011230469, -0.016009880229830742, -0.052823085337877274, 0.1814137101173401, 0.005551844835281372, -0.05319558084011078, -0.16916300356388092, -0.1558210551738739, 0.3624970614910126, -0.07790903002023697, -0.029736502096056938, -0.3968098759651184, 0.4544018507003784, -0.2810705006122589, 0.06916594505310059, -0.22606423497200012, -0.13308590650558472, -0.1873883605003357, -0.0027766290586441755, -0.16848988831043243, 0.2736005485057831, -0.32200849056243896, -0.06421901285648346, 0.23025575280189514, 0.08827949315309525, -0.014365257695317268, 0.02296500839293003, -0.015703367069363594, -0.190662682056427, 0.19375477731227875, -0.006636477075517178, -0.006581098772585392, -0.023011958226561546, -0.1325911581516266, 0.14864052832126617, -0.009797603823244572, -0.04441378265619278, 0.3417057394981384, 0.14908018708229065], [-0.29241082072257996, 0.12016894668340683, 0.13930796086788177, -0.02838810347020626, 0.2876136004924774, 0.1350753754377365, 0.004883215297013521, 0.06011001765727997, 0.21815119683742523, 0.020378591492772102, 0.12056057155132294, 0.11682737618684769, 0.17618541419506073, -0.2048366516828537, -0.18933948874473572, 0.04233526065945625, 0.2741923928260803, -0.02430468238890171, 0.08655348420143127, 0.14476293325424194, -0.06864786148071289, -0.18925385177135468, 0.24936553835868835, -0.17910084128379822, 0.013944527134299278, 0.3095542788505554, -0.3408215045928955, -0.2621837258338928, -0.22016817331314087, -0.08418900519609451, -0.2821718752384186, 0.021827178075909615, -0.0178410392254591, 0.14079222083091736, 0.0726621150970459, -0.2944975793361664, -0.14863552153110504, 0.037498120218515396, 0.11108516156673431, -0.42685559391975403, -0.10203518718481064, -0.23816244304180145, 0.06788859516382217, 0.0013637060765177011, 0.1483137458562851, -0.2771269679069519, 0.23093633353710175, 0.09620509296655655, -0.0684036836028099, 0.07586678117513657, 0.29685476422309875, -0.06294634938240051, 0.006413938943296671, -0.12201490253210068, 0.13363878428936005, 0.002682351740077138, 0.2296154946088791, 0.07919702678918839, -0.004074419848620892, 0.2502965033054352, 0.2744215726852417, 0.05170349404215813, -0.1845523715019226, -0.02204851433634758], [0.07245242595672607, 0.17253121733665466, 0.14891263842582703, 0.03279171139001846, 0.016319623216986656, 0.06565655022859573, -0.3940839469432831, 0.16960924863815308, -0.0217522494494915, 0.043502938002347946, 0.2861136794090271, 0.13521625101566315, -0.22076696157455444, -0.009329834021627903, -0.08568670600652695, -0.06730316579341888, 0.038403090089559555, 0.18980245292186737, -0.24126429855823517, 0.15910229086875916, -0.15167999267578125, -0.006428995635360479, -0.03529548645019531, -0.14936116337776184, -0.2794894278049469, 0.16321711242198944, -0.03430210053920746, 0.4301399290561676, -0.02085118554532528, 0.24210725724697113, 0.3585476875305176, -0.12102910876274109, 0.018513234332203865, -0.10008401423692703, 0.2254965454339981, -0.27738192677497864, -0.18805031478405, 0.34498974680900574, -0.2288457155227661, -0.0549207367002964, 0.04576684162020683, 0.09052950888872147, -0.0639432743191719, -0.025017647072672844, -0.17594444751739502, 0.12443182617425919, 0.1280689239501953, 0.2514018714427948, -0.2611185908317566, 0.3806825876235962, -0.15485037863254547, 0.166649729013443, -0.07030319422483444, 0.19661951065063477, 0.002159509574994445, 0.03726152703166008, -0.0014128572074696422, 0.05285852029919624, 0.1509302258491516, -0.012630978599190712, -0.11758166551589966, 0.19003678858280182, -0.23080867528915405, -0.035885874181985855], [0.09460990875959396, -0.15371158719062805, 0.3460460305213928, -0.09245098382234573, 0.08496926724910736, -0.24190330505371094, -0.06703941524028778, 0.383465051651001, -0.18220849335193634, -0.04722844064235687, -0.031318407505750656, 0.012284441851079464, 0.008938893675804138, -0.09871099144220352, 0.01541035994887352, -0.13403387367725372, 0.06732796877622604, 0.004499702714383602, -0.15606990456581116, -0.15547491610050201, -0.03564614802598953, -0.20192112028598785, -0.15056602656841278, 0.33442264795303345, 0.036475300788879395, -0.16588731110095978, -0.2392890602350235, -0.1626375913619995, 0.023769056424498558, 0.34723174571990967, 0.35484713315963745, 0.07500097155570984, -0.015220491215586662, 0.0049241636879742146, 0.18716831505298615, -0.0756424218416214, -0.06789077073335648, -0.06272003054618835, 0.04869070276618004, -0.07431875169277191, 0.026159731671214104, -0.19125233590602875, -0.06730357557535172, 0.32413598895072937, 0.23056654632091522, -0.15062037110328674, -0.22337988018989563, -0.0792304202914238, -0.21196921169757843, -0.09992928057909012, 0.12451567500829697, 0.15064197778701782, -0.15197299420833588, -0.13719028234481812, -0.09970881789922714, 0.05197742208838463, 0.16283713281154633, -0.328802227973938, -0.04696305841207504, 0.005771989934146404, -0.048905495554208755, -0.4558039605617523, -0.01372140645980835, 0.36219799518585205], [-0.0037277089431881905, -0.2410605549812317, 0.07554106414318085, 0.012619554065167904, 0.008065623231232166, -0.1548113077878952, -0.1423172503709793, -0.19625970721244812, 0.07754790037870407, 0.34583520889282227, -0.012319385074079037, 0.026394540444016457, -0.06847959756851196, -0.2174839973449707, -0.15219935774803162, 0.42250439524650574, -0.15136730670928955, 0.039776530116796494, 0.42996451258659363, -0.014870177023112774, 0.08855839818716049, -0.1429714411497116, 0.14291170239448547, 0.16427606344223022, -0.2707412540912628, 0.04185284301638603, -0.03393255174160004, 0.07180161029100418, -0.023017214611172676, -0.21222937107086182, -0.03698792681097984, 0.35173121094703674, 0.12517483532428741, 0.13665224611759186, 0.14728716015815735, 0.1511874794960022, 0.17481355369091034, 0.26926273107528687, -0.12693174183368683, 0.24580541253089905, 0.18818466365337372, -0.1101735383272171, -0.01196197047829628, -0.2876812219619751, 0.17005950212478638, -0.05285097286105156, -0.14052462577819824, -0.07984014600515366, -0.018741555511951447, 0.29906678199768066, 0.13524700701236725, -0.050960976630449295, 0.07021569460630417, 0.2930881381034851, -0.23632892966270447, 0.04758255183696747, 0.07874687761068344, -0.37582966685295105, -0.031018758192658424, 0.1446782499551773, -0.06293947249650955, 0.0518663115799427, -0.11507928371429443, 0.200358584523201], [0.3157806694507599, -0.2715663015842438, 0.025309545919299126, 0.11864253133535385, 0.15723371505737305, -0.01460797619074583, 0.027032962068915367, 0.1730516105890274, -0.07318481057882309, 0.04610738530755043, -0.21406236290931702, 0.13288573920726776, -0.10705991834402084, -0.3149528205394745, -0.18535290658473969, -0.25698012113571167, -0.04985642805695534, 0.1757681667804718, -0.027899721637368202, 0.09493017196655273, -0.1467283070087433, 0.3001747131347656, -0.093791164457798, -0.33760690689086914, 0.17462247610092163, 0.15483833849430084, 0.0523441843688488, 0.021433115005493164, 0.011388449929654598, -0.09400209784507751, 0.31960615515708923, 0.167823925614357, -0.2509608864784241, -0.18250396847724915, 0.1167115569114685, -0.06130722537636757, -0.1552228480577469, -0.3208521604537964, -0.017725130543112755, 0.1671133190393448, -0.01567893847823143, 0.13924120366573334, 0.13193954527378082, -0.1717444807291031, 0.06774228811264038, -0.2337341457605362, -0.194395512342453, -0.17417298257350922, 0.1421174705028534, 0.0032712381798774004, 0.2810591757297516, -0.405881404876709, 0.06910784542560577, -0.15036889910697937, 0.1523706614971161, -0.15157628059387207, 0.03650613874197006, -0.18039685487747192, 0.10011395812034607, 0.06599189341068268, -0.09418107569217682, 0.35335031151771545, -0.11530744284391403, -0.06349516659975052], [0.05355783924460411, -0.20662687718868256, -0.21010378003120422, -0.04866844043135643, -0.11441129446029663, 0.40549907088279724, -0.021535273641347885, 0.1353348344564438, 0.10482081025838852, -0.05044431984424591, -0.009270464070141315, 0.128458634018898, 0.14467471837997437, -0.01858152076601982, 0.1137101799249649, -0.2072148472070694, 0.18804171681404114, 0.09029486030340195, 0.1579279601573944, -0.03274169936776161, 0.23088569939136505, 0.26602593064308167, 0.2098199427127838, -0.1913163810968399, 0.003932153340429068, -0.3795706033706665, -0.36614087224006653, -0.0758758932352066, 0.18803371489048004, 0.26857051253318787, 0.03396478667855263, 0.20803435146808624, 0.011226118542253971, 0.2524145245552063, -0.11297471076250076, 0.18778066337108612, -0.0043543316423892975, 0.06971621513366699, -0.07688666880130768, 0.0279113557189703, 0.131195530295372, 0.012308064848184586, -0.035012368112802505, -0.24329990148544312, 0.4075491726398468, -0.011484739370644093, -0.2593943476676941, 0.13249297440052032, -0.33412036299705505, -0.05947798863053322, -0.07888232916593552, 0.12428630143404007, -0.09059897065162659, 0.12641556560993195, 0.23933900892734528, 0.3143065869808197, 0.06533510237932205, 0.25194478034973145, -0.04295705631375313, -0.09303103387355804, -0.10208272188901901, 0.15487897396087646, -0.09676888585090637, -0.053844187408685684], [-0.0004269565688446164, 0.3751889169216156, 0.19654691219329834, 0.020947372540831566, -0.14882536232471466, 0.06294671446084976, -0.017518673092126846, -0.04329584538936615, -0.032189659774303436, -0.1599617749452591, 0.03177078068256378, 0.18541529774665833, -0.19787321984767914, 0.006843967828899622, -0.08970678597688675, -0.20245076715946198, 0.059462111443281174, 0.12128143012523651, 0.34345027804374695, -0.07294987142086029, -0.038743991404771805, -0.2818578779697418, 0.0771619975566864, 0.06720948964357376, 0.0006355294608511031, 0.04431280493736267, -0.16688643395900726, 0.08737057447433472, -0.2454570233821869, -0.2612842321395874, 0.16564606130123138, 0.09348777681589127, 0.07548623532056808, 0.006796779576689005, -0.19221992790699005, 0.13014596700668335, 0.0914311408996582, -0.23510953783988953, -0.6045562028884888, -0.040530163794755936, -0.22051137685775757, -0.12177471071481705, -0.21264715492725372, -0.2060800939798355, -0.1367383450269699, -0.21212689578533173, -0.11095960438251495, 0.12520731985569, 0.07108484953641891, -0.24904519319534302, 0.031525611877441406, -0.14161309599876404, -0.1753464639186859, -0.03786090388894081, 0.004103917628526688, -0.19379453361034393, -0.14716093242168427, 0.26436111330986023, -0.18322090804576874, -0.160573810338974, -0.3127973973751068, -0.14562250673770905, -0.09708265215158463, 0.18990981578826904], [-0.3652465343475342, -0.22810965776443481, -0.06775658577680588, -0.22178971767425537, 0.12820211052894592, -0.21924486756324768, 0.22372207045555115, 0.5140544176101685, -0.16113759577274323, -0.21303090453147888, 0.0033240376506000757, 0.12633152306079865, 0.04998248443007469, 0.059209682047367096, -0.16203908622264862, 0.0982423648238182, 0.08890664577484131, 0.10232380777597427, -0.019059166312217712, 0.169406920671463, 0.16291946172714233, 0.12736597657203674, -0.4052778482437134, -0.1230761930346489, -0.19425322115421295, -0.18879984319210052, 0.2664716839790344, -0.10888785868883133, -0.28996360301971436, 0.03371873125433922, -0.13947872817516327, 0.08797482401132584, 0.019085917621850967, 0.05018280819058418, 0.0012264890829101205, 0.07239649444818497, 0.12437871098518372, 0.08222243934869766, -0.28236186504364014, 0.17886359989643097, -0.34733304381370544, 0.21045349538326263, 0.16259872913360596, -0.18102777004241943, -0.14582735300064087, -0.011264720000326633, 0.13219882547855377, -0.06454310566186905, 0.12172409892082214, 0.051761988550424576, -0.028636274859309196, 0.056374579668045044, -0.06828746199607849, 0.2652236521244049, 0.16799476742744446, 0.06948817521333694, 0.2707497775554657, 0.1510384976863861, 0.002937024226412177, 0.17376232147216797, 0.027038730680942535, -0.17317849397659302, -0.08949290961027145, 0.10312338918447495], [-0.14209769666194916, 0.03347253426909447, 0.14635534584522247, 0.07538900524377823, -0.03236747905611992, 0.12145671248435974, -0.2676078677177429, 0.11377428472042084, 0.12746338546276093, -0.2804170846939087, 0.017453409731388092, 0.14963635802268982, -0.02439333125948906, 0.34069934487342834, 0.44069793820381165, 0.16802017390727997, -0.1777409017086029, 0.08586861938238144, 0.04709608852863312, -0.29567092657089233, 0.07930498570203781, 0.008624730631709099, 0.10425275564193726, -0.2300034761428833, -0.11149265617132187, 0.014217122457921505, -0.019568249583244324, 0.09678210318088531, -0.20676402747631073, 0.22308436036109924, -0.09020679444074631, -0.08777642995119095, 0.16032707691192627, -0.14815649390220642, 0.19996266067028046, 0.020605046302080154, -0.09106709808111191, 0.19259865581989288, 0.2974877655506134, 0.08862527459859848, 0.05886208638548851, -0.0943816602230072, -0.007038397248834372, -0.22299709916114807, -0.03185799717903137, 0.1611391305923462, -0.035028211772441864, -0.393022358417511, -0.05122919753193855, -0.22587378323078156, 0.45300284028053284, -0.32832589745521545, 0.053611721843481064, 0.13583634793758392, 0.20641177892684937, -0.3291860520839691, 0.03289206326007843, 0.010584527626633644, 0.07418826222419739, -0.10941125452518463, -0.08162634074687958, -0.14670617878437042, -0.02630932629108429, 0.06267838925123215], [-0.16592401266098022, -0.2542203366756439, 0.054228536784648895, 0.08196581900119781, 0.31046271324157715, -0.1225033774971962, -0.15972793102264404, -0.023923195898532867, -0.10579795390367508, 0.3405207395553589, -0.09708870202302933, -0.1390722244977951, -0.03385395556688309, 0.17316976189613342, 0.01593061350286007, -0.020337043330073357, 0.272678941488266, -0.29498618841171265, -0.2199678122997284, 0.06576430052518845, 0.09680657088756561, -0.23279622197151184, 0.09751392155885696, -0.25423890352249146, 0.0003869028005283326, 0.14722201228141785, -0.1244744136929512, -0.14548267424106598, -0.005639638286083937, 0.1625276654958725, 0.021224478259682655, -0.020650627091526985, 0.09462602436542511, 0.12048912048339844, 0.00776504585519433, -0.10139302909374237, 0.13958291709423065, -0.3930916488170624, -0.3405349850654602, 0.12493839114904404, 0.06408924609422684, -0.12791499495506287, 0.06829749047756195, -0.08210872858762741, -0.10850116610527039, 0.18316082656383514, -0.09978500008583069, -0.07964532822370529, -0.3013378977775574, -0.13676609098911285, -0.10185495764017105, -0.200456440448761, 0.2703899145126343, 0.23417720198631287, -0.09235609322786331, -0.0071449498645961285, -0.28844955563545227, 0.058088190853595734, 0.16681411862373352, 0.16158734261989594, -0.19060039520263672, -0.24691247940063477, 0.08948486298322678, -0.40029290318489075], [-0.009786668233573437, -0.008128851652145386, -0.20157703757286072, -0.08457637578248978, 0.31172850728034973, 0.07933337241411209, -0.033067330718040466, 0.04560410976409912, -0.04345794767141342, -0.14130264520645142, -0.043040696531534195, 0.40842515230178833, 0.15022657811641693, -0.33952704071998596, 0.22417530417442322, 0.3163259029388428, 0.07145000994205475, -0.10625053942203522, -0.22352458536624908, -0.09044678509235382, 0.30217230319976807, -0.15253522992134094, 0.1391816884279251, -0.07898026704788208, -0.0814938023686409, -0.24439504742622375, 0.05552404001355171, 0.058338623493909836, 0.04707961902022362, -0.36932286620140076, 0.2649416923522949, 0.12836730480194092, -0.2122969627380371, -0.1603856086730957, 0.10477590560913086, -0.05214155092835426, 0.16076834499835968, 0.15622738003730774, -0.24502751231193542, 0.10126592218875885, 0.07277929037809372, -0.046074774116277695, -0.10033787041902542, 0.2059342861175537, -0.04176431894302368, 0.042870890349149704, 0.09402351826429367, -0.011551011353731155, -0.15982821583747864, -0.2241629809141159, 0.07250411808490753, 0.35457855463027954, 0.2333606332540512, -0.23066358268260956, 0.07700570672750473, -0.32996463775634766, -0.19939033687114716, 0.06970115005970001, 0.004093796946108341, 0.07750388979911804, 0.13687412440776825, 0.1962106078863144, 0.17964404821395874, 0.08355585485696793], [0.1311759352684021, -0.03870837017893791, -0.1360476315021515, -0.18034106492996216, -0.32814478874206543, -0.3439505398273468, -0.16857752203941345, 0.32782799005508423, 0.04902245104312897, -0.341082900762558, 0.15414521098136902, -0.2514025866985321, 0.010064040310680866, -0.2583616375923157, -0.11814910918474197, 0.07336106896400452, -0.07588231563568115, 0.013489451259374619, 0.1507994681596756, 0.15965065360069275, -0.1820145547389984, -0.059573326259851456, 0.0570622943341732, 0.01806154102087021, -0.04721370339393616, 0.2356342226266861, 0.04273492097854614, 0.061605099588632584, 0.022099262103438377, 0.06507929414510727, -0.19419288635253906, 0.008285448886454105, 0.09550701081752777, 0.08827541023492813, 0.0949249342083931, -0.19890917837619781, -0.04748537763953209, -0.007438075728714466, 0.03109375201165676, 0.11580021679401398, -0.03194369748234749, -0.15094897150993347, 0.21208049356937408, -0.2986871004104614, 0.10752242803573608, 0.012599984183907509, -0.04490506276488304, 0.20386473834514618, -0.07361587136983871, -0.26150617003440857, 0.07753529399633408, 0.18467050790786743, 0.5700133442878723, -0.24236932396888733, 0.11367074400186539, 0.19240358471870422, -0.2919820547103882, 0.08205271512269974, 0.10726261138916016, -0.19384723901748657, -0.09746155142784119, -0.004694642499089241, 0.2642301023006439, 0.11309849470853806], [0.1972704529762268, -0.12571780383586884, -0.09873905032873154, -0.007791869342327118, 0.29240724444389343, -0.1068003848195076, -0.31164586544036865, 0.13627919554710388, -0.36983463168144226, -0.2598891258239746, 0.07548943161964417, 0.03504786640405655, 0.08184200525283813, 0.029046393930912018, 0.1400328129529953, -0.04945085570216179, 0.2190086990594864, 0.02570081129670143, 0.3569287955760956, 0.07380099594593048, -0.2099212110042572, -0.014393464662134647, 0.08147501200437546, -0.13403165340423584, 0.08163252472877502, -0.12908056378364563, 0.018596410751342773, -0.003636917332187295, 0.28170594573020935, -0.1030774936079979, -0.3865697979927063, -0.1654919534921646, -0.10886130481958389, -0.024235617369413376, -0.05997373163700104, 0.032951269298791885, -0.09430241584777832, 0.05343609303236008, -0.19843226671218872, -0.13142512738704681, -0.09082809835672379, 0.23044449090957642, -0.4415559470653534, -0.020955760031938553, 0.045906513929367065, 0.3203820586204529, 0.137680321931839, -0.07076763361692429, 0.016158869490027428, -0.06023184955120087, 0.08564916253089905, -0.20809517800807953, -0.14874529838562012, -0.07014180719852448, -0.3071354925632477, 0.21178480982780457, -0.2388371080160141, -0.24334821105003357, 0.10775186121463776, 0.014088585041463375, 0.23692433536052704, -0.02216510660946369, -0.21991746127605438, 0.12793861329555511], [-0.02152116969227791, 0.02048741839826107, -0.10927937179803848, 0.23023977875709534, -0.28925076127052307, 0.05262283235788345, -0.1300334930419922, -0.08347758650779724, 0.13473914563655853, -0.0007095463224686682, -0.1093328520655632, 0.2198735922574997, -0.2365754395723343, 0.1679242104291916, 0.27527135610580444, 0.29440099000930786, 0.12489615380764008, 0.18418553471565247, 0.008433331735432148, -0.1713179498910904, -0.37774866819381714, -0.2988184094429016, 0.08003929257392883, -0.06432714313268661, 0.09474258124828339, -0.15708939731121063, 0.22739475965499878, -0.42949846386909485, -0.21560022234916687, 0.037628721445798874, -0.05479380860924721, -0.07756362110376358, -0.4943050444126129, 0.05857343599200249, 0.159447580575943, -0.14982375502586365, -0.17079375684261322, -0.19482995569705963, -0.05061279982328415, 0.15977656841278076, 0.035841867327690125, 0.22418351471424103, 0.18653975427150726, -0.005395702552050352, 0.09593027085065842, -0.13651734590530396, -0.09586329013109207, 0.09543399512767792, 0.03305969387292862, -0.08420561999082565, -0.16460254788398743, 0.22094616293907166, 0.12956717610359192, 0.04845256358385086, -0.2556920349597931, 0.15905112028121948, 0.16481871902942657, 0.07563959062099457, 0.11648290604352951, 0.1330038458108902, -0.07230507582426071, 0.030559826642274857, -0.2419213205575943, 0.06678376346826553], [0.1361999660730362, 0.1348382979631424, 0.16063840687274933, -0.015201740898191929, 0.14629945158958435, -0.045822873711586, 0.13369067013263702, 0.1567106395959854, 0.07516663521528244, 0.43408307433128357, -0.18531793355941772, -0.11718308180570602, -0.06227438151836395, -0.07109767943620682, 0.19961588084697723, 0.03330831229686737, -0.020113009959459305, -0.26333096623420715, -0.1508093923330307, 0.21882538497447968, -0.05224362015724182, -0.03144247457385063, 0.11260596662759781, 0.16695135831832886, -0.44066545367240906, -0.4697105884552002, -0.0825033113360405, 0.07394585013389587, 0.185638427734375, -0.04050682485103607, -0.00014327294775284827, -0.22083309292793274, 0.11259116232395172, -0.10486496239900589, 0.055350229144096375, 0.14010126888751984, -0.5818498134613037, -0.0481509231030941, -0.05491125211119652, 0.032954126596450806, -0.00029068681760691106, -0.06886620819568634, 0.07643720507621765, -0.32417887449264526, -0.11550229787826538, -0.15744513273239136, 0.08303284645080566, 0.046541426330804825, 0.29296940565109253, -0.27729666233062744, 0.08848874270915985, -0.030886461958289146, 0.11899412423372269, 0.03673412650823593, 9.60105171543546e-05, 0.11080233752727509, 0.00318313529714942, 0.17245908081531525, -0.050789255648851395, -0.07623831927776337, 0.22125467658042908, 0.01720621809363365, -0.19073660671710968, 0.07334724068641663], [-0.37771740555763245, 0.09999308735132217, -0.10581798851490021, 0.0368841253221035, 0.17468571662902832, -0.04898673668503761, 0.0763198584318161, -0.04147590696811676, 0.2070240080356598, 0.122641921043396, -0.11932851374149323, 0.12604200839996338, 0.0753319263458252, -0.09742342680692673, 0.04783356934785843, -0.05033291503787041, -0.14921461045742035, 0.10103261470794678, 0.04212251678109169, 0.002890692325308919, -0.12647567689418793, 0.18934254348278046, -0.2915800213813782, 0.08775356411933899, -0.09724970161914825, -0.15870952606201172, -0.12103226780891418, 0.17989180982112885, -0.09185753017663956, -0.1789456307888031, 0.012053761631250381, 0.19074265658855438, -0.1503221094608307, -0.0887184590101242, 0.06380598247051239, -0.1935468167066574, -0.14843110740184784, -0.2533772885799408, 0.1463245153427124, -0.10064439475536346, -0.12785857915878296, 0.015242192894220352, -0.21828126907348633, 0.06132419407367706, 0.3494914770126343, 0.3905174434185028, 0.06691130250692368, -0.16595999896526337, -0.10439253598451614, 0.36295896768569946, -0.06179329380393028, -0.12046192586421967, 0.43245506286621094, -0.13708379864692688, -0.16523560881614685, 0.10472581535577774, -0.12516431510448456, 0.2578475773334503, -0.23552079498767853, -0.27809199690818787, -0.25061216950416565, -0.2546326816082001, -0.18456219136714935, 0.051939088851213455], [0.16788963973522186, 0.018698645755648613, -0.07565641403198242, -0.21763454377651215, -0.05986413359642029, -0.27060091495513916, 0.1581970751285553, 0.12706972658634186, -0.058469753712415695, 0.39810073375701904, 0.33373209834098816, 0.19313375651836395, -0.048161350190639496, -0.05648711323738098, -0.01300333347171545, -0.009505021385848522, 0.058052025735378265, 0.14508044719696045, 0.20359694957733154, -0.1279584765434265, -0.1267385482788086, -0.2025253176689148, -0.23137266933918, -0.5696073770523071, -0.16247908771038055, -0.14772531390190125, 0.01496137771755457, -0.013504782691597939, -0.14949822425842285, 0.15104232728481293, -0.0484817735850811, -0.1572245955467224, 0.02762133628129959, -0.009036175906658173, 0.02829788066446781, 0.1633218228816986, 0.07768968492746353, 0.2228236198425293, 0.14795823395252228, -0.13938918709754944, 0.09070906788110733, -0.3182007670402527, -0.015078403986990452, 0.08792876452207565, 0.1586178094148636, -0.1098792776465416, -0.18042804300785065, -0.33576953411102295, 0.21556945145130157, 0.01872123032808304, -0.22014766931533813, 0.061251502484083176, -0.14348210394382477, -0.2735899090766907, -0.19518694281578064, -0.074882373213768, -0.23054903745651245, 0.21310670673847198, -0.07991175353527069, 0.03247939422726631, -0.038851942867040634, 0.07629911601543427, 0.08579063415527344, -0.24839097261428833], [-0.20341192185878754, 0.1678491085767746, -0.1738848090171814, 0.219113290309906, -0.23174314200878143, -0.14559663832187653, -0.27482110261917114, -0.07672037929296494, 0.09489624947309494, -0.0892789289355278, 0.2239239513874054, 0.08305790275335312, -0.048016518354415894, -0.20354007184505463, -0.05014290660619736, -0.06490464508533478, 0.22581952810287476, -0.22321173548698425, 0.027744805440306664, 0.3779808580875397, 0.06601515412330627, 0.15603603422641754, -0.028713025152683258, 0.08446656167507172, 0.08566316217184067, -0.1633712202310562, -0.18618163466453552, 0.005620450712740421, -0.32807666063308716, -0.08651726692914963, 0.1071469634771347, -0.03509626165032387, -0.08465467393398285, -0.22081498801708221, -0.16174930334091187, 0.010903658345341682, -0.18217293918132782, -0.0004679024568758905, -0.05034871771931648, 0.10603747516870499, 0.11674575507640839, -0.03512360155582428, 0.16632887721061707, 0.2477017492055893, 0.06191739812493324, -0.1457788199186325, -0.061356253921985626, -0.47163885831832886, -0.04595611244440079, 0.012124313041567802, 0.003293080721050501, -0.18571969866752625, -0.15661782026290894, 0.3666624426841736, -0.11401359736919403, 0.22821827232837677, -0.11938028037548065, 0.04450689256191254, 0.22420337796211243, -0.13855792582035065, 0.24513550102710724, 0.06229808181524277, 0.4051648676395416, 0.18638184666633606], [0.0389971099793911, -0.23073816299438477, 0.017097489908337593, 0.06999662518501282, -0.14759232103824615, 0.2222180962562561, -0.16387295722961426, 0.17903777956962585, -0.26198214292526245, -0.10848398506641388, 0.2872762382030487, -0.2772107422351837, -0.12982967495918274, 0.24498067796230316, 0.15999679267406464, -0.08536894619464874, 0.010530157946050167, -0.27695876359939575, -0.09389233589172363, 0.033066801726818085, 0.16776029765605927, -0.16106045246124268, -0.18702363967895508, 0.10836730152368546, 0.2673194706439972, -0.0867149829864502, -0.0741506963968277, 0.049789853394031525, -0.16251765191555023, -0.3544127643108368, 0.09712958335876465, 0.04016673192381859, -0.1486927568912506, -0.007692990358918905, 0.0585859939455986, 0.0022125618997961283, 0.05680082365870476, 0.11660424619913101, -0.008688530884683132, -0.01287917047739029, -0.16428908705711365, -0.38360345363616943, -0.027572978287935257, -0.03345894068479538, -0.042158909142017365, -0.10611099004745483, 0.08082444965839386, -0.19789399206638336, 0.14083407819271088, 0.08639460802078247, 0.210471510887146, 0.16798244416713715, 0.24003443121910095, 0.018837790936231613, -0.08077317476272583, 0.2711977958679199, 0.13644564151763916, -0.10712555050849915, -0.35440146923065186, -0.14803683757781982, -0.07913077622652054, 0.2826076149940491, -0.30671554803848267, -0.3870254456996918], [0.4035407304763794, 0.31649190187454224, -0.21387198567390442, -0.19582651555538177, 0.285882830619812, 0.060913700610399246, -0.02007414773106575, -0.18138490617275238, 0.3022250533103943, -0.08066971600055695, -0.09135422110557556, -0.06093462556600571, -0.01767551153898239, 0.1451803743839264, 0.13573090732097626, -0.1755848228931427, 0.03512899577617645, -0.14689692854881287, -0.07465586811304092, 0.23661166429519653, -0.08908457309007645, -0.19346883893013, -0.04803284630179405, -0.09549553692340851, 0.1559235006570816, -0.10023597627878189, -0.16228550672531128, -0.005776997189968824, 0.12712962925434113, -0.01561657153069973, -0.1539057493209839, 0.18101169168949127, 0.21278944611549377, -0.1275102198123932, 0.16468188166618347, -0.09379774332046509, 0.11828067898750305, 0.05286332592368126, -0.0362246111035347, 0.1425042301416397, -0.6092224717140198, -0.14910081028938293, 0.23758164048194885, -0.054425403475761414, 0.17619135975837708, 0.1609424352645874, -0.16575893759727478, -0.21361985802650452, 0.12763716280460358, 0.13817203044891357, -0.09379266947507858, 0.23798483610153198, -0.06502792984247208, 0.08240018784999847, -0.03383220359683037, -0.12556084990501404, 0.18693308532238007, -0.1238594725728035, 0.320695161819458, 0.06500598788261414, -0.20658057928085327, 0.038029659539461136, -0.0005638510920107365, 0.1729888767004013], [-0.035074543207883835, -0.14055362343788147, -0.06206774339079857, -0.053848061710596085, 0.12972097098827362, 0.09518147259950638, 0.22365182638168335, 0.060389116406440735, -0.16794584691524506, 0.04499220848083496, -0.01199548039585352, -0.195429265499115, -0.050255026668310165, -0.04026311635971069, 0.06140951067209244, 0.11324866116046906, 0.22709526121616364, 0.4844839870929718, -0.11821552366018295, 0.1445808708667755, 0.1153499186038971, 0.1002165675163269, 0.5096296668052673, 0.18023638427257538, 0.14231102168560028, -0.030819352716207504, 0.012050065211951733, -0.062078528106212616, -0.11258891969919205, -0.2029380351305008, -0.017478149384260178, -0.15533678233623505, 0.07484034448862076, 0.15148654580116272, 0.3183303475379944, 0.10402119904756546, -0.11889815330505371, 0.2669156789779663, -0.1681755930185318, -0.014445597305893898, -0.0007701493450440466, 0.014123053289949894, 0.3891475796699524, 0.10798142850399017, -0.08931220322847366, 0.061550572514534, 0.033525094389915466, -0.1273995339870453, -0.026523739099502563, 0.14246045053005219, -0.0031430749222636223, -0.20883938670158386, -0.1441044807434082, -0.3232605755329132, -0.24012596905231476, -0.014026555232703686, 0.06266730278730392, 0.09552596509456635, 0.15301513671875, -0.4539724290370941, -0.3067578375339508, -0.141950324177742, 0.0856524258852005, -0.06551159918308258], [0.21783435344696045, 0.34202638268470764, -0.05960039421916008, -0.3853762447834015, 0.07491136342287064, 0.05920848250389099, -0.2226620465517044, 0.17961035668849945, -0.055731914937496185, 0.15322396159172058, 0.0275652427226305, -0.13644805550575256, -0.16889335215091705, 0.0400860570371151, 0.2775645852088928, -0.06142956763505936, -0.3210519850254059, 0.11323148757219315, 0.16836631298065186, -0.17665308713912964, 0.3361641466617584, 0.23083166778087616, -0.13797423243522644, 0.14051668345928192, 0.05821986496448517, 0.09664390236139297, -0.22924403846263885, -0.24142342805862427, -0.09104584157466888, -0.1644441783428192, 0.05140869319438934, -0.27185890078544617, -0.2834167778491974, 0.2668705880641937, 0.10850156098604202, -0.11370863020420074, -0.044350020587444305, -0.07120797783136368, -0.15547887980937958, 0.0790306106209755, -0.018656039610505104, 0.1660299152135849, -0.04917348176240921, -0.2063300460577011, 0.1326606422662735, -0.20455369353294373, 0.041374146938323975, 0.005635113921016455, -0.03533224016427994, 0.33133184909820557, -0.06780335307121277, -0.04006700590252876, 0.07263302057981491, 0.04032525420188904, 0.034903038293123245, -0.1451263278722763, -0.055400773882865906, -0.01198125071823597, 0.0823836624622345, 0.1268552839756012, 0.33171066641807556, -0.2449188083410263, 0.2954555153846741, -0.20507343113422394], [0.010093261487782001, 0.04522230848670006, 0.22203977406024933, -0.08651750534772873, 0.16375045478343964, -0.02560722827911377, -0.2837384045124054, -0.13017982244491577, -0.12708519399166107, -0.13965219259262085, -0.42095598578453064, 0.30271288752555847, 0.356449156999588, 0.16946153342723846, -0.12981952726840973, 0.2445772886276245, 0.058083076030015945, 0.15982304513454437, 0.1446874588727951, -0.009663362056016922, 0.05116856098175049, 0.15457358956336975, -0.11379014700651169, -0.10123004764318466, -0.03758857026696205, 0.07833342254161835, -0.1977083384990692, 0.27579519152641296, -0.02074597403407097, -0.04201844334602356, 0.14105965197086334, -0.2715234160423279, 0.08013056963682175, -0.0492771714925766, -0.12359685450792313, -0.11762738227844238, 0.023777924478054047, -0.03513363376259804, 0.11013999581336975, 0.1423703283071518, -0.16191382706165314, -0.12138538807630539, 0.1586136519908905, -0.031116308644413948, -0.10676014423370361, -0.026233704760670662, -0.3344477415084839, 0.1951693594455719, 0.09737809002399445, -0.12831510603427887, 0.031018830835819244, 0.07885507494211197, 0.048162318766117096, -0.06702859699726105, -0.4571727514266968, 0.30357030034065247, 0.359467476606369, 0.0974758043885231, -0.12683486938476562, -0.09154312312602997, 0.13229094445705414, 0.047508370131254196, 0.270506888628006, -0.2500874996185303], [-0.11392868310213089, -0.13869750499725342, -0.047785062342882156, -0.06443919986486435, 0.029713695868849754, -0.06697586923837662, 0.05134432390332222, -0.32510361075401306, 0.06871461868286133, -0.19560296833515167, -0.13618703186511993, -0.13498522341251373, 0.14524298906326294, -0.08218789100646973, 0.3298220932483673, -0.3540875017642975, -0.10839922726154327, 0.09648698568344116, -0.20878227055072784, -0.02381293475627899, -0.05257624760270119, 0.20148275792598724, -0.03497238829731941, -0.11194228380918503, -0.2266867756843567, 0.3194754123687744, 0.000437180045992136, -0.09029582887887955, 0.12202023714780807, -0.03487987816333771, -0.013363032601773739, -0.106134794652462, -0.1594267040491104, -0.2554031014442444, 0.21321317553520203, -0.08774910122156143, 0.2842857539653778, 0.3704874515533447, -0.18344183266162872, 0.10661659389734268, -0.013927415013313293, -0.24364350736141205, 0.1582266390323639, -0.017612725496292114, 0.1128118559718132, -0.3788377046585083, 0.01937880367040634, 0.01571499928832054, -0.034732889384031296, -0.19830980896949768, -0.29025784134864807, -0.21498748660087585, -0.014033528044819832, 0.13545680046081543, -0.14973565936088562, 0.17378224432468414, -0.21469862759113312, 0.05248862877488136, -0.2666527330875397, 0.02600581757724285, 0.17348411679267883, -0.1570618450641632, -0.3036012649536133, 0.18971674144268036]], "mlp_extractor.policy_net.2.bias": [0.0, 0.0, 0.0, 0.0, 0.0, 0.0, 0.0, 0.0, 0.0, 0.0, 0.0, 0.0, 0.0, 0.0, 0.0, 0.0, 0.0, 0.0, 0.0, 0.0, 0.0, 0.0, 0.0, 0.0, 0.0, 0.0, 0.0, 0.0, 0.0, 0.0, 0.0, 0.0, 0.0, 0.0, 0.0, 0.0, 0.0, 0.0, 0.0, 0.0, 0.0, 0.0, 0.0, 0.0, 0.0, 0.0, 0.0, 0.0, 0.0, 0.0, 0.0, 0.0, 0.0, 0.0, 0.0, 0.0, 0.0, 0.0, 0.0, 0.0, 0.0, 0.0, 0.0, 0.0], "mlp_extractor.value_net.0.weight": [[-0.02400246076285839, 0.07270820438861847, 0.21210065484046936, -0.145471453666687, -0.20819832384586334, 0.15421199798583984, -0.40512824058532715, -0.30020633339881897], [0.04915335401892662, 0.2350865751504898, 0.3773762881755829, -0.12585464119911194, 