{"mlp_extractor.policy_net.0.weight": [[0.013606369495391846, -0.026422977447509766, -0.03107929229736328, -0.004577964544296265, 0.00919203832745552, 0.01950472593307495, -0.00960966944694519, -0.023432359099388123], [0.011232588440179825, 0.020139653235673904, -0.009342968463897705, 0.01480722427368164, -0.026941487565636635, 0.0059987809509038925, 0.029358744621276855, -0.01876392960548401], [0.024999983608722687, -0.019047081470489502, -0.05335273593664169, 0.005631633102893829, 0.014317959547042847, 0.03346347436308861, -0.012192845344543457, -0.03462452068924904], [0.015556611120700836, 0.003990665078163147, -0.0538078248500824, 0.005063582211732864, -0.0067539215087890625, -0.02343502640724182, 0.02571062743663788, 0.003982206806540489], [-0.025334741920232773, -0.01749173179268837, 0.06302095949649811, -0.026061177253723145, 0.04272502660751343, -0.007493568584322929, -0.023998811841011047, 0.01867738366127014], [-0.019223079085350037, -0.013484080322086811, 0.027333736419677734, -0.02175840735435486, 0.029349304735660553, -0.03926641494035721, -0.010289149358868599, 0.0595935620367527], [0.010237306356430054, 0.018900427967309952, -0.005406297743320465, 0.014183402061462402, -0.029316678643226624, -0.010246187448501587, 0.023991525173187256, -0.001879960298538208], [-0.011919770389795303, -0.02411569654941559, 0.024660974740982056, -0.01940131187438965, 0.0293731689453125, 0.020623192191123962, -0.03378850594162941, -0.00366288423538208], [0.008797705173492432, 0.031631872057914734, -0.025608301162719727, 0.014954686164855957, -0.03481245040893555, -0.02421356737613678, 0.032951682806015015, 0.0033685117959976196], [0.012870527803897858, 0.02178756333887577, -0.024320347234606743, 0.018850743770599365, -0.04379361867904663, -0.0233641117811203, 0.03930160403251648, 0.009304247796535492], [-0.03500467538833618, -0.011480331420898438, 0.057585179805755615, -0.028022348880767822, 0.034820765256881714, -0.012325868010520935, -0.029781654477119446, 0.032908856868743896], [-0.024635910987854004, -0.015176504850387573, 0.06181606650352478, -0.02757994830608368, 0.02256077527999878, 0.0060055553913116455, -0.022926785051822662, 0.014123350381851196], [-0.024355411529541016, -0.017051860690116882, 0.05361827835440636, -0.024767905473709106, 0.03939327597618103, -0.0030759572982788086, -0.041939713060855865, 0.0012263208627700806], [-0.004004135727882385, 0.009826570749282837, -0.01708284020423889, -0.0017154552042484283, -0.024494290351867676, -0.03851475939154625, 0.04395924508571625, 0.062659353017807], [-0.007601350545883179, -0.019758746027946472, -0.012957736849784851, -0.009475111961364746, 0.029996424913406372, 0.004600487649440765, -0.03588205575942993, -0.0038825422525405884], [-0.01735229417681694, -0.014957334846258163, 0.044401250779628754, -0.021038711071014404, 0.03340566158294678, 0.07758593559265137, -0.03868323564529419, -0.02997662127017975], [0.019276022911071777, 0.008515238761901855, -0.009216547012329102, 0.0222204327583313, -0.015065379440784454, 0.018675029277801514, 0.010078907012939453, -0.03843635320663452], [-0.007333144545555115, -0.0056672170758247375, 0.04482007026672363, -0.002194240689277649, -0.003690391778945923, 0.03345751762390137, -0.02002575993537903, -0.020543716847896576], [0.008846667595207691, -0.0034591257572174072, -0.04071740806102753, -0.00171622633934021, -0.020083606243133545, -0.02921205759048462, 0.02281889319419861, 0.015144044533371925], [-0.009038612246513367, -0.006998937577009201, -0.0048978328704833984, -0.014957040548324585, -0.022069856524467468, -0.022591769695281982, 0.048377037048339844, 0.06190785765647888], [0.005529880523681641, 0.013454671017825603, -0.035774677991867065, 0.009832426905632019, -0.05404394865036011, -0.0927358865737915, 0.05300135910511017, 0.061095163226127625], [-0.00867260992527008, -0.02180001139640808, 0.03350057452917099, -0.010695397853851318, 0.04217231273651123, 0.060354262590408325, -0.04985684156417847, -0.05164089798927307], [0.012736916542053223, 0.021211043000221252, -0.012194126844406128, 0.011354878544807434, -0.026202142238616943, -0.034063920378685, 0.03818926215171814, 0.034121185541152954], [-0.007336273789405823, -0.00891065038740635, 0.032029032707214355, -0.005400504916906357, 0.042945027351379395, 0.09546342492103577, -0.04595863074064255, -0.062067367136478424], [0.022989951074123383, 0.01649957150220871, -0.05445009469985962, 0.02802598476409912, -0.05584704875946045, -0.03822821378707886, 0.03007476031780243, 0.006391555070877075], [0.01871117204427719, -0.001068904995918274, -0.05149165913462639, 0.0066787125542759895, -0.028968870639801025, -0.026338517665863037, 0.029942333698272705, 0.024598345160484314], [0.012429773807525635, 0.00895509123802185, -0.008399009704589844, 0.02022731304168701, 0.00021260976791381836, 0.0424545556306839, -0.0487930029630661, -0.08400826156139374], [0.00880606472492218, 0.02043740451335907, 0.02517605945467949, 0.0016088783740997314, 0.0017793187871575356, 0.013259604573249817, 0.027607589960098267, -0.00177001953125], [0.0037719979882240295, -0.03131084144115448, 0.01811075210571289, -0.011594235897064209, 0.026787608861923218, 0.044965386390686035, -0.017941445112228394, -0.04629959166049957], [-0.010907411575317383, -0.00800924003124237, 0.044826000928878784, 0.0014430880546569824, 0.030944466590881348, 0.05743002891540527, -0.04126668721437454, -0.042920298874378204], [0.020694101229310036, 0.019577890634536743, -0.04559038206934929, 0.026252448558807373, -0.05863064527511597, -0.03499123454093933, 0.0381089448928833, -0.0011176300467923284], [0.010800078511238098, -0.013786286115646362, 0.018429890275001526, 0.004318937659263611, 0.036733388900756836, 0.09218379855155945, -0.05640026554465294, -0.09131249785423279], [0.0024551991373300552, 0.00506165623664856, -0.042713239789009094, 0.006307557225227356, -0.019151270389556885, -0.04686957597732544, 0.01899847388267517, 0.026973210275173187], [0.02538737654685974, 0.0050827860832214355, -0.06409895420074463, 0.010532490909099579, -0.013218283653259277, -0.036634355783462524, 0.010640069842338562, 0.002961069345474243], [-0.026777461171150208, -0.018221452832221985, 0.055695533752441406, -0.02145620435476303, 0.06009608507156372, 0.025804579257965088, -0.049769092351198196, -0.007988721132278442], [-0.010266609489917755, -0.028875917196273804, 0.010107714682817459, -0.008997142314910889, 0.04414328932762146, 0.024446383118629456, -0.04540709778666496, -0.00953286699950695], [0.003781333565711975, -0.0030808448791503906, 0.031366586685180664, 0.005716592073440552, 0.02075672149658203, 0.06118355691432953, -0.03287243843078613, -0.059114545583724976], [0.005795478820800781, -0.01550399512052536, 0.01560111902654171, -0.004691999405622482, 0.04742908477783203, 0.09307849407196045, -0.03652511537075043, -0.08718736469745636], [-0.016605820506811142, 0.021109163761138916, -0.015149690210819244, 0.002083919942378998, -0.045185089111328125, -0.06363499164581299, 0.031072095036506653, 0.07151149213314056], [0.009536027908325195, 0.01645810529589653, -0.0007525086402893066, 0.01349174976348877, -1.9937753677368164e-05, 0.043213166296482086, -0.025275930762290955, -0.07666998356580734], [-0.013842001557350159, -0.010771989822387695, 0.009299717843532562, -0.01890072226524353, 0.02409568428993225, -0.018580690026283264, -0.01802544668316841, 0.03639662638306618], [0.015266906470060349, 0.012247227132320404, 0.0053594037890434265, 0.011370271444320679, 0.03577384352684021, 0.00922362506389618, 0.0025485754013061523, -0.008344873785972595], [0.0077112698927521706, 0.009417437016963959, 0.0053299665451049805, 0.01802194118499756, -0.02450743317604065, 0.015456020832061768, -0.007245287299156189, -0.029274746775627136], [0.016688596457242966, 0.017769059166312218, -0.017730683088302612, 0.018703460693359375, -0.04249078035354614, -0.007857615128159523, 0.034369468688964844, -0.01839524507522583], [-0.019879505038261414, -0.008522985503077507, 0.0080646350979805, -0.017715275287628174, -0.01230648159980774, -0.04810813069343567, 0.037539079785346985, 0.07083262503147125], [-0.023582132533192635, -0.00554579496383667, 0.05849103629589081, -0.016862034797668457, 0.014747798442840576, 0.01545765995979309, -0.020471084862947464, 0.00664210319519043], [-0.012127071619033813, -0.00558076798915863, 0.048824310302734375, 0.00017243623733520508, 0.011111557483673096, 0.030086398124694824, -0.022497594356536865, -0.01650957763195038], [-0.007183603942394257, -0.013873392716050148, 0.03480774164199829, -0.005344970151782036, 0.03994488716125488, 0.0438956618309021, -0.06031984090805054, -0.06495726108551025], [0.01809178665280342, -0.01610948145389557, 0.008357957005500793, 0.008614487946033478, 0.04895174503326416, 0.07929962873458862, -0.06513714790344238, -0.10630744695663452], [0.027456723153591156, 0.010391630232334137, -0.03036847710609436, 0.02623811364173889, -0.0033540576696395874, 0.052416056394577026, -0.013084854930639267, -0.07063072919845581], [-0.0032642781734466553, -0.0067006563767790794, 0.03318402171134949, 0.0006380155682563782, 0.039167046546936035, 0.06691151857376099, -0.05898699164390564, -0.05743112415075302], [-0.03270728141069412, -0.013335093855857849, 0.05699804052710533, -0.028029751032590866, 0.013138055801391602, -0.006379798054695129, -0.017554253339767456, 0.013128340244293213], [-0.0072019025683403015, -0.027192026376724243, -0.0007638484239578247, -0.012032032012939453, 0.036882705986499786, 0.007579788565635681, -0.033218495547771454, -0.005322139710187912], [-0.008504103869199753, 0.007606148719787598, -0.017563343048095703, -0.005851827561855316, -0.0038884878158569336, -0.07823295891284943, 0.021665304899215698, 0.07474181056022644], [0.010835664346814156, 0.017522111535072327, -0.01363527774810791, 0.02056032419204712, -0.03269145265221596, 0.0007633790373802185, 0.022851377725601196, -0.020453577861189842], [0.012080475687980652, 0.022151168435811996, -0.048271358013153076, 0.023285597562789917, -0.074185311794281, -0.07157963514328003, 0.02812129259109497, 0.030581586062908173], [-0.007294299080967903, 0.001400001347064972, -0.002612009644508362, -0.02434152364730835, 0.017168164253234863, -0.0022912174463272095, 0.041922517120838165, 0.05003364384174347], [-0.0015774369239807129, -0.0025417208671569824, 0.03333117812871933, 0.005616962909698486, 0.020786941051483154, 0.04862314462661743, -0.029282502830028534, -0.04323011636734009], [0.01128898561000824, 0.011875450611114502, -0.03419748693704605, 0.008143043145537376, -0.07546401023864746, -0.11434775590896606, 0.0643763393163681, 0.07020262628793716], [-0.012088984251022339, -0.016460195183753967, -0.013974480330944061, -0.009790003299713135, 0.03988553583621979, 0.02282148040831089, -0.01466214656829834, 0.009479880332946777], [-0.010421925224363804, 0.0021531134843826294, 0.013443246483802795, -0.012921720743179321, -0.03319890797138214, -0.044343411922454834, 0.0619959831237793, 0.1147700697183609], [-0.022459715604782104, -0.019787028431892395, 0.03713500499725342, -0.024655550718307495, 0.03565564751625061, -0.006517454981803894, -0.04505172371864319, 0.003298148512840271], [0.013872101902961731, 0.022336244583129883, -0.03428301215171814, 0.018848568201065063, -0.051015377044677734, -0.03343421220779419, 0.03868865966796875, 0.025237444788217545], [0.016440287232398987, 0.011411137878894806, -0.014686962589621544, 0.020172834396362305, -0.018393561244010925, 0.025095760822296143, 0.007506147027015686, -0.038112640380859375]], "mlp_extractor.policy_net.0.bias": [-0.0041008517146110535, -0.005964074283838272, -0.023881450295448303, -0.00642457976937294, 0.020797772333025932, 0.01974286139011383, -0.005103610455989838, 0.00397738441824913, 0.002521045506000519, -0.004159431904554367, 0.027249278500676155, 0.020771212875843048, 0.01828710362315178, 0.013717910274863243, -0.0037172436714172363, 0.008668772876262665, -0.01815241016447544, 0.0034383125603199005, -0.000982828438282013, 0.01716184988617897, 0.006926629692316055, -0.0049863457679748535, 0.004491064697504044, -0.005870887078344822, -0.015173159539699554, -0.008858215063810349, -0.01950855553150177, 0.0034936219453811646, -0.012214213609695435, -0.0021680351346731186, -0.012421693652868271, -0.02089962363243103, -0.0009732060134410858, -0.01643086038529873, 0.012483613565564156, -0.006819240748882294, -0.007507003843784332, -0.016850657761096954, 0.0192901398986578, -0.007934331893920898, 0.013087362051010132, -0.012174364179372787, -0.011018173769116402, -0.008537527173757553, 0.020523667335510254, 0.017544975504279137, 0.003142368048429489, -0.008204969577491283, -0.030772734433412552, -0.028028640896081924, -0.007886256091296673, 0.027154630050063133, -0.004562065005302429, 0.017549587413668633, -0.008586017414927483, -0.005443934351205826, 0.024248987436294556, -0.005712444894015789, 0.0060865432024002075, -0.0049141645431518555, 0.02864457666873932, 0.01480834186077118, -0.00360783189535141, -0.01655212789773941], "mlp_extractor.policy_net.2.weight": [[-0.00632137805223465, -0.004147559404373169, -0.0010944530367851257, -0.013608306646347046, -0.013757482171058655, -0.016178518533706665, -0.007460266351699829, -0.0011928873136639595, 0.019453734159469604, -0.0015134811401367188, -0.00410132110118866, -0.021256431937217712, -0.0009962692856788635, -0.02572869509458542, 0.015079140663146973, 0.009327806532382965, -0.014789239503443241, 0.00841863825917244, -0.0012420117855072021, -0.012164175510406494, -0.01276395097374916, 0.008515670895576477, -0.018107980489730835, 0.00837796926498413, 0.006890252232551575, -0.00425603985786438, 0.016604140400886536, 0.0007221400737762451, 0.011144906282424927, 0.01277431845664978, 0.0019118189811706543, 0.010636448860168457, -0.012184560298919678, -0.0035272687673568726, -0.010092377662658691, -0.014066815376281738, 0.0014221668243408203, 0.012716367840766907, 0.0010923147201538086, 0.0036647915840148926, 0.0018601715564727783, -0.007009036839008331, -0.008995398879051208, -0.008539356291294098, -0.009083427488803864, 0.007801264524459839, -0.011633800342679024, 0.008084960281848907, -0.001991763710975647, 0.01189422607421875, 0.013637475669384003, -0.007057443261146545, -0.004856020212173462, -0.010431032627820969, -0.005041142925620079, -0.018316350877285004, 0.00468270480632782, 0.0017253458499908447, -0.001638174057006836, -0.003973841667175293, -0.005747988820075989, -0.0018317997455596924, -0.015022628009319305, 0.004722923040390015], [0.01113932579755783, -0.005645527504384518, 0.024925485253334045, 0.01465211808681488, -0.0289048720151186, -0.008157297968864441, -0.01389378309249878, 0.005347609519958496, -0.008673280477523804, -0.00785854458808899, -0.028292641043663025, -0.02196510136127472, -0.016262978315353394, -0.004445597529411316, 0.01413554698228836, 0.007210373878479004, 0.007172942161560059, -0.01320829801261425, 0.01589733362197876, 0.0016436576843261719, -0.00846189260482788, 0.012407451868057251, -0.004969790577888489, 0.0029311776161193848, 0.027662986889481544, 0.01777905970811844, 0.004925820976495743, -0.015179172158241272, 0.019621193408966064, -0.019634097814559937, 0.003697015345096588, 0.019173327833414078, 0.007098495960235596, 0.029123276472091675, -0.023427680134773254, 0.007217101752758026, -0.0035110414028167725, 0.01718810945749283, -0.011879153549671173, 0.0076247453689575195, 0.007471160963177681, 0.0024677887558937073, -0.008718490600585938, 0.007490247488021851, -0.008980602025985718, -0.02928406000137329, -0.027743220329284668, -0.007440298795700073, 0.003358989953994751, 0.014085918664932251, 0.00216548889875412, -0.02973884344100952, 0.014627575874328613, -0.005034834146499634, -0.00015598535537719727, -0.002757430076599121, 0.012731418013572693, -0.010548487305641174, -0.0029417425394058228, 0.010680953040719032, 0.004863005131483078, -0.012181356549263, -0.004409458488225937, 0.014149397611618042], [-0.005442798137664795, 0.003442808985710144, -0.021009434014558792, -0.01696622371673584, 0.02362898178398609, 0.0064712464809417725, 0.010718882083892822, -0.0017192438244819641, 0.005748644471168518, 0.005164388567209244, 0.02593059651553631, 0.02098424732685089, 0.018960926681756973, -0.0015132054686546326, -0.012288600206375122, -0.0011933408677577972, -0.0022661983966827393, 0.015069335699081421, -0.01541755348443985, -0.0019128024578094482, 0.004467040300369263, -0.0033554434776306152, 0.00377500057220459, 0.002281486988067627, -0.02844156324863434, -0.015483096241950989, -0.00322539359331131, 0.014350910671055317, -0.00951676070690155, 0.025674015283584595, -0.00753258541226387, -0.009570330381393433, -0.01085912436246872, -0.03182119131088257, 0.027581602334976196, -0.0048994217067956924, 0.009783655405044556, -0.007073212414979935, 0.004228517413139343, -0.009451985359191895, -0.009780272841453552, -0.0024367868900299072, 0.008869335055351257, -0.008716598153114319, 0.005004465579986572, 0.03021480143070221, 0.028607353568077087, 0.008706554770469666, 0.0033226609230041504, -0.01072162389755249, 0.004217654466629028, 0.02719077467918396, -0.010694235563278198, -0.0025104880332946777, -0.00019031763076782227, -0.007118828594684601, -0.011915087699890137, 0.016998395323753357, -0.005792170763015747, -0.01140313595533371, -0.006922662258148193, 0.01679922640323639, -0.004903122782707214, -0.009762495756149292], [0.02711833268404007, -0.040210604667663574, 0.023343533277511597, 0.008986689150333405, -0.029334917664527893, 0.001509031280875206, -0.02458026260137558, 0.013942163437604904, -0.012167957611382008, -0.018953487277030945, -0.021547168493270874, 0.00510062463581562, 0.007717431988567114, -0.04535678029060364, 0.01500643789768219, 0.014911865815520287, 0.0027379989624023438, -0.01934272050857544, 0.0025014281272888184, 0.015667319297790527, -0.00865793228149414, 0.0470181405544281, -0.017803791910409927, 0.01228293962776661, -0.0016613081097602844, 0.025294587016105652, 0.005119979381561279, -0.01236875168979168, 0.03476324304938316, 0.009941458702087402, 0.007446169853210449, 0.028981715440750122, -0.018899783492088318, 0.008804857730865479, -0.011074721813201904, 0.005552515387535095, 0.013365328311920166, 0.04383855685591698, -0.04595303535461426, -0.007782697677612305, 0.0019694864749908447, -0.03166363388299942, -0.01033201813697815, -0.014093458652496338, -0.02571636438369751, -0.010127365589141846, -0.004913270473480225, 0.05062404274940491, 0.012940466403961182, 0.027131177484989166, 0.0032084882259368896, -0.008078336715698242, 0.007440246641635895, -0.004987359046936035, -0.0307786762714386, -0.03912393003702164, -0.017187558114528656, 0.005969882011413574, -0.017991527915000916, 0.007685534656047821, -0.03151750564575195, 0.004770740866661072, -0.03195756673812866, 0.0022540688514709473], [-0.007828623056411743, 0.031160712242126465, 0.007561587728559971, -0.013514168560504913, 0.004460826516151428, -0.013372957706451416, 0.015982914716005325, -0.006108507513999939, -0.010063506662845612, 0.006607376039028168, -0.006867527961730957, -0.014513522386550903, -0.015636101365089417, 0.02059965208172798, 0.004141688346862793, 0.02050795406103134, 0.028449654579162598, 0.023284591734409332, 0.0033867359161376953, -0.02153385430574417, -0.022471457719802856, -0.006880186498165131, 0.004395276308059692, 0.01906803622841835, 0.009402424097061157, -0.014127418398857117, 0.007934197783470154, -0.009331345558166504, 0.008579999208450317, -0.0006725415587425232, -0.013171680271625519, 0.027355531230568886, 0.01103251427412033, 0.0061111003160476685, 0.0046932995319366455, 0.011631254106760025, 0.0056330300867557526, 0.012216547504067421, 0.012013867497444153, 0.02501097321510315, 0.0018986091017723083, 0.01813715696334839, 0.020492196083068848, 0.03664523363113403, -0.0023602694272994995, -4.017353057861328e-05, -0.005575463175773621, -0.02327314019203186, 0.009454034268856049, -0.005922049283981323, 0.02866128832101822, -0.008896812796592712, 0.020123057067394257, -0.027639240026474, 0.03806956112384796, 0.014708112925291061, 0.03304949402809143, -0.0008706673979759216, -0.023660531267523766, 0.011675447225570679, 0.03131088614463806, -0.009352296590805054, 0.015783190727233887, 0.030750900506973267], [0.0034907422959804535, 0.010329075157642365, 0.01295483112335205, 0.0006794221699237823, 0.0017751604318618774, -0.0005575418472290039, 0.0008909106254577637, 0.0016286373138427734, -0.01885978877544403, -0.0024349987506866455, -0.010313797742128372, 0.0004490315914154053, -0.014150276780128479, 0.01613019034266472, 0.002392984926700592, 0.010567620396614075, 0.020214617252349854, 0.00461152195930481, 0.005408063530921936, -0.0017232149839401245, -0.011090129613876343, -0.003959715366363525, 0.003746940754354, 0.009498298168182373, 0.006983518600463867, -0.0017892234027385712, -0.00018137693405151367, -0.013145312666893005, 0.007628932595252991, -0.013737566769123077, -0.006889723241329193, 0.016475655138492584, 0.011784940958023071, 0.014213338494300842, -0.0052213482558727264, 0.0162014439702034, -0.0008489610627293587, 0.009773120284080505, -0.0007960530929267406, 0.013388343155384064, 0.005082041956484318, 0.007277332246303558, 0.01132771372795105, 0.022926658391952515, -0.004818469285964966, -0.00918346643447876, -0.006370002403855324, -0.014194972813129425, 0.0035791993141174316, 0.0018704235553741455, 0.011377274990081787, -0.0103578120470047, 0.01776556670665741, -0.009601607918739319, 0.016401544213294983, 0.018845409154891968, 0.0112924724817276, -0.00854445993900299, -0.011850344017148018, 0.01274874061346054, 0.015298262238502502, -0.01275673508644104, 0.018146812915802002, 0.014973193407058716], [-0.020636960864067078, 0.02705925703048706, -0.026350857689976692, -0.01651167869567871, 0.03231089562177658, 0.002398759126663208, 0.023216187953948975, -0.012402825057506561, 0.01076524704694748, 0.016765639185905457, 0.026882559061050415, 0.009184867143630981, 0.0021924227476119995, 0.022649675607681274, -0.01888137310743332, -0.005122676491737366, 0.0028426051139831543, 0.022906765341758728, -0.010805685073137283, -0.010773301124572754, 0.00694536417722702, -0.026205100119113922, 0.01611711084842682, -0.005230218172073364, -0.01293431967496872, -0.02689608931541443, -0.004358559846878052, 0.01613709330558777, -0.025957852602005005, 0.004459083080291748, -0.00895041972398758, -0.020206093788146973, 0.007062852382659912, -0.020330071449279785, 0.020637989044189453, -0.007135048508644104, -0.0016744732856750488, -0.026190727949142456, 0.026619821786880493, 0.0025240182876586914, -0.0075772106647491455, 0.01891743764281273, 0.016013994812965393, 0.011338502168655396, 0.015870168805122375, 0.023039206862449646, 0.018422497436404228, -0.017338484525680542, -0.007909581065177917, -0.020917654037475586, 0.0025018155574798584, 0.018723949790000916, -0.011204024776816368, -0.0002789534628391266, 0.021835923194885254, 0.01876622438430786, 0.003338802605867386, 0.004223570227622986, 0.0065133944153785706, -0.011798866093158722, 0.015238137915730476, 0.0028635263442993164, 0.018122822046279907, -0.001198798418045044], [0.021295756101608276, -0.049471959471702576, -0.003421410918235779, 0.013869315385818481, 0.010500162839889526, 0.028542421758174896, -0.018460318446159363, 0.01645784080028534, -0.020187359303236008, -0.025705695152282715, 0.010230690240859985, 0.059939056634902954, 0.03422524034976959, -0.027108386158943176, -0.014806501567363739, -0.003957357257604599, -0.016631126403808594, -0.028134670108556747, -0.020998328924179077, 0.03246140480041504, 0.015935659408569336, 0.03496953845024109, 0.0014655962586402893, -0.0016012787818908691, -0.058972835540771484, 0.013026271015405655, -0.007824450731277466, 0.01207289844751358, 0.006109759211540222, 0.020215213298797607, -0.006077557802200317, -0.006653584539890289, -0.03390789031982422, -0.018289566040039062, 0.008195489645004272, -0.00013262033462524414, 0.004977911710739136, 0.013966560363769531, -0.04282771423459053, -0.03462899476289749, -0.006871268153190613, -0.022341802716255188, -0.015665419399738312, -0.04403509944677353, -0.01528147142380476, 0.013912634924054146, 0.031021401286125183, 0.05248786509037018, 0.011931877583265305, 0.022524826228618622, -0.02563077211380005, 0.018712349236011505, -0.011248141527175903, 0.024644985795021057, -0.05720718577504158, -0.033636800944805145, -0.0593804307281971, 0.01952897012233734, -0.0026616156101226807, -0.008695006370544434, -0.05928010493516922, 0.019129306077957153, -0.023054426535964012, -0.03267563879489899], [-0.009199857711791992, 0.03188033401966095, 0.008260101079940796, 0.002588525414466858, -0.013973049819469452, -0.021350175142288208, 0.012039914727210999, -0.006022095680236816, 0.018111269921064377, 0.024214357137680054, -0.015354081988334656, -0.05063173174858093, -0.027799665927886963, 0.03094526380300522, 0.018185436725616455, -0.023864105343818665, 0.005677968263626099, 0.0025289058685302734, 0.028072431683540344, -0.01819545030593872, -0.001775585114955902, -0.045738816261291504, -0.008501827716827393, -0.010841041803359985, 0.05776089429855347, 0.010079532861709595, -0.002152353525161743, -0.01819351315498352, -0.009009391069412231, -0.018904905766248703, 0.025362001731991768, -0.004421785473823547, 0.041980817914009094, 0.02000381052494049, -0.007150173187255859, 0.006677193567156792, -0.0037403926253318787, -0.02852882444858551, 0.04308469593524933, 0.0246809720993042, 0.0038323402404785156, 0.0006318986415863037, 0.006587579846382141, 0.023932263255119324, 0.019367873668670654, -0.025416254997253418, -0.026339808478951454, -0.055094972252845764, -0.009644980542361736, -0.027503252029418945, 0.004729181528091431, -0.0033517777919769287, 0.009600892663002014, -0.011429265141487122, 0.04136821627616882, 0.0472903847694397, 0.03786802291870117, -0.02279239520430565, 0.014485031366348267, 0.014388274401426315, 0.05277293175458908, -0.012005172669887543, 0.021971583366394043, 0.009171523153781891], [-0.009215444326400757, -0.009775489568710327, -0.013707533478736877, -0.003279533237218857, -0.0025611594319343567, -0.0020040273666381836, -0.0037552714347839355, -0.00467604398727417, 0.017678990960121155, 7.43865966796875e-05, 0.007933355867862701, 0.0005029439926147461, 0.006883949041366577, -0.015302926301956177, -0.0028905868530273438, -0.00531613826751709, -0.024353399872779846, -0.0035313069820404053, -0.009262045845389366, 0.0007968544960021973, 0.006818232126533985, -0.0016591548919677734, -0.0035372376441955566, -0.006532259285449982, -0.004716992378234863, -0.003060184419155121, 0.006051555275917053, 0.01373695582151413, -0.011167824268341064, 0.005063384771347046, 0.004337430000305176, -0.015335433185100555, -0.014340907335281372, -0.008692421019077301, -0.005103886127471924, -0.018555954098701477, -0.004940792918205261, -0.008990287780761719, 0.003743588924407959, -0.008881929330527782, -0.0019613653421401978, -0.00162477046251297, -0.014033444225788116, -0.016571789979934692, -0.0008059144020080566, 0.01034294068813324, 0.0018918812274932861, 0.008374035358428955, -0.010076329112052917, 0.0065059177577495575, -0.008520171046257019, 0.0012143999338150024, -0.019868995994329453, 0.01103869080543518, -0.01972070336341858, -0.012087211012840271, -0.014268532395362854, 0.0035325288772583008, 0.015902750194072723, -0.014586284756660461, -0.018836993724107742, 0.0014871731400489807, -0.006354093551635742, -0.010749250650405884], [0.016652405261993408, -0.024962931871414185, 0.030798107385635376, 0.00803288072347641, -0.04229769855737686, -0.017894402146339417, -0.0263708233833313, 0.010617773979902267, -0.008524388074874878, -0.015519976615905762, -0.03686487674713135, -0.02543829381465912, -0.017613980919122696, -0.02936404198408127, 0.027208596467971802, 0.013697266578674316, 0.0016529262065887451, -0.014217197895050049, 0.014732718467712402, -0.0002888292074203491, -0.018450602889060974, 0.03086906298995018, -0.023450933396816254, 0.014339517802000046, 0.0329962819814682, 0.025522228330373764, 0.015385568141937256, -0.02307865023612976, 0.03537124767899513, -0.012331664562225342, 0.009520620107650757, 0.03604760766029358, -0.0028372257947921753, 0.02947095036506653, -0.025756895542144775, 0.009770234115421772, 0.0031998157501220703, 0.040880072861909866, -0.028666868805885315, 0.012189656496047974, 0.008721694350242615, -0.020780503749847412, -0.012391090393066406, -0.0013994574546813965, -0.02566947415471077, -0.025939039885997772, -0.031163493171334267, 0.016472138464450836, 0.008362367749214172, 0.02727562189102173, 0.013219773769378662, -0.0322728306055069, 0.015525475144386292, -0.013074100017547607, -0.01160941831767559, -0.016328729689121246, 0.004699851386249065, -0.012660712003707886, -0.011377017945051193, 0.015829045325517654, -0.009462807327508926, -0.012127742171287537, -0.016044162213802338, 0.018225371837615967], [0.005897983908653259, -0.0003735274076461792, 0.007942795753479004, -0.05164840817451477, 0.0016007721424102783, -0.03807230666279793, -0.020948737859725952, 0.02147671766579151, -0.00861617922782898, -0.015841752290725708, -0.0069526731967926025, -0.007231712341308594, 0.0012581180781126022, -0.02935657650232315, 0.023445233702659607, 0.049625180661678314, 0.007631413638591766, 0.03906336426734924, -0.008048780262470245, -0.02649913728237152, -0.05370740592479706, 0.028152018785476685, -0.03111959621310234, 0.05310806632041931, -0.0016213059425354004, -0.010329106822609901, 0.04191899299621582, -0.014231450855731964, 0.03456352651119232, 0.03184746205806732, -0.024571150541305542, 0.05299784243106842, -0.024803519248962402, -0.008908241987228394, 0.008073657751083374, 0.01927417516708374, 0.034704215824604034, 0.04209999740123749, -0.018799349665641785, 0.027114175260066986, -0.011354424059391022, -0.008441627025604248, 0.011685222387313843, -0.002417534589767456, -0.03306286409497261, 0.018261045217514038, -0.0017977207899093628, 0.02610892802476883, 0.027842089533805847, 0.021272748708724976, 0.07234469056129456, 0.007501482963562012, 0.02104365825653076, -0.05684269964694977, 0.007090047001838684, -0.02347639948129654, -0.0013941377401351929, 0.013761401176452637, -0.04657517373561859, 0.006055422127246857, -0.008651956915855408, 0.0060633644461631775, -0.020691223442554474, 0.024835258722305298], [-0.007215827703475952, -0.04430650919675827, -0.005052536725997925, -0.014164507389068604, 0.0035447031259536743, 0.017959728837013245, -0.020585309714078903, -0.005005568265914917, -0.024576500058174133, -0.03863272815942764, 0.009680211544036865, 0.04172360897064209, 0.01490253210067749, -0.02720537781715393, 0.0022103041410446167, 0.05742451548576355, -0.013618335127830505, 0.008338876068592072, -0.034530460834503174, 0.011490670964121819, -0.01956641674041748, 0.037124454975128174, -0.007037922739982605, 0.025650888681411743, -0.057096511125564575, -0.02544984221458435, 0.007862716913223267, 0.007876217365264893, 0.008798778057098389, -0.0007929801940917969, -0.04142838716506958, 0.010429829359054565, -0.05238114669919014, -0.0043528079986572266, -0.01507645845413208, -0.009869623929262161, -0.019983559846878052, 0.048144832253456116, -0.03150138258934021, -0.009207591414451599, 0.019222483038902283, -0.007655194029211998, -0.015878409147262573, -0.020603671669960022, -0.02599850296974182, 0.03366383910179138, 0.0034902095794677734, 0.041387200355529785, -0.0070775896310806274, 0.038878053426742554, 0.005385726690292358, -0.01819443702697754, -0.005830883979797363, 0.015545070171356201, -0.05191469192504883, -0.048292726278305054, -0.014435753226280212, 0.0029723048210144043, -0.01313549280166626, -0.001738622784614563, -0.04863038659095764, -0.008299559354782104, -0.0091942697763443, 0.00012299418449401855], [0.005398273468017578, -0.0014889035373926163, 0.0010224170982837677, -0.05836093798279762, -0.0006935596466064453, -0.03631523996591568, -0.02453276515007019, 0.025506719946861267, -0.00536268949508667, -0.01990848034620285, -0.0009307116270065308, -0.0057668983936309814, 0.010825220495462418, -0.042411088943481445, 0.020340748131275177, 0.06248097121715546, 0.0007902979850769043, 0.04009172320365906, -0.017858102917671204, -0.024113819003105164, -0.0567510649561882, 0.03678496181964874, -0.030162706971168518, 0.05455905944108963, -0.005932793021202087, -0.016339153051376343, 0.05056807026267052, -0.004148341715335846, 0.03866422176361084, 0.04376453161239624, -0.032450154423713684, 0.05790400505065918, -0.04133229702711105, -0.017969489097595215, -0.0017724186182022095, 0.011178672313690186, 0.04112918674945831, 0.047555141150951385, -0.022533610463142395, 0.017401762306690216, -0.009462933987379074, -0.006448850035667419, 0.0033776462078094482, -0.003985662944614887, -0.035791389644145966, 0.025119677186012268, 0.00038564205169677734, 0.035478606820106506, 0.026428431272506714, 0.030405372381210327, 0.07509728521108627, 0.0002888590097427368, 0.01601417362689972, -0.06049850210547447, 0.0016370639204978943, -0.03717492148280144, -0.003149323631078005, 0.02453458309173584, -0.04640497267246246, -0.00818808376789093, -0.017180293798446655, 0.010288655757904053, -0.030561983585357666, 0.024457573890686035], [-0.001294165849685669, -0.006193503737449646, 0.0251694917678833, -0.05187863111495972, -0.012659043073654175, -0.05936911702156067, -0.04655066132545471, 0.03152228519320488, -0.020581573247909546, -0.03224440664052963, -0.036119185388088226, -0.03577342629432678, -0.022980526089668274, -0.04288661852478981, 0.05250440537929535, 0.05421249568462372, -0.00694708526134491, 0.04351154342293739, -0.0057714879512786865, -0.049081914126873016, -0.08313119411468506, 0.04378657788038254, -0.05842459201812744, 0.06974854320287704, 0.01313212513923645, -0.019068710505962372, 0.0645155981183052, -0.03188396990299225, 0.06092693656682968, 0.018337130546569824, -0.029662948101758957, 0.08110371232032776, -0.03281859681010246, 0.021032191812992096, -0.01914346218109131, 0.03386843949556351, 0.01943853497505188, 0.06799030303955078, -0.02823847532272339, 0.052756957709789276, 0.00233672559261322, -0.010365765541791916, 0.0002043209969997406, -0.010161519050598145, -0.04846978187561035, 0.015054821968078613, -0.04041609168052673, 0.03202953189611435, 0.03258088231086731, 0.04272715002298355, 0.08069132268428802, -0.01853477954864502, 0.04332205653190613, -0.058865100145339966, 0.004235409200191498, -0.028414372354745865, 0.011835098266601562, -0.006663203239440918, -0.048784349113702774, 0.025181546807289124, -0.012194585055112839, -0.015319913625717163, -0.02523789182305336, 0.031514257192611694], [0.012096501886844635, -0.0010106377303600311, 0.0007382333278656006, 0.040619075298309326, 0.002131059765815735, 0.030281245708465576, 0.01488783210515976, -0.009128514677286148, 0.000282973051071167, 0.013522088527679443, 0.00444987416267395, 0.01864209771156311, 0.003122866153717041, 0.03140106052160263, -0.024239838123321533, -0.037333063781261444, 0.008371084928512573, -0.036202847957611084, 0.012373187579214573, 0.032807931303977966, 0.04341332986950874, -0.02544965222477913, 0.03028411604464054, -0.038682714104652405, 0.0030345506966114044, 0.02528592199087143, -0.036887913942337036, 0.005914032459259033, -0.0287153422832489, -0.027723297476768494, 0.020302027463912964, -0.038688622415065765, 0.026534270495176315, 0.0074133072048425674, 0.003921538591384888, -0.004014313220977783, -0.00978320837020874, -0.035287171602249146, 0.0085085928440094, -0.023735888302326202, -0.0024827122688293457, 0.005127139389514923, -0.0003972053527832031, 0.006821095943450928, 0.02037486433982849, -0.025865726172924042, 0.011720538139343262, -0.022772902622818947, -0.013382716104388237, -0.01805776357650757, -0.0484139621257782, 0.004068151116371155, -0.01278066635131836, 0.0330975167453289, -0.0030740201473236084, 0.027882613241672516, -0.01261131465435028, -0.0046702176332473755, 0.028284858912229538, -0.0061869025230407715, 0.005308188498020172, 0.0032889842987060547, 0.020512238144874573, -0.01740977168083191], [0.00037200748920440674, -0.020119667053222656, -0.010203428566455841, -0.006282273679971695, 0.00651603564620018, 0.012187130749225616, -0.012300550937652588, 0.003590613603591919, -0.012132829055190086, -0.021618008613586426, 0.013618286699056625, 0.03383496776223183, 0.019468039274215698, -0.02843552827835083, -0.014757513999938965, 0.024928420782089233, -0.011610239744186401, -0.0004463493824005127, -0.025704994797706604, 0.010878272354602814, -0.003179788589477539, 0.03234672546386719, 0.007541537284851074, 0.010416120290756226, -0.036973655223846436, -0.011722534894943237, 0.010311946272850037, 0.019658636301755905, 0.006343083456158638, 0.01228591799736023, -0.023203805088996887, 0.004791658371686935, -0.04046914353966713, -0.01501491665840149, -0.008493214845657349, -0.011743132956326008, -0.0010688116308301687, 0.02445220947265625, -0.029120653867721558, -0.020532727241516113, 0.0013620159588754177, 0.008278384804725647, -0.012399524450302124, -0.012284692376852036, -0.018387487158179283, 0.020296208560466766, 0.014501318335533142, 0.03275050222873688, 0.001283545047044754, 0.030314922332763672, 0.0004525184631347656, -0.011925901286303997, -0.011435911059379578, 0.008551254868507385, -0.03467671573162079, -0.040463924407958984, -0.02313695289194584, 0.018521748483181, -0.004317134618759155, -0.02000148594379425, -0.04201136901974678, 0.0018546581268310547, -0.015257567167282104, -0.002812817692756653], [-0.01629217341542244, -0.011521965265274048, -0.025014162063598633, -0.004612073302268982, 0.02095530927181244, 0.010255664587020874, 0.006964147090911865, -0.009585410356521606, 0.007726758718490601, 0.00033321231603622437, 0.02297206223011017, 0.022490859031677246, 0.011643469333648682, 0.008899297565221786, -0.009506955742835999, -0.016166716814041138, -0.025304436683654785, 4.4152140617370605e-05, -0.018351510167121887, 0.0029309839010238647, 0.012469915673136711, -0.019554361701011658, 0.0006538927555084229, -0.009775102138519287, -0.028600186109542847, -0.014685630798339844, -0.006857141852378845, 0.014502424746751785, -0.030269071459770203, 0.004831776022911072, -0.0002605915069580078, -0.03292572498321533, -0.011307880282402039, -0.01812797784805298, 0.01085805892944336, -0.012342751026153564, -0.015696529299020767, -0.025133352726697922, 0.0162980854511261, -0.009401291608810425, 0.0012308359146118164, -0.006890624761581421, -0.007364705204963684, -0.023730039596557617, 0.010291695594787598, 0.027016084641218185, 0.016608845442533493, 0.0014774203300476074, -0.013734709471464157, -0.007934138178825378, -0.01987650990486145, 0.02191309630870819, -0.02046865224838257, 0.026281263679265976, -0.022189944982528687, 0.006216084584593773, -0.018987275660037994, -0.0011247992515563965, 0.02017081156373024, -0.006972499191761017, -0.01485249400138855, 0.003802582621574402, 0.010787740349769592, -0.02453988790512085], [-0.0068833231925964355, -0.007728762924671173, -0.01750917360186577, -0.014491617679595947, 0.021449964493513107, 0.01329733431339264, 0.001145973801612854, -0.0023320019245147705, -0.018342815339565277, -0.021554231643676758, 0.02371494472026825, 0.04623216390609741, 0.02231355383992195, -0.020524948835372925, -0.028859935700893402, 0.04440155625343323, 1.5525147318840027e-05, 0.016461685299873352, -0.0358273945748806, 0.0015506893396377563, -0.007024317979812622, 0.044132769107818604, 0.022368118166923523, 0.019087672233581543, -0.05863690376281738, -0.028687961399555206, 0.013306885957717896, 0.03016570955514908, 0.0034317374229431152, 0.016771629452705383, -0.04587090015411377, 0.009340018033981323, -0.04929083585739136, -0.02339726686477661, 0.006782501935958862, -0.0127200186252594, 0.0014463700354099274, 0.028476715087890625, -0.03353676199913025, -0.01556481420993805, -0.006300963461399078, 0.0329107865691185, -0.00016565434634685516, -0.002530395984649658, -0.01960006356239319, 0.032073065638542175, 0.02641899138689041, 0.03699095547199249, 0.010494589805603027, 0.02985025942325592, 0.01015441119670868, -0.015890542417764664, -0.010454237461090088, 0.00013649463653564453, -0.02610372006893158, -0.04816141724586487, -0.02381296455860138, 0.029732508584856987, -0.020983606576919556, -0.024378955364227295, -0.04475043714046478, 0.005295276641845703, -0.012010961771011353, 0.009686663746833801], [-0.03048604726791382, 0.0034220032393932343, -0.040819406509399414, 0.01743244007229805, 0.03126788139343262, 0.0479271225631237, 0.046645388007164, -0.04113131761550903, 0.008786141872406006, 0.01886594295501709, 0.048237502574920654, 0.042539820075035095, 0.018056832253932953, 0.05283333361148834, -0.03999708965420723, -0.035766325891017914, -0.01838172972202301, -0.01362466812133789, -0.019024625420570374, 0.019574150443077087, 0.05346757918596268, -0.054708246141672134, 0.03935167193412781, -0.04197069630026817, -0.03787463903427124, -0.013134405016899109, -0.04197877645492554, 0.028523113578557968, -0.07378113269805908, -0.014271751046180725, 0.006975278258323669, -0.08057871460914612, 0.00936259888112545, -0.024657368659973145, 0.01798766851425171, -0.029973015189170837, -0.04484200477600098, -0.06614843010902405, 0.04483112692832947, -0.029245182871818542, 0.013293368741869926, 0.004923395812511444, -0.0032119154930114746, -0.0004627406597137451, 0.04296049475669861, 0.022820625454187393, 0.03733602166175842, -0.03567560389637947, -0.037692658603191376, -0.035520829260349274, -0.058246031403541565, 0.02805967628955841, -0.038678400218486786, 0.05891138315200806, -0.014826454222202301, 0.03463835269212723, -0.0025147050619125366, -0.00997038185596466, 0.04149121046066284, -0.008866935968399048, 0.00800207257270813, -0.0018304288387298584, 0.043641604483127594, -0.030812859535217285], [-0.01931290328502655, 0.046875961124897, -0.008098006248474121, -0.0015816837549209595, 0.0029238611459732056, -0.016546975821256638, 0.025809485465288162, -0.01391880214214325, 0.022278985008597374, 0.030490126460790634, 0.001328304409980774, -0.03932935744524002, -0.022521719336509705, 0.0400712788105011, -0.0033833682537078857, -0.02701457589864731, 0.007349260151386261, 0.011639371514320374, 0.018121179193258286, -0.021749665960669518, 0.00818583369255066, -0.04923146963119507, 0.011903315782546997, -0.01710815727710724, 0.04321056604385376, -0.005076900124549866, -0.0034010298550128937, -0.0005228966474533081, -0.024182483553886414, -0.016622453927993774, 0.016354084014892578, -0.01766270399093628, 0.039769113063812256, 0.0063477009534835815, 0.0050127506256103516, -0.0012920796871185303, -0.004166930913925171, -0.042903974652290344, 0.048176296055316925, 0.019524991512298584, -0.004786491394042969, 0.02589617669582367, 0.013797134160995483, 0.02842138707637787, 0.024705559015274048, -0.014695677906274796, -0.01192714273929596, -0.057255178689956665, -0.00988459587097168, -0.031688377261161804, 0.001211404800415039, -0.002963326871395111, -3.680586814880371e-06, -0.008246824145317078, 0.049236178398132324, 0.04730299115180969, 0.02960839867591858, -0.012926191091537476, 0.01753033697605133, -0.00024808943271636963, 0.049694791436195374, -0.008508086204528809, 0.029225096106529236, 0.01014244556427002], [0.005298793315887451, 0.02316690981388092, 0.020363330841064453, -0.01257462240755558, -0.018152832984924316, -0.02586403489112854, -0.0037182271480560303, 0.0073371827602386475, -0.0013374388217926025, 0.0022221803665161133, -0.022597283124923706, -0.03478580713272095, -0.01672917604446411, -0.010091081261634827, 0.01877685636281967, 0.024861380457878113, 0.02196851745247841, 0.020969286561012268, 0.015386093407869339, -0.021334271878004074, -0.027342475950717926, 0.016390308737754822, -0.011814281344413757, 0.022932499647140503, 0.03400343656539917, 0.0019871890544891357, 0.018188312649726868, -0.016852647066116333, 0.032794978469610214, 0.003765016794204712, -0.004680469632148743, 0.043690651655197144, 0.009066209197044373, 0.01421453058719635, -0.0063508860766887665, 0.01182025671005249, 0.017967164516448975, 0.0312727689743042, -0.005817048251628876, 0.02363109588623047, -0.000698387622833252, 0.005544215440750122, 0.011694446206092834, 0.027427256107330322, -0.012588022276759148, -0.015094712376594543, -0.019897639751434326, -0.0030823498964309692, 0.014881454408168793, 0.003482133150100708, 0.04116681218147278, -0.019352614879608154, 0.021156862378120422, -0.04064607620239258, 0.03367815911769867, -0.006404101848602295, 0.03249237313866615, -0.00034886598587036133, -0.028858549892902374, 0.01023685559630394, 0.024258628487586975, -0.006021812558174133, -0.009919313713908195, 0.03547266125679016], [-0.005738772451877594, -0.018240608274936676, -0.00927986204624176, 0.0037505030632019043, -0.008636951446533203, 0.0018085837364196777, -0.005503177642822266, -0.008289113640785217, 0.017929431051015854, -0.0017815083265304565, 0.0037699341773986816, 0.0006616413593292236, 0.006171911954879761, -0.014604199677705765, 0.00044208765029907227, -0.0085773766040802, -0.02825528383255005, -0.00996822863817215, -0.006601698696613312, 0.006615594029426575, 0.010891593992710114, -0.0027340352535247803, -0.006082925945520401, -0.010841108858585358, -0.003515198826789856, 0.003079235553741455, 0.0005301535129547119, 0.010627061128616333, -0.011418670415878296, -0.0012098848819732666, 0.009126931428909302, -0.01912771165370941, -0.013616710901260376, -0.003645673394203186, -0.010353796184062958, -0.022028550505638123, -0.011814793571829796, -0.00696709007024765, 0.0016088932752609253, -0.01282837986946106, 0.002293914556503296, -0.008652493357658386, -0.017547786235809326, -0.020527437329292297, -0.0021841824054718018, 0.005299031734466553, -0.0012324601411819458, 0.0049416422843933105, -0.014637455344200134, 0.009585514664649963, -0.016466617584228516, 0.00013447552919387817, -0.02201235294342041, 0.01768369972705841, -0.02778160572052002, -0.011426389217376709, -0.015990635380148888, -0.0009575188159942627, 0.019686877727508545, -0.011044040322303772, -0.022327296435832977, -0.0010930299758911133, -0.005839962512254715, -0.013646833598613739], [-0.009936649352312088, -0.012039288878440857, -0.02259790524840355, -0.0073089599609375, 0.01763005554676056, 0.0135579165071249, 0.004906505346298218, -0.0062354207038879395, 0.0037010200321674347, -0.002927049994468689, 0.023799829185009003, 0.029529068619012833, 0.019020305946469307, -0.00513865053653717, -0.015398293733596802, -0.001629754900932312, -0.018499579280614853, 0.0016430532559752464, -0.02252425253391266, 0.007428839802742004, 0.010144263505935669, -0.005621671676635742, 0.006448693573474884, -0.004132688045501709, -0.03563317656517029, -0.01507723331451416, -0.002645239233970642, 0.019908443093299866, -0.018854418769478798, 0.012783974409103394, -0.007381007075309753, -0.021972090005874634, -0.02209608629345894, -0.023150846362113953, 0.008955150842666626, -0.014219753444194794, -0.00544285774230957, -0.010908715426921844, 0.0018586255609989166, -0.016335785388946533, -0.0029987096786499023, -0.00025663524866104126, -0.005806285887956619, -0.01707899570465088, 0.0010820478200912476, 0.027862027287483215, 0.0231262668967247, 0.012730434536933899, -0.007271528244018555, 0.003004465252161026, -0.012298151850700378, 0.015411674976348877, -0.019536755979061127, 0.016738487407565117, -0.024424433708190918, -0.009252067655324936, -0.023874063044786453, 0.01071387529373169, 0.009456530213356018, -0.015443019568920135, -0.02462528645992279, 0.006831895560026169, 0.0013625100255012512, -0.0171949565410614], [0.011713998392224312, -0.013242900371551514, 0.013771072030067444, -0.05079531669616699, -0.007969915866851807, -0.04210392385721207, -0.041021645069122314, 0.03393426537513733, -0.011897549033164978, -0.028865987434983253, -0.017313353717327118, -0.003722548484802246, 0.0019193344051018357, -0.05051863193511963, 0.033071666955947876, 0.057935766875743866, -0.00692286342382431, 0.027391910552978516, -0.01491236686706543, -0.015905208885669708, -0.06531955301761627, 0.0416904054582119, -0.045956775546073914, 0.058486878871917725, 0.0045187026262283325, -0.0073456354439258575, 0.05534065142273903, -0.017975211143493652, 0.0477922260761261, 0.03217729926109314, -0.026559319347143173, 0.06767456978559494, -0.04022201895713806, -0.001452520489692688, -0.018297292292118073, 0.021198315545916557, 0.04093628376722336, 0.057487890124320984, -0.0304710753262043, 0.024638235569000244, -0.005929045379161835, -0.015505820512771606, -0.0011316239833831787, -0.008150428533554077, -0.04816412925720215, 0.01566031575202942, -0.01034727692604065, 0.0427527129650116, 0.02411743998527527, 0.04100075364112854, 0.07352282106876373, -0.0035704057663679123, 0.02135440707206726, -0.05735832452774048, -0.00852961279451847, -0.03306886553764343, -0.012661207467317581, 0.01255139708518982, -0.04362502694129944, 0.000721365213394165, -0.024043254554271698, -0.0006625242531299591, -0.028200455009937286, 0.021333307027816772], [-0.01570633053779602, -0.016861319541931152, -0.026380129158496857, -0.00688885897397995, 0.029585540294647217, 0.014530710875988007, 0.0016522407531738281, -0.0038454607129096985, -0.005299925804138184, -0.011512324213981628, 0.026646986603736877, 0.04034489393234253, 0.015642255544662476, 0.00323466956615448, -0.013694167137145996, -0.00462988018989563, -0.026677682995796204, 0.0013758502900600433, -0.026699647307395935, 0.005531534552574158, 0.00665668398141861, -0.002923130989074707, 0.0018438436090946198, -0.0007513910531997681, -0.044525474309921265, -0.01924458146095276, -0.0031284689903259277, 0.01563890278339386, -0.026051385328173637, 0.007172435522079468, -0.014772146940231323, -0.025820493698120117, -0.022820264101028442, -0.02007688581943512, 0.009667452424764633, -0.008893966674804688, -0.015241675078868866, -0.013591423630714417, 0.001678362488746643, -0.010703131556510925, 0.00470694899559021, -0.0034708380699157715, -0.009367227554321289, -0.025214578956365585, 0.004320111125707626, 0.033494651317596436, 0.02237159013748169, 0.014510363340377808, -0.010721206665039062, 0.0002523958683013916, -0.01509128138422966, 0.017938882112503052, -0.019194871187210083, 0.027728259563446045, -0.031982824206352234, -0.006224960088729858, -0.022414684295654297, 0.0032460689544677734, 0.012968480587005615, -0.006646575406193733, -0.024303656071424484, 0.0026747286319732666, 0.007393622770905495, -0.023487776517868042], [0.0009175240993499756, -0.0016164630651474, 0.0203678160905838, -0.0038088932633399963, -0.02557368203997612, -0.033027857542037964, -0.03163214027881622, 0.011259421706199646, 0.0034197717905044556, -0.023524850606918335, -0.02910667657852173, -0.030462102964520454, -0.030507713556289673, -0.05388716608285904, 0.014845624566078186, 0.0413198322057724, -0.002307116985321045, -0.0022714734077453613, 0.0030716359615325928, -0.0037071348633617163, -0.024626165628433228, 0.05548712983727455, -0.00867965817451477, 0.01489199697971344, 0.02787506952881813, 0.003221943974494934, 0.04662042856216431, -0.002158835530281067, 0.04981958866119385, -0.022434622049331665, -0.00857863575220108, 0.0629730224609375, -0.02923479676246643, 0.031578876078128815, -0.047451384365558624, -0.011167556047439575, 0.00509980320930481, 0.07403779029846191, -0.03701388090848923, 0.007855087518692017, 0.005092978477478027, 0.025806531310081482, -0.01753687858581543, 0.023022765293717384, -0.0546686053276062, -0.016370631754398346, -0.038001932203769684, 0.00019118189811706543, 0.0014172233641147614, 0.0638941302895546, 0.022711455821990967, -0.06989580392837524, 0.010220209136605263, -0.03316591680049896, -0.005394920706748962, -0.04427763819694519, 0.008527040481567383, -0.005125135183334351, -0.0029465556144714355, -0.018932431936264038, -0.023923784494400024, -0.03517530858516693, -0.01659664511680603, 0.047422587871551514], [-0.009210780262947083, -0.0005285739898681641, -0.023276031017303467, -0.00582452118396759, 0.02231048047542572, 0.011280164122581482, 0.011348962783813477, -0.004859656095504761, 0.009374931454658508, 0.00635412335395813, 0.0264076329767704, 0.020086774602532387, 0.01758788526058197, 0.005368143320083618, -0.012618035078048706, -0.016173474490642548, -0.013320133090019226, 0.0020482391119003296, -0.013089865446090698, 0.004336625337600708, 0.014872992411255836, -0.015168465673923492, 0.004847340285778046, -0.010584503412246704, -0.025857359170913696, -0.011010900139808655, -0.00943136215209961, 0.014672636985778809, -0.023502901196479797, 0.0169328972697258, 0.0012999475002288818, -0.027175992727279663, -0.005696829408407211, -0.026337049901485443, 0.020511481910943985, -0.008765876293182373, -0.0015186518430709839, -0.023696035146713257, 0.013654649257659912, -0.013470739126205444, -0.004812352359294891, -0.005643464624881744, 0.0009798109531402588, -0.01559022068977356, 0.013209261000156403, 0.024310603737831116, 0.02355075627565384, 0.005679421126842499, -0.006030812859535217, -0.015088140964508057, -0.014183774590492249, 0.027046039700508118, -0.0160139799118042, 0.014459386467933655, -0.007477432489395142, 0.002499748021364212, -0.013783998787403107, 0.007997527718544006, 0.010860085487365723, -0.01021261140704155, -0.0065545011311769485, 0.01374824345111847, 0.0023883432149887085, -0.02141854166984558], [-0.01057540811598301, 0.046010032296180725, 0.0017727017402648926, 0.006834305822849274, -0.016954898834228516, -0.024274960160255432, 0.021906778216362, -0.010587867349386215, 0.023057937622070312, 0.03163783252239227, -0.010966666042804718, -0.05739704519510269, -0.02772669494152069, 0.037828102707862854, 0.00624006986618042, -0.03939595818519592, 0.0077892690896987915, 0.004718273878097534, 0.028986722230911255, -0.024460017681121826, 0.007538646459579468, -0.04820889234542847, 0.005072440020740032, -0.018624603748321533, 0.06135791540145874, 0.010334521532058716, -0.0025733252987265587, -0.007417455315589905, -0.014004163444042206, -0.01865631341934204, 0.026993751525878906, -0.011366009712219238, 0.04437987506389618, 0.01472567766904831, 0.0034823566675186157, 0.002491563558578491, -0.0021445590537041426, -0.038564905524253845, 0.045617979019880295, 0.020714806392788887, -0.00613803043961525, 0.019866153597831726, 0.009894408285617828, 0.026112020015716553, 0.02291063964366913, -0.027158617973327637, -0.023469388484954834, -0.06870061159133911, -0.004637569189071655, -0.030849426984786987, -0.0008096098899841309, -0.010691791772842407, 0.0062669068574905396, -0.010242894291877747, 0.04973066225647926, 0.04594650864601135, 0.03511431813240051, -0.013844490051269531, 0.01653847098350525, 0.00530792772769928, 0.05346572399139404, -0.00737348198890686, 0.020794808864593506, 0.012007325887680054], [-0.0015421509742736816, -0.041557230055332184, -0.0064965784549713135, -0.00847625732421875, 0.010171046480536461, 0.023846358060836792, -0.015621133148670197, -0.004425168037414551, -0.023511771112680435, -0.03409844636917114, 0.013522297143936157, 0.05236389860510826, 0.021544767543673515, -0.02608674392104149, -0.00783267617225647, 0.04770651459693909, -0.010385934263467789, 0.003916874527931213, -0.034977369010448456, 0.016749396920204163, -0.01188284158706665, 0.039992526173591614, 0.0007760226726531982, 0.02089996635913849, -0.06327399611473083, -0.02191627025604248, 0.003153368830680847, 0.013370878994464874, 0.006353070959448814, 0.004606872797012329, -0.03827942907810211, 0.005802929401397705, -0.051062196493148804, -0.010981842875480652, -0.007455065846443176, -0.011242806911468506, -0.014594584703445435, 0.04167927801609039, -0.03670152276754379, -0.01661461777985096, 0.012376554310321808, -0.004693031311035156, -0.01170501857995987, -0.020678691565990448, -0.023983389139175415, 0.03220738470554352, 0.01460207998752594, 0.045735836029052734, -0.003399178385734558, 0.03639175742864609, -0.0007628798484802246, -0.008989155292510986, -0.009167507290840149, 0.018098652362823486, -0.0516999177634716, -0.04841601848602295, -0.02525544911623001, 0.010194584727287292, -0.013437211513519287, -0.0071041882038116455, -0.053623732179403305, -0.0019502118229866028, -0.011739805340766907, -0.004330813884735107], [-0.012581676244735718, 0.026405811309814453, -0.005703724920749664, -0.019826829433441162, 0.022131241858005524, -0.006610495038330555, 0.02153514325618744, -0.0035832449793815613, -0.031863391399383545, -0.0044708698987960815, 0.011138532310724258, 0.011383086442947388, 0.00118333101272583, 0.02449376881122589, -0.009415119886398315, 0.022157341241836548, 0.03722280263900757, 0.026408344507217407, -0.012426942586898804, -0.02408120036125183, -0.026523880660533905, 0.010107532143592834, 0.01278134435415268, 0.02731078863143921, -0.017879784107208252, -0.020633310079574585, 0.011545717716217041, 0.0024050474166870117, 0.009782984852790833, 0.017354100942611694, -0.024946894496679306, 0.029364943504333496, -0.005820631980895996, -0.013452798128128052, 0.02649332582950592, 0.019796617329120636, 0.01663712039589882, 0.018235832452774048, -0.0014830157160758972, 0.025721218436956406, -0.006538867950439453, 0.01954624056816101, 0.028198882937431335, 0.027138441801071167, -0.003570493310689926, 0.015867963433265686, 0.015122123062610626, 0.000539243221282959, 0.028347842395305634, -0.009261608123779297, 0.02789178490638733, 0.00495322048664093, 0.02616046369075775, -0.028568781912326813, 0.03360092267394066, -8.952617645263672e-05, 0.02653217315673828, 0.013566859066486359, -0.03408287465572357, 0.007379291579127312, 0.021565325558185577, 0.0022170543670654297, 0.01162692904472351, 0.026135563850402832], [-0.004303440451622009, 0.05691641569137573, -0.014703720808029175, -0.0018340349197387695, 0.027450747787952423, -0.0019496679306030273, 0.037128522992134094, 0.0007942318916320801, 0.01992848515510559, 0.04305669665336609, 0.012699991464614868, -0.010218590497970581, -0.0036803483963012695, 0.04499872028827667, -0.023805230855941772, -0.04200217127799988, 0.021094277501106262, 0.013108104467391968, 0.014379410073161125, -0.009837806224822998, 0.0242118239402771, -0.046074628829956055, 0.025705792009830475, -0.023126661777496338, 0.023060649633407593, -0.0046912431716918945, -0.014931317418813705, 0.005188360810279846, -0.02963709831237793, 0.012524276971817017, 0.021715490147471428, -0.021797001361846924, 0.05050566792488098, -0.014422137290239334, 0.03038676083087921, 0.00912436842918396, 0.023989740759134293, -0.06461861729621887, 0.04220956563949585, 0.005805119872093201, -0.021231092512607574, 0.025318659842014313, 0.027510300278663635, 0.030149295926094055, 0.03564601391553879, -0.00634513795375824, 0.02128295600414276, -0.036422550678253174, 0.0051826536655426025, -0.04843127727508545, 0.002119392156600952, 0.032306645065546036, -0.0004341714084148407, -0.01284004095941782, 0.055909283459186554, 0.05550631880760193, 0.011457011103630066, 0.008169703185558319, 0.007703766226768494, -0.0070122480392456055, 0.05142863839864731, 0.014844462275505066, 0.020946554839611053, -0.0036095529794692993], [0.001276455819606781, 0.007127217948436737, -0.007407590746879578, 0.0050004273653030396, 0.011521626263856888, 0.018406927585601807, 0.026304543018341064, -0.011472538113594055, -0.003950834274291992, 0.01933293044567108, 0.009489752352237701, 0.00726628303527832, 0.013065538369119167, 0.04073324054479599, -0.006949901580810547, -0.029095351696014404, 0.009465845301747322, 0.0017997873947024345, 0.00440448522567749, -0.0005135610699653625, 0.01759938895702362, -0.03917223960161209, 0.006189256906509399, -0.012308657169342041, -0.008330047130584717, 0.001687169075012207, -0.03247666358947754, -0.0033783912658691406, -0.0273989737033844, 0.012060590088367462, 0.011695891618728638, -0.03380194306373596, 0.028156347572803497, -0.014596672728657722, 0.0332309827208519, 0.012197896838188171, -0.001059025526046753, -0.04334249347448349, 0.025303751230239868, -0.0003190040588378906, -0.003182940185070038, -0.01359385997056961, 0.015330404043197632, -0.005711056292057037, 0.031303852796554565, 0.0034570395946502686, 0.020847495645284653, -0.013035893440246582, 0.0014463365077972412, -0.041820548474788666, -0.014282450079917908, 0.041387759149074554, -0.00039990246295928955, 0.014418505132198334, 0.01382303237915039, 0.035347551107406616, 0.0019964203238487244, 0.0003166018286719918, 0.0008615553379058838, 0.01785999909043312, 0.024396240711212158, 0.022429680451750755, 0.011681638658046722, -0.01916104555130005], [-0.0010270476341247559, -0.011310875415802002, 0.0038810670375823975, -0.0013677477836608887, -0.021130740642547607, -0.012197203934192657, -0.010676860809326172, -0.004618555307388306, 0.02197783999145031, -0.0004999339580535889, -0.011669918894767761, -0.021441876888275146, -0.003187856636941433, -0.02923562377691269, 0.012627482414245605, 0.0023659616708755493, -0.017086341977119446, -0.003970155492424965, 0.0023780763149261475, -0.0026626065373420715, -0.003642737865447998, 0.008347481489181519, -0.013948410749435425, -0.0009337365627288818, 0.01242433488368988, 0.005536004900932312, 0.011976227164268494, 0.0026309192180633545, 0.009267181158065796, 0.0005196407437324524, 0.010032884776592255, 0.0046707987785339355, -0.01052027940750122, 0.005863852798938751, -0.018215641379356384, -0.020606346428394318, -0.002360999584197998, 0.01029425859451294, -0.004123561084270477, -0.0022962838411331177, 0.0009188652038574219, -0.005407674238085747, -0.01385393738746643, -0.008938848972320557, -0.011754363775253296, -0.0024430304765701294, -0.01631874591112137, 0.005080163478851318, -0.007443293929100037, 0.018230043351650238, 0.0008340775966644287, -0.013427846133708954, -0.011398877948522568, -0.001414462924003601, -0.014070630073547363, -0.018691761419177055, -0.003889039158821106, -0.0011254101991653442, 0.008506313897669315, -0.009143143892288208, -0.01379232108592987, -0.004841208457946777, -0.014967016875743866, 0.002640336751937866], [-0.0033820420503616333, 0.037123020738363266, 0.008172068744897842, -0.01608613133430481, -0.0011578202247619629, -0.014150111004710197, 0.014894366264343262, -0.0011611548252403736, -0.004172861576080322, 0.007741868495941162, -0.0031730830669403076, -0.025872156023979187, -0.006342947483062744, 0.00507432222366333, 0.0031179338693618774, 0.028172627091407776, 0.032497480511665344, 0.02565668523311615, 0.007560610771179199, -0.022151300683617592, -0.020981669425964355, 0.008352622389793396, 0.008465506136417389, 0.017969928681850433, 0.01291714608669281, -0.010909445583820343, 0.010973386466503143, -0.0036423131823539734, 0.021212145686149597, 0.010595045983791351, -0.017152249813079834, 0.03433753550052643, 0.006038598716259003, -0.0005526095628738403, 0.0072480738162994385, 0.007321152836084366, 0.017835646867752075, 0.02022114396095276, 0.004599995911121368, 0.016038820147514343, -0.0018306076526641846, 0.023604169487953186, 0.017990149557590485, 0.03680029511451721, -0.0009137541055679321, -0.0033036768436431885, -0.00606314092874527, -0.014947056770324707, 0.016786321997642517, -0.005360215902328491, 0.03408964350819588, -0.013798296451568604, 0.022504091262817383, -0.0400959849357605, 0.045370250940322876, -0.005888223648071289, 0.04413594305515289, 0.010260969400405884, -0.02983151376247406, 0.0017296671867370605, 0.03240130841732025, 0.002285987138748169, -0.0049713850021362305, 0.03468590974807739], [-0.0063530802726745605, -0.00311853364109993, -0.011552385985851288, -0.007236391305923462, -0.00024518370628356934, -0.004333958029747009, -2.415478229522705e-05, -0.001641489565372467, 0.017680898308753967, 0.004078604280948639, 0.008367955684661865, -0.004163697361946106, 0.006089389324188232, -0.011351034045219421, 0.0007344009354710579, -0.0035486742854118347, -0.015038818120956421, 0.0028338581323623657, -0.004462599754333496, -0.0030556172132492065, 0.0033567845821380615, -0.0019808560609817505, -0.005666226148605347, -0.0031418949365615845, -0.003004103899002075, -0.003782331943511963, 0.004012778401374817, 0.00821194052696228, -0.0061283111572265625, 0.012000560760498047, 0.0038743317127227783, -0.00839812308549881, -0.007514834403991699, -0.012366235256195068, 0.00391831248998642, -0.011636036448180676, 0.0019356980919837952, -0.006803303956985474, 0.00674312561750412, -0.005150064826011658, -0.003214538097381592, -0.004844754934310913, -0.005800604820251465, -0.013070255517959595, 0.002132922410964966, 0.011510476469993591, 0.003147996962070465, 0.006432973779737949, -0.004198864102363586, -0.0014315564185380936, -0.0008793249726295471, 0.005851565394550562, -0.01247301697731018, 0.001458883285522461, -0.006186485290527344, -0.008791949599981308, -0.005448520183563232, 0.004743494093418121, 0.006867647171020508, -0.009489165619015694, -0.0057960934937000275, 0.006123239174485207, -0.008167892694473267, -0.006827026605606079], [0.029937773942947388, -0.04680857062339783, 0.01827274262905121, 0.01269996166229248, -0.019096091389656067, 0.012479394674301147, -0.02946515381336212, 0.020630618557333946, -0.018743157386779785, -0.026897497475147247, -0.012388363480567932, 0.025224164128303528, 0.02064526081085205, -0.04117755591869354, 0.008755644783377647, 0.013706024736166, -0.006819367408752441, -0.025583595037460327, -0.005123317241668701, 0.02500540018081665, -0.002075646072626114, 0.04714052379131317, -0.015379756689071655, 0.009431019425392151, -0.023976288735866547, 0.024692803621292114, 0.0027561187744140625, -0.005216900259256363, 0.030962198972702026, 0.017065435647964478, -0.0016487985849380493, 0.020095452666282654, -0.03094378113746643, 0.00021091103553771973, -0.009955137968063354, 0.005178004503250122, 0.010705184191465378, 0.0380987823009491, -0.04860199987888336, -0.021883875131607056, 0.0012616300955414772, -0.031116195023059845, -0.0173657163977623, -0.029812097549438477, -0.023764491081237793, -0.0042954981327056885, 0.005146205425262451, 0.050091713666915894, 0.014858677983283997, 0.030818017199635506, -0.006612986326217651, -0.001101672649383545, 0.004086725413799286, 0.004793316125869751, -0.045485883951187134, -0.042774975299835205, -0.02924656867980957, 0.012719735503196716, -0.01477515697479248, 0.0018401369452476501, -0.044931843876838684, 0.011431891471147537, -0.0344214141368866, -0.011822063475847244], [0.010125717148184776, 0.003846496343612671, 0.01585276424884796, 0.014929592609405518, -0.005296491086483002, 0.005975797772407532, 0.001632779836654663, 3.919005393981934e-06, -0.014433875679969788, 6.937980651855469e-05, -0.011763811111450195, -0.0010259151458740234, -0.008801251649856567, 0.016063041985034943, -4.474632441997528e-05, -0.0005936920642852783, 0.019057661294937134, -0.008632652461528778, 0.012025296688079834, 0.0067222267389297485, 0.0015993202105164528, -0.0016615241765975952, 0.007727578282356262, -0.002936333417892456, 0.010679885745048523, 0.011020869016647339, -0.009540436789393425, -0.010868161916732788, 0.005977567285299301, -0.018741175532341003, 0.0014396049082279205, 0.0064352271147072315, 0.01554657518863678, 0.01711045205593109, -0.006491124629974365, 0.011097151786088943, -0.0035306811332702637, 0.004282064735889435, -0.004473328590393066, 0.0032648444175720215, 0.004100203514099121, 0.004237860441207886, 0.00632905587553978, 0.016551196575164795, 0.0011115223169326782, -0.021259397268295288, -0.007367879152297974, -0.014848664402961731, 0.0016287192702293396, -0.0013722144067287445, -0.004485830664634705, -0.008846312761306763, 0.013256490230560303, -0.0002539437264204025, 0.010366305708885193, 0.013227701187133789, 0.00939778983592987, -0.007551871240139008, -0.0038538575172424316, 0.01034092903137207, 0.012068241834640503, -0.006349429488182068, 0.00901615247130394, 0.007493188604712486], [-0.007423758506774902, 0.025388479232788086, 0.01554473489522934, 0.0018768087029457092, -0.0366692841053009, -0.02980007231235504, -0.0018245726823806763, -0.0024127215147018433, 0.020114988088607788, 0.016489729285240173, -0.024461746215820312, -0.06767868995666504, -0.0324150025844574, 0.015175152570009232, 0.03324563801288605, -0.018698930740356445, -0.0017597824335098267, -0.0019875764846801758, 0.032513752579689026, -0.020068317651748657, -0.010228067636489868, -0.038465410470962524, -0.022133946418762207, -0.005943208932876587, 0.07521185278892517, 0.01831403374671936, 0.005811288952827454, -0.02463732659816742, 0.0037092119455337524, -0.02107861638069153, 0.027931690216064453, 0.005618322640657425, 0.03618612140417099, 0.027162283658981323, -0.02089869976043701, 0.006244748830795288, -0.006624147295951843, -0.012855082750320435, 0.040185749530792236, 0.026220351457595825, 0.012951582670211792, -0.011819705367088318, -0.005538463592529297, 0.018546879291534424, 0.011482249945402145, -0.031149834394454956, -0.04296093061566353, -0.05355316400527954, -0.012527834624052048, -0.01713879592716694, 0.010102927684783936, -0.01767631247639656, 0.013144705444574356, -0.013685569167137146, 0.0359964482486248, 0.03534501791000366, 0.048333942890167236, -0.027878716588020325, 0.016220062971115112, 0.017003636807203293, 0.051458269357681274, -0.01721470057964325, 0.01314246654510498, 0.010232113301753998], [0.02947918325662613, -0.040006835013628006, 0.028778299689292908, 0.014320947229862213, -0.03367471694946289, 0.0004911124706268311, -0.028532980009913445, 0.01782965660095215, -0.01622840389609337, -0.022723078727722168, -0.026532592251896858, 0.0011192113161087036, 0.005744524300098419, -0.03761902451515198, 0.018949642777442932, 0.014063499867916107, -0.0001615285873413086, -0.023303352296352386, 0.007323473691940308, 0.01527419127523899, -0.009653925895690918, 0.04360213875770569, -0.01950514316558838, 0.012081950902938843, 0.0009405314922332764, 0.030183739960193634, 0.005316674709320068, -0.015954874455928802, 0.0366254597902298, 0.005693405866622925, 0.005208536982536316, 0.02957017719745636, -0.01746058464050293, 0.015004098415374756, -0.014744758605957031, 0.009276896715164185, 0.010115519165992737, 0.04147219657897949, -0.043587297201156616, -0.007213376462459564, 0.004232101142406464, -0.0294530987739563, -0.01573479175567627, -0.019027143716812134, -0.02461417205631733, -0.01763463020324707, -0.011318832635879517, 0.037873610854148865, 0.01589648425579071, 0.02844676375389099, 0.001552492380142212, -0.01367158442735672, 0.01257149875164032, -0.004408262670040131, -0.032050639390945435, -0.035399869084358215, -0.014058887958526611, 0.0038225948810577393, -0.017698973417282104, 0.01107846200466156, -0.02956293523311615, 0.004249490797519684, -0.031166862696409225, 0.000312119722366333], [-0.00024077296257019043, 0.05083977431058884, 0.00492250919342041, 0.014447391033172607, -0.024030238389968872, -0.024716928601264954, 0.018634170293807983, 0.0008545517921447754, 0.028487272560596466, 0.037123631685972214, -0.012848518788814545, -0.063050776720047, -0.023569658398628235, 0.029048126190900803, 0.003106355667114258, -0.05204629898071289, 0.009068390354514122, -0.010975435376167297, 0.03756040334701538, -0.01671484112739563, 0.018939584493637085, -0.042087435722351074, 0.007673159241676331, -0.03032436966896057, 0.07465162873268127, 0.02755304053425789, -0.0029427707195281982, -0.0068802908062934875, -0.007175326347351074, -0.011564075946807861, 0.039064109325408936, -0.010285168886184692, 0.04931837320327759, 0.01292494684457779, 0.0031818747520446777, 0.00544285774230957, 0.011300504207611084, -0.046990036964416504, 0.040694206953048706, 0.012086957693099976, -0.014515534043312073, 0.022625111043453217, 0.007692880928516388, 0.02496953308582306, 0.025589704513549805, -0.04038509726524353, -0.022163987159729004, -0.06567397713661194, 0.0011832639575004578, -0.03237703815102577, -0.007017344236373901, -0.00996512919664383, 0.0069087594747543335, -0.016444291919469833, 0.05472659319639206, 0.04422497749328613, 0.028110355138778687, -0.008548855781555176, 0.01996094360947609, -0.00104441586881876, 0.053096745163202286, 0.0002669692039489746, 0.011009275913238525, 0.0076347291469573975], [0.009626805782318115, 0.019105255603790283, 0.015542224049568176, -0.0003883838653564453, -0.005069030448794365, -0.005005896091461182, 0.00326499342918396, 0.006667204201221466, -0.009883925318717957, 0.003307819366455078, -0.009641319513320923, -0.01700158417224884, -0.0076940059661865234, 0.006272375583648682, 0.003380030393600464, 0.011792927980422974, 0.028101712465286255, 0.006718240678310394, 0.014346510171890259, -0.005733594298362732, -0.009264212101697922, 0.005589708685874939, 0.007250241935253143, 0.007105231285095215, 0.015334472060203552, 0.003824189305305481, 0.0009113103151321411, -0.00997496023774147, 0.020268365740776062, -0.0009215474128723145, -0.005376745015382767, 0.024114415049552917, 0.014250636100769043, 0.007827568799257278, 0.0023294463753700256, 0.014462798833847046, 0.012586615048348904, 0.012945868074893951, -0.002848327159881592, 0.007878750562667847, -0.0018575787544250488, 0.01145876944065094, 0.011050626635551453, 0.02336198091506958, 1.8343329429626465e-05, -0.014434915035963058, -0.007784676738083363, -0.012253537774085999, 0.013645678758621216, -0.0032207220792770386, 0.016766661778092384, -0.012538991868495941, 0.023027122020721436, -0.023690909147262573, 0.029479116201400757, 0.003031134605407715, 0.02244315668940544, 0.00296735018491745, -0.017865300178527832, 0.006278716027736664, 0.022563043981790543, 0.0014228969812393188, -0.0027494728565216064, 0.019325435161590576], [0.010864022187888622, -0.012937232851982117, 0.009192332625389099, -0.05183030664920807, 0.0009771063923835754, -0.034194935113191605, -0.030343174934387207, 0.030321955680847168, -0.01682193949818611, -0.02564898133277893, -0.007023513317108154, 0.0008007436990737915, 0.011937141418457031, -0.0409088134765625, 0.027368098497390747, 0.05006852373480797, -0.002722501754760742, 0.03703510761260986, -0.014262035489082336, -0.025702327489852905, -0.0550762414932251, 0.0412650927901268, -0.03943553566932678, 0.057645902037620544, -0.017493918538093567, -0.009961441159248352, 0.04606713354587555, -0.013155448250472546, 0.043830953538417816, 0.04684296250343323, -0.026893552392721176, 0.05802588164806366, -0.040130361914634705, -0.019724592566490173, 0.013945996761322021, 0.02466338314116001, 0.037688568234443665, 0.05105595290660858, -0.03017573058605194, 0.018316075205802917, -0.01009081769734621, -0.018753305077552795, 0.004452019929885864, -0.021371304988861084, -0.037634290754795074, 0.028941869735717773, 0.0055558085441589355, 0.04034067690372467, 0.03695067763328552, 0.028967414051294327, 0.06951180100440979, 0.014334440231323242, 0.025267988443374634, -0.05441020429134369, -0.0069887638092041016, -0.03818994760513306, -0.011866748332977295, 0.021661698818206787, -0.052069395780563354, 0.0075934529304504395, -0.024073602631688118, 0.01493234932422638, -0.03325816988945007, 0.014201521873474121], [0.0353216826915741, 0.014904767274856567, -0.003986358642578125, 0.04062566161155701, 0.008072271943092346, 0.04227910935878754, 0.035619013011455536, 0.0008593946695327759, 0.007561296224594116, 0.029654618352651596, 0.02655962109565735, 0.02507217600941658, 0.03198111802339554, 0.025367841124534607, -0.04729317128658295, -0.03352242708206177, 0.04297557473182678, -0.028774958103895187, 0.0234241783618927, 0.037905506789684296, 0.061757221817970276, -0.006313681602478027, 0.05784294009208679, -0.04649626836180687, -0.007208824157714844, 0.03296133875846863, -0.04794599115848541, 0.02438870072364807, -0.021044880151748657, 0.012326434254646301, 0.02025306224822998, -0.03978896141052246, 0.034417614340782166, -0.028836756944656372, 0.043343283236026764, -0.005628496408462524, 0.02619442343711853, -0.04154060781002045, -0.0014369487762451172, -0.04977421462535858, -0.023458406329154968, 0.011686637997627258, 0.014168665744364262, 0.009364873170852661, 0.035040318965911865, -0.02839156985282898, 0.041491806507110596, -0.012335143983364105, 0.011122867465019226, -0.03705143928527832, -0.045410025864839554, 0.019678935408592224, -0.008559033274650574, 0.013185292482376099, 0.020929448306560516, -0.000551953911781311, -0.01059567928314209, 0.0345151461660862, 0.009960159659385681, -0.029283255338668823, 0.014102593064308167, 0.041990187019109726, -0.014377117156982422, -0.01647638902068138], [-0.005888991057872772, 0.043640732765197754, 0.011381454765796661, -0.01652127504348755, -0.01260414719581604, -0.024210184812545776, 0.008976578712463379, 0.0001340806484222412, 0.0023608505725860596, 0.006730088964104652, -0.008778542280197144, -0.045272380113601685, -0.014571165665984154, 0.0018310993909835815, 0.00957171618938446, 0.03125549852848053, 0.02617819607257843, 0.029283255338668823, 0.01415051519870758, -0.0294329971075058, -0.025749022141098976, 0.006696496158838272, 0.005112268030643463, 0.01841777190566063, 0.028794527053833008, -0.009280011057853699, 0.017176881432533264, -0.005034949630498886, 0.02414362132549286, 0.005351662635803223, -0.020640410482883453, 0.03730662167072296, 0.008109509944915771, 0.0064322613179683685, -0.0032524317502975464, 0.004564493894577026, 0.01400807499885559, 0.02101586014032364, 0.009164974093437195, 0.020994067192077637, 0.001853153109550476, 0.03086976334452629, 0.009584963321685791, 0.03790995478630066, -0.0002853125333786011, -0.011525377631187439, -0.02035924792289734, -0.022798240184783936, 0.012876283377408981, -0.0030297134071588516, 0.041062116622924805, -0.027429014444351196, 0.02282855659723282, -0.043606728315353394, 0.047569140791893005, -0.007499396800994873, 0.054260991513729095, 0.006625114008784294, -0.02662333846092224, -7.081776857376099e-06, 0.035603299736976624, -0.003556966781616211, -0.005222871899604797, 0.03920900821685791], [0.013542592525482178, 0.00843820720911026, 0.0038283169269561768, 0.03026401996612549, 0.0030128061771392822, 0.020197823643684387, 0.011371150612831116, -0.0027619749307632446, -0.0034127533435821533, 0.012631118297576904, 0.0005624815821647644, 0.012165425345301628, -0.0005891770124435425, 0.02572242170572281, -0.021283626556396484, -0.023642145097255707, 0.016756832599639893, -0.0248019527643919, 0.012226194143295288, 0.022411219775676727, 0.029347624629735947, -0.017138099297881126, 0.027404801920056343, -0.025982925668358803, 0.00879812240600586, 0.0193270742893219, -0.02436763048171997, 0.0030545443296432495, -0.017438292503356934, -0.021909967064857483, 0.01338687539100647, -0.021171942353248596, 0.02423921227455139, 0.009306371212005615, 0.0028621628880500793, 0.005101382732391357, -5.893409252166748e-06, -0.02418139949440956, 0.003956273198127747, -0.014155380427837372, -0.005797687917947769, 0.010800778865814209, 0.005617871880531311, 0.015164464712142944, 0.013392306864261627, -0.026166632771492004, 0.00812460482120514, -0.018055610358715057, -0.004343152046203613, -0.012677472084760666, -0.02918471395969391, 0.00044960156083106995, -0.0031279027462005615, 0.016504645347595215, 0.008554767817258835, 0.02457348257303238, -0.007717400789260864, -0.0013257861137390137, 0.01610732078552246, -0.005090601742267609, 0.008287161588668823, 0.0025678426027297974, 0.01515418291091919, -0.006591930985450745], [-0.008396141231060028, -0.013065189123153687, -0.02667991630733013, -0.005664576776325703, 0.03571504354476929, 0.02083432674407959, 0.0026809126138687134, -0.00015273690223693848, -0.011142894625663757, -0.01302897185087204, 0.030398577451705933, 0.0541628897190094, 0.021320991218090057, -0.0021414458751678467, -0.028807591646909714, 0.004475101828575134, -0.013492822647094727, 0.0014755725860595703, -0.030488774180412292, 0.011233747005462646, 0.010329440236091614, 0.010288819670677185, 0.017577752470970154, -0.0002941042184829712, -0.05500081181526184, -0.0209844708442688, -0.0009503662586212158, 0.024742186069488525, -0.021273445338010788, 0.010553687810897827, -0.023270606994628906, -0.020174425095319748, -0.027899518609046936, -0.024455636739730835, 0.012608028948307037, -0.009203236550092697, -0.004878535866737366, -0.008415989577770233, -0.012451171875, -0.01748684048652649, -0.005662679672241211, 0.013485603034496307, -0.0031251907348632812, -0.017001062631607056, -0.0012875795364379883, 0.030913949012756348, 0.032125383615493774, 0.025118494406342506, -0.0027648359537124634, 0.008299916982650757, -0.012121230363845825, 0.010947056114673615, -0.018802255392074585, 0.02241891622543335, -0.03072240948677063, -0.014293402433395386, -0.0382804274559021, 0.015207001939415932, 0.0063653066754341125, -0.017709702253341675, -0.036770302802324295, 0.006931636482477188, 0.0035882294178009033, -0.01743227243423462], [0.005811527371406555, 0.0018982291221618652, 0.0016250014305114746, 0.024758249521255493, 0.007357776165008545, 0.01982373744249344, 0.012038365006446838, -0.006496906280517578, -0.008517608046531677, 0.008139526471495628, 0.0017620772123336792, 0.015928208827972412, -0.0009377934038639069, 0.02818012610077858, -0.0140804722905159, -0.02816721983253956, 0.00784292072057724, -0.018170595169067383, 0.007263271138072014, 0.01652780920267105, 0.025253716856241226, -0.01962202787399292, 0.018019549548625946, -0.021350890398025513, -0.0018447935581207275, 0.011590778827667236, -0.026243165135383606, -0.0021562129259109497, -0.021240234375, -0.018527179956436157, 0.011173564940690994, -0.025892063975334167, 0.02285987138748169, 0.006944537162780762, 0.008505657315254211, 0.007749885320663452, -0.010284610092639923, -0.0254591703414917, 0.008033156394958496, -0.008743584156036377, 6.568431854248047e-05, 0.001059025526046753, 0.0046439021825790405, 0.004963681101799011, 0.01584857702255249, -0.013807833194732666, 0.009221985936164856, -0.014828689396381378, -0.005932807922363281, -0.017848078161478043, -0.029699936509132385, 0.009559012949466705, -0.002465963363647461, 0.023823047056794167, 0.002256382256746292, 0.02596193552017212, -0.004415534436702728, -0.007899157702922821, 0.014576874673366547, 0.007002765312790871, 0.009282991290092468, 0.0007301978766918182, 0.01943662390112877, -0.012913428246974945], [-0.03601035475730896, 0.05080745369195938, -0.019072413444519043, -0.013290733098983765, 0.02581268548965454, -0.013160094618797302, 0.027304135262966156, -0.020007044076919556, 0.01399412751197815, 0.02297905832529068, 0.013135991990566254, -0.024669453501701355, -0.026366010308265686, 0.0542190745472908, -0.006112143397331238, -0.010612420737743378, 0.0020062029361724854, 0.02921225130558014, 0.005065441131591797, -0.028127074241638184, -0.001555219292640686, -0.055741772055625916, 0.014351233839988708, -0.0075553953647613525, 0.022023210301995277, -0.03150779753923416, -0.0016644001007080078, 0.0027404502034187317, -0.03496098145842552, -0.027272462844848633, -0.007574109360575676, -0.021773874759674072, 0.0322825163602829, 0.005371566861867905, 0.00717318058013916, -0.0019939392805099487, -0.01978181302547455, -0.042092058807611465, 0.057572007179260254, 0.026197388768196106, 0.003701206296682358, 0.03778041899204254, 0.014468252658843994, 0.027640752494335175, 0.02684575691819191, 0.005417868494987488, -0.01175825297832489, -0.06539249420166016, -0.017116636037826538, -0.03253117948770523, 0.007242292165756226, -0.004293575882911682, -0.000528484582901001, -0.0025878548622131348, 0.04567587003111839, 0.05209881812334061, 0.03518661856651306, -0.020163804292678833, 0.01759922504425049, 0.001539081335067749, 0.05060206353664398, -0.01605112850666046, 0.04258963465690613, 0.010469801723957062], [-0.00014740228652954102, 0.002142488956451416, 0.005786554887890816, 0.024274714291095734, -0.00018617138266563416, 0.016290128231048584, 0.012205719947814941, -0.012851357460021973, -0.009546104818582535, 0.005444973707199097, -0.004053741693496704, 0.00552431121468544, -0.00814490020275116, 0.027075916528701782, -0.0058081746101379395, -0.018833555281162262, 0.006495200097560883, -0.015267901122570038, 0.008334368467330933, 0.011052727699279785, 0.015804767608642578, -0.01845136284828186, 0.013645995408296585, -0.01744963228702545, 0.002661287784576416, 0.007320411503314972, -0.022910982370376587, -0.005667358636856079, -0.017586082220077515, -0.026886478066444397, 0.006698131561279297, -0.020337387919425964, 0.021398916840553284, 0.017025873064994812, -0.005237706005573273, 0.0014901161193847656, -0.021449320018291473, -0.01805765926837921, 0.010155491530895233, -0.0018439441919326782, 0.00964382290840149, 0.003789663314819336, 0.000830918550491333, 0.010895758867263794, 0.014570891857147217, -0.01625552400946617, -0.004723355174064636, -0.020172953605651855, -0.012609802186489105, -0.012740932404994965, -0.026690395548939705, -0.002055749297142029, 0.0011099092662334442, 0.024049222469329834, 0.002433791756629944, 0.023053741082549095, 0.008720383048057556, -0.015546739101409912, 0.014739371836185455, 0.012395612895488739, 0.013718903064727783, -0.009147323668003082, 0.01967412233352661, -0.006396383047103882], [0.011443212628364563, -0.04012909159064293, 0.004193708300590515, -0.007333703339099884, 0.006365984678268433, 0.01152735110372305, -0.024058304727077484, 0.011694997549057007, -0.02303895354270935, -0.0313476026058197, 0.002823971211910248, 0.036570411175489426, 0.019641555845737457, -0.03490796685218811, 0.00613032653927803, 0.033753782510757446, -0.007521316409111023, 0.0020238757133483887, -0.020157262682914734, 0.011105000972747803, -0.017856121063232422, 0.047144677489995956, -0.015013307332992554, 0.025307953357696533, -0.04596686363220215, -0.006880907341837883, 0.006747744977474213, -0.00011681020259857178, 0.022690922021865845, 0.016436919569969177, -0.02505074068903923, 0.020641565322875977, -0.03872743248939514, -0.008505940437316895, -0.0011979937553405762, 0.0020974092185497284, 0.00012761354446411133, 0.04618901014328003, -0.042532920837402344, -0.011299341917037964, 0.007015898823738098, -0.02013714611530304, -0.010200083255767822, -0.02682231366634369, -0.02273400127887726, 0.022321805357933044, 0.01078784465789795, 0.053662464022636414, 0.009344903752207756, 0.027051597833633423, 0.009129345417022705, 0.003644704818725586, 0.0022520404309034348, 0.0033493656665086746, -0.04219308868050575, -0.046759188175201416, -0.01969647780060768, 0.010294072329998016, -0.021143555641174316, 0.003684431314468384, -0.0420554056763649, 0.006597980856895447, -0.026167578995227814, -0.005522832274436951], [0.02028980851173401, -0.016380086541175842, 0.03474190831184387, 0.01634185016155243, -0.0504646822810173, -0.024028342217206955, -0.030170589685440063, 0.009269803762435913, 0.007236659526824951, -0.006852701306343079, -0.04401756823062897, -0.045410409569740295, -0.026978451758623123, -0.042197853326797485, 0.028327906504273415, 0.007037468254566193, 0.003683537244796753, -0.024069830775260925, 0.025689199566841125, 0.006457895040512085, -0.010250911116600037, 0.03150826692581177, -0.02016119658946991, -0.00044459104537963867, 0.05362238734960556, 0.03259548544883728, 0.017937663942575455, -0.021544139832258224, 0.04310785233974457, -0.025976866483688354, 0.024144740775227547, 0.04009239375591278, 0.005493812263011932, 0.03913959488272667, -0.038417816162109375, 0.002189740538597107, 0.005675524473190308, 0.043899621814489365, -0.026015877723693848, 0.008341364562511444, 0.003961518406867981, -0.00947035476565361, -0.015827566385269165, 0.010826349258422852, -0.02908918261528015, -0.039725497364997864, -0.043615199625492096, -0.001543879508972168, 0.0024530887603759766, 0.036154985427856445, 0.003333836793899536, -0.05044142156839371, 0.013650093227624893, -0.02119871973991394, -0.002068936824798584, -0.018221206963062286, 0.009355217218399048, -0.01694786548614502, 0.003549143671989441, 0.005736585706472397, -0.004327982664108276, -0.01715339720249176, -0.02097196877002716, 0.028812453150749207], [0.00900694727897644, -0.0011385530233383179, 0.027199193835258484, 0.0025475025177001953, -0.036188483238220215, -0.024389147758483887, -0.016534417867660522, 0.007809780538082123, -0.0018373280763626099, -0.004893243312835693, -0.03347645699977875, -0.04040330648422241, -0.023516807705163956, -0.013313159346580505, 0.026925653219223022, 0.008876517415046692, 0.007226157933473587, -0.001544460654258728, 0.02135559916496277, -0.011769983917474747, -0.01937606930732727, 0.016094565391540527, -0.019618146121501923, 0.012260831892490387, 0.045912086963653564, 0.018888674676418304, 0.014794260263442993, -0.023414425551891327, 0.03062187135219574, -0.013037718832492828, 0.008784402161836624, 0.03375420719385147, 0.011352717876434326, 0.028638042509555817, -0.02124626934528351, 0.011153347790241241, 0.003881007432937622, 0.027851611375808716, -0.009754685685038567, 0.01996000111103058, 0.007343702018260956, -0.010150478221476078, -0.005706697702407837, 0.010339051485061646, -0.014166146516799927, -0.027901167050004005, -0.03422008454799652, -0.005635470151901245, 0.007046293467283249, 0.01245039701461792, 0.02071458101272583, -0.030185937881469727, 0.0186348557472229, -0.021396981552243233, 0.012890547513961792, -0.0026490166783332825, 0.023945849388837814, -0.014204107224941254, -0.010493636131286621, 0.016459431499242783, 0.014458566904067993, -0.013023104518651962, -0.00872117280960083, 0.023637279868125916], [-0.026650667190551758, 0.03468802571296692, -0.028947755694389343, -0.01477312296628952, 0.03972925990819931, 0.0029907524585723877, 0.02711433172225952, -0.015298955142498016, 0.010772287845611572, 0.01888112723827362, 0.028982192277908325, 0.007542247883975506, -0.001207888126373291, 0.037983983755111694, -0.019134581089019775, -0.013008970767259598, -0.0007614642381668091, 0.025220900774002075, -0.009594470262527466, -0.014247432351112366, 0.008296087384223938, -0.039472758769989014, 0.01835579425096512, -0.00897786021232605, -0.013016656041145325, -0.0316387414932251, -0.007741481065750122, 0.015706289559602737, -0.03479732573032379, -0.002428114414215088, -0.011019136756658554, -0.02939401939511299, 0.013634651899337769, -0.017648782581090927, 0.020041584968566895, -0.006666317582130432, -0.010696709156036377, -0.03830389678478241, 0.038674816489219666, 0.005427062511444092, -0.00405562948435545, 0.025189891457557678, 0.015669167041778564, 0.01209075003862381, 0.02479463815689087, 0.022770464420318604, 0.01592583954334259, -0.0330064594745636, -0.01251751184463501, -0.02901463955640793, -0.002186715602874756, 0.021955296397209167, -0.010675519704818726, 0.006321430206298828, 0.026637107133865356, 0.031281597912311554, 0.010664744302630424, -0.0013717487454414368, 0.013204440474510193, -0.008506536483764648, 0.024976223707199097, -0.0006102025508880615, 0.027805358171463013, -0.004681020975112915], [0.004762992262840271, -0.010549768805503845, -0.010832607746124268, -0.028098657727241516, 0.010668128728866577, -0.008391901850700378, -0.008496478199958801, 0.013895243406295776, 0.001936107873916626, -0.008628427982330322, 0.01390916109085083, 0.0113736093044281, 0.021757900714874268, -0.027241751551628113, 0.005087316036224365, 0.014054521918296814, -0.009601384401321411, 0.020389914512634277, -0.0149446502327919, -0.009249165654182434, -0.013353750109672546, 0.021147403866052628, -0.016658440232276917, 0.020025689154863358, -0.02604314684867859, -0.008187532424926758, 0.013870563358068466, 0.005072716623544693, 0.01456865668296814, 0.04390869289636612, -0.010123834013938904, 0.014409065246582031, -0.02599300444126129, -0.03042995184659958, 0.023910608142614365, 0.0033348649740219116, 0.023989960551261902, 0.01676887273788452, -0.014365777373313904, -0.0038655102252960205, -0.010161399841308594, -0.017276734113693237, 0.0021793916821479797, -0.02441948652267456, -0.010313877835869789, 0.031237855553627014, 0.021000925451517105, 0.03295727074146271, 0.01878296583890915, 0.00359441339969635, 0.02485927939414978, 0.026109591126441956, -0.001048952341079712, -0.020042063668370247, -0.009426236152648926, -0.02938670665025711, -0.01570570468902588, 0.021694764494895935, -0.023544706404209137, -0.004964202642440796, -0.019674628973007202, 0.021146751940250397, -0.026616066694259644, -0.005794167518615723], [-0.0057088881731033325, -0.017388418316841125, -0.01894955337047577, 0.007783306762576103, 0.012656152248382568, 0.017601490020751953, 0.0021989233791828156, -0.005166441202163696, 0.006675153970718384, 0.0007178187370300293, 0.019386380910873413, 0.02347502112388611, 0.014192905277013779, 0.004623781889677048, -0.012783661484718323, -0.022462792694568634, -0.022334784269332886, -0.014479756355285645, -0.011141642928123474, 0.01521783322095871, 0.0231047123670578, -0.014114178717136383, 0.00554385781288147, -0.019457995891571045, -0.02166460081934929, -0.0006638839840888977, -0.01359100453555584, 0.013638675212860107, -0.028031736612319946, 0.0002602040767669678, 0.00742248073220253, -0.03772793710231781, -0.006312668323516846, -0.013872571289539337, 0.006641104817390442, -0.011091500520706177, -0.01308458298444748, -0.027857571840286255, 0.007672589272260666, -0.019049838185310364, -0.0006349086761474609, -0.008104939013719559, -0.009917628020048141, -0.02521592378616333, 0.0121212899684906, 0.012870259582996368, 0.01526080071926117, 0.005310341715812683, -0.013596192002296448, -0.006406962871551514, -0.03065139800310135, 0.018085047602653503, -0.020217671990394592, 0.03133991360664368, -0.02619001269340515, 0.0041986554861068726, -0.0246182382106781, -0.0004582162946462631, 0.024853616952896118, -0.009216729551553726, -0.017718583345413208, 0.007063120603561401, 0.005445510149002075, -0.030009329319000244], [-0.006042728200554848, 0.002734564244747162, 0.00301167368888855, 0.03957650065422058, -0.010951735079288483, 0.0196516253054142, 0.011193543672561646, -0.017420344054698944, 0.0031551197171211243, 0.00909791886806488, -0.008078457787632942, -0.00413542240858078, -0.015000611543655396, 0.023482300341129303, -0.012413039803504944, -0.02678065001964569, -0.000904276967048645, -0.030386507511138916, 0.009814850986003876, 0.017963211983442307, 0.029313504695892334, -0.021455325186252594, 0.022838443517684937, -0.0340719148516655, 0.017059944570064545, 0.0088462233543396, -0.02284085378050804, 0.004233032464981079, -0.022845007479190826, -0.04036781191825867, 0.01614759862422943, -0.0310794860124588, 0.021200787276029587, 0.026802822947502136, -0.02517727017402649, -0.013637691736221313, -0.030666779726743698, -0.026115596294403076, 0.014013350009918213, -0.008782625198364258, 0.011471174657344818, 0.013882249593734741, -0.008918136358261108, 0.013522818684577942, 0.01715785264968872, -0.026949644088745117, -0.016259975731372833, -0.025781139731407166, -0.02455791085958481, -0.005500778555870056, -0.0462159663438797, -0.02651485800743103, -0.01072491705417633, 0.03785407915711403, -0.002548694610595703, 0.023305386304855347, 0.007636010646820068, -0.020284175872802734, 0.03558340668678284, -0.0014896392822265625, 0.010029584169387817, -0.01927727460861206, 0.02270425111055374, -0.004533261060714722], [0.012633293867111206, -0.00880742073059082, 0.025283752009272575, 0.021518945693969727, -0.03284609317779541, -0.0046499744057655334, -0.013315260410308838, 0.0040146708488464355, -0.005660004913806915, -0.00643351674079895, -0.02802078053355217, -0.022776322439312935, -0.014882072806358337, -0.005182474851608276, 0.014029517769813538, 0.0009427666664123535, 0.004525080323219299, -0.021717697381973267, 0.01859680376946926, 0.006638333201408386, -0.0022155269980430603, 0.010263867676258087, -0.004743099212646484, -0.0036823153495788574, 0.030365630984306335, 0.023412376642227173, 0.0008942484855651855, -0.015255600214004517, 0.016023874282836914, -0.021200984716415405, 0.012027159333229065, 0.013047397136688232, 0.009228828363120556, 0.02939809113740921, -0.025257784873247147, 0.004788428544998169, -0.005689682438969612, 0.012531042098999023, -0.010919034481048584, 0.003636956214904785, 0.008806660771369934, -0.0013556741178035736, -0.011755101382732391, 0.005684226751327515, -0.00673222541809082, -0.03380430117249489, -0.028035253286361694, -0.005999743938446045, 0.00018358230590820312, 0.013352062553167343, -0.00657123327255249, -0.030349284410476685, 0.011736024171113968, 0.0007728040218353271, -0.0037101805210113525, -0.0013303980231285095, 0.01067185029387474, -0.012374430894851685, 0.003083661198616028, 0.010579496622085571, 0.003221803577616811, -0.010997538454830647, -0.0038653314113616943, 0.009492553770542145], [0.008687108755111694, 0.025669559836387634, 0.02146799862384796, -0.014606744050979614, -0.02549833059310913, -0.026012107729911804, -0.010011345148086548, 0.012021459639072418, -0.0013897716999053955, -0.0014896690845489502, -0.022402286529541016, -0.03744196891784668, -0.014475017786026001, -0.021395698189735413, 0.012926056981086731, 0.03777368366718292, 0.0261324942111969, 0.022843793034553528, 0.01487267017364502, -0.018458791077136993, -0.02950632944703102, 0.0274663008749485, -0.0037201466038823128, 0.02508518099784851, 0.036553338170051575, 0.0003750324249267578, 0.024152591824531555, -0.010110534727573395, 0.04076496511697769, 0.005004663020372391, -0.014243721961975098, 0.050824955105781555, 0.0012872815132141113, 0.013810582458972931, -0.012422829866409302, 0.00855572521686554, 0.025228209793567657, 0.039117589592933655, -0.014629736542701721, 0.01830199360847473, -0.0043569207191467285, 0.021108105778694153, 0.007929325103759766, 0.03234486281871796, -0.01699279248714447, -0.018971651792526245, -0.02252519689500332, 0.002587348222732544, 0.017526879906654358, 0.012841463088989258, 0.04821154102683067, -0.03517400100827217, 0.02225327491760254, -0.048724256455898285, 0.033169884234666824, -0.020452454686164856, 0.03166384994983673, 0.007928416132926941, -0.03202574700117111, -0.0016511455178260803, 0.01745031028985977, -0.004811685532331467, -0.018572703003883362, 0.04271012544631958], [-0.007185228168964386, -0.014639750123023987, -0.01774640381336212, 0.0028519034385681152, 0.0054555535316467285, 0.01224394142627716, 0.002652045339345932, -0.008139893412590027, 0.009223461151123047, 0.00026094913482666016, 0.016680937260389328, 0.01833893358707428, 0.013327818363904953, -0.0039251260459423065, -0.011528600007295609, -0.012375526130199432, -0.021082788705825806, -0.008871346712112427, -0.0135297030210495, 0.010904669761657715, 0.016691505908966064, -0.009254232048988342, 0.004942908883094788, -0.013111131265759468, -0.019932180643081665, -0.003161751665174961, -0.006351560354232788, 0.016403034329414368, -0.020285628736019135, 0.0032437145709991455, 0.004590734839439392, -0.02753530442714691, -0.013744469732046127, -0.014565527439117432, 0.0022259652614593506, -0.016144081950187683, -0.01036623865365982, -0.015879273414611816, 0.004323691129684448, -0.01744505763053894, -0.0015162620693445206, -0.004135012626647949, -0.009980946779251099, -0.01820290833711624, 0.0036564767360687256, 0.014529675245285034, 0.013299837708473206, 0.005291935056447983, -0.012145936489105225, 0.0028835833072662354, -0.021953538060188293, 0.009176425635814667, -0.021025992929935455, 0.02236245572566986, -0.02461513876914978, -0.0043347179889678955, -0.021442219614982605, 0.0035554617643356323, 0.01901007816195488, -0.01342940516769886, -0.021208927035331726, 0.004145696759223938, 0.0021337270736694336, -0.01905691623687744], [0.0009636133909225464, 0.02099984884262085, 0.019320592284202576, 0.01302841305732727, -0.03266030550003052, -0.02234366536140442, 0.003652423620223999, -0.0035222619771957397, 0.018682509660720825, 0.023007966578006744, -0.02685070037841797, -0.05903080850839615, -0.03081485629081726, 0.025935202836990356, 0.029244616627693176, -0.03400075435638428, 0.004489455372095108, -0.011342436075210571, 0.03744255006313324, -0.012433633208274841, 9.232759475708008e-05, -0.04500958323478699, -0.017884764820337296, -0.014499545097351074, 0.07047337293624878, 0.027237623929977417, -0.005725428462028503, -0.027311082929372787, -0.001086503267288208, -0.023771971464157104, 0.040461570024490356, -0.001651078462600708, 0.04702705144882202, 0.02865096926689148, -0.012250036001205444, 0.009437844157218933, -0.005020320415496826, -0.02256852388381958, 0.038547366857528687, 0.022414501756429672, 0.006065987050533295, -0.017523571848869324, 0.002289906144142151, 0.015809282660484314, 0.0156302060931921, -0.03778889775276184, -0.03627023100852966, 