{"log_std": [-0.6616920232772827, -0.5506435036659241], "mlp_extractor.policy_net.0.weight": [[0.06617225706577301, 0.10466143488883972, 0.2614825963973999, -0.49830296635627747, -0.30340084433555603, 0.12171537429094315, -0.02939075231552124, -0.2906055450439453], [-0.0082329036667943, 0.03812648355960846, 0.32660138607025146, -0.16574080288410187, -0.010513192042708397, 0.10700705647468567, -0.2233504205942154, 0.1273788958787918], [-0.06955800205469131, 0.0516994446516037, 0.06211017444729805, -0.41010457277297974, -0.35620906949043274, -0.37299421429634094, -0.36171475052833557, -0.09828813374042511], [0.23450861871242523, 0.382941335439682, 0.07630836963653564, 0.3700718581676483, 0.013415498659014702, -0.056902240961790085, -0.052504513412714005, 0.20961880683898926], [0.10009322315454483, 0.1894950121641159, -0.2046133130788803, 0.4467499852180481, 0.2467464655637741, 0.17863622307777405, -0.10575184971094131, 0.08923555910587311], [-0.15577176213264465, -0.13270984590053558, 0.24596181511878967, -0.2835627794265747, -0.3578053414821625, -0.02052137441933155, 0.05822242423892021, 0.24313127994537354], [0.18122193217277527, -0.14996735751628876, -0.12400215119123459, -0.6305673122406006, -0.007873116992413998, 0.3165062963962555, 0.06345874816179276, -0.07105033844709396], [0.01979186199605465, -0.0027861371636390686, 0.1650632619857788, 0.1513662487268448, 0.440777987241745, 0.10895980149507523, 0.29269737005233765, -0.19603273272514343], [0.15626822412014008, -0.30167028307914734, 0.10031819343566895, 0.22156968712806702, 0.08359256386756897, -0.12474524974822998, -0.38675305247306824, 0.1602909117937088], [0.05650947615504265, 0.10489952564239502, -0.12882593274116516, -0.37273600697517395, 0.05863797664642334, 0.17895494401454926, 0.0651446133852005, 0.35492509603500366], [0.277753621339798, -0.2040688693523407, 0.332059383392334, -0.23234136402606964, -0.4962843358516693, 0.16753563284873962, -0.006972285453230143, 0.015608043409883976], [-0.33825793862342834, -0.07029043883085251, 0.03667560592293739, -0.1508646458387375, 0.13232611119747162, -0.19522607326507568, -0.14763569831848145, 0.025129301473498344], [-0.01593448780477047, -0.11933662742376328, -0.03928050398826599, -0.42502352595329285, 0.3421729803085327, -0.1266450732946396, -0.19897115230560303, 0.11346670240163803], [-0.16725818812847137, 0.09889217466115952, -0.34660276770591736, 0.5330207943916321, 0.39828091859817505, 0.2958241403102875, -0.05149026960134506, 0.1642509251832962], [-0.073173388838768, -0.17516553401947021, -0.42058542370796204, 0.07642530649900436, 0.3083309233188629, 0.16098976135253906, 0.20003926753997803, -0.18241794407367706], [0.009708661586046219, -0.10153958946466446, -0.01933908648788929, -0.11900576204061508, 0.029656212776899338, -0.22693172097206116, -0.18854661285877228, 0.23373380303382874], [-0.16298611462116241, -0.08098172396421432, 0.2150944322347641, -0.030772719532251358, -0.21238622069358826, 0.009646388702094555, 0.162184476852417, 0.24619081616401672], [0.31188565492630005, -0.01606089062988758, -0.2756919264793396, 0.20604979991912842, 0.5080071091651917, 0.18747296929359436, 0.058596305549144745, 0.026999374851584435], [-0.22932754456996918, -0.06574342399835587, -0.14568886160850525, 0.2399798333644867, 0.27566397190093994, 0.5394579768180847, 0.1714143455028534, 0.11181901395320892], [0.17093192040920258, -0.1406984031200409, -0.18853121995925903, 0.4429738223552704, -0.16964788734912872, 0.10126107931137085, -0.047578681260347366, -0.16779810190200806], [0.17010058462619781, -0.07531997561454773, -0.4120025038719177, -0.27228036522865295, 0.4349875748157501, 0.5105742812156677, -0.05688737705349922, 0.13878056406974792], [0.08088783919811249, -0.14193880558013916, -0.4177529811859131, 0.16974157094955444, 0.6757062077522278, 0.06286241859197617, 0.09324673563241959, -0.13673660159111023], [-0.12151176482439041, -0.27761775255203247, -0.09131969511508942, -0.3876115381717682, 0.4967150390148163, 0.3941324055194855, 0.035138409584760666, -0.1641755849123001], [-0.03219323605298996, 0.03258209675550461, 0.09373360872268677, -0.01797233149409294, 0.46182775497436523, 0.19712118804454803, -0.30891093611717224, -0.03144824877381325], [0.07547391951084137, 0.19587981700897217, -0.06969063729047775, 0.40624845027923584, 0.1997906118631363, 0.25595495104789734, -0.0355503223836422, 0.14596031606197357], [0.16794255375862122, 0.011363109573721886, -0.025508234277367592, -0.4095308780670166, -0.11891982704401016, -0.2531941533088684, 0.1252211034297943, -0.060336314141750336], [-0.22237007319927216, -0.1322225034236908, -0.15375559031963348, -0.38683515787124634, 0.02180500701069832, 0.014851015992462635, 0.20419307053089142, -0.23327936232089996], [-0.22720207273960114, -0.1441153883934021, -0.5482797622680664, -0.21190498769283295, 0.24591442942619324, 0.26813894510269165, -0.1502208560705185, -0.05998178571462631], [-0.243174210190773, -0.26882150769233704, -0.2847839891910553, 0.2708699107170105, 0.6774327158927917, 0.1814965456724167, -0.1204271912574768, 0.06423863023519516], [-0.20945338904857635, 0.05883864685893059, 0.3539091646671295, -0.3397420048713684, -0.026980644091963768, 0.311539888381958, 0.18990741670131683, -0.27603745460510254], [-0.43018901348114014, -0.15237364172935486, 0.1855277419090271, -0.02360660955309868, -0.36107438802719116, -0.3651578724384308, -0.14341573417186737, 0.18199628591537476], [-0.09072113037109375, -0.22721922397613525, 0.003698761807754636, -0.3943231403827667, 0.20590940117835999, -0.16535378992557526, -0.32978376746177673, 0.044042639434337616], [0.12542854249477386, -0.15833479166030884, 0.025890912860631943, 0.3055596947669983, 0.45681798458099365, 0.08522848039865494, 0.04991466552019119, -0.007790652569383383], [-0.24176394939422607, -0.12855112552642822, 0.09737789630889893, -0.3109404146671295, -0.5038499236106873, -0.49533811211586, -0.03811897337436676, -0.2706845700740814], [0.1311926394701004, -0.05563116818666458, -0.21998144686222076, 0.3816947340965271, 0.05445285141468048, -0.17562586069107056, 0.37977689504623413, 0.03056214191019535], [-0.06446084380149841, -0.06633348762989044, 0.14016196131706238, -0.1785997748374939, -0.6714912056922913, 0.15741266310214996, 0.04570574685931206, 0.3667479157447815], [-0.25700071454048157, -0.029689470306038857, 0.27516552805900574, -0.0401834174990654, -0.09115184843540192, -0.2173357605934143, 0.1126512959599495, -0.04668239504098892], [0.3114650249481201, 0.026599105447530746, -0.20146095752716064, 0.3127419948577881, 0.1863107532262802, 0.33064988255500793, -0.028816739097237587, -0.0792684480547905], [0.04906783998012543, -0.23387208580970764, 0.1948009878396988, -0.20968584716320038, -0.4854179918766022, 0.12523573637008667, -0.058333348482847214, 0.35527512431144714], [0.28383156657218933, -0.008074662648141384, 0.10163953900337219, 0.50165194272995, -0.16863323748111725, -0.10658784210681915, 0.133083775639534, -0.18735231459140778], [-0.13527557253837585, -0.04092170298099518, -0.11687791347503662, -0.4634651839733124, 0.4921082556247711, 0.3230396509170532, -0.24289461970329285, -0.1797410100698471], [0.18759599328041077, -0.20499783754348755, 0.26814189553260803, 0.35459476709365845, -0.5925642848014832, -0.09109105914831161, 0.07825765758752823, -0.09728427231311798], [-0.04083786532282829, -0.03246758133172989, 0.1284579485654831, -0.6063039302825928, -0.333271861076355, -0.09558938443660736, -0.34815549850463867, -0.09181249886751175], [-0.18522505462169647, 0.010696317069232464, -0.2894173264503479, -0.49561965465545654, 0.09652964770793915, 0.025354456156492233, 0.3802401125431061, 0.162762850522995], [0.12886443734169006, 0.09817571938037872, -0.34952807426452637, -0.4717685580253601, 0.42709508538246155, 0.252157062292099, -0.13162168860435486, -0.0075678532011806965], [0.11512570083141327, -0.007949236780405045, -0.5302990078926086, -0.32359033823013306, 0.5739521980285645, -0.10315097868442535, 0.11212683469057083, -0.15568499267101288], [-0.030547939240932465, 0.21386167407035828, 0.24451181292533875, 0.21728892624378204, -0.6005755066871643, 0.13777244091033936, -0.2950587868690491, -0.07945146411657333], [0.23691309988498688, -0.012686141766607761, -0.3081858456134796, -0.1439187377691269, 0.519932746887207, -0.08187055587768555, 0.16339482367038727, 0.10086251050233841], [0.40393269062042236, -0.14937575161457062, 0.0033114515244960785, 0.040082868188619614, -0.4909641742706299, -0.16568075120449066, 0.061178527772426605, -0.1876387894153595], [0.0318128876388073, -0.05964195728302002, 0.4936395287513733, -0.3119999170303345, -0.3509623110294342, -0.3189273476600647, 0.17323602735996246, 0.08959302306175232], [0.06380331516265869, -0.04164937883615494, 0.05605708062648773, -0.4784547984600067, -0.2165663242340088, -0.0694074034690857, 0.2954100966453552, 0.11930681020021439], [-0.026868578046560287, 0.22886039316654205, 0.15292413532733917, -0.32267525792121887, -0.4806504547595978, -0.18476788699626923, -0.15444764494895935, -0.017707882449030876], [-0.08649848401546478, -0.29008686542510986, -0.16184638440608978, -0.22870378196239471, 0.5077651143074036, 0.3648006319999695, 0.021439699456095695, 0.004258967936038971], [-0.1223670244216919, 0.06798606365919113, 0.35786905884742737, -0.366426557302475, 0.16177260875701904, 0.13620588183403015, -0.08337264508008957, -0.17447879910469055], [0.33873867988586426, -0.01018194854259491, 0.5645646452903748, 0.08481171727180481, -0.3737931251525879, -0.38040891289711, 0.08731310069561005, 0.26917764544487], [-0.01969493366777897, -0.0533147007226944, 0.05605781823396683, 0.08912298828363419, 0.172297865152359, 0.25104209780693054, 0.11888568848371506, -0.14688657224178314], [0.04099347069859505, -0.15613538026809692, 0.18045534193515778, -0.41153737902641296, 0.6206096410751343, 0.0709867775440216, 0.06305898725986481, -0.2124595046043396], [-0.21548272669315338, -0.13405637443065643, 0.2925713360309601, -0.10810832679271698, -0.5644674301147461, -0.15751506388187408, -0.04331117123365402, 0.14692316949367523], [0.07833606004714966, -0.012364872731268406, 0.09860892593860626, -0.2960453927516937, 0.04655686393380165, -0.1366196721792221, 0.13434086740016937, -0.01000171434134245], [-0.08561333268880844, -0.016630325466394424, 0.09062936156988144, 0.19781915843486786, -0.4974622428417206, -0.07435391843318939, 0.2940119206905365, -0.04591401666402817], [-0.0540117509663105, -0.011172494851052761, 0.03869013115763664, -0.10288529843091965, -0.756294846534729, -0.0955386757850647, -0.09470675885677338, -0.2892865836620331], [0.235206738114357, -0.07113740593194962, -0.08342073857784271, -0.33578795194625854, -0.2722841799259186, 0.1927834004163742, -0.16166530549526215, -0.10174407809972763], [-0.14838451147079468, 0.19427460432052612, 0.229078009724617, 0.16949224472045898, -0.2129988968372345, -0.1281021237373352, 0.18214453756809235, -0.2314789742231369], [-0.15962734818458557, -0.03578658401966095, -0.19760388135910034, -0.4988820254802704, 0.4564862549304962, 0.33857783675193787, -0.04223969206213951, 0.2612595856189728]], "mlp_extractor.policy_net.0.bias": [-0.05526448041200638, -0.04863902926445007, -0.0638481080532074, -0.04534206539392471, 0.006852602120488882, -0.02324427105486393, -0.026644915342330933, 0.04811405763030052, 0.1370382010936737, -0.09294810146093369, 0.017267359420657158, -0.03678665682673454, -0.014014202170073986, 0.013291288167238235, 0.042866338044404984, -0.01208557654172182, 0.00527318986132741, 0.025787947699427605, 0.025766532868146896, 0.10143891721963882, 0.0006487618666142225, 0.047398198395967484, 0.030930178239941597, -0.005327356513589621, 0.00931495614349842, -0.06845900416374207, -0.03776293992996216, 0.005812808405607939, 0.05713212862610817, -0.047670669853687286, 0.02110738307237625, -0.02224353514611721, 0.07236519455909729, -0.011050183326005936, 0.07523947209119797, -0.017504248768091202, -0.01632668823003769, 0.040528178215026855, -0.006548238452523947, 0.06368149071931839, -0.021870767697691917, 0.05668666958808899, -0.056621991097927094, -0.057356659322977066, -0.052957288920879364, -0.013282199390232563, -0.0348367914557457, 0.015096430666744709, 0.04111221805214882, -0.00861560832709074, -0.06532594561576843, -0.09029479324817657, 0.06612489372491837, -0.05665218457579613, 0.016740549355745316, 0.07206077128648758, 0.011638299562036991, 0.01624150387942791, -0.05247283726930618, 0.010428346693515778, -0.022100957110524178, -0.018957270309329033, -0.04750016704201698, -0.026073496788740158], "mlp_extractor.policy_net.2.weight": [[0.30408596992492676, -0.05139578506350517, 0.33770322799682617, 0.029555175453424454, -0.14393271505832672, 0.2208259552717209, -0.03216882795095444, -0.3436257839202881, 0.12243937700986862, 0.10192170739173889, -0.15706698596477509, 0.09722226858139038, 0.24300147593021393, -0.37794947624206543, 0.038948897272348404, -0.07036835700273514, -0.1646750569343567, -0.2077619582414627, -0.19767113029956818, -0.37948545813560486, -0.29286932945251465, -0.3830283284187317, -0.013416972011327744, 0.45702826976776123, -0.09906282275915146, 0.03950103744864464, 0.005476920399814844, 0.11567232012748718, -0.27319231629371643, -0.08645577728748322, 0.0735168531537056, 0.10418196022510529, 0.16240306198596954, 0.42655515670776367, -0.40149247646331787, 0.1470831334590912, 0.1752905696630478, 0.15125463902950287, 0.16492269933223724, -0.08409378677606583, 0.193849116563797, 0.21245084702968597, 0.35378530621528625, -0.09262161701917648, 0.027336133643984795, -0.007419627625495195, 0.023140816017985344, -0.033653080463409424, 0.08349161595106125, 0.3401864767074585, 0.0934440940618515, 0.23325671255588531, 0.12344653159379959, 0.13951291143894196, 0.14476829767227173, -0.4369279146194458, -0.04406023025512695, 0.0510186143219471, 0.16838988661766052, 0.03768524155020714, -0.22889700531959534, 0.21832159161567688, -0.10475670546293259, 0.12016947567462921], [-0.4379551410675049, 0.04901896044611931, -0.010230735875666142, 0.014397344551980495, 0.08576459437608719, -0.16434204578399658, 0.22890131175518036, 0.07969250530004501, -0.1613476574420929, 0.08163677155971527, -0.24430333077907562, -0.4055368900299072, 0.23573270440101624, 0.1056472510099411, 0.2545166611671448, 0.10770487040281296, -0.1927226036787033, 0.19908875226974487, -0.07411016523838043, 0.5272647142410278, -0.22475284337997437, 0.15565147995948792, 0.4232746362686157, 0.3356192409992218, -0.21379290521144867, -0.10240039974451065, 0.17027583718299866, -0.06280578672885895, 0.21036554872989655, 0.049802813678979874, -0.13334344327449799, 0.17782804369926453, -0.011366273276507854, 0.025525161996483803, -0.16446208953857422, -0.05276352912187576, -0.034537579864263535, -0.16638869047164917, 0.025122370570898056, -0.02937740460038185, 0.22027523815631866, 0.029840346425771713, 0.11890964210033417, -0.1479182243347168, -0.11986207962036133, 0.10953432321548462, 0.12636613845825195, -0.05860767140984535, -0.11719607561826706, 0.13278944790363312, -0.007444346789270639, -0.2319013476371765, 0.3648209869861603, 0.1339188516139984, -0.0682828277349472, -0.05313290283083916, -0.04843250289559364, -0.03163561224937439, 0.0541248694062233, 0.10269516706466675, -0.13495732843875885, -0.16711804270744324, 0.15025153756141663, 0.05403776839375496], [-0.12489442527294159, -0.052919331938028336, -0.06697873026132584, 0.2266726940870285, 0.13726893067359924, -0.03704658895730972, -0.08952923119068146, -0.04538071155548096, 0.1760426163673401, 0.18263286352157593, 0.33357930183410645, -0.05417093262076378, 0.04718795046210289, -0.005042775068432093, 0.05007321760058403, -0.03149605914950371, -0.20770592987537384, 0.0882582738995552, 0.10663706064224243, -0.17499840259552002, 0.1109345331788063, 0.10122301429510117, 0.48590168356895447, -0.25172170996665955, -0.035394757986068726, -0.3243185877799988, -0.19882304966449738, 0.02546713687479496, -0.0591076985001564, -0.33687126636505127, -0.17959019541740417, 0.23130165040493011, -0.10761862248182297, -0.21905164420604706, 0.1742437481880188, -0.11145862936973572, -0.08820285648107529, 0.36221060156822205, -0.2844158411026001, -0.31464239954948425, 0.38588690757751465, 0.10697180777788162, -0.18218739330768585, 0.12633328139781952, -0.0841275155544281, 0.07026302814483643, -0.03590517118573189, -0.0967678353190422, -0.15180693566799164, -0.020967230200767517, 0.23513877391815186, -0.19295117259025574, 0.07754252105951309, 0.19886571168899536, -0.04380855709314346, 0.04033985361456871, 0.4138925075531006, -0.21650069952011108, -0.14080066978931427, -0.06281722337007523, -0.369981050491333, -0.31503045558929443, -0.1724546253681183, 0.05299424007534981], [-0.41851866245269775, -0.26320430636405945, -0.21323439478874207, -0.26654502749443054, -0.013147581368684769, -0.25443416833877563, 0.1641177386045456, 0.3235146701335907, 0.18091274797916412, 0.01205206848680973, -0.152260422706604, 0.08925659954547882, 0.4721296429634094, -0.16350425779819489, 0.13640324771404266, -0.2612721025943756, -0.06628916412591934, 0.3424775302410126, 0.22248081862926483, -0.25457531213760376, 0.08510053902864456, 0.10559752583503723, -0.11148513108491898, 0.14899040758609772, 0.1630367934703827, -0.14612555503845215, -0.23191066086292267, 0.24699009954929352, 0.07151205092668533, 0.07853090763092041, -0.04716692119836807, 0.20396341383457184, 0.18710021674633026, -0.39092692732810974, 0.4291685223579407, 0.13269789516925812, -0.03637820854783058, 0.13294944167137146, 0.10661803185939789, -0.00946161337196827, -0.03239090368151665, -0.24594220519065857, -0.035623472183942795, 0.06824765354394913, 0.044200751930475235, 0.2951172888278961, -0.09591951966285706, 0.024983592331409454, 0.013054191134870052, -0.29666948318481445, -0.05613422393798828, 0.15600112080574036, 0.3374593257904053, 0.07304517179727554, -0.5064336657524109, 0.07024163752794266, -0.02108781784772873, -0.19453750550746918, 0.018227899447083473, 0.15923765301704407, -0.2266073226928711, -0.18668608367443085, -0.09906548261642456, 0.19495536386966705], [-0.11432627588510513, 0.16986481845378876, 0.20319794118404388, 0.35490864515304565, 0.14871200919151306, -0.3041391372680664, 0.0031335775274783373, 0.06546932458877563, 0.08263663202524185, -0.21120046079158783, 0.1218104287981987, 0.072055384516716, -0.36016660928726196, -0.3055911958217621, -0.22445374727249146, -0.06867239624261856, 0.027474021539092064, 0.29502546787261963, -0.0722302719950676, 0.2300121933221817, 0.037081364542245865, -0.6317816972732544, -0.12028674781322479, -0.044359151273965836, 0.11648322641849518, 0.22606582939624786, -0.10641051083803177, 0.04531140625476837, -0.35402828454971313, -0.007726096082478762, -0.05759171023964882, -0.3481501340866089, 0.019878655672073364, -0.15751732885837555, -0.1551954299211502, 0.028609542176127434, 0.0394609309732914, -0.18713821470737457, 0.19973795115947723, 0.20093557238578796, -0.09317567944526672, 0.14243175089359283, -0.1137111708521843, -0.04752010107040405, -0.0584893524646759, -0.031681109219789505, 0.05652133747935295, -0.012668048031628132, -0.2398437112569809, 0.17017489671707153, 0.000797201064415276, -0.06095995008945465, 0.00509074330329895, -0.3413090109825134, 0.0016905099619179964, -0.0441410094499588, -0.10486108064651489, -0.24863338470458984, -0.12661227583885193, 0.19152796268463135, 0.08703206479549408, -0.28806692361831665, -0.13667964935302734, -0.4334471523761749], [-0.0657750740647316, 0.07821652293205261, -0.08620359003543854, 0.12625882029533386, 0.34661394357681274, -0.09517598897218704, -0.1895809918642044, -0.055945076048374176, -0.01719600148499012, 0.0744558721780777, -0.012759882025420666, 0.15648406744003296, -0.08965696394443512, 0.15901830792427063, -0.051506198942661285, -0.24649468064308167, 0.06443456560373306, 0.2879624664783478, -0.18934811651706696, -0.08108744025230408, 0.08621937781572342, 0.021338988095521927, 0.10947613418102264, 0.012157285585999489, 0.04777444526553154, -0.09007211029529572, -0.48134469985961914, -0.1806965470314026, 0.3278220593929291, 0.12768946588039398, 0.06282870471477509, -0.19894123077392578, 0.17328980565071106, 0.18534894287586212, 0.13954071700572968, -0.058642998337745667, -0.3152233958244324, 0.060131870210170746, 0.05118938535451889, -0.031722281128168106, -0.021206434816122055, 0.2473500669002533, 0.0009698100620880723, 0.20635822415351868, 0.0011678426526486874, 0.019960027188062668, 0.20230157673358917, 0.06938273459672928, -0.11740481853485107, 0.09413635730743408, -0.2760515809059143, -0.19706904888153076, 0.12037749588489532, 0.428773432970047, -0.3822120130062103, -0.05417520925402641, -0.11704197525978088, 0.3093915581703186, -0.14234817028045654, -0.08284317702054977, 0.15990862250328064, -0.12367603182792664, 0.18759819865226746, 0.022834328934550285], [0.3257763683795929, 0.03340622037649155, 0.10367616266012192, -0.1231134906411171, -0.405851274728775, 0.08119027316570282, -0.1754685491323471, -0.021557701751589775, -0.015857482329010963, 0.218211367726326, 0.22029148042201996, 0.037795696407556534, 0.06523775309324265, -0.09396382421255112, -0.014147626236081123, -0.00048607229837216437, -0.273075133562088, 0.2831098139286041, 0.3400745093822479, 0.0805889144539833, 0.2776084840297699, 0.11317646503448486, 0.3029510974884033, 0.437226802110672, -0.27088823914527893, 0.13551253080368042, -0.3209799528121948, 0.08969156444072723, -0.016254380345344543, 0.4633371829986572, -0.042709629982709885, 0.257473349571228, -0.0016439572209492326, 0.0025428617373108864, -0.04634500667452812, 0.11907494813203812, 0.0621575266122818, -0.20694944262504578, -0.19560520350933075, -0.2696197032928467, 0.11121316254138947, -0.23732036352157593, 0.3073866367340088, 0.16041217744350433, 0.19025959074497223, 0.19478848576545715, -0.0862649604678154, -0.19041450321674347, 0.05987335368990898, -0.2638092637062073, 0.046159178018569946, -0.31788063049316406, 0.19358262419700623, -0.16483263671398163, 0.15745559334754944, -0.006415508687496185, 0.02423993870615959, 0.1156899556517601, -0.2595374584197998, 0.0025363413151353598, 0.04525192081928253, 0.0820198580622673, -0.058978307992219925, 0.16516688466072083], [-0.12443330883979797, -0.15234746038913727, -0.5050233602523804, -0.046811964362859726, 0.13704802095890045, -0.29216575622558594, 0.12716902792453766, -0.29722094535827637, -0.08888575434684753, 0.146537646651268, -0.35373562574386597, 0.040395453572273254, 0.1353502869606018, 0.17597772181034088, 0.13716819882392883, 0.006418882869184017, -0.009745389223098755, 0.06781876087188721, 0.3890307545661926, -0.11231246590614319, 0.3380308747291565, 0.3929554522037506, 0.522354006767273, 0.13336163759231567, -0.05039742588996887, 0.005322435405105352, -0.18707044422626495, 0.12595641613006592, 0.26048344373703003, 0.14401324093341827, 0.20778396725654602, -0.10801499336957932, -0.13562989234924316, -0.07257192581892014, 0.010953279212117195, -0.3412010073661804, 0.17267931997776031, 0.16187618672847748, 3.4104228689102456e-05, 0.29075533151626587, 0.21639083325862885, -0.3234649896621704, -0.3215125501155853, 0.2687404453754425, 0.09509236365556717, 0.5107595324516296, -0.2868231236934662, 0.4468511641025543, -0.12230756133794785, -0.08284512907266617, -0.2885102927684784, -0.20821407437324524, 0.45054754614830017, -0.1712299883365631, -0.31087732315063477, 0.03313104808330536, 0.5384028553962708, -0.36875882744789124, 0.030725035816431046, -0.26351600885391235, -0.33514806628227234, 0.09030936658382416, -0.1852894425392151, 0.08289867639541626], [0.048624999821186066, -0.033301711082458496, 0.25040388107299805, -0.0582471564412117, 0.0717896819114685, -0.12263516336679459, 0.5471786856651306, -0.023708652704954147, 0.057012565433979034, -0.048207398504018784, -0.4981329143047333, 0.07673130184412003, 0.1066773533821106, 0.440451979637146, 0.04456086456775665, 0.06625385582447052, 0.10057549923658371, 0.48610028624534607, 0.004799234215170145, -0.1851091831922531, 0.719347357749939, 0.8091010451316833, 0.15799883008003235, 0.003196033416315913, 0.011027267202734947, -0.046269338577985764, 0.11690407991409302, 0.3608074188232422, 0.15757839381694794, 0.2244044542312622, -0.16024303436279297, 0.12418285757303238, 0.2695678472518921, -0.09321946650743484, 0.15073992311954498, -0.31645500659942627, -0.01970437541604042, -0.0008631842792965472, -0.10789882391691208, -0.3136000633239746, 0.27856382727622986, -0.1941872537136078, 0.07573658227920532, 0.10426809638738632, 0.20116972923278809, 0.23019129037857056, -0.2145174741744995, 0.24109849333763123, -0.04519599676132202, -0.03987392783164978, 0.1835966855287552, -0.24898619949817657, 0.31543058156967163, -0.01670994609594345, -0.2081356793642044, 0.049396127462387085, 0.21077142655849457, -0.16225665807724, 0.18236970901489258, -0.16961367428302765, -0.5960925817489624, -0.3476613163948059, -0.30999743938446045, 0.3580682873725891], [0.23529207706451416, -0.24041879177093506, -0.1269426792860031, -0.09597267210483551, 0.1521122306585312, -0.14094440639019012, 0.14915373921394348, -0.21179035305976868, 0.17605218291282654, 0.034994278103113174, 0.18366214632987976, 0.14117296040058136, 0.21162211894989014, 0.48082637786865234, -0.0027726045809686184, -0.0005507455789484084, -0.08621063083410263, 0.11936343461275101, 0.3025253117084503, 0.15390855073928833, -0.17442823946475983, -0.02254844270646572, -0.14355525374412537, 0.045065391808748245, 0.4206121861934662, 0.052605025470256805, -0.12756787240505219, -0.06658833473920822, 0.1942952573299408, -0.1640816032886505, -0.05015447363257408, -0.15274833142757416, 0.15187017619609833, -0.2710079550743103, 0.11274654418230057, -0.3183256983757019, -0.06025366857647896, -0.2503960430622101, -0.17528502643108368, -0.10160236805677414, 0.10499948263168335, 0.28840920329093933, 0.10367416590452194, -0.2354075312614441, 0.06590059399604797, 0.02766183577477932, 0.07531192898750305, 0.012195964343845844, -0.22716793417930603, 0.14345169067382812, 0.0673883780837059, 0.12616413831710815, 0.1889154314994812, -0.1409175544977188, -0.08579457551240921, 0.11851919442415237, -0.020684517920017242, 0.14482595026493073, -0.22433166205883026, -0.00262129376642406, -0.2215757817029953, 0.36025071144104004, -0.11394873261451721, -0.27324458956718445], [-0.15509381890296936, -0.1755516231060028, 0.04516260325908661, -0.20694579184055328, -0.042633771896362305, 0.15475986897945404, -0.20423907041549683, 0.08180198818445206, 0.1363556832075119, 0.2198200225830078, -0.06383319199085236, -0.0980520099401474, -0.1867460310459137, 0.08359992504119873, 0.28300172090530396, -0.0038176323287189007, -0.20854806900024414, 0.14672277867794037, -0.10614859312772751, 0.07263579219579697, 0.4170241057872772, 0.17296011745929718, -0.07339387387037277, 0.08806697279214859, 0.047456372529268265, -0.19494445621967316, -0.11989077925682068, -0.26024818420410156, 0.25636276602745056, 0.0246596522629261, -0.036669760942459106, 0.196152463555336, 0.06811947375535965, -0.3338777720928192, -0.4472655951976776, -0.21030156314373016, -0.09451424330472946, -0.10104009509086609, 0.049327027052640915, -0.0025260415859520435, 0.2035008817911148, 0.1016111820936203, -0.17855997383594513, 0.009808153845369816, 0.3227821886539459, 0.48720496892929077, -0.28373733162879944, 0.15999020636081696, -0.18289543688297272, -0.10852423310279846, -0.042242150753736496, 0.029786208644509315, -0.04262559115886688, -0.016963554546236992, -0.3544335961341858, 0.17584770917892456, 0.2667312026023865, 0.14613200724124908, 0.49674075841903687, 0.11530180275440216, -0.0923813059926033, -0.07037785649299622, -0.32890909910202026, 0.10450893640518188], [-0.010287207551300526, 0.04869718477129936, 0.06901276856660843, 0.09381823986768723, 0.10383880883455276, -0.17350143194198608, -0.3650394678115845, -0.14070148766040802, 0.033741794526576996, 0.2023475021123886, -0.3214368224143982, -0.38787364959716797, -0.3974244296550751, -0.40027984976768494, -0.028410017490386963, -0.024357113987207413, 0.44810977578163147, -0.2419981211423874, -0.05017273128032684, -0.10440818965435028, -0.4470861256122589, -0.02678479440510273, -0.36432039737701416, 0.16326627135276794, -0.03432782366871834, -0.0154397739097476, -0.11158716678619385, -0.22812385857105255, -0.06429324299097061, -0.01777718961238861, 0.10285646468400955, -0.23846547305583954, -0.004006472881883383, -0.3004702031612396, 0.2117040455341339, 0.004674183204770088, 0.15845808386802673, 0.13866321742534637, -0.1397494673728943, -0.2656693458557129, -0.34814855456352234, 0.22794248163700104, -0.050714947283267975, -0.16252164542675018, -0.03651842102408409, -0.06953542679548264, -0.11583070456981659, -0.15704047679901123, 0.0487755686044693, 0.3841848075389862, 0.13142596185207367, -0.1540319323539734, -0.17613179981708527, -0.20681968331336975, 0.13150502741336823, 0.4038279354572296, -0.3802832365036011, -0.02632787823677063, -0.131497323513031, 0.04651306942105293, 0.05796151980757713, -0.01196355652064085, 0.20446206629276276, -0.2979606091976166], [-0.07933154702186584, -0.06462767720222473, 0.14583036303520203, -0.30314645171165466, 0.06376690417528152, 0.08571049571037292, -0.040807560086250305, 0.3871181011199951, 0.32766619324684143, 0.22889092564582825, -0.1418246328830719, -0.11172955483198166, -0.04751214757561684, -0.129890576004982, -0.20071233808994293, 0.24283240735530853, -0.046228136867284775, -0.11579924821853638, -0.023915141820907593, 0.05230115354061127, -0.2099076360464096, -0.10119246691465378, -0.24453510344028473, -0.16550883650779724, 0.23922759294509888, 0.6495668292045593, -0.2844543755054474, -0.00692584877833724, -0.2817656397819519, -0.0313311442732811, -0.08394216001033783, 0.03332364931702614, -0.2591341733932495, 0.3522748649120331, 0.13156287372112274, -0.17418503761291504, 0.15796378254890442, 0.09955158829689026, -0.17871497571468353, 0.04607313126325607, -0.004438044968992472, 0.07122815400362015, -0.18603040277957916, 0.004787413403391838, -0.08022434264421463, -0.04955478012561798, 0.04293914511799812, 0.03303692117333412, -0.07981666922569275, 0.42231637239456177, -0.04876825585961342, -0.05808260291814804, 0.06987369060516357, 0.14844563603401184, 0.3481284976005554, -0.1427355706691742, -0.12115907669067383, 0.18382267653942108, 0.09267567098140717, 0.08635203540325165, 0.4111776053905487, -0.07710966467857361, -0.028738470748066902, -0.054419733583927155], [-0.1965266466140747, -0.29628756642341614, -0.061290353536605835, 0.2813803255558014, -0.2307426780462265, -0.22246681153774261, 0.2006632536649704, 0.17882052063941956, 0.16680149734020233, -0.10780736058950424, 0.2815779447555542, -0.2522553503513336, -0.05699077993631363, 0.11768870800733566, 0.01370022539049387, 0.04620908200740814, 0.00328422780148685, -0.039306387305259705, 0.06418140232563019, -0.18293382227420807, -0.2603093683719635, 0.25240853428840637, 0.036404114216566086, -0.049872446805238724, 0.05130596458911896, -0.13195167481899261, 0.03017461858689785, 0.21693570911884308, 0.12472967058420181, 0.21466001868247986, 0.19806377589702606, -0.06458666920661926, 0.18568919599056244, -0.18238921463489532, -0.11783763766288757, -0.038804393261671066, -0.03222942724823952, -0.17086008191108704, -0.018193833529949188, 0.026164108887314796, 0.42420634627342224, -0.023926163092255592, 0.21672749519348145, 0.2763671278953552, 0.16345380246639252, 0.17628668248653412, -0.29768073558807373, -0.22215940058231354, -0.16614119708538055, 0.15114396810531616, -0.2850293815135956, 0.13180726766586304, -0.0453522689640522, -0.08485107123851776, 0.1987537145614624, -0.2278965264558792, -0.04348920285701752, 0.0060826693661510944, 0.09046980738639832, -0.3708418309688568, 0.09481821209192276, -0.09039702266454697, 0.044256918132305145, 0.3475208580493927], [-0.029808973893523216, 0.05693694204092026, 0.08350331336259842, 0.0520394928753376, 0.05302777141332626, -0.23275226354599, 0.042778998613357544, 0.061603039503097534, 0.15363359451293945, -0.044058021157979965, -0.0997832641005516, -0.22857443988323212, 0.19683293998241425, 0.40327295660972595, 0.00879688747227192, -0.18175770342350006, -0.22801072895526886, 0.10261418670415878, 0.30534738302230835, 0.10098723322153091, 0.08195915073156357, 0.19257120788097382, -0.04923130199313164, 0.17136746644973755, 0.13067732751369476, 0.1088864654302597, -0.111598901450634, 0.002842299174517393, 0.4691803753376007, -0.011801003478467464, 0.01508960872888565, -0.24344375729560852, -0.1567893922328949, -0.2340923249721527, -0.2579779326915741, 0.19850775599479675, 0.15881593525409698, 0.41868749260902405, 0.05887698009610176, -0.11843251436948776, 0.13839778304100037, -0.2227099984884262, -0.37486958503723145, -0.002137143164873123, -0.07292371243238449, 0.012428857386112213, 0.06270139664411545, 0.1289132535457611, 0.03799733147025108, -0.21278703212738037, 0.5527697801589966, 0.07361758500337601, -0.005883315112441778, -0.20604650676250458, -0.32141777873039246, -0.1453889012336731, 0.2025352269411087, 0.12684425711631775, -0.03900554031133652, -0.25212982296943665, 0.030680425465106964, -0.20791685581207275, 0.14078664779663086, 0.1104973778128624], [-0.01878391019999981, 0.22498857975006104, 0.42201492190361023, -0.33874163031578064, -0.276606947183609, 0.07639368623495102, -0.0649125948548317, -0.2558581233024597, -0.07456402480602264, -0.2722766399383545, 0.221643328666687, -0.24971795082092285, 0.29083338379859924, -0.23264001309871674, -0.03811512142419815, 0.21633605659008026, 0.005848802626132965, 0.06924881786108017, -0.016633545979857445, -0.2610109746456146, -0.07892804592847824, -0.21931561827659607, -0.04354354739189148, -0.14682017266750336, -0.1478853076696396, 0.027869701385498047, 0.06024247407913208, -0.06375446915626526, -0.062412895262241364, 0.29052019119262695, 0.2765384912490845, 0.029577750712633133, -0.06849461793899536, 0.11764618009328842, 0.10148625075817108, -0.09989701211452484, 0.1825866848230362, -0.13412810862064362, 0.16207315027713776, -0.2934068739414215, -0.1734035164117813, 0.43646901845932007, 0.21109801530838013, 0.15815402567386627, 0.021214677020907402, 0.021474873647093773, 0.16645638644695282, 0.32415446639060974, -0.07483310252428055, 0.1382957249879837, -0.018426280468702316, 0.2739301919937134, -0.14028885960578918, -0.014950640499591827, 0.2927587330341339, -0.16100646555423737, 0.3124203085899353, -0.0021600553300231695, 0.1230674460530281, 0.14994856715202332, 0.1750115603208542, -0.08818624913692474, 0.45948097109794617, -0.22479330003261566], [0.0005125333555042744, 0.022830646485090256, -0.1334623545408249, 0.2510432302951813, -0.042972348630428314, 0.05774283781647682, -0.13868387043476105, 0.10122310370206833, 0.039606284350156784, -0.16314445436000824, -0.2521021068096161, -0.05359768122434616, 0.0019962815567851067, -0.052555348724126816, 0.17100292444229126, 0.3595176339149475, -0.024622948840260506, 0.21617527306079865, -0.04721810668706894, 0.2231704145669937, -0.057900767773389816, 0.06632755696773529, -0.36330798268318176, 0.08567295968532562, 0.23919616639614105, -0.04094473645091057, -0.15786707401275635, -0.17636150121688843, -0.06605035066604614, 0.028781142085790634, 0.4796498119831085, 0.2183031141757965, -0.3095022737979889, -0.06997399032115936, 0.05703214183449745, -0.132097527384758, -0.09722720086574554, 0.0838550329208374, -0.424306720495224, 0.3451758027076721, -0.1490771323442459, 0.34638217091560364, -0.007478564046323299, 0.16533099114894867, -0.10723543167114258, -0.2826865613460541, 0.20437638461589813, -0.1856197565793991, -0.17978139221668243, -0.3298349380493164, 0.03325445577502251, 0.07251011580228806, 0.04784470796585083, -0.012601357884705067, -0.1886412352323532, 0.010606719180941582, 0.004582626279443502, -0.1558605134487152, -0.05166545882821083, -0.25516384840011597, -0.269376277923584, -0.08246363699436188, -0.10203167051076889, -0.10012482851743698], [0.09698136150836945, -0.029940539970993996, 0.21432317793369293, 0.06266722828149796, 0.004911274649202824, -0.0992300882935524, -0.07935020327568054, -0.0730758085846901, 0.0450175479054451, -0.0940934419631958, -0.09617039561271667, 0.1458679437637329, 0.12132391333580017, -0.11017722636461258, 0.13821834325790405, 0.07938698679208755, 0.10130888223648071, -0.017573492601513863, 0.010058138519525528, 0.2233584076166153, -0.025186143815517426, 0.17623396217823029, 0.18459919095039368, -0.267076313495636, 0.29060497879981995, -0.10939666628837585, -0.3087760806083679, 0.18702903389930725, 0.13569974899291992, -0.04427529498934746, -0.11828272044658661, -0.1343623846769333, 0.06868808716535568, -0.1217498779296875, -0.44020843505859375, 0.11698543280363083, 0.25282323360443115, -0.15577176213264465, -0.25439125299453735, 0.08745603263378143, 0.019478751346468925, 0.2813768982887268, -0.20071803033351898, 0.022248443216085434, -0.043729834258556366, 0.05816621705889702, -0.37988796830177307, 0.2336747795343399, 0.44756627082824707, -0.29786229133605957, -0.17333941161632538, 0.13029450178146362, 0.23962701857089996, 0.2572585344314575, 0.051629941910505295, 0.08193220943212509, -0.19073183834552765, 0.016374487429857254, -0.2612578868865967, -0.02858821675181389, -0.12143212556838989, -0.27206185460090637, 0.09453954547643661, 0.11879299581050873], [-0.24251233041286469, -0.26322582364082336, 0.36827531456947327, 0.02883019670844078, -0.019853198900818825, 0.27657923102378845, 0.0650237649679184, -0.06753654778003693, 0.01902301050722599, 0.3503364622592926, 0.07977312803268433, 0.08157355338335037, -0.15570436418056488, 0.14944280683994293, 0.21564596891403198, -0.03290553390979767, 0.23018844425678253, -0.5089136362075806, 0.17499569058418274, -0.22341114282608032, 0.07139012217521667, -0.2916833460330963, 0.05117947980761528, -0.07438981533050537, -0.06764733791351318, 0.25097718834877014, 0.08823926746845245, -0.25175201892852783, -0.1761755645275116, 0.11729341000318527, 0.07446007430553436, -0.027184506878256798, -0.19608594477176666, -0.16985781490802765, 0.026628294959664345, 0.3537197709083557, 0.053509876132011414, -0.26750561594963074, 0.059791069477796555, 0.27993571758270264, -0.06238998845219612, 0.060350190848112106, 0.46159228682518005, 0.17105549573898315, 0.31906658411026, -0.3948003053665161, 0.116856150329113, 0.05970058590173721, 0.15266278386116028, 0.18669846653938293, 0.2893381118774414, -0.07292185723781586, 0.25451093912124634, 0.04948723688721657, 0.11213158816099167, -0.16435128450393677, 0.006282555405050516, -0.09545031189918518, 0.036253392696380615, 0.225067138671875, 0.04319094866514206, -0.0988195613026619, 0.2552899122238159, 0.02565687522292137], [0.18760859966278076, 0.03629108518362045, -0.009049199521541595, 0.09584209322929382, 0.18075533211231232, 0.41459715366363525, 0.20584595203399658, 0.05288197100162506, -0.11306149512529373, -0.2367038130760193, -0.1767304539680481, -0.2550996243953705, 0.16870258748531342, -0.2985842227935791, -0.2153473049402237, 0.15631817281246185, 0.13852465152740479, -0.4549335837364197, 0.22241456806659698, -0.03752925246953964, 0.12408149987459183, -0.25635409355163574, 0.17806333303451538, -0.07578841596841812, -0.20664191246032715, -0.026671597734093666, -0.09230751544237137, 0.183745339512825, 0.1213725358247757, 0.1710682064294815, -0.38970473408699036, 0.30906713008880615, 0.01947956345975399, 0.11614365875720978, 0.0408039465546608, -0.15661174058914185, 0.2922392785549164, -0.35803842544555664, 0.0023672976531088352, -0.06114660203456879, 0.3034835159778595, 0.11965407431125641, 0.42026522755622864, 0.253598690032959, -0.012813756242394447, 0.21474876999855042, 0.06541460752487183, -0.08735544234514236, 0.15775606036186218, 0.08296462893486023, 0.28089678287506104, 0.15939541161060333, -0.10696100443601608, -0.10217442363500595, -0.368353009223938, -0.10660359263420105, 0.09366723895072937, 0.07533758133649826, 0.026734618470072746, 0.053131040185689926, 0.2592272162437439, 0.12085676193237305, -0.10718228667974472, 0.14754214882850647], [-0.23949123919010162, -0.21944528818130493, 0.005410447251051664, 0.16050773859024048, 0.21310630440711975, -0.15117020905017853, -0.1928381323814392, -0.06137450411915779, -0.29563164710998535, 0.0504583865404129, -0.19846408069133759, 0.3084408640861511, -0.3541651964187622, 0.09793747961521149, 0.14542366564273834, -0.22513073682785034, -0.11886871606111526, 0.3240141272544861, -0.11786722391843796, -0.04959097504615784, -0.36466190218925476, -0.23878395557403564, -0.18556368350982666, -0.27240872383117676, 0.0200112983584404, 0.005792694631963968, -0.06517263501882553, 0.0487273633480072, 0.0326063446700573, -0.2110348790884018, 0.029011603444814682, -0.12757079303264618, -0.3248027563095093, 0.12652160227298737, 0.11016255617141724, -0.08047185838222504, 0.3385070264339447, -0.0465039424598217, -0.3147459626197815, -0.0195295549929142, -0.33306971192359924, 0.06977702677249908, 0.23424029350280762, 0.010240593925118446, -0.18367542326450348, 0.2075144350528717, 0.25395894050598145, -0.2021786868572235, 0.3173898756504059, 0.046071529388427734, 0.06920123100280762, 0.20984899997711182, -0.22537866234779358, -0.27656063437461853, 0.44691815972328186, -0.08387822657823563, -0.04479146748781204, 0.1685190498828888, 0.25672757625579834, 0.2817513942718506, 0.12204820662736893, 0.012118778191506863, 0.017341025173664093, -0.16337168216705322], [-0.17637352645397186, -0.15927691757678986, -0.1834966093301773, 0.13196419179439545, 0.46161746978759766, 0.04073818400502205, -0.1263359636068344, -0.049895837903022766, -0.0036753928288817406, 0.3260890245437622, -0.11145627498626709, -0.14036233723163605, -0.11982251703739166, 0.059299636632204056, 0.239522784948349, 0.09916125237941742, -0.17340506613254547, 0.26969894766807556, 0.04469139501452446, -0.08013660460710526, 0.17973296344280243, 0.44441521167755127, 0.38753408193588257, 0.06371262669563293, 0.32609495520591736, -0.016567526385188103, 0.0559406615793705, 0.33163127303123474, -0.14256776869297028, 0.2544143497943878, -0.0062023247592151165, -0.03339606150984764, 0.1558791846036911, -0.3115786910057068, 0.059206441044807434, -0.2624050974845886, -0.3373558223247528, 0.15601231157779694, 0.1494128704071045, 0.031149037182331085, -0.15500326454639435, 0.23395127058029175, -0.4593456983566284, -0.08287012577056885, -0.027557779103517532, -0.1403273195028305, 0.018970858305692673, 0.007307332940399647, 0.057953741401433945, -0.24337580800056458, 0.07865260541439056, 0.29763081669807434, -0.09919639676809311, -0.23217953741550446, -0.03423898667097092, -0.2102859616279602, -0.18047623336315155, -0.08427123725414276, -0.22539977729320526, 0.10722855478525162, 0.18770086765289307, 0.13301017880439758, -0.022744737565517426, -0.10547226667404175], [-0.17903448641300201, -0.054061051458120346, -0.17218290269374847, -0.024201780557632446, 0.1264190375804901, -0.17193058133125305, 0.015899093821644783, 0.04072931036353111, 0.06976966559886932, -0.03353547304868698, -0.055004946887493134, -0.038210250437259674, -0.10378214716911316, 0.30367207527160645, 0.016615184023976326, 0.21742096543312073, -0.33576780557632446, -0.016904626041650772, 0.04034961760044098, -0.2678912580013275, 0.09255120158195496, -0.2839448153972626, 0.08439375460147858, 0.24047355353832245, 0.2353435754776001, -0.01624949648976326, -0.09833665937185287, 0.14710251986980438, 0.4736343324184418, -0.015186956152319908, 0.31276756525039673, 0.12129569798707962, 0.47694870829582214, -0.1595165878534317, -0.16732744872570038, -0.3245481252670288, 0.12626925110816956, 0.09663763642311096, -0.22333645820617676, 0.18280300498008728, -0.17926540970802307, -0.15824131667613983, -0.13719293475151062, -0.0858023539185524, -0.16500723361968994, -0.1803232580423355, 0.1537892073392868, 0.07171767204999924, 0.09620781987905502, -0.07493425905704498, -0.05308714881539345, -0.28771233558654785, -0.41180428862571716, 0.21609662473201752, 0.0777796134352684, 0.3361983597278595, -0.12342085689306259, -0.2783057987689972, -0.1869027316570282, 0.16273824870586395, 0.028964703902602196, -0.265779584646225, -0.12092558294534683, 0.01513728965073824], [-0.028499366715550423, 0.019001074135303497, 0.12857206165790558, 0.4240451753139496, 0.02950456365942955, 0.11754266172647476, 0.5193420648574829, -0.18580006062984467, 0.08305336534976959, 0.15712398290634155, 0.28344371914863586, 0.3301466703414917, 0.1750655174255371, -0.33163392543792725, 0.19534069299697876, 0.4493377208709717, 0.08474724739789963, -0.0725000649690628, 0.20690377056598663, 0.036267392337322235, 0.19834131002426147, 0.02548345737159252, -0.2541150748729706, 0.10767343640327454, -0.20253582298755646, -0.23247350752353668, -0.06989728659391403, -0.18017572164535522, 0.0014588888734579086, -0.014559848234057426, 0.19626890122890472, -0.06417286396026611, 0.07852437347173691, 0.1465424746274948, -0.0874914675951004, -0.022698089480400085, 0.2089376300573349, -0.026639435440301895, 0.08777611702680588, -0.3314639925956726, -0.0416579432785511, -0.17412595450878143, -0.09930471330881119, 0.06653302907943726, 0.08857396245002747, 0.11850681155920029, 0.1198858693242073, -0.16303585469722748, 0.10091760754585266, 0.094406358897686, 0.13836391270160675, -0.015476221218705177, 0.21238970756530762, 0.17016801238059998, 0.07009429484605789, -0.10388042777776718, -0.11294113099575043, 0.04852418601512909, 0.2674976587295532, 0.013697236776351929, 0.4030517339706421, 0.1092570349574089, 0.035282958298921585, -0.018017016351222992], [-0.12082251906394958, 0.09798107296228409, -0.10094473510980606, 0.20944413542747498, 0.43193289637565613, 0.015857717022299767, -0.38659536838531494, -0.12705375254154205, 0.10831056535243988, -0.14915060997009277, 0.23012660443782806, -0.19423256814479828, -0.16247831284999847, 0.11169812083244324, 0.12412270158529282, -0.07396317273378372, -0.5108509659767151, -0.0039622168987989426, -0.2884315252304077, 0.19566361606121063, -0.03435266762971878, 0.142127126455307, -0.35004913806915283, -0.05208531394600868, 0.35015562176704407, 0.0679890438914299, -0.030010558664798737, -0.046584539115428925, 0.14472715556621552, 0.03150039166212082, -0.06322786957025528, 0.1393001526594162, 0.13853517174720764, 0.10662921518087387, 0.31438225507736206, 0.026112938299775124, 0.2513982951641083, -0.0505032017827034, 0.25880616903305054, 0.10429240763187408, -0.2900027334690094, -0.12231896072626114, -0.15396881103515625, 0.4136354625225067, 0.06235884875059128, 0.07324759662151337, -0.1554989069700241, 0.09651655703783035, 0.06966433674097061, 0.1326572597026825, 0.14205339550971985, -0.09431778639554977, 0.1029970645904541, -0.06121103838086128, 0.07778554409742355, 0.010921559296548367, -0.2553194463253021, -0.15771688520908356, -0.0948815643787384, -0.17914056777954102, -0.3651540279388428, 0.04098951816558838, -0.00016386991774197668, -0.1509615182876587], [0.1383669227361679, 0.07769551873207092, 0.19293877482414246, 0.023048480972647667, 0.13115809857845306, -0.2118157595396042, -0.11561264842748642, 0.15033970773220062, -0.17833487689495087, -0.31619295477867126, 0.11913225799798965, 0.013771630823612213, -0.3557247519493103, 0.23335634171962738, 0.2644692063331604, -0.09076909720897675, 0.1343216896057129, 0.15599074959754944, 0.2839243412017822, -0.14487247169017792, -0.12954309582710266, 0.1760987788438797, 0.07142326980829239, 0.324286550283432, 0.2758650779724121, 0.015102497301995754, -0.198088601231575, 0.028634676709771156, 0.13782277703285217, -0.06024220585823059, -0.29015445709228516, 0.06340230256319046, 0.012393989600241184, -0.036728765815496445, 0.15252476930618286, -0.06324796378612518, -0.07085961848497391, 0.2700471580028534, 0.21445755660533905, 0.20632946491241455, 0.10929889976978302, 0.2954099178314209, -0.270014226436615, 0.1804162859916687, -0.20773467421531677, -0.0725126713514328, 0.12156428396701813, -0.08228874951601028, -0.03286844491958618, -0.22764457762241364, -0.015281062573194504, -0.11492062360048294, 0.20651541650295258, -0.04372910037636757, 0.034844230860471725, 0.3484916687011719, -0.027144595980644226, -0.35279133915901184, 0.41014236211776733, -0.04279567301273346, 0.15765418112277985, 0.15620413422584534, -0.07140007615089417, 0.2185281366109848], [0.11620816588401794, -0.27402442693710327, 0.34916672110557556, -0.11136743426322937, -0.10080132633447647, 0.18495707213878632, -0.08602392673492432, -0.08504587411880493, -0.11611022800207138, -0.10124823451042175, 0.2383040189743042, 0.15957003831863403, 0.11980772763490677, -0.3916845917701721, -0.37126216292381287, 0.059213243424892426, 0.10410697758197784, 0.05059163272380829, -0.21815696358680725, -0.01907331496477127, -0.11364227533340454, 0.15083950757980347, 0.16841697692871094, -0.038377247750759125, 0.0040974984876811504, -0.08484110981225967, -0.17529526352882385, -0.07601022720336914, 0.12151266634464264, -0.16618041694164276, 0.1460660994052887, 0.2627701163291931, -0.46078020334243774, 0.2472873032093048, -0.3815367817878723, -0.04951242730021477, 0.1638837307691574, -0.15045073628425598, 0.23934617638587952, -0.05848494917154312, -0.21390384435653687, -0.2687355875968933, 0.48284658789634705, -0.18203692138195038, 0.03305346146225929, -0.3911881446838379, -0.0433313362300396, -0.09966226667165756, -0.18374568223953247, 0.5417835712432861, 0.13913360238075256, 0.27870282530784607, -0.03632683679461479, -0.08465509116649628, -0.07228809595108032, 0.019166234880685806, -0.09689676016569138, -0.22627010941505432, -0.08993426710367203, 0.09688206762075424, 0.29781779646873474, 0.0996340960264206, 0.09678563475608826, 0.1828620433807373], [0.088034987449646, -0.06123373657464981, 0.050273869186639786, -0.26617899537086487, 0.053832583129405975, 0.004013764206320047, 0.2364646941423416, -0.22850853204727173, 0.17281213402748108, -0.06297089159488678, 0.03977775201201439, 0.31361693143844604, -0.42838525772094727, -0.30284130573272705, -0.19556188583374023, 0.06768427044153214, -0.19714653491973877, -0.22868949174880981, 0.04107319936156273, -0.23461106419563293, -0.3602042496204376, -0.1122063472867012, 0.09178275614976883, 0.04717312008142471, -0.32569441199302673, 0.09639910608530045, 0.3095495104789734, -0.04690901190042496, -0.339436799287796, 0.07042337208986282, 0.21354839205741882, 0.4200191795825958, -0.16765359044075012, 0.3769061267375946, -0.16382017731666565, 0.1448904573917389, 0.2875889837741852, -0.31819677352905273, 0.16626881062984467, -0.27356255054473877, 0.2970956265926361, 0.03730512782931328, 0.199335977435112, -0.10116573423147202, 0.1714829057455063, -0.1771582067012787, 0.16350287199020386, 0.10447778552770615, -0.08653460443019867, -0.1423916220664978, 0.09155125170946121, 0.24156706035137177, 0.08688829094171524, -0.052880384027957916, -0.11082132160663605, 0.16317243874073029, -0.12297199666500092, 0.384723037481308, -0.028026079759001732, -0.22326865792274475, 0.23325103521347046, -0.26845771074295044, 0.1234305128455162, 0.008375445380806923], [-0.049129679799079895, -0.1651923507452011, -0.2292279601097107, -0.17812810838222504, -0.04155996814370155, -0.2208433598279953, -0.16068410873413086, -0.3029404282569885, -0.12032963335514069, -0.08179976046085358, 0.07650063186883926, 0.0838911235332489, -0.06841292232275009, 0.08955903351306915, -0.1326621174812317, 0.16198663413524628, 0.1469511091709137, 0.0034143475349992514, -0.30205345153808594, -0.048482902348041534, -0.2111259400844574, -0.06036057323217392, -0.2406132072210312, -0.10520144551992416, -0.20865191519260406, 0.08039283007383347, -0.10557499527931213, -0.10115561634302139, 0.3306763470172882, 0.2524644732475281, -0.49727216362953186, -0.019865581765770912, -0.08514055609703064, -0.18094423413276672, -0.00684115756303072, -0.017415329813957214, 0.15995292365550995, 0.3567403554916382, 0.0004150929453317076, 0.2555481195449829, -0.19295792281627655, 0.2188134789466858, -0.19115588068962097, -0.025302818045020103, 0.22111183404922485, -0.2644430100917816, 0.14512260258197784, -0.33265700936317444, -0.08006546646356583, -0.07977739721536636, -0.011481904424726963, 0.0408996157348156, -0.07339314371347427, 0.06476085633039474, 0.16154329478740692, -0.2953914999961853, -0.2972254455089569, -0.042407769709825516, -0.03952699527144432, -0.06977695971727371, 0.0774153396487236, -0.2615618109703064, -0.29473060369491577, -0.49131494760513306], [-0.02650832012295723, -0.21571587026119232, 0.2518633008003235, 0.06783436983823776, -0.17647318542003632, -0.04573443904519081, 0.2732294499874115, -0.2601553797721863, -0.30336228013038635, -0.015318835154175758, 0.20027603209018707, -0.13659828901290894, 0.13623186945915222, -0.2838742733001709, -0.23664282262325287, 0.44300320744514465, -0.13416741788387299, 0.08755986392498016, -0.4415398836135864, -0.26485899090766907, -0.2756757438182831, -0.10190044343471527, -0.008683370426297188, -0.2778875529766083, -0.028425225988030434, 0.4239094853401184, 0.07869434356689453, -0.17176593840122223, -0.179213747382164, 0.11125753819942474, 0.06522025913000107, -0.028835540637373924, -0.09858560562133789, 0.0717632845044136, -0.042511701583862305, 0.3115183115005493, -0.15537357330322266, 0.028345080092549324, -0.008961367420852184, -0.0362212173640728, 0.23459883034229279, 0.03463572636246681, 0.14604738354682922, 0.10946380347013474, 0.06898181140422821, 0.12205684930086136, 0.11238620430231094, 0.17601493000984192, 0.3954819440841675, 0.10621462017297745, 0.16003169119358063, -0.1879478245973587, 0.025122158229351044, -0.13662083446979523, -0.21774761378765106, 0.3004550337791443, 0.004570146556943655, 0.19830439984798431, -0.0007176326471380889, 0.14030735194683075, 0.08973293006420135, 0.3873717486858368, -0.12086725980043411, 0.17619077861309052], [-0.017771132290363312, -0.14001566171646118, 0.036258846521377563, 0.24256233870983124, -0.3350500762462616, 0.29736387729644775, -0.02121705748140812, -0.357776015996933, -0.06431130319833755, -0.3904537558555603, -0.06288353353738785, 0.2525264322757721, 0.13788533210754395, -0.15753738582134247, -0.07608318328857422, -0.37107136845588684, -0.2093733251094818, -0.1399669349193573, -0.10570704191923141, -0.10546492785215378, -0.1192435473203659, -0.040971096605062485, -0.02000374160706997, 0.02660021372139454, -0.060955654829740524, 0.30601704120635986, 0.2792239487171173, -0.0871521607041359, -0.27641522884368896, 0.15550023317337036, -0.003246873617172241, 0.16103734076023102, -0.1089501604437828, -0.2236001044511795, 0.053010713309049606, -0.034189604222774506, 0.09589682519435883, -0.178722083568573, -0.20669624209403992, -0.05103248357772827, -0.05925804749131203, 0.062073178589344025, 0.04884394630789757, -0.07436516880989075, -0.34393996000289917, -0.12598039209842682, -0.3696594834327698, 0.04791533201932907, -0.14125655591487885, 0.23774923384189606, 0.20493409037590027, -0.18790709972381592, 0.034551095217466354, 0.31044334173202515, -0.01808338426053524, -0.04308604821562767, -0.07736808061599731, 0.1110650897026062, 0.233117938041687, 0.04841098189353943, 0.5489767789840698, 0.058921609073877335, 0.11824550479650497, -0.18368206918239594], [-0.03042280673980713, -0.1299430876970291, 0.1419999599456787, -0.0777224451303482, 0.4512403607368469, 0.18238821625709534, 0.21371029317378998, -0.048674795776605606, -0.026451285928487778, 0.11846943944692612, 0.29539433121681213, -0.3573051691055298, -0.2664051651954651, -0.09261023253202438, -0.3481842577457428, -0.1631079614162445, -0.1427827924489975, 0.10867846012115479, 0.03389992192387581, -0.099280446767807, 0.06207496300339699, -0.12527276575565338, -0.31164655089378357, -0.11239219456911087, -0.2734622061252594, -0.01016466598957777, -0.14992119371891022, -0.043630994856357574, -0.0680646002292633, 0.03365490585565567, -0.008929911069571972, -0.2314981073141098, -0.17270012199878693, -0.13202020525932312, 0.013668427243828773, 0.0025396659038960934, 0.18004174530506134, 0.16673481464385986, -0.1935056447982788, 0.48943036794662476, -0.2942945957183838, 0.17127543687820435, -0.13747109472751617, -0.16550299525260925, -0.48358964920043945, -0.0990210697054863, -0.06983467191457748, -0.1359902322292328, -0.15909862518310547, -0.13374057412147522, -0.15917861461639404, 0.03889807313680649, -0.0988169014453888, 0.037683483213186264, 0.17443197965621948, 0.1009519025683403, -0.44620394706726074, 0.14191743731498718, 0.14997071027755737, 0.037939537316560745, -0.2811758816242218, 0.1849147379398346, 0.3719504177570343, -0.17027948796749115], [-0.01130623184144497, -0.008563609793782234, 0.030555853620171547, 0.18459123373031616, 0.2932252585887909, -0.15170298516750336, 0.1012924313545227, 0.24004033207893372, -0.09191180020570755, 0.10527234524488449, -0.03897055983543396, -0.14914068579673767, 0.21888861060142517, 0.29456645250320435, 0.08527670800685883, -0.24063032865524292, 0.1511068046092987, 0.0893750786781311, -0.21479837596416473, -0.016505829989910126, -0.13664747774600983, -0.034769751131534576, 0.19590774178504944, -0.08194395154714584, -0.05173954367637634, 0.20471173524856567, -0.464046835899353, -0.16770504415035248, 0.0682777389883995, -0.11524038016796112, 0.18894866108894348, 0.22634024918079376, 0.1314384788274765, -0.0325152650475502, 0.09004030376672745, 0.0974331945180893, 0.19277691841125488, -0.1917436420917511, -0.024469919502735138, -0.2819136381149292, -0.09647443145513535, 0.06215817481279373, -0.3014240264892578, -0.14544521272182465, 0.09660469740629196, -0.3175271153450012, -0.20574307441711426, 0.1128905713558197, -0.10348310321569443, -0.43431904911994934, -0.20124997198581696, -0.15771421790122986, -0.2544267177581787, -0.15619926154613495, -0.045680128037929535, -0.1478131115436554, -0.1167144700884819, -0.23446689546108246, 0.2584957778453827, -0.18743526935577393, -0.09707888215780258, 0.21655257046222687, -0.20688940584659576, -0.2664701044559479], [-0.2567983567714691, 0.05615774914622307, -0.2941559851169586, -0.15617486834526062, 0.3312694728374481, -0.1573498398065567, 0.1276596188545227, 0.3621220588684082, -0.12852944433689117, -0.29535314440727234, -0.2115018367767334, 0.24337045848369598, 0.26592910289764404, 0.14623264968395233, 0.48705223202705383, 0.2576594352722168, -0.11339449137449265, 0.16183651983737946, 0.15068086981773376, -0.17904813587665558, 0.4951561689376831, -0.0949707180261612, 0.2827680706977844, -0.046185899525880814, 0.0704030692577362, -0.051924120634794235, 0.04077666625380516, 0.0848093181848526, 0.16968156397342682, 0.17357374727725983, -0.19799953699111938, 0.08388347178697586, -0.03638574853539467, -0.12102233618497849, -0.22203324735164642, -0.20615267753601074, -0.12488292902708054, 0.3871363401412964, 0.02710524946451187, -0.3281280994415283, 0.19975577294826508, -0.12131620943546295, 0.11660508066415787, -0.05074590444564819, 0.37703463435173035, 0.20766279101371765, -0.6114870309829712, 0.003885000478476286, -0.26236334443092346, -0.23714713752269745, 0.13123689591884613, -0.22634615004062653, 0.29014912247657776, -0.044330064207315445, -0.04302484542131424, 0.13043095171451569, 0.17033511400222778, 0.020222356542944908, -0.1415431946516037, -0.31566548347473145, -0.27342191338539124, 0.2429925501346588, 0.18205873668193817, 0.3359983563423157], [0.30872929096221924, 0.23502899706363678, 0.47361859679222107, -0.021266154944896698, -0.2835303544998169, -0.02577013522386551, 0.29421183466911316, 0.15719608962535858, 0.10512182861566544, 0.1438591629266739, -0.05890396237373352, 0.2853808104991913, -0.2077772617340088, -0.2524552345275879, 0.118085116147995, 0.00576799176633358, -0.30212435126304626, -0.24254007637500763, -0.18472938239574432, -0.1893680840730667, -0.45699992775917053, -0.115261971950531, -0.12250447273254395, -0.29617738723754883, -0.26340165734291077, -0.033516403287649155, -0.014186901971697807, -0.4043344259262085, -0.04313746467232704, 0.27822643518447876, -0.134902685880661, 0.21139207482337952, -0.002212708117440343, 0.3356938362121582, 0.05350329354405403, 0.19639024138450623, 0.047856129705905914, -0.24339333176612854, -0.056860122829675674, 0.2633209824562073, -0.14802974462509155, 0.07552579045295715, -0.04790641739964485, -0.1105164885520935, -0.14285241067409515, -0.046915944665670395, -0.043139416724443436, -0.30680158734321594, 0.09300658106803894, 0.49434682726860046, 0.06254241615533829, 0.30894240736961365, -0.27423834800720215, -0.042637381702661514, -0.039967600256204605, -0.034633979201316833, 0.14016921818256378, -0.1320183128118515, -0.2520921528339386, 0.12261701375246048, 0.23729246854782104, 0.21103401482105255, 0.30893635749816895, -0.37688422203063965], [0.0987485721707344, 0.005873063113540411, -0.08317932486534119, -0.33913734555244446, 0.16289426386356354, 0.08693411946296692, 0.09339924901723862, -0.23389531672000885, 0.08732014894485474, -0.22487756609916687, 0.15082193911075592, -0.14357683062553406, 0.15271227061748505, 0.021691538393497467, 0.15556547045707703, -0.06021321564912796, 0.32644277811050415, -0.13336379826068878, -0.1598324030637741, -0.1475852131843567, -0.09223601222038269, -0.029946496710181236, 0.1225154921412468, -0.06966593116521835, -0.006870724726468325, 0.09537182748317719, -0.03952883183956146, 0.11599750071763992, -0.29847198724746704, 0.14768750965595245, 0.009118450805544853, 0.18080151081085205, 0.014249647036194801, 0.05758577585220337, -0.4111741781234741, 0.2083665281534195, -0.18376784026622772, -0.43181535601615906, -0.20068904757499695, -0.111419178545475, -0.198344424366951, -0.34943604469299316, -0.2259063720703125, 0.08753051608800888, 0.05077163130044937, 0.3221193253993988, 0.3208046853542328, -0.30907419323921204, -0.07514628767967224, 0.10605606436729431, 0.2863217294216156, 0.11095231026411057, 0.21032358705997467, 0.177303284406662, 0.14909422397613525, 0.16133446991443634, 0.13587962090969086, -0.08389180153608322, 0.11983426660299301, -0.03534373641014099, 0.01831728406250477, 0.011357073672115803, 0.08739930391311646, 0.039689816534519196], [0.11051835864782333, 0.20956450700759888, -0.016052521765232086, -0.16828428208827972, -0.2547723650932312, 0.45717525482177734, 0.4423495829105377, -0.2040022909641266, -0.24716277420520782, 0.2983250319957733, 0.04895244538784027, 0.2239644080400467, -0.14786437153816223, -0.12424059957265854, -0.03647806495428085, 0.19346603751182556, 0.13203486800193787, -0.15809953212738037, 0.047159917652606964, 0.17887698113918304, -0.49790966510772705, -0.39446309208869934, 0.16155235469341278, -0.012303085066378117, 0.16985665261745453, 0.08103673905134201, -0.09190338850021362, -0.03000136837363243, -0.1723422110080719, 0.1250952184200287, -0.06960760056972504, 0.06008642166852951, -0.14851030707359314, -0.13994364440441132, 0.011647426523268223, 0.2013421505689621, -0.11260633170604706, -0.007679837755858898, 0.2068752646446228, -0.1748354434967041, -0.3851267099380493, -0.13275836408138275, 0.17890581488609314, 0.48524296283721924, -0.2887037992477417, -0.15238554775714874, -0.21132813394069672, 0.08957230299711227, -0.04261576011776924, 0.35289448499679565, 0.10788961499929428, 0.1811882108449936, -0.23135294020175934, -0.11977540701627731, 0.088152676820755, 0.0009808600880205631, -0.16707387566566467, 0.296443909406662, 0.2779776155948639, 0.005574775859713554, -0.07541346549987793, -0.24987217783927917, 0.03387012332677841, 0.012195841409265995], [-0.0748787522315979, 0.10543277859687805, -0.5997050404548645, 0.25838232040405273, -0.023770703002810478, -0.20882189273834229, -0.1546650230884552, 0.0870889276266098, -0.02230486460030079, 0.010685005225241184, -0.06818535923957825, 0.04299714043736458, -0.03280235454440117, 0.2194206565618515, -0.19618704915046692, 0.08686907589435577, -0.044931810349226, 0.14245042204856873, 0.26618582010269165, -0.19296620786190033, -0.15787002444267273, 0.37177005410194397, -0.2565910220146179, -0.10312584042549133, -0.028588654473423958, 0.2878185212612152, -0.22677861154079437, -0.20167028903961182, 0.036443743854761124, -0.23313423991203308, -0.08551138639450073, -0.053562719374895096, 0.06375110894441605, 0.07948346436023712, -0.20513606071472168, -0.22771398723125458, -0.21318016946315765, -0.016359446570277214, 0.19470949470996857, 0.1273471713066101, -0.13753296434879303, 0.29010748863220215, -0.26274389028549194, 0.018026407808065414, -0.07314608246088028, 0.11933020502328873, -0.13767743110656738, 0.012929323129355907, -0.0833858996629715, -0.2447039633989334, 0.14409559965133667, -0.16221916675567627, -0.1169935092329979, -0.05594635382294655, 0.030375374481081963, -0.07636358588933945, -0.3150346875190735, -0.2791976034641266, 0.056047473102808, 0.5419154763221741, -0.3892348110675812, -0.15716888010501862, 0.26374250650405884, -0.061726223677396774], [-0.08239971846342087, 0.0729135200381279, -0.024452289566397667, -0.10019874572753906, 0.48364493250846863, -0.10964446514844894, -0.08844364434480667, -0.16915547847747803, -0.25330406427383423, 0.015593604184687138, 0.14998222887516022, -0.064512699842453, 0.11960374563932419, 0.011142538860440254, -0.04782256856560707, -0.20504701137542725, -0.0038134148344397545, 0.04470854625105858, 0.13973894715309143, -0.027482392266392708, -0.1854214370250702, -0.07765273749828339, -0.48647865653038025, 0.056998491287231445, 0.17390640079975128, -0.22301550209522247, 0.048413850367069244, -0.36664676666259766, 0.015246929600834846, -0.009869749657809734, -0.06817158311605453, 0.08561830222606659, 0.07974753528833389, 0.08445175737142563, 0.05752318352460861, -0.12253302335739136, -0.2983369827270508, 0.014353932812809944, -0.3849622309207916, 0.2002817988395691, -0.16245487332344055, 0.14354145526885986, -0.3709661662578583, -0.1345122903585434, -0.08026345819234848, -0.17463040351867676, -0.20192360877990723, 0.0759015828371048, 0.13151131570339203, 0.030772753059864044, -0.18692854046821594, -0.2512054145336151, 0.0008950052433647215, -0.5452369451522827, 0.10621194541454315, -0.2747562825679779, -0.018388744443655014, -0.08202241361141205, -0.13345034420490265, 0.10264536738395691, 0.14170880615711212, -0.39026519656181335, -0.15274491906166077, 0.291086882352829], [0.20347213745117188, -0.4357597231864929, 0.4191914200782776, -0.1761806458234787, 0.029739689081907272, 0.16342367231845856, 0.06261680275201797, 0.06755644083023071, -0.1939285397529602, -0.00433429004624486, -0.03978243097662926, 0.12899555265903473, 0.19816239178180695, -0.3871345818042755, 0.03570845350623131, -0.16746069490909576, -0.061827078461647034, -0.10856637358665466, 0.2893576920032501, 0.0980820432305336, -0.1388235092163086, -0.13012857735157013, -0.12892043590545654, -0.06795123219490051, -0.3853553831577301, 0.2494570016860962, 0.2688947916030884, 0.2367822527885437, 0.15800762176513672, -0.04700575768947601, 0.15458202362060547, 0.05304654687643051, -0.1284034252166748, 0.1603732705116272, -0.19259250164031982, -0.2679198980331421, -0.43398410081863403, -0.2002028524875641, 0.25511854887008667, -0.24634577333927155, 0.2210102528333664, -0.11344362050294876, 0.05695999413728714, 0.3701043725013733, 0.12295354157686234, -0.06609096378087997, -0.04308542236685753, -0.17581839859485626, 0.29835107922554016, 0.0920686349272728, 0.02376495487987995, -0.062088463455438614, -0.06647218763828278, 0.20384909212589264, 0.03154962882399559, 0.1312095820903778, 0.11275167763233185, -0.010866107419133186, 0.024690862745046616, -0.19422505795955658, -0.05167434364557266, -0.08962372690439224, 0.07628034800291061, -0.3059191405773163], [-0.04953086003661156, 0.11279665678739548, 0.07488502562046051, -0.025836117565631866, -0.20770682394504547, -0.30841806530952454, 0.00723228557035327, 0.04146718606352806, 0.29388466477394104, -0.4331168830394745, 0.14126117527484894, -0.010252626612782478, -0.3124886155128479, -0.3582644760608673, -0.1531999409198761, -0.14989693462848663, -0.08098803460597992, -0.42317211627960205, -0.22984258830547333, -0.03557023033499718, -0.19205506145954132, -0.23070430755615234, -0.03570976480841637, 0.03014666773378849, -0.23366598784923553, -0.05778389424085617, -0.34293684363365173, -0.2035396844148636, -0.27480611205101013, 0.07393056899309158, 0.0712708905339241, -0.14504051208496094, -0.2777412533760071, 0.05575283244252205, -0.03349500522017479, -0.2449655383825302, -0.25581270456314087, -0.22066958248615265, -0.08599870651960373, 0.06647395342588425, -0.3912120759487152, 0.08551186323165894, 0.024054158478975296, 0.0025687620509415865, -0.14243236184120178, -0.5354341864585876, 0.24084724485874176, -0.0240744911134243, 0.489351361989975, 0.37744954228401184, 0.16716411709785461, 0.07060527056455612, -0.19159941375255585, -0.11607043445110321, 0.15862715244293213, -0.2825271189212799, -0.21308954060077667, 0.45620235800743103, 0.1829117387533188, 0.1188870221376419, -0.03362506628036499, 0.25088196992874146, 0.047689288854599, -0.1532965749502182], [-0.18415461480617523, -0.25556379556655884, 0.14921285212039948, 0.03218742832541466, 0.1689731925725937, 0.019231721758842468, -0.2842150926589966, 0.20760022103786469, -0.2508348226547241, -0.26569363474845886, 0.08738933503627777, 0.17862646281719208, 0.0991123616695404, 0.40366849303245544, -0.23668497800827026, 0.11517629027366638, -0.06249384582042694, -0.1261426955461502, 0.014340564608573914, 0.23217540979385376, -0.30677908658981323, 0.09803362935781479, -0.03271246328949928, 0.24917800724506378, 0.13671022653579712, -0.3895091414451599, -0.28052741289138794, -0.16093739867210388, -0.555516242980957, 0.032444197684526443, 0.007149666082113981, -0.2271951287984848, 0.04756902530789375, 0.043371543288230896, 0.20585127174854279, -0.1726011484861374, 0.23511843383312225, 0.2009710669517517, 0.005976123735308647, 0.3206895589828491, -0.1635560691356659, 0.12420295178890228, -0.36689120531082153, -0.15994466841220856, 0.21079762279987335, 0.056424062699079514, 0.08928418904542923, -0.03953342139720917, 0.08255007863044739, 0.023157771676778793, -0.0048690540716052055, -0.1713491976261139, -0.4297406077384949, -0.0720716342329979, -0.016002779826521873, 0.0790766179561615, -0.2796097695827484, 0.05179983749985695, -0.005585805047303438, 0.1077629029750824, -0.14104673266410828, -0.19564788043498993, 0.13662917912006378, -0.3380993604660034], [-0.11594287306070328, 0.0802755206823349, 0.22620214521884918, -0.1806095838546753, -0.0007578391814604402, -0.08429348468780518, -0.12390138953924179, -0.024744093418121338, 0.018248094245791435, -0.1596180945634842, -0.014669871889054775, -0.11363742500543594, -0.09805934876203537, 0.11907649785280228, 0.050470020622015, 0.11209624260663986, -0.27363577485084534, -0.24864180386066437, 0.36147716641426086, 0.07613411545753479, -0.0331801101565361, 0.15040110051631927, 0.19950711727142334, -0.3605671226978302, -0.01751583069562912, -0.0946265161037445, -0.02361801266670227, -0.1743049919605255, 0.08977723866701126, -0.04793741554021835, 0.11357693374156952, -0.22537733614444733, 0.15575045347213745, 0.05467723309993744, 0.036761313676834106, -0.0004123819526284933, -0.2501540184020996, 0.24193313717842102, -0.1819298267364502, -0.17802144587039948, -0.19037103652954102, -0.11285977065563202, 0.20717185735702515, -0.07609594613313675, -0.08238817751407623, 0.24853694438934326, -0.020077571272850037, 0.19520515203475952, -0.22002097964286804, -0.2064390629529953, -0.03896740451455116, 0.05237213149666786, 0.23542849719524384, -0.0024301030207425356, -0.09783273935317993, -0.11944165080785751, -0.4908505976200104, -0.31737977266311646, 0.1435611993074417, 0.02858506701886654, -0.009663905017077923, -0.016134146600961685, -0.46553105115890503, -0.08299211412668228], [0.16402195394039154, 0.01706855557858944, 0.10439544171094894, -0.14751596748828888, -0.06778332591056824, 0.09629721194505692, 0.012865172699093819, 0.12428887188434601, 0.08284427970647812, 0.09887054562568665, 0.12149687856435776, 0.12523488700389862, 0.23946495354175568, 0.25231215357780457, 0.23690707981586456, 0.04066084325313568, 0.026891011744737625, -0.08381655067205429, -0.18231482803821564, -0.000406373554142192, -0.018470466136932373, -0.14288230240345, -0.059120822697877884, 0.015544343739748001, -0.6710480451583862, 0.06353386491537094, 0.22340817749500275, 0.09270435571670532, -0.28597116470336914, 0.2866496443748474, 0.0830119252204895, -0.16243226826190948, -0.18875715136528015, -0.1130189299583435, -0.23100094497203827, -0.1536232829093933, 0.2658211886882782, -0.08931878954172134, 0.13451556861400604, -0.35634902119636536, 0.16439266502857208, -0.008569924160838127, 0.050269681960344315, 0.4128771126270294, -0.26972365379333496, -0.11514879018068314, -0.03956646844744682, -0.03277251124382019, -0.014528530649840832, 0.21745942533016205, -0.04142742231488228, 0.20091566443443298, 0.14436134696006775, 0.08175257593393326, -0.223587304353714, 0.1285621076822281, 0.03800502419471741, -0.0931190550327301, -0.23542052507400513, 0.2044651061296463, 0.07175241410732269, 0.14045321941375732, -0.3179679811000824, 0.48816850781440735], [-0.09668799489736557, 0.06404830515384674, 0.038252588361501694, -0.3825201094150543, -0.17047299444675446, -0.03819643706083298, 0.4393397271633148, -0.2385481894016266, -0.17881295084953308, -0.042252346873283386, -0.2610130310058594, -0.0639735758304596, -0.13819043338298798, 0.027236970141530037, 0.1420343518257141, -0.1262539178133011, -0.24048006534576416, -0.028159944340586662, 0.002373834839090705, 0.14168375730514526, 0.12253982573747635, 0.19887004792690277, -0.15700627863407135, -0.050926245748996735, -0.019652705639600754, -0.2555201053619385, -0.2667405307292938, 0.3088667094707489, -0.06594691425561905, -0.44285473227500916, 0.005381613038480282, 0.12123982608318329, -0.017116032540798187, -0.30049458146095276, -0.07221155613660812, -0.04026622697710991, 0.07300329208374023, -0.05835375189781189, 0.20382627844810486, -0.100849449634552, 0.14532442390918732, 0.09046383947134018, -0.045926038175821304, 0.22130146622657776, 0.2790159583091736, 0.11224790662527084, 0.07422063499689102, 0.05870860069990158, -0.2133045643568039, -0.1769409477710724, 0.0031097845640033484, -0.372202068567276, -0.003513145726174116, 0.17475023865699768, 0.02453594282269478, -0.21207599341869354, 0.10443298518657684, -0.14420829713344574, -0.38203248381614685, -0.039434764534235, 0.14867165684700012, 0.2872776985168457, -0.0141994534060359, 0.3273211419582367], [-0.155595064163208, 0.0996960699558258, 0.09596586972475052, -0.26380231976509094, -0.2088128626346588, -0.061117447912693024, -0.05397352948784828, -0.07107610255479813, 0.09442216902971268, 0.33503594994544983, -0.004887501243501902, 0.23650607466697693, 0.1847795844078064, -0.10227551311254501, -0.2029617577791214, 0.04187704622745514, -0.09534776210784912, -0.15953490138053894, -0.01068025827407837, -0.047725144773721695, 0.16827598214149475, -0.05638931319117546, 0.17306114733219147, -0.11801517009735107, 0.36413314938545227, -0.10836896300315857, 0.2835991084575653, 0.008170537650585175, 0.11120305955410004, 0.2792401611804962, -0.04470159113407135, -0.11525530368089676, -0.19004856050014496, -0.010447438806295395, -0.04805869236588478, -0.20751872658729553, 0.16362231969833374, -0.34136801958084106, 0.2951056957244873, -0.27257001399993896, 0.1254168003797531, 0.0939367264509201, -0.025207415223121643, -0.15306761860847473, -0.20915472507476807, 0.09274659305810928, 0.11896255612373352, -0.41384539008140564, 0.12846100330352783, -0.21359963715076447, -0.02651037462055683, -0.3775951564311981, 0.06304634362459183, 0.03789316117763519, -0.2062375396490097, -0.11009674519300461, 0.047511614859104156, -0.21995291113853455, 0.18721091747283936, -0.36677199602127075, -0.1689438819885254, 0.11819931864738464, 0.02254103496670723, 0.32677537202835083], [-0.15432590246200562, 0.1858120709657669, 0.09109177440404892, -0.043825890868902206, -0.1786869615316391, -0.31438690423965454, 0.10367433726787567, -0.02657749503850937, -0.07195624709129333, 0.39083170890808105, 0.11476662755012512, 0.004546888638287783, 0.1671026647090912, -0.0029677811544388533, -0.38500845432281494, -0.047888897359371185, -0.05986596643924713, -0.11349193006753922, -0.03909355029463768, 0.16707675158977509, 0.03793611377477646, -0.04253566265106201, 0.1414593607187271, 0.11463931202888489, -0.20377257466316223, -0.04558927193284035, 0.25501325726509094, 0.24671387672424316, -0.023271186277270317, -0.08989647775888443, -0.0792490616440773, 0.0934821367263794, 0.20117096602916718, 0.22275809943675995, -0.008655132725834846, -0.23519635200500488, 0.031968895345926285, -0.09265903383493423, -0.16957607865333557, -0.03615615889430046, -0.1946498304605484, 0.09157384932041168, 0.12062346190214157, 0.31816932559013367, 0.40244004130363464, -0.10731301456689835, -0.3386748433113098, 0.01042924914509058, -0.014205737970769405, -0.1767081916332245, 0.3339373767375946, 0.3149348795413971, 0.3526698350906372, 0.2133016139268875, -0.11072278767824173, 0.2930116057395935, 0.32073771953582764, 0.007103425450623035, 0.19416262209415436, -0.05963081493973732, 0.186211958527565, 0.19059456884860992, -0.014109739102423191, 0.23742780089378357], [-0.277317613363266, -0.35407647490501404, -0.05041450634598732, 0.03320622444152832, 0.06129146367311478, 0.16238714754581451, 0.13958825170993805, -0.07492592185735703, 0.48003536462783813, -0.10217740386724472, -0.013578592799603939, 0.020560970529913902, -0.0812826156616211, 0.18753717839717865, 0.08949530124664307, 0.012466754764318466, 0.0882422924041748, 0.11219016462564468, -0.3201599419116974, 0.03781913220882416, -0.03119886852800846, 0.11199887096881866, -0.007838491350412369, 0.39840540289878845, 0.005689001642167568, 0.04423575848340988, -0.15586057305335999, -0.24032407999038696, 0.13963988423347473, -0.15634110569953918, -0.3710498511791229, -0.3020651340484619, -0.0037628463469445705, 0.20339161157608032, 0.1255200207233429, -0.27632203698158264, -0.19815362989902496, 0.04624297469854355, -0.07256072759628296, -0.06705636531114578, -0.16662314534187317, 0.044517386704683304, 0.06156964972615242, 0.009138066321611404, -0.1735464334487915, 0.2970796823501587, -0.11794474720954895, 0.23782777786254883, -0.0007792329415678978, -0.5455932021141052, -0.013365847989916801, -0.012403604574501514, -0.14166727662086487, -0.15094809234142303, 0.01823778636753559, 0.05630018189549446, 0.13089993596076965, -0.3874117434024811, -0.28292906284332275, -0.2279473841190338, 0.0060039605014026165, -0.11776687204837799, 0.07526617497205734, 0.04312193766236305], [0.04161906987428665, -0.05579933151602745, -0.15402860939502716, 0.2303563356399536, 0.13049961626529694, -0.009406911209225655, -0.07502762228250504, 0.16363045573234558, 0.06335514783859253, -0.030384346842765808, -0.07878638058900833, -0.31957489252090454, -0.2511323094367981, -0.021206559613347054, -0.2518482506275177, -0.30741140246391296, 0.1702386736869812, 0.277704119682312, 0.23950524628162384, 0.02224266156554222, -0.38837411999702454, -0.15105044841766357, -0.23992213606834412, -0.2974327802658081, 0.20045769214630127, -0.10579515993595123, 0.06282062083482742, -0.795502245426178, -0.3919767141342163, 0.1550518274307251, -0.04320790246129036, 0.0579809732735157, 0.037327226251363754, -0.11846811324357986, -0.15986743569374084, -0.1582949310541153, 0.2199489027261734, 0.19857819378376007, 0.2936115562915802, 0.1899319440126419, -0.4847332239151001, 0.08329351246356964, 0.0617273710668087, -0.030545029789209366, -0.15288813412189484, -0.1789415180683136, 0.23094043135643005, 0.0780651867389679, 0.3405977189540863, 0.0366254523396492, -0.012981580570340157, 0.004967908374965191, -0.16128867864608765, 0.2611410617828369, 0.3757341802120209, -0.01982097141444683, -0.1362799108028412, 0.09022931754589081, -0.21272195875644684, -0.014191004447638988, 0.1287081092596054, 0.06323987245559692, -0.1758924126625061, -0.24375185370445251], [0.2876240909099579, -0.10960505157709122, -0.12687599658966064, -0.2672417163848877, -0.14136245846748352, 0.13103865087032318, 0.07638780027627945, 0.15276308357715607, -0.12865190207958221, 0.13698908686637878, -0.05574369430541992, -0.19574454426765442, 0.1553829163312912, -0.32137706875801086, 0.05441926419734955, 0.02562525123357773, -0.1890597939491272, -0.10267847031354904, -0.21498912572860718, -0.35084185004234314, -0.06577323377132416, -0.03594474121928215, -0.02749195694923401, -0.13119547069072723, 0.017890555784106255, -0.20513208210468292, 0.03072110004723072, -0.2018149048089981, -0.37859630584716797, -0.18229025602340698, -0.0005942881107330322, -0.519517719745636, 0.09797883778810501, 0.28176483511924744, -0.17129863798618317, 0.26881223917007446, 0.16362689435482025, -0.2814972698688507, 0.06242143362760544, 0.10772508382797241, -0.11424747109413147, 0.06415152549743652, 0.3705894351005554, 0.3866320848464966, -0.25010964274406433, -0.41569948196411133, -0.019008859992027283, -0.20505984127521515, -0.01738240011036396, 0.19661842286586761, 0.2675043046474457, -0.11105723679065704, 0.05875391885638237, -0.21614202857017517, 0.14103782176971436, 0.10128498822450638, -0.028520865365862846, 0.2152472883462906, 0.18770474195480347, 0.00869340356439352, 0.41274741291999817, -0.15986396372318268, -0.00866689719259739, -0.4310760498046875], [-0.13862888514995575, 0.12096080183982849, 0.065184086561203, -0.14407314360141754, 0.4764965772628784, -0.2728726267814636, -0.09021701663732529, -0.07694552093744278, 0.23352064192295074, -0.02040260098874569, -0.022833488881587982, 0.2733272612094879, 0.11999591439962387, -0.2804025113582611, -0.07002608478069305, 0.06257909536361694, 0.054748546332120895, -0.0870450809597969, 0.09096302837133408, 0.16810263693332672, -0.12472689896821976, 0.3225538432598114, -0.046902306377887726, 0.13241790235042572, 0.07816126942634583, -0.03393419086933136, 0.0955376923084259, -0.14477503299713135, 0.04128503426909447, 0.19476161897182465, -0.10758250951766968, -0.1171870082616806, -0.07469094544649124, -0.14141631126403809, 0.0038501624949276447, 0.3388742506504059, 0.0032894876785576344, -0.09794696420431137, -0.04628472775220871, 0.06377969682216644, 0.2637917101383209, -0.0784456804394722, 0.21079856157302856, 0.26068344712257385, -0.15207509696483612, -0.19938606023788452, -0.030377864837646484, 0.12805776298046112, -0.18517133593559265, -0.10801836103200912, 0.015169673599302769, -0.038492146879434586, -0.4623274803161621, 0.1875389814376831, 0.27221959829330444, 0.061231911182403564, 0.1699434518814087, 0.04385359212756157, 0.08213505893945694, 0.3486306965351105, -0.03867962211370468, 0.21438784897327423, -0.14215324819087982, -0.07247413694858551], [-0.1764903962612152, 0.4675886631011963, 0.2263752818107605, -0.1663949340581894, -0.06813444197177887, 0.11719755083322525, 0.16114813089370728, 0.011284703388810158, -0.1321392059326172, -0.000335846038069576, 0.2995304465293884, 0.09887823462486267, 0.26131460070610046, -0.2000022828578949, 0.45910876989364624, -0.08141408860683441, 0.13658054172992706, 0.08076942712068558, 0.023028813302516937, -0.2380249798297882, 0.03731796145439148, 0.4664153456687927, 0.3591485619544983, 0.1422327756881714, -0.0033241412602365017, 0.404619961977005, 0.17638184130191803, 0.05770397186279297, 0.14458754658699036, -0.2664506137371063, 0.023295678198337555, -0.01960248500108719, 0.1846703290939331, -0.10771581530570984, -0.07230496406555176, -0.576515793800354, 0.25143030285835266, -0.01977486163377762, -0.05635946989059448, 0.10461355745792389, 0.26320165395736694, -0.33099061250686646, 0.1825639009475708, 0.05448037013411522, 0.24320967495441437, 0.2685855031013489, -0.07087935507297516, -0.11662068963050842, -0.12498926371335983, -0.2685525417327881, 0.004546867683529854, -0.04352036118507385, 0.09350122511386871, 0.06693156063556671, -0.41018185019493103, -0.09963569045066833, 0.18280459940433502, 0.237464040517807, -0.1820603907108307, -0.1486985683441162, -0.21684114634990692, -0.07210283726453781, -0.1824946105480194, 0.21532687544822693], [0.22675056755542755, -0.26465100049972534, 0.08764509111642838, 0.022939741611480713, -0.16994456946849823, 0.2727092206478119, 0.37572622299194336, 0.3295785188674927, -0.11782205104827881, -0.10330089926719666, 0.002983252052217722, 0.043383222073316574, -0.0005755492602474988, -0.43714040517807007, -0.09030751138925552, -0.02584226243197918, -0.0448896549642086, -0.12181078642606735, 0.05647392198443413, -0.1685066968202591, -0.011628465726971626, -0.011008734814822674, 0.36908116936683655, 0.20254096388816833, -0.0020016564521938562, 0.04659408703446388, 0.5038657784461975, 0.026577191427350044, 0.2764945328235626, 0.1434580683708191, 0.021667858585715294, -0.21114078164100647, -0.17152142524719238, 0.0950174406170845, -0.010906115174293518, 0.2566695809364319, 0.1524476408958435, -0.2083211988210678, -0.13019593060016632, -0.2809096872806549, -0.2816716730594635, 0.10535749047994614, -0.20059625804424286, 0.2644004821777344, 0.3707612454891205, 0.10530198365449905, 0.07527723163366318, 0.04679867625236511, -0.32978591322898865, 0.09572704136371613, 0.09694981575012207, -0.08791190385818481, 0.1502143293619156, 0.1880209594964981, 0.015080899000167847, -0.13161611557006836, 0.22216032445430756, 0.15041860938072205, -0.05503733828663826, 0.19050705432891846, -0.16454832255840302, 0.12851375341415405, -0.236233651638031, 0.3367334306240082], [0.286121666431427, 0.1455758661031723, -0.26781216263771057, 0.056029655039310455, 0.5193763375282288, -0.04249424487352371, -0.14369690418243408, 0.30512940883636475, -0.030936826020479202, -0.12878265976905823, -0.0071618808433413506, 0.09350647777318954, -0.08597137033939362, 0.20393650233745575, -0.14815287292003632, 0.21308834850788116, -0.4049759805202484, -0.025877216830849648, -0.167207732796669, 0.06650602072477341, -0.135008305311203, 0.3521718978881836, -0.037945959717035294, 0.15818174183368683, -0.0643206536769867, 0.10879552364349365, -0.19313561916351318, -0.015033377334475517, 0.13311874866485596, -0.19160564243793488, 0.004895400255918503, -0.14173255860805511, 0.12818078696727753, -0.6795795559883118, 0.12255013734102249, -0.09969452768564224, -0.07951120287179947, 0.11601607501506805, 0.05765850096940994, -0.02109415829181671, -0.2179812341928482, 0.07116667926311493, 0.0608866885304451, -0.36372309923171997, 0.0658436119556427, 0.13977637887001038, 0.0405362993478775, 0.013731000944972038, 0.22314590215682983, -0.22912761569023132, -0.33530691266059875, -0.06077869236469269, 0.2970661520957947, 0.03373510390520096, -0.05513298138976097, -0.10191851854324341, 0.36400917172431946, -0.25962963700294495, 0.09932712465524673, -0.11529960483312607, -0.03289832919836044, -0.2722100615501404, 0.07978705316781998, 0.047627389430999756], [-0.0696101039648056, 0.020977681502699852, -0.26303228735923767, 0.044648684561252594, -0.05420142039656639, -0.1577540785074234, 0.16042236983776093, -0.041926316916942596, -0.04670797288417816, 0.07440568506717682, 0.3144450783729553, -0.16494621336460114, 0.06404915452003479, 0.011595765128731728, 0.4292605519294739, -0.023189490661025047, -0.12388189882040024, -0.011628490872681141, 0.320634126663208, -0.05926508456468582, 0.22508764266967773, 0.2344641536474228, -0.11822229623794556, 0.11061210930347443, 0.05736571177840233, 0.09975635260343552, 0.07862907648086548, 0.3163418769836426, -0.10297854989767075, 0.02477932535111904, -0.3159806728363037, -0.01759881153702736, -0.34122636914253235, 0.2119790017604828, -0.12354268878698349, 0.16336004436016083, 0.12539052963256836, -0.08890088647603989, -0.08397236466407776, -0.23528695106506348, -0.20001523196697235, 0.17567136883735657, 0.18294014036655426, -0.16191376745700836, 0.15082989633083344, -0.084062859416008, 0.02145843207836151, 0.21456798911094666, 0.13479936122894287, 0.21407675743103027, -0.32744935154914856, -0.08684171736240387, -0.237974151968956, 0.17485325038433075, -0.3743334710597992, 0.1504707783460617, 0.06846625357866287, -0.10592902451753616, 0.08044568449258804, -0.1371387243270874, -0.05264490097761154, -0.11911860853433609, -0.12763738632202148, -0.0023793720174580812], [-0.09204515814781189, -0.0810871571302414, 0.2499317079782486, -0.1946738213300705, -0.0901925265789032, -0.036602433770895004, 0.1613626331090927, 0.1865602433681488, -0.2121795415878296, 0.09965483099222183, 0.26387304067611694, 0.19378867745399475, -0.12909168004989624, -0.04240430146455765, -0.21135245263576508, 0.029896654188632965, 0.28938114643096924, -0.32699406147003174, -0.07246900349855423, -0.0752473920583725, 0.04452917352318764, 0.05757163092494011, -0.04323219880461693, 0.14407628774642944, -0.10878349840641022, 0.12358163297176361, 0.19211536645889282, 0.24579431116580963, -0.16365927457809448, 0.062136903405189514, 0.3144151270389557, 0.3214006721973419, 0.02123347856104374, 0.21576805412769318, -0.3742945194244385, 0.3360799551010132, -0.015241697430610657, 0.018360689282417297, 0.02033977583050728, -0.15858200192451477, -0.18616914749145508, 0.2658730149269104, 0.41697320342063904, 0.1672370731830597, -0.3578137159347534, 0.3805852234363556, -0.13935716450214386, -0.09258366376161575, 0.05848780274391174, 0.2348489612340927, 0.276125431060791, -0.10252649337053299, -0.017535362392663956, 0.07413801550865173, -0.18793782591819763, -0.31513193249702454, 0.25077101588249207, 0.17783167958259583, -0.1776987612247467, -0.13223674893379211, 0.15347668528556824, 0.16804379224777222, -0.12494169920682907, -0.2133057713508606], [-0.10627541691064835, 0.26893675327301025, -0.10021285712718964, 0.06333652138710022, -0.06345207244157791, 0.08024227619171143, 0.12516555190086365, 0.33806127309799194, -0.0590527318418026, 0.09885040670633316, 0.11342362314462662, 0.07867909222841263, 0.11668329685926437, 0.14622049033641815, -0.08499648422002792, -0.17630097270011902, 0.032366856932640076, -0.15643279254436493, -0.25655099749565125, -0.20858648419380188, 0.16043193638324738, 0.18527528643608093, -0.054345738142728806, 0.23199127614498138, 0.2216675579547882, -0.2920636832714081, 0.09791404008865356, 0.10530991852283478, 0.282698392868042, -0.017529001459479332, -0.055859796702861786, 0.22595281898975372, -0.32940202951431274, -0.19074088335037231, -0.1250249743461609, -0.21431706845760345, -0.04255643114447594, 0.06999348104000092, -0.09951643645763397, -0.14216263592243195, 0.3723074197769165, -0.08050601929426193, -0.0978815034031868, 0.14416617155075073, 0.0021707008127123117, 0.14160747826099396, 0.15271055698394775, 0.3831801116466522, 0.09749544411897659, -0.17038927972316742, -0.17849811911582947, -0.0108181806281209, 0.39362427592277527, -0.17246384918689728, 0.1511847972869873, 0.11614625155925751, -0.2601480484008789, -0.10273716598749161, -0.14141622185707092, 0.10645652562379837, -0.03540528938174248, 0.042994048446416855, -0.01979333721101284, -0.39304450154304504], [0.550436794757843, -0.319612592458725, 0.10955005884170532, -0.013539688661694527, -0.015456289984285831, -0.443522185087204, 0.12001808732748032, -0.0747980996966362, 0.2436872273683548, 0.03934970870614052, 0.07770682126283646, -0.07089115679264069, 0.07544881105422974, 0.024093398824334145, 0.2444576919078827, 0.05472048372030258, 0.1249682679772377, -0.18074671924114227, -0.1538870483636856, 0.15801672637462616, 0.13139303028583527, -0.011811108328402042, 0.1871158480644226, -0.058492038398981094, 0.1621246337890625, -0.06117929518222809, 0.30867800116539, 0.12048155069351196, 0.0065582203678786755, -0.029565216973423958, -0.023654470220208168, 0.34669825434684753, 0.005685825366526842, 0.01735834777355194, -0.03919809311628342, -0.2555420696735382, 0.14106932282447815, 0.23941300809383392, 0.02061757817864418, -0.11591806262731552, -0.03479178622364998, -0.21284912526607513, 0.1620856076478958, 0.22995416820049286, -0.012794637121260166, 0.11899218708276749, -0.06382351368665695, -0.036869555711746216, -0.15477465093135834, -0.2722024917602539, -0.2118307203054428, -0.2815995216369629, 0.11199155449867249, -0.0828748270869255, -0.3255249559879303, -0.18045711517333984, 0.10005982965230942, 0.1613422930240631, 0.0958489403128624, 0.37353578209877014, 0.012768689543008804, -0.07046208530664444, 0.33717668056488037, 0.08590565621852875], [-0.1897692084312439, 0.07266848534345627, 0.3790089786052704, 0.4227954149246216, -0.043376024812459946, 0.12983354926109314, -0.08811543881893158, -0.22654151916503906, -0.024803806096315384, -0.1242639422416687, -0.11456134915351868, -0.21877607703208923, -0.12793228030204773, 0.05388699844479561, -0.2738803029060364, -4.675373202189803e-05, -0.08829785138368607, -0.4727359712123871, -0.006435813382267952, -0.2053082436323166, -0.34781891107559204, -0.2441789209842682, -0.3513054847717285, -0.06250480562448502, 0.12004110962152481, -0.030822455883026123, -0.2673852741718292, -0.08255618065595627, -0.20503997802734375, 0.08327668160200119, -0.06596936285495758, -0.03712684288620949, -0.23802481591701508, 0.22520823776721954, -0.0778849795460701, 0.15700878202915192, -0.07323720306158066, -0.07009835541248322, 0.36066821217536926, 0.04121886566281319, -0.4822295606136322, 0.012643869034945965, 0.029701443389058113, -0.2143324315547943, -0.27132555842399597, -0.45277661085128784, 0.059993237257003784, -0.51448655128479, -0.10366159677505493, -0.024954717606306076, -0.3581044375896454, 0.13641910254955292, -0.022924305871129036, -0.06741681694984436, 0.3588578701019287, 0.2556147575378418, 0.1622897833585739, 0.5333203673362732, -0.21574337780475616, 0.37565094232559204, 0.1539919227361679, -0.052091218531131744, -0.14679184556007385, -0.36295318603515625], [-0.2542135417461395, 0.10213672369718552, 0.019481906667351723, 0.08484393358230591, 0.2011733502149582, -0.14475291967391968, -0.2871280014514923, 0.06862002611160278, 0.33980631828308105, -0.026496805250644684, -0.3178337514400482, 0.08333011716604233, 0.23156654834747314, 0.5245963335037231, -0.0071358876302838326, 0.27163833379745483, -0.08968477696180344, 0.5239500999450684, 0.35187920928001404, -0.2503504157066345, 0.22532279789447784, 0.2664020359516144, 0.25575339794158936, 0.15301962196826935, -0.011504661291837692, -0.17121082544326782, 0.17881718277931213, 0.12730558216571808, 0.2651730477809906, -0.503713071346283, -0.3934343159198761, 0.1989109367132187, 0.157461017370224, -0.44425857067108154, -0.15436184406280518, -0.008554563857614994, -0.10547251254320145, 0.030365098267793655, -0.21733178198337555, 0.07133932411670685, -0.13666777312755585, -0.06094202399253845, -0.30663183331489563, 0.29769814014434814, 0.1366090178489685, 0.2149427831172943, 0.06476258486509323, 0.16780270636081696, -0.12054140865802765, -0.19720584154129028, -0.41489696502685547, -0.26072952151298523, 0.09521599113941193, -0.21642373502254486, -0.3641301691532135, -0.028415026143193245, -0.12661460041999817, -0.06719616055488586, -0.03699900582432747, -0.38512492179870605, -0.22359713912010193, 0.11266320198774338, 0.05104745551943779, 0.10714986175298691], [0.28684186935424805, 0.1934528350830078, 0.1469886302947998, -0.1824912577867508, 0.004076278768479824, -0.11783843487501144, 0.292629599571228, -0.18437132239341736, 0.07447962462902069, -0.08245213329792023, 0.0007059980416670442, -0.14327272772789001, 0.12687170505523682, 0.058654628694057465, -0.0940125361084938, 0.05908863618969917, -0.00541333295404911, -0.004826568532735109, -0.07504840940237045, -0.171979159116745, 0.22506502270698547, -0.22916251420974731, 0.27645960450172424, 0.27482470870018005, -0.016179213300347328, 0.08678124845027924, 0.22144261002540588, -0.22889018058776855, -0.05513999983668327, -0.21493719518184662, 0.307790070772171, 0.04269116371870041, -0.5605927109718323, 0.10551563650369644, 0.19370043277740479, 0.18785591423511505, -0.048589304089546204, -0.22786185145378113, 0.17855720221996307, 0.0046419077552855015, 0.1188867837190628, 0.1333799958229065, 0.15900366008281708, 0.1126045361161232, 0.1501282900571823, 0.26393404603004456, -0.4124404489994049, -0.4012996554374695, 0.29204002022743225, 0.177666574716568, 0.08937342464923859, 0.25893527269363403, -0.13318650424480438, 0.28554627299308777, 0.08346011489629745, -0.048514991998672485, -0.20677843689918518, 0.06837602704763412, -0.057986076921224594, 0.10808959603309631, 0.21914304792881012, -0.09920401126146317, -0.17372187972068787, 0.006314778234809637], [0.06397794187068939, -0.2508620023727417, 0.039653338491916656, 0.09436672180891037, 0.023798203095793724, -0.5054476261138916, -0.27232012152671814, 0.10858993977308273, -0.4217621982097626, 0.08096255362033844, -0.003925403114408255, -0.046988505870103836, -0.04973776638507843, -0.002406238578259945, 0.14705149829387665, 0.35004815459251404, 0.00010730254871305078, 0.00872006919234991, 0.013715474866330624, -0.13662035763263702, 0.15186309814453125, -0.02766472101211548, -0.13282154500484467, 0.19168135523796082, -0.0053475056774914265, -0.06520935148000717, -0.10660678148269653, -0.1848399043083191, 0.006545898970216513, -0.17203167080879211, -0.2726259231567383, 0.08256591856479645, 0.035018909722566605, -0.15737983584403992, 0.23932726681232452, -0.14949551224708557, -0.04976336658000946, -0.3040179908275604, 0.10071451961994171, 0.15115776658058167, -0.038278430700302124, -0.18297167122364044, -0.21580667793750763, -0.22450800240039825, -0.4009815454483032, 0.05526440218091011, 0.0065802717581391335, 0.36579644680023193, -0.19388119876384735, -0.10554450750350952, 0.10286012291908264, 0.17581656575202942, 0.03495476394891739, 0.24184973537921906, 0.166539266705513, -0.1277814656496048, -0.054631806910037994, 0.12102794647216797, -0.15425685048103333, -0.27671125531196594, -0.15282298624515533, -0.06746003031730652, -0.08501485735177994, -0.006605583243072033], [-0.1889679878950119, 0.02426626905798912, -0.1865253895521164, -0.13822561502456665, 0.1490614265203476, 0.0877932608127594, -0.19833128154277802, 0.057955894619226456, -0.024135015904903412, -0.1289016157388687, 0.024540450423955917, -0.249654158949852, -0.4929387867450714, 0.35321691632270813, -0.018981095403432846, 0.28799253702163696, 0.10200773924589157, 0.4912087917327881, 0.18513667583465576, -0.07045210897922516, -0.18042762577533722, 0.014258312992751598, -0.13297750055789948, 0.1535697877407074, 0.262918084859848, -0.2859954237937927, -0.037442609667778015, 0.09096663445234299, 0.12437215447425842, -0.038893043994903564, -0.1162736564874649, -0.19411782920360565, 0.08000581711530685, -0.05721970647573471, 0.07357769459486008, -0.10573401302099228, 0.026269135996699333, 0.002545560011640191, -0.20174942910671234, -0.1209738478064537, 0.1780795156955719, -0.35506340861320496, -0.2855548560619354, -0.07710308581590652, -0.01535295695066452, -0.2510850131511688, -0.3761906325817108, 0.024664826691150665, 0.18913350999355316, -0.2759636640548706, -0.1136217713356018, -0.1272391378879547, 0.2065182477235794, 0.244435116648674, -0.37269216775894165, -0.3440133333206177, 0.18245448172092438, -0.21721358597278595, -0.005783692002296448, 0.22343268990516663, -0.18474449217319489, 0.14450423419475555, 0.04963860660791397, -0.2721942961215973], [0.32625553011894226, 0.18504422903060913, 0.19356600940227509, 0.09675031900405884, -0.040512558072805405, 0.14194202423095703, 0.043795809149742126, 0.03145354613661766, 0.23868617415428162, 0.2020740509033203, 0.10649904608726501, -0.0011058629024773836, 0.15467843413352966, -0.1075676828622818, 0.11522864550352097, 0.03964368253946304, 0.10088504105806351, 0.020866837352514267, -0.07624836266040802, -0.20754165947437286, -0.49825701117515564, -0.20847445726394653, -0.04473380744457245, -0.16805694997310638, -0.22369641065597534, -0.2626921832561493, 0.06870375573635101, 0.4701252579689026, 0.0032799828331917524, 0.23580540716648102, 0.11282031238079071, -0.028104020282626152, -0.416795939207077, 0.14078065752983093, -0.012266782112419605, -0.01695101149380207, -0.1313578188419342, -0.2440420240163803, 0.205868199467659, 0.27989882230758667, -0.11705394834280014, -0.023056291043758392, 0.28074052929878235, -0.19969750940799713, 0.14368867874145508, 0.14002996683120728, -0.09582889080047607, 0.2656427323818207, -0.11224208772182465, -0.0025368870701640844, 