{"mlp_extractor.policy_net.0.weight": [[0.06162230670452118, 0.014971433207392693, 0.07753898203372955, -0.43493926525115967, -0.47142118215560913, -0.09165555238723755, -0.07368054986000061, -0.07801144570112228], [-0.052848849445581436, -0.1991713047027588, -0.06528986245393753, 0.5352274179458618, 0.24905787408351898, -0.0793248787522316, 0.2366589903831482, 0.026837434619665146], [-0.013191748410463333, -0.014185282401740551, 0.4842756986618042, 0.4535457193851471, -0.4601750671863556, 0.1490582674741745, 0.20909380912780762, 0.4429675340652466], [0.20039711892604828, -0.23985478281974792, -0.09169194102287292, -0.6274261474609375, -0.617495596408844, -0.2588909864425659, 0.014068343676626682, -0.005247597116976976], [0.13260145485401154, 0.08183394372463226, 0.16841153800487518, 0.6433788537979126, 0.16091348230838776, 0.023300649598240852, -0.17288938164710999, -0.32326704263687134], [0.00527053652331233, 0.14148271083831787, -0.009804789908230305, 0.5462657809257507, 0.7138447761535645, -0.12744231522083282, 0.1917847841978073, 0.3917190432548523], [0.4613734781742096, 0.057198140770196915, -0.03661234304308891, -0.5855064392089844, -0.42899519205093384, -0.03642326220870018, -0.05905899778008461, 0.11258378624916077], [0.08276700228452682, -0.036428991705179214, 0.35609138011932373, 0.09711267054080963, -0.5094793438911438, -0.05592622980475426, -0.10308641195297241, 0.27002084255218506], [0.09366706013679504, -0.15456260740756989, 0.4671233296394348, 0.5504275560379028, 0.0568041168153286, 0.16875909268856049, -0.014855978079140186, 0.2506096065044403], [-0.4732721745967865, 0.017348172143101692, -0.042653053998947144, 0.46958330273628235, 0.3076963424682617, -0.04292070120573044, 0.01695561222732067, 0.09641087800264359], [0.07875939458608627, -0.10745204985141754, 0.3505312204360962, 0.0730305090546608, -0.2595602869987488, -0.4121972918510437, -0.15200090408325195, 0.04591524973511696], [-0.09986858814954758, 0.08095739781856537, 0.5961347818374634, -0.18901509046554565, -0.7016318440437317, -0.30495452880859375, -0.21829713881015778, -0.23627126216888428], [0.23773624002933502, -0.13976550102233887, -0.3058043420314789, 0.4251716136932373, 0.099063441157341, 0.13748186826705933, 0.1518501341342926, 0.22582802176475525], [-0.045998938381671906, -0.10269898176193237, -0.10054873675107956, 0.2697311341762543, 0.7099394202232361, 0.31255897879600525, 0.24278037250041962, -0.04916750267148018], [0.06986592710018158, 0.0703682079911232, -0.2369176149368286, -0.39076903462409973, 0.21984831988811493, 0.19046075642108917, 0.18856891989707947, -0.002611930016428232], [-0.08175770193338394, 0.08648451417684555, -0.38263338804244995, -0.4590429365634918, 0.2707529664039612, 0.06671552360057831, 0.09375564754009247, 0.12464290857315063], [-0.2610562741756439, 0.13175955414772034, 0.21963047981262207, -0.5083433985710144, -0.45987653732299805, -0.13397221267223358, 0.3679490089416504, 0.20919860899448395], [-0.14089226722717285, 0.0958755612373352, -0.3121179938316345, -0.3888382017612457, 0.4865078926086426, -0.026282567530870438, -0.019585099071264267, 0.011271829716861248], [-0.030719950795173645, -0.07008710503578186, -0.021910633891820908, 0.12646977603435516, -0.29185056686401367, -0.15275238454341888, -0.05633211508393288, 0.04950380697846413], [0.11313684284687042, -0.0497133694589138, -0.3643569052219391, -0.24931958317756653, 0.4798334240913391, -0.18342158198356628, -0.04160795360803604, -0.09519656747579575], [0.20437249541282654, -0.03215573728084564, 0.2575570344924927, -0.026820624247193336, -0.47796329855918884, -0.2325892150402069, -0.1787233054637909, 0.031706515699625015], [-0.03455951437354088, 0.11279711872339249, -0.6475532054901123, -0.25446829199790955, 0.43667468428611755, -0.08333907276391983, 0.09313035011291504, -0.4507215917110443], [0.21012941002845764, -0.18888887763023376, -0.2177516371011734, -0.7174832820892334, 0.6809226870536804, 0.47535449266433716, -0.03314982354640961, -0.039835408329963684], [-0.15443511307239532, -0.21198175847530365, 0.18691369891166687, -0.30662935972213745, -0.7156486511230469, -0.14242763817310333, -0.19961734116077423, -0.15952201187610626], [-0.3507087528705597, 0.0005647761863656342, -0.05216510593891144, -0.4653867483139038, -0.24776765704154968, 0.1647191196680069, -0.23127524554729462, -0.4914228618144989], [0.32106372714042664, -0.11312516033649445, -0.27888503670692444, 0.6043705940246582, -0.17449718713760376, -0.07278338819742203, -0.0891943871974945, 0.2315162569284439], [0.17995363473892212, 0.22131948173046112, 0.09917310625314713, -0.42285171151161194, -0.5360624194145203, -0.0020011672750115395, -0.05590929836034775, -0.05510789155960083], [0.252686470746994, 0.22462671995162964, -0.24467074871063232, 0.4882517457008362, 0.773708701133728, 0.4946264624595642, -0.3990212380886078, -0.06144573912024498], [-0.11718997359275818, -0.08504485338926315, 0.2497381716966629, -0.31457841396331787, -0.014908517710864544, 0.24926339089870453, -0.07971372455358505, -0.21463216841220856], [-0.04129176214337349, -0.1579340696334839, 0.08961626887321472, -0.6960580945014954, -0.24498163163661957, -0.1556037962436676, -0.2672351002693176, -0.05712922662496567], [0.07242920249700546, 0.07123925536870956, 0.22205381095409393, 0.06898170709609985, -0.36312317848205566, -0.6094470024108887, -0.036294084042310715, -0.2873461842536926], [0.22549842298030853, -0.09262727946043015, 0.0029274006374180317, -0.21155071258544922, -0.6329140663146973, -0.06438971310853958, -0.2833879590034485, -0.27115294337272644], [0.0543898344039917, -0.17105214297771454, 0.17698703706264496, 0.290490061044693, -0.1102701798081398, 0.1358800083398819, 0.07465293258428574, 0.29201817512512207], [-0.2318732738494873, 0.16805624961853027, -0.2291945070028305, 0.5700390934944153, 0.1279483437538147, 0.19303911924362183, 0.20078547298908234, 0.46748122572898865], [0.29445886611938477, 0.01626119762659073, -0.20217883586883545, -0.4305656850337982, 0.5907163619995117, -0.07492667436599731, -0.27261921763420105, -0.08570043742656708], [-0.025424795225262642, 0.1904079020023346, 0.09375986456871033, -0.01487061008810997, -0.03695392236113548, -0.6528681516647339, -0.24099867045879364, -0.3440873622894287], [-0.022003265097737312, -0.18537279963493347, 0.057580552995204926, -0.4863426983356476, -0.20566394925117493, 0.08791621029376984, -0.03844331577420235, -0.17519861459732056], [0.12000682950019836, 0.21930912137031555, 0.4130707383155823, 0.049531951546669006, -0.5421093106269836, -0.559018611907959, -0.31538093090057373, 0.09368931502103806], [-0.1330312192440033, 0.08200746029615402, 0.04957162216305733, 0.6415132880210876, -0.03618229180574417, -0.2846628725528717, -0.11147941648960114, 0.04094695672392845], [-0.035150934010744095, -0.16771361231803894, 0.036420661956071854, -0.0002755254099611193, -0.662561297416687, -0.23747867345809937, -0.37474921345710754, 0.05214490368962288], [-0.20001038908958435, 0.048273660242557526, 0.5472100377082825, -0.422730416059494, -0.23816625773906708, -0.0450080931186676, 0.09579041600227356, -0.0030493950471282005], [0.21068336069583893, 0.13307729363441467, 0.021316953003406525, 0.4218369722366333, -0.3323580026626587, -0.310232549905777, -0.017597615718841553, 0.16890573501586914], [0.11546829342842102, -0.05811530351638794, -0.07583800703287125, 0.360832154750824, 0.2192225605249405, 0.14169985055923462, 0.24089360237121582, 0.04000602290034294], [0.07618220150470734, 0.1630679816007614, 0.327000230550766, 0.1996919810771942, -0.7011961340904236, -0.6527027487754822, 0.31661495566368103, -0.013034379109740257], [0.047901127487421036, -0.2670499384403229, -0.1713886708021164, 0.20297116041183472, 0.6544774770736694, -0.16141538321971893, 0.011127826757729053, -0.01760871894657612], [0.02546093240380287, 0.029504213482141495, 0.5201631784439087, 0.6298620700836182, -0.09936534613370895, -0.07824385166168213, -0.18572817742824554, 0.13378342986106873], [-0.14836715161800385, -0.2716192305088043, -0.023308133706450462, -0.6712252497673035, -0.512577474117279, -0.1434589922428131, 0.008771722204983234, -0.06930039823055267], [-0.14565281569957733, -0.15639233589172363, -0.17684733867645264, 0.21169127523899078, 0.43259769678115845, 0.32709336280822754, 0.06743575632572174, -0.16702505946159363], [-0.047838278114795685, -0.10829311609268188, 0.014741622842848301, -0.6549429297447205, -0.1726723462343216, -0.2696751654148102, -0.040232572704553604, 0.19349126517772675], [0.051178354769945145, -0.09530724585056305, -0.17783541977405548, -0.37385067343711853, 0.2647233307361603, 0.16978059709072113, 0.23391862213611603, 0.15513549745082855], [-0.0025880103930830956, -0.04109320044517517, 0.11666107177734375, 0.5132442116737366, 0.2114298790693283, -0.145576611161232, 0.5041809678077698, 0.1816004067659378], [0.40663641691207886, 0.3132328391075134, -0.10120833665132523, 0.21205107867717743, 0.4395778179168701, -0.02116578072309494, -0.12594826519489288, -0.3311467170715332], [-0.05147526413202286, -0.3124215602874756, -0.36402103304862976, -0.5300430059432983, 0.2500290870666504, 0.09810246527194977, -0.1419036090373993, 0.07260224968194962], [-0.18101683259010315, -0.30098235607147217, 0.3651294410228729, -0.1599287986755371, -0.27649593353271484, -0.3872258961200714, 0.010560396127402782, 0.34678688645362854], [-0.009844194166362286, 0.12294895201921463, -0.07294312864542007, -0.25540196895599365, 0.47073712944984436, 0.26331689953804016, -0.14272581040859222, 0.2809428870677948], [-0.2189868539571762, -0.177053764462471, 0.03461683541536331, 0.25301313400268555, -0.35622408986091614, -0.1301780790090561, -0.23290827870368958, 0.18572454154491425], [0.08365947753190994, -0.021780304610729218, -0.20370429754257202, -0.36127397418022156, 0.4099007844924927, 0.3756959140300751, 0.1811879575252533, -0.2726189196109772], [-0.07577585428953171, -0.21098315715789795, -0.06600309908390045, 0.13689789175987244, 0.3800477981567383, -0.20400601625442505, -0.02117752656340599, -0.11184097081422806], [0.1572805494070053, 0.02240331470966339, 0.4600054621696472, -0.04682932049036026, -0.7500979900360107, -0.4709116220474243, 0.11373042315244675, -0.020048975944519043], [-0.14100733399391174, 0.02476383000612259, -0.2750381827354431, -0.6718786358833313, 0.06727807223796844, -0.22793501615524292, -0.4767860174179077, -0.2131124883890152], [-0.00039490091148763895, 0.009426727890968323, 0.2564314305782318, -0.32031166553497314, -0.14970485866069794, -0.041114360094070435, 0.07000187784433365, -0.14841823279857635], [-0.08898919075727463, 0.1125694215297699, 0.2851298451423645, 0.5209612250328064, -0.02793845534324646, 0.0059819333255290985, 0.1710493266582489, -0.09349338710308075], [-0.23174527287483215, 0.1461654156446457, 0.12848636507987976, -0.3102344870567322, -0.08269602805376053, 0.07020829617977142, -0.45946505665779114, 0.08523431420326233], [-0.1901640146970749, 0.12598371505737305, -0.3465051054954529, -0.664416491985321, -0.023781944066286087, 0.0697026178240776, -0.38043978810310364, 0.001250944915227592]], "mlp_extractor.policy_net.0.bias": [-0.014443201944231987, 0.030567843466997147, 0.005024421028792858, 0.019806165248155594, 0.009229055605828762, -0.012259195558726788, -0.03210245445370674, 0.019414708018302917, 0.02686408907175064, 0.01624412275850773, 0.04631819948554039, -0.0014718363527208567, 0.02684664912521839, 0.012253721244633198, -0.03747585415840149, -0.01626730151474476, -0.01460205391049385, -0.004311998374760151, -0.011323153972625732, -0.012422248721122742, 0.0015295454068109393, -0.021295692771673203, -0.007869119755923748, 0.006214293651282787, -0.03339463472366333, 0.004612295422703028, -0.031901516020298004, -0.02037026919424534, 0.015351634472608566, 0.013380157761275768, -0.008151340298354626, 0.0143157709389925, 0.03400615230202675, -0.03167944774031639, -0.008634401485323906, -0.01946236379444599, -0.01622665673494339, -0.004601962864398956, 0.010994591750204563, 0.021570896729826927, 0.00731244869530201, -0.008952224627137184, 0.030233848839998245, -0.015742842108011246, 0.02688971348106861, 0.033032387495040894, 0.01593497209250927, 0.013829504139721394, 0.00039158540312200785, -0.005761172156780958, 0.02768748067319393, -0.009126849472522736, -0.00022649606398772448, 0.0465315580368042, -0.019260223954916, -0.011916677467525005, -0.011526655405759811, 0.029419392347335815, 0.017875878140330315, -0.004939229693263769, -0.021054686978459358, 0.005337703041732311, -0.04459293559193611, -0.03190220892429352], "mlp_extractor.policy_net.2.weight": [[0.24525748193264008, -0.13880302011966705, -0.6719716191291809, -0.1761823445558548, 0.08397899568080902, -0.1631249487400055, -0.20375044643878937, -0.1795700192451477, -0.24229854345321655, -0.14760957658290863, -0.15881134569644928, -0.06564189493656158, -0.029926370829343796, 0.1414749175310135, -0.14750580489635468, 0.11207017302513123, -0.02701890468597412, 0.002336816629394889, -0.17121833562850952, -0.021695708855986595, -0.1343250870704651, -0.08285824209451675, 0.46607792377471924, -0.010708721354603767, -0.021716775372624397, -0.06939884275197983, -0.17001590132713318, 0.7262521386146545, 0.03780990093946457, -0.03706119582056999, -0.24778907001018524, 0.26150044798851013, 0.032263513654470444, -0.11904185265302658, -0.10196768492460251, -0.10687040537595749, 0.009242875501513481, 0.02661953680217266, -0.13287676870822906, -0.12240024656057358, -0.08471175283193588, -0.3111727833747864, 0.10823166370391846, -0.37694528698921204, -0.13130870461463928, -0.34018269181251526, 0.07768259942531586, 0.41720253229141235, -0.32533565163612366, 0.05817437916994095, -0.15349413454532623, 0.21966145932674408, 0.05953942611813545, -0.23664571344852448, 0.04329046234488487, 0.03821562975645065, 0.11056891083717346, 0.050441842526197433, -0.3325226604938507, 0.5906658172607422, -0.03584940358996391, 0.11112678796052933, -0.030623527243733406, 0.1390988975763321], [0.04854089394211769, 0.08498470485210419, -0.2588635981082916, 0.2984218895435333, -0.3644734025001526, 0.006360040511935949, -0.030195772647857666, -0.38333606719970703, -0.25305476784706116, -0.20194636285305023, 0.07022321224212646, -0.4866428077220917, -0.05920077860355377, 0.020599476993083954, 0.330858051776886, 0.40959620475769043, -0.3269372880458832, 0.2506709694862366, 0.09204994142055511, 0.28840360045433044, -0.4929475784301758, -0.1154070794582367, 0.07763891667127609, -0.10098296403884888, -0.0907260999083519, 0.08235158771276474, 0.12152144312858582, -0.00919839832931757, 0.07707682251930237, -0.10273414105176926, -0.40539222955703735, -0.19428004324436188, 0.15214288234710693, 0.03294635936617851, 0.17518125474452972, -0.019340654835104942, 0.07665737718343735, 0.20807020366191864, -0.4434609115123749, -0.01416021678596735, 0.18732675909996033, -0.2936013638973236, 0.08402756601572037, -0.3483138382434845, 0.07297804206609726, -0.23814722895622253, 0.2483469694852829, 0.17548052966594696, 0.45929521322250366, 0.2699446678161621, -0.015589538030326366, -0.2751482129096985, 0.40449103713035583, -0.13424642384052277, 0.21221359074115753, -0.22022531926631927, 0.014434261247515678, -0.1925199031829834, -0.3368772268295288, 0.2359280288219452, 0.13668842613697052, -0.44455796480178833, -0.13319358229637146, -0.20186273753643036], [0.18650338053703308, 0.050877105444669724, -0.4648500382900238, -0.23192879557609558, -0.24183110892772675, 0.10369937866926193, 0.21080884337425232, 0.023222023621201515, 0.3948638141155243, -0.037292078137397766, -0.18879514932632446, -0.2940995395183563, -0.10768087208271027, 0.017226995900273323, 0.4300553500652313, 0.2200518548488617, -0.06751875579357147, 0.31871333718299866, 0.14620332419872284, -0.13601472973823547, -0.36573687195777893, -0.006945805158466101, 0.4055499732494354, -0.5869415998458862, 0.1334315985441208, -0.30362290143966675, -0.06858992576599121, -0.1630677729845047, 0.015823345631361008, 0.09489092230796814, -0.3461607098579407, -0.10527637600898743, -0.0022296984679996967, -0.08392684161663055, -0.033984966576099396, -0.18753071129322052, -0.12898389995098114, -0.35872864723205566, -0.20257693529129028, -0.054743990302085876, -0.3327086269855499, 0.005802682135254145, 0.10840296000242233, -0.38513121008872986, 0.37264618277549744, -0.1530906856060028, 0.11321906745433807, 0.017840012907981873, 0.01315978728234768, 0.3967060148715973, 0.25049838423728943, -0.04473596066236496, 0.4214617908000946, -0.1597607135772705, 0.0409412607550621, -0.05952152609825134, -0.0007243690197356045, 0.07806605100631714, -0.24824269115924835, -0.19468505680561066, -0.2385556548833847, 0.00746274646371603, -0.13237155973911285, 0.1700475662946701], [0.25923627614974976, 0.11139526218175888, 0.46682724356651306, 0.032351721078157425, 0.15919508039951324, 0.2884175181388855, 0.10694099962711334, 0.2254243642091751, 0.015709228813648224, 0.2567738890647888, -0.2373242974281311, -0.03992230072617531, 0.04318000748753548, -0.1605333387851715, -0.29754722118377686, -0.0920783132314682, -0.16645701229572296, -0.013513730838894844, 0.05008293315768242, -0.323444664478302, -0.04922587797045708, -0.30888649821281433, -0.01060259435325861, 0.2759021520614624, -0.13576820492744446, 0.15017607808113098, -0.1803579032421112, -0.3085525333881378, 0.15696141123771667, -0.053816165775060654, -0.23734785616397858, -0.3388979732990265, -0.06985568255186081, -0.02152653969824314, -0.3771955668926239, -0.09625186026096344, -0.07276920229196548, 0.08783991634845734, 0.15763990581035614, 0.30947649478912354, 0.005745184142142534, -0.235905721783638, -0.06355038285255432, 0.3090246915817261, -0.17390994727611542, 0.08863071352243423, 0.24055680632591248, 0.043664250522851944, -0.03590551018714905, -0.06999886780977249, 0.04526059702038765, -0.02303973026573658, 0.04589052498340607, 0.38172292709350586, 0.18422658741474152, 0.4483908712863922, -0.21726419031620026, 0.017980005592107773, 0.19013728201389313, -0.4023774564266205, -0.4188232719898224, 0.030853066593408585, -0.08603420853614807, -0.39077121019363403], [0.3946932852268219, -0.04444896802306175, 0.1174619123339653, 0.016990071162581444, -0.017400555312633514, -0.1898125857114792, 0.2494722306728363, 0.46640437841415405, 0.01317635178565979, -0.13947901129722595, -0.019274773076176643, 0.6565567851066589, -0.30951783061027527, -0.24463170766830444, 0.06597583740949631, 0.34751787781715393, -0.13876765966415405, -0.08604009449481964, -0.3078598380088806, 0.09828551113605499, 0.25671690702438354, -0.07524165511131287, -0.1160101518034935, 0.34983164072036743, 0.12924812734127045, -0.05930369719862938, 0.346676230430603, -0.0052493540570139885, 0.19236865639686584, 0.4114082455635071, 0.29680755734443665, 0.23977458477020264, 0.2358953207731247, 0.18781810998916626, -0.30646824836730957, 0.22792531549930573, 0.15327328443527222, 0.150556281208992, -0.22668620944023132, 0.1063179299235344, 0.2926395535469055, 0.04020998626947403, -0.07706530392169952, 0.20619341731071472, -0.08544882386922836, 0.1847158968448639, 0.12153345346450806, -0.07316895574331284, -0.09594064205884933, 0.17490367591381073, -0.09584192931652069, 0.07331414520740509, 0.26845040917396545, 0.15893171727657318, -0.024880725890398026, -0.056001946330070496, -0.22118617594242096, -0.16411980986595154, 0.02933599427342415, 0.12921908497810364, -0.04397802799940109, -0.03989091515541077, 0.26361340284347534, -0.049088574945926666], [0.38654428720474243, -0.22782067954540253, -0.027659296989440918, 0.3544594943523407, -0.3399224877357483, -0.1752510666847229, 0.19351014494895935, -0.0736929178237915, -0.1334836781024933, -0.22359858453273773, -0.31328335404396057, -0.22837062180042267, 0.1853615641593933, 0.12048038095235825, 0.482492595911026, -0.1655758023262024, 0.2360345721244812, 0.091075100004673, 0.09575320035219193, 0.28108349442481995, 0.07216235250234604, 0.21324974298477173, 0.6097538471221924, -0.23738880455493927, 0.08422866463661194, 0.11266026645898819, 0.0033592209219932556, 0.1626463532447815, -0.33427494764328003, 0.3614809811115265, 0.03657595440745354, -0.1362266093492508, 0.22759805619716644, -0.22176410257816315, 0.17255151271820068, -0.0260394886136055, -0.0535602867603302, 0.08012904226779938, -0.2680543065071106, 0.15926524996757507, 0.10293367505073547, 0.034097637981176376, -0.3741132318973541, -0.06020659953355789, 0.09956217557191849, -0.27961844205856323, 0.1848493367433548, 0.03373096138238907, 0.23501993715763092, 0.1639959067106247, -0.22132401168346405, 0.20065683126449585, 0.29473838210105896, 0.15783780813217163, 0.2969251275062561, 0.050846558064222336, 0.03657367452979088, 0.2087569236755371, -0.08121884614229202, 0.4749910533428192, 0.13795265555381775, -0.315112441778183, 0.0642654076218605, 0.14094847440719604], [-0.414130300283432, 0.18653130531311035, 0.4213749170303345, 0.14493054151535034, -0.050166551023721695, -0.18883496522903442, 0.16466207802295685, 0.1942092478275299, 0.2395964115858078, 0.20904193818569183, -0.030509058386087418, 0.12368074804544449, 0.10592889040708542, -0.07648800313472748, -0.21502205729484558, -0.3054601550102234, -0.0763920247554779, -0.5949281454086304, -0.08606579899787903, -0.19544334709644318, 0.051551975309848785, -0.6804001331329346, -0.17118073999881744, -0.011686914600431919, -0.0278481338173151, 0.14249202609062195, -0.052863363176584244, -0.05613599345088005, -0.08561806380748749, 0.008624066598713398, -0.02826545014977455, -0.021820979192852974, 0.3446936309337616, 0.050742875784635544, -0.10818079859018326, -0.07784884423017502, 0.09964326024055481, 0.2243584245443344, 0.12050653994083405, 0.17176835238933563, -0.21517795324325562, 0.1640167087316513, 0.16833645105361938, 0.4156430959701538, -0.03294920548796654, 0.47768479585647583, -0.10945527255535126, -0.02275730110704899, 0.03603764995932579, -0.23886029422283173, 0.18482500314712524, -0.1963958889245987, -0.18679474294185638, -0.035229820758104324, 0.004175363574177027, -0.1907975822687149, -0.38686519861221313, -0.2678435742855072, 0.3062433898448944, -0.032807204872369766, -0.4652148485183716, 0.40247440338134766, 0.1740698367357254, 0.1581549048423767], [0.22868163883686066, -0.05826926603913307, 0.18791279196739197, 0.05119040980935097, -0.3537467122077942, -0.3334744870662689, -0.08560118079185486, 0.2027210295200348, -0.17897441983222961, -0.139664888381958, -0.007571393623948097, 0.2911233901977539, -0.18712541460990906, -0.11575744301080704, -0.03473963588476181, -0.40315601229667664, 0.026185857132077217, -0.050169602036476135, -0.06342677772045135, 0.09182296693325043, 0.2863476574420929, 0.12834398448467255, -0.06793204694986343, 0.32064908742904663, 0.2541513442993164, -0.10679329931735992, 0.2191789150238037, -0.5861086845397949, -0.24809491634368896, 0.0707341805100441, -0.03295658156275749, 0.4109930992126465, -0.1417781561613083, -0.10116283595561981, -0.3155246078968048, 0.05674873664975166, 0.09323066473007202, 0.2995258867740631, -0.046576857566833496, 0.37023764848709106, 0.2948412001132965, -0.4289787709712982, 0.04934845492243767, 0.5539210438728333, -0.20222806930541992, 0.27372297644615173, 0.21360109746456146, -0.21437717974185944, 0.1322983056306839, -0.21197721362113953, 0.22550950944423676, -0.09788232296705246, 0.3062753677368164, 0.012387698516249657, -0.33412110805511475, -0.1530475914478302, -0.30812281370162964, 0.26735836267471313, 0.49742501974105835, 0.024987485259771347, 0.21850354969501495, -0.003057746449485421, -0.04514826089143753, 0.19414786994457245], [0.168681800365448, -0.22859932482242584, -0.33459994196891785, 0.09231807291507721, 0.11417105793952942, 0.0683366134762764, 0.1499093621969223, 0.23646216094493866, -0.27442824840545654, -0.19885602593421936, 0.18360328674316406, 0.06273780763149261, -0.09505710750818253, -0.0763828381896019, -0.07792658358812332, 0.09503041952848434, 0.1930428147315979, -0.3367382287979126, 0.18764017522335052, -0.12137532234191895, 0.2557554244995117, 0.3151870667934418, 0.1272459179162979, 0.05479804053902626, 0.0011224558111280203, -0.044005826115608215, 0.2632365822792053, -0.260064035654068, 0.20868945121765137, 0.6288848519325256, 0.16307520866394043, 0.3218750059604645, -0.3713126480579376, -0.1645914763212204, 0.23227424919605255, -0.1651768982410431, 0.35679277777671814, 0.5244635939598083, -0.005909676197916269, 0.14587225019931793, 0.21696162223815918, -0.08091968297958374, -0.024231959134340286, -0.046218495815992355, 0.11284880340099335, 0.2935795187950134, 0.31868353486061096, -0.1110675260424614, 0.12327314168214798, -0.26755794882774353, -0.2939163148403168, -0.0786086842417717, 0.12318365275859833, 0.10383104532957077, -0.17231862246990204, 0.16916349530220032, -0.11613935977220535, -0.3000519871711731, 0.40709346532821655, 0.3551931381225586, -0.054879751056432724, -0.10114642977714539, 0.049005892127752304, 0.23862656950950623], [0.3661027252674103, 0.2592846155166626, -0.09194088727235794, 0.4830465316772461, -0.20275548100471497, -0.2053099274635315, 0.05623188242316246, 0.14438481628894806, -0.26200953125953674, 0.11072129011154175, 0.0822010412812233, 0.05432262644171715, -0.1083761602640152, 0.18829946219921112, 0.1819118857383728, 0.08430525660514832, 0.030759159475564957, 0.2554246783256531, -0.20453393459320068, -0.000594424782320857, 0.12851952016353607, 0.28067663311958313, 0.31300801038742065, 0.3867523968219757, 0.28807395696640015, -0.3886270225048065, -0.31342968344688416, -0.3165409564971924, 0.2804346978664398, 0.30480867624282837, 0.15539231896400452, 0.38277265429496765, 0.0356481708586216, -0.30401650071144104, 0.1642271876335144, 0.2103218138217926, -0.0987202450633049, 0.2592492699623108, -0.1300203949213028, 0.1531015783548355, -0.18689873814582825, -0.09056887775659561, -0.20194286108016968, -0.36944881081581116, 0.23515397310256958, -0.1935005784034729, 0.19463400542736053, 0.020380519330501556, 0.347171813249588, 0.02581162564456463, -0.27354976534843445, -0.1973138451576233, 0.0880294218659401, -0.1229211837053299, 0.05623583495616913, -0.1793426126241684, 0.19903621077537537, 0.010339649394154549, 0.07374266535043716, 0.45735785365104675, 0.10639109462499619, -0.0919521301984787, 0.5466024875640869, 0.0803588479757309], [0.10394400358200073, 0.14464274048805237, -0.09619732946157455, 0.5384186506271362, -0.5874468684196472, -0.2744104862213135, -0.0788886770606041, 0.06307733058929443, -0.10272502899169922, 0.018503159284591675, -0.16263192892074585, 0.030348623171448708, -0.27104413509368896, -0.23980712890625, -0.09359439462423325, 0.18312479555606842, 0.08959008008241653, 0.31485483050346375, -0.06372078508138657, -0.3709152936935425, -0.13449175655841827, -0.2307332158088684, 0.25476616621017456, 0.15336622297763824, -0.2115156501531601, -0.0694732591509819, -0.10870850086212158, -0.5158368349075317, -0.4190768301486969, 0.5751906037330627, 0.11313939839601517, 0.07632799446582794, 0.07940957695245743, 0.09025802463293076, -0.08791708946228027, -0.17749296128749847, 0.21863022446632385, -0.15362988412380219, -0.25741276144981384, -0.025921666994690895, 0.4156227707862854, 0.012024846859276295, -0.00184036570135504, -0.03637789562344551, -0.22802066802978516, -0.018756959587335587, -0.0062058670446276665, -0.16259749233722687, 0.14378461241722107, 0.21745069324970245, -0.31004640460014343, -0.23131778836250305, -0.060125093907117844, 0.34632357954978943, -0.06241552159190178, 0.013282404281198978, -0.1264120191335678, 0.019726784899830818, 0.5918900966644287, -0.06223932281136513, 0.10115191340446472, -0.07871823012828827, -0.03554560989141464, 0.027634164318442345], [0.0011065697763115168, -0.04225533455610275, -0.5656854510307312, -0.10827365517616272, -0.37796181440353394, -0.2585468292236328, -0.011928340420126915, -0.19582046568393707, -0.07710405439138412, 0.03268568590283394, -0.18680688738822937, -0.14625521004199982, -0.022343067452311516, 0.12705065310001373, 0.08582577854394913, 0.33764463663101196, -0.2769753932952881, 0.06468579173088074, 0.3942022919654846, 0.41680750250816345, 0.06893036514520645, 0.35545557737350464, 0.6231051087379456, 0.22014549374580383, 0.06842077523469925, -0.4463319778442383, 0.014403815381228924, -0.1748286485671997, -0.24316757917404175, 0.2538641095161438, -0.09233120083808899, -0.019298305734992027, 0.05107235535979271, -0.06098091974854469, 0.0781717598438263, -0.16383466124534607, 0.37729859352111816, 0.09510459750890732, -0.32912394404411316, 0.13378390669822693, 0.0545852929353714, -0.15767927467823029, -0.373440682888031, -0.13482262194156647, -0.09321394562721252, -0.6240552663803101, 0.2506614327430725, -0.028182484209537506, 0.40295106172561646, 0.24994347989559174, -0.44740355014801025, 0.034370582550764084, -0.017324961721897125, -0.26588672399520874, 0.14794275164604187, -0.05617642402648926, 0.40713492035865784, 0.01047513447701931, -0.6333165168762207, 0.10335364937782288, -0.2076019048690796, -0.2573534846305847, 0.16562236845493317, 0.3001116216182709], [-0.4947279393672943, 0.14029385149478912, 0.1432669758796692, -0.32943183183670044, -0.27224865555763245, 0.24542710185050964, -0.13995099067687988, 0.13331614434719086, -0.34429919719696045, -0.101787269115448, 0.09183210879564285, -0.04661908373236656, -0.008249066770076752, 0.2582535743713379, 0.02875666506588459, 0.19120852649211884, -0.011873098090291023, 0.020639944821596146, -0.01623575948178768, 0.06640957295894623, -0.05831723287701607, 0.1798257827758789, -0.1951810121536255, -0.4389662742614746, -0.24523299932479858, 0.26867935061454773, -0.5095041990280151, 0.18110893666744232, -0.4164079427719116, -0.2856997549533844, -0.28127941489219666, -0.42682355642318726, 0.0234780665487051, 0.1478748470544815, -0.02026897668838501, -0.09319373220205307, -0.16377612948417664, -0.2674717307090759, -0.08164963871240616, -0.26556605100631714, -0.2976445257663727, -0.3258393108844757, 0.048883866518735886, -0.11706777662038803, 0.3683220148086548, -0.00038337515434250236, -0.2467205822467804, 0.017295198515057564, -0.036713890731334686, 0.2288089394569397, 0.24229082465171814, 0.17547735571861267, -0.018067220225930214, -0.2724662721157074, 0.017643658444285393, 0.46870434284210205, -0.03677528724074364, -0.16211888194084167, -0.2378005087375641, -0.1493113934993744, -0.1478627771139145, 0.36810043454170227, 0.10562494397163391, -0.2907288372516632], [0.18931257724761963, -0.20190860331058502, -0.11456989496946335, -0.28039923310279846, -0.27481579780578613, 0.1277095079421997, 0.15401145815849304, -0.606652021408081, -0.3196123242378235, 0.11708857119083405, -0.011606518179178238, -0.21512886881828308, -0.3269704580307007, 0.42203888297080994, -0.16771094501018524, -0.013020908460021019, 0.23140406608581543, 0.12635739147663116, -0.03135506808757782, 0.19240419566631317, -0.4937826991081238, 0.07724377512931824, 0.3329489529132843, -0.27841466665267944, -0.1459845006465912, 0.026251547038555145, -0.023117670789361, -0.005478720646351576, -0.10463985055685043, -0.06783448904752731, -0.11380555480718613, -0.2963727116584778, -0.13737331330776215, 0.13243591785430908, 0.11686484515666962, -0.01735660992562771, 0.007301422767341137, -0.337505042552948, -0.07678588479757309, -0.3604419529438019, -0.25661394000053406, -0.16307194530963898, -0.2046584188938141, -0.3777579963207245, -0.005528807640075684, -0.26364901661872864, 0.06776726245880127, 0.20858801901340485, 0.024982718750834465, 0.020990664139389992, -0.13910764455795288, -0.03688567876815796, 0.4740934669971466, 0.035598963499069214, 0.2234167754650116, -0.4707837998867035, 0.10063765943050385, 0.021073369309306145, -0.434364378452301, 0.011819514445960522, -0.23647217452526093, -0.018178775906562805, 0.2891692519187927, 0.13874447345733643], [-0.31146642565727234, 0.5047373175621033, 0.009895914234220982, -0.3734646141529083, -0.2512636184692383, 0.32680976390838623, -0.24788130819797516, 0.17007021605968475, 0.3100862503051758, 0.18250535428524017, -0.0818464532494545, -0.27133119106292725, -0.08651050180196762, 0.28652915358543396, 0.06698054075241089, -0.17294029891490936, 0.1304025501012802, 0.020738035440444946, 0.048806626349687576, -0.11804364621639252, 0.12392117828130722, 0.015069987624883652, -0.10999476909637451, -0.229796901345253, -0.28798893094062805, 0.19287684559822083, 0.02235756441950798, -0.010164285078644753, -0.1958177387714386, -0.5492734313011169, -0.428194522857666, -0.19417665898799896, 0.08579958975315094, 0.099337637424469, -0.3549483120441437, 0.1333269327878952, -0.289575457572937, -0.1518968641757965, 0.3688703775405884, -0.1678353250026703, 0.01037673931568861, 0.27052271366119385, 0.5678005814552307, 0.05252094194293022, 0.04314178600907326, 0.04864910617470741, -0.27627214789390564, 0.4727349877357483, -0.059705328196287155, -0.12683166563510895, -0.08662238717079163, -0.09786561876535416, -0.014236458577215672, 0.24839459359645844, 0.2657894790172577, 0.2076970636844635, 0.06485249847173691, -0.17181311547756195, -0.21845556795597076, -0.1745750904083252, -0.12759006023406982, -0.09931813180446625, 0.014924264512956142, -0.061590228229761124], [0.014724312350153923, 0.1286483108997345, -0.015029605478048325, 0.105660080909729, -0.09149528294801712, -0.11363694071769714, 0.1034243032336235, -0.3209594488143921, -0.24080422520637512, 0.031000269576907158, 0.05402834713459015, -0.06404823064804077, -0.39362406730651855, 0.2028205841779709, 0.11785296350717545, 0.12613238394260406, -0.1250583380460739, 0.5328729152679443, 0.015023457817733288, 0.17343927919864655, -0.004660269245505333, 0.0274544358253479, 0.09945686161518097, -0.06617291271686554, 0.16907083988189697, 0.049760185182094574, 0.11229000240564346, 0.3050282299518585, 0.16378405690193176, 0.4131477177143097, 0.15609951317310333, 0.6622111201286316, -0.16733318567276, -0.5300761461257935, 0.26871392130851746, -0.14214719831943512, 0.07328890264034271, 0.02831290103495121, -0.20702336728572845, 0.15937519073486328, 0.0585663802921772, 0.14154425263404846, -0.2792873680591583, 0.11201702803373337, -0.22272580862045288, -0.4947405159473419, 0.23416979610919952, -0.10161852836608887, 0.32259702682495117, 0.01464156061410904, -0.052286773920059204, 0.1670084148645401, 0.2708761692047119, 0.0095690181478858, -0.11079257726669312, 0.2587614059448242, 0.07314000278711319, -0.19729691743850708, -0.15476027131080627, 0.23640580475330353, -0.005364370532333851, -0.041369881480932236, 0.013537640683352947, 0.46751800179481506], [-0.32475462555885315, 0.29031074047088623, 0.1417217254638672, -0.22835277020931244, 0.07856312394142151, 0.5557125806808472, 0.07043301314115524, -0.5229451060295105, 0.01956000179052353, -0.02728690579533577, -0.022684847936034203, -0.3615044951438904, -0.06275936216115952, -0.02375365048646927, 0.21136397123336792, 0.08303507417440414, 0.1422274112701416, 0.3448540270328522, 0.12446726858615875, 0.27089640498161316, -0.15322627127170563, 0.2458825558423996, 0.6847034096717834, -0.14692623913288116, 0.04099469259381294, 0.13753986358642578, -0.08400344103574753, 0.19883465766906738, -0.0022395779378712177, 0.1282072514295578, -0.2193755805492401, 0.010642721317708492, 0.065752312541008, 0.29700037837028503, -0.14997777342796326, -0.02923530712723732, -0.09029923379421234, -0.22630436718463898, -0.057177431881427765, -0.1865421086549759, -0.3600805401802063, -0.25220200419425964, 0.24301296472549438, -0.08277861028909683, 0.09402991831302643, -0.010542580857872963, -0.1639735847711563, 0.16459490358829498, -0.41560226678848267, -0.006522165145725012, 0.0885901227593422, 0.16826075315475464, -0.32806697487831116, -0.3320285975933075, 0.07603183388710022, -0.21502670645713806, 0.05601419508457184, -0.22148412466049194, -0.4928452968597412, 0.15437014400959015, -0.035364869982004166, -0.1241050660610199, -0.11044526845216751, -0.255550742149353], [0.2973351776599884, -0.13482844829559326, 0.22451123595237732, -0.10295581072568893, -0.22163040935993195, -0.3464362621307373, -0.07769235968589783, 0.3755930960178375, -0.3766663074493408, -0.07030361145734787, 0.3210490345954895, 0.014778761193156242, 0.161669060587883, -0.20415042340755463, 0.24830806255340576, 0.17525121569633484, 0.3165071904659271, 0.1867198944091797, 0.2340647131204605, -0.2271745353937149, 0.14151130616664886, -0.6398327946662903, 0.17188093066215515, 0.25264379382133484, -0.022846652194857597, -0.2964881360530853, 0.11302246898412704, -0.282399445772171, 0.008294222876429558, 0.014534972608089447, 0.08547057956457138, 0.1572224348783493, 0.014077800326049328, 0.10813907533884048, 0.11689867079257965, -0.11398694664239883, 0.025817828252911568, -0.17480814456939697, -0.21698564291000366, 0.08209875226020813, 0.242283433675766, 0.027193928137421608, 0.1383458971977234, 0.3938821256160736, 0.013353222981095314, 0.09183316677808762, 0.5370094776153564, 0.05331888794898987, 0.37036922574043274, -0.11282863467931747, 0.10196231305599213, 0.08388716727495193, -0.12309572845697403, 0.116329126060009, 0.011994442902505398, -0.055901940912008286, 0.10673469305038452, -0.008036184124648571, 0.48256465792655945, -0.09356015920639038, -0.14952915906906128, -0.1891292780637741, 0.20685423910617828, -0.048400960862636566], [-0.22345182299613953, 0.5800865888595581, 0.03381483256816864, -0.205661341547966, 0.452396422624588, 0.4917691946029663, -0.32332783937454224, -0.09798987954854965, 0.07742040604352951, 0.05448433756828308, 0.0835278332233429, -0.04642939195036888, 0.21199220418930054, -0.10232149064540863, -0.03890931233763695, -0.17837783694267273, -0.047108251601457596, -0.1992848664522171, -0.052202172577381134, -0.3444274365901947, -0.2505497634410858, 0.03738957643508911, -0.2916717529296875, -0.08757448196411133, -0.12481225281953812, -0.12201417982578278, 0.3818523585796356, 0.14470721781253815, -0.2704227864742279, -0.40243929624557495, -0.11685798317193985, -0.25127992033958435, 0.291124552488327, 0.13540102541446686, -0.28150829672813416, -0.1887999176979065, -0.10200351476669312, -0.1990104466676712, 0.4149095118045807, -0.07705028355121613, 0.0014675228158012033, 0.1301632672548294, -0.25057801604270935, 0.2564491033554077, 0.0313696525990963, 0.37397125363349915, 0.034818775951862335, -0.07107951492071152, -0.08346934616565704, 0.028738202527165413, 0.41887927055358887, 0.04928790405392647, -0.17028073966503143, 0.02481972984969616, 0.26783889532089233, 0.13667137920856476, -0.3173973262310028, 0.025605710223317146, 0.2515338957309723, -0.05265870690345764, 0.08940897136926651, 0.47830453515052795, 0.23824501037597656, -0.19679999351501465], [0.014347903430461884, 0.02022058144211769, 0.3572145998477936, 0.026267416775226593, 0.03976986184716225, 0.05551743134856224, -0.3394874930381775, 0.04984775558114052, 0.27574896812438965, 0.028551960363984108, -0.1118491142988205, -0.2951444685459137, -0.009924815036356449, 0.16000206768512726, 0.03617820888757706, -0.3876388967037201, 0.027034955099225044, -0.28301891684532166, -0.1775820106267929, -0.34210413694381714, 0.039331234991550446, -0.29193535447120667, -0.11120519042015076, 0.10624123364686966, -0.31132394075393677, -0.11990178376436234, -0.22455106675624847, -0.04459800943732262, 0.053110621869564056, -0.007483511697500944, -0.18106888234615326, -0.06396784633398056, 0.01729104481637478, 0.47705256938934326, -0.13991914689540863, -0.18364979326725006, 0.001673022285103798, 0.09007861465215683, 0.20698966085910797, -0.5562219023704529, -0.027021965011954308, 0.17812474071979523, 0.1501784473657608, 0.3574712574481964, 0.1519070714712143, 0.11713267117738724, 0.1877109259366989, -0.10552236437797546, -0.054916974157094955, 0.12964153289794922, 0.19292372465133667, -0.1030021458864212, -0.07680781930685043, -0.006570331286638975, -0.19595025479793549, 0.2566951513290405, -0.5342127084732056, -0.10266373306512833, -0.32700562477111816, -0.5736653208732605, 0.2562817633152008, -0.03990115970373154, 0.18872714042663574, -0.2018977552652359], [0.1823706030845642, 0.05053788796067238, 0.314412921667099, -0.00151967559941113, 0.2858333885669708, 0.3274138867855072, -0.5283149480819702, -0.06976550072431564, 0.05031867325305939, 0.46428629755973816, -0.00023679001606069505, 0.21684737503528595, 0.03858126699924469, 0.23799341917037964, 0.001317123998887837, 0.1259004771709442, -0.07061512023210526, -0.07365982979536057, 0.10638243705034256, -0.07018044590950012, -0.11281388998031616, 0.2044028639793396, -0.28924018144607544, -0.5576959848403931, -0.341329425573349, 0.2128450572490692, -0.06793489307165146, 0.045450713485479355, -0.040813297033309937, -0.4191667437553406, -0.16715596616268158, -0.09667257964611053, 0.4178442656993866, 0.22796794772148132, -0.2773459851741791, -0.055013060569763184, 0.09877441078424454, 0.13119052350521088, 0.06165464222431183, -0.15440116822719574, -0.22619660198688507, 0.3198769986629486, 0.42352408170700073, 0.21023598313331604, 0.06907917559146881, 0.22216594219207764, -0.09312625974416733, -0.23331134021282196, -0.0978161096572876, -0.2957373261451721, 0.11978936195373535, 0.19666187465190887, -0.2661360800266266, 0.04388454183936119, -0.20616088807582855, -0.023875398561358452, -0.15315017104148865, 0.31503114104270935, 0.041157905012369156, -0.1659512221813202, -0.3068383038043976, 0.18492606282234192, -0.11559048295021057, -0.2235259860754013], [-0.2985360324382782, 0.12402956932783127, -0.021759435534477234, -0.1504240185022354, 0.12603650987148285, 0.1060280054807663, -0.27583247423171997, -0.22807428240776062, 0.10458806157112122, -0.045615337789058685, -0.22920995950698853, -0.5363759398460388, 0.23438644409179688, 0.19004948437213898, -0.171900674700737, 0.4444788694381714, 0.16820012032985687, 0.16763447225093842, -0.18766847252845764, 0.36435893177986145, -0.35904473066329956, 0.16529580950737, 0.5212357044219971, -0.3616977035999298, 0.057281482964754105, -0.025343477725982666, -0.2993018627166748, 0.05503261834383011, 0.322213739156723, -0.4501526653766632, -0.08460114896297455, -0.06910514831542969, 0.1197904720902443, 0.04291323944926262, 0.11996003985404968, -0.4438236653804779, -0.19860725104808807, -0.1900883913040161, -0.08333628624677658, -0.41752395033836365, 0.07250367105007172, -0.2625012993812561, 0.25435149669647217, -0.1110735833644867, 0.10185426473617554, 0.12908931076526642, -0.3446660339832306, -0.006811780855059624, -0.07186441868543625, 0.4309524893760681, -0.18649744987487793, 0.27184128761291504, 0.42204636335372925, -0.18946096301078796, 0.5756466388702393, -0.01981840282678604, 0.22656138241291046, 0.0388622023165226, -0.45802032947540283, -0.13303051888942719, -0.10498809069395065, 0.025505198165774345, 0.010374251753091812, 0.2564416825771332], [-0.13203966617584229, -0.31464844942092896, 0.03823832795023918, 0.2246944010257721, -0.07894493639469147, -0.5772643685340881, 0.5406650304794312, -0.1559077799320221, -0.10842601209878922, -0.019037051126360893, -0.044749949127435684, -0.3267657160758972, -0.2362566590309143, 0.29088178277015686, 0.09427094459533691, 0.3197101354598999, -0.05206006020307541, -0.2570221424102783, -0.06397046148777008, -0.19610069692134857, -0.0524674728512764, 0.36249852180480957, 0.2587162256240845, 0.11200954765081406, 0.2162851095199585, -0.3184047043323517, 0.0967666506767273, -0.3326159119606018, 0.09450408071279526, 0.2972324788570404, -0.3461622893810272, 0.2121952623128891, 0.21427901089191437, -0.16882465779781342, -0.09190361201763153, 0.016020914539694786, -0.11113221198320389, -0.3295525014400482, -0.3945525586605072, -0.0825924426317215, 0.27524057030677795, -0.11869475990533829, -0.014167247340083122, -0.1037563681602478, -0.10948280245065689, -0.24178947508335114, 0.29750069975852966, 0.06958180665969849, 0.43099379539489746, 0.1007363572716713, -0.14957356452941895, 0.10747834295034409, 0.02054356224834919, 0.11269483715295792, -0.07544998079538345, 0.06667982041835785, 0.08097323775291443, 0.07385995239019394, 0.14536720514297485, 0.23459619283676147, 0.025391727685928345, -0.2220223844051361, 0.011600279249250889, -0.14559248089790344], [0.04237738624215126, 0.0829147920012474, -0.3280199468135834, 0.38562193512916565, -0.019145585596561432, -0.18245819211006165, 0.23241811990737915, -0.28265461325645447, -0.4656417965888977, 0.12731994688510895, -0.17651832103729248, -0.21216993033885956, 0.14832980930805206, -0.07390503585338593, 0.1434244066476822, 0.0794440507888794, 0.16270184516906738, 0.07977575808763504, -0.05589814856648445, 0.06279055774211884, -0.05426555499434471, 0.13215045630931854, 0.19222579896450043, -0.23131591081619263, 0.19381457567214966, -0.2537620961666107, 0.10853438824415207, 0.32266709208488464, -0.07719062268733978, 0.05516480281949043, 0.1311328411102295, 0.18457378447055817, -0.46690237522125244, 0.06492631137371063, -0.4130595922470093, 0.07230252027511597, 0.2345268279314041, -0.08408550173044205, -0.24642899632453918, -0.07857559621334076, -0.0034618298523128033, -0.32174888253211975, -0.01767812669277191, -0.16124838590621948, 0.5298839807510376, -0.4552374482154846, -0.19312767684459686, 0.0808303952217102, 0.3979959487915039, 0.15832902491092682, -0.1303829550743103, 0.08770344406366348, 0.09435068070888519, 0.09359433501958847, 0.1321403980255127, -0.18984735012054443, 0.2788999378681183, 0.02370787411928177, -0.38352593779563904, -0.013633555732667446, -0.0861741229891777, -0.22227847576141357, -0.0937570109963417, 0.15508347749710083], [-0.005439303815364838, -0.2853911817073822, -0.20059961080551147, 0.056317251175642014, -0.2887192368507385, 0.2288586050271988, -0.02617391012609005, -0.27138158679008484, -0.1829938441514969, 0.25854504108428955, -0.31427404284477234, -0.07480869442224503, 0.3698466718196869, 0.06269285082817078, 0.34330669045448303, 0.27722403407096863, -0.1459760069847107, 0.25168830156326294, -0.5401661992073059, 0.14144572615623474, -0.24766407907009125, 0.09167008101940155, 0.5132531523704529, -0.13036617636680603, 0.3757345378398895, -0.09182310849428177, -0.017630061134696007, -0.22458714246749878, -0.1701669692993164, 0.09842775017023087, -0.35257452726364136, 0.039824455976486206, 0.04251382499933243, -0.068489208817482, 0.25626298785209656, -0.022308047860860825, 0.5012714266777039, -0.24891532957553864, -0.2521088719367981, -0.2261844277381897, -0.1492915153503418, -0.2290189117193222, -0.0016828584484755993, -0.5872243642807007, -0.013934988528490067, -0.4114362895488739, 0.18940190970897675, 0.3512064516544342, 0.210187166929245, -0.02616247534751892, -0.08510056883096695, 0.3732738792896271, 0.2720160484313965, -0.1360917091369629, 0.23428647220134735, 0.05075891688466072, 0.3546236455440521, -0.35107186436653137, -0.30694571137428284, 0.0283709317445755, 0.2263088971376419, -0.2794601619243622, -0.08799853920936584, 0.35220444202423096], [-0.009940589778125286, 0.36512285470962524, 0.1520252674818039, -0.4356671869754791, -0.022877059876918793, 0.3254906237125397, 0.08680448681116104, -0.03127333149313927, 0.20608818531036377, 0.07904571294784546, -0.2962717115879059, 0.0979163721203804, 0.245200976729393, 0.2684066593647003, -0.11534406244754791, 0.10489613562822342, -0.1884506642818451, -0.1453981250524521, -0.05995522812008858, 0.01742996647953987, -0.24515967071056366, 0.07216978073120117, 0.5132781267166138, -0.2980029881000519, -0.396200954914093, 0.022267984226346016, -0.22570328414440155, 0.28448358178138733, -0.014293435029685497, -0.43470561504364014, -0.13862478733062744, -0.06265126913785934, -0.31525152921676636, 0.2665484547615051, 0.07761862128973007, -0.05647429823875427, -0.05822472646832466, -0.13310837745666504, 0.09773656725883484, -0.24265329539775848, 0.0949140340089798, 0.20243196189403534, 0.1701098084449768, -0.07733471691608429, -0.06588689982891083, 0.04131874069571495, -0.37072238326072693, -0.06435946375131607, 0.3807320296764374, -0.061849236488342285, 0.4236602187156677, -0.1586640179157257, -0.003075782908126712, -0.02413436770439148, 0.10511863976716995, -0.0651656836271286, 0.020231155678629875, -0.1357918381690979, -0.12756644189357758, -0.08249099552631378, 0.10222975164651871, 0.3007015287876129, -0.21397767961025238, -0.4395710825920105], [-0.13838553428649902, 0.03602881729602814, -0.20181775093078613, -0.13960255682468414, 0.09688224643468857, 0.4629895091056824, 0.08310984820127487, 0.0607609748840332, -0.2184840589761734, -0.09222692996263504, -0.3284056782722473, -0.4731241762638092, 0.13503281772136688, 0.49044278264045715, -0.06558866053819656, -0.2921256124973297, -0.2666703164577484, 0.2996062636375427, -0.20730796456336975, 0.047490160912275314, -0.18958896398544312, 0.11880754679441452, -0.1945706158876419, 0.04498651623725891, -0.29812532663345337, 0.02456989884376526, 0.1277022510766983, 0.2502702474594116, -0.09719410538673401, -0.16135254502296448, -0.1467958390712738, -0.19615034759044647, 0.2238108068704605, 0.4704694151878357, 0.044695913791656494, -0.3991410732269287, -0.2883780300617218, -0.12883982062339783, 0.02050957642495632, -0.11023685336112976, -0.34038791060447693, 0.1384333074092865, 0.4149417579174042, -0.13039904832839966, 0.08551210910081863, 0.07925640046596527, -0.25193488597869873, -0.10286449640989304, -0.1698824167251587, -0.09248977899551392, 0.11175303161144257, 0.11631807684898376, 0.027408834546804428, -0.21194973587989807, 0.2475375086069107, -0.07895821332931519, 0.5082486271858215, -0.019403181970119476, -0.36492016911506653, -0.1808018535375595, -0.11540498584508896, 0.4362075626850128, -0.23110032081604004, -0.1043686792254448], [0.1146823912858963, -0.36711129546165466, 0.15008148550987244, 0.3557848632335663, -0.06420940905809402, -0.109980508685112, -0.1263854056596756, 0.4551682770252228, 0.11217937618494034, -0.11175107210874557, 0.06473152339458466, -0.037003420293331146, -0.24717971682548523, -0.0955863818526268, -0.31490111351013184, -0.18991601467132568, 0.2804296612739563, 0.194550558924675, 0.11828642338514328, -0.030210213735699654, 0.07164445519447327, -0.04165603592991829, -0.09705135971307755, 0.377435564994812, -0.009327971376478672, -0.2386792153120041, 0.17242635786533356, -0.07885531336069107, 0.16540201008319855, -0.01639304868876934, 0.0961587056517601, -0.06708892434835434, -0.011797640472650528, -0.49226269125938416, -0.268200546503067, 0.0693276971578598, 0.4730289578437805, 0.167451873421669, 0.024931887164711952, 0.1419888734817505, 0.005034885834902525, 0.19681482017040253, -0.11399021744728088, 0.041208889335393906, -0.18528002500534058, 0.4103991687297821, -0.17754918336868286, 0.11329642683267593, 0.26636216044425964, 0.10189969837665558, 0.28843528032302856, 0.15353615581989288, -0.2436474859714508, -0.07018037140369415, -0.205960214138031, -0.0025466668885201216, -0.3193119764328003, -0.12222038954496384, 0.17197805643081665, 0.06628656387329102, -0.06987205147743225, 0.11288415640592575, -0.0348389632999897, -0.17741119861602783], [0.07371383905410767, -0.08941719681024551, 0.127066507935524, 0.3016735315322876, -0.471670538187027, -0.1335415244102478, 0.10306499898433685, 0.03575742617249489, -0.1011027842760086, -0.4559430181980133, -0.06059080362319946, 0.2846794128417969, 0.09765364229679108, -0.09600061178207397, -0.043789178133010864, 0.11649101972579956, 0.07979883253574371, -0.04390312358736992, -0.03434165194630623, -0.41265764832496643, 0.35083845257759094, -0.041518598794937134, -0.014645099639892578, 0.23670223355293274, -0.19228386878967285, 0.16867034137248993, 0.26323890686035156, -0.41769853234291077, 0.38109010457992554, -0.04681063070893288, -0.058141618967056274, 0.34772026538848877, -0.05883107706904411, -0.08707846701145172, -0.17714792490005493, 0.26534876227378845, 0.27967554330825806, 0.046897947788238525, -0.09319119155406952, 0.02690424956381321, -0.2218896597623825, 0.10439332574605942, -0.43969908356666565, 0.39403390884399414, 0.03731653466820717, -0.039563875645399094, 0.48832467198371887, -0.028941035270690918, 0.12499091774225235, 0.3057561218738556, -0.3858233392238617, -0.1503491997718811, -0.03995179384946823, -0.0032977473456412554, -0.028123410418629646, -0.09744217246770859, -0.041824277490377426, 0.11065400391817093, 0.4729113280773163, 0.08733178675174713, 0.03453017771244049, 0.07010819017887115, -0.26969146728515625, 0.16397984325885773], [-0.1440320611000061, 0.01000902708619833, -0.03613442927598953, -0.14687615633010864, 0.011320745572447777, -0.04963228479027748, -0.1715453714132309, -0.11230184137821198, -0.18309758603572845, -0.04960145428776741, -0.48257482051849365, -0.32033827900886536, -0.11242351680994034, -0.12258677184581757, 0.2432226687669754, 0.3227216601371765, 0.03849835693836212, 0.05260287597775459, -0.12114124000072479, 0.17174062132835388, -0.2667958736419678, 0.11751751601696014, 0.3737269639968872, 0.10511235892772675, -0.10410549491643906, 0.001655435306020081, 0.13156042993068695, 0.0039100563153624535, -0.3230089843273163, -0.1264607161283493, 0.008055731654167175, -0.01863729953765869, -0.13347947597503662, -0.4324871003627777, 0.20309428870677948, 0.1587934046983719, -0.1972758024930954, -0.02724504843354225, -0.2753852903842926, -0.36590611934661865, -0.18777158856391907, -0.21568845212459564, 0.08213140815496445, -0.5625383257865906, 0.1937946081161499, -0.3388438820838928, 0.32647964358329773, -0.4361545145511627, -0.047453008592128754, 0.10401663184165955, 0.11102668941020966, -0.045352742075920105, 0.016799859702587128, 0.27520108222961426, 0.054707467555999756, -0.15448614954948425, 0.315223753452301, -0.04277992621064186, -0.6105284094810486, 0.3443843424320221, -0.13914918899536133, -0.09565974771976471, -0.1774517297744751, 0.2383459359407425], [0.0024677736219018698, -0.2802439033985138, 0.29694893956184387, -0.25869256258010864, 0.14508897066116333, 0.12576550245285034, -0.06149392947554588, -0.13763213157653809, 0.2782382369041443, 0.14239168167114258, -0.02752680703997612, 0.20331428945064545, 0.2217818647623062, -0.3142930269241333, -0.3259057104587555, -0.17191177606582642, 0.05425768718123436, -0.1291324645280838, 0.2500389516353607, -0.5947237014770508, 0.49376022815704346, -0.2949669659137726, -0.8185265064239502, 0.11679035425186157, -0.19815999269485474, 0.059654541313648224, -0.11194907873868942, -0.43653157353401184, -0.23279808461666107, 0.04066428169608116, 0.4101712107658386, 0.32810279726982117, 0.13124582171440125, 0.0560699887573719, -0.19207389652729034, 0.07765430957078934, -0.30552932620048523, 0.38524487614631653, 0.3455124795436859, 0.14798112213611603, -0.011702356860041618, 0.1781487911939621, 0.16934099793434143, 0.3018137514591217, -0.12226103991270065, 0.21602100133895874, -0.2793559730052948, -0.053171541541814804, 0.12709711492061615, -0.055302321910858154, 0.24576781690120697, 0.08998565375804901, -0.037722259759902954, -0.09118451923131943, 0.11808402091264725, 0.05631731450557709, -0.49564334750175476, 0.006541072390973568, 0.27375444769859314, 0.15683768689632416, -0.012096070684492588, 0.21787355840206146, -0.0001692854566499591, -0.4119555950164795], [0.1811821311712265, -0.23639808595180511, -0.5325967073440552, 0.33689984679222107, -0.17338010668754578, -0.25476184487342834, 0.09848479926586151, -0.011255033314228058, 0.2661322057247162, -0.2998420298099518, 0.07973955571651459, 0.043685149401426315, -0.0599820576608181, -0.033458516001701355, -0.13939730823040009, 0.35620051622390747, 0.25191599130630493, 0.10024744272232056, -0.21245121955871582, 0.37755709886550903, 0.09589026123285294, 0.10408312827348709, 0.21069416403770447, 0.29016607999801636, 0.27416446805000305, 0.17231182754039764, 0.25479966402053833, 0.165562704205513, -0.137342169880867, 0.5741525888442993, 0.1349383294582367, 0.3241763114929199, -0.10097555816173553, -0.31860819458961487, 0.06423360854387283, 0.28669053316116333, 0.015063496306538582, 0.06760147213935852, -0.01807842217385769, 0.06635848432779312, -0.22407680749893188, -0.32546332478523254, 0.029965676367282867, -0.07766914367675781, -0.16683320701122284, -0.4004238545894623, 0.4756315350532532, -0.2428731471300125, 0.6282711029052734, -0.15055982768535614, -0.24177157878875732, 0.043855275958776474, 0.07454738765954971, -0.11245258897542953, 0.04622986912727356, -0.05625854805111885, 0.057119447737932205, 0.1470765322446823, 0.37588998675346375, -0.0764828696846962, 0.014289342798292637, -0.22092029452323914, 0.3012722432613373, 0.023865409195423126], [-0.02932603657245636, -0.051513757556676865, -0.38557010889053345, 0.10093975067138672, 0.1709808111190796, -0.460324764251709, -0.032861508429050446, 0.05051778629422188, -0.0004747332714032382, 0.12096337974071503, 0.05596015602350235, 0.0024149203673005104, -0.4391079246997833, -0.08269615471363068, 0.019198982045054436, -0.015487116761505604, 0.29420343041419983, 0.21863308548927307, -0.29898741841316223, -0.25668278336524963, 0.4108940362930298, -0.024830743670463562, 0.4086277484893799, 0.01525581069290638, 0.3138897120952606, 0.04432571679353714, 0.06502829492092133, -0.08958954364061356, 0.15814737975597382, 0.1181744709610939, -0.003150800708681345, -0.2004387378692627, 0.04732567444443703, -0.10295385122299194, 0.2355446070432663, 0.06557134538888931, 0.36592045426368713, 0.22264288365840912, -0.33808445930480957, 0.24835312366485596, 0.12144160270690918, -0.10969951748847961, -0.2331596314907074, 0.1060580313205719, 0.0824715867638588, -0.4937060475349426, 0.20080015063285828, -0.33915477991104126, 0.11213964968919754, -0.11723248660564423, -0.18489858508110046, -0.05123833939433098, 0.39264976978302, -0.22867809236049652, 0.06349640339612961, -0.15904365479946136, 0.2023579180240631, -0.144294872879982, 0.08830485492944717, 0.25797155499458313, 0.12362518906593323, -0.12955239415168762, -0.12109450250864029, -0.16181111335754395], [0.2518328130245209, -0.009712610393762589, 0.07188770174980164, 0.12798330187797546, 0.17460127174854279, -0.267375111579895, -0.029831629246473312, -0.11037327349185944, 0.014396099373698235, -0.418997198343277, 0.16509027779102325, 0.3229425847530365, -0.057061389088630676, -0.10650230944156647, -0.2286256104707718, -0.031307339668273926, 0.09775052219629288, 0.014191731810569763, -0.028517283499240875, -0.0178103968501091, 0.43643105030059814, -0.4582335352897644, -0.19164174795150757, 0.03426266089081764, 0.2649174630641937, -0.08978782594203949, -0.025756478309631348, -0.3318428695201874, 0.12353544682264328, 0.20445440709590912, -0.13160839676856995, 0.010249505750834942, -0.15604743361473083, 0.09419889003038406, -0.2270795851945877, 0.09032606333494186, -0.07525662332773209, 0.0468246154487133, -0.08072371035814285, 0.5386677980422974, -0.0353877954185009, 0.14697827398777008, -0.056875377893447876, -0.007439743727445602, -0.13318106532096863, 0.44850972294807434, 0.0962340235710144, -0.3764880895614624, 0.33466899394989014, -0.2785806953907013, -0.32400214672088623, 0.034241933375597, -0.31861254572868347, 0.2953302562236786, -0.15046197175979614, 0.16227476298809052, -0.2581864297389984, 0.007604474201798439, -0.001200911239720881, 0.13144434988498688, 0.323831707239151, 0.24773049354553223, -0.012470301240682602, 0.11970914900302887], [-0.24313335120677948, 0.018137870356440544, -0.4857173562049866, 0.013920950703322887, 0.2761024534702301, 0.23250499367713928, 0.21458007395267487, -0.392046183347702, -0.16869083046913147, -0.12186260521411896, 0.09130606800317764, -0.13318994641304016, -0.16953422129154205, -0.1805720180273056, 0.3808879256248474, 0.16972698271274567, -0.17681898176670074, -0.08208133280277252, -0.17055490612983704, 0.14952842891216278, 0.0849686786532402, 0.1261185258626938, 0.13506317138671875, 0.04378698021173477, -0.44359588623046875, -0.13921812176704407, -0.44945773482322693, 0.3116465210914612, -0.00866243988275528, -0.2230565845966339, -0.22567954659461975, 0.012779701501131058, -0.09175384044647217, -0.10938248038291931, 0.11932109296321869, 0.12221778184175491, 0.12575404345989227, -0.02177056111395359, 0.18836209177970886, 0.02050548978149891, -0.28558045625686646, 0.07184500992298126, 0.01265749055892229, -0.08785068243741989, -0.2233588546514511, 0.0807008445262909, -0.39884212613105774, -0.07880350202322006, -0.2016078531742096, -0.1384439319372177, 0.21581241488456726, 0.3834531605243683, 0.25568249821662903, -0.06930063664913177, -0.010827438905835152, -0.043635040521621704, 0.32077938318252563, 0.3082353174686432, -0.2965000867843628, 0.030771754682064056, 5.814540418214165e-05, -0.12643322348594666, 0.185958594083786, 0.19105233252048492], [-0.045273054391145706, -0.00018527641077525914, 0.13772325217723846, -0.3116804361343384, -0.11055546253919601, 0.5612086653709412, -0.17216315865516663, 0.07559338957071304, 0.033444397151470184, -0.06393522769212723, 0.20115569233894348, -0.6550889611244202, -0.11707880347967148, 0.15783514082431793, -0.2012636512517929, 0.06966482847929001, -0.2623829245567322, -0.2595999538898468, -0.17226842045783997, 0.12663331627845764, -0.14446739852428436, -0.061200596392154694, 0.011762297712266445, -0.37391045689582825, 0.15906453132629395, -0.21613502502441406, -0.15728887915611267, 0.056792620569467545, -0.13032516837120056, -0.5302883982658386, 0.12018802016973495, -0.17943468689918518, 0.16888457536697388, 0.475473016500473, -0.004270350094884634, 0.029142292216420174, 0.009436712600290775, -0.15839427709579468, 0.2519055902957916, -0.05416528135538101, -0.3845846652984619, 0.09813538938760757, 0.16361989080905914, 0.13366611301898956, -0.02131318487226963, -0.30211126804351807, -0.37109118700027466, -0.07716616243124008, -0.21217770874500275, 0.20804888010025024, 0.25073444843292236, 0.014318916946649551, -0.14036136865615845, 0.37947121262550354, 0.04253779351711273, 0.0951152816414833, -0.0067527745850384235, -0.10767757892608643, 0.018587978556752205, 0.14221255481243134, -0.0033540877047926188, 0.04934287071228027, -0.17087480425834656, -0.10146372020244598], [0.2940606474876404, -0.04446083679795265, 0.3012818694114685, 0.23028092086315155, -0.4852122962474823, -0.03672084957361221, 0.20415259897708893, 0.10520726442337036, -0.0975235104560852, -0.15420402586460114, 0.4400424659252167, 0.21290048956871033, 0.3736196458339691, 0.040862128138542175, 0.09234835207462311, 0.23335860669612885, 0.6651378273963928, -0.04255843907594681, 0.113410085439682, -0.3846585154533386, -0.008150475099682808, -0.0500313900411129, -0.001751678646542132, 0.3461855947971344, 0.1703389585018158, -0.41603365540504456, -0.007056638598442078, -0.22851724922657013, -0.057695742696523666, 0.3569072186946869, -0.2578163146972656, -0.03999565541744232, 0.3396610617637634, -0.23011848330497742, -0.17984968423843384, 0.009299718774855137, 0.16550922393798828, 0.22496743500232697, -0.2372322827577591, 0.03719555214047432, 0.28573641180992126, -0.05143365636467934, 0.07451121509075165, 0.15948601067066193, -0.3252263367176056, -0.2874787449836731, 0.17229622602462769, -0.32598164677619934, 0.11503815650939941, 0.07695813477039337, -0.011466787196695805, -0.5107154846191406, 0.2008507400751114, 0.30587467551231384, 0.09772361069917679, -0.02500520460307598, -0.16340959072113037, -0.1189102977514267, 0.09700305014848709, -0.29109567403793335, 0.016715222969651222, 0.07195049524307251, -0.23761917650699615, 0.11975962668657303], [-0.0354580394923687, -0.05408582463860512, 0.383096843957901, 0.14629587531089783, 0.23871125280857086, 0.4661096930503845, 0.0002772793231997639, 0.36832553148269653, 0.08725251257419586, -0.15978683531284332, 0.06836286932229996, 0.28216561675071716, -0.012747537344694138, -0.2539590001106262, -0.17631511390209198, -0.10337875783443451, 0.277744859457016, -0.35748547315597534, -0.13332684338092804, -0.18929754197597504, 0.03270673751831055, -0.3429303765296936, -0.2988409996032715, 0.1348326951265335, -0.12368660420179367, -0.06997703015804291, -0.09829939156770706, -0.27218863368034363, -0.3336329162120819, -0.24386553466320038, 0.24257820844650269, 0.041273437440395355, 0.14768725633621216, -0.13287484645843506, -0.4132501482963562, -0.28820687532424927, -0.2844509184360504, -0.050428830087184906, 0.024114852771162987, 0.3362114131450653, 0.18727511167526245, 0.415078341960907, -0.041474707424640656, 0.3669865131378174, -0.046877045184373856, 0.16413459181785583, 0.15651752054691315, 0.050471238791942596, 0.18256977200508118, -0.10508055239915848, -0.32938316464424133, -0.22959740459918976, 0.13168641924858093, -0.14731866121292114, -0.6526154279708862, -0.07946213334798813, -0.23237618803977966, -0.18513156473636627, 0.3061661720275879, -0.16421741247177124, 0.03960477560758591, -0.043361764401197433, -0.030123353004455566, -0.23503516614437103], [-0.11394117027521133, 0.3321652412414551, 0.33173322677612305, -0.4322330355644226, 0.19883398711681366, 0.08551980555057526, -0.3180173337459564, 0.08802583813667297, -0.1319780945777893, 0.1269170343875885, -0.42378947138786316, -0.5001806616783142, 0.04406468942761421, 0.18357501924037933, 0.17782774567604065, 0.25393861532211304, 0.1464921236038208, -0.02704734541475773, 0.03719388693571091, 0.1108538806438446, -0.17424948513507843, 0.06989732384681702, 0.0057816701009869576, -0.16612450778484344, -0.260206937789917, 0.01949002966284752, -0.12399812042713165, 0.292194128036499, 0.04149458929896355, -0.020625442266464233, -0.5217170715332031, -0.2821476459503174, 0.13146373629570007, 0.4805344045162201, 0.11095613986253738, -0.16526232659816742, -0.13762085139751434, -0.31573590636253357, 0.3180576264858246, -0.08821411430835724, -0.30330684781074524, -0.15740995109081268, -0.08900905400514603, -0.5319809317588806, -0.09697972983121872, -0.24774520099163055, -0.39873743057250977, 0.1794724017381668, 0.1334134191274643, 0.2271421104669571, 0.10426067560911179, 0.008109897375106812, 0.10070481151342392, -0.28723037242889404, -0.013383776880800724, -0.2357856184244156, -0.02418644167482853, 0.06648050248622894, -0.061994049698114395, -0.11529776453971863, -0.06551440805196762, -0.15329435467720032, -0.29317906498908997, 0.2358086258172989], [-0.1271066814661026, -0.049248479306697845, 0.287026971578598, -0.13200318813323975, 0.1365760713815689, 0.20512337982654572, -0.45034733414649963, -0.010190778411924839, 0.06714855134487152, 0.22230318188667297, 0.15265639126300812, -0.0658017098903656, 0.0229351744055748, -0.00608959561213851, -0.1464102566242218, -0.17577213048934937, -0.25601503252983093, -0.39662113785743713, -0.046025075018405914, 0.06951536983251572, 0.24984782934188843, -0.1554270088672638, -0.278720885515213, -0.11737673729658127, -0.2525205910205841, -0.055098626762628555, 0.022430522367358208, 0.27470093965530396, -0.020963650196790695, -0.3777477443218231, -0.08512488007545471, 0.16971546411514282, -0.1053677350282669, 0.06460180133581161, -0.3801557719707489, -0.07390790432691574, -0.4756828248500824, 0.015293100848793983, 0.1603984534740448, 0.10356824100017548, -0.07898356020450592, 0.4290454685688019, -0.203013613820076, -0.12954621016979218, 0.08489993214607239, 0.41587820649147034, -0.3652419447898865, -0.2635361850261688, -0.6898709535598755, -0.3818161189556122, 0.21179862320423126, 0.05066579207777977, -0.1381329447031021, -0.21011348068714142, 0.3314270079135895, 0.040463242679834366, -0.28415778279304504, -0.31008508801460266, 0.3645571768283844, -0.564014732837677, -0.1599166840314865, 0.13262799382209778, -0.1223728209733963, -0.4017776846885681], [-0.3404040038585663, 0.017790965735912323, 0.03830502927303314, -0.18432903289794922, 0.2716110348701477, 0.45791950821876526, -0.1257791519165039, 0.043004415929317474, 0.3281261920928955, 0.3371918797492981, 0.12648911774158478, -0.1822248250246048, 0.06469728797674179, 0.5691216588020325, 0.41311436891555786, 0.03414914757013321, -0.12338519096374512, 0.17880934476852417, -0.005261458456516266, 0.2478189468383789, -0.022939832881093025, -0.15276093780994415, -0.164794921875, 0.020020103082060814, -0.1645016074180603, -0.013520080596208572, -0.2605742812156677, 0.1600421667098999, -0.2928909957408905, -0.1303280144929886, -0.3640906512737274, -0.1421361267566681, -0.2759372293949127, 0.15535017848014832, -0.0753316804766655, -0.30047374963760376, 0.042546674609184265, -0.3658354580402374, 0.05782671645283699, -0.3623414635658264, -0.0760931670665741, -0.15902653336524963, 0.07603553682565689, -0.025408215820789337, 0.15288934111595154, -0.00020290823886170983, -0.11940030008554459, -0.026831498369574547, -0.005810300353914499, 0.3653673529624939, -0.13183583319187164, 0.07095178961753845, 0.09462686628103256, 0.19013400375843048, 0.3304440677165985, -0.35151317715644836, -0.10494446754455566, 0.02483801543712616, -0.07803891599178314, 0.20036013424396515, -0.21468880772590637, 0.12281971424818039, -0.29851382970809937, -0.1613314002752304], [0.243354931473732, -0.20620441436767578, -0.49060121178627014, 0.1368822306394577, 0.06392794102430344, -0.34733548760414124, 0.15709364414215088, -0.18150615692138672, -0.351952463388443, -0.1475740671157837, -0.1384231597185135, 0.6175749897956848, -0.17005246877670288, 0.0717032253742218, -0.009530448354780674, -0.17531201243400574, 0.1851762980222702, 0.058976419270038605, -0.0009547802619636059, 0.22014844417572021, -0.11776299774646759, 0.06847177445888519, 0.2600991725921631, 0.3748158812522888, 0.2842708230018616, -0.1045411005616188, 0.08243389427661896, -0.22610796988010406, 0.048957742750644684, 0.26486554741859436, -0.20334969460964203, 0.24340277910232544, 0.0004400309408083558, -0.3089161217212677, 0.28337180614471436, -0.054451391100883484, 0.023401085287332535, 0.06541002541780472, -0.4339209496974945, 0.1124812439084053, -0.1949014514684677, 0.012901906855404377, 0.004310435615479946, 0.10709506273269653, 0.09369489550590515, -0.28297144174575806, -0.003426174633204937, -0.13976484537124634, 0.31824445724487305, 0.43575939536094666, -0.06779171526432037, -0.2060157060623169, -0.09715384244918823, 0.07360377907752991, 0.14811626076698303, 0.1780461072921753, -0.013963810168206692, -0.15233786404132843, 0.2753828763961792, 0.24421437084674835, 0.00865813810378313, -0.7387891411781311, 0.02717074193060398, 0.24201135337352753], [-0.34601470828056335, 0.15868757665157318, -0.20795467495918274, -0.5916984677314758, -0.06891247630119324, 0.3807443380355835, -0.20120710134506226, -0.17470397055149078, -0.24718314409255981, 0.44122958183288574, -0.3961181044578552, -0.40886393189430237, 0.05066535994410515, 0.2849544584751129, 0.09614542126655579, 0.32827237248420715, 0.0507768839597702, -0.16153044998645782, -0.12130267173051834, 0.11143562197685242, -0.06473476439714432, -0.03509829193353653, -0.18819685280323029, -0.16230660676956177, 0.10633032768964767, 0.15147407352924347, -0.3087458908557892, 0.3140011727809906, -0.052090711891651154, -0.08365543186664581, 0.011042059399187565, -0.35840904712677, 0.07600405067205429, 0.019943280145525932, -0.06280216574668884, -0.06641652435064316, -0.24805040657520294, 0.07265736907720566, 0.209121972322464, -0.08138658106327057, -0.3259117901325226, 0.32293814420700073, 0.037047676742076874, 0.25942105054855347, 0.0969049334526062, 0.4750475287437439, -0.13971759378910065, 0.32006728649139404, -0.15927854180335999, 0.1281965672969818, 0.21923154592514038, -0.05243988335132599, -0.12570424377918243, 0.18521343171596527, 0.018208950757980347, -0.16722731292247772, -0.015058495104312897, 0.12548547983169556, -0.19854868948459625, -0.36757946014404297, 0.17890238761901855, 0.20149654150009155, -0.27082401514053345, -0.3562048375606537], [0.2386467605829239, -0.0693592056632042, 0.18484975397586823, -0.09144189953804016, 0.2828477919101715, 0.13515402376651764, -0.23479260504245758, 0.2926124334335327, 0.16422432661056519, -0.0021213225554674864, 0.41033682227134705, 0.0015363089041784406, -0.045728784054517746, -0.045549314469099045, 0.033311158418655396, 0.032937224954366684, -0.28638190031051636, -0.2912651598453522, 0.04826600104570389, -0.6175520420074463, 0.03964843600988388, -0.0691937506198883, -0.12092897295951843, 0.1927863359451294, 0.07418574392795563, 0.723347008228302, -0.0372922308743, -0.07943546772003174, -0.11502944678068161, -0.22425664961338043, 0.048616986721754074, -0.07642526179552078, 0.0229365061968565, 0.02564055100083351, -0.30004414916038513, -0.30884692072868347, -0.3786551356315613, 0.09264039248228073, 0.2056122124195099, -0.150166317820549, -0.09326028823852539, 0.08671457320451736, -0.14260780811309814, 0.3720724284648895, -0.03578675538301468, 0.3532297909259796, -0.5982183814048767, 0.04500660300254822, -0.0036979629658162594, -0.25613585114479065, 0.23017044365406036, 8.650899690110236e-05, -0.3300245702266693, 0.09082800894975662, -0.050406407564878464, -0.18319109082221985, -0.12808524072170258, -0.15279436111450195, 0.0059248642064630985, -0.29765748977661133, 0.015175387263298035, 0.23925791680812836, 0.015598379075527191, 0.0915769413113594], [-0.02374662458896637, -0.06078096851706505, -0.00390873197466135, 0.3365115523338318, -0.5138940215110779, 0.02490176446735859, 0.08053755015134811, 0.2661137878894806, 0.09093298763036728, 0.06160374730825424, -0.07643336057662964, 0.1207621768116951, -0.010935618542134762, -0.06885892152786255, 0.1537284255027771, 0.01823241636157036, 0.1271090805530548, 0.049912769347429276, 0.07859694212675095, 0.0575593039393425, -0.16336770355701447, -0.2314901500940323, -0.01109094638377428, -0.11148122698068619, 0.23514217138290405, -0.24906368553638458, -0.3200632333755493, -0.2695583701133728, 0.15597964823246002, 0.15175525844097137, -0.17056986689567566, -0.28680017590522766, -0.09469987452030182, 0.20221950113773346, -0.396788090467453, -0.2063702940940857, -0.299199640750885, 0.21938656270503998, -0.09488961845636368, -0.478477418422699, 0.1929856538772583, -0.08695659786462784, -0.2597600221633911, 0.1211804524064064, -0.3372544050216675, -0.12252193689346313, 0.4314937889575958, -0.051235683262348175, 0.3039262890815735, -0.052877988666296005, 0.1039760559797287, -0.21805211901664734, -0.030719265341758728, -0.011893711052834988, 0.05161510035395622, 0.10704415291547775, 0.1718568354845047, 0.015023314394056797, 0.20089462399482727, 0.2794835865497589, -0.0603717602789402, -0.16556744277477264, -0.23169328272342682, 0.16656461358070374], [-0.3416599631309509, 0.1829492747783661, 0.11817404627799988, 0.03492363169789314, 0.09581530094146729, -0.1356099545955658, -0.03265523910522461, 0.48709794878959656, -0.04045626521110535, 0.10958939045667648, 0.47864627838134766, 0.34436848759651184, 0.2064676284790039, -0.10829567909240723, -0.3088321089744568, -0.40730077028274536, 0.12602196633815765, -0.17088928818702698, 0.10944724828004837, -0.2101365476846695, 0.19417206943035126, -0.27622362971305847, -0.11645866185426712, -0.08656399697065353, -0.1611098051071167, 0.1701090782880783, 0.25221553444862366, -0.3737664222717285, 0.1024450808763504, 0.10311310738325119, 0.1528288573026657, 0.19951429963111877, 0.2002272754907608, 0.1337679773569107, -0.35601645708084106, -0.1346263587474823, -0.18394868075847626, 0.3576826751232147, 0.0966440737247467, 0.019590098410844803, -0.1832360327243805, 0.18711231648921967, -0.18651089072227478, -0.06308697164058685, -0.42958396673202515, 0.2720542252063751, 0.07645659893751144, -0.09536515921354294, 0.0679585188627243, 0.1478831022977829, 0.1983521580696106, 0.2626202404499054, 0.0696316808462143, 0.45893430709838867, -0.2725006937980652, -0.05580970272421837, -0.11291500180959702, -0.02226094901561737, 0.15044008195400238, -0.22846820950508118, 0.12212397903203964, -0.07840995490550995, 0.0101833650842309, -0.3701188564300537], [-0.21181344985961914, 0.19283105432987213, 0.09707678109407425, -0.38313043117523193, 0.2709128260612488, 0.17139029502868652, -0.10749873518943787, -0.024076180532574654, 0.24877800047397614, 0.010498475283384323, 0.2652836740016937, -0.19437462091445923, 0.3722288906574249, 0.3426339030265808, -0.1051262840628624, -0.04845057427883148, 0.006297299638390541, 0.07713058590888977, -0.5782476663589478, -0.0565776601433754, -0.32101738452911377, 0.08046364039182663, -0.2700749337673187, -0.1646326184272766, -0.38776469230651855, 0.26972562074661255, -0.25515586137771606, -0.07449158281087875, -0.2876584529876709, -0.31875938177108765, 0.002827944466844201, -0.12777197360992432, -0.08131808787584305, 0.40038833022117615, -0.12429659813642502, 0.07357988506555557, -0.2948854863643646, 0.20162314176559448, 0.36204737424850464, 0.2874901294708252, 0.21246865391731262, 0.3335552215576172, -0.07602784037590027, 0.11100281774997711, 0.18991272151470184, 0.17153020203113556, -0.13147082924842834, 0.15520469844341278, -0.36355486512184143, 0.04318247362971306, 0.47924792766571045, 0.13284426927566528, -0.4277782142162323, -0.06886701285839081, -0.09623856097459793, -0.033471450209617615, -0.25709980726242065, 0.06323661655187607, -0.13870181143283844, -0.2130601555109024, -0.45772939920425415, 0.10664170235395432, -0.2738304138183594, -0.09737158566713333], [0.06834915280342102, -0.27866026759147644, 0.016039660200476646, 0.2707575261592865, -0.5011910796165466, -0.7013064622879028, 0.19473712146282196, -0.003083291929215193, -0.2258477807044983, -0.27685028314590454, 0.11120295524597168, 0.3529040515422821, -0.06695085763931274, -0.2412508726119995, 0.2009698450565338, 0.1230584979057312, 0.14353463053703308, 0.1765887290239334, -0.09673061966896057, 0.0361703485250473, 0.16283297538757324, 0.2047225683927536, 0.18441107869148254, 0.40477490425109863, 0.1865490972995758, -0.009487152099609375, 0.06287077069282532, -0.39054861664772034, 0.20694327354431152, 0.3890126943588257, 0.3099047541618347, -0.03459225222468376, -0.032331060618162155, -0.21114392578601837, -0.2588675022125244, -0.5248895883560181, 0.39117589592933655, -0.2350974678993225, 0.13573703169822693, 0.15950900316238403, 0.04223962500691414, 0.21450182795524597, 0.040172774344682693, -0.11923771351575851, -0.018923599272966385, -0.29635539650917053, 0.5357334017753601, -0.11976845562458038, 0.4160904884338379, -0.20738473534584045, -0.027026765048503876, -0.37942764163017273, 0.21929438412189484, 0.1195327565073967, 0.19179359078407288, 0.061572927981615067, -0.21832142770290375, 0.09652654081583023, 0.07368513196706772, 0.3880985379219055, 0.06744270771741867, -0.3524519205093384, -0.01171372551470995, 0.03573089465498924], [0.2630970776081085, 0.15009619295597076, 0.23013629019260406, 0.1826196312904358, 0.013584915548563004, -0.44094428420066833, 0.02947756089270115, 0.07470403611660004, 0.08529547601938248, -0.48574045300483704, 0.07529783248901367, 0.5446998476982117, -0.3482983112335205, -0.032564450055360794, 0.11479735374450684, -0.12145999073982239, 0.1375572681427002, -0.33249059319496155, 0.10823039710521698, -0.12764236330986023, -0.14489030838012695, -0.28118979930877686, -0.34228959679603577, 0.18995310366153717, 0.09017746895551682, -0.15121155977249146, 0.08646593987941742, -0.36953800916671753, -0.025036022067070007, 0.30449867248535156, 0.32323747873306274, 0.2335023283958435, 0.024449393153190613, -0.28799253702163696, -0.05813812464475632, -0.03311338275671005, 0.23431329429149628, 0.48525270819664, 0.5734502673149109, 0.2249203622341156, 0.025605326518416405, -0.05735822394490242, -0.07503332942724228, 0.2843192219734192, 0.0744076669216156, 0.06445217877626419, 0.06211044266819954, -0.09017423540353775, 0.023587845265865326, -0.21936249732971191, -0.2309967279434204, 0.3431377708911896, -0.07235792279243469, 0.07015900313854218, -0.04261689633131027, 0.05549806356430054, 0.12595993280410767, -0.14321208000183105, 0.4005652070045471, -0.07133805006742477, 0.040385738015174866, -0.04959370195865631, -0.16405226290225983, -0.3009893000125885], [-0.04432392865419388, -0.4240272641181946, 0.25235533714294434, -0.0436411090195179, -0.20311793684959412, 0.043408364057540894, -0.06538210064172745, 0.1834748387336731, 0.09869010746479034, 0.22738167643547058, 0.08953358232975006, 0.010479382239282131, -0.19755835831165314, -0.37428128719329834, 0.4438898265361786, -0.26891788840293884, 0.37561264634132385, -0.1766522377729416, -0.08278706669807434, -0.068012535572052, -0.2600696086883545, -0.15529601275920868, -0.006437716074287891, 0.05376904830336571, -0.2078017145395279, 0.1597762405872345, -0.09300771355628967, -0.2527831494808197, 0.20513519644737244, -0.02117898128926754, -0.02724364399909973, 0.25094684958457947, 0.252808153629303, 0.2757551968097687, -0.37647745013237, -0.09663764387369156, 0.06878777593374252, 0.14077375829219818, 0.04203617945313454, 0.3285277485847473, 0.23704683780670166, -0.0977257639169693, 0.027645878493785858, 0.04694219306111336, -0.10073142498731613, 0.02825036458671093, 0.1957956999540329, -0.10051605850458145, 0.3851640522480011, 0.3212846517562866, -0.052323151379823685, -0.4646593928337097, -0.18686558306217194, 0.27051231265068054, 0.11070874333381653, 0.24883723258972168, 0.08449818938970566, -0.027632253244519234, 0.2790851294994354, -0.2386823296546936, 0.018631605431437492, 0.38036149740219116, 0.050987035036087036, -0.07536666095256805], [0.5326256155967712, 0.055940866470336914, -0.008811754174530506, 0.015382175333797932, -0.10160433501005173, -0.429729163646698, 0.193964883685112, -0.130344420671463, -0.18171486258506775, -0.11044492572546005, 0.29986149072647095, 0.01697043515741825, -0.06313066184520721, -0.46271058917045593, 0.07861146330833435, -0.10771778970956802, 0.031965773552656174, -0.040479011833667755, -0.4472661018371582, 0.18496322631835938, 0.30902987718582153, -0.03180074319243431, 0.09693640470504761, 0.12012621760368347, 0.3624805808067322, -0.10898766666650772, 0.4145049750804901, -0.18435147404670715, -0.01993163302540779, 0.4767244756221771, -0.04193795472383499, 0.23797085881233215, -0.22505494952201843, -0.4670192301273346, 0.18741415441036224, -0.07486331462860107, 0.2963523864746094, 0.20203673839569092, -0.23542410135269165, -0.2418762594461441, 0.03844591602683067, 0.07571462541818619, -0.12738290429115295, -0.0755341500043869, -0.2590981721878052, 0.0101047707721591, -0.0008613084792159498, -0.011275907047092915, 0.223876953125, 0.14790406823158264, -0.4539918005466461, -0.22497069835662842, 0.04360947012901306, -0.24702098965644836, -0.13929565250873566, 0.2583867907524109, 0.2617923319339752, 0.33263957500457764, 0.05990969389677048, 0.31794652342796326, -0.2619636356830597, -0.11369417607784271, 0.07100418210029602, -0.1206836849451065], [0.03298955038189888, -0.09678155183792114, -0.16957516968250275, -0.22916170954704285, 0.20321354269981384, -0.3074047863483429, -0.07489734888076782, -0.09321802109479904, -0.20862440764904022, -0.14931632578372955, 0.18287108838558197, 0.022748222574591637, 0.11755286902189255, -0.2854149639606476, 0.11971154808998108, -0.26801249384880066, -0.4236515164375305, 0.16737279295921326, -0.2050301432609558, 0.07600020617246628, -0.06944367289543152, 0.44934824109077454, 0.07949598878622055, -0.0940057784318924, -0.1493781954050064, -0.20971797406673431, -0.04987422376871109, 0.2528444230556488, 0.19446662068367004, 0.37421905994415283, 0.2842648923397064, -0.2909529507160187, -0.259645015001297, -0.4446798264980316, 0.013128803111612797, 0.4033811092376709, -0.14021344482898712, 0.14509181678295135, -0.14478850364685059, 0.06562727689743042, -0.19214512407779694, 0.005619953852146864, 0.26397454738616943, 0.13972359895706177, -0.16666214168071747, -0.17092092335224152, 0.014717907644808292, -0.08186782896518707, 0.1367001235485077, 0.04408962279558182, -0.44547775387763977, 0.3255593776702881, 0.05613816902041435, -0.0759810134768486, -0.021549610421061516, -0.2966097295284271, -0.09122020751237869, -0.3062012493610382, 0.20720936357975006, 0.18085096776485443, 0.0666092187166214, 0.021103400737047195, 0.09286287426948547, 0.25494328141212463], [-0.28098031878471375, -0.096684530377388, 0.2055070400238037, -0.09929636865854263, -0.0954594835639, 0.2847414016723633, -0.25571542978286743, -0.43972817063331604, 0.19519315659999847, 0.16691476106643677, -0.22119028866291046, -0.21471649408340454, 0.1351480334997177, 0.5665475130081177, 0.15195819735527039, 0.30797895789146423, -0.26842841506004333, 0.1580459028482437, -0.20387594401836395, -0.19621412456035614, -0.011269589886069298, 0.07797732949256897, 0.3308561146259308, -0.47118645906448364, -0.11986055225133896, -0.15829190611839294, 0.0867408737540245, 0.553200364112854, -0.1167217567563057, -0.3861102759838104, -0.21576346457004547, -0.4807087481021881, -0.16506248712539673, 0.20164577662944794, 0.04671871289610863, -0.417325884103775, -0.21111342310905457, -0.08183058351278305, 0.250501424074173, 0.04581176117062569, -0.2310202717781067, -0.3611874580383301, 0.2846076190471649, -0.3182508051395416, -0.03994555398821831, 0.14328116178512573, -0.11591918021440506, 0.15696699917316437, -0.26684197783470154, 0.5350003838539124, 0.2101314216852188, -0.13111796975135803, -0.02891669236123562, -0.014741519466042519, -0.06324493139982224, -0.08521878719329834, 0.488885760307312, -0.10830637812614441, -0.34147778153419495, -0.11156339198350906, -0.11581584811210632, -0.15910476446151733, 0.20023606717586517, -0.025643372908234596], [0.3675210177898407, 0.037131380289793015, 0.15297992527484894, -0.053392838686704636, -0.15066762268543243, -0.1760396510362625, 0.24194927513599396, 0.1197483167052269, 0.20864064991474152, -0.19321776926517487, -0.14658264815807343, -0.06673155725002289, 0.10900555551052094, -0.18145138025283813, -0.12691134214401245, 0.05412708967924118, 0.27857545018196106, 0.11437424272298813, -0.10774334520101547, 0.05560014769434929, 0.2855152189731598, -0.15433603525161743, -0.3577847480773926, -0.07325483858585358, -0.2625124752521515, -0.04949556291103363, -0.10296505689620972, -0.43951407074928284, 0.16184572875499725, 0.21313723921775818, -0.1003921627998352, 0.06005813553929329, 0.28617486357688904, -0.21904078125953674, -0.4264489710330963, -0.3885824680328369, 0.34070512652397156, 0.07077307254076004, -0.3647324740886688, -0.07437679916620255, 0.22713647782802582, -0.20045480132102966, -0.25774240493774414, 0.19136208295822144, 0.030048953369259834, -0.16013234853744507, 0.25301119685173035, -0.05999509617686272, 0.13351888954639435, -0.09469462931156158, 0.20091816782951355, -0.35514241456985474, -0.18662062287330627, 0.3863157629966736, -0.08310552686452866, -0.1385977864265442, 0.17319919168949127, -0.29331713914871216, 0.4616866707801819, -0.01859789527952671, 0.1528126746416092, -0.231858491897583, 0.3137277662754059, 0.08203074336051941], [-0.16319639980793, 0.11634781211614609, 0.4813166856765747, -0.3522443473339081, 0.5902501344680786, 0.2147931307554245, 0.18691310286521912, 0.39010724425315857, -0.022104017436504364, -0.0001261912693735212, 0.1184842512011528, -0.06122008338570595, -0.07480518519878387, 0.11513088643550873, -0.31131136417388916, -0.1782752424478531, -0.23541931807994843, -0.042933493852615356, 0.13609831035137177, -0.3742902874946594, -0.03547478839755058, -0.2059755176305771, -0.3165706396102905, -0.2718910574913025, 0.04506606236100197, 0.28319045901298523, -0.3023207485675812, 0.17644120752811432, -0.37539586424827576, -0.3901342749595642, 0.10792207717895508, 0.07418157160282135, 0.020409975200891495, 0.11514594405889511, -0.438449501991272, 0.08983065187931061, 0.1654963344335556, 0.2943425178527832, 0.31375786662101746, -0.04157676547765732, -0.06633554399013519, 0.3562561571598053, 0.22205863893032074, -0.00603475421667099, -0.19568338990211487, 0.5342749953269958, 0.06630361080169678, -0.13964878022670746, -0.33423537015914917, 0.04379464313387871, 0.11320270597934723, -0.18133215606212616, -0.2885890007019043, -0.2931188941001892, 0.3256276845932007, -0.022401072084903717, -0.17481210827827454, 0.17151445150375366, 0.21497571468353271, -0.3959060311317444, 0.20040881633758545, 0.00039207571535371244, 0.04909322038292885, -0.0325724296271801], [-0.44773876667022705, -0.14134269952774048, 0.2273551970720291, -0.48843541741371155, 0.09942945092916489, 0.2816317081451416, 0.06121163070201874, -0.053629595786333084, 0.11195835471153259, 0.29508137702941895, 0.012374388985335827, -0.21737806499004364, 0.2582986056804657, 0.07230983674526215, -0.19056996703147888, 0.1529366374015808, -0.2364412099123001, 0.32466796040534973, 0.06694420427083969, 0.0842101126909256, -0.4060315489768982, -0.20149967074394226, 0.09908777475357056, -0.017020568251609802, -0.21896405518054962, 0.07098358124494553, 0.09945996105670929, 0.3076840937137604, -0.12827153503894806, -0.35151705145835876, -0.444589763879776, -0.25425270199775696, 0.06442520022392273, 0.22212831676006317, -0.23057591915130615, -0.05941743031144142, -0.25813236832618713, 0.29848504066467285, 0.44583389163017273, -0.2386946678161621, -0.1769298017024994, 0.26072949171066284, 0.03649543970823288, 0.05597225949168205, 0.5759392380714417, 0.01287167239934206, -0.5235798358917236, -0.09368599206209183, -0.31202906370162964, -0.1096404418349266, -0.017691392451524734, 0.09178178757429123, 0.07569514960050583, 0.005875024013221264, -0.24098095297813416, 0.11537088453769684, 0.01081685908138752, 0.168336883187294, 0.05385695397853851, -0.004996029194444418, 0.18130604922771454, 0.2082758992910385, 0.11753077059984207, -0.08020361512899399], [0.3287317156791687, -0.025853287428617477, 0.03411395475268364, 0.2431313544511795, -0.08161993324756622, 0.0208230409771204, 0.15646475553512573, -0.022907985374331474, -0.251460999250412, 0.0402020663022995, 0.29115283489227295, 0.3170570433139801, -0.17924804985523224, -0.13862541317939758, -0.22123555839061737, -0.19344356656074524, -0.007069169543683529, -0.22792138159275055, 0.07720517367124557, 0.030194224789738655, 0.5503280758857727, -0.33576273918151855, -0.032816965132951736, 0.23412322998046875, -0.0005304082878865302, 0.1384434849023819, 0.10176696628332138, -0.4037896990776062, 0.14713728427886963, 0.3251184821128845, 0.197524294257164, -0.10850279033184052, 0.34339818358421326, -0.27771347761154175, -0.3195619285106659, 0.19585010409355164, -0.03605009242892265, 0.0359722375869751, 0.47687962651252747, 0.013906508684158325, 0.6241287589073181, 0.13631926476955414, 0.1244935467839241, 0.09207102656364441, 0.17744477093219757, 0.015369720757007599, 0.3225615620613098, -0.2813405692577362, 0.27809563279151917, 0.24108768999576569, 0.19874504208564758, 0.04607411101460457, -0.13435699045658112, -0.09593232721090317, -0.22461098432540894, 0.005976696033030748, -0.06565351039171219, -0.08841260522603989, 0.4807465672492981, -0.0643497034907341, 0.024415217339992523, 0.07187194377183914, -0.19834166765213013, 0.22642697393894196], [0.2767482101917267, -0.1223219484090805, 0.21926890313625336, 0.4011210501194, -0.011508959345519543, -0.35007548332214355, 0.18080057203769684, 0.2163160741329193, 0.0693075954914093, 0.12769275903701782, 0.377753347158432, 0.37352225184440613, -0.37708133459091187, -0.2782571017742157, -0.20584866404533386, 0.17490920424461365, 0.20935384929180145, -0.13028578460216522, -0.11779366433620453, 0.03338577598333359, 0.16405551135540009, -0.06745413690805435, 0.03844363987445831, 0.126384437084198, -0.3472333252429962, -0.33823278546333313, 0.3616388142108917, -0.4056999981403351, -0.08490290492773056, 0.48017677664756775, 0.2090839445590973, 0.04618251696228981, -0.02577371522784233, -0.18873007595539093, -0.02439899556338787, -0.04980507493019104, -0.04193412512540817, 0.18667645752429962, -0.3041894733905792, 0.20950479805469513, -0.09217097610235214, -0.12770089507102966, -0.06106989458203316, 0.3168390393257141, 0.052952561527490616, -0.07341989874839783, 0.33721843361854553, 0.3067074120044708, 0.2513014078140259, -0.0990840420126915, 0.025591785088181496, -0.21573734283447266, -0.03719709813594818, -0.06101498380303383, 0.27241915464401245, 0.1979905664920807, 0.014924919232726097, 0.14088375866413116, 0.18554779887199402, 0.0799909308552742, 0.49020153284072876, -0.033188596367836, -0.2940671741962433, 0.33647674322128296], [0.4718420207500458, -0.122592993080616, 0.037294503301382065, 0.6030528545379639, 0.0481901615858078, -0.6207911968231201, 0.1404421180486679, 0.2664540410041809, -0.09616662561893463, 0.10311541706323624, 0.07274288684129715, 0.17189519107341766, 0.15069255232810974, -0.16946053504943848, -0.011096217669546604, 0.1329396814107895, 0.3306155204772949, -0.13554005324840546, 0.24424515664577484, 0.15079163014888763, 0.11096219718456268, -0.14039845764636993, -0.17332588136196136, 0.17027966678142548, 0.008495386689901352, 0.18263430893421173, 0.11996879428625107, -0.7129585146903992, -0.14047054946422577, 0.2834579348564148, -0.1468585729598999, 0.17428435385227203, -0.255111426115036, -0.1293138712644577, -0.20743680000305176, 0.14298120141029358, 0.1471472531557083, -0.04177197068929672, 0.21235623955726624, 0.257312148809433, 0.11890817433595657, 0.2584145665168762, 0.01173056848347187, 0.47939494252204895, -0.30425330996513367, -0.06810682266950607, 0.377250999212265, -0.1539110392332077, -0.07082455605268478, 0.23432430624961853, 0.060989025980234146, -0.26597458124160767, 0.1282060295343399, 0.031433265656232834, -0.14918625354766846, 0.08510234951972961, 0.048074763268232346, -0.3965317904949188, 0.29953935742378235, 0.17151114344596863, 0.27874013781547546, 0.25153467059135437, 0.17557676136493683, -0.11876364797353745], [-0.426086962223053, -0.15800723433494568, -0.03759386017918587, -0.011614860035479069, -0.04017849266529083, 0.43940404057502747, -0.3696730136871338, 0.07288312166929245, -0.24281790852546692, -0.2549825608730316, -0.305866003036499, -0.2130821943283081, 0.047071222215890884, 0.13935743272304535, 0.040553439408540726, 0.19633369147777557, -0.20077642798423767, 0.11143222451210022, -0.12274902313947678, 0.10421641916036606, -0.29436108469963074, 0.01081100758165121, 0.3898378014564514, -0.5783489942550659, 0.0594538152217865, -0.09528657048940659, -0.05246727168560028, 0.06552530825138092, 0.15254470705986023, 0.34424036741256714, -0.5889254808425903, -0.10540571808815002, -0.11794263124465942, -0.09966614842414856, 0.22875958681106567, -0.12722748517990112, -0.04271131008863449, -0.3043178617954254, -0.057822033762931824, -0.12348562479019165, 0.13956515491008759, -0.060626719146966934, 0.15388134121894836, -0.1333787888288498, 0.1503758579492569, -0.5966492891311646, -0.18189504742622375, 0.2197227030992508, -0.05700737610459328, 0.179693341255188, 0.1775650829076767, -0.1722971796989441, 0.033174026757478714, -0.01328405924141407, 0.3855430781841278, -0.3974122107028961, 0.2845636308193207, 0.36221256852149963, -0.5775180459022522, -0.008089864626526833, -0.1079387217760086, -0.06491275876760483, 0.2368077039718628, -0.10054608434438705], [-0.32028329372406006, 0.21341316401958466, 0.24314264953136444, -0.1624235361814499, 0.134524405002594, 0.30505141615867615, -0.36590951681137085, -0.21642231941223145, 0.16210830211639404, -0.11790811270475388, -0.1859166920185089, -0.2876683473587036, 0.18171893060207367, 0.5863696336746216, 0.29959574341773987, 0.1333904266357422, 0.06888014823198318, -0.1760067641735077, 0.1728924661874771, -0.001466805930249393, -0.19012907147407532, -0.30498501658439636, 0.08185891807079315, 0.06489717215299606, -0.10655632615089417, 0.18589703738689423, -0.013134707696735859, -0.25997212529182434, -0.006743974983692169, -0.06194109842181206, 0.10796181112527847, -0.4609302580356598, -0.09139087796211243, 0.34449777007102966, -0.5113599300384521, 0.008463696576654911, 0.040957462042570114, -0.04652218520641327, -0.38302668929100037, -0.1319153904914856, -0.07158161699771881, 0.22085602581501007, 0.24639177322387695, -0.2029004693031311, 0.016326233744621277, -0.17930297553539276, -0.24224452674388885, 0.26805904507637024, -0.10234243422746658, 0.10347968339920044, 0.41267165541648865, -0.15452279150485992, 0.22883835434913635, -0.022297125309705734, 0.01591690443456173, 0.35591673851013184, 0.09424654394388199, 0.17478764057159424, 0.1440209448337555, -0.1854015439748764, -0.13318321108818054, 0.16070640087127686, 0.07587382942438126, 0.0003737366641871631], [-0.15629951655864716, 0.1278247982263565, 0.044569846242666245, -0.13761261105537415, 0.3839665353298187, 0.25250110030174255, 0.2034893035888672, 0.2805050015449524, -0.07893207669258118, 0.16558368504047394, -0.016920913010835648, 0.0311618410050869, 0.16390398144721985, 0.2294238656759262, 0.19226814806461334, -0.06396841257810593, -0.10765492171049118, -0.06390978395938873, -0.03994191810488701, 0.0014065930154174566, 0.2001946121454239, -0.3977630138397217, -0.2573656141757965, -0.266236811876297, -0.2988819181919098, 0.11250516772270203, 0.1949472725391388, -0.2001783549785614, 0.05783764645457268, -0.5967662930488586, 0.3071972727775574, -0.09598667174577713, 0.09799870103597641, -0.04922962561249733, -0.10882413387298584, -0.15623915195465088, -0.25681984424591064, 0.21125063300132751, 0.41809552907943726, -0.03567234054207802, -0.06799484044313431, -0.09935855120420456, 0.1344851702451706, 0.12565620243549347, -0.21588297188282013, 0.054707132279872894, -0.4068209230899811, -0.014021266251802444, -0.41763707995414734, -0.2284749150276184, 0.011322574689984322, -0.09601879864931107, -0.4878881573677063, -0.049380626529455185, -0.1419031172990799, 0.0830191820859909, -0.8186640739440918, 0.1114182248711586, 0.15170936286449432, -0.4099637269973755, 0.03938331827521324, 0.41340044140815735, 0.0028226100839674473, -0.23319512605667114], [-0.26806023716926575, -0.10872475802898407, 0.04161745682358742, -0.11077715456485748, 0.781502902507782, 0.10834675282239914, -0.22412113845348358, -0.1660470962524414, -0.021025609225034714, -0.24559664726257324, -0.05769472196698189, 0.042845405638217926, -0.020949363708496094, -0.015303947031497955, -0.01877266727387905, -0.06013333424925804, -0.2770909070968628, 0.3220500648021698, 0.04477648809552193, 0.13672076165676117, 0.25867101550102234, 0.14648480713367462, 0.0012964661000296474, -0.2714110016822815, -0.03276974335312843, -0.0707821473479271, -0.11905346810817719, 0.2564986050128937, -0.30902227759361267, -0.38074418902397156, 0.022400755435228348, 0.01695307530462742, 0.23448249697685242, 0.29142701625823975, 0.06337540596723557, 0.2473510503768921, -0.23010770976543427, 0.19798575341701508, 0.4348564147949219, -0.3577478528022766, -0.1492665410041809, 0.15174804627895355, -0.09561576694250107, 0.03728743642568588, 0.053965579718351364, 0.30151623487472534, -0.268390953540802, 0.4042451083660126, -0.19504685699939728, -0.22584418952465057, 0.19223755598068237, -0.24719303846359253, 0.04694889858365059, 0.1859561651945114, -0.04816795885562897, 0.04132787510752678, -0.0635380819439888, -0.20527778565883636, 0.030038470402359962, -0.3670457601547241, -0.35888636112213135, 0.4229394197463989, -0.19683080911636353, -0.10248416662216187], [0.2501789331436157, 0.07950180023908615, 0.24028436839580536, 0.36484789848327637, -0.21203479170799255, -0.2558199465274811, 0.24555645883083344, 0.05250208452343941, 0.03293558582663536, -0.14670224487781525, 0.10731767117977142, 0.3471960723400116, -0.2544315755367279, -0.5161198973655701, -0.10924158245325089, -0.02421852946281433, 0.2519039213657379, -0.17017433047294617, 0.11925254017114639, -0.021096110343933105, 0.3538404703140259, 0.0685429722070694, -0.21529529988765717, 0.4129975438117981, 0.27238011360168457, 0.029165616258978844, 0.04807590693235397, -0.33044177293777466, -0.04562783241271973, -0.007783054374158382, -0.12444766610860825, 0.02263781800866127, -0.18680961430072784, 0.017540091648697853, 0.02996912971138954, -0.37631136178970337, 0.06501802057027817, 0.5142538547515869, -0.23278333246707916, 0.17142996191978455, 0.2519826591014862, 0.33858823776245117, 0.17688295245170593, -0.005319981370121241, -0.026804858818650246, -0.2996399402618408, 0.4950782060623169, 0.1646241396665573, 0.12223421037197113, 0.17938324809074402, 0.006420925725251436, 0.23228372633457184, -0.13576672971248627, 0.32020336389541626, -0.08141148090362549, -0.1811646670103073, -0.29787346720695496, 0.04113663733005524, 0.5810436010360718, -0.16655373573303223, 0.11423628032207489, 0.32781678438186646, 0.11026003956794739, 0.07235541939735413]], "mlp_extractor.policy_net.2.bias": [0.01084899716079235, 