{"mlp_extractor.policy_net.0.weight": [[-0.00043261051177978516, 0.007445774972438812, -0.026350408792495728, -0.022682860493659973, -0.05154985189437866, 0.03296446427702904, 0.03360186144709587, 0.09693083167076111], [-0.009366244077682495, -0.010037965141236782, 0.012898251414299011, 0.025288373231887817, -0.0022930651903152466, -0.033135607838630676, 0.0488390177488327, 0.008106246590614319], [-0.009084343910217285, -0.004949897527694702, -0.020665019750595093, -0.012236714363098145, -0.026840664446353912, 0.035968780517578125, -0.015966832637786865, 0.11069490015506744], [0.004993835464119911, -0.0019215941429138184, 0.03350229561328888, 0.017210960388183594, 0.04158911108970642, -0.02868230640888214, -0.006882041692733765, -0.12023869156837463], [-0.02339278534054756, -0.020648613572120667, 0.005573347210884094, 0.01049843430519104, 0.02860972285270691, 0.016561359167099, -0.051279306411743164, 0.005620870739221573], [-0.00179976224899292, 0.013396665453910828, -0.0382959246635437, -0.02547377347946167, -0.053089648485183716, 0.0277559831738472, 0.02903929352760315, 0.10568924248218536], [0.02996203303337097, 0.032740235328674316, -0.032130707055330276, -0.051004767417907715, -0.01746031641960144, 0.033535659313201904, 0.020593494176864624, -2.4139881134033203e-06], [0.015630602836608887, 0.01525195688009262, -0.01997503638267517, -0.008205607533454895, -0.05558735132217407, -0.010372340679168701, 0.045146867632865906, 0.04676090180873871], [-0.0004499107599258423, -0.0016070157289505005, 0.018881916999816895, -0.01106177270412445, 0.045224785804748535, 0.010145783424377441, -0.03263354301452637, -0.06322061270475388], [0.008671790361404419, 0.006922878324985504, -0.00164109468460083, 0.008328795433044434, -0.0277252197265625, -0.022813469171524048, 0.04210905358195305, 0.03253163397312164], [-0.006080500781536102, -0.002675417810678482, -0.026120558381080627, -0.011188626289367676, -0.025001727044582367, 0.02651160955429077, -0.0085526704788208, 0.09819284826517105], [-0.029794417321681976, -0.029706865549087524, 0.012360155582427979, 0.02025473117828369, 0.03654825687408447, 0.017945438623428345, -0.04232075810432434, -0.006197027862071991], [-0.008697807788848877, -0.011543750762939453, 0.03256714344024658, 0.023528754711151123, 0.05255207419395447, -0.03938516974449158, -0.01851138472557068, -0.09669169038534164], [0.03472831845283508, 0.017059512436389923, 0.019177615642547607, -0.019330590963363647, 0.043208613991737366, -0.009242182597517967, 0.01108977198600769, -0.10322003066539764], [0.022393450140953064, 0.013876423239707947, 0.022303208708763123, -0.004346489906311035, 0.036929041147232056, -0.02347685769200325, 0.008954167366027832, -0.10913325101137161], [-0.006140388548374176, -0.01602068543434143, 0.04248836636543274, 0.031679242849349976, 0.05508078634738922, -0.033324360847473145, -0.030876608565449715, -0.09783556312322617], [0.029655426740646362, 0.025804076343774796, -0.02611863613128662, -0.029105208814144135, -0.06767749786376953, 0.0026290863752365112, 0.04431818425655365, 0.03684069216251373], [-0.016530252993106842, -0.004375576972961426, 0.03827238082885742, 0.010445892810821533, 0.07438534498214722, -0.006081581115722656, -0.04071349650621414, -0.07001800835132599], [-0.016295449808239937, -0.02128169685602188, 0.03986173868179321, 0.04471048712730408, 0.046329088509082794, -0.04476766288280487, -0.0350508987903595, -0.07524293661117554], [0.00041057169437408447, -0.006179019808769226, 0.03445228934288025, 0.025661230087280273, 0.042313046753406525, -0.03640151023864746, -0.018479101359844208, -0.10361945629119873], [-0.021702051162719727, -0.02595902979373932, 0.051236748695373535, 0.037072643637657166, 0.07955753803253174, -0.010855287313461304, -0.03567172586917877, -0.06516698747873306], [0.055559027940034866, 0.03939247131347656, -0.015822991728782654, -0.06818364560604095, 0.006200522184371948, 0.026351764798164368, 0.011788010597229004, -0.04406978189945221], [-0.06865490972995758, -0.05719552934169769, 0.0177534818649292, 0.10341817140579224, 0.0031864792108535767, -0.06278199702501297, -0.044626206159591675, 0.011358723044395447], [0.013378635048866272, 0.011242993175983429, -0.000991225242614746, -0.003863215446472168, -0.022034138441085815, -0.020712584257125854, 0.044257789850234985, 0.00212724506855011], [0.005024343729019165, -0.0014094114303588867, 0.020718634128570557, 0.020069211721420288, 0.014324228279292583, -0.03218403458595276, 0.06359938532114029, -0.07524649053812027], [-0.05042730271816254, -0.03921473026275635, 0.009536221623420715, 0.06486830115318298, -0.02244257926940918, -0.015189733356237411, -0.0038016140460968018, 0.07972921431064606], [-0.022107452154159546, -0.008878469467163086, 0.04063275456428528, 0.04119652509689331, 0.04474698007106781, -0.04113286733627319, -0.03874211013317108, -0.07139959186315536], [-0.0038068294525146484, -0.0024825334548950195, -0.035520389676094055, -0.0006917715072631836, -0.06784861534833908, 0.0005192756652832031, 0.03259177505970001, 0.1167861744761467], [-0.042443424463272095, -0.03948167711496353, 0.009242050349712372, 0.04228021204471588, 0.004866659641265869, -0.009473264217376709, -0.04242178797721863, 0.027635961771011353], [0.024708569049835205, 0.02539995312690735, -0.016347423195838928, -0.04734674096107483, 0.0023605525493621826, 0.04422265291213989, 0.002813205122947693, -0.01223786547780037], [0.0007252246141433716, 0.013810468837618828, -0.04310619831085205, -0.023210465908050537, -0.06667101383209229, 0.026175647974014282, 0.01686168648302555, 0.08714398741722107], [-0.013567641377449036, -0.0076640574261546135, -0.024740934371948242, -0.005253434181213379, -0.03370782732963562, 0.026185914874076843, -0.020641326904296875, 0.10219008475542068], [-0.022130779922008514, -0.024263381958007812, 0.04170939326286316, 0.04641538858413696, 0.03964279592037201, -0.03520885109901428, -0.03524065017700195, -0.060816049575805664], [-0.0032560229301452637, 0.0020582377910614014, -0.025495171546936035, -0.014863431453704834, -0.029420968145132065, 0.03351892530918121, -0.016993172466754913, 0.09324833750724792], [-0.0033854693174362183, -0.0009510889649391174, -0.0006091445684432983, -0.011944472789764404, 0.025177419185638428, 0.026606813073158264, -0.036582913249731064, -0.026936404407024384], [0.01211535930633545, 0.005902774631977081, 0.02911558747291565, 0.007970750331878662, 0.028038769960403442, -0.02682441473007202, 0.05775919556617737, -0.08057761192321777], [0.0003775283694267273, 0.0017003938555717468, -0.02920195460319519, -0.022078216075897217, -0.05002201348543167, 0.038899898529052734, 0.03046407550573349, 0.11254963278770447], [-0.03962382674217224, -0.023857325315475464, 0.008560948073863983, 0.04244973137974739, -0.0028869956731796265, -0.026974737644195557, 0.02228410914540291, 0.049610137939453125], [-0.016507821157574654, -0.02084854245185852, 0.04245316982269287, 0.04030430316925049, 0.06561976671218872, -0.046225905418395996, -0.036006152629852295, -0.0758662223815918], [0.012266607955098152, 0.01583801954984665, -0.037662483751773834, -0.03648453950881958, -0.049179017543792725, 0.03965750336647034, 0.023293353617191315, 0.07443341612815857], [-0.026021331548690796, -0.027207456529140472, 0.034525349736213684, 0.02988247573375702, 0.07183176279067993, -0.011536240577697754, -0.0478171706199646, -0.05045202374458313], [0.04741005599498749, 0.035258613526821136, 0.004292681813240051, -0.036190859973430634, 0.028176262974739075, 0.003332901746034622, 0.021516084671020508, -0.05679423362016678], [-0.023500561714172363, -0.034038327634334564, 0.0440601110458374, 0.05840796232223511, 0.04199466109275818, -0.03617727756500244, -0.015365839004516602, -0.05015727877616882], [-0.04442000389099121, -0.048472240567207336, 0.03538033366203308, 0.04955793172121048, 0.05144768953323364, 0.001635223627090454, -0.05677753686904907, -0.016070812940597534], [-0.010958390310406685, 0.005830124020576477, -0.03607022762298584, 0.006142161786556244, -0.06598079204559326, -0.022682368755340576, 0.020931437611579895, 0.07611826062202454], [-0.01057453453540802, -0.002984091639518738, -0.025245636701583862, -0.00990593433380127, -0.03901512920856476, 0.03346695005893707, 0.004785165190696716, 0.11160769313573837], [-0.021843954920768738, -0.01992003619670868, 0.030258869752287865, 0.03125038743019104, 0.0678059458732605, -0.01205187663435936, -0.03057171404361725, -0.04973331093788147], [-0.00810488685965538, 0.0016654562205076218, -0.02374209463596344, -0.014112874865531921, -0.042108237743377686, 0.02881903201341629, 0.023247383534908295, 0.10522878170013428], [0.009249664843082428, -0.0013043582439422607, 0.027994737029075623, 0.015426397323608398, 0.045115649700164795, -0.03474318981170654, -0.011474698781967163, -0.10150088369846344], [-0.04094722867012024, -0.039264123886823654, 0.024656563997268677, 0.04485468566417694, 0.06015169620513916, -0.006697893142700195, -0.06024092435836792, -0.02145436406135559], [-0.0350436232984066, -0.03939652442932129, 0.020001379773020744, 0.056799888610839844, 0.004623144865036011, -0.04569767415523529, 0.005766391754150391, 0.027304604649543762], [-0.04006302356719971, -0.034682512283325195, 0.02472604811191559, 0.05944943428039551, 0.0068648457527160645, -0.04069739580154419, -0.02599632740020752, 0.0003549307584762573], [0.003818988800048828, 0.012604307383298874, -0.03605136275291443, -0.02713758684694767, -0.035608574748039246, 0.025392577052116394, 0.008630155585706234, 0.06839345395565033], [0.005748726427555084, 0.01763772964477539, -0.02262166142463684, 0.002447165548801422, -0.04360368847846985, -0.0116322822868824, 0.025896847248077393, 0.043639857321977615], [0.00258820503950119, 0.00022101402282714844, -0.004613995552062988, 0.016213715076446533, -0.026436567306518555, -0.036132752895355225, 0.035217251628637314, 0.027842789888381958], [0.021093547344207764, 0.011104695498943329, 0.013454720377922058, -0.0025844573974609375, 0.0072570741176605225, -0.012715630233287811, 0.05058646574616432, -0.030815698206424713], [-0.04146973788738251, -0.023728281259536743, 0.03626324236392975, 0.03352457284927368, 0.07543784379959106, -0.005189329385757446, -0.055989474058151245, -0.03857281804084778], [-0.044262439012527466, -0.031146027147769928, 0.04144112020730972, 0.044901590794324875, 0.07348722219467163, -0.007970750331878662, -0.04776807874441147, -0.03732459247112274], [-0.014049267396330833, -0.005130275152623653, -0.021528273820877075, -0.004805147647857666, -0.03755520284175873, 0.023652970790863037, -0.012241512537002563, 0.09469380974769592], [0.0031308233737945557, -0.00311143696308136, -0.001616835594177246, 0.01570373773574829, -0.03107386827468872, -0.021831315010786057, 0.04526075720787048, 0.04588303714990616], [-0.01882559061050415, -0.016142362728714943, -0.007536858320236206, 0.0036878585815429688, 0.010105311870574951, 0.014239080250263214, -0.06154409050941467, 0.008746609091758728], [-0.007733002305030823, -0.0034176111221313477, -0.028185121715068817, -0.015268504619598389, -0.035166576504707336, 0.03116890788078308, -0.01793481409549713, 0.09399643540382385], [-0.012354768812656403, -0.015606111846864223, 0.015392664819955826, 0.008279293775558472, 0.042588114738464355, 0.027142196893692017, -0.02795197069644928, -0.02873121201992035], [0.011949222534894943, 0.0006091222167015076, 0.03203517198562622, 0.0050109028816223145, 0.06213033199310303, -0.011802822351455688, -0.023318424820899963, -0.10296860337257385]], "mlp_extractor.policy_net.0.bias": [-0.04932037740945816, 0.02817881479859352, -0.052528612315654755, 0.05173925310373306, -0.03506337106227875, -0.046443209052085876, -0.0014024481642991304, 0.008816931396722794, 0.0188823901116848, 0.0198228657245636, -0.04682419076561928, -0.03174879774451256, 0.05032653361558914, 0.06456001847982407, 0.060828980058431625, 0.041946087032556534, 0.012157296761870384, 0.026197660714387894, 0.03601420670747757, 0.049727313220500946, 0.02362794242799282, 0.03593072295188904, -0.03736883029341698, 0.03199426084756851, 0.045391108840703964, -0.0487491749227047, 0.03766011446714401, -0.047722529619932175, -0.049542803317308426, -0.008047754876315594, -0.046554628759622574, -0.05464647710323334, 0.03612705320119858, -0.047118935734033585, -0.019601969048380852, 0.05044730380177498, -0.05074544623494148, -0.0022991225123405457, 0.04126827418804169, -0.04245200753211975, 0.0020494263153523207, 0.05851816385984421, 0.023874729871749878, -0.03147178143262863, -0.03397837653756142, -0.05383659154176712, 0.010550886392593384, -0.053011588752269745, 0.05369890108704567, -0.02777678146958351, -0.005294756032526493, -0.005966790020465851, -0.04650925099849701, -0.004445666912943125, 0.01761592924594879, 0.041012588888406754, -0.006348473019897938, -0.007171548902988434, -0.05520061030983925, 0.01081346720457077, -0.04061455652117729, -0.05076117068529129, -0.019490569829940796, 0.054950255900621414], "mlp_extractor.policy_net.2.weight": [[0.031945522874593735, -0.04546528309583664, -0.0014621615409851074, -0.02508554607629776, -0.00990963727235794, 0.011640682816505432, -0.003749758005142212, 0.004758507013320923, -0.034539174288511276, -0.020314641296863556, 0.018310215324163437, 0.009093423373997211, -0.034686364233493805, -0.012496769428253174, -0.018123941496014595, -0.005960553884506226, 0.031697288155555725, -0.05988776683807373, -0.010886460542678833, -0.05367431044578552, -0.014011293649673462, -0.021994248032569885, 0.03565984219312668, -0.0041047558188438416, -0.04132048785686493, 0.023520730435848236, -0.010340032167732716, 0.012242868542671204, 0.06345943361520767, -0.005069062113761902, 0.030230283737182617, 0.03005075454711914, -0.06448012590408325, -0.013038098812103271, -0.020883426070213318, -0.017608467489480972, -0.014173507690429688, -0.030674636363983154, -0.06665295362472534, 0.07536756992340088, -0.012317031621932983, -0.03588669002056122, -0.04388570785522461, 0.027012232691049576, -0.014402180910110474, 0.04390755295753479, -0.04933014512062073, 0.01838577166199684, -0.027582824230194092, 0.010017603635787964, 0.045865997672080994, 0.02144395373761654, 0.034733083099126816, -0.0017575472593307495, -0.03791391849517822, -0.014495096169412136, -0.02262825146317482, 0.014253415167331696, 0.05646294355392456, -0.00016544759273529053, 0.029973149299621582, -0.011890843510627747, 0.011840462684631348, -0.09569954872131348], [-0.028405457735061646, 0.036889106035232544, 0.020725853741168976, -0.01606225222349167, -0.004008829593658447, -0.0019178763031959534, -0.011076955124735832, 0.011298224329948425, -0.007543712854385376, -0.003392249345779419, -0.03342118859291077, 0.007945641875267029, -0.017730683088302612, -0.0013036280870437622, -0.015966862440109253, -0.020930737257003784, -0.008865803480148315, 0.005786791443824768, -0.009421229362487793, 0.029070749878883362, 0.0055220723152160645, 0.010838239453732967, -0.03640824556350708, -0.008359163999557495, 0.02548591047525406, -0.0026464611291885376, -0.027478381991386414, 0.039912641048431396, -0.04123646020889282, -0.0029320716857910156, 0.0008845627307891846, -0.010794103145599365, 0.0056227147579193115, 0.0072785355150699615, 0.015281930565834045, 0.01966075599193573, 0.008953899145126343, 0.036934614181518555, 0.02263559401035309, -0.02579052746295929, -0.0030081719160079956, 0.025466620922088623, 0.007336288690567017, -0.019109606742858887, 0.001779511570930481, -0.010575734078884125, 0.021044090390205383, -0.002005182206630707, 0.05294156074523926, 0.0031757354736328125, -0.016133785247802734, -0.021649569272994995, -0.03249567747116089, 0.01929295063018799, 0.02378757670521736, -0.019430845975875854, -0.014207173138856888, -0.022155970335006714, -0.02183055877685547, -0.0019733011722564697, -0.021771041676402092, -0.006700861267745495, -0.007009432651102543, 0.027865886688232422], [0.019903317093849182, -0.004517324268817902, -6.955862045288086e-05, 0.011506602168083191, 0.02401500940322876, -0.009287059307098389, -0.005464669317007065, -0.019795149564743042, 0.025103330612182617, 0.01702931523323059, 0.021055251359939575, 0.009096354246139526, 0.02690223976969719, -0.014679878950119019, -0.001642763614654541, 0.017811860889196396, -0.020591378211975098, 0.024284642189741135, 0.021390527486801147, 0.002896631136536598, 0.005064666271209717, -0.01834513247013092, 0.021119728684425354, -0.013377971947193146, 0.003090411424636841, 0.005439542233943939, 0.020840905606746674, -0.031096331775188446, 0.015618808567523956, -0.0012157000601291656, -0.008455514907836914, 0.013041883707046509, 0.03283730894327164, 0.012874819338321686, 0.0049011558294296265, -0.02079278975725174, 0.008542986586689949, -0.009162530303001404, 0.022416353225708008, -0.020258747041225433, 0.02462172508239746, -0.017460737377405167, 0.025326058268547058, 0.024715378880500793, 0.01504966989159584, 0.006417274475097656, 0.017116928473114967, 0.0043094828724861145, -0.024405911564826965, -0.0016292780637741089, -0.004280556924641132, 0.020327389240264893, 0.011512205004692078, -0.012612544000148773, 0.0010387301445007324, 0.01733991503715515, 0.018519684672355652, 0.019116103649139404, 0.007717341184616089, -0.00023216009140014648, 0.024945959448814392, 0.02480391412973404, 0.008820980787277222, 0.004141956567764282], [-0.012363974004983902, -0.01086270809173584, -0.008309544064104557, 0.0008746236562728882, -0.022350966930389404, 0.013351275585591793, 0.021890506148338318, 0.026004284620285034, -0.013469099998474121, -0.008985340595245361, -0.013744162395596504, -0.02489204704761505, -0.020550429821014404, 0.024502065032720566, 0.018971100449562073, -0.01373147964477539, 0.04446369409561157, -0.03034587949514389, -0.021617811173200607, -0.01840047538280487, -0.020435184240341187, 0.023192912340164185, -0.017723947763442993, 0.022880613803863525, -0.01735544204711914, -0.016642026603221893, -0.005925849080085754, 0.009949147701263428, -0.010631904006004333, 0.01270720362663269, 0.01406221091747284, -0.017673838883638382, -0.03943304717540741, -0.01906207948923111, -0.01724836230278015, 0.02046392858028412, -0.016775771975517273, -0.013035967946052551, -0.04677869379520416, 0.04179704189300537, -0.03636002168059349, 0.017270728945732117, -0.03394937515258789, -0.027646943926811218, -0.008788451552391052, -0.009086459875106812, -0.038524776697158813, -0.006722211837768555, 0.0014446154236793518, -0.017370998859405518, 0.0022152364253997803, -0.024935543537139893, 0.0026305317878723145, -0.0002614036202430725, -0.007211267948150635, -0.0005499552935361862, -0.024815380573272705, -0.023433953523635864, -0.014811143279075623, 0.0007352232933044434, -0.025341160595417023, -0.01714489236474037, -0.0188760869204998, -0.012995898723602295], [0.019674092531204224, -0.03306979686021805, 0.007097899913787842, -0.030681446194648743, -0.01981581747531891, 0.01285552978515625, -0.005484752357006073, 0.020950213074684143, -0.04279938340187073, -0.017706729471683502, 0.009031504392623901, 0.006229966878890991, -0.038481295108795166, -0.013896603137254715, -0.02242741733789444, -0.016864001750946045, 0.04115208983421326, -0.06860852241516113, -0.011959373950958252, -0.044219136238098145, -0.01691780984401703, -0.020795973017811775, 0.026655208319425583, -0.0014762282371520996, -0.037014544010162354, 0.021864309906959534, -0.015536502003669739, 0.02503308653831482, 0.05025529861450195, -0.008026212453842163, 0.035533756017684937, 0.025308966636657715, -0.06640400737524033, -0.019667774438858032, -0.026178210973739624, -0.007156938314437866, -0.00988796353340149, -0.015036255121231079, -0.0641728863120079, 0.06583911180496216, -0.024315476417541504, -0.030239298939704895, -0.03442463278770447, 0.015741854906082153, -0.009812325239181519, 0.03571733832359314, -0.05023983120918274, 0.014938862062990665, -0.017482668161392212, 0.011168301105499268, 0.041380397975444794, 0.017735853791236877, 0.01970035396516323, 0.00393146276473999, -0.019757285714149475, -0.021880745887756348, -0.036049842834472656, 0.0021115094423294067, 0.04412933439016342, 0.006466805934906006, 0.017532557249069214, -0.01525309681892395, -2.796947956085205e-05, -0.09126108884811401], [-0.03745024651288986, 0.05041113495826721, 0.0008745491504669189, 0.018992364406585693, -0.0009965300559997559, -0.015063755214214325, -0.0042111873626708984, 0.004182666540145874, 0.025154396891593933, 0.028667569160461426, -0.025947175920009613, -0.007840458303689957, 0.02355232834815979, 0.013373404741287231, 0.015600889921188354, -0.00036869943141937256, -0.018171340227127075, 0.044043898582458496, 0.008656352758407593, 0.06381767988204956, 0.006634801626205444, 0.017334625124931335, -0.042904675006866455, 0.005956966429948807, 0.05304023623466492, -0.019187375903129578, 0.004299238324165344, -0.004863619804382324, -0.07511027157306671, 0.003608882427215576, -0.019207462668418884, -0.029959946870803833, 0.055869076400995255, 0.010319188237190247, 0.015040967613458633, 0.020546317100524902, 0.01526033878326416, 0.03459067642688751, 0.058486759662628174, -0.06964905560016632, 0.007478952407836914, 0.04295875504612923, 0.04065132141113281, -0.02721579372882843, 0.016288965940475464, -0.04664382338523865, 0.04599018022418022, -0.022679969668388367, 0.039438068866729736, -0.018415888771414757, -0.04094487428665161, -0.022312581539154053, -0.037637948989868164, 0.014139003120362759, 0.05207277089357376, 0.01417677104473114, 0.004481136798858643, -0.022913441061973572, -0.06501659750938416, 0.004322722554206848, -0.03634187579154968, 0.005609229207038879, -0.01889827847480774, 0.08883503079414368], [-0.03360939025878906, 0.01930289715528488, -0.016219675540924072, 0.020733080804347992, -0.010439123958349228, -0.02477845549583435, 0.0001722574234008789, -0.0017680972814559937, 0.04300176352262497, 0.02597658522427082, -0.0021609561517834663, -0.00691581517457962, 0.025872111320495605, 0.027275115251541138, 0.02573743462562561, -0.008241798728704453, -0.012257836759090424, 0.03659640997648239, 0.011339455842971802, 0.05475720763206482, 0.005900174379348755, 0.027549907565116882, -0.03612321615219116, 0.010176487267017365, 0.038710832595825195, -0.01635979861021042, 0.0022524595260620117, -0.01738552749156952, -0.0656488835811615, 0.017427712678909302, -0.007682859897613525, -0.02850162982940674, 0.041409000754356384, 0.012001484632492065, 0.012411832809448242, 0.0016383230686187744, 0.02143547311425209, 0.022994501516222954, 0.04248175024986267, -0.05811602622270584, 0.00927610695362091, 0.04283905774354935, 0.04404357075691223, -0.021669238805770874, 0.00638127326965332, -0.047179847955703735, 0.04757368564605713, -0.022032201290130615, 0.023216038942337036, -0.022983601316809654, -0.03555072844028473, -0.02287408709526062, -0.012555107474327087, 0.00969192385673523, 0.04172820597887039, 0.015592917799949646, 0.0070958733558654785, -0.015480443835258484, -0.07058251649141312, -0.0049683451652526855, -0.029403239488601685, -0.00859864428639412, -0.019627312198281288, 0.08918124437332153], [0.0014743581414222717, -0.006643503904342651, 0.02639266848564148, -0.011826779693365097, 0.01991395652294159, -0.0032704323530197144, -0.004882045090198517, -0.014370083808898926, 0.010862112045288086, -0.02184140682220459, 0.023990079760551453, 0.01928626000881195, 0.00632130354642868, -0.024652518332004547, -0.021477065980434418, -0.0015022307634353638, -0.01717440038919449, 0.0010321438312530518, 0.014410331845283508, -0.007577940821647644, 0.015168353915214539, -0.013833723962306976, 0.022310391068458557, -0.030387967824935913, -0.01948849856853485, 0.007808566093444824, -0.0018658936023712158, 0.006220147013664246, 0.03258936107158661, -0.004327148199081421, -0.003825731575489044, 0.025311335921287537, -0.00039076805114746094, 0.0009317547082901001, 0.012789696455001831, -0.011792287230491638, 0.007639335468411446, 0.01478533074259758, 0.007610946893692017, -0.004576355218887329, 0.011980331502854824, -0.027033474296331406, 0.010009574703872204, 0.02146391198039055, 0.00150337815284729, 0.019291527569293976, 0.0047018080949783325, 0.005361646413803101, -0.011807456612586975, 0.02615070343017578, 0.001610584557056427, 0.015656858682632446, -0.014105051755905151, -0.013994059525430202, -0.015604585409164429, -0.019220948219299316, 0.0005631893873214722, 0.01395118236541748, 0.018856152892112732, -0.016981005668640137, 0.041976284235715866, 0.012240692973136902, 0.008811309933662415, -0.0027381107211112976], [-0.005677416920661926, 0.026317551732063293, 0.042383596301078796, -0.011359553784132004, 0.031344085931777954, 0.003989726305007935, -0.0012812614440917969, -0.04150490462779999, 0.016155408695340157, -0.03974580764770508, -0.01861286163330078, 0.01741577684879303, -0.010833650827407837, -0.020770907402038574, -0.03218807280063629, -0.004727423191070557, -0.049979954957962036, 0.05337885022163391, -0.0144804697483778, 0.020564846694469452, 0.018659353256225586, 0.011997312307357788, -0.04392009973526001, -0.03581914305686951, 0.015255570411682129, -0.014418378472328186, -0.025961458683013916, 0.022625237703323364, -0.025774553418159485, 0.018344655632972717, -0.024107296019792557, 0.013853121548891068, 0.03957875072956085, 0.04029273986816406, 0.05755060538649559, 0.0012145042419433594, 0.025194356217980385, 0.038688674569129944, 0.0466727614402771, -0.051131512969732285, 0.02958621084690094, 0.021321535110473633, 0.014871835708618164, -0.003889411687850952, 0.0008305907249450684, 0.014790577813982964, 0.04814843833446503, 0.008245348930358887, 0.03454186022281647, 0.022061556577682495, -0.04385936260223389, -0.033367305994033813, -0.03831849992275238, -0.002241075038909912, -0.014414787292480469, -0.022909384220838547, 0.036490172147750854, 0.003014940768480301, 0.016253873705863953, -0.04065442085266113, 0.011183619499206543, 0.02234041318297386, 0.04332655295729637, 0.052816152572631836], [-0.013716518878936768, 0.002746790647506714, -0.005536355078220367, -0.015153061598539352, -0.028856873512268066, 0.007868150249123573, -0.0022134333848953247, 0.032846599817276, -0.04180225357413292, -0.006258189678192139, -0.024865180253982544, -0.00659961998462677, -0.03543705493211746, 0.01468542218208313, 0.0016185864806175232, -0.010907143354415894, 0.04752948880195618, -0.05447620153427124, -0.009996667504310608, -0.008745260536670685, -0.01086282730102539, 0.002236202359199524, -0.004593028221279383, 0.019400320947170258, -0.005909770727157593, 0.0059278905391693115, -0.016406819224357605, 0.03268735110759735, -0.004346729256212711, -0.009378448128700256, 0.012201488018035889, -0.013862968422472477, -0.0495605431497097, -0.027133990079164505, -0.023812919855117798, 0.02765597403049469, -0.019826602190732956, 0.0022698044776916504, -0.03056025505065918, 0.02781224250793457, -0.0326119065284729, 0.008999951183795929, -0.022115223109722137, -0.01370870042592287, -0.012202754616737366, -0.005830943584442139, -0.034504234790802, -0.0058918297290802, 0.01652882993221283, -0.001854579895734787, 0.024409137666225433, -0.004512906074523926, -0.007423430681228638, 0.01582711935043335, 0.0025134235620498657, -0.014065243303775787, -0.03794635832309723, -0.019524723291397095, -0.0013133436441421509, 0.012928888201713562, -0.026782125234603882, -0.024481726810336113, -0.014523438178002834, -0.02971099317073822], [0.011598855257034302, 0.0005256831645965576, 0.02002355456352234, -0.010108914226293564, 0.020816773176193237, -0.0011862590909004211, -0.015002362430095673, -0.010181799530982971, 0.0026176907122135162, -0.000709235668182373, 0.01636834442615509, 0.01777622103691101, 0.006789445877075195, -0.027551420032978058, -0.022844508290290833, 0.0052591413259506226, -0.013673245906829834, 0.0013510286808013916, 0.019944943487644196, -0.0023615360260009766, 0.007659107446670532, -0.02510252594947815, 0.025400064885616302, -0.025239288806915283, -0.006286241114139557, 0.015441641211509705, 0.0035555511713027954, 9.335577487945557e-05, 0.02660083770751953, -0.011453866958618164, -0.002629518508911133, 0.023290932178497314, 0.010914105921983719, 0.003578394651412964, 0.003670990467071533, -0.010266110301017761, 0.007413990795612335, 0.008347734808921814, 0.015827715396881104, -0.013097412884235382, 0.01320020854473114, -0.026172012090682983, 0.024324357509613037, 0.02408584952354431, 0.012196511030197144, 0.01812511682510376, 0.006275266408920288, 0.008720532059669495, -0.012968465685844421, 0.01683223247528076, 0.008597537875175476, 0.02635541558265686, -0.006372049450874329, -0.005923241376876831, -0.0026212334632873535, -0.006724233739078045, 0.001842692494392395, 0.010750964283943176, 0.022506654262542725, -0.002073228359222412, 0.028520576655864716, 0.019016027450561523, 0.007561519742012024, -0.012275606393814087], [0.011469051241874695, -0.014134727418422699, 0.010921701788902283, 0.0012936890125274658, 0.017865821719169617, 0.004688352346420288, 0.008040763437747955, -0.00988227128982544, 0.015888631343841553, -0.0032364632934331894, 0.02950480580329895, 0.003734847065061331, 0.014814704656600952, -0.013728365302085876, -0.003999944776296616, 0.0037330985069274902, -0.005801349878311157, 0.001644417643547058, 0.00995103269815445, -0.022085607051849365, 0.0010553598403930664, -0.009220622479915619, 0.02288348227739334, -0.015623331069946289, -0.024229437112808228, -0.00044703856110572815, 0.011723458766937256, -0.012551814317703247, 0.030726488679647446, 0.00289036612957716, -0.00011464208364486694, 0.01830112934112549, 0.001889605075120926, 0.00031975097954273224, -0.0012905113399028778, -0.013190560042858124, 0.001653045415878296, -0.00962107628583908, -0.008076280355453491, 0.012134980410337448, 0.005004823207855225, -0.024289771914482117, 0.002186976373195648, 0.017222944647073746, 0.010033175349235535, 0.014900226145982742, -0.01093602180480957, 0.0065872156992554665, -0.0336262583732605, 0.00861232727766037, 0.0002200305461883545, 0.010955467820167542, 0.003951899707317352, -0.018012836575508118, -0.013642832636833191, -7.44163990020752e-05, 0.0034077721647918224, 0.011936143040657043, 0.013011559844017029, -0.006271660327911377, 0.03427852690219879, 0.017848655581474304, 0.0010016271844506264, -0.00875157117843628], [-0.005654811859130859, 0.003012530505657196, 0.015378043055534363, -0.016191810369491577, 0.01471400260925293, -0.018017344176769257, -0.02187398076057434, -0.05613893270492554, 0.007647201418876648, -0.037171319127082825, -0.011467218399047852, 0.03737998008728027, -0.012711741030216217, -0.018651127815246582, -0.037249475717544556, 0.005380488932132721, -0.05536189675331116, 0.029592901468276978, 0.002144336700439453, 0.022817492485046387, 0.034800246357917786, -0.0063402652740478516, -0.01623949408531189, -0.0344284325838089, 0.0204923152923584, 0.012739479541778564, -0.02822253480553627, 0.01757034659385681, -0.0019499287009239197, 0.006328314542770386, -0.024130746722221375, 0.019207943230867386, 0.01648557186126709, 0.023353450000286102, 0.0456562340259552, -0.012786038219928741, 0.017837464809417725, 0.032515645027160645, 0.04527461528778076, -0.04388515651226044, 0.04404342174530029, 0.00971078872680664, 0.013215214014053345, 0.02140726149082184, -0.024546116590499878, 0.009690389037132263, 0.04881153255701065, -0.003825228661298752, 0.03473132848739624, 0.03539681434631348, -0.01000012457370758, -0.0036276578903198242, -0.022132162004709244, 0.006772514432668686, -0.014894723892211914, -0.026403315365314484, 0.027270406484603882, 0.028451472520828247, 0.01662338711321354, -0.04158967733383179, 0.03174427151679993, -0.00437585636973381, 0.053383082151412964, 0.03767895698547363], [0.01813695579767227, 0.0038364827632904053, 0.00016829371452331543, 0.0011406634002923965, 0.017531290650367737, -0.014009475708007812, -0.022371381521224976, -0.01885102689266205, 0.0048254430294036865, 0.013753131031990051, 0.00912502035498619, 0.022500038146972656, 0.013705447316169739, -0.019944414496421814, -0.013106156140565872, 0.019964978098869324, -0.02332901954650879, 0.014558523893356323, 0.026863425970077515, 0.013163760304450989, 0.013550594449043274, -0.02870214730501175, 0.025234637781977654, -0.016594350337982178, 0.015880584716796875, 0.0195256769657135, 0.00939851999282837, -0.015080012381076813, 0.01614641398191452, -0.01593819260597229, -0.01116296648979187, 0.013721466064453125, 0.025260984897613525, 0.008860506117343903, 0.003997176885604858, -0.01633593440055847, 0.00632438063621521, 0.0014188587665557861, 0.035720765590667725, -0.030579254031181335, 0.029765218496322632, -0.018855273723602295, 0.033168792724609375, 0.03203648328781128, 0.007624127436429262, 0.006523311138153076, 0.022861480712890625, 0.0037265215069055557, -0.005124696530401707, 0.00911637395620346, 0.009641528129577637, 0.03140142560005188, 0.005599919706583023, 0.0013179928064346313, 0.005235746502876282, 0.007664337754249573, 0.015814661979675293, 0.02247825264930725, 0.015501245856285095, 0.0049169063568115234, 0.022331416606903076, 0.014298640191555023, 0.015872858464717865, -0.0017166510224342346], [-0.03690597414970398, 0.0468832403421402, 0.009996950626373291, 0.003372758626937866, -0.003375612199306488, -0.014032009989023209, -0.010035231709480286, 0.0059438347816467285, 0.014627397060394287, 0.020586013793945312, -0.03133043646812439, 0.0002934113144874573, 0.005487367510795593, 0.010669946670532227, 0.004809703677892685, -0.011038973927497864, -0.013314276933670044, 0.029988959431648254, 0.0017546117305755615, 0.059059351682662964, 0.004695497453212738, 0.013813063502311707, -0.045918598771095276, -0.0018200874328613281, 0.04891660064458847, -0.013692479580640793, -0.010550618171691895, 0.013376474380493164, -0.0685180276632309, 0.005191132426261902, -0.008997350931167603, -0.024746261537075043, 0.041492659598588943, 0.011318594217300415, 0.018806710839271545, 0.02025185525417328, 0.016562815755605698, 0.04041077196598053, 0.04732397198677063, -0.05562937259674072, 0.00631922110915184, 0.03981826454401016, 0.029261648654937744, -0.023572273552417755, 0.012975625693798065, -0.0347539484500885, 0.04059787094593048, -0.017856091260910034, 0.05299657583236694, -0.013560302555561066, -0.037324413657188416, -0.027734726667404175, -0.03897783160209656, 0.019650772213935852, 0.04628059267997742, 0.0013894494622945786, -0.00842680037021637, -0.024549275636672974, -0.05501878261566162, -0.0011512264609336853, -0.03433729708194733, 0.0034172423183918, -0.015176460146903992, 0.07100370526313782], [0.02702149748802185, -0.012164920568466187, -0.03933641314506531, 0.04005125164985657, 0.005600988864898682, 0.002905130386352539, 0.019810281693935394, -0.012292236089706421, 0.012850970029830933, 0.026880860328674316, 0.01594334840774536, -0.027299940586090088, 0.03089877963066101, 0.009396128356456757, 0.04245532304048538, 0.03206503391265869, 0.008724182844161987, 0.01928311213850975, 0.008642137050628662, -0.013561636209487915, -0.013066917657852173, -0.006115235388278961, 0.019951775670051575, 0.02538977563381195, 0.002935197204351425, -0.01364968717098236, 0.04266706854104996, -0.055279169231653214, 0.012251749634742737, 0.0027814507484436035, -0.010216206312179565, -0.011646956205368042, 0.028001155704259872, -0.003584185615181923, -0.014513369649648666, -0.007158339023590088, -0.009995386004447937, -0.04594171792268753, -0.006192971020936966, 0.009853646159172058, 0.003672473132610321, -0.010476931929588318, -0.0009653270244598389, 0.006007090210914612, 0.01062212884426117, -0.013086669147014618, -0.017351120710372925, -0.005843264050781727, -0.03612619638442993, -0.022111177444458008, -0.0015596449375152588, 0.014280777424573898, 0.029719702899456024, -0.014947980642318726, -0.005356118083000183, 0.04481574892997742, 0.022065982222557068, 0.014188256114721298, -0.004546009004116058, 0.009454548358917236, -0.0001901686191558838, 0.01569221168756485, 0.002605244517326355, -0.0047708675265312195], [0.0066063255071640015, 0.011534154415130615, 0.018085801973938942, -0.008364200592041016, 0.020379044115543365, -0.0085581224411726, -0.019324973225593567, -0.021122068166732788, 0.006219491362571716, -0.002489417791366577, 0.005836702883243561, 0.02447350323200226, 0.007756829261779785, -0.02593841403722763, -0.025932826101779938, 0.0060225725173950195, -0.03297492861747742, 0.01882842183113098, 0.014763981103897095, 0.014550566673278809, 0.017568081617355347, -0.01943400502204895, 0.010810226202011108, -0.026473164558410645, 0.01311589777469635, 0.014397583901882172, -0.003443211317062378, 0.0032431557774543762, 0.008840948343276978, -0.011003673076629639, -0.00944799929857254, 0.019437268376350403, 0.026604890823364258, 0.017103835940361023, 0.018966645002365112, -0.013201534748077393, 0.014367491006851196, 0.019057728350162506, 0.03761991858482361, -0.03605428338050842, 0.02748917043209076, -0.013722896575927734, 0.028428971767425537, 0.021834388375282288, 0.006188549101352692, 0.013038836419582367, 0.03325022757053375, 0.007266998291015625, 0.004748910665512085, 0.02026844024658203, -0.0015376806259155273, 0.018481925129890442, -0.011017188429832458, 0.001513056457042694, 0.002539902925491333, -0.008615553379058838, 0.014628656208515167, 0.014780491590499878, 0.018812745809555054, -0.00594678521156311, 0.023298323154449463, 0.015086676925420761, 0.018632322549819946, 0.008045673370361328], [0.01498490571975708, 0.00648980587720871, 0.008011117577552795, 0.0005881935358047485, 0.025433041155338287, -0.011276453733444214, -0.020104240626096725, -0.021871834993362427, 0.01616550236940384, 0.013483121991157532, 0.019045986235141754, 0.021713055670261383, 0.024498850107192993, -0.02432294189929962, -0.01671973615884781, 0.014630109071731567, -0.03463122248649597, 0.027125030755996704, 0.02442409098148346, 0.013726189732551575, 0.014637954533100128, -0.025019437074661255, 0.02195100486278534, -0.02232930064201355, 0.010363295674324036, 0.01574559509754181, 0.013739705085754395, -0.01618678867816925, 0.01529720425605774, -0.011141002178192139, -0.010723799467086792, 0.019257545471191406, 0.04038117825984955, 0.01672801375389099, 0.011369168758392334, -0.020685851573944092, 0.015554547309875488, 0.006629832088947296, 0.04021565616130829, -0.035363852977752686, 0.031095489859580994, -0.02079373598098755, 0.035057492554187775, 0.02914610505104065, 0.014123022556304932, 0.010471206158399582, 0.030698522925376892, 0.007339789532124996, -0.011273682117462158, 0.012374818325042725, -0.0003325343132019043, 0.027050815522670746, 0.0009899437427520752, -0.00562034547328949, 0.007268577814102173, 0.004697397351264954, 0.020770102739334106, 0.02047717571258545, 0.014931589365005493, 0.0012646317481994629, 0.02542710304260254, 0.02251829206943512, 0.01391059160232544, 0.005365639925003052], [-0.03410184010863304, 0.02397756278514862, -0.011775195598602295, 0.013423144817352295, -0.013552963733673096, -0.02483457326889038, -0.0076218098402023315, 0.004305276088416576, 0.03139832615852356, 0.025304526090621948, -0.01297450065612793, -0.0027427375316619873, 0.01822604238986969, 0.022610411047935486, 0.01793685555458069, -0.009942710399627686, -0.009469505399465561, 0.02799152582883835, 0.013722628355026245, 0.05883324146270752, 0.005800321698188782, 0.020628079771995544, -0.03365384042263031, 0.0074013471603393555, 0.04197432100772858, -0.00950692594051361, -0.0020302366465330124, -0.007597930729389191, -0.06187330186367035, 0.0092734694480896, -0.00612303614616394, -0.0287134051322937, 0.03611232340335846, 0.00922270119190216, 0.010164916515350342, 0.006480380892753601, 0.019679676741361618, 0.028850918635725975, 0.043060898780822754, -0.05860515683889389, 0.006887525320053101, 0.03898334503173828, 0.04643828421831131, -0.01996058225631714, 0.0063969288021326065, -0.04454559087753296, 0.04646029323339462, -0.0200984925031662, 0.031119003891944885, -0.017973080277442932, -0.026713848114013672, -0.016821786761283875, -0.017489373683929443, 0.01452365517616272, 0.04599578678607941, 0.009956508874893188, 0.0014262497425079346, -0.018451150506734848, -0.06413400173187256, -0.001150667667388916, -0.03462383151054382, -0.010651901364326477, -0.01921704411506653, 0.07743871212005615], [0.0313507616519928, -0.031500235199928284, -0.022306296974420547, 0.018746986985206604, -0.0025618746876716614, 0.007471203804016113, 0.015926197171211243, 0.000746607780456543, 0.008814737200737, 0.02030869573354721, 0.04180130362510681, -0.018254335969686508, 0.022708624601364136, 0.0012933611869812012, 0.02265644073486328, 0.012482494115829468, 0.015321046113967896, -0.008293643593788147, 0.006616473197937012, -0.03158799186348915, -0.014675505459308624, -0.009580641984939575, 0.03320607542991638, 0.016728632152080536, -0.026717528700828552, -0.0016214177012443542, 0.0299241840839386, -0.040232717990875244, 0.032299116253852844, 0.004897445440292358, 0.0073507241904735565, 0.009245187044143677, 0.00010047852993011475, -0.007495254278182983, -0.023880958557128906, -0.019689055159687996, -0.0015867501497268677, -0.03438897430896759, -0.026485800743103027, 0.026883546262979507, -0.006305579096078873, -0.025790724903345108, -0.007131144404411316, 0.010062426328659058, 0.011776909232139587, 0.007955074310302734, -0.023971915245056152, 0.0052237436175346375, -0.061832696199417114, -0.013081749901175499, 0.00761820375919342, 0.01969294250011444, 0.034231219440698624, -0.01644149422645569, -0.008290529251098633, 0.02566519007086754, 0.005206100642681122, 0.01243521273136139, 0.011889219284057617, 0.01271335780620575, 0.014300987124443054, 0.009728558361530304, -0.00916658341884613, -0.027307510375976562], [-0.020657643675804138, 0.0023793280124664307, -0.013709299266338348, 0.003731250762939453, -0.02410021424293518, -0.0028173327445983887, 0.011595349758863449, 0.008147478103637695, -0.004005923867225647, -0.00877651572227478, -0.02007204294204712, -0.012595385313034058, -0.010670334100723267, 0.025954745709896088, 0.015677435323596, -0.010722547769546509, 0.008952036499977112, -0.002560436725616455, -0.02148962952196598, 0.008786644786596298, -0.00022238492965698242, 0.027972187846899033, -0.030115753412246704, 0.02121061086654663, 0.01039174199104309, -0.013831749558448792, -0.012101441621780396, 0.010558146983385086, -0.0307818204164505, 0.010132960975170135, 0.0019872263073921204, -0.021494854241609573, -0.014384888112545013, -0.004012152552604675, 0.003490954637527466, 0.01126950979232788, -0.004315964877605438, 0.0040826499462127686, -0.011148523539304733, 0.007607787847518921, -0.010905101895332336, 0.030047427862882614, -0.024047229439020157, -0.026587996631860733, -0.0182407945394516, -0.017766952514648438, 0.0015685856342315674, -0.011341825127601624, 0.024558404460549355, -0.010050341486930847, -0.010160863399505615, -0.028385967016220093, -0.0021640509366989136, 0.009041257202625275, 0.0024818331003189087, -0.0029621943831443787, -0.004620164632797241, -0.011014223098754883, -0.023316144943237305, -0.00416681170463562, -0.02711343765258789, -0.025183379650115967, -0.0056663453578948975, 0.01901175081729889], [-0.025379355996847153, 0.023446299135684967, 0.023347437381744385, -0.023782990872859955, -0.0013790875673294067, -0.0024837851524353027, -0.009655505418777466, 0.004599928855895996, -0.0071447789669036865, -0.022569965571165085, -0.02938796579837799, 0.016648821532726288, -0.02588506042957306, 1.6264617443084717e-05, -0.021432559937238693, -0.01972167193889618, -0.012336581945419312, 0.0016426928341388702, -0.009709367528557777, 0.022107034921646118, 0.01178743690252304, 0.011293944902718067, -0.03165934234857559, -0.015718363225460052, 0.011607296764850616, -0.0018652677536010742, -0.035954415798187256, 0.04681701958179474, -0.026392707601189613, 0.0009015798568725586, -0.0010706111788749695, -0.0060861557722091675, -0.007321983575820923, 0.00489845871925354, 0.019673869013786316, 0.01768156886100769, 0.004974624142050743, 0.03663185238838196, 0.01755586266517639, -0.018176063895225525, 0.0008599013090133667, 0.020174942910671234, -0.0004442483186721802, -0.012941397726535797, -0.011009737849235535, -0.0027512311935424805, 0.01783721148967743, -0.001615528017282486, 0.051556870341300964, 0.01348917931318283, -0.01358233392238617, -0.02423843741416931, -0.032848939299583435, 0.012486115097999573, 0.004951447248458862, -0.031229715794324875, -0.011665672063827515, -0.013221114873886108, -0.00818316638469696, -0.011420294642448425, -0.011505752801895142, -0.009721040725708008, 0.002450510859489441, 0.021761834621429443], [-0.0047019352205097675, 0.001332595944404602, 0.037611790001392365, -0.02906706929206848, 0.019331790506839752, -0.014772951602935791, -0.026594549417495728, -0.018100664019584656, 0.010451644659042358, -0.018147706985473633, 0.020682454109191895, 0.03645476698875427, -0.000762568786740303, -0.036749549210071564, -0.04458911716938019, -0.00988110899925232, -0.027340233325958252, 0.0033508092164993286, 0.01726820319890976, 0.012993887066841125, 0.02317352034151554, -0.02539055049419403, 0.016223743557929993, -0.03785888850688934, -0.0018022805452346802, 0.024363476783037186, -0.018195226788520813, 0.02203369140625, 0.020116955041885376, -0.007417351007461548, -0.001531250774860382, 0.036796536296606064, 0.008896708488464355, 0.01650116592645645, 0.02261766791343689, -0.022761976346373558, 0.02574053406715393, 0.03729955106973648, 0.02649437077343464, -0.02678382396697998, 0.021998411044478416, -0.023102477192878723, 0.02690541371703148, 0.027581609785556793, 0.005212992429733276, 0.02656520903110504, 0.029648495838046074, 0.009716600179672241, 0.006767541170120239, 0.030881986021995544, 0.0033140145242214203, 0.02191324532032013, -0.020493805408477783, -0.0025294125080108643, 0.00247839093208313, -0.033883899450302124, -0.003984928131103516, 0.014123782515525818, 0.024667561054229736, -0.020446568727493286, 0.04011920094490051, 0.011304020881652832, 0.015016496181488037, 0.004443936049938202], [0.024872571229934692, -0.040233414620161057, -0.028487831354141235, 0.03299318999052048, 0.006610482931137085, -0.01130656898021698, 0.00519561767578125, -0.017329823225736618, 0.022510141134262085, 0.022652968764305115, 0.03846964240074158, -0.010964527726173401, 0.043741375207901, 0.001259148120880127, 0.02505803108215332, 0.03100629895925522, 0.004086311906576157, 0.013068132102489471, 0.019546687602996826, -0.01192869246006012, -0.0026748888194561005, -0.012477070093154907, 0.041039079427719116, 0.011035174131393433, -0.00907781533896923, 0.0045687537640333176, 0.047483161091804504, -0.07684658467769623, 0.03207695484161377, 0.004760952666401863, -0.0077615282498300076, 0.007889606058597565, 0.0189227145165205, -0.00111311674118042, -0.012987971305847168, -0.02727620303630829, -0.0007339566946029663, -0.03751938045024872, -0.009100586175918579, 0.009555729106068611, 0.010200873017311096, -0.022112473845481873, 0.011086076498031616, 0.020010054111480713, 0.0026706107892096043, -0.0005123019218444824, -0.006616517901420593, -0.005362421274185181, -0.057275936007499695, -0.012797385454177856, 0.011312529444694519, 0.03020000457763672, 0.039908260107040405, -0.02010330557823181, -0.010265752673149109, 0.03807711601257324, 0.028233036398887634, 0.0258474200963974, 0.0011715590953826904, 0.0021570920944213867, 0.01693742722272873, 0.007051561027765274, 0.004917904734611511, -0.002750106155872345], [0.010009229183197021, 0.011453911662101746, -0.03693574294447899, 0.03221094608306885, -0.020293883979320526, 0.023387320339679718, 0.02643205225467682, 0.025169700384140015, -0.013241291046142578, 0.03642261028289795, -0.023925788700580597, -0.042505037039518356, 0.005375921726226807, 0.030143719166517258, 0.0413922555744648, 0.009485606104135513, 0.027262240648269653, 0.00016546249389648438, -0.01826632022857666, -0.015934288501739502, -0.0290910042822361, 0.024173524230718613, -0.017246313393115997, 0.044768691062927246, 0.011604219675064087, -0.024465791881084442, 0.02193814516067505, -0.023712217807769775, -0.030820351094007492, 0.0003555864095687866, 0.004028782248497009, -0.0360289067029953, 0.0016391128301620483, -0.014995098114013672, -0.033297181129455566, 0.02309352159500122, -0.023313000798225403, -0.03795872628688812, -0.019958436489105225, 0.017378728836774826, -0.024766623973846436, 0.02700859308242798, -0.013792946934700012, -0.032513391226530075, 0.00500255823135376, -0.028319761157035828, -0.024183712899684906, -0.0026678056456148624, -0.012461870908737183, -0.03815007209777832, -0.0033119861036539078, -0.0189647376537323, 0.027918726205825806, 0.00854596495628357, 0.011166960000991821, 0.042790330946445465, 0.009774550795555115, -0.02004324272274971, -0.02519441395998001, 0.03984564542770386, -0.05118793249130249, -0.00974510982632637, -0.02077507972717285, -0.005412250757217407], [0.009530410170555115, -0.01809370145201683, 0.02333855628967285, -0.007536247372627258, 0.020575225353240967, 0.010155677795410156, 0.008887134492397308, -0.005817502737045288, 0.012244902551174164, -0.015641257166862488, 0.037839919328689575, 0.0063215941190719604, 0.008486668579280376, -0.020263073965907097, -0.011603236198425293, -0.0020051151514053345, -0.0031193941831588745, -0.007576465606689453, 0.0090770423412323, -0.03165328502655029, 0.0008081346750259399, -0.012218594551086426, 0.029047999531030655, -0.0251614972949028, -0.04056011140346527, 0.0006928443908691406, 0.007370591163635254, -0.0018894076347351074, 0.044583532959222794, 0.0032796710729599, 0.002983108162879944, 0.025859355926513672, -0.009559527039527893, -0.004377834498882294, -0.00079384446144104, -0.010178260505199432, -0.0003810971975326538, -0.005252741277217865, -0.01778644323348999, 0.025910407304763794, -0.0005194246768951416, -0.0354313999414444, -0.007010146975517273, 0.018932536244392395, 0.009375318884849548, 0.023611363023519516, -0.022745728492736816, 0.009509444236755371, -0.03653569519519806, 0.017891615629196167, 0.0034663528203964233, 0.010630965232849121, -0.0035958141088485718, -0.021924160420894623, -0.023664921522140503, -0.011993080377578735, -0.004290640354156494, 0.010083764791488647, 0.020242080092430115, -0.010490670800209045, 0.042896389961242676, 0.018324315547943115, -0.000665515661239624, -0.019747793674468994], [-0.02409406006336212, 0.04253077507019043, 0.023709416389465332, -0.021930087357759476, 0.0010172724723815918, 0.011227075010538101, 0.0002371072769165039, 0.005830554291605949, -0.014542341232299805, -0.023348383605480194, -0.038373351097106934, 0.006481798365712166, -0.03611887991428375, 0.0008199214935302734, -0.016373462975025177, -0.023986492305994034, -0.007815394550561905, 0.0018595755100250244, -0.018878459930419922, 0.013375043869018555, 0.0022992342710494995, 0.015582531690597534, -0.043667495250701904, -0.010669007897377014, 0.013756722211837769, -0.012204211205244064, -0.039684463292360306, 0.0643310397863388, -0.034497737884521484, 0.003556549549102783, 0.0009225010871887207, -0.010380696505308151, -0.007267346605658531, 0.007279783487319946, 0.020018478855490685, 0.02657519280910492, -0.001053839921951294, 0.028144486248493195, 0.011395804584026337, -0.011711124330759048, -0.0039048120379447937, 0.02465883269906044, -0.008526742458343506, -0.018983133137226105, 0.0006251335144042969, -0.0030712690204381943, 0.00856393575668335, 0.0033915936946868896, 0.05633748322725296, 0.010718300938606262, -0.02181871235370636, -0.0329531729221344, -0.038667045533657074, 0.013877496123313904, 0.0059018321335315704, -0.02821733057498932, -0.01667080819606781, -0.022087037563323975, -0.004868015646934509, -0.010416626930236816, -0.01573638617992401, 0.0014487877488136292, 0.004198789596557617, 0.012600421905517578], [-0.0239841490983963, 0.024518132209777832, 0.031982339918613434, -0.025664731860160828, -0.0010720789432525635, 0.007639765739440918, 7.43865966796875e-05, 0.008149765431880951, -0.011595413088798523, -0.030114933848381042, -0.02900134027004242, 0.013100415468215942, -0.029164545238018036, 0.0007701963186264038, -0.02444148063659668, -0.023275233805179596, -0.011245258152484894, -0.0012300312519073486, -0.017410486936569214, 0.010637141764163971, 0.00907076895236969, 0.0192716047167778, -0.0340399444103241, -0.016792483627796173, 0.0013340264558792114, -0.009127937257289886, -0.0369078665971756, 0.053241245448589325, -0.02137121930718422, 0.0005453824996948242, 0.0008144676685333252, -0.004971697926521301, -0.016206346452236176, 0.001835942268371582, 0.018255852162837982, 0.021464526653289795, 0.0013166964054107666, 0.03669159114360809, 0.010504892095923424, -0.01136508584022522, -0.005874834954738617, 0.019311517477035522, -0.010796234011650085, -0.018644869327545166, -0.010742228478193283, 0.0017732977867126465, 0.010832952335476875, 0.0017429068684577942, 0.04425129294395447, 0.01607644557952881, -0.016073226928710938, -0.03189922869205475, -0.03506267070770264, 0.008656948804855347, -0.0019905120134353638, -0.03506492078304291, -0.010119915008544922, -0.01575392857193947, -0.002400759607553482, -0.010127633810043335, -0.008061617612838745, -0.006969556212425232, 0.0013972073793411255, 0.014523405581712723], [-0.021687209606170654, 0.009134089574217796, 0.04966547340154648, -0.06939341127872467, -0.01300385594367981, -0.0015310198068618774, -0.03728559613227844, 0.020958758890628815, -0.04515160620212555, -0.03831891342997551, -0.025709792971611023, 0.044006288051605225, -0.06745418906211853, -0.018236026167869568, -0.06619790196418762, -0.04469779133796692, 0.003326699137687683, -0.05802062153816223, -0.01363450288772583, 0.010961592197418213, 0.011089324951171875, -0.011123567819595337, -0.017416715621948242, -0.03820498287677765, -0.0061738938093185425, 0.03434523940086365, -0.06373736262321472, 0.08816762268543243, -0.002684950828552246, -0.013765821233391762, 0.024413615465164185, 0.02454996109008789, -0.060780663043260574, 0.0009745955467224121, 0.013833612203598022, 0.008793585002422333, 0.010894263163208961, 0.05434321612119675, -0.004896938800811768, 0.005025222897529602, -0.007506530731916428, 0.001910671591758728, -0.015785783529281616, 0.005643308162689209, -0.017989300191402435, 0.030619347468018532, 0.006369441747665405, 0.010746844112873077, 0.04793861508369446, 0.034182727336883545, 0.02413463033735752, -0.00919109582901001, -0.03684372454881668, 0.029534101486206055, -0.001000717282295227, -0.06838531792163849, -0.05038580298423767, -0.01657828688621521, 0.0327419638633728, -0.008929058909416199, 0.00396889541298151, -0.0209704227745533, 0.0016824901103973389, -0.03375174477696419], [0.003237783908843994, -0.007629133760929108, -0.020901016891002655, 0.01995931565761566, -0.015731215476989746, 0.01223193109035492, 0.01895468309521675, 0.04523003101348877, -0.0004220306873321533, 0.038643836975097656, 0.017964601516723633, -0.0348048210144043, 0.02042233943939209, 0.01821218430995941, 0.037075117230415344, -0.002536274492740631, 0.04476083815097809, -0.024378374218940735, 0.0027934610843658447, -0.02097289264202118, -0.02830001711845398, 0.005096938461065292, 0.021460607647895813, 0.03325146436691284, -0.019416525959968567, -0.009538710117340088, 0.03197373449802399, -0.02606552094221115, 0.00552704930305481, -0.005739003419876099, 0.01909906417131424, -0.016636669635772705, -0.012603913433849812, -0.02390766143798828, -0.044794827699661255, 0.007091045379638672, -0.01642449200153351, -0.0331849604845047, -0.039877355098724365, 0.039298493415117264, -0.03607863187789917, -0.010867208242416382, -0.007455974817276001, -0.01595379412174225, 0.02152559906244278, -0.011941459029912949, -0.04244273900985718, 0.0010330826044082642, -0.037303172051906586, -0.030976146459579468, 0.011848986148834229, 0.008945733308792114, 0.024605363607406616, -0.007333233952522278, 0.016612470149993896, 0.02869006246328354, -0.019845202565193176, -0.02065044641494751, -0.021475106477737427, 0.03785703331232071, -0.024659931659698486, -0.0001434236764907837, -0.04910820722579956, -0.02762281894683838], [-0.012253761291503906, 0.012572258710861206, -0.02463054656982422, 0.013015687465667725, -0.02084404230117798, -0.004990056157112122, -0.0021192431449890137, 0.014665067195892334, -0.0015757158398628235, 0.026150226593017578, -0.025905728340148926, -0.018977895379066467, -0.00077037513256073, 0.025549784302711487, 0.01786281168460846, -0.0013802200555801392, 0.016004860401153564, 0.0036417245864868164, -0.005884021520614624, 0.025267302989959717, -0.012538589537143707, 0.017842985689640045, -0.026007600128650665, 0.030663833022117615, 0.02900111675262451, -0.005619395524263382, 0.002302393317222595, -0.009368538856506348, -0.04494413733482361, 0.0040472447872161865, 0.003575041890144348, -0.024803489446640015, 0.009614571928977966, 0.0031923502683639526, -0.012591004371643066, 0.010719522833824158, -0.0051541998982429504, -0.006713047623634338, 0.003002353012561798, -0.012519564479589462, -0.01075088232755661, 0.03674966096878052, 0.013956248760223389, -0.024028271436691284, 0.0046822689473629, -0.02396571636199951, 0.009288780391216278, -0.006602322682738304, 0.01658576726913452, -0.027863606810569763, -0.002292586723342538, -0.012067696079611778, 0.008332915604114532, 0.01705607771873474, 0.028380125761032104, 0.020899560302495956, -0.0006993263959884644, -0.021193217486143112, -0.028225667774677277, 0.014648079872131348, -0.044761985540390015, -0.013046644628047943, -0.014100266620516777, 0.019251644611358643], [-0.019859470427036285, 0.02043434977531433, 0.01969350129365921, -0.05162684991955757, -0.028649479150772095, 0.0006639137864112854, -0.0212840735912323, 0.018298566341400146, -0.053591325879096985, -0.04667460918426514, -0.04757660627365112, 0.03155738487839699, -0.06779390573501587, 0.006051093339920044, -0.034145306795835495, -0.029759541153907776, 0.0020600110292434692, -0.04954231530427933, -0.024614743888378143, 0.00845310091972351, 0.015424787998199463, 0.0024209320545196533, -0.03286971151828766, -0.013659611344337463, 0.006842970848083496, 0.01879224181175232, -0.05809769034385681, 0.0866813212633133, -0.0132475346326828, -0.02370104193687439, 0.010058850049972534, -0.006777644157409668, -0.06531500816345215, -0.01835530996322632, 0.009831607341766357, 0.022007524967193604, -0.007695600390434265, 0.04261569678783417, -0.003103584051132202, 0.011291101574897766, -0.009813308715820312, 0.015141397714614868, -0.04348783195018768, -0.006944626569747925, -0.03438024967908859, 0.006310757249593735, -0.007699936628341675, -0.0025294721126556396, 0.06740914285182953, 0.028954893350601196, 0.021128281950950623, -0.02315998077392578, -0.03859564661979675, 0.03152041882276535, -0.007589370012283325, -0.05775223672389984, -0.04239657521247864, -0.00854712724685669, 0.02314184606075287, -0.005477353930473328, -0.005104824900627136, -0.036174945533275604, 0.007283121347427368, -0.026667900383472443], [0.02605520188808441, -0.014812678098678589, 0.005253314971923828, 0.008703816682100296, 0.01867660880088806, 0.0207044780254364, 0.02133195847272873, -0.00690227746963501, 0.005655199289321899, -0.0013471543788909912, 0.032416969537734985, -0.009910514578223228, 0.013760305941104889, -0.012133151292800903, 0.006306320428848267, 0.009087987244129181, 0.001229792833328247, 0.0013821646571159363, -0.004101186990737915, -0.04468432068824768, -0.00884312391281128, -0.0066323354840278625, 0.02406982332468033, -0.0007838606834411621, -0.03332815319299698, -0.008675462566316128, 0.017984986305236816, -0.017409153282642365, 0.037262022495269775, 0.003921423107385635, 0.0003824979066848755, 0.015212446451187134, -0.0004964955151081085, -0.0019161105155944824, -0.008559882640838623, -0.009106695652008057, -0.004275638610124588, -0.025343362241983414, -0.023959262296557426, 0.03202700614929199, -0.00498555600643158, -0.029790274798870087, -0.02159734070301056, 0.008424162864685059, 0.012400716543197632, 0.018191993236541748, -0.030936118215322495, 0.010899830609560013, -0.04755774140357971, 0.002844095230102539, -0.002861820161342621, 0.006645336747169495, 0.014055266976356506, -0.02250918745994568, -0.023334160447120667, 0.00861559808254242, 0.008220493793487549, 0.012183934450149536, 0.02165171504020691, 0.0011506862938404083, 0.029766276478767395, 0.02404727041721344, 0.002703063189983368, -0.024922966957092285], [0.029796481132507324, -0.04233866184949875, -0.009431064128875732, 0.004676789045333862, 0.005224555730819702, 0.006179831922054291, 0.009924441576004028, -0.009088858962059021, 0.0027944594621658325, -0.007326308637857437, 0.03447529673576355, -0.0039092786610126495, 0.007356524467468262, -0.005241304636001587, 0.003692910075187683, 0.012916192412376404, 0.009912896901369095, -0.014194969087839127, 0.004228070378303528, -0.03766465187072754, -0.006242424249649048, -0.011221110820770264, 0.03553791344165802, 0.0030399560928344727, -0.036108553409576416, 0.006715469062328339, 0.01749488338828087, -0.027878064662218094, 0.04773934930562973, 0.005314880982041359, 0.00499088317155838, 0.019633561372756958, -0.017206847667694092, -0.004180163145065308, -0.013481736183166504, -0.021884184330701828, -0.006838083267211914, -0.03408151865005493, -0.029550135135650635, 0.032556332647800446, -0.0001894533634185791, -0.028633207082748413, -0.011975528672337532, 0.019801899790763855, -0.004013031721115112, 0.02348431944847107, -0.02431480400264263, 0.009672466665506363, -0.05467019975185394, 0.0019303560256958008, 0.02052302658557892, 0.019724324345588684, 0.03199688345193863, -0.01918366551399231, -0.031806543469429016, 0.008837557397782803, 0.01057450845837593, 0.020109575241804123, 0.03518235683441162, -0.0010643824934959412, 0.02702765166759491, 0.0057401955127716064, 0.009202430956065655, -0.039560556411743164], [-0.027817264199256897, 0.013966158032417297, -0.021607160568237305, 0.034152522683143616, 0.001978844404220581, -0.027701348066329956, 0.0045079318806529045, -0.012476272881031036, 0.06719537079334259, 0.03487016260623932, 0.013335172086954117, -0.012307584285736084, 0.04396754503250122, 0.022393926978111267, 0.030452236533164978, 0.0014614686369895935, -0.0176161527633667, 0.062362994998693466, 0.01895195245742798, 0.057745397090911865, 0.0015192776918411255, 0.022443145513534546, -0.030544359236955643, 0.012539565563201904, 0.039372801780700684, -0.019905582070350647, 0.013741552829742432, -0.041289836168289185, -0.07556411623954773, 0.02809906005859375, -0.009905129671096802, -0.022170186042785645, 0.06244480609893799, 0.028413929045200348, 0.015775009989738464, -0.01124921441078186, 0.02158360369503498, 0.00745941698551178, 0.04796028137207031, -0.0630408525466919, 0.019620701670646667, 0.041928160935640335, 0.049243465065956116, -0.01910489797592163, 0.013387616723775864, -0.04383760690689087, 0.056711986660957336, -0.01727554202079773, 0.0043132007122039795, -0.03743816167116165, -0.047049202024936676, -0.017043599858880043, 0.0011670887470245361, 0.0026130275800824165, 0.032683324068784714, 0.03270568326115608, 0.0201788991689682, -0.013429626822471619, -0.07204245775938034, -0.006782129406929016, -0.021978868171572685, 0.004717409610748291, -0.016877517104148865, 0.09473587572574615], [0.028988420963287354, -0.015160543844103813, 0.015234172344207764, -0.004149623215198517, 0.01734612137079239, 0.02678607404232025, 0.015252625569701195, -0.001482263207435608, -0.014353983104228973, -0.011988691985607147, 0.022602729499340057, -0.005328357219696045, -0.0022346079349517822, -0.021037593483924866, -0.00806085579097271, 0.0066334158182144165, 0.007380962371826172, -0.014304310083389282, -0.010274440050125122, -0.05239620804786682, -0.01056940108537674, -0.014482207596302032, 0.02801791951060295, -0.00532183051109314, -0.03837266564369202, -0.00081595778465271, 0.009848237037658691, -0.0018974840641021729, 0.047466471791267395, -0.0035145580768585205, 0.004762768745422363, 0.022996993735432625, -0.017573192715644836, -0.005527913570404053, -0.010830700397491455, -0.004177793860435486, -0.010745227336883545, -0.024795860052108765, -0.03394414484500885, 0.047034457325935364, -0.009360924363136292, -0.03563759848475456, -0.036525994539260864, 0.01132550835609436, 0.007938489317893982, 0.031183049082756042, -0.04242146015167236, 0.017059490084648132, -0.04025745391845703, 0.010168865323066711, 0.010695232078433037, 0.011038072407245636, 0.011860094964504242, -0.018177010118961334, -0.03171459585428238, -0.0017772316932678223, 0.00034021586179733276, 0.010400757193565369, 0.04119589924812317, 0.003710508346557617, 0.02987058460712433, 0.02101483941078186, 0.00777776911854744, -0.05239592492580414], [0.018827900290489197, -0.03177224099636078, -0.009715661406517029, 0.02367648482322693, 0.012499257922172546, 5.7503581047058105e-05, 0.007496178150177002, -0.009382382035255432, 0.021057158708572388, 0.0226593017578125, 0.02220468968153, -0.014735955744981766, 0.02510116621851921, -0.0014559179544448853, 0.01334238052368164, 0.017431125044822693, 0.005355797708034515, 0.01582542061805725, 0.008645504713058472, -0.007091891020536423, -0.013252291828393936, -0.0013152658939361572, 0.015191478654742241, 0.004877567291259766, -0.006808757781982422, -0.004299446940422058, 0.028701230883598328, -0.05544178932905197, 0.00807887315750122, 0.02342376857995987, -0.00030112266540527344, 0.007677667774260044, 0.021006867289543152, 0.016548141837120056, -0.0049010515213012695, -0.016155309975147247, 0.0051949769258499146, -0.03147345036268234, -0.004703938961029053, 0.0001798570156097412, 0.0054817721247673035, -0.0019074976444244385, 0.019786730408668518, 0.0057027339935302734, 0.007923543453216553, 0.0049747079610824585, 0.0029177889227867126, 0.002229467034339905, -0.045056089758872986, -0.020069874823093414, -0.002216339111328125, 0.006813764572143555, 0.03289780765771866, -0.011527575552463531, -0.008373945951461792, 0.03506153076887131, 0.026053013280034065, 0.005607915110886097, -0.0036110728979110718, 0.0030423924326896667, -0.0016562789678573608, 0.014352396130561829, 0.002855580300092697, 0.002603713423013687], [0.03532906621694565, -0.014235049486160278, 0.0077588558197021484, 0.001878485083580017, 0.012937411665916443, 0.03200452774763107, 0.020563751459121704, 0.0028643161058425903, -0.016675710678100586, -0.00291992723941803, 0.02848885953426361, -0.014138400554656982, 0.0016938745975494385, -0.019797325134277344, -0.00010421872138977051, 0.007292002439498901, 0.011697344481945038, -0.013177543878555298, -0.015733255073428154, -0.059834301471710205, -0.016091465950012207, -0.0133159589022398, 0.02788887917995453, 0.006736099720001221, -0.03977423906326294, -0.004062579479068518, 0.014551859349012375, -0.00819183886051178, 0.043887048959732056, -0.0026332736015319824, 0.007356047630310059, 0.02064475417137146, -0.01337406039237976, -0.00478266179561615, -0.01818174123764038, -0.006179153919219971, -0.008558094501495361, -0.030009999871253967, -0.03893385827541351, 0.050193313509225845, -0.015610426664352417, -0.03598006069660187, -0.03897253796458244, 0.005045183468610048, 0.013135045766830444, 0.03027200698852539, -0.04691547155380249, 0.020171627402305603, -0.049773432314395905, 0.002826586365699768, 0.007376953959465027, 0.011606365442276001, 0.019419096410274506, -0.017834700644016266, -0.026931822299957275, 0.0059669166803359985, 0.0019511878490447998, 0.008561119437217712, 0.03999611735343933, 0.011249877512454987, 0.02499103546142578, 0.023283421993255615, 0.003086268901824951, -0.055626362562179565], [-0.030190885066986084, 0.03415384143590927, 0.01876097172498703, -0.053565770387649536, -0.03283435106277466, 0.0008729547262191772, -0.020326554775238037, 0.02454066276550293, -0.050313711166381836, -0.04134443402290344, -0.056980013847351074, 0.02718566358089447, -0.07578681409358978, 0.014983020722866058, -0.028711974620819092, -0.03777426481246948, 0.008808091282844543, -0.051597800105810165, -0.02593831717967987, 0.019036442041397095, 0.007627330720424652, 0.009152613580226898, -0.04987037181854248, -0.010267727077007294, 0.018720954656600952, 0.013673052191734314, -0.0677068829536438, 0.10145683586597443, -0.03421127796173096, -0.02535441517829895, 0.01617327518761158, -0.015153869986534119, -0.0629989504814148, -0.018569216132164, 0.00821562111377716, 0.029572203755378723, -0.010924898087978363, 0.04451775550842285, -0.00018745660781860352, 0.005548819899559021, -0.012978275306522846, 0.032350242137908936, -0.03800399601459503, -0.014439955353736877, -0.033112429082393646, -0.0026316456496715546, -0.003787398338317871, -0.004954934120178223, 0.08753035217523575, 0.01791912317276001, 0.020838622003793716, -0.03615087270736694, -0.046335119754076004, 0.04169085621833801, 0.003944993019104004, -0.055738165974617004, -0.054916515946388245, -0.02281726896762848, 0.009724758565425873, -0.0026487410068511963, -0.015621393918991089, -0.04081517457962036, -0.0025907158851623535, -0.021039605140686035], [0.007277294993400574, -0.02127259224653244, -0.017600297927856445, -0.012150153517723083, -0.02812819927930832, 0.005891919136047363, 0.001659546047449112, 0.02321702241897583, -0.04193320870399475, -0.007933661341667175, -0.014538370072841644, -0.004008874297142029, -0.035251498222351074, 0.014847368001937866, 0.0044516921043396, -0.0004604160785675049, 0.04906591773033142, -0.06202635169029236, -0.008851110935211182, -0.024015143513679504, -0.013287633657455444, -0.003694601356983185, 0.009929150342941284, 0.019215673208236694, -0.014822408556938171, 0.007928043603897095, -0.006175175309181213, 0.014808177947998047, 0.023409850895404816, -0.007543623447418213, 0.01690627634525299, -0.008497953414916992, -0.06058548390865326, -0.032924212515354156, -0.029697373509407043, 0.01425907015800476, -0.025350164622068405, -0.019381314516067505, -0.04950834810733795, 0.05187332630157471, -0.025647858157753944, -0.006116703152656555, -0.03382144868373871, 0.0022224150598049164, -0.016663938760757446, -0.0010458528995513916, -0.0494253933429718, -0.006960511207580566, 0.0012279003858566284, -0.0030434755608439445, 0.03485427796840668, 0.001487433910369873, 0.014994092285633087, 0.006460607051849365, -0.012828290462493896, -0.00542333722114563, -0.03423726558685303, -0.0006031827069818974, 0.011591672897338867, 0.010244488716125488, -0.009493500925600529, -0.022703856229782104, -0.0051176100969314575, -0.057432666420936584], [-0.024247467517852783, 0.01703600585460663, -0.029792845249176025, 0.03022034466266632, -0.011223793029785156, -0.017945170402526855, 0.00800371915102005, -0.0012936592102050781, 0.04375801980495453, 0.035426899790763855, -0.0010219812393188477, -0.01817193627357483, 0.026383813470602036, 0.03988203406333923, 0.037841349840164185, -0.0018630027770996094, -0.0035604536533355713, 0.03856098651885986, 0.007060684263706207, 0.0488959476351738, -0.005278922617435455, 0.03364023566246033, -0.04013282060623169, 0.02318229153752327, 0.039590805768966675, -0.022896915674209595, 0.009949937462806702, -0.030349336564540863, -0.07338093221187592, 0.023357540369033813, -0.0059218257665634155, -0.036972373723983765, 0.04735490679740906, 0.0175437331199646, 0.007452279329299927, 0.002620488405227661, 0.018203258514404297, 0.007729083299636841, 0.03812234103679657, -0.06258892267942429, 0.0060151200741529465, 0.04798823595046997, 0.05743792653083801, -0.027863942086696625, 0.01156945526599884, -0.052076876163482666, 0.045266300439834595, -0.021832644939422607, 0.012492984533309937, -0.03657662868499756, -0.03806161880493164, -0.028365664184093475, 0.0003737211227416992, 0.009073272347450256, 0.04160609841346741, 0.029326528310775757, 0.011378198862075806, -0.019787371158599854, -0.06979674100875854, -0.0009241402149200439, -0.04031679034233093, -0.001692056655883789, -0.019894450902938843, 0.08836980164051056], [0.018914006650447845, -0.02017401158809662, -0.011372372508049011, 0.03844413161277771, 0.027428075671195984, -0.012333601713180542, 0.00397181510925293, -0.02708219364285469, 0.04519711434841156, 0.03556358814239502, 0.041602522134780884, -0.012698322534561157, 0.05168277025222778, -0.013066112995147705, 0.016735322773456573, 0.025527022778987885, -0.016635745763778687, 0.05152276158332825, 0.017642110586166382, 0.0029544830322265625, 0.000919342041015625, -0.0020437389612197876, 0.020922642201185226, 0.005934908986091614, 0.009282507002353668, -0.004142343997955322, 0.03592631220817566, -0.07324501872062683, 0.0021026208996772766, 0.021051153540611267, -0.014171324670314789, 0.01396411657333374, 0.05766918510198593, 0.03475174307823181, 0.005575783550739288, -0.03292171284556389, 0.024297326803207397, -0.023689299821853638, 0.018283605575561523, -0.027748778462409973, 0.01997867226600647, -0.00415436178445816, 0.044458359479904175, 0.009386150166392326, 0.015209093689918518, -0.0004913955926895142, 0.029974212870001793, 0.003807246685028076, -0.042172983288764954, -0.020705536007881165, -0.021559596061706543, 0.020501255989074707, 0.041832536458969116, -0.017916744574904442, 0.006037801504135132, 0.0430348664522171, 0.04974722862243652, 0.01763737201690674, -0.013399094343185425, -0.0020050108432769775, 0.008983932435512543, 0.02076423168182373, 0.008745133876800537, 0.03801601007580757], [0.006964389234781265, -0.0223134383559227, -0.014575079083442688, -0.015481755137443542, -0.03204581141471863, 0.009083323180675507, 0.0018609818071126938, 0.03238131105899811, -0.03809472918510437, -0.0034478530287742615, -0.0036773234605789185, -0.007983267307281494, -0.02864500880241394, 0.008466037921607494, 0.00041334331035614014, -0.011581763625144958, 0.04980999231338501, -0.06429588794708252, -0.01067940890789032, -0.030006587505340576, -0.019156455993652344, -0.006239891052246094, 0.01527608186006546, 0.021008692681789398, -0.02197439968585968, 0.011382877826690674, -0.00776103138923645, 0.01734340190887451, 0.02483636885881424, -0.007430464029312134, 0.027088165283203125, -0.001650497317314148, -0.06366008520126343, -0.030661463737487793, -0.035103410482406616, 0.007164821028709412, -0.020380422472953796, -0.01840093731880188, -0.058619022369384766, 0.058674804866313934, -0.033131323754787445, -0.013648167252540588, -0.03702189028263092, -0.001977860927581787, -0.010153010487556458, 0.00546756386756897, -0.05290614068508148, 0.0007552504539489746, -0.011183053255081177, -0.003951258957386017, 0.03252001851797104, 0.008467704057693481, 0.017580926418304443, 0.0066835093311965466, -0.0066426098346710205, -0.008900701999664307, -0.04018084704875946, -0.007808562368154526, 0.01121281087398529, 0.016917921602725983, -0.005727797746658325, -0.023782789707183838, -0.015693068504333496, -0.0630565881729126], [0.02461424469947815, -0.02840343862771988, -0.0331011563539505, 0.05244654044508934, 0.01851087063550949, 0.0032886862754821777, 0.0285550057888031, -0.013837967067956924, 0.04581054300069809, 0.044946953654289246, 0.05592675507068634, -0.036646295338869095, 0.06759223341941833, -0.004139598459005356, 0.04484475031495094, 0.02651914954185486, 0.0019820034503936768, 0.035682037472724915, 0.019478455185890198, -0.02457374706864357, -0.014285407960414886, -0.003051280975341797, 0.04292115569114685, 0.02343873679637909, -0.018535181879997253, -0.01871877908706665, 0.06308898329734802, -0.08853784948587418, 0.02709091082215309, 0.021322742104530334, -0.007507853209972382, 0.004712745547294617, 0.05036979913711548, 0.007454782724380493, -0.017946936190128326, -0.026034317910671234, 0.005440369248390198, -0.050050247460603714, -0.013873890042304993, 0.010221518576145172, 0.003444582223892212, -0.02767687663435936, 0.02520529180765152, 0.007951736450195312, 0.03370266035199165, -0.0060427188873291016, -0.010162979364395142, 0.002522408962249756, -0.08429239690303802, -0.022623524069786072, -0.01568809151649475, 0.029627352952957153, 0.044281065464019775, -0.03418426960706711, 0.0038115978240966797, 0.05540108680725098, 0.03551223874092102, 0.01592119224369526, -0.0184134840965271, 0.008606672286987305, 0.00935414433479309, 0.031331866979599, -0.009908009320497513, 0.01406155526638031], [-0.03299328684806824, 0.0197918638586998, -0.0034033358097076416, 0.014179214835166931, 0.001402527093887329, -0.028192788362503052, -0.009190022945404053, -0.01338765025138855, 0.034660160541534424, 0.014739759266376495, -0.013719752430915833, 0.005059286952018738, 0.015750810503959656, 0.01784166321158409, 0.011569857597351074, -0.0020969361066818237, -0.018864735960960388, 0.03713972121477127, 0.011017730459570885, 0.05773967504501343, 0.012539565563201904, 0.02062375843524933, -0.036035194993019104, -0.005483105778694153, 0.04638749361038208, -0.00926254689693451, -0.003818988800048828, -0.011024445295333862, -0.056817904114723206, 0.012878447771072388, -0.014208830893039703, -0.017667055130004883, 0.035976581275463104, 0.016230523586273193, 0.02433827519416809, 0.0012432783842086792, 0.01739451289176941, 0.0248565673828125, 0.044783443212509155, -0.054427891969680786, 0.01913217082619667, 0.04136650264263153, 0.036448780447244644, -0.009317025542259216, -0.0016461014747619629, -0.036494314670562744, 0.04856120049953461, -0.02522578462958336, 0.037434667348861694, -0.012558922171592712, -0.0285993292927742, -0.021629391238093376, -0.017066210508346558, 0.011703133583068848, 0.02919931709766388, 0.008871324360370636, 0.011330733075737953, -0.007797814905643463, -0.05732625722885132, -0.014563597738742828, -0.018506577238440514, -0.00856393575668335, -0.0037122368812561035, 0.08237144351005554], [0.028274983167648315, -0.021718129515647888, 0.012642249464988708, -0.030922183766961098, -0.014356836676597595, 0.02422955632209778, -0.0034457817673683167, 0.012748092412948608, -0.0678793415427208, -0.03417646884918213, -0.01748642325401306, 0.00860116258263588, -0.05059534311294556, -0.01343052089214325, -0.024599790573120117, -0.0025725066661834717, 0.03151571750640869, -0.06893622875213623, -0.02530801296234131, -0.05684041976928711, -0.008315816521644592, -0.017830058932304382, 0.023065686225891113, -0.004847973585128784, -0.03602292388677597, 0.01898505538702011, -0.016088634729385376, 0.03633566200733185, 0.06706485152244568, -0.022064857184886932, 0.01719200611114502, 0.018419578671455383, -0.07125693559646606, -0.029730647802352905, -0.019588924944400787, 0.009655043482780457, -0.025922805070877075, -0.016485095024108887, -0.06180286407470703, 0.07269525527954102, -0.022588342428207397, -0.030791327357292175, -0.05316925048828125, 0.01662003993988037, -0.017395883798599243, 0.04054936766624451, -0.06076391786336899, 0.014775466173887253, -0.003598436713218689, 0.026478759944438934, 0.050230927765369415, 0.011838167905807495, 0.010279417037963867, 0.0039657652378082275, -0.035416651517152786, -0.026302054524421692, -0.02349831908941269, 0.010038286447525024, 0.06817872077226639, 0.004470333456993103, 0.017901547253131866, -0.013184428215026855, 0.016835354268550873, -0.09796485304832458], [-0.025173962116241455, 0.0315839946269989, 0.023702144622802734, -0.016713768243789673, -0.006107360124588013, 0.014669038355350494, 0.010220855474472046, 0.014150947332382202, -0.014214158058166504, -0.023887082934379578, -0.03637678921222687, -0.0020406916737556458, -0.03254038095474243, 0.01051933690905571, -0.010443568229675293, -0.0257963165640831, -0.0017180293798446655, -0.0031752288341522217, -0.02493010275065899, 0.007149945478886366, -0.0017879903316497803, 0.02921219915151596, -0.04440433159470558, -0.005451969802379608, 0.004327721893787384, -0.019678443670272827, -0.03359121084213257, 0.053346261382102966, -0.03222183883190155, 0.0051489174365997314, 0.004529021680355072, -0.014169059693813324, -0.01745346561074257, 0.0006453245878219604, 0.012407824397087097, 0.029430314898490906, -0.006614631973206997, 0.02786439284682274, 0.0018208622932434082, -0.0041320472955703735, -0.014603465795516968, 0.030281182378530502, -0.019185885787010193, -0.02833889052271843, -0.00447782501578331, -0.004670426249504089, 0.0014416277408599854, 0.002097107470035553, 0.04209110140800476, 0.005433209240436554, -0.01969526708126068, -0.04067906737327576, -0.03671520948410034, 0.012453630566596985, 0.0005327314138412476, -0.024910137057304382, -0.013771668076515198, -0.026300281286239624, -0.01053956151008606, -0.004864297807216644, -0.016820475459098816, -0.006346825510263443, -0.005644664168357849, 0.013739898800849915], [-0.029710322618484497, 0.05291643738746643, -0.003330439329147339, 0.024289608001708984, 0.0005881860852241516, -0.010791540145874023, -0.0019358247518539429, 0.0018883943557739258, 0.02109512686729431, 0.029808025807142258, -0.03269359469413757, -0.011562436819076538, 0.024177029728889465, 0.015750259160995483, 0.01868957281112671, 0.008036017417907715, -0.020980000495910645, 0.05140100419521332, 0.005527138710021973, 0.06075400114059448, 0.005615293979644775, 0.018603608012199402, -0.04363922402262688, 0.011657893657684326, 0.05576440691947937, -0.02047719433903694, 0.007507890462875366, -0.009497731924057007, -0.07785707712173462, 0.001290932297706604, -0.026382893323898315, -0.03527170419692993, 0.06271734833717346, 0.013357281684875488, 0.015665769577026367, 0.023240968585014343, 0.011415943503379822, 0.02916504442691803, 0.06556698679924011, -0.07637137174606323, 0.008375942707061768, 0.044692471623420715, 0.040910959243774414, -0.031067106872797012, 0.016391489654779434, -0.048079848289489746, 0.047684915363788605, -0.020545735955238342, 0.035542018711566925, -0.02114701271057129, -0.0412544310092926, -0.022481635212898254, -0.033413294702768326, 0.015282120555639267, 0.04674055054783821, 0.020450308918952942, 0.013881072402000427, -0.02283424139022827, -0.057518668472766876, 0.007204566150903702, -0.04132639989256859, 0.009974688291549683, -0.014083772897720337, 0.09136050939559937], [-0.030263230204582214, 0.015306275337934494, 0.04431239143013954, -0.0527002327144146, -0.003669045865535736, -0.0017563402652740479, -0.018299497663974762, 0.00903313234448433, -0.01799091510474682, -0.043226826936006546, -0.03401763364672661, 0.03588402271270752, -0.05283890664577484, -0.002658933401107788, -0.04886149615049362, -0.037119507789611816, -0.0089510977268219, -0.02283647656440735, -0.017646122723817825, 0.020039275288581848, 0.012081608176231384, 0.011552201583981514, -0.03847157955169678, -0.03548029065132141, -9.779073297977448e-05, 0.008403001353144646, -0.061112433671951294, 0.07650910317897797, -0.021648719906806946, 0.0038222074508666992, 0.011113367974758148, 0.006700605154037476, -0.03767305612564087, 0.007186040282249451, 0.02741922438144684, 0.017804386094212532, 0.006877467036247253, 0.050000518560409546, 0.008732058107852936, -0.010350123047828674, 0.0003708302974700928, 0.021423369646072388, -0.009759128093719482, -0.008211970329284668, -0.019742712378501892, 0.014357835054397583, 0.02009534277021885, 0.00432780385017395, 0.05557461082935333, 0.025118932127952576, -0.0036037862300872803, -0.034315019845962524, -0.04189189150929451, 0.019479408860206604, -0.004806250333786011, -0.057148441672325134, -0.02910897321999073, -0.018827594816684723, 0.008498281240463257, -0.021167844533920288, -0.0053060054779052734, -0.01402212679386139, 0.005529157817363739, 0.00632864236831665], [-0.028879836201667786, 0.01901686191558838, -0.017108649015426636, 0.02237662672996521, -0.007217332720756531, -0.025679349899291992, -0.0020887181162834167, -0.00391339510679245, 0.04936041310429573, 0.03334777057170868, 0.001664280891418457, -0.007899254560470581, 0.02862638235092163, 0.026067093014717102, 0.02610918879508972, -0.006512582302093506, -0.011354845017194748, 0.0421379953622818, 0.015156388282775879, 0.06129034608602524, 0.0006190165877342224, 0.021946489810943604, -0.03758789598941803, 0.00956079363822937, 0.042314156889915466, -0.015798956155776978, 0.004215419292449951, -0.023546814918518066, -0.0739797055721283, 0.022738724946975708, -0.005241513252258301, -0.026531875133514404, 0.05294729396700859, 0.020121991634368896, 0.014117211103439331, -0.002013102173805237, 0.02628868818283081, 0.020532995462417603, 0.05016407370567322, -0.06909917294979095, 0.01340862363576889, 0.045105718076229095, 0.05506356060504913, -0.020552337169647217, 0.01243947446346283, -0.04607933759689331, 0.05540531873703003, -0.01950966939330101, 0.018834739923477173, -0.031515248119831085, -0.03949613869190216, -0.022931955754756927, -0.00944642722606659, 0.011494956910610199, 0.043004512786865234, 0.02179829776287079, 0.006534606218338013, -0.01819431781768799, -0.070671945810318, -0.005022034049034119, -0.030844297260046005, -0.0006080120801925659, -0.019639506936073303, 0.09042701125144958], [-0.008218735456466675, 0.006602343171834946, 0.02281765639781952, -0.01966443657875061, 0.010905653238296509, -0.011835545301437378, -0.017116546630859375, -0.010548174381256104, 0.005120694637298584, -0.014069795608520508, 0.007085174322128296, 0.02413979172706604, -0.0022796839475631714, -0.017748191952705383, -0.02497652918100357, -0.0054357051849365234, -0.016991734504699707, 0.0014821067452430725, 0.01167769730091095, 0.013370350003242493, 0.01751089096069336, -0.01580405980348587, 0.009230006486177444, -0.02208194136619568, -0.0010979771614074707, 0.014244318008422852, -0.011680781841278076, 0.017908845096826553, 0.012119222432374954, -0.007094845175743103, -0.003492504358291626, 0.016952186822891235, 0.0038095638155937195, 0.005989164113998413, 0.01495669037103653, -0.007672041654586792, 0.011580407619476318, 0.026491031050682068, 0.01736593246459961, -0.015545770525932312, 0.012880228459835052, -0.014974579215049744, 0.008879318833351135, 0.01583084464073181, 0.004442691802978516, 0.013139843940734863, 0.015005305409431458, 0.0033742934465408325, 0.011975079774856567, 0.022831469774246216, 0.0011952891945838928, 0.012418001890182495, -0.0212653037160635, -0.003646180033683777, 0.0026892870664596558, -0.024938076734542847, -0.008739639073610306, 0.007569713518023491, 0.013008803129196167, -0.01563192903995514, 0.02156895399093628, 0.009206652641296387, 0.007749155163764954, 0.005166351795196533], [0.03515031933784485, -0.028870612382888794, -0.01715746521949768, 0.01941700279712677, 0.013341137208044529, 0.008321017026901245, 0.013962969183921814, -0.013027817010879517, 0.009879536926746368, 0.015172064304351807, 0.039439618587493896, -0.013035878539085388, 0.022128403186798096, -0.009982515126466751, 0.01656302809715271, 0.021320432424545288, 0.0059898048639297485, 0.003914274275302887, 0.007960885763168335, -0.033359020948410034, -0.01096014678478241, -0.016721367835998535, 0.03533848375082016, 0.008607879281044006, -0.020269472151994705, 0.00016042590141296387, 0.03128696605563164, -0.044640421867370605, 0.0364292711019516, 0.004828527569770813, -0.00039561837911605835, 0.01575314998626709, 0.009841769933700562, 0.0030245333909988403, -0.012030139565467834, -0.023585237562656403, 0.0009913966059684753, -0.040568381547927856, -0.02042344957590103, 0.02397734671831131, 0.004632469266653061, -0.029667817056179047, -0.0019712448120117188, 0.018585583195090294, 0.012848138809204102, 0.01379401981830597, -0.020007848739624023, 0.006128273904323578, -0.05763106793165207, -0.00730423629283905, 0.006675705313682556, 0.02372477948665619, 0.03529097139835358, -0.02005043625831604, -0.015006527304649353, 0.025815606117248535, 0.01577458530664444, 0.01971396803855896, 0.02255856990814209, 0.0039004236459732056, 0.020948857069015503, 0.022369280457496643, 0.0065750181674957275, -0.028905989602208138], [-0.011357516050338745, 0.0040496885776519775, -0.029059331864118576, 0.009524405002593994, -0.02357223629951477, -0.00878116488456726, 0.004969216883182526, 0.0013485252857208252, -0.00876396894454956, -0.0006232857704162598, -0.02988497167825699, -0.007765457034111023, -0.010871920734643936, 0.029991894960403442, 0.021120190620422363, 0.00170937180519104, 0.005913347005844116, 0.0030324310064315796, -0.01637515425682068, 0.017335377633571625, 0.0013338892022147775, 0.021144121885299683, -0.02768862247467041, 0.025622278451919556, 0.02559944987297058, -0.009289219975471497, -0.008657373487949371, 0.002677410840988159, -0.03295181691646576, 0.004888206720352173, -0.004011616110801697, -0.028701692819595337, -0.006953626871109009, -0.002773880958557129, 0.003226727247238159, 0.010406553745269775, -0.007484689354896545, -0.0032385438680648804, 0.0004332214593887329, -0.002528145909309387, -0.001217961311340332, 0.03207956254482269, -0.0199735127389431, -0.01868332549929619, -0.023282021284103394, -0.024543672800064087, 0.007760673761367798, -0.014911822974681854, 0.03188493847846985, -0.014211971312761307, -0.006033733487129211, -0.021934300661087036, 0.006219610571861267, 0.013344883918762207, 0.004067808389663696, 0.006522715091705322, 0.002788156270980835, -0.003008700907230377, -0.02151264250278473, 0.0001964569091796875, -0.032474368810653687, -0.025958556681871414, 0.003394395112991333, 0.01834133267402649], [0.02451688051223755, -0.004057411104440689, -0.006638884544372559, 0.021908611059188843, 0.02411589026451111, -0.0005213990807533264, 0.0065348222851753235, -0.01664842665195465, 0.0238959863781929, 0.019684873521327972, 0.017410367727279663, -0.0043860748410224915, 0.028747111558914185, -0.007880039513111115, 0.011404797434806824, 0.024690262973308563, -0.014096498489379883, 0.02824386954307556, 0.017653148621320724, -0.0051354169845581055, -0.0033106356859207153, -0.01192966103553772, 0.017161719501018524, -0.0032771825790405273, -0.0008422583341598511, -0.006338447332382202, 0.028684549033641815, -0.039413101971149445, 0.013309061527252197, 0.0031418725848197937, -0.012387603521347046, 0.002340570092201233, 0.034148409962654114, 0.007132440805435181, 6.586313247680664e-05, -0.010853879153728485, 0.001090455800294876, -0.018911704421043396, 0.01627218723297119, -0.013980701565742493, 0.016193464398384094, -0.01617596298456192, 0.01946071907877922, 0.01387756410986185, 0.016706392168998718, -0.0015835165977478027, 0.003977429121732712, 0.0007209181785583496, -0.029179446399211884, -0.0077124834060668945, -0.010740324854850769, 0.01340099424123764, 0.013384237885475159, -0.01803004741668701, -0.0020606517791748047, 0.02722269296646118, 0.022300273180007935, 0.016515374183654785, -0.0006887465715408325, 0.002307116985321045, 0.012560814619064331, 0.030088122934103012, 0.006420791149139404, 0.006069302558898926], [0.015088096261024475, 0.004063069820404053, 0.01299162209033966, 0.010172635316848755, 0.038253962993621826, -0.004575556144118309, -0.0038476288318634033, -0.04970550537109375, 0.038687050342559814, -0.003392338752746582, 0.023935452103614807, 0.01644212007522583, 0.031535252928733826, -0.022077858448028564, -0.01110774278640747, 0.013112574815750122, -0.07279689610004425, 0.06408235430717468, 0.010003574192523956, 0.010015245527029037, 0.020640090107917786, -0.003810461610555649, 0.0034493356943130493, -0.031238436698913574, 0.008434969931840897, -0.0017647184431552887, 0.011119460687041283, -0.023519590497016907, 0.01023276150226593, 0.003655422478914261, -0.020698726177215576, 0.019890248775482178, 0.05676037073135376, 0.034620970487594604, 0.036813944578170776, -0.030100762844085693, 0.02518944814801216, 0.004576891660690308, 0.04482358694076538, -0.03973230719566345, 0.04670830816030502, -0.010941051878035069, 0.027216441929340363, 0.0201529860496521, 0.009773612022399902, 0.01207733154296875, 0.04608772695064545, 0.01028938964009285, -0.008163213729858398, 0.019767940044403076, -0.02304743230342865, 0.0055108219385147095, -7.666647434234619e-06, -0.01400575041770935, -0.006028026342391968, 0.003655165433883667, 0.05409631133079529, 0.02807183563709259, 0.014759540557861328, -0.01831693947315216, 0.03643140196800232, 0.026335764676332474, 0.03267031908035278, 0.036106303334236145], [0.005290016531944275, 0.03254005312919617, 0.034032657742500305, 0.0013209432363510132, 0.03339990973472595, 0.0063110291957855225, -0.0054133981466293335, -0.023856699466705322, 0.018348664045333862, -5.660206079483032e-05, 0.0012374594807624817, 0.0065916478633880615, 0.013288557529449463, -0.028375715017318726, -0.02214929461479187, -9.930133819580078e-05, -0.04679758846759796, 0.056706130504608154, -0.002699121832847595, 0.020265191793441772, 0.007417023181915283, -0.0017582327127456665, -0.018552571535110474, -0.02671074867248535, 0.016983453184366226, -0.007078789174556732, -0.003132440149784088, 0.0014879480004310608, -0.021070806309580803, 0.004639357328414917, -0.01478802040219307, 0.014984413981437683, 0.062395550310611725, 0.03975962847471237, 0.03769181668758392, -0.004978582262992859, 0.02904270589351654, 0.02793598175048828, 0.05261819064617157, -0.05658488720655441, 0.023722201585769653, 0.0034394264221191406, 0.032788172364234924, -0.003978408873081207, 0.021005570888519287, 0.0121535062789917, 0.04974251985549927, 0.01464061439037323, 0.008310854434967041, 0.008659139275550842, -0.03525908291339874, -0.007445171475410461, -0.022482991218566895, 9.801238775253296e-05, 0.008147627115249634, -0.0007578730583190918, 0.035333141684532166, -0.0034603734966367483, 0.010019034147262573, -0.011714920401573181, 0.004746571183204651, 0.03331400454044342, 0.01778404414653778, 0.039315760135650635], [0.005517035722732544, 0.01365634799003601, 0.029253210872411728, 0.0013218671083450317, 0.03628820180892944, 0.0028487443923950195, 0.0010363087058067322, -0.05189751088619232, 0.027341045439243317, -0.024374932050704956, 0.003931552171707153, 0.014825105667114258, 0.006808385252952576, -0.02264392375946045, -0.022339483723044395, 0.0024290531873703003, -0.06521326303482056, 0.060755789279937744, -0.00861460343003273, 0.010263413190841675, 0.0185147225856781, 0.008405745029449463, -0.0235576331615448, -0.0355202853679657, 0.010515972971916199, -0.010180070996284485, -0.01008286327123642, -0.00044871121644973755, -0.008388863876461983, 0.01363392174243927, -0.02264118194580078, 0.019667446613311768, 0.050564244389534, 0.04059036076068878, 0.05120520293712616, -0.014945417642593384, 0.027636557817459106, 0.020896635949611664, 0.047059401869773865, -0.048567697405815125, 0.03820881247520447, 0.008663985878229141, 0.021579623222351074, 0.005111744627356529, 0.003998100757598877, 0.015865832567214966, 0.05174914374947548, 0.011376649141311646, 0.010287545621395111, 0.02210179716348648, -0.03439747542142868, -0.018244333565235138, -0.018188193440437317, -0.006580322980880737, -0.013953521847724915, -0.00825699232518673, 0.04991832375526428, 0.014425158500671387, 0.018403246998786926, -0.03386160731315613, 0.02576698362827301, 0.024109993129968643, 0.04120361804962158, 0.047813087701797485], [0.020766079425811768, -0.008375965058803558, -0.008396223187446594, 0.03081819787621498, 0.025236889719963074, -0.006719114258885384, 0.010883308947086334, -0.02975122630596161, 0.04228885471820831, 0.01601991057395935, 0.02489185333251953, -0.008781999349594116, 0.042650021612644196, -0.0059973448514938354, 0.014715831726789474, 0.02298828959465027, -0.027096644043922424, 0.05171971023082733, 0.01084606908261776, 0.0003863424062728882, 0.001784682273864746, -0.0010188594460487366, 0.008424216881394386, -0.002842426300048828, 0.00463634729385376, -0.012097373604774475, 0.03254377096891403, -0.053405582904815674, 0.0038773566484451294, 0.010318189859390259, -0.01357356458902359, 0.005505859851837158, 0.050699383020401, 0.020141661167144775, 0.011409386992454529, -0.02533940225839615, 0.010131759569048882, -0.021496117115020752, 0.018942177295684814, -0.018140241503715515, 0.025249570608139038, -0.005839794874191284, 0.019596755504608154, 0.010186754167079926, 0.01433783769607544, -0.0014617741107940674, 0.020546138286590576, 0.0020727217197418213, -0.02836555987596512, -0.015321135520935059, -0.020556628704071045, 0.006335321813821793, 0.02229294180870056, -0.020783185958862305, -0.0037722885608673096, 0.03457633778452873, 0.039597585797309875, 0.019446253776550293, -0.004844933748245239, -0.006493464112281799, 0.020185649394989014, 0.02416885271668434, 0.011865304782986641, 0.02253514528274536], [0.032143861055374146, -0.02001023478806019, -0.04781843721866608, 0.04922381043434143, -0.0021048784255981445, 0.0010650046169757843, 0.016059592366218567, -0.005167063325643539, 0.010934948921203613, 0.042582228779792786, 0.036485448479652405, -0.03365166485309601, 0.04611479490995407, 0.005866944789886475, 0.04910523444414139, 0.03641447797417641, 0.015058092772960663, 0.011172667145729065, 0.016859084367752075, -0.02276580035686493, -0.012607946991920471, -0.013177094981074333, 0.04288695752620697, 0.03623950481414795, -0.002233177423477173, -0.0036516785621643066, 0.057792358100414276, -0.07350823283195496, 0.02516399323940277, -0.0067033469676971436, -0.007695533335208893, -0.005547046661376953, 0.024833977222442627, -0.011182412505149841, -0.03208312392234802, -0.01886269450187683, -0.009533599019050598, -0.04986681044101715, -0.01689213141798973, 0.018415316939353943, -0.0031132251024246216, -0.023305535316467285, 0.0021417587995529175, 0.009955325163900852, 0.01506701111793518, -0.013613859191536903, -0.025224067270755768, -0.006130695343017578, -0.057413578033447266, -0.0239222664386034, 0.010987550020217896, 0.03733767569065094, 0.04501224309206009, -0.016053110361099243, 0.0036869198083877563, 0.05401775985956192, 0.022904887795448303, 0.019445717334747314, -0.005213052034378052, 0.023768700659275055, 0.006079725921154022, 0.007365383207798004, -0.007473021745681763, -0.015316903591156006], [-0.006799943745136261, 0.006942629814147949, -0.039434999227523804, 0.01953589916229248, -0.02587878704071045, -0.0018067210912704468, 0.010893262922763824, 0.008895382285118103, -0.008917510509490967, 0.012244105339050293, -0.033132582902908325, -0.020786233246326447, -0.0036625280044972897, 0.038507238030433655, 0.0312635712325573, 0.005300730466842651, 0.01372486911714077, 0.004411935806274414, -0.017691535875201225, 0.00920093059539795, -0.007195919752120972, 0.02729859948158264, -0.028349369764328003, 0.03880545496940613, 0.025629132986068726, -0.013522740453481674, 0.0017650723457336426, -0.009072449058294296, -0.037043459713459015, 0.0032428205013275146, -0.0026202574372291565, -0.03517615795135498, -0.003760598599910736, -0.006043478846549988, -0.011695623397827148, 0.012955725193023682, -0.015559449791908264, -0.01829645410180092, -0.00816192477941513, 0.006060361862182617, -0.011065512895584106, 0.03721651807427406, -0.0216533076018095, -0.026226729154586792, -0.017139114439487457, -0.028942525386810303, -0.004209309816360474, -0.012720540165901184, 0.020517438650131226, -0.023837849497795105, -0.00468774139881134, -0.022453337907791138, 0.015317283570766449, 0.013123080134391785, 0.007839798927307129, 0.020837344229221344, 0.007758438587188721, -0.008604273200035095, -0.025141865015029907, 0.013405203819274902, -0.04325972497463226, -0.02456243336200714, -0.003933936357498169, 0.014271721243858337], [-0.03251228109002113, 0.023248642683029175, -0.004639565944671631, 0.014953672885894775, -0.0064001381397247314, -0.02270515263080597, -0.005742333829402924, 0.0018915235996246338, 0.03752901405096054, 0.02995704859495163, -0.00857234001159668, -0.005218401551246643, 0.019451424479484558, 0.020426660776138306, 0.017623722553253174, -0.010493144392967224, -0.007336534559726715, 0.031027942895889282, 0.012474745512008667, 0.05960661172866821, -2.0712614059448242e-06, 0.019793421030044556, -0.037933483719825745, 0.003378361463546753, 0.041883811354637146, -0.012710176408290863, 7.294118404388428e-05, -0.01283218339085579, -0.06858013570308685, 0.016467571258544922, -0.0030025839805603027, -0.02352800965309143, 0.04296441376209259, 0.016292989253997803, 0.013168424367904663, 0.005200088024139404, 0.022190481424331665, 0.025539278984069824, 0.043237581849098206, -0.0592285692691803, 0.008829325437545776, 0.04274541139602661, 0.048898641020059586, -0.01966717839241028, 0.013165787793695927, -0.0413314625620842, 0.04781383275985718, -0.018563121557235718, 0.025611229240894318, -0.024484708905220032, -0.032124534249305725, -0.02239619940519333, -0.017198089510202408, 0.014234229922294617, 0.04591846466064453, 0.01477738656103611, -0.0014296174049377441, -0.022761628031730652, -0.0655609667301178, -0.004143022000789642, -0.033140309154987335, -0.0018024146556854248, -0.02058136835694313, 0.07949170470237732], [-0.0340823233127594, 