{"mlp_extractor.policy_net.0.weight": [[0.12096701562404633, -0.17282290756702423, 0.3312327563762665, -0.04863636568188667, 0.06384985893964767, -0.03403055667877197, -0.05919840931892395, 0.16544127464294434], [0.23648391664028168, -0.17308735847473145, 0.20194227993488312, 0.04434175044298172, 0.3420742154121399, 0.4231846034526825, -0.33205628395080566, -0.013907053507864475], [0.47103503346443176, -0.08060586452484131, 0.27679741382598877, 0.11508916318416595, 0.03958195447921753, -0.2966427206993103, 0.29941946268081665, -0.24495840072631836], [-0.035313211381435394, -0.20855478942394257, 0.1560361534357071, 0.20829808712005615, -0.07295624166727066, -0.13602398335933685, -0.06890909373760223, -0.2648746371269226], [-0.06831465661525726, 0.3204929828643799, -0.23745401203632355, 0.09967751801013947, -0.1853685975074768, 0.42092230916023254, -0.08536025881767273, 0.09129317849874496], [-0.02494761161506176, -0.27818650007247925, 0.06284961104393005, -0.1836053729057312, -0.06013772636651993, -0.11484310775995255, 0.14385032653808594, -0.15273307263851166], [0.006326150149106979, 0.3008958399295807, 0.0691077783703804, 0.05303245037794113, 0.003595715621486306, 0.21735666692256927, -0.02716248109936714, -0.20080521702766418], [-0.08624331653118134, 0.07360748201608658, -0.03275679796934128, 0.0670812577009201, -0.03852945193648338, -0.07456731796264648, 0.2760394811630249, 0.009314020164310932], [-0.09725239872932434, -0.26206913590431213, -0.33093374967575073, 0.2500545382499695, -0.12915948033332825, -0.11045410484075546, -0.3140829801559448, -0.07489734888076782], [-0.10253922641277313, -0.29399430751800537, -0.3218901455402374, 0.18885456025600433, 0.258590966463089, -0.18430694937705994, 0.1632687896490097, 0.1703025996685028], [-0.07516007870435715, 0.11832552403211594, 0.21408158540725708, 0.10138343274593353, -0.12288352102041245, 0.09918736666440964, 0.04657940939068794, 0.0018662024522200227], [-0.21127554774284363, -0.13047316670417786, 0.07459706813097, -0.18449997901916504, -0.06067516654729843, 0.12172477692365646, 0.33472248911857605, -0.3913824260234833], [-0.32453152537345886, -0.030567923560738564, -0.2644707262516022, 0.3255331218242645, -0.01583419367671013, 0.14240334928035736, 0.1363683044910431, 0.11308615654706955], [-0.09281115978956223, 0.14674225449562073, -0.332843154668808, 0.1376824826002121, -0.175724595785141, -0.46117931604385376, -0.015081495977938175, -0.11096800118684769], [-0.3460557460784912, -0.17556601762771606, 0.09770672768354416, -0.31498754024505615, -0.001495092292316258, -0.061365678906440735, -0.1492501050233841, 0.10914694517850876], [0.014768858440220356, 0.2835310399532318, -0.08064158260822296, -0.03813706338405609, 0.1643059253692627, -0.344325453042984, -0.12885481119155884, 0.14574187994003296], [0.2431449592113495, -0.2734472453594208, -0.11628030985593796, -0.13518354296684265, -0.15651531517505646, -0.07363034784793854, -0.02804495580494404, 0.21704284846782684], [-0.06179294362664223, -0.01837124489247799, 0.09107336401939392, 0.038717690855264664, -0.08541961759328842, -0.09583389014005661, 0.2572079598903656, 0.25122320652008057], [-0.24312596023082733, -0.03145969286561012, 0.22768084704875946, 0.19305938482284546, 0.11429181694984436, 0.021102814003825188, -0.17482052743434906, 0.13157640397548676], [-0.09511689841747284, -0.12629027664661407, 0.20227685570716858, -0.21584951877593994, 0.09985499829053879, 0.05901253968477249, 0.042642828077077866, 0.09630858898162842], [0.1028435230255127, 0.16256199777126312, 0.044540442526340485, 0.2322903424501419, -0.07631509751081467, -0.16672581434249878, 0.20587493479251862, 0.21377888321876526], [-0.24039189517498016, 0.02426953613758087, 0.07861713320016861, 0.21926745772361755, 0.13070465624332428, -0.280445396900177, -0.20004679262638092, -0.08650612086057663], [0.23455123603343964, 0.04411535710096359, -0.3890267014503479, -0.07761863619089127, 0.32927730679512024, -0.05827045813202858, 0.05024595931172371, -0.2026873081922531], [0.3022366166114807, -0.020834872499108315, -0.379860520362854, -0.06050444021821022, 0.0965627133846283, 0.16204629838466644, 0.06278740614652634, 0.14293569326400757], [0.226978600025177, 0.20441007614135742, -0.26543912291526794, -0.3081400394439697, 0.09538745880126953, -0.07709116488695145, -0.21153677999973297, -0.12252573668956757], [0.14347849786281586, -0.034011922776699066, 0.08414614945650101, -0.11142574995756149, -0.06227446347475052, 0.04839923605322838, -0.046559713780879974, -0.18493589758872986], [-0.027706380933523178, -0.06766453385353088, -0.21807743608951569, -0.3278195858001709, -0.3852304518222809, -0.06339571624994278, 0.030063610523939133, 0.26975029706954956], [-0.14715397357940674, 0.0936364158987999, 0.06886349618434906, 0.02668776549398899, 0.025326566770672798, 0.441648006439209, -0.08552779257297516, 0.12423692643642426], [0.04747988283634186, -0.004039796534925699, -0.04952475428581238, 0.3103468120098114, -0.07338140904903412, 0.1655208170413971, 0.30962932109832764, -0.14191286265850067], [0.10967539250850677, -0.055109843611717224, -0.052859965711832047, 0.0540635846555233, 0.2034294158220291, -0.20748497545719147, 0.0223368052393198, -0.20964375138282776], [-0.21843105554580688, 0.1313686966896057, -0.07308410108089447, -0.27614954113960266, -0.28008171916007996, -0.04092898964881897, 0.08461461216211319, -0.07659588754177094], [-0.13683049380779266, 0.25660595297813416, -0.0039519439451396465, -0.3063514530658722, 0.2673484683036804, -0.1341017484664917, -0.15798048675060272, -0.02016601525247097], [0.003980562556535006, 0.15812824666500092, -0.12995822727680206, 0.09552886337041855, 0.006327040493488312, 0.010971179232001305, -0.26055026054382324, -0.10426153242588043], [-0.037102796137332916, 0.4849451184272766, -0.02382029965519905, 0.17571960389614105, 0.15679806470870972, 0.03219785913825035, 0.05247630923986435, 0.0160700511187315], [0.12752676010131836, 0.2549460828304291, -0.10523644089698792, -0.1666400134563446, -0.14325235784053802, 0.01956184022128582, 0.12097133696079254, -0.03341202437877655], [0.3608630299568176, 0.1700032502412796, 0.043444134294986725, -0.08396649360656738, 0.14695949852466583, -0.009172620251774788, 0.07422131299972534, -0.515026867389679], [0.03720942512154579, -0.07880321890115738, -0.19651547074317932, -0.03212704136967659, 0.0723181962966919, 0.05962459370493889, 0.32653266191482544, -0.001489538699388504], [0.3125205338001251, 0.010439624078571796, 0.09447586536407471, -0.19763299822807312, -0.10201892256736755, 0.14698316156864166, -0.1405743658542633, 0.0976950004696846], [-0.05008230730891228, 0.3945814073085785, 0.3831837475299835, -0.034332145005464554, 0.1222064271569252, -0.17879025638103485, 0.04503597691655159, 0.09764209389686584], [0.15986816585063934, 0.16143712401390076, 0.009605382569134235, 0.027698945254087448, -0.46197783946990967, -0.16000452637672424, -0.1311919093132019, -0.09352459013462067], [-0.05348819121718407, -0.02803867869079113, 0.060563333332538605, -0.09988123178482056, 0.11972836405038834, 0.027515791356563568, 0.1163470596075058, 0.08035866171121597], [-0.16809672117233276, -0.2717278003692627, -0.22860673069953918, 0.10670023411512375, 0.16771593689918518, -0.11754953861236572, -0.10369044542312622, -0.015961412340402603], [-0.32501232624053955, -0.022097259759902954, 0.151614248752594, 0.06956558674573898, -0.07721447199583054, -0.2780064642429352, 0.0401841439306736, -0.4045444428920746], [0.16776874661445618, -0.24326759576797485, 0.040995147079229355, -0.04780566692352295, 0.04044026508927345, -0.2167157381772995, -0.35843685269355774, 0.33175721764564514], [0.10567712783813477, 0.10427223145961761, 0.015477131120860577, 0.15952132642269135, 0.18754470348358154, 0.1578722447156906, -0.18393459916114807, -0.03458540141582489], [0.02338922768831253, -0.1303529143333435, -0.0902903601527214, -0.12380124628543854, 0.18744324147701263, -0.19879576563835144, -0.1725326031446457, -0.05269644036889076], [-0.139398455619812, 0.34702083468437195, -0.05010807514190674, -0.3429298400878906, 0.0572274811565876, -0.17564281821250916, 0.07206039130687714, 0.3097333312034607], [0.2476298063993454, -0.054404426366090775, -0.15652485191822052, 0.06861217319965363, 0.007548180408775806, 0.04248195141553879, 0.13069961965084076, 0.14221109449863434], [-0.16491757333278656, 0.1248416006565094, 0.021481305360794067, -0.1350276619195938, 0.16151197254657745, -0.07843096554279327, -0.031773656606674194, -0.052819620817899704], [-0.17950913310050964, -0.18795786798000336, -0.10484015941619873, -0.09594802558422089, -0.022645598277449608, 0.1701143980026245, -0.17610614001750946, -0.14111845195293427], [0.1404818445444107, -0.08697446435689926, -0.23759356141090393, 0.09989959746599197, -0.42573311924934387, 0.17067721486091614, 0.08258378505706787, -0.18316972255706787], [-0.07682272791862488, -0.20242610573768616, 0.13357661664485931, -0.2594795525074005, -0.2419361174106598, 0.06963180750608444, -0.12100739032030106, -0.2606716454029083], [-0.0036568287760019302, -0.08608871698379517, -0.07240957021713257, -0.36366432905197144, -0.11855883151292801, -0.10509064793586731, 0.005707200616598129, -0.08877970278263092], [0.0031337798573076725, 0.018338076770305634, 0.21689772605895996, 0.20136576890945435, -0.036604464054107666, -0.07393524795770645, 0.11923148483037949, -0.03677519038319588], [-0.11479858309030533, 0.035170312970876694, -0.2278311550617218, 0.04780173301696777, 0.24490348994731903, 0.2469472736120224, -0.1391257494688034, -0.15373581647872925], [-0.12208370864391327, -0.0682571604847908, 0.16178645193576813, -0.1654207706451416, 0.04238511621952057, 0.1942448765039444, 0.020937003195285797, -0.19058360159397125], [0.16466201841831207, 0.05713270604610443, 0.054422084242105484, 0.10761881619691849, -0.4116058349609375, 0.048043545335531235, -0.4147072732448578, -0.05728088691830635], [-0.2759552597999573, 0.04961555451154709, -0.09463614970445633, 0.13885536789894104, -0.05817157402634621, 0.012327038682997227, 0.07279941439628601, -0.024778243154287338], [0.1148550733923912, 0.05333652347326279, 0.059873759746551514, 0.2681305408477783, -0.1047336608171463, -0.02449253760278225, -0.032069187611341476, 0.07672493159770966], [0.10937120765447617, 0.04638753831386566, 0.1893589198589325, -0.01281534880399704, -0.20808668434619904, 0.03807877004146576, 0.17649158835411072, 0.296047180891037], [0.1959661990404129, -0.01918778568506241, 0.02657483145594597, 0.1231510266661644, -0.12299670279026031, -0.1490209549665451, -0.05004669353365898, 0.12509256601333618], [-0.22803375124931335, 0.07353127747774124, -0.10060890763998032, -0.15274815261363983, -0.15992367267608643, 0.15525837242603302, 0.04655428230762482, -0.0648237094283104], [0.004636579193174839, 0.2634849548339844, -0.1374690681695938, -0.061498843133449554, -0.08132417500019073, -0.14516910910606384, -0.25778260827064514, -0.21947361528873444], [-0.06286904960870743, 0.06087437644600868, 0.15541468560695648, 0.24266663193702698, -0.2559414803981781, -0.12412242591381073, -0.416068971157074, -0.011680811643600464]], "mlp_extractor.policy_net.0.bias": [0.0, 0.0, 0.0, 0.0, 0.0, 0.0, 0.0, 0.0, 0.0, 0.0, 0.0, 0.0, 0.0, 0.0, 0.0, 0.0, 0.0, 0.0, 0.0, 0.0, 0.0, 0.0, 0.0, 0.0, 0.0, 0.0, 0.0, 0.0, 0.0, 0.0, 0.0, 0.0, 0.0, 0.0, 0.0, 0.0, 0.0, 0.0, 0.0, 0.0, 0.0, 0.0, 0.0, 0.0, 0.0, 0.0, 0.0, 0.0, 0.0, 0.0, 0.0, 0.0, 0.0, 0.0, 0.0, 0.0, 0.0, 0.0, 0.0, 0.0, 0.0, 0.0, 0.0, 0.0], "mlp_extractor.policy_net.2.weight": [[0.11595592647790909, 0.21215587854385376, -0.09197559952735901, -0.0208236426115036, 0.041579850018024445, -0.3124847710132599, 0.056861501187086105, 0.008082617074251175, -0.3740957975387573, -0.02188454568386078, 0.1560957133769989, 0.06429149955511093, -0.06245812028646469, 0.09940905123949051, 0.3611116111278534, 0.07021763175725937, 0.042802102863788605, -0.019661519676446915, -0.091037318110466, 0.018445633351802826, -0.07950613647699356, -0.1480846405029297, 0.04778102785348892, 0.24097256362438202, -0.022578028962016106, -0.10664399713277817, 0.1692930907011032, -0.06161734461784363, 0.12683607637882233, 0.25248175859451294, 0.09784961491823196, -0.16014015674591064, 0.06103750690817833, -0.03775467351078987, 0.02190331369638443, 0.22987867891788483, -0.2954902946949005, 0.0176536962389946, -0.16283324360847473, 0.28678208589553833, 0.052734553813934326, -0.10497292876243591, 0.27147677540779114, -0.5028044581413269, 0.027965884655714035, 0.17593742907047272, -0.11905019730329514, -0.07326684147119522, -0.2658756375312805, 0.017741376534104347, 0.40175166726112366, -0.12585869431495667, 0.16024905443191528, 0.03923024982213974, -0.05257023870944977, -0.07833275198936462, -0.22996369004249573, 0.022333303466439247, 0.1713128685951233, 0.031607579439878464, 0.11356313526630402, 0.38241899013519287, 0.263715535402298, 0.09930519014596939], [0.25337672233581543, 0.10476281493902206, 0.056735556572675705, 0.02509698085486889, 0.05491514503955841, -0.017336510121822357, -0.014130689203739166, -0.029719850048422813, 0.1406792849302292, -0.2607015371322632, -0.0658787339925766, 0.22607624530792236, 0.12855549156665802, 0.21735401451587677, -0.23231226205825806, -0.21985679864883423, 0.27130550146102905, -0.09587741643190384, 0.08433590829372406, -0.35586509108543396, -0.10215563327074051, -0.24717655777931213, -0.0828268826007843, 0.022647034376859665, 0.05349990352988243, 0.011707477271556854, 0.1172386184334755, 0.0006639485363848507, -0.11066899448633194, -0.04751673713326454, 0.41788384318351746, 0.13762150704860687, 0.13645616173744202, -0.09098900854587555, -0.3488282859325409, 0.018718654289841652, -0.006259170360863209, 0.14247965812683105, 0.08018242567777634, -0.11089150607585907, -0.07383482158184052, -0.22839441895484924, -0.15597271919250488, -0.13731788098812103, 0.1691226214170456, 0.029386546462774277, 0.21366415917873383, -0.058579206466674805, 0.4191001057624817, 0.09616872668266296, 0.2949737012386322, -0.2577510178089142, 0.17404574155807495, -0.06856629252433777, 0.13792869448661804, -0.05590728297829628, -0.09123352915048599, 0.42876267433166504, 0.13030707836151123, -0.08194123953580856, 0.08365105837583542, -0.06741083413362503, -0.225683331489563, -0.21415963768959045], [-0.13255561888217926, -0.07339907437562943, -0.4289979338645935, 0.03960466384887695, -0.16526873409748077, 0.20065410435199738, 0.3051610589027405, -0.052303411066532135, -0.29822275042533875, -0.08820468187332153, 0.031047658994793892, 0.03173363208770752, 0.06751129031181335, 0.014071126468479633, 0.199690043926239, -0.1654321700334549, -0.19293290376663208, 0.15718595683574677, 0.06025778502225876, -0.3560944199562073, -0.009598695673048496, -0.16867317259311676, 0.12665501236915588, 0.1608365923166275, -0.21697983145713806, -0.01616119034588337, -0.08269620686769485, 0.10758903622627258, 0.08862066268920898, 0.002165860729292035, 0.0993223637342453, 0.08610492199659348, 0.22470341622829437, 0.04119681939482689, -0.13029193878173828, -0.2359447479248047, 0.025685017928481102, -0.12566368281841278, 0.011404396966099739, 0.23406344652175903, -0.08122135698795319, 0.2608299255371094, 0.045792628079652786, -0.14538070559501648, 0.2283797264099121, -0.30749255418777466, -0.15780116617679596, 0.20569491386413574, 0.191812664270401, -0.2711591124534607, 0.045640744268894196, 0.18738281726837158, -0.058144789189100266, -0.0840737372636795, -0.11877118796110153, 0.34296536445617676, -0.1825711876153946, -0.04430875554680824, -0.3478248417377472, -0.27109578251838684, -0.04364728927612305, -0.0037976179737597704, -0.2688283920288086, 0.044305913150310516], [0.060635704547166824, -0.09692387282848358, -0.45215559005737305, -0.11628855019807816, -0.06925420463085175, -0.19464166462421417, 0.05133290961384773, -0.06499013304710388, -0.022431669756770134, 0.13569359481334686, -0.3168773055076599, 0.034397635608911514, -0.24595732986927032, 0.1835310161113739, -0.20263780653476715, -0.08862318843603134, 0.3127001225948334, 0.11244580149650574, 0.20739468932151794, 0.09527763724327087, -0.02078833431005478, -0.18711373209953308, 0.01814897172152996, 0.011530399322509766, 0.01831742376089096, 0.2915502190589905, -0.13469238579273224, 0.13774807751178741, 0.28031909465789795, -0.1542247086763382, 0.1413901150226593, -0.013894693925976753, 0.14305125176906586, -0.20055519044399261, 0.2394435554742813, 0.0375610776245594, -0.10616357624530792, 0.14147500693798065, 0.1568775177001953, -0.02506585232913494, -0.03078927844762802, -0.06112721562385559, 0.016744177788496017, -0.04127727821469307, -0.3756592273712158, 0.36457622051239014, 0.05184757709503174, 0.06258124858140945, 0.39599257707595825, -0.18222670257091522, -0.21992401778697968, 0.19477832317352295, -0.11034632474184036, 0.27673405408859253, 0.12219258397817612, -0.08409446477890015, 0.01923369988799095, -0.11694085597991943, -0.009707764722406864, -0.0742138996720314, -0.031020067632198334, 0.24979636073112488, 0.14752309024333954, 0.23932191729545593], [0.23026876151561737, -0.18365931510925293, 0.041486192494630814, -0.21639597415924072, 0.1318717747926712, 0.13652366399765015, 0.20882178843021393, 0.18197284638881683, 0.019954271614551544, 0.21489016711711884, 0.13756543397903442, 0.22117896378040314, -0.007866859436035156, 0.0912514477968216, 0.15136216580867767, -0.2552000880241394, 0.06778957694768906, 0.09264250844717026, -0.45771291851997375, 0.14151246845722198, -0.18345098197460175, 0.2881651520729065, 0.28995928168296814, 0.2946174740791321, 0.21972538530826569, 0.13956427574157715, -0.1567513793706894, -0.20745603740215302, -0.2050425410270691, -0.014958582818508148, 0.38889655470848083, 0.08129740506410599, 0.0550646036863327, 0.010684635490179062, 0.052718859165906906, 0.13077864050865173, 0.20661567151546478, -0.21162773668766022, 0.051060158759355545, 0.13561977446079254, -0.07518037408590317, -0.32655248045921326, -0.21510463953018188, 0.21380381286144257, 0.19871002435684204, 0.1869421899318695, -0.045772165060043335, -0.024613000452518463, -0.03129266947507858, -0.29097434878349304, -0.10297463089227676, -0.06500037014484406, -0.2084842473268509, -0.01777057908475399, -0.113700270652771, 0.2313101887702942, 0.07118086516857147, 0.001710906159132719, -0.0017703624907881021, 0.12703192234039307, 0.00467032240703702, 0.13791105151176453, 0.10688810795545578, -0.00841634999960661], [-0.04869120940566063, -0.3417554199695587, -0.016928859055042267, 0.08491691201925278, 0.20110873878002167, 0.038840170949697495, 0.3070184290409088, -0.1376340687274933, 0.17959794402122498, 0.01847836934030056, -0.1399076282978058, -0.2548253536224365, 0.2789395749568939, -0.1701570302248001, -0.12384676188230515, 0.32002949714660645, 0.027097051963210106, 0.407023161649704, -0.23795361816883087, 0.08371592313051224, -0.36816054582595825, 0.020530741661787033, -0.14151661098003387, -0.12485181540250778, -0.1279493123292923, -0.11973698437213898, 0.06860998272895813, -0.24726174771785736, 0.12553061544895172, 0.16684819757938385, 0.21216881275177002, 0.015444908291101456, 0.17888683080673218, -0.1495412439107895, 0.0042901188135147095, 0.17739003896713257, -0.26315245032310486, -0.14526385068893433, 0.06884186714887619, -0.028832241892814636, 0.03475065901875496, -0.04697602987289429, 0.10256332159042358, -0.07487103343009949, 0.08852729201316833, -0.20053759217262268, 0.025875022634863853, 0.050121426582336426, 0.10643433779478073, -0.02115054428577423, -0.12760525941848755, -0.3484404981136322, 0.25277411937713623, 0.19182497262954712, 0.03462369740009308, -0.2740142047405243, -0.048324912786483765, -0.028472792357206345, -0.3091773986816406, 0.05486435815691948, -0.28976768255233765, -0.09144683927297592, 0.10321022570133209, 0.07632236927747726], [-0.052772361785173416, -0.0018865307793021202, 0.09907566010951996, 0.024528786540031433, -0.015618321485817432, -0.1672588735818863, 0.11487576365470886, -0.29299846291542053, -0.1571117490530014, 0.015822475776076317, -0.06633248180150986, -0.19966018199920654, -0.25589102506637573, 0.04071784391999245, 0.03529610484838486, 0.1135173812508583, 0.027871007099747658, 0.07420664280653, 0.03591277077794075, -0.04995632544159889, 0.3318380117416382, 0.1946186125278473, -0.13017399609088898, 0.13184653222560883, 0.0644260048866272, -0.4429132044315338, 0.07788485288619995, -0.20310361683368683, -0.1077796146273613, 0.08976776897907257, 0.0866737961769104, 0.3552280068397522, -0.11947657912969589, -0.13418345153331757, 0.022043243050575256, 0.16076409816741943, 0.14149712026119232, 0.1671992391347885, 0.2165299952030182, -0.10999102890491486, -0.214758962392807, 0.03571052476763725, 0.2980669438838959, 0.26625892519950867, -0.25482094287872314, 0.06351667642593384, -0.0810888484120369, 0.10835561901330948, 0.2174048274755478, -0.043612249195575714, -0.08651799708604813, -0.3106372356414795, -0.2543216943740845, -0.3178516626358032, -0.18705669045448303, 0.05544772744178772, -0.3185034692287445, -0.050746768712997437, -0.002805985976010561, -0.08117414265871048, -0.047155559062957764, 0.29508745670318604, -0.09774983674287796, -0.29878631234169006], [0.11135584115982056, 0.04897134378552437, -0.2422693520784378, 0.051951248198747635, 0.39891284704208374, 0.11738904565572739, 0.035511452704668045, -0.16703598201274872, -0.07771137356758118, -0.15673433244228363, -0.16815170645713806, 2.915310687967576e-05, 0.10993385314941406, -0.11065785586833954, 0.14565439522266388, -0.05898081883788109, 0.022965092211961746, -0.049770500510931015, -0.1557498574256897, 0.3248274624347687, 0.21166545152664185, -0.00550901610404253, 0.15291713178157806, -0.23059213161468506, 0.019947124645113945, -0.149068221449852, 0.18605099618434906, -0.07317923754453659, -0.16818195581436157, -0.1224619448184967, 0.314893513917923, -0.12939736247062683, 0.03534387797117233, -0.21712981164455414, -0.09505414217710495, 0.051466260105371475, -0.005700708832591772, 0.10518660396337509, 0.30787670612335205, 0.07220683991909027, 0.2551272511482239, 0.13040314614772797, 0.16575080156326294, 0.2087668478488922, 0.06160945072770119, 0.027589688077569008, 0.09055282920598984, 0.33697378635406494, -0.2959338426589966, 0.03383718058466911, 0.2416348159313202, 0.2645302712917328, -0.13322506844997406, -0.12957273423671722, 0.34973466396331787, -0.14204353094100952, 0.2780453562736511, -0.037429604679346085, 0.15435554087162018, -0.3721379041671753, -0.03267880529165268, 0.010398101061582565, -0.1831066906452179, 0.13196544349193573], [0.23307858407497406, -0.12041785567998886, 0.04152258485555649, -0.04040566459298134, -0.4011971056461334, -0.1337897777557373, 0.19772934913635254, 0.06074771657586098, -0.10328362882137299, 0.12087667733430862, -0.27232059836387634, -0.10304771363735199, 0.1995978057384491, 0.07783133536577225, 0.3206127882003784, -0.055556152015924454, 0.1474878191947937, -0.16149944067001343, -0.1456608921289444, -0.21537475287914276, -0.06243090331554413, 0.15015171468257904, 0.010833082720637321, 0.06545854359865189, 0.31714752316474915, 0.04855550825595856, 0.16637684404850006, 0.22161108255386353, -0.10349706560373306, 0.08346480131149292, -0.12045636773109436, 0.15545892715454102, 0.07979462295770645, 0.22181685268878937, -0.06459090113639832, 0.07485257089138031, 0.1488448977470398, -0.12835629284381866, -0.29801836609840393, -0.0068925111554563046, 0.20837466418743134, 0.23608393967151642, 0.38312533497810364, 0.20559832453727722, 0.018837332725524902, 0.19194097816944122, 0.4032246768474579, 0.05547051876783371, 0.10080314427614212, 0.1906863898038864, -0.11336629837751389, 0.01736529916524887, 0.21806815266609192, -0.05975727736949921, 0.07852357625961304, -0.21458081901073456, 0.166935995221138, -0.024372341111302376, -0.14016631245613098, 0.10538671910762787, -0.09567984193563461, 0.12389262765645981, -0.28591856360435486, 0.2226557433605194], [-0.2096777707338333, 0.24639476835727692, 0.10091552883386612, 0.2735172212123871, 0.153886079788208, -0.10311298072338104, 0.5058707594871521, 0.0695926621556282, -0.058432891964912415, -0.1791142225265503, -0.040318313986063004, 0.17605248093605042, -0.01394901517778635, 0.18725250661373138, 0.22148284316062927, 0.23998895287513733, -0.36508020758628845, -0.143687441945076, -0.1547173708677292, -0.158900186419487, -0.12384144216775894, 0.08723606169223785, -0.09477272629737854, 0.04745380952954292, 0.01986938901245594, -0.03111179731786251, -0.1839776486158371, 0.37714681029319763, -0.007670552469789982, -0.003883115481585264, -0.09774210304021835, 0.11085369437932968, -0.1312408447265625, -0.1072007268667221, 0.3085184097290039, -0.04721837863326073, 0.056231118738651276, 0.24372433125972748, -0.001877502421848476, -0.08233443647623062, -0.12727060914039612, -0.28253844380378723, -0.14363670349121094, -0.04884742200374603, -0.10030309110879898, -0.08786533027887344, 0.11672801524400711, 0.117376908659935, 0.114372618496418, 0.02377432771027088, 0.15102484822273254, -0.18700577318668365, -0.28899091482162476, 0.047002796083688736, 0.36305779218673706, -0.028949229046702385, 0.375752717256546, 0.07765058428049088, -0.20726969838142395, 0.028411058709025383, -0.012346667237579823, 0.026859207078814507, 0.12700119614601135, 0.10529699921607971], [-0.06532066315412521, 0.2148750126361847, 0.1068195328116417, -0.14327436685562134, -0.27611783146858215, -0.08309530466794968, 0.1411355882883072, 0.1374611109495163, -0.21891626715660095, 0.22512651979923248, -0.04265090823173523, 0.07289876788854599, -0.2576412260532379, -0.3576084077358246, -0.2305608093738556, -0.035342056304216385, -0.14285743236541748, -0.09302698820829391, -0.1878240406513214, 0.17320334911346436, -0.3377719521522522, 0.0908130332827568, 0.13413555920124054, -0.05123669654130936, -0.04239322990179062, -0.005517399869859219, 0.018982000648975372, 0.176606684923172, -0.357597291469574, -0.309622198343277, 0.025942446663975716, -0.3070613741874695, 0.43078601360321045, 0.0062748524360358715, -0.17967239022254944, 0.09043829143047333, -0.3434050679206848, 0.3329453766345978, 0.03173305094242096, -0.2924974262714386, 0.00892161950469017, -0.013401499018073082, 0.0354195274412632, 0.022273626178503036, 0.026028772816061974, -0.15863800048828125, -0.11655257642269135, 0.1929946094751358, 0.12610207498073578, 0.20827031135559082, -0.09355901926755905, 0.09561122953891754, 0.07729234546422958, -0.25577959418296814, 0.00799447763711214, 0.054919518530368805, -0.10634471476078033, 0.02435852587223053, -0.07346837967634201, 0.0779695212841034, -0.059789590537548065, 0.1687595695257187, 0.07166403532028198, -0.1398436725139618], [0.012273595668375492, 0.07782292366027832, 0.06928850710391998, 0.010685810819268227, -0.05819769576191902, 0.017048653215169907, -0.12102574855089188, -0.3475964069366455, 0.45324739813804626, 0.15108154714107513, 0.03219088912010193, 0.11408016085624695, -0.08850742131471634, 0.015916910022497177, 0.3786172866821289, -0.17288713157176971, -0.12590065598487854, -0.0036720111966133118, 0.06453271955251694, -0.10511130839586258, -0.11473269760608673, -0.20969457924365997, 0.0597224161028862, -0.13500839471817017, 0.11128024011850357, -0.1397390365600586, 0.03091300278902054, -0.08291800320148468, 0.17075619101524353, -0.21815042197704315, 0.11586035788059235, -0.11986222118139267, 0.19269908964633942, 0.17048482596874237, 0.36890363693237305, -0.1957874745130539, -0.0624166801571846, -0.3475911021232605, 0.22434160113334656, -0.07649902254343033, -0.14999273419380188, -0.1584598422050476, 0.2010791301727295, -0.2279856652021408, -0.05451624095439911, -0.08153144270181656, -0.024098264053463936, 0.3170228898525238, -0.06487645208835602, -0.05171759054064751, -0.2070242464542389, -0.01947244256734848, -0.02521061711013317, -0.3592783212661743, 0.14748911559581757, -0.21141421794891357, -0.046808525919914246, 0.0619710274040699, 0.02433186024427414, 0.37796223163604736, 0.29321959614753723, 0.003657969646155834, -0.1334192007780075, -0.0031095403246581554], [0.1007295772433281, -0.08351075649261475, 0.13987529277801514, 0.04175795614719391, -0.11758529394865036, -0.062014807015657425, -0.044148560613393784, 0.15633080899715424, -0.07311618328094482, -0.14743688702583313, -0.10981632769107819, -0.011883354745805264, -0.07145734876394272, -0.015347900800406933, -0.30093514919281006, -0.1560126543045044, -0.09496152400970459, -0.09745081514120102, -0.12334983050823212, 0.10648587346076965, -0.16910573840141296, -0.021762050688266754, 0.3265281915664673, -0.3678964674472809, 0.05503426492214203, 0.06297020614147186, -0.01723938249051571, -0.1532985121011734, 0.3745061457157135, 0.12636086344718933, 0.1462515890598297, 0.17945276200771332, -0.14739082753658295, 0.07779158651828766, -0.17728358507156372, -0.07079046964645386, 0.24034185707569122, -0.1422995924949646, 0.07185612618923187, 0.029313815757632256, -0.3225991725921631, 0.02813630923628807, 0.29324668645858765, 0.026961248368024826, -0.38040295243263245, -0.40243035554885864, 0.0289065632969141, 0.013711636886000633, 0.09677089750766754, 0.03815750032663345, 0.4230126440525055, 0.029541486874222755, 0.17939333617687225, -0.19246748089790344, 0.032107651233673096, 0.2642150819301605, 0.21552512049674988, -0.16249336302280426, 0.016391465440392494, 0.14491170644760132, -0.005861617624759674, 0.15876734256744385, 0.2552989423274994, 0.1962449997663498], [-0.08714688569307327, -0.031717948615550995, 0.3149462938308716, -0.2937873601913452, 0.08460284024477005, 0.4651587903499603, -0.03854658082127571, 0.10084246844053268, 0.1709844022989273, -0.07501371204853058, -0.4727737009525299, -0.16384907066822052, -0.17223481833934784, 0.11663184314966202, 0.1280367225408554, 0.008518937043845654, -0.07632149755954742, 0.15162107348442078, 0.11401677131652832, 0.15587416291236877, 0.1037180945277214, -0.08928456902503967, 0.2642766833305359, -0.1249946728348732, -0.22182364761829376, -0.01144852302968502, -0.1460445374250412, 0.07408752292394638, -0.09718827158212662, 0.1903872936964035, -0.11256120353937149, 0.40890952944755554, 0.13869844377040863, -0.07460899651050568, 0.34771856665611267, 0.09835564345121384, -0.16635598242282867, 0.0653105303645134, -0.14557677507400513, -0.13930951058864594, 0.1992204338312149, 0.0820910781621933, -0.17900265753269196, -0.1802021712064743, 0.2551233768463135, 0.22841843962669373, 0.051589399576187134, 0.03078407421708107, 0.10530054569244385, 0.038083117455244064, 0.2590165138244629, -0.03458506613969803, 0.19829969108104706, -0.2417495995759964, 0.04559249430894852, 0.21956855058670044, -0.09477918595075607, -0.10156933963298798, 0.05419072136282921, 0.01953289657831192, 0.046828459948301315, 0.1800719052553177, -0.015245222486555576, 0.08738280832767487], [-0.14863140881061554, -0.16626571118831635, 0.08210553973913193, 0.2785807251930237, -0.05122784897685051, 0.05811614170670509, -0.027551906183362007, -0.21281762421131134, 0.047789573669433594, 0.22941245138645172, -0.026742037385702133, 0.0988319143652916, -0.23560482263565063, 0.11596483737230301, 0.26893317699432373, 0.11373402923345566, 0.3998008966445923, -0.22392019629478455, -0.12049151211977005, -0.0486324317753315, -0.042178984731435776, -0.18818393349647522, -0.11922386288642883, -0.15422654151916504, -0.13015516102313995, -0.22125694155693054, 0.005010283086448908, 0.04783562198281288, -0.21721966564655304, -0.08184681832790375, 0.3194029927253723, 0.10752350836992264, 0.04853731021285057, 0.05165291205048561, -0.06816024333238602, 0.16829156875610352, -0.09546607732772827, 0.25559383630752563, -0.22080452740192413, 0.1675611436367035, 0.120523601770401, 0.11694637686014175, -0.07771135866641998, -0.06427847594022751, -0.04931771382689476, -0.3859058618545532, 0.016197487711906433, -0.47011294960975647, 0.07896959781646729, -0.2350400984287262, -0.236245259642601, 0.039163894951343536, 0.03533684089779854, -0.16786329448223114, -0.03369712457060814, 0.12976288795471191, 0.3052515387535095, -0.27130362391471863, 0.1443038135766983, -0.06008236110210419, 0.1979334056377411, -0.11905869841575623, 0.1583823263645172, 0.14274586737155914], [-0.02471134252846241, 0.010642722249031067, -0.23878811299800873, -0.022116955369710922, -0.05672427639365196, 0.12000042200088501, 0.05653310939669609, 0.011907916516065598, 0.26449182629585266, -0.5024962425231934, 0.08996856957674026, 0.06046711280941963, 0.10656887292861938, 0.005111354868859053, 0.32092270255088806, -0.25017377734184265, -0.06546904146671295, -0.025873515754938126, 0.06899087876081467, 0.1831715852022171, 0.016866084188222885, 0.00932724867016077, -0.05014869198203087, -0.02946874499320984, -0.20391808450222015, 0.21309953927993774, -0.10740108788013458, -0.14103581011295319, -0.34565412998199463, -0.11575306951999664, -0.10131238400936127, -0.11751262843608856, 0.013746198266744614, -0.13443729281425476, 0.18030135333538055, -0.0879911333322525, -0.1602901667356491, -0.019786950200796127, -0.20217600464820862, 0.1929713636636734, -0.19588904082775116, 0.021043451502919197, 0.06239945814013481, 0.31439340114593506, -0.22446878254413605, -0.24183766543865204, 0.4185252785682678, -0.21822784841060638, 0.08250299096107483, 0.013288291171193123, -0.020539261400699615, 0.045885562896728516, 0.13032419979572296, -0.10412172973155975, -0.1873864233493805, -0.240420863032341, -0.15568901598453522, 0.10684770345687866, -0.010282604023814201, -0.06608346849679947, -0.156575545668602, 0.331772118806839, 0.3112718462944031, -0.22241619229316711], [0.0008564944146201015, -0.09465847164392471, 0.21463704109191895, 0.28476330637931824, 0.1319073736667633, 0.015262571163475513, -0.0157275702804327, 0.002394189825281501, -0.05518411099910736, -0.1895957887172699, -0.12265924364328384, -0.0855131447315216, 0.06282202154397964, 0.45078831911087036, -0.2452552318572998, -0.12518346309661865, -0.30055731534957886, -0.1251182109117508, -0.15670810639858246, -0.00912787951529026, 0.27945706248283386, 0.0836019515991211, -0.152447909116745, 0.12096589058637619, 0.3540429174900055, 0.059613682329654694, -0.05102244019508362, 0.15162569284439087, 0.046942852437496185, 0.2559904456138611, 0.19757862389087677, -0.07190530747175217, 0.18540805578231812, 0.27520084381103516, -0.0442034974694252, 0.08974738419055939, -0.24233409762382507, -0.028903912752866745, 0.25485360622406006, 0.0728762224316597, -0.06512600183486938, 0.24611836671829224, -0.24207785725593567, -0.25042879581451416, 0.006470067892223597, 0.0001423562498530373, -0.022327546030282974, -0.006007601041346788, -0.05087530240416527, -0.05005043372511864, -0.28608110547065735, 0.37290629744529724, 0.06890673190355301, -0.2761223614215851, -0.09155991673469543, -0.19933252036571503, -0.057396866381168365, 0.0019427563529461622, 0.05796852335333824, 0.049953583627939224, -0.36142653226852417, 0.08949558436870575, 0.19882668554782867, -0.050629131495952606], [0.12810352444648743, 0.1762503683567047, -0.037327997386455536, 0.2837086319923401, 0.035503312945365906, 0.09389495104551315, 0.40520378947257996, -0.03600803390145302, -0.09679511189460754, -0.30134886503219604, 0.05430077761411667, 0.04577689617872238, -0.11356309056282043, -0.35756319761276245, 0.04657045379281044, -0.3244454264640808, 0.09981399029493332, 0.0024344020057469606, 0.15324389934539795, -0.1579776406288147, -0.1986464560031891, 0.08402134478092194, -0.019330080598592758, -0.01206367090344429, 0.1102927178144455, -0.006892147473990917, 0.20589256286621094, -0.32934242486953735, 0.39950332045555115, 0.009335484355688095, -0.18546488881111145, -0.0525248721241951, -0.022647134959697723, 0.13375982642173767, 0.08307722955942154, -0.0010583692928776145, -0.0022905548103153706, 0.08826354891061783, 0.04112931713461876, -0.04482189938426018, 0.5738708972930908, 0.06906872242689133, -0.31136584281921387, 0.16735439002513885, -0.10710316896438599, 0.2121737003326416, -0.04839099198579788, -0.10051999986171722, 0.08859620243310928, -0.05727014318108559, -0.11646164208650589, -0.12545360624790192, 0.03469333425164223, -0.3638486862182617, 0.0803271159529686, 0.12374131381511688, -0.12517057359218597, -0.09087251126766205, 0.09910263121128082, 0.053359754383563995, -0.05202271789312363, -0.144719660282135, 0.2203451544046402, 0.08325997740030289], [-0.15465834736824036, -0.04681885614991188, -0.05285291746258736, 0.03931647539138794, -0.13582086563110352, -0.09694167226552963, 0.10242512077093124, -0.2217067927122116, 0.10746646672487259, -0.05090143159031868, -0.06647371500730515, -0.10916391760110855, 0.07667812705039978, -0.0759919285774231, -0.10203085094690323, -0.24458450078964233, -0.1853310763835907, -0.5734747648239136, 0.27434852719306946, 0.2605069577693939, 0.13476315140724182, 0.2893543243408203, -0.0064959172159433365, 0.033462610095739365, -0.04423876479268074, -0.02768276073038578, -0.08791448920965195, -0.13455462455749512, -0.05148463323712349, 0.30804377794265747, 0.18093803524971008, -0.4288678765296936, 0.2367578148841858, -0.11012689769268036, 0.06441034376621246, -0.03418693691492081, 0.2526777684688568, -0.046161483973264694, -0.25588008761405945, -0.1157507672905922, 0.024080947041511536, -0.041479744017124176, -0.12167932093143463, -0.1713937371969223, 0.11359801888465881, -0.05884772166609764, -0.10471677035093307, 0.027399513870477676, 0.16777855157852173, -0.2003636658191681, 0.06760729849338531, -0.35434406995773315, 0.044726718217134476, 0.2224346250295639, 0.050870101898908615, -0.005388600751757622, 0.0745340958237648, -0.3231392204761505, 0.1732538938522339, 0.05684797465801239, -0.07821540534496307, 0.15347792208194733, -0.30938318371772766, 0.05900724232196808], [-0.21498487889766693, -0.18308140337467194, 0.251021146774292, 0.054931242018938065, 0.263054758310318, -0.18753111362457275, 0.10526423901319504, 0.11444006860256195, -0.0022032528650015593, 0.22562925517559052, -0.16667811572551727, 0.29030516743659973, -0.21924088895320892, -0.10664946585893631, 0.0859365463256836, 0.047525279223918915, -0.12912331521511078, -0.2322426587343216, 0.12450771778821945, 0.019736599177122116, 0.1862497180700302, 0.06274155527353287, 0.11978530138731003, -0.13322582840919495, -0.04164622351527214, 0.04060165956616402, -0.07613494992256165, -0.13440610468387604, 0.23972046375274658, -0.13554668426513672, 0.1344122588634491, 0.26548463106155396, 0.39076805114746094, -0.04038967564702034, -0.2861289083957672, -0.25342971086502075, 0.1644655019044876, -0.06657115370035172, -0.2900482416152954, -0.07854367047548294, 0.20995435118675232, 0.05685296654701233, 0.08709423989057541, 0.03893229365348816, 0.004528014920651913, -0.019448431208729744, 0.21548514068126678, -0.07096263766288757, -0.15855920314788818, -0.12464217841625214, 0.10204581171274185, 0.10605309158563614, -0.27022233605384827, 0.16273930668830872, -0.014844130724668503, -0.3134019672870636, -0.448957234621048, 0.27789828181266785, -0.12448464334011078, -0.017382098361849785, -0.039981693029403687, -0.08421175926923752, 0.22439172863960266, 0.019424982368946075], [0.11494529992341995, -0.08035008609294891, -0.27558305859565735, 0.34120088815689087, 0.343118280172348, 0.07033009827136993, -0.22109034657478333, -0.07530787587165833, -0.13673588633537292, 0.03696342185139656, -0.12146549671888351, -0.10337912291288376, 0.1451389640569687, -0.04824697598814964, -0.055490899831056595, -0.13060712814331055, -0.15876010060310364, -0.032835908234119415, -0.09415187686681747, 0.10124606639146805, -0.09289154410362244, -0.034036751836538315, 0.006220126524567604, -0.10463821142911911, -0.08082007616758347, -0.19641362130641937, -0.012180378660559654, 0.20280945301055908, 0.052823688834905624, 0.1054682731628418, -0.2471524178981781, -0.10792569816112518, 0.10836554318666458, -0.08501763641834259, -0.1802099049091339, 0.11449062824249268, 0.40375515818595886, -0.01728019118309021, 0.03609355539083481, -0.19463489949703217, -0.07567756623029709, -0.3295080363750458, -0.02867971733212471, -0.09490183740854263, 0.2059480845928192, 0.09390271455049515, 0.263916939496994, -0.23734666407108307, 0.022690029814839363, 0.2437450885772705, -0.33079585433006287, 0.0491018109023571, 0.04198969528079033, -0.16033294796943665, -0.10189899057149887, 0.09858938306570053, -0.1862947642803192, -0.051561594009399414, -0.2831179201602936, -0.09676167368888855, 0.4869329333305359, 0.31227466464042664, 0.12683747708797455, 0.13100206851959229], [0.06588103622198105, -0.013931462541222572, 0.06039581075310707, -0.27767765522003174, 0.12468574941158295, -0.20770061016082764, 0.12457594275474548, -0.09236548095941544, 0.04436202347278595, 0.04693734273314476, 0.02535867877304554, 0.028998030349612236, -0.2783152163028717, -0.24298126995563507, -0.10473765432834625, -0.18612363934516907, -0.0685298964381218, -0.22241458296775818, 0.2461743801832199, 0.08954950422048569, 0.010703186504542828, -0.042880259454250336, -0.28385838866233826, -0.24589169025421143, -0.04413728415966034, 0.17831319570541382, 0.35258957743644714, 0.376796692609787, -0.06193527579307556, 0.2797779440879822, 0.03494512289762497, 0.24672460556030273, -0.025337260216474533, 0.24373991787433624, 0.023851053789258003, 0.16811881959438324, -0.28123754262924194, -0.24506790935993195, 0.2360803633928299, 0.33900773525238037, 0.05019198730587959, -0.2825053036212921, -0.08939102292060852, 0.11233703047037125, -0.024453137069940567, -0.11532916128635406, 0.2407633662223816, -0.0354517437517643, -0.2781345546245575, -0.11650150269269943, -0.0848173201084137, -0.09224516153335571, 0.02174239233136177, 0.1066385880112648, 0.08599547296762466, 0.2854388654232025, -0.026402128860354424, -0.037556249648332596, -0.3016834557056427, -0.10957245528697968, -0.0032554699573665857, 0.08095380663871765, -0.14309701323509216, -0.14111435413360596], [-0.0924961045384407, -0.22305236756801605, 0.07428018748760223, 0.2586497664451599, -0.025627579540014267, 0.2937704026699066, 0.18078652024269104, -0.19279949367046356, 0.2020631581544876, -0.12615662813186646, 0.2378963679075241, -0.2631928324699402, -0.3802875876426697, 0.12982162833213806, -0.07488501816987991, -0.1339043825864792, 0.20653294026851654, -0.06315970420837402, 0.08462949097156525, 0.3226153552532196, -0.2249523252248764, 0.1432955265045166, -0.04554617032408714, 0.3659326732158661, -0.003211031435057521, -0.05324560031294823, 0.2190030962228775, 0.38964971899986267, 0.21325404942035675, -0.21475102007389069, 0.13895753026008606, 0.03133980557322502, -0.04058109223842621, 0.10488293319940567, 0.04544425755739212, -0.13983184099197388, 0.0309453122317791, -0.17420272529125214, -0.03585423529148102, -0.2004770040512085, 0.04119817912578583, 0.06469827890396118, 0.22673562169075012, 0.1023636907339096, 0.18147379159927368, 0.08456869423389435, -0.29096367955207825, -0.19429218769073486, -0.024550924077630043, 0.19650304317474365, 0.3049356937408447, 0.14101728796958923, 0.021392567083239555, 0.1263662576675415, -0.0307448823004961, -0.09566673636436462, 0.1364162117242813, 0.17310430109500885, -0.16069836914539337, -0.12175807356834412, 0.04903244227170944, 0.16710932552814484, 0.060532160103321075, -0.16178549826145172], [0.034623946994543076, -0.20043015480041504, -0.16927598416805267, 0.23830892145633698, -0.26072126626968384, -0.004146052990108728, -0.20275864005088806, 0.26768454909324646, 0.23924686014652252, -0.13498245179653168, 0.12858866155147552, 0.18045108020305634, -0.1474011242389679, -0.028757326304912567, 0.10182208567857742, 0.05685310438275337, -0.02106359228491783, 0.15363290905952454, -0.26009729504585266, -0.18277357518672943, 0.14285509288311005, -0.0023803142830729485, -0.04314027354121208, -0.19969789683818817, -0.10815879702568054, 0.17017674446105957, 0.20226167142391205, 0.1031535267829895, 0.25000619888305664, 0.27954816818237305, 0.021739164367318153, -0.006459168624132872, 0.1683397740125656, 0.05748070403933525, 0.03771401196718216, 0.19018778204917908, 6.916824349900708e-05, 0.2084902971982956, -0.2851022183895111, -0.48779231309890747, -0.021920228376984596, -0.335490882396698, 0.05609126761555672, 0.08831106871366501, -0.03704692795872688, 0.09936051815748215, -0.08636142313480377, 0.2679332494735718, -0.2521750330924988, -0.37211713194847107, 0.027498601004481316, 0.015781521797180176, 0.07010042667388916, -0.12493250519037247, -0.15279100835323334, -0.0721244066953659, 0.13142062723636627, -0.0865364596247673, 0.034807510673999786, -0.3323371112346649, -0.09043209254741669, 0.03159654885530472, -0.08952496200799942, -0.2427651286125183], [-0.551651120185852, -0.2516475319862366, 0.02695668675005436, -0.0928797647356987, 0.27425894141197205, -0.013286014087498188, -0.09789703041315079, 0.09737537056207657, -0.1382632702589035, 0.034665297716856, 0.1174355074763298, -0.01756458543241024, -0.03915049508213997, -0.28052037954330444, 0.05508359149098396, -0.027725236490368843, 0.24549375474452972, -0.1898798942565918, -0.12704181671142578, -0.4035833775997162, -0.058645229786634445, -0.07731963694095612, 0.2577865421772003, 0.30119258165359497, -0.16377322375774384, 0.00500368420034647, -0.033517006784677505, -0.09654136002063751, 0.14808756113052368, 0.27339470386505127, -0.07629743963479996, -0.05540064722299576, 0.31667497754096985, 0.15984858572483063, 0.17947736382484436, -0.07063847780227661, -0.10500306636095047, -0.016353009268641472, 0.3016567528247833, -0.04985210299491882, -0.33755743503570557, 0.03552384302020073, -0.08306804299354553, 0.24429762363433838, -0.07844492793083191, 0.08610893040895462, 0.15669211745262146, -0.17723706364631653, -0.05190455913543701, 0.321127712726593, -0.02426018938422203, -0.021093465387821198, 0.08356720954179764, -0.010485335253179073, 0.14882774651050568, -0.05619234964251518, 0.15512315928936005, 0.009605977684259415, 0.273191899061203, -0.13165418803691864, -0.07313035428524017, 0.11867742985486984, -0.17094573378562927, 0.04635436087846756], [0.012669214978814125, -0.18427227437496185, -0.06383543461561203, 0.10134907066822052, 0.39515945315361023, 0.1143093928694725, 0.006714699324220419, 0.18436995148658752, -0.3101505935192108, 0.15102331340312958, 0.4343898892402649, 0.15079650282859802, 0.07291825115680695, 0.0027253059670329094, 0.03417118266224861, -0.07397584617137909, 0.01790762133896351, 0.10214333981275558, 0.1368129700422287, 0.08430647104978561, 0.3386267423629761, -0.013048806227743626, -0.1775609403848648, -0.046792179346084595, 0.18021461367607117, 0.18556126952171326, -0.054218485951423645, -0.03335144370794296, 0.046849530190229416, -0.059922296553850174, -0.03579029068350792, 0.21413415670394897, -0.03351198509335518, 0.1021425798535347, 0.10672146826982498, -0.11242614686489105, -0.21253922581672668, 0.08450395613908768, -0.03448953852057457, -0.1758529543876648, 0.299765020608902, -0.19296656548976898, 0.2777253985404968, 0.02404317818582058, 0.22323107719421387, -0.35525527596473694, 0.060860153287649155, 0.20065933465957642, 0.42154762148857117, 0.1391856074333191, -0.02113763429224491, 0.04045300930738449, 0.1524522751569748, 0.1409587860107422, 0.024213027209043503, 0.0025924104265868664, 0.07545013725757599, -0.2808418869972229, 0.21327927708625793, 0.3257322907447815, 0.05483866482973099, 0.20567035675048828, -0.06142362952232361, -0.15473343431949615], [0.2512594163417816, -0.13614732027053833, -0.003133926307782531, -0.20813116431236267, -0.08159428834915161, 0.014665106311440468, -0.04593305662274361, -0.17349562048912048, 0.13898780941963196, -0.33471155166625977, 0.22998113930225372, 0.300528347492218, -0.29258742928504944, -0.023026946932077408, -0.3087821900844574, 0.09773796796798706, 0.03861851245164871, 0.009786281734704971, -0.263694703578949, -0.2923232316970825, 0.056798070669174194, 0.23466362059116364, -0.012691195122897625, -0.07006064057350159, 0.11142898350954056, -0.5076689720153809, -0.08312712609767914, 0.2691625952720642, 0.11979961395263672, -0.15593257546424866, -0.19125914573669434, -0.05697767063975334, 0.09194094687700272, -0.2772069275379181, 0.1375276893377304, 0.0006261862581595778, -0.13562023639678955, -0.1088123694062233, 0.010668336413800716, 0.05387408286333084, 0.05361076444387436, 0.004972669295966625, -0.08977839350700378, 0.07496108114719391, 0.1962130069732666, -0.1642000675201416, 0.24437852203845978, -0.0217487420886755, -0.03652356192469597, -0.008814064785838127, 0.12841467559337616, 0.07499217242002487, -0.07692695409059525, 0.14672507345676422, -0.17434538900852203, -0.04254722222685814, -0.21723628044128418, -0.2249811589717865, 0.18511156737804413, 0.08185002952814102, -0.10050318390130997, 0.0854019820690155, -0.10398787260055542, 0.4387921690940857], [0.025157472118735313, -0.31557419896125793, -0.028539884835481644, 0.05196484923362732, -0.09944891184568405, 0.085150808095932, 0.16746042668819427, 0.14723815023899078, 0.11466531455516815, 0.058000072836875916, -0.21996347606182098, 0.25405585765838623, -0.22708968818187714, -0.053655609488487244, 0.00700040627270937, -0.06858821213245392, -0.17267106473445892, 0.13058282434940338, 0.14846712350845337, 0.11469539999961853, 0.034185219556093216, 0.07641416043043137, -0.19398267567157745, 0.31961846351623535, 0.2686662971973419, -0.20123052597045898, -0.0035114383790642023, -0.18092940747737885, -0.16374117136001587, 0.12310411781072617, -0.17447154223918915, -0.06137046590447426, 0.25219011306762695, -0.09358149021863937, 0.13955377042293549, 0.06681633740663528, 0.15859657526016235, 0.01997443474829197, 0.16331207752227783, 0.14665134251117706, 0.13541263341903687, -0.08985761553049088, 0.1266099363565445, -0.2833542227745056, -0.324623703956604, -0.1557503640651703, 0.15283241868019104, 0.1974562108516693, -0.016146905720233917, 0.2818012535572052, 0.030074389651417732, 0.04359780251979828, 0.2294945865869522, 0.16883178055286407, -0.29552626609802246, 0.22469031810760498, 0.22785580158233643, 0.2396049201488495, 0.17666421830654144, -0.2964635193347931, 0.2252136617898941, -0.3383367359638214, 0.09005055576562881, -0.04859218746423721], [0.30865904688835144, -0.11352425068616867, 0.2367386370897293, 0.14325858652591705, -0.09533591568470001, -0.011212894693017006, 0.13650113344192505, 0.031706150621175766, -0.1943056881427765, 0.06555924564599991, -0.004104167688637972, -0.0059417784214019775, 0.054905541241168976, 0.04623798280954361, 0.19994193315505981, 0.20867928862571716, 0.1677691489458084, 0.06909839808940887, 0.08597131073474884, -0.02066110074520111, 0.08114062994718552, 0.13716596364974976, 0.10148239135742188, -0.46318838000297546, -0.006780853495001793, 0.10775131732225418, 0.2997076213359833, 0.18652397394180298, 0.15507188439369202, 0.07675816863775253, 0.020012840628623962, -0.16807770729064941, 0.2817239761352539, -0.208826944231987, 0.15518887341022491, -0.15004763007164001, 0.048992592841386795, -0.13304920494556427, -0.025965342298150063, 0.30645766854286194, -0.29598209261894226, 0.26195669174194336, -0.40302374958992004, 0.16600142419338226, 0.13678611814975739, 0.015515545383095741, -0.1503823697566986, 0.2335212677717209, 0.1732477843761444, 0.2926214337348938, -0.05123443529009819, -0.11474651098251343, -0.10054931044578552, 0.1282203644514084, -0.12386598438024521, -0.05016827955842018, 0.04263291507959366, -0.03442548215389252, 0.16947822272777557, -0.10362090170383453, 0.2845609784126282, 0.06334419548511505, 0.2038586139678955, -0.31363752484321594], [-0.06114673987030983, 0.06241636350750923, -0.1796569675207138, -0.11998290568590164, -0.019377131015062332, 0.3208405077457428, 0.040161024779081345, -0.18556475639343262, -0.16499382257461548, 0.053520381450653076, -0.18316923081874847, -0.09792003780603409, -0.276913583278656, -0.018545350059866905, 0.0130274947732687, 0.20197762548923492, -0.028243355453014374, -0.24048341810703278, 0.0650707259774208, -0.23700076341629028, -0.16618365049362183, -0.18588165938854218, -0.4218918979167938, -0.06422456353902817, 0.5217118263244629, 0.45630916953086853, -0.3745909333229065, -0.16466547548770905, 0.05067186802625656, 0.09722848981618881, 0.04474147781729698, -0.06119738519191742, -0.005251087713986635, -0.2342384159564972, -0.024451252073049545, 0.15209978818893433, 0.032017942517995834, 0.010778835043311119, 0.05553450435400009, -0.06750069558620453, -0.11852048337459564, 0.016728779301047325, 0.00961935892701149, 0.32284441590309143, 0.26760533452033997, -0.10414581000804901, -0.10052704066038132, 0.031114304438233376, -0.27309784293174744, 0.03316755220293999, 0.2345581203699112, -0.05706918239593506, 0.10191509127616882, -0.11920193582773209, -0.16514360904693604, -0.18239443004131317, -0.06389426440000534, -0.08280754089355469, -0.052060775458812714, 0.01626337319612503, 0.21554183959960938, -0.029127592220902443, 0.06723561137914658, 0.0420500822365284], [-0.18346431851387024, 0.018603119999170303, -0.18029648065567017, 0.015457593835890293, 0.07823260128498077, 0.10307629406452179, -0.17802070081233978, -0.271097868680954, -0.14234790205955505, 0.07773055881261826, 0.10552067309617996, 0.026350930333137512, -0.07818765938282013, 0.25673481822013855, -0.262399822473526, -0.07916523516178131, -0.0314798541367054, 0.12393088638782501, 0.03539730980992317, -0.1894744485616684, -0.2355315089225769, 0.4970967471599579, -0.21923911571502686, -0.18144968152046204, -0.21085789799690247, 0.0484570637345314, 0.1820666491985321, -0.1288444995880127, -0.24107693135738373, 0.23412403464317322, 0.023724265396595, 0.014725360088050365, 0.032458461821079254, 0.20999211072921753, 0.1489090621471405, -0.03340936824679375, 0.0033302714582532644, 0.08129753172397614, -0.2103971540927887, -0.04179803282022476, -0.053975798189640045, 0.2578337490558624, 0.1513991355895996, 0.1268986165523529, 0.09173068404197693, 0.061930667608976364, 0.1218944564461708, 0.3024001717567444, -0.03911414369940758, -0.20811299979686737, -0.03888274356722832, 0.026919491589069366, 0.04077097028493881, 0.08535995334386826, 0.25858888030052185, 0.21273896098136902, -0.022242693230509758, 0.4779941439628601, 0.19676397740840912, 0.11794331669807434, 0.20720557868480682, 0.040311574935913086, 0.2904295325279236, 0.2280091643333435], [-0.04554334655404091, -0.4494697153568268, -0.16625137627124786, -0.31894218921661377, 0.13923151791095734, -0.027440758422017097, -0.04406168684363365, -0.05237116292119026, 0.02457321062684059, -0.11093966662883759, 0.26028960943222046, -0.03920295462012291, 0.01638907752931118, 0.1949615180492401, -0.11021643131971359, 0.12673522531986237, -0.3791161775588989, -0.023735471069812775, 0.051585882902145386, -0.1253543198108673, -0.017560051754117012, -0.16494610905647278, 0.40459105372428894, -0.05763085186481476, 0.08439814299345016, 0.042038146406412125, 0.002979518612846732, 0.2977970242500305, -0.041214726865291595, 0.21103419363498688, 0.1399286687374115, -0.24172477424144745, -0.02842286042869091, -0.15627917647361755, -0.08053847402334213, 0.010357888415455818, -0.10279162973165512, 0.1300371289253235, -0.05596451088786125, 0.06656206399202347, 0.4659419059753418, 0.17783263325691223, 0.07475316524505615, 0.17872002720832825, -0.3398558497428894, 0.0924212858080864, -0.12069457769393921, -0.13345597684383392, 0.0704459622502327, 0.010452155023813248, -0.028025979176163673, -0.29189175367355347, -0.11758449673652649, -0.23457948863506317, -0.12442030757665634, -0.0597686804831028, 0.11844151467084885, 0.18729490041732788, -0.12768147885799408, 0.22966666519641876, 0.2936105728149414, -0.09531185030937195, -0.03034398704767227, -0.10550228506326675], [-0.2827576696872711, 0.0401252806186676, 0.12323403358459473, 0.25960707664489746, 0.08009964972734451, -0.20211674273014069, 0.04697834700345993, -0.10744984447956085, 0.029191195964813232, -0.09554684907197952, -0.11693605780601501, 0.1380443572998047, -0.13776569068431854, 0.46655118465423584, 0.1927957832813263, -0.04467044770717621, 0.19284066557884216, 0.09985867142677307, 0.0018262610537931323, 0.2630227506160736, 0.013866239227354527, -0.23492008447647095, 0.15963391959667206, -0.19952115416526794, 0.08342188596725464, -0.12418774515390396, -0.0788845419883728, -0.05945988744497299, -0.1010102704167366, 0.1183900535106659, -0.28579744696617126, -0.28512680530548096, 0.049525465816259384, 0.2509611248970032, -0.24965518712997437, -0.05671829730272293, -0.15357963740825653, 0.02853001281619072, 0.07690802961587906, 0.08050442487001419, 0.009772389195859432, -0.28062114119529724, -0.052016474306583405, 0.5109828114509583, 0.04921478033065796, 0.08230151981115341, -0.18762558698654175, 0.21124550700187683, 0.10580416023731232, 0.010248103179037571, 0.10461783409118652, -0.05372948572039604, 0.20382064580917358, 0.17417164146900177, -0.269569456577301, 0.1759980469942093, -0.14164580404758453, 0.09498143941164017, -0.12465071678161621, 0.12035230547189713, -0.0995168536901474, -0.09192206710577011, -0.17397446930408478, 0.3035203814506531], [0.2528342306613922, -0.1434529721736908, 0.07542036473751068, 0.3078383505344391, -0.0721914991736412, -0.11621690541505814, 0.08990038186311722, 0.031033772975206375, -0.08005032688379288, -0.17564328014850616, -0.17756326496601105, -0.1345795840024948, -0.15341849625110626, -0.02152900956571102, -0.010698039084672928, 0.17637594044208527, 0.08485840260982513, 0.07919012755155563, 0.06296846270561218, -0.09234385192394257, -0.1584971398115158, 0.20758911967277527, 0.0821867287158966, 0.06664920598268509, -0.3543734848499298, 0.37955814599990845, -0.24588824808597565, 0.2395801544189453, -0.37162497639656067, 0.2323026806116104, 0.0210960041731596, 0.04109753668308258, -0.03960680589079857, -0.08474782854318619, -0.07827237993478775, -0.3959646224975586, 0.014465262182056904, -0.17451180517673492, 0.2635786831378937, 0.04776953160762787, 0.156900554895401, -0.33431947231292725, 0.30685165524482727, -0.03410051763057709, -0.012034553103148937, -0.039328545331954956, -0.14777220785617828, -0.08388718962669373, -0.10219818353652954, -0.00834252592176199, -0.10931303352117538, 0.01972481980919838, -0.059366755187511444, -0.1665341705083847, 0.0826277881860733, -0.10033765435218811, -0.26591768860816956, -0.1453777402639389, 0.44768786430358887, 0.03052058443427086, 0.025216011330485344, -0.20990091562271118, -0.07178524881601334, 0.08751989901065826], [-0.1420949101448059, -0.16722223162651062, 0.07551959902048111, 0.11887222528457642, -0.10870157927274704, -0.09556040167808533, -0.033770445734262466, 0.17114166915416718, 0.16995681822299957, -0.18974457681179047, 0.13560181856155396, 0.19565796852111816, 0.4001651108264923, -0.23383572697639465, -0.005313023924827576, 0.024213064461946487, 0.17725425958633423, 0.009332115761935711, 0.15493814647197723, 0.36276525259017944, -0.04883657395839691, 0.21332578361034393, -0.1609169989824295, 0.02547147311270237, 0.39465776085853577, -0.013989073224365711, -0.27882319688796997, 0.08596442639827728, 0.14755959808826447, 0.10345769673585892, 0.020637204870581627, 0.2092437595129013, 0.05759849399328232, -0.193633034825325, -0.11317053437232971, -0.07774320244789124, -0.47584253549575806, 0.07609941810369492, -0.19446775317192078, 0.09226766973733902, -0.2554948627948761, 0.09783066064119339, 0.10989662259817123, 0.012546950951218605, -0.01042657345533371, 0.13914945721626282, -0.16785818338394165, -0.014580241404473782, -0.04252656549215317, -0.015559591352939606, -0.12792524695396423, -0.03467513993382454, -0.13178624212741852, -0.27865397930145264, 0.23539988696575165, 0.23496927320957184, -0.12793384492397308, 0.11838217079639435, -0.020159827545285225, -0.1707773208618164, 0.3306666314601898, 0.02513766475021839, -0.1744430661201477, 0.2560616135597229], [0.1020316481590271, 0.17001579701900482, -0.24821686744689941, -0.24685396254062653, 0.10469226539134979, -0.0535290502011776, 0.23167435824871063, -0.02895398437976837, 0.23383139073848724, -0.1180090457201004, 0.1545001119375229, 0.2432289570569992, -0.13157305121421814, 0.17538543045520782, 0.13934502005577087, 0.07198695838451385, 0.2875632047653198, -0.037838421761989594, -0.031151877716183662, 0.13179178535938263, 0.11374179273843765, 0.10840922594070435, -0.005576685070991516, -0.16604870557785034, -0.19782684743404388, 0.2439027726650238, -0.2400338351726532, -0.01415319088846445, 0.055970653891563416, 0.1266467571258545, -0.23248201608657837, 0.12119420617818832, 0.11830780655145645, 0.16533657908439636, -0.28466102480888367, 0.33488190174102783, 0.15655677020549774, -0.20231249928474426, 0.1611839234828949, -0.29954275488853455, 0.07000111043453217, 0.3280848264694214, 0.012772312387824059, -0.2803458273410797, 0.019303277134895325, -0.24719248712062836, -0.2368457019329071, -0.0033304861281067133, -0.06586751341819763, 0.3435690402984619, -0.23210439085960388, -0.24468672275543213, -0.22694611549377441, -0.06977401673793793, -0.05396460369229317, 0.01686673052608967, 0.14183780550956726, 0.21188054978847504, 0.068004310131073, -0.04894689843058586, -0.12385306507349014, 0.14923597872257233, -0.017721811309456825, 0.12728673219680786], [-0.05208205059170723, -0.038175683468580246, 0.1208711639046669, -0.1462576538324356, -0.12065707892179489, -0.24251747131347656, -0.1186838150024414, -0.3576207756996155, 0.09547300636768341, 0.07558856159448624, -0.28540706634521484, 0.5520369410514832, 0.3232072591781616, -0.025426091626286507, -0.1893736869096756, 0.2665952742099762, 0.03018570877611637, -0.10957661271095276, -0.17484460771083832, 0.002724983263760805, -0.03453684598207474, -0.02829713001847267, -0.1779743731021881, 0.19510452449321747, -0.2292470932006836, -0.006368567701429129, -0.16716593503952026, -0.05436782166361809, 0.18512602150440216, 0.1394861340522766, -0.10123497992753983, -0.099869504570961, -0.10129468142986298, 0.04824626445770264, 0.13908550143241882, -0.087082140147686, 0.09401439875364304, -0.17327411472797394, 0.031449176371097565, 0.140135258436203, 0.3973793089389801, -0.0610339529812336, 0.07187139987945557, 0.22280581295490265, 0.1904144585132599, -0.033224232494831085, -0.20570769906044006, 0.005178646184504032, 0.1961105465888977, 0.035812389105558395, 0.09489838778972626, 0.25106561183929443, 0.09021728485822678, -0.20733404159545898, 0.08909549564123154, 0.09458409994840622, 0.10657904297113419, 0.01527519803494215, -0.06723688542842865, -0.1688738763332367, 0.013751205056905746, 0.28692084550857544, 0.17895953357219696, -0.35300081968307495], [-0.04387262463569641, -0.10478473454713821, -0.11400601267814636, -0.1857694536447525, -0.13404136896133423, 0.16288875043392181, 0.3955208957195282, -0.2229260504245758, -0.29004180431365967, 0.2792053520679474, 0.2508828341960907, 0.1119396984577179, -0.05382002890110016, 0.1550041139125824, -0.03788629546761513, 0.12910526990890503, -0.20002438127994537, 0.11572347581386566, -0.03029490076005459, 0.3861233592033386, -0.13707031309604645, -0.13436739146709442, -0.022027138620615005, -0.18968112766742706, 0.016484754160046577, -0.11435764282941818, 0.03843570873141289, 0.0037846288178116083, 0.10764694958925247, 0.15614129602909088, -0.19481301307678223, 0.04792476072907448, -0.11572157591581345, -0.01170197781175375, -0.06036534905433655, 0.09995328634977341, 0.10550808161497116, -0.1895766705274582, -0.19227950274944305, -0.059990622103214264, -0.20190265774726868, -0.18366077542304993, -0.22104641795158386, -0.00849559810012579, -0.15086860954761505, 0.03682784363627434, 0.10961442440748215, -0.24298778176307678, 0.13803339004516602, -0.0813378244638443, 0.03226003050804138, 0.30096542835235596, 0.14842024445533752, -0.2494129091501236, 0.2535921335220337, -0.25729119777679443, -0.15782226622104645, 0.1583125740289688, 0.40867096185684204, -0.13103552162647247, -0.08920621871948242, -0.14918668568134308, -0.318805068731308, -0.08457539230585098], [-0.03501022607088089, 0.2800978422164917, -0.20788198709487915, 0.12523378431797028, 0.16588766872882843, 0.13927242159843445, 0.26589399576187134, 0.04806163161993027, 0.285612016916275, 0.13946567475795746, 0.06852845102548599, 0.20810212194919586, -0.05517188459634781, -0.14739114046096802, -4.48146129201632e-05, 0.3776855766773224, -0.00828783493489027, -0.284766286611557, 0.02525029331445694, 0.02275839075446129, 0.0778091624379158, 0.16331812739372253, 0.17340679466724396, 0.021609269082546234, -0.0645759254693985, -0.039578575640916824, 0.06222255155444145, 0.08011384308338165, -0.0003336370864417404, 0.12199674546718597, -0.06246483325958252, -0.005269852001219988, -0.12055487185716629, -0.10774209350347519, -0.3066498041152954, -0.10713595896959305, -0.199051633477211, -0.14219847321510315, 0.26131048798561096, -0.07478249818086624, -0.21091905236244202, 0.24418728053569794, 0.19382603466510773, -0.06150622293353081, 0.09776908904314041, 0.44909408688545227, 0.29715266823768616, 0.026960495859384537, 0.20419542491436005, -0.33964261412620544, 0.03173700347542763, 0.09360919892787933, 0.3290291726589203, -0.02138008363544941, -0.29159092903137207, 0.09513670951128006, 0.15460535883903503, -0.13433876633644104, 0.030159099027514458, 0.20060670375823975, 0.11529067903757095, -0.14091159403324127, 0.12464344501495361, -0.17922985553741455], [0.07199307531118393, -0.12530924379825592, -0.11887296289205551, -0.06417565792798996, -0.35068970918655396, 0.22502563893795013, 0.20036350190639496, -0.10354020446538925, -0.02833121083676815, -0.13851241767406464, 0.029044006019830704, 0.11507845669984818, -0.11347540467977524, -0.027405761182308197, -0.13978978991508484, 0.1307370811700821, 0.05418763309717178, -0.21773676574230194, 0.12940752506256104, 0.04785566031932831, 0.36384066939353943, -0.15509487688541412, 0.2341679334640503, 0.05404609441757202, -0.17357738316059113, -0.052361514419317245, 0.09697365015745163, -0.23039473593235016, 0.11374382674694061, 0.21193672716617584, 0.27766481041908264, -0.039097171276807785, -0.21575388312339783, 0.017679544165730476, 0.055014584213495255, -0.011995398439466953, -0.06437265872955322, 0.26916956901550293, -0.1732608675956726, 0.11550438404083252, -0.1867755651473999, -0.328145831823349, 0.164486825466156, 0.0006206360412761569, 0.3521856367588043, 0.08943651616573334, 0.08308541774749756, 0.10966023802757263, -0.11784973740577698, 0.4849327802658081, -0.3446793258190155, 0.12415923178195953, -0.12248529493808746, -0.0487818717956543, 0.10374943166971207, 0.07073057442903519, 0.0069201672449707985, 0.09977050125598907, -0.18742753565311432, 0.22728231549263, -0.14968915283679962, -0.2318539172410965, 0.21075370907783508, 0.11079547554254532], [-0.1711193174123764, -0.1947862058877945, 0.08011090755462646, -0.27531611919403076, -0.09755663573741913, -0.04500656574964523, 0.16915293037891388, 0.2304452657699585, 0.2524470090866089, 0.05347245931625366, 0.10988695919513702, -0.041865792125463486, 0.20720155537128448, -0.027368025854229927, 0.15003260970115662, 0.1483534872531891, -0.18352307379245758, -0.08397826552391052, -0.07985576242208481, 0.09956399351358414, -0.09159928560256958, -0.3355379104614258, -0.4037214517593384, -0.08386436849832535, 0.027440780773758888, 0.09641426801681519, 0.4281025230884552, 0.08515654504299164, -0.0460120290517807, -0.03717036545276642, 0.162904292345047, -0.0954877957701683, -0.156718909740448, 0.08138076215982437, 0.017492543905973434, -0.3334631025791168, 0.2919211685657501, 0.24268710613250732, 0.30491602420806885, -0.14520274102687836, 0.02659761905670166, 0.07765857130289078, 0.028596684336662292, -0.017537761479616165, 0.18147118389606476, 0.08480910211801529, 0.008981820195913315, -0.011217267252504826, 0.10524842143058777, -0.002258259803056717, -0.011655732057988644, -0.05080695450305939, -0.09995029866695404, -0.06355211138725281, -0.22591519355773926, 0.17557528614997864, -0.22658535838127136, 0.013935907743871212, 0.31283149123191833, -0.12286755442619324, -0.10708146542310715, 0.21234677731990814, 0.17254450917243958, 0.43744808435440063], [0.042206741869449615, -0.19595912098884583, 0.023902077227830887, 0.20192991197109222, -0.23156355321407318, -0.022899886593222618, 0.1882934421300888, -0.1187562420964241, -0.3093836009502411, -0.0943584144115448, 0.07939227670431137, 0.16903933882713318, 0.16992750763893127, -0.17086227238178253, -0.19407612085342407, -0.005576444324105978, 0.26662349700927734, 0.03850780054926872, -0.23444898426532745, 0.24029642343521118, 0.24636749923229218, -0.10924839973449707, -0.18164895474910736, -0.10199815034866333, -0.24150697886943817, 0.1257440447807312, -0.11929057538509369, -0.06320106238126755, -0.16776229441165924, -0.010199456475675106, 0.042840395122766495, 0.058413948863744736, 0.11395274102687836, 0.15711504220962524, 0.33799779415130615, -0.098209448158741, 0.10405191779136658, 0.1485908329486847, 0.270525723695755, -0.1494438648223877, 0.007897497154772282, 0.19252543151378632, -0.18469208478927612, -0.1526564359664917, -0.15522286295890808, 0.147259920835495, 0.14915478229522705, -0.1018221452832222, -0.2572970688343048, -0.11073976755142212, 0.32939332723617554, -0.00668325973674655, -0.004323739558458328, -0.021385295316576958, -0.25642529129981995, -0.09229591488838196, 0.006394077092409134, 0.14796040952205658, -0.2969920337200165, 0.42487043142318726, 0.26018407940864563, 0.02457248605787754, -0.2594424784183502, 0.03732910379767418], [-0.1287323236465454, 0.1416432410478592, 0.22301535308361053, -0.1637384295463562, 0.11708938330411911, -0.07497561722993851, 0.003094661282375455, -0.026938898488879204, -0.22525808215141296, -0.2287226766347885, -0.12897096574306488, 0.2523728609085083, -0.0924791693687439, -0.13692638278007507, 0.06302427500486374, -0.1506437361240387, -0.006268811412155628, 0.05934000015258789, -0.05892143398523331, -0.11740969866514206, 0.02242428809404373, 0.17053145170211792, 0.18152448534965515, -0.2941732704639435, 0.22811196744441986, 0.11577387154102325, 0.2597781717777252, -0.16042953729629517, -0.2059522122144699, 0.1874491572380066, 0.09666186571121216, -0.12948574125766754, -0.2935955822467804, -0.06532253324985504, 0.3211253881454468, -0.03247785195708275, -0.11557779461145401, -0.15330128371715546, 0.020684851333498955, -0.31039246916770935, -0.06646609306335449, -0.004714757204055786, 0.24058562517166138, -0.19550177454948425, 0.11507611721754074, -0.02006969228386879, -0.2508397400379181, -0.3891671895980835, 0.323574036359787, -0.04685043543577194, -0.14268271625041962, 0.2234651744365692, -0.039536863565444946, 0.14236432313919067, -0.23348604142665863, -0.2090727537870407, 0.05034728720784187, 0.09055664390325546, -0.25234678387641907, -0.30912840366363525, 0.14355280995368958, -0.14090058207511902, -0.106447234749794, 0.14609600603580475], [-0.22714422643184662, 0.09016503393650055, 0.010581409558653831, 0.05612847954034805, -0.21605531871318817, 0.1588243544101715, 0.14088255167007446, 0.02073182724416256, 0.21043558418750763, -0.017995892092585564, 0.05863441526889801, -0.08034197986125946, 0.25809356570243835, -0.041003525257110596, -0.1401287019252777, 0.15711382031440735, -0.056502800434827805, 0.09403524547815323, 0.36699607968330383, -0.19178785383701324, -0.05393898859620094, 0.24224591255187988, 0.23383338749408722, -0.20356303453445435, 0.08592908084392548, 0.022535577416419983, 0.12336979806423187, -0.11319337040185928, -0.016488103196024895, -0.07993264496326447, -0.1628749519586563, 0.20274341106414795, 0.2602144777774811, 0.1219855397939682, -0.09275315701961517, 0.33046892285346985, 0.14445628225803375, 0.30658894777297974, 0.27426809072494507, 0.41399410367012024, 0.10302510112524033, -0.32696184515953064, 0.10012922435998917, -0.026752205565571785, 0.11802367120981216, -0.03829777613282204, -0.18707716464996338, -0.19452132284641266, -0.016218554228544235, -0.14249233901500702, 0.07598503679037094, 0.2795650362968445, -0.13568949699401855, 0.0720372423529625, -0.16533289849758148, -0.29051047563552856, 0.17101386189460754, 0.0977390855550766, 0.10512464493513107, 0.1253104954957962, 0.10313864797353745, 0.3431488573551178, -0.10277877748012543, 0.05979005992412567], [-0.020600954070687294, -0.1517014056444168, -0.0038704825565218925, 0.1365751177072525, 0.10693833231925964, -0.10579735785722733, -0.2519420385360718, -0.07938265055418015, -0.11729530245065689, -0.0238224845379591, 0.2934074401855469, 0.3434360921382904, -0.1162256971001625, -0.0918983593583107, -0.20263032615184784, 0.1513649970293045, 0.05045400187373161, -0.009743318893015385, 0.3447674810886383, 0.14553749561309814, -0.17023275792598724, -0.1287592053413391, 0.22798146307468414, 0.10394532978534698, 0.1197095438838005, 0.10275120288133621, 0.062252696603536606, 0.0699632316827774, -0.34377261996269226, -0.13780508935451508, -0.10307838767766953, 0.20312483608722687, -0.0007596389623358846, 0.15112094581127167, 0.16557633876800537, 0.05646004527807236, 0.3142489492893219, -0.01618063822388649, -0.04118036851286888, 0.20033743977546692, -0.12319287657737732, 0.10195798426866531, -0.060194022953510284, -0.12855523824691772, 0.16559970378875732, 0.14032156765460968, -0.025415712967514992, 0.277142196893692, 0.06409714370965958, -0.06601817160844803, 0.02936878800392151, -0.32595115900039673, 0.19327151775360107, -0.3478396534919739, -0.01736862026154995, -0.3523390591144562, 0.04685479775071144, -0.21490368247032166, -0.20752395689487457, -0.28148511052131653, -0.27023282647132874, -0.07428744435310364, 0.17192675173282623, 0.21387723088264465], [0.09117059409618378, 0.027362873777747154, -0.3697538673877716, -0.1074495017528534, -0.24009063839912415, -0.2892111539840698, -0.13364315032958984, 0.21001014113426208, 0.11357833445072174, -0.1181202307343483, 0.10595477372407913, -0.10198976844549179, -0.27797362208366394, -0.12329810857772827, 0.2247186303138733, 0.036027245223522186, -0.18584993481636047, 0.06494180113077164, -0.11261731386184692, 0.10435564815998077, 0.04074845835566521, 0.10675538331270218, 0.00046841742005199194, -0.1839853674173355, 0.13917942345142365, -0.34869635105133057, -0.3363894522190094, -0.046134140342473984, -0.05822138115763664, 0.20035232603549957, 0.19940438866615295, 0.2375802993774414, 0.01383333932608366, 0.3195275068283081, 0.01861673593521118, -0.23729480803012848, 0.13195809721946716, 0.19698037207126617, 0.2757340669631958, 0.04854493960738182, 0.07098054140806198, 0.11782920360565186, -0.19365477561950684, 0.09972374141216278, 0.212141752243042, 0.049327995628118515, -0.18102669715881348, -0.17968061566352844, 0.11904221028089523, 0.050444167107343674, 0.0034400203730911016, 0.021524816751480103, 0.3757600486278534, 0.24162016808986664, 0.3545706272125244, -0.217625692486763, -0.0682794600725174, 0.017646241933107376, -0.09308764338493347, -0.03205651789903641, 0.1633101999759674, -0.03383757174015045, 0.13732311129570007, -0.13363884389400482], [-0.07803015410900116, 0.20662321150302887, 0.017304839566349983, -0.37031421065330505, 0.12891048192977905, -0.17514453828334808, -0.08870258182287216, -0.13943631947040558, 0.01045263558626175, 0.0004318207211326808, 0.186529740691185, -0.20173627138137817, 0.13990472257137299, 0.17966043949127197, 0.18784409761428833, 0.022203654050827026, 0.24169324338436127, -0.08793588727712631, 0.059992022812366486, 0.11391889303922653, -0.23075927793979645, 0.4586331844329834, -0.02979644015431404, 0.14173495769500732, -0.15056173503398895, 0.057516321539878845, -0.0012365279253572226, 0.050935156643390656, 0.24354201555252075, 0.16838675737380981, 0.22819384932518005, 0.14997565746307373, -0.001744518638588488, -0.03594038635492325, -0.007905776612460613, -0.1547844111919403, 0.052841782569885254, 0.2933962643146515, -0.01167360320687294, -0.03581739589571953, 0.09720133990049362, -0.20133231580257416, -0.2647777795791626, -0.06499986350536346, -0.17487528920173645, -0.17416171729564667, 0.1730019897222519, 0.30809885263442993, 0.04875905439257622, 0.1771121323108673, 0.06902514398097992, 0.31711500883102417, 0.12474723160266876, -0.22799870371818542, -0.4118178188800812, -0.1753188818693161, -0.05126570910215378, -0.1828681081533432, -0.19789710640907288, -0.0649418830871582, 0.12596862018108368, -0.2775609791278839, -0.04801516234874725, 0.10270331054925919], [0.21860972046852112, -0.06484083086252213, -0.3694179952144623, 0.07982023060321808, 0.31792908906936646, -0.08333410322666168, -0.1653614044189453, 0.13183973729610443, 0.017614474520087242, -0.023268964141607285, -0.40440136194229126, 0.40005022287368774, -0.037400975823402405, 0.07921995222568512, 0.12197116762399673, 0.1575765311717987, -0.17890970408916473, 0.0013087333645671606, 0.20465517044067383, 0.0952189713716507, -0.3308764398097992, 0.16408833861351013, -0.08316860347986221, 0.09372053295373917, -0.017729580402374268, -0.028076322749257088, 0.35196420550346375, -0.008587462827563286, 0.07739230990409851, -0.040482062846422195, 0.07829800993204117, 0.11863041669130325, 0.05816638097167015, -0.01793377846479416, 0.18967151641845703, -0.03545914590358734, 0.038677942007780075, 0.2490062117576599, -0.10073322802782059, -0.008201723918318748, -0.227814182639122, 0.16388529539108276, -0.03519350290298462, 0.11988534033298492, 0.011145944707095623, -0.08526624739170074, -0.2539028227329254, -0.29844364523887634, -0.1568843573331833, 0.1657402664422989, 0.021833980455994606, 0.07842171937227249, 0.008627976290881634, -0.047442566603422165, -0.09218007326126099, 0.13078419864177704, -0.04721837863326073, -0.05496198311448097, 0.03888058289885521, 0.4368382394313812, -0.2833769917488098, -0.03927178308367729, -0.38474467396736145, -0.09272509068250656], [-0.4495900869369507, 0.1832914501428604, 0.05911925062537193, 0.056993693113327026, 0.09248457849025726, 0.012723290361464024, 0.09153181314468384, -0.1030263900756836, 0.10720108449459076, -0.1567009836435318, 0.0344180129468441, 0.09331640601158142, -0.11808554083108902, -0.03516506031155586, -0.06903742998838425, 0.08955240249633789, 0.009805095382034779, 0.19240863621234894, -0.3444696068763733, -0.024468932300806046, 0.20121252536773682, 0.1754472255706787, 0.06252893805503845, -0.1299852579832077, 0.10402978211641312, 0.35720911622047424, -0.012217977084219456, 0.20499391853809357, 0.1569105088710785, -0.3268328607082367, 0.2698708474636078, -0.09254807233810425, -0.07264461368322372, -0.08521082252264023, 0.09651776403188705, 0.1434078961610794, 0.3869226574897766, 0.10030177235603333, -0.11947528272867203, 0.3470883071422577, 0.07233437895774841, 0.04049227759242058, 0.12604758143424988, -0.13162565231323242, -0.10395921766757965, 0.09729059040546417, 0.014125826768577099, -0.019007669761776924, -0.09128541499376297, 0.18959717452526093, -0.2230108380317688, -0.10322628915309906, 0.5065529346466064, 0.04290753975510597, 0.10540516674518585, 0.22930273413658142, -0.32788822054862976, -0.03834568336606026, 0.07104174792766571, 0.011913069523870945, 0.019946862012147903, -0.005728536285459995, -0.24603573977947235, -0.11939022690057755], [-0.03309207037091255, 0.058479778468608856, 0.12357311695814133, -0.04056038334965706, -0.1126793771982193, 0.25320541858673096, -0.2577258348464966, -0.05669306218624115, -0.25012683868408203, -0.11119534075260162, 0.07933130860328674, 0.18326105177402496, 0.2482944130897522, -0.14125925302505493, 0.29386964440345764, -0.12467226386070251, -0.1411827951669693, 0.009569293819367886, 0.17991110682487488, 0.0744771957397461, -0.08890285342931747, 0.05551369860768318, -0.21522313356399536, -0.1547948718070984, -0.18530912697315216, -0.13176268339157104, -0.28949084877967834, 0.37407612800598145, 0.1453235149383545, -0.010142195969820023, 0.29399678111076355, -0.06549349427223206, 0.21111717820167542, 0.16533012688159943, 0.051991056650877, 0.5056232810020447, 0.1098756343126297, -0.09567946940660477, 0.20079974830150604, -0.0424191839993, -0.0317295603454113, -0.021429963409900665, 0.2984883189201355, 0.16662392020225525, -0.061290889978408813, 0.26243269443511963, 0.01692374050617218, -0.08898942172527313, 0.21319355070590973, 0.06581773608922958, 0.1278316080570221, -0.035379160195589066, -0.1448146551847458, 0.12494639307260513, -0.09995087236166, 0.06707049161195755, -0.08486545830965042, -0.0599222369492054, 0.10735432058572769, 0.0725993886590004, -0.22594162821769714, -0.41844573616981506, 0.20555837452411652, 0.0038690122310072184], [-0.17520427703857422, -0.050867706537246704, -0.1627267599105835, -0.13914120197296143, -0.023835839703679085, 0.5799643993377686, -0.3067156672477722, 0.03854023292660713, -0.2411721646785736, -0.06923005729913712, -0.2667023539543152, 0.10750792920589447, -0.1317361742258072, -0.2078145146369934, 0.1273418813943863, 0.09586973488330841, 0.2308950573205948, -0.06891117990016937, -0.19171757996082306, 0.052719030529260635, 0.008886829949915409, 0.2102673500776291, -0.19483889639377594, -0.1483170986175537, 0.1358867883682251, -0.1456582099199295, 0.04981520399451256, 0.12853512167930603, 0.04094972461462021, 0.03582106903195381, -0.05005969852209091, -0.07726533710956573, -0.13660448789596558, 0.1544695496559143, -0.301035076379776, -0.43927299976348877, -0.0350678488612175, -0.05148699879646301, -0.03558996319770813, 0.2604169547557831, 0.08577389270067215, -0.26611337065696716, -0.11442520469427109, -0.29362329840660095, -0.26115846633911133, 0.08792310208082199, -0.08935842663049698, 0.10136228054761887, 0.124073326587677, -0.04428080469369888, -0.03854627534747124, -0.27115145325660706, -0.12538842856884003, -0.04713468998670578, -0.06520253419876099, -0.17696209251880646, 0.1240910068154335, 0.17924878001213074, -0.05305727571249008, 0.10188601166009903, -0.23437084257602692, 0.22384734451770782, -0.0190848670899868, -0.045641832053661346], [-0.34385156631469727, -0.05793435126543045, -0.3457343876361847, 0.08705374598503113, -0.2735784649848938, -0.08436710387468338, -0.1528443694114685, 0.11493682116270065, -0.03193061053752899, -0.12131296098232269, -0.19593486189842224, 0.005310023203492165, 0.03288131207227707, 0.04479889199137688, 0.015435028821229935, 0.18286001682281494, -0.16430212557315826, -0.0627405121922493, -0.12909895181655884, 0.061285100877285004, 0.27866119146347046, 0.16534985601902008, 0.0031977365724742413, 0.249052956700325, -0.06940894573926926, 0.15920786559581757, 0.43969470262527466, -0.06699822843074799, -0.09502177685499191, -0.26337525248527527, 0.08308577537536621, 0.1805271953344345, -0.02929616905748844, 0.06586757302284241, -0.10220587253570557, 0.31056228280067444, -0.1990167200565338, -0.5117601752281189, 0.05687988921999931, -0.1089281514286995, 0.060305286198854446, -0.1252570003271103, -0.33086860179901123, 0.10578711330890656, -0.046976495534181595, -0.10714437812566757, -0.05353394150733948, 0.03386763110756874, 0.2111465185880661, 0.14889812469482422, 0.20034757256507874, -0.07467137277126312, -0.0842192992568016, -0.0735519677400589, 0.09431462734937668, -0.08971358835697174, -0.1350225955247879, -0.13679571449756622, 0.054453905671834946, 0.11160241812467575, 0.32749512791633606, -0.16136178374290466, 0.12994007766246796, 0.21620173752307892], [0.1347663849592209, 0.18541590869426727, 0.11475542187690735, 0.06405914574861526, -0.14545877277851105, -0.061360131949186325, -0.13595522940158844, -0.13264967501163483, -0.2851390540599823, 0.08075987547636032, -0.004024004563689232, -0.0033885480370372534, 0.0018322920659556985, -0.07229731976985931, 0.06917797774076462, -0.0386960543692112, -0.3387385308742523, 0.0032401166390627623, 0.0982014611363411, 0.08873981237411499, 0.1663636565208435, 0.025566846132278442, 0.04466720297932625, 0.12978175282478333, -0.22393454611301422, 0.03640143200755119, -0.06214604899287224, 0.05255049094557762, 0.2731216549873352, -0.2182842493057251, 0.16388115286827087, 0.268787145614624, -0.008086007088422775, -0.2933834493160248, -0.012085740454494953, -0.13031336665153503, -0.1433892846107483, -0.06640654057264328, 0.10357871651649475, -0.06944853812456131, 0.052765630185604095, -0.06931943446397781, -0.10817257314920425, 0.2268276959657669, 0.08882682025432587, -0.058723680675029755, -0.06887424737215042, -0.0800875872373581, -0.13164936006069183, -0.11271204799413681, -0.32647785544395447, -0.26130619645118713, 0.4495270252227783, -0.0026156110689044, -0.304434597492218, -0.05395472049713135, 0.40291088819503784, 0.4649362862110138, 0.1693996787071228, -0.08773098140954971, -0.07749783247709274, 0.16734564304351807, -0.07059284299612045, 0.3426930606365204], [0.0045065004378557205, -0.165694460272789, 0.020965132862329483, -0.21054968237876892, 0.14795349538326263, -0.28607359528541565, 0.13474306464195251, -0.5760168433189392, 0.06701966375112534, -0.1298716515302658, -0.1681520789861679, -0.03284192830324173, -0.0046980478800833225, -0.39936596155166626, 0.15446048974990845, -0.08917875587940216, -0.09096784889698029, 0.5693922638893127, 0.1172245442867279, -0.10665734112262726, 0.27804556488990784, 0.03335417062044144, -0.02670392580330372, 0.11869800835847855, 0.15202435851097107, 0.13915100693702698, -0.008685384877026081, 0.18776193261146545, -0.09382843971252441, -0.04500206559896469, -0.007632151246070862, -0.0619761161506176, 0.05777663365006447, 0.20712804794311523, -0.3767921030521393, -0.10597090423107147, 0.04123025760054588, 0.12090723216533661, -0.24561478197574615, -0.14437881112098694, -0.2696722745895386, -0.07590241730213165, -0.14028050005435944, -0.06526437401771545, 0.07443556934595108, 0.08499019593000412, -0.013132083229720592, -0.08945870399475098, -0.02119259350001812, 0.012368103489279747, 0.1825636476278305, 0.09535646438598633, 0.004022832494229078, -0.054924387484788895, -0.019954456016421318, 0.06636693328619003, 0.30163463950157166, -0.10720296949148178, 0.14432311058044434, 0.18473650515079498, -0.012920964509248734, -0.013753117062151432, 0.23919665813446045, 0.05021508038043976], [0.025490421801805496, 0.04305355250835419, -0.08406811952590942, -0.18394672870635986, 0.007321645505726337, -0.002949216403067112, 0.09654980152845383, 0.21823357045650482, -0.1988646686077118, -0.0770459994673729, -0.1606149971485138, -0.09271645545959473, 0.15721283853054047, 0.137587308883667, -0.01797730289399624, 0.44495889544487, 0.33856716752052307, 0.11379778385162354, 0.4176538586616516, 0.04228074848651886, 0.1759594976902008, 0.1666439324617386, 0.21505357325077057, 0.055214814841747284, 0.2433713674545288, -0.17556534707546234, -0.03836553171277046, 0.15254873037338257, 0.09873607009649277, -0.17961958050727844, 0.13690829277038574, -0.4077855050563812, 0.05011385679244995, 0.29573854804039, 0.22506381571292877, -0.038410380482673645, 0.08111802488565445, -0.11177089810371399, 0.08776520192623138, -0.2913709878921509, 0.015357278287410736, -0.12875838577747345, 0.013971279375255108, 0.04615689814090729, 0.07754075527191162, -0.33968865871429443, 0.2539750337600708, -0.1776326596736908, -0.21270295977592468, -0.3125421106815338, -0.0036385899875313044, -0.14204055070877075, 0.1360618621110916, -0.17669141292572021, 0.10647523403167725, 0.20154350996017456, -0.08292406052350998, 0.16694943606853485, -0.019493496045470238, -0.10262130200862885, -0.019623640924692154, 0.015362720936536789, 0.12823742628097534, -0.07859738916158676], [0.3121097981929779, -0.3106755018234253, 0.06065204367041588, -0.012931253761053085, 0.16626590490341187, -0.06377857178449631, -0.18129797279834747, -0.18567430973052979, 0.005130219738930464, -0.17394913733005524, 0.1126142367720604, -0.3356477916240692, -0.04151095077395439, -0.26226484775543213, 0.28863561153411865, 0.2896157503128052, 0.06730154156684875, -0.4818018078804016, -0.18094472587108612, 0.012169281020760536, 0.10189220309257507, 0.01554297748953104, 0.06573868542909622, 0.049579013139009476, 0.0656944066286087, 0.19997231662273407, 0.05292302742600441, -0.03915858268737793, -0.005618198309093714, -0.13281351327896118, -0.30805787444114685, 0.008384167216718197, 0.09864211827516556, -0.081084705889225, 0.10670821368694305, 0.2373102754354477, 0.09171033650636673, 0.11709699034690857, 0.0438971109688282, 0.03545446693897247, -0.07050472497940063, -0.10017770528793335, -0.028344865888357162, -0.10930683463811874, -0.055017177015542984, -0.0870523676276207, -0.20646579563617706, 0.10064883530139923, 0.3359692692756653, -0.26208242774009705, 0.04934423416852951, 0.2697179913520813, 0.1552312970161438, 0.02904522605240345, 0.15407055616378784, 0.2616361975669861, -0.13709253072738647, 0.4523359537124634, -0.08467482775449753, 0.1030619814991951, -0.16186906397342682, -0.12003098428249359, 0.012942285276949406, 0.07300004363059998], [0.019692417234182358, 0.0650988444685936, 0.3298315405845642, -0.010298864915966988, -0.07867348939180374, -0.0341375395655632, -0.24838456511497498, 0.23598237335681915, -0.03732150048017502, -0.17969101667404175, 0.10273128002882004, 0.010470808483660221, -0.4681267738342285, 0.021503202617168427, 0.11858072876930237, 0.18642522394657135, -0.08633578568696976, 0.36744019389152527, 0.07673379778862, 0.20765267312526703, -0.011087813414633274, 0.026350246742367744, -0.24176177382469177, 0.25100046396255493, -0.1718752384185791, 0.1859941929578781, 0.08608019351959229, -0.21716004610061646, 0.2053462564945221, 0.1581754833459854, 0.012638264335691929, -0.3729499876499176, 0.09637586027383804, -0.12769624590873718, -0.21532708406448364, 0.10123822093009949, 0.14276623725891113, 0.03409983590245247, 0.1218777447938919, 0.20341333746910095, 0.006635257042944431, 0.15488779544830322, 0.04681389406323433, 0.027062974870204926, 0.21396049857139587, -0.04947516322135925, 0.3689803183078766, -0.0864238366484642, 0.26988932490348816, -0.15970399975776672, -0.033288635313510895, 0.05585132911801338, -0.1938585638999939, -0.17298895120620728, 0.2377767562866211, -0.07061420381069183, 0.2070310413837433, 0.004411779344081879, -0.20573459565639496, 0.14439745247364044, 0.10661852359771729, 0.06312122941017151, -0.2652492821216583, 0.08908356726169586], [0.19797708094120026, 0.38649463653564453, 0.13996852934360504, -0.019532309845089912, -0.0830925926566124, 0.3494165539741516, -0.13953232765197754, -0.3697959780693054, -0.03544141724705696, -0.23205244541168213, 0.17270994186401367, 0.12043767422437668, 0.10990260541439056, 0.05719589442014694, -0.026317883282899857, 0.39678189158439636, -0.13016538321971893, 0.02666877582669258, -0.09444042295217514, 0.14939190447330475, -0.07112305611371994, -0.21737957000732422, 0.15809330344200134, 0.23555658757686615, 0.2221519500017166, 0.14388465881347656, 0.21382686495780945, -0.11532030999660492, -0.09527582675218582, 0.19417589902877808, 0.05021686851978302, 0.2332233190536499, 0.4680641293525696, 0.15926696360111237, -0.06292787939310074, -0.25545865297317505, 0.02777373045682907, 0.03301601856946945, -0.02291063591837883, -0.18831764161586761, 0.0643511489033699, -0.0020047517027705908, 0.02334243804216385, 0.10896419733762741, -0.33826905488967896, -0.042016465216875076, 0.04305989667773247, -0.10755118727684021, -0.042746156454086304, 0.006546743679791689, -0.16759376227855682, -0.023674853146076202, -0.06243535876274109, 0.38365307450294495, 0.13183973729610443, 0.1568700075149536, -0.08685778081417084, -0.24318136274814606, -0.04595401510596275, -0.11594846844673157, 0.0921747237443924, 0.07249272614717484, 0.008999194949865341, 0.03881838545203209], [-0.05098707601428032, -0.091921865940094, 0.11752165108919144, -0.05709343031048775, 0.0722317025065422, 0.0007898470503278077, 0.08272421360015869, 0.025109533220529556, -0.11793865263462067, -0.4218066930770874, -0.2922024428844452, 0.052694883197546005, -0.014071526005864143, -0.2208654284477234, -0.0281151682138443, 0.005066453944891691, 0.01388754416257143, -0.09377667307853699, -0.026350082829594612, 0.17891627550125122, -0.31721246242523193, -0.2494092881679535, 0.18174120783805847, 0.22553220391273499, -0.04899261146783829, -0.08908399939537048, -0.06635270267724991, 0.13939830660820007, 0.13242261111736298, 0.008169334381818771, 0.032558828592300415, 0.0954255536198616, -0.37668323516845703, 0.30936333537101746, -0.06910139322280884, 0.2710181176662445, 0.048722825944423676, 0.12049204111099243, -0.09423943608999252, -0.014874602667987347, -0.05880427360534668, 0.18618495762348175, -0.0595942959189415, 0.02556539513170719, 0.10319008678197861, -0.19637027382850647, 0.08966703712940216, 0.4123328626155853, -0.022673487663269043, -0.2468099147081375, -0.3162994980812073, 0.027413390576839447, -0.08601737767457962, 0.30975213646888733, -0.16689814627170563, -0.2546943426132202, -0.09951120615005493, 0.0496831089258194, 0.34317436814308167, 0.08432825654745102, 0.36450502276420593, 0.07738209515810013, -0.08820053189992905, -0.15955474972724915], [0.05111198127269745, 0.058706317096948624, 0.01649342104792595, 0.23932227492332458, -0.171259805560112, 0.22944407165050507, -0.12922608852386475, -0.16463547945022583, 0.21414725482463837, 0.5021730065345764, -0.0472240187227726, 0.23149912059307098, 0.07202281802892685, -0.1823805570602417, 0.15358026325702667, -0.22576357424259186, 0.07982084155082703, 0.1653226912021637, 0.014023550786077976, 0.026543671265244484, 0.1421549767255783, 0.1032247319817543, 0.30518877506256104, 0.22836652398109436, 0.1194131076335907, 0.15716378390789032, 0.10003293305635452, 0.3105947971343994, 0.054260969161987305, 0.40397846698760986, -0.042928699404001236, -0.11697619408369064, -0.3333554267883301, -0.16901342570781708, -0.003139265812933445, 0.1232260912656784, -0.011441831476986408, 0.2802080512046814, 0.26330801844596863, -0.061947617679834366, 0.019924556836485863, 0.1616721898317337, -0.1377200037240982, 0.06046438589692116, -0.04420408979058266, -0.4044610857963562, 0.0670822262763977, -0.019046733155846596, 0.029795734211802483, -0.027517598122358322, 0.17134414613246918, -0.10721924155950546, 0.010078180581331253, 0.10780075937509537, 0.15868443250656128, -0.14020715653896332, -0.3526720404624939, 0.12955595552921295, -0.061147309839725494, 0.032872796058654785, -0.09534987062215805, 0.04751988500356674, 0.08248909562826157, 0.12815667688846588], [0.19063107669353485, -0.4043389856815338, 0.2795912027359009, -0.2537149488925934, 0.008295834064483643, 0.24552129209041595, 0.14506885409355164, -0.019288210198283195, -0.09606686234474182, -0.036876365542411804, -0.03450484946370125, 0.27836862206459045, 0.07668820023536682, 0.31238847970962524, 0.15896393358707428, -0.1106453612446785, -0.12411128729581833, -0.13065287470817566, 0.12225466966629028, -0.16513203084468842, 0.06104690581560135, 0.2788018584251404, -0.0961102619767189, 0.046984873712062836, -0.28297168016433716, 0.034088388085365295, 0.0501798577606678, -0.16505064070224762, 0.0617595873773098, -0.32767945528030396, -0.176536425948143, -0.13797913491725922, -0.13540208339691162, 0.09086265414953232, -0.2857956290245056, 0.038420598953962326, -0.11475466936826706, 0.25370171666145325, 0.24204178154468536, -0.09881599247455597, -0.18634991347789764, 0.00014013299369253218, 0.028254840523004532, -0.019227508455514908, -0.16561883687973022, 0.09932836890220642, -0.18426281213760376, -0.01492420956492424, -0.1791890561580658, -0.08060681819915771, -0.0619446337223053, -0.11207858473062515, 0.3409835696220398, 0.11788048595190048, 0.315059095621109, -0.13550126552581787, -0.10983600467443466, -0.3232344090938568, -0.20232358574867249, -0.1472865790128708, 0.23313064873218536, 0.052873916923999786, 0.030826900154352188, 0.05080997571349144], [-0.26666781306266785, 0.11682842671871185, 0.022719666361808777, -0.27927839756011963, -0.031832192093133926, -0.019732389599084854, 0.05523471534252167, 0.16053396463394165, -0.13215860724449158, -0.213700070977211, -0.025584032759070396, 0.05732728913426399, 0.10469412803649902, 0.09703369438648224, -0.033362265676259995, -0.30747121572494507, 0.30019327998161316, 0.0122662503272295, -0.04576563835144043, 0.08778458833694458, 0.09436958283185959, -0.17886003851890564, -0.11070965230464935, 0.12118325382471085, 0.035542119294404984, -0.17263124883174896, 0.2942260503768921, 0.23738974332809448, -0.07069628685712814, 0.1923699676990509, -0.24224984645843506, 0.16865290701389313, 0.27935948967933655, -0.5577482581138611, -0.05823524668812752, -0.05836687609553337, 0.30689454078674316, -0.052930139005184174, 0.08842062205076218, -0.03793872520327568, -0.04049690440297127, -0.01976150833070278, 0.11952101439237595, 0.075645811855793, 0.07518146187067032, -0.12553463876247406, -0.27166640758514404, 0.028798488900065422, -0.15657860040664673, -0.27249571681022644, -0.18801884353160858, 0.05371705815196037, 0.1939859390258789, -0.04368586093187332, 0.21906334161758423, -0.13527394831180573, 0.07759515196084976, -0.04767536744475365, -0.034671273082494736, 0.3812313377857208, 0.0026678151916712523, -0.20835766196250916, 0.2843869626522064, -0.100808285176754], [-0.2921160161495209, -0.28047508001327515, -0.05690149962902069, 0.051770806312561035, -0.3374546468257904, -0.20858699083328247, -0.2158452570438385, -0.32259923219680786, -0.19986486434936523, -0.1302192658185959, 0.009867701679468155, 0.006723503582179546, 0.018447505310177803, 0.23901548981666565, 0.21595041453838348, -0.07264397293329239, -0.03253933787345886, -0.026865465566515923, -0.030257917940616608, 0.12967655062675476, -0.3186641037464142, 0.11708653718233109, 0.23585619032382965, -0.17328688502311707, 0.2285291850566864, 0.15395167469978333, 0.042671140283346176, -0.13756482303142548, 0.10429634898900986, -0.1484680026769638, -0.1967264860868454, 0.1663922816514969, -0.08223427087068558, -0.24864119291305542, -0.08700942993164062, -0.0759352520108223, -0.12796272337436676, 0.10378751158714294, 0.32577309012413025, -0.1538752168416977, 0.12814022600650787, 0.027860667556524277, -0.014598066918551922, -0.28021112084388733, 0.3170306086540222, 0.04674492031335831, 0.38800227642059326, -0.06933190673589706, -0.15670554339885712, 0.006212214939296246, -0.03276342153549194, -0.11986289918422699, -0.16545961797237396, 0.11435534805059433, 0.0046876356936991215, 0.25376057624816895, 0.0649033635854721, -0.0748295783996582, 0.07923491299152374, -0.0006835850072093308, -0.199876070022583, -0.06286703795194626, 0.0498923733830452, -0.37279176712036133], [-0.13108982145786285, -0.1446712613105774, 0.14336539804935455, 0.15685290098190308, -0.0774289146065712, -0.0029403590597212315, -0.01613473705947399, 0.07230408489704132, -0.03473401442170143, -0.10266680270433426, 0.18863272666931152, 0.11721096187829971, -0.034514401108026505, -0.1159546822309494, 0.2034483700990677, 0.18639476597309113, 0.06922055035829544, 0.06222695857286453, 0.40757593512535095, -0.23931457102298737, -0.17460766434669495, -0.061290204524993896, -0.03138081356883049, -0.08448512852191925, 0.029960956424474716, -0.16547876596450806, -0.09050688147544861, -0.05595926567912102, -0.2867792546749115, 0.10600045323371887, 0.3369212746620178, -0.02042851224541664, -0.2344404011964798, -0.3199779689311981, -0.17273887991905212, 0.13570444285869598, 0.13581548631191254, -0.32569003105163574, -0.0025537004694342613, -0.27509409189224243, 0.15128490328788757, 0.021506596356630325, -0.32467004656791687, -0.05418891832232475, -0.26816660165786743, 0.09887706488370895, -0.03394610434770584, 0.21351028978824615, -0.1479201316833496, 0.14676912128925323, -0.08318866789340973, 0.4172810912132263, 0.17609648406505585, 0.1351117491722107, 0.0905807837843895, 0.1657869815826416, -0.01411906722933054, 0.02123800292611122, -0.1262121945619583, 0.20041131973266602, -0.15107642114162445, 0.41900697350502014, -0.027787838131189346, 0.026510581374168396]], "mlp_extractor.policy_net.2.bias": [0.0, 0.0, 0.0, 0.0, 0.0, 0.0, 0.0, 0.0, 0.0, 0.0, 0.0, 0.0, 0.0, 0.0, 0.0, 0.0, 0.0, 0.0, 0.0, 0.0, 0.0, 0.0, 0.0, 0.0, 0.0, 0.0, 0.0, 0.0, 0.0, 0.0, 0.0, 0.0, 0.0, 0.0, 0.0, 0.0, 0.0, 0.0, 0.0, 0.0, 0.0, 0.0, 0.0, 0.0, 0.0, 0.0, 0.0, 0.0, 0.0, 0.0, 0.0, 0.0, 0.0, 0.0, 0.0, 0.0, 0.0, 0.0, 0.0, 0.0, 0.0, 0.0, 0.0, 0.0], "mlp_extractor.value_net.0.weight": [[0.1813088208436966, 0.03229866549372673, -0.3267136216163635, 0.15934216976165771, 0.03126051276922226, 0.03134138509631157, 0.06007269769906998, -0.015087365172803402], [-0.11516453325748444, 0.09657537192106247, 0.058953456580638885, -0.28580719232559204, -0.0655730813741684, 0.24909722805023193, 